<?xml version="1.0" encoding="ISO-8859-1"?>
<!-- This file was created by ACADEMIC version of SMILE -->
<smile version="1.0" id="Network2" numsamples="10000" discsamples="10000">
	<nodes>
		<cpt id="p1_imas" target="true" dynamic="plate">
			<state id="very_high" />
			<state id="high" />
			<state id="medium" />
			<state id="low" />
			<state id="very_low" />
			<probabilities>0.03726901397862377 0.05776990098222795 0.1590922405978914 0.4768667904640848 0.2690020539771721</probabilities>
		</cpt>
		<cpt id="p2_imas" target="true" dynamic="plate">
			<state id="very_high" />
			<state id="high" />
			<state id="medium" />
			<state id="low" />
			<state id="very_low" />
			<probabilities>0.03766563809388844 0.05856919794654129 0.1585953803227777 0.4749000878794608 0.2702696957573317</probabilities>
		</cpt>
		<cpt id="p1_wti" dynamic="plate">
			<state id="very_high" />
			<state id="high" />
			<state id="medium" />
			<state id="low" />
			<state id="very_low" />
			<parents>p1_imas</parents>
			<probabilities>0.999981451855974 4.637036006584593e-06 4.637036006584593e-06 4.637036006584593e-06 4.637036006584593e-06 0.2728132104822306 0.7271778150053848 2.991504128275698e-06 2.991504128275698e-06 2.991504128275698e-06 0.04090531358459205 0.9519164860710539 0.00717602776555702 1.086289398358616e-06 1.086289398358616e-06 0.02354606125070896 0.3821042541355373 0.3014411185384779 0.2929082036664897 3.624087862386136e-07 6.424505634291442e-07 6.424505634291442e-07 0.01043725185346987 0.2434604957148547 0.7461009675305486</probabilities>
		</cpt>
		<cpt id="p2_wti" dynamic="plate">
			<state id="very_high" />
			<state id="high" />
			<state id="medium" />
			<state id="very_low" />
			<state id="low" />
			<parents>p2_imas</parents>
			<probabilities>0.9999816471667816 4.588208304657033e-06 4.588208304657033e-06 4.588208304657033e-06 4.588208304657033e-06 0.2803027397058173 0.7196884082560011 2.950679393930453e-06 2.950679393930453e-06 2.950679393930453e-06 0.04297856574660287 0.948104479726269 0.008914775141932459 1.089692597718183e-06 1.089692597718183e-06 0.02196230987996441 0.3813248857778659 0.3011173845087311 3.639096266833095e-07 0.2955950559238119 6.394372951802415e-07 6.394372951802415e-07 0.009918311885540723 0.7456804412117337 0.2443999680281352</probabilities>
		</cpt>
		<cpt id="p1_approach" dynamic="plate">
			<state id="y" />
			<state id="m" />
			<state id="n" />
			<parents>p1_wti</parents>
			<probabilities>0.7403540370854508 0.178089622060576 0.0815563408539732 0.5250093035529134 0.1683887108723003 0.3066019855747862 0.3510181108518843 0.2690752061274577 0.3799066830206581 0.3508425269720392 0.08646592442164189 0.5626915486063189 0.0002824770271146018 0.01898770277876798 0.9807298201941174</probabilities>
		</cpt>
		<cpt id="p2_head" dynamic="plate">
			<state id="central" />
			<state id="mid_peripheral" />
			<state id="outside" />
			<parents>p2_wti</parents>
			<probabilities>0.9999999398613912 3.006930433401511e-08 3.006930433401511e-08 0.9987059515477122 0.001194216301035375 9.983215125229722e-05 0.9854444572944709 0.01310796609452433 0.001447576611004766 0.06865253286050231 0.1890845209609271 0.7422629461785706 0.4690770026566204 0.2975169688353602 0.2334060285080194</probabilities>
		</cpt>
		<cpt id="p1_body" dynamic="plate">
			<state id="strongly_facing" />
			<state id="slightly_facing" />
			<state id="turned_away" />
			<parents>p1_wti</parents>
			<probabilities>0.3777097011898266 0.5840575684894399 0.03823273032073349 0.2820292840881347 0.5603031816251191 0.1576675342867463 0.1155744152242835 0.6041770546573888 0.2802485301183277 0.08050448628225265 0.76989395528534 0.1496015584324074 0.001589931029352845 0.3534647509486301 0.644945318022017</probabilities>
		</cpt>
		<cpt id="p2_approach" dynamic="plate">
			<state id="y" />
			<state id="m" />
			<state id="n" />
			<parents>p2_wti</parents>
			<probabilities>0.7409518606675036 0.1790724798329686 0.0799756594995277 0.5245078164856318 0.1704815990189257 0.3050105844954424 0.3548201897048938 0.2734544012428433 0.371725409052263 0.0002324324377916694 0.0193151269591065 0.9804524406031018 0.3513652651262578 0.08843902332507179 0.5601957115486704</probabilities>
		</cpt>
		<cpt id="p2_body" dynamic="plate">
			<state id="strongly_facing" />
			<state id="slightly_facing" />
			<state id="turned_away" />
			<parents>p2_wti</parents>
			<probabilities>0.3804521737791697 0.5801051078546856 0.03944271836614466 0.2811842575877511 0.5635700134922043 0.1552457289200446 0.114382640199619 0.6107472644117078 0.2748700953886734 0.001559392328841551 0.3590949687817631 0.6393456388893953 0.08243657393006715 0.7730980710978187 0.1444653549721142</probabilities>
		</cpt>
		<cpt id="dist" dynamic="plate">
			<state id="range_0_3" />
			<state id="range_3_6" />
			<state id="range_6_9" />
			<state id="range_9_12" />
			<state id="range_12_15" />
			<state id="range_15_18" />
			<state id="range_18_21" />
			<state id="range_21_24" />
			<state id="range_24_27" />
			<state id="range_27_30" />
			<state id="range_30_inf" />
			<parents>p1_wti p2_wti</parents>
			<probabilities>0.1111111111111111 0.1111111111111111 0.1111111111111111 0.1111111111111111 0.1111111111111111 0.1111111111111111 0.1111111111111111 0.1111111111111111 0.1111111111111111 0 0 0.03412386470002168 0.1357637504731741 0.2181938424236903 0.2688219387037099 0.2001325081805169 0.0940537557792806 0.04290873138943434 0.006001597568032386 1.078213941194125e-08 0 0 2.768482597456816e-07 2.768482597456816e-07 2.768482597456816e-07 0.01718258724111573 0.6897320025791184 0.2930837490902073 2.768482597456816e-07 2.768482597456816e-07 2.768482597456816e-07 0 0 9.837891228339424e-07 9.837891228339424e-07 9.837891228339424e-07 9.837891228339424e-07 0.7315268997459857 0.2684662137301546 9.837891228339424e-07 9.837891228339424e-07 9.837891228339424e-07 0 0 6.566307227009058e-07 6.566307227009058e-07 0.002813662646773382 0.1192461091346526 0.3711283411012747 0.5016435466989203 0.005165713895488026 6.566307227009058e-07 6.566307227009058e-07 0 0 0.034102219179797 0.1359494341661036 0.2184346380216881 0.2692241746232338 0.2022351028200213 0.09197610595122849 0.04224537822097124 0.005832936326776135 1.0690179931229e-08 0 0 0.02129271281144362 0.08801925022610732 0.1656941861028619 0.2610856380356576 0.1805581940409798 0.2277428383532633 0.05425902042841397 0.001348154890404752 5.110867649819744e-09 0 0 0.009216000444070621 0.04272844185124888 0.07270707709304201 0.2618443188618628 0.1060473735912333 0.222371187283468 0.1773203396010414 0.106700861086826 0.001064400187207205 0 0 1.156086337915019e-07 1.156086337915019e-07 0.0004995449066130796 0.8986596681824114 0.007946243835025091 0.0138530357613343 0.07727743517159152 0.001763725317123153 1.156086337915019e-07 0 0 4.777560828740544e-08 4.777560828740544e-08 0.0005452630173841584 0.1399221439132227 0.001089188317736269 0.04459332279498966 0.08040338665998956 0.2650774206121078 0.3137451906086722 0.1325225621504527 0.02210142637422835 2.726318515792199e-07 2.726318515792199e-07 2.726318515792199e-07 0.01130686078054499 0.6940525361577993 0.2946389672705462 2.726318515792199e-07 2.726318515792199e-07 2.726318515792199e-07 0 0 0.009221686374369811 0.0428287540323089 0.0736061576696183 0.2644705512715396 0.1073507380896824 0.2164005719399568 0.1806887566331539 0.1038263164318374 0.001606467557532936 0 0 7.286915825264713e-08 7.286915825264713e-08 7.286915825264713e-08 0.06323906177461031 0.1018296206861549 0.5335404712025823 0.2927211653643855 0.008669389495633935 7.286915825264713e-08 0 0 1.241225004676315e-07 1.241225004676315e-07 1.241225004676315e-07 0.003266531844806659 0.2359924965466017 0.4855989971894942 0.2531031556035661 0.02203832232552937 1.241225004676315e-07 0 0 1.634292156198453e-07 1.634292156198453e-07 1.634292156198453e-07 0.2425395788788658 0.0009885833252844443 0.1542127884341798 0.252863565858787 0.1967177856910204 0.02418556276114966 0.03828067889149885 0.09021096587156717 6.227747479786286e-07 6.227747479786286e-07 0.0002640564931429386 0.0914345429487263 0.3514043881954291 0.5488115278096948 0.008082993454014621 6.227747479786286e-07 6.227747479786286e-07 0 0 4.856698496982946e-08 4.856698496982946e-08 0.001407519791410628 0.1325405647242738 0.001385227545309476 0.04843148308176363 0.07712116671108118 0.2706917332532172 0.3134784213728925 0.1336407040678104 0.02130308231827121 1.706298870532526e-07 1.706298870532526e-07 1.706298870532526e-07 0.2421690266486345 0.002672234661140988 0.1599216672314516 0.2346949257060409 0.1977283019357278 0.02711547787118057 0.04133253069034463 0.09436532336581785 2.068453396710745e-07 2.068453396710745e-07 2.068453396710745e-07 0.5683156377145245 0.03115049446378448 0.1902267645458814 0.1374352832643504 0.04864402537578627 0.02384368283990378 0.0003834912597501722 0 1.226720976057719e-07 1.226720976057719e-07 0.001943248698173032 0.4111225318833982 0.01127687791660579 0.05878189305863616 0.3131061765033128 0.2037689039235812 1.226720976057719e-07 0 0 1.05032859530104e-06 1.05032859530104e-06 1.05032859530104e-06 1.05032859530104e-06 0.7545361066209565 0.2454565410788765 1.05032859530104e-06 1.05032859530104e-06 1.05032859530104e-06 0 0 1.155758044364928e-07 1.155758044364928e-07 0.0001821474677919127 0.891459179203752 0.01038217451253015 0.01300655430386959 0.0827809387760291 0.002188659008613865 1.155758044364928e-07 0 0 1.230980277603286e-07 1.230980277603286e-07 1.230980277603286e-07 0.003099977633088356 0.2551708865286073 0.4617455029520753 0.2606205593155848 0.01936258117853313 1.230980277603286e-07 0 0 2.125985248000963e-08 2.125985248000963e-08 2.125985248000963e-08 0.2519134558177215 0.3026275795774881 0.1957618696679626 0.09510165557912212 0.04704235589779667 0.07257822376696312 0.03497479591338865 0 2.098055123880714e-07 2.098055123880714e-07 2.098055123880714e-07 0.5578212452838344 0.03195128148157939 0.1975828726528795 0.1372419680680206 0.05031073245412235 0.02493832242449572 0.000152948218530904 0</probabilities>
		</cpt>
		<cpt id="p1_gesture" dynamic="plate">
			<state id="wave_slow_shoulder" />
			<state id="wave_fast_shoulder" />
			<state id="wave_small_head" />
			<state id="wave_wide_head" />
			<state id="arm_raise_high" />
			<state id="arm_raise_low" />
			<state id="come_here" />
			<state id="i_am_coming" />
			<state id="None" />
			<parents>p1_wti</parents>
			<probabilities>0.02272245966012707 1.011148549897694e-08 0.001805425976867489 0.0192876284477182 0.01903946225663515 1.011148549897694e-08 0.02288581070999646 0.008042159960547308 0.9062170327651373 2.846102375924843e-09 0.02956871544911756 0.07640406235007709 0.007058988502899034 0.1067968838195821 0.0645923304855375 0.02528513214190077 2.846102350309921e-09 0.6902938815586813 1.560197609948881e-08 1.560197595907102e-08 1.560197595907102e-08 1.560197595907102e-08 0.1898114415375621 0.04379365481673162 1.560197595907102e-08 1.560197595907102e-08 0.7663948100338503 2.436482067333595e-08 2.436482045405256e-08 0.0637571074923015 2.436482045405256e-08 2.436482045405256e-08 2.436482045405256e-08 2.436482045405256e-08 2.436482045405256e-08 0.936242721953955 1.438200839224707e-08 1.4382008262809e-08 1.4382008262809e-08 1.4382008262809e-08 1.4382008262809e-08 1.4382008262809e-08 1.4382008262809e-08 1.4382008262809e-08 0.9999998849439338</probabilities>
		</cpt>
		<cpt id="p2_gesture" dynamic="plate">
			<state id="wave_slow_shoulder" />
			<state id="wave_fast_shoulder" />
			<state id="wave_small_head" />
			<state id="wave_wide_head" />
			<state id="arm_raise_high" />
			<state id="arm_raise_low" />
			<state id="come_here" />
			<state id="i_am_coming" />
			<state id="None" />
			<parents>p2_wti</parents>
			<probabilities>0.02244022066940326 1.002310144467171e-08 0.002609003282946601 0.01822669926099072 0.01859763419925513 1.002310144467171e-08 0.0229845352164576 0.009215740623303402 0.9059261467014404 2.855692418327104e-09 0.02981738969271918 0.07759423185998994 0.006787286945105873 0.1055900438956763 0.06511523008760731 0.0245094685036959 2.855692418327104e-09 0.6905863433038206 1.565167657081283e-08 1.565167657081283e-08 1.565167657081283e-08 1.565167657081283e-08 0.1925824544799551 0.04504219136368973 1.565167657081283e-08 1.565167657081283e-08 0.7623752602462958 1.436896870621102e-08 1.436896870621102e-08 1.436896870621102e-08 1.436896870621102e-08 1.436896870621102e-08 1.436896870621102e-08 1.436896870621102e-08 1.436896870621102e-08 0.9999998850482503 2.410157638288458e-08 2.410157638288458e-08 0.06407257061773931 2.410157638288458e-08 2.410157638288458e-08 2.410157638288458e-08 2.410157638288458e-08 2.410157638288458e-08 0.935927260671226</probabilities>
		</cpt>
		<cpt id="p1_head" dynamic="plate">
			<state id="central" />
			<state id="mid_peripheral" />
			<state id="outside" />
			<parents>p1_wti</parents>
			<probabilities>0.9999999393310863 3.033445680027538e-08 3.033445680027538e-08 0.9987025871540228 0.001170917825752533 0.0001264950202244746 0.9858896040054642 0.0124820645533322 0.00162833144120368 0.4688145766730574 0.3006049224588363 0.2305805008681064 0.06833519249556007 0.1790372361415614 0.7526275713628785</probabilities>
		</cpt>
	</nodes>
	<dynamic numslices="60">
		<cpt id="p1_imas" order="1">
			<parents>p1_imas</parents>
			<probabilities>0.9999998862503875 2.843740309066228e-08 2.843740309066228e-08 2.843740309066228e-08 2.843740309066228e-08 0.001595344690651771 0.9984045841214432 2.372930181987136e-08 2.372930181987136e-08 2.372930181987136e-08 0.005393401999753568 0.005112037560617609 0.9877916542378704 0.001702889606981755 1.659477671105632e-08 0.002082677697025359 0.002719886229381551 0.00471634300281927 0.9903244415189182 0.0001566515518555719 2.231898743217818e-08 2.231898743217818e-08 2.142622793489105e-06 0.02568582900530969 0.9743119837339219</probabilities>
		</cpt>
		<cpt id="p2_imas" order="1">
			<parents>p2_imas</parents>
			<probabilities>0.9999998868285395 2.829286510527775e-08 2.829286510527775e-08 2.829286510527775e-08 2.829286510527775e-08 0.001585603976005376 0.9984143256006993 2.347443188353678e-08 2.347443188353678e-08 2.347443188353678e-08 0.005423809593598891 0.005113388854678299 0.9877270950439744 0.001735689947559678 1.656018879277632e-08 0.002095539787318463 0.00276404189499042 0.004824582366363433 0.9901559113313573 0.0001599246199703972 2.227714776766272e-08 2.227714776766272e-08 2.227714776766272e-08 0.02582391474090006 0.9741760184276566</probabilities>
		</cpt>
		<cpt id="p1_wti" order="1">
			<parents>p2_imas p1_wti</parents>
			<probabilities>0.2 0.2 0.2 0.2 0.2 0.2 0.2 0.2 0.2 0.2 0.2 0.2 0.2 0.2 0.2 0.2 0.2 0.2 0.2 0.2 0.2 0.2 0.2 0.2 0.2 0.2 0.2 0.2 0.2 0.2 0.2 0.2 0.2 0.2 0.2 0.2 0.2 0.2 0.2 0.2 0.2 0.2 0.2 0.2 0.2 0.2 0.2 0.2 0.2 0.2 0.2 0.2 0.2 0.2 0.2 0.2 0.2 0.2 0.2 0.2 0.2 0.2 0.2 0.2 0.2 0.2 0.2 0.2 0.2 0.2 0.2 0.2 0.2 0.2 0.2 0.999999885913497 2.852162573837141e-08 2.852162573837141e-08 2.852162573837141e-08 2.852162573837141e-08 0.9999845291046221 3.867723844517502e-06 3.867723844517502e-06 3.867723844517502e-06 3.867723844517502e-06 0.9999820764439667 4.480889008379264e-06 4.480889008379264e-06 4.480889008379264e-06 4.480889008379264e-06 0.9999629732481716 9.256687957048966e-06 9.256687957048966e-06 9.256687957048966e-06 9.256687957048966e-06 0.2 0.2 0.2 0.2 0.2 0.999982883673164 4.279081709065236e-06 4.279081709065236e-06 4.279081709065236e-06 4.279081709065236e-06 0.9989596879063717 0.000260078023407022 0.000260078023407022 0.000260078023407022 0.000260078023407022 0.2 0.2 0.2 0.2 0.2 0.2 0.2 0.2 0.2 0.2 0.2 0.2 0.2 0.2 0.2 0.2 0.2 0.2 0.2 0.2 0.2 0.2 0.2 0.2 0.2 0.2 0.2 0.2 0.2 0.2 0.2 0.2 0.2 0.2 0.2 0.2 0.2 0.2 0.2 0.2 0.2 0.2 0.2 0.2 0.2 0.2 0.2 0.2 0.2 0.2 0.2 0.2 0.2 0.2 0.2 0.2 0.2 0.2 0.2 0.2 0.2 0.2 0.2 0.2 0.2 0.2 0.2 0.2 0.2 0.2 1.533544758037308e-07 0.999999386582097 1.533544758037308e-07 1.533544758037308e-07 1.533544758037308e-07 9.032199792259404e-06 0.9999638712008309 9.032199792259404e-06 9.032199792259404e-06 9.032199792259404e-06 0.2 0.2 0.2 0.2 0.2 0.2 0.2 0.2 0.2 0.2 0.9999995925564132 1.018608967222182e-07 1.018608967222182e-07 1.018608967222182e-07 1.018608967222182e-07 0.004939542464390388 0.9950603376059602 3.997654975591318e-08 3.997654975591318e-08 3.997654975591318e-08 0.2097448849286302 0.7902380884815121 5.675529952609326e-06 5.675529952609326e-06 5.675529952609326e-06 3.359086328518643e-05 0.9998656365468593 3.359086328518643e-05 3.359086328518643e-05 3.359086328518643e-05 0.2 0.2 0.2 0.2 0.2 0.999996231055163 9.422362091952829e-07 9.422362091952829e-07 9.422362091952829e-07 9.422362091952829e-07 0.009037069532792281 0.9908313226584778 4.386926957666156e-05 4.386926957666156e-05 4.386926957666156e-05 0.9999327391962332 1.681520094165125e-05 1.681520094165125e-05 1.681520094165125e-05 1.681520094165125e-05 0.000432900432900433 0.9982683982683984 0.000432900432900433 0.000432900432900433 0.000432900432900433 0.2 0.2 0.2 0.2 0.2 0.2 0.2 0.2 0.2 0.2 0.2 0.2 0.2 0.2 0.2 0.2 0.2 0.2 0.2 0.2 0.2 0.2 0.2 0.2 0.2 0.2 0.2 0.2 0.2 0.2 0.2 0.2 0.2 0.2 0.2 1.538218973161925e-07 0.9999993847124109 1.538218973161925e-07 1.538218973161925e-07 1.538218973161925e-07 0.2 0.2 0.2 0.2 0.2 0.2 0.2 0.2 0.2 0.2 0.2 0.2 0.2 0.2 0.2 0.2 0.2 0.2 0.2 0.2 8.213366843870053e-08 0.999999671465326 8.213366843870053e-08 8.213366843870053e-08 8.213366843870053e-08 2.473410833539451e-05 0.9829581993569133 0.01696759831808064 2.473410833539451e-05 2.473410833539451e-05 0.0002754820936639118 0.868044077134986 0.131129476584022 0.0002754820936639118 0.0002754820936639118 0.2 0.2 0.2 0.2 0.2 0.9999961914555303 9.521361173793403e-07 9.521361173793403e-07 9.521361173793403e-07 9.521361173793403e-07 2.664375303905308e-08 0.9999998934249877 2.664375303905308e-08 2.664375303905308e-08 2.664375303905308e-08 0.01517194662801872 0.3864600891633454 0.5983648135603901 1.575324122938295e-06 1.575324122938295e-06 0.0339058999253174 0.7665746663636068 0.1995064454329967 6.494139039516836e-06 6.494139039516836e-06 0.01 0.9600000000000002 0.01 0.01 0.01 0.9999801675839162 4.958104021022363e-06 4.958104021022363e-06 4.958104021022363e-06 4.958104021022363e-06 5.792350043297816e-07 0.9999976830599826 5.792350043297816e-07 5.792350043297816e-07 5.792350043297816e-07 0.2319451382896589 0.768027612516463 9.083064626004813e-06 9.083064626004813e-06 9.083064626004813e-06 6.922571042885328e-06 0.9999723097158284 6.922571042885328e-06 6.922571042885328e-06 6.922571042885328e-06 0.2 0.2 0.2 0.2 0.2 0.2 0.2 0.2 0.2 0.2 2.855803077527628e-08 0.9999998857678768 2.855803077527628e-08 2.855803077527628e-08 2.855803077527628e-08 1.417434443656981e-05 0.7100070871722182 0.2899503897944719 1.417434443656981e-05 1.417434443656981e-05 1.115262365471477e-05 0.1901633859365416 0.004527965203814197 0.8052863436123349 1.115262365471477e-05 0.2 0.2 0.2 0.2 0.2 0.9999992309149134 1.922712716918046e-07 1.922712716918046e-07 1.922712716918046e-07 1.922712716918046e-07 4.364435610826768e-08 0.9999998254225754 4.364435610826768e-08 4.364435610826768e-08 4.364435610826768e-08 0.004695093673631676 0.01211876714539293 0.9831858484270943 1.453769406004359e-07 1.453769406004359e-07 0.0002347417840375587 0.0002347417840375587 0.9990610328638497 0.0002347417840375587 0.0002347417840375587 0.002105263157894737 0.002105263157894737 0.9915789473684209 0.002105263157894737 0.002105263157894737 0.9999913291351897 2.167716202594757e-06 2.167716202594757e-06 2.167716202594757e-06 2.167716202594757e-06 3.632309978427711e-08 0.9999998547076008 3.632309978427711e-08 3.632309978427711e-08 3.632309978427711e-08 1.445115941651999e-07 0.07789189376663691 0.9221076726985807 1.445115941651999e-07 1.445115941651999e-07 2.005283923137467e-07 0.02406661553192663 0.04297243235926667 0.9329605510520221 2.005283923137467e-07 9.624175929935999e-06 9.624175929935999e-06 0.9999615032962801 9.624175929935999e-06 9.624175929935999e-06 0.9999927640445374 1.808988865673532e-06 1.808988865673532e-06 1.808988865673532e-06 1.808988865673532e-06 8.61904014921282e-08 0.996761050902327 0.003238690526468209 8.61904014921282e-08 8.61904014921282e-08 0.0004772026809476954 0.01564274823248662 0.9838799060187554 7.153390510383683e-08 7.153390510383683e-08 1.165019814074488e-07 0.0002564208610777948 0.04194082980866297 0.9578025163262964 1.165019814074488e-07 3.217244430145581e-06 3.217244430145581e-06 0.9995688892463606 0.0004214590203490711 3.217244430145581e-06 0.2 0.2 0.2 0.2 0.2 2.175648832873184e-07 0.999999129740467 2.175648832873184e-07 2.175648832873184e-07 2.175648832873184e-07 1.924037091587052e-07 0.009395265521928733 0.9906041572669438 1.924037091587052e-07 1.924037091587052e-07 2.900198373568753e-07 0.01114140207190172 0.002303047528450947 0.9865549703599727 2.900198373568753e-07 3.447800303406427e-06 3.447800303406427e-06 0.8074265618535373 0.1925630947455524 3.447800303406427e-06 0.2 0.2 0.2 0.2 0.2 0.2 0.2 0.2 0.2 0.2 6.133276089423165e-06 6.133276089423165e-06 0.9999754668956422 6.133276089423165e-06 6.133276089423165e-06 0.0002024291497975708 0.0002024291497975708 0.0002024291497975708 0.9991902834008096 0.0002024291497975708 0.2 0.2 0.2 0.2 0.2 0.2 0.2 0.2 0.2 0.2 0.2 0.2 0.2 0.2 0.2 1.344113120560226e-06 1.344113120560226e-06 0.9999946235475177 1.344113120560226e-06 1.344113120560226e-06 0.0001159420289855073 0.0001159420289855073 0.0001159420289855073 0.999536231884058 0.0001159420289855073 2.864631823194924e-06 2.864631823194924e-06 0.1514845954423708 2.864631823194924e-06 0.8485068106621596 0.2 0.2 0.2 0.2 0.2 0.2 0.2 0.2 0.2 0.2 0.2 0.2 0.2 0.2 0.2 1.009132650486906e-06 1.009132650486906e-06 1.009132650486906e-06 0.999995963469398 1.009132650486906e-06 1.847046111506174e-06 1.847046111506174e-06 1.847046111506174e-06 1.847046111506174e-06 0.999992611815554 0.2 0.2 0.2 0.2 0.2 0.2 0.2 0.2 0.2 0.2 3.356267830172849e-05 3.356267830172849e-05 0.9998657492867932 3.356267830172849e-05 3.356267830172849e-05 3.296272245717319e-07 3.296272245717319e-07 3.296272245717319e-07 0.9999986814911018 3.296272245717319e-07 9.977923843496265e-08 9.977923843496265e-08 0.001133093031667436 9.977923843496265e-08 0.9988666076306172 0.2 0.2 0.2 0.2 0.2 0.2 0.2 0.2 0.2 0.2 0.2 0.2 0.2 0.2 0.2 8.351881470098176e-07 8.351881470098176e-07 8.351881470098176e-07 0.9791921225053973 0.02080537193016157 3.760260811689899e-08 3.760260811689899e-08 3.760260811689899e-08 3.760260811689899e-08 0.9999998495895676</probabilities>
		</cpt>
		<cpt id="p2_wti" order="1">
			<parents>p1_imas p2_wti</parents>
			<probabilities>0.2 0.2 0.2 0.2 0.2 0.2 0.2 0.2 0.2 0.2 0.2 0.2 0.2 0.2 0.2 0.2 0.2 0.2 0.2 0.2 0.2 0.2 0.2 0.2 0.2 0.2 0.2 0.2 0.2 0.2 0.2 0.2 0.2 0.2 0.2 0.2 0.2 0.2 0.2 0.2 0.2 0.2 0.2 0.2 0.2 0.2 0.2 0.2 0.2 0.2 0.2 0.2 0.2 0.2 0.2 0.2 0.2 0.2 0.2 0.2 0.2 0.2 0.2 0.2 0.2 0.2 0.2 0.2 0.2 0.2 0.2 0.2 0.2 0.2 0.2 0.9999998864265049 2.839337372480035e-08 2.839337372480035e-08 2.839337372480035e-08 2.839337372480035e-08 0.9999846763843931 3.830903901775625e-06 3.830903901775625e-06 3.830903901775625e-06 3.830903901775625e-06 0.9999820896858981 4.477578525533394e-06 4.477578525533394e-06 4.477578525533394e-06 4.477578525533394e-06 0.2 0.2 0.2 0.2 0.2 0.999963009201461 9.247699634715864e-06 9.247699634715864e-06 9.247699634715864e-06 9.247699634715864e-06 0.9999843563620723 3.91090948200004e-06 3.91090948200004e-06 3.91090948200004e-06 3.91090948200004e-06 0.9988455988455985 0.0002886002886002885 0.0002886002886002885 0.0002886002886002885 0.0002886002886002885 0.2 0.2 0.2 0.2 0.2 0.2 0.2 0.2 0.2 0.2 0.2 0.2 0.2 0.2 0.2 0.2 0.2 0.2 0.2 0.2 0.2 0.2 0.2 0.2 0.2 0.2 0.2 0.2 0.2 0.2 0.2 0.2 0.2 0.2 0.2 0.2 0.2 0.2 0.2 0.2 0.2 0.2 0.2 0.2 0.2 0.2 0.2 0.2 0.2 0.2 0.2 0.2 0.2 0.2 0.2 0.2 0.2 0.2 0.2 0.2 0.2 0.2 0.2 0.2 0.2 0.2 0.2 0.2 0.2 0.2 1.538218973161925e-07 0.9999993847124109 1.538218973161925e-07 1.538218973161925e-07 1.538218973161925e-07 9.006169225919754e-06 0.9999639753230962 9.006169225919754e-06 9.006169225919754e-06 9.006169225919754e-06 0.2 0.2 0.2 0.2 0.2 0.2 0.2 0.2 0.2 0.2 0.9999996081758038 9.795604907989884e-08 9.795604907989884e-08 9.795604907989884e-08 9.795604907989884e-08 0.004936506801042288 0.9950633736429646 3.985199765112325e-08 3.985199765112325e-08 3.985199765112325e-08 0.2253584031760036 0.7746250551389503 5.513895015438907e-06 5.513895015438907e-06 5.513895015438907e-06 0.2 0.2 0.2 0.2 0.2 3.359650596337982e-05 0.9998656139761466 3.359650596337982e-05 3.359650596337982e-05 3.359650596337982e-05 0.9999962794504746 9.301373812912166e-07 9.301373812912166e-07 9.301373812912166e-07 9.301373812912166e-07 0.01544615384615385 0.984369230769231 6.153846153846156e-05 6.153846153846156e-05 6.153846153846156e-05 0.9999334553318913 1.663616702711695e-05 1.663616702711695e-05 1.663616702711695e-05 1.663616702711695e-05 0.2 0.2 0.2 0.2 0.2 0.0005390835579514826 0.9978436657681942 0.0005390835579514826 0.0005390835579514826 0.0005390835579514826 0.2 0.2 0.2 0.2 0.2 0.2 0.2 0.2 0.2 0.2 0.2 0.2 0.2 0.2 0.2 0.2 0.2 0.2 0.2 0.2 0.2 0.2 0.2 0.2 0.2 0.2 0.2 0.2 0.2 0.2 1.533544758037308e-07 0.999999386582097 1.533544758037308e-07 1.533544758037308e-07 1.533544758037308e-07 0.2 0.2 0.2 0.2 0.2 0.2 0.2 0.2 0.2 0.2 0.2 0.2 0.2 0.2 0.2 0.9799999999999998 0.004999999999999998 0.004999999999999998 0.004999999999999998 0.004999999999999998 8.213366843870053e-08 0.999999671465326 8.213366843870053e-08 8.213366843870053e-08 8.213366843870053e-08 2.338907730090047e-05 0.9999064436907961 2.338907730090047e-05 2.338907730090047e-05 2.338907730090047e-05 0.2 0.2 0.2 0.2 0.2 0.0002436053593179049 0.9990255785627281 0.0002436053593179049 0.0002436053593179049 0.0002436053593179049 0.9999964647602885 8.838099278369192e-07 8.838099278369192e-07 8.838099278369192e-07 8.838099278369192e-07 2.657986391907069e-08 0.9999998936805442 2.657986391907069e-08 2.657986391907069e-08 2.657986391907069e-08 0.01310510792528137 0.3611292902316982 0.625762667097096 1.467372962185799e-06 1.467372962185799e-06 0.2 0.2 0.2 0.2 0.2 0.03483505216814427 0.7852421446233643 0.1799107412098185 6.030999336590075e-06 6.030999336590075e-06 0.9999774971168184 5.625720795476923e-06 5.625720795476923e-06 5.625720795476923e-06 5.625720795476923e-06 6.118790192803078e-07 0.9999975524839227 6.118790192803078e-07 6.118790192803078e-07 6.118790192803078e-07 0.2316676966540125 0.7683058179570936 8.828462964597862e-06 8.828462964597862e-06 8.828462964597862e-06 0.2 0.2 0.2 0.2 0.2 7.239819004524886e-06 0.9999710407239818 7.239819004524886e-06 7.239819004524886e-06 7.239819004524886e-06 0.2 0.2 0.2 0.2 0.2 2.872663034758792e-08 0.9999998850934785 2.872663034758792e-08 2.872663034758792e-08 2.872663034758792e-08 1.251877816725087e-05 0.5778167250876314 0.4221457185778667 1.251877816725087e-05 1.251877816725087e-05 0.004999999999999999 0.004999999999999999 0.9799999999999999 0.004999999999999999 0.004999999999999999 8.630734043930437e-06 0.1844042635826177 0.006309066586113149 8.630734043930437e-06 0.8092694083631813 0.9999992064247851 1.983938037647209e-07 1.983938037647209e-07 1.983938037647209e-07 1.983938037647209e-07 4.415668026545229e-08 0.9999998233732788 4.415668026545229e-08 4.415668026545229e-08 4.415668026545229e-08 0.004823447451938596 0.01216611143323251 0.9830101490148199 1.460500046005752e-07 1.460500046005752e-07 0.009090909090909092 0.009090909090909092 0.9636363636363637 0.009090909090909092 0.009090909090909092 0.0002053388090349076 0.0002053388090349076 0.9991786447638603 0.0002053388090349076 0.0002053388090349076 0.9999903573796181 2.410655095522209e-06 2.410655095522209e-06 2.410655095522209e-06 2.410655095522209e-06 3.648153140713279e-08 0.9999998540738743 3.648153140713279e-08 3.648153140713279e-08 3.648153140713279e-08 1.443238858917629e-07 0.07774958651206693 0.9222499805162755 1.443238858917629e-07 1.443238858917629e-07 1.004772670183371e-05 1.004772670183371e-05 0.9999598090931925 1.004772670183371e-05 1.004772670183371e-05 2.029185779060223e-07 0.02362702753706562 0.04422427778741641 2.029185779060223e-07 0.9321482888383621 0.9999932095778905 1.697605527403598e-06 1.697605527403598e-06 1.697605527403598e-06 1.697605527403598e-06 8.676605139413519e-08 0.9965927839278034 0.003406955774042112 8.676605139413519e-08 8.676605139413519e-08 0.0005103758744003299 0.01548205113214159 0.9840074286359769 7.217874054593833e-08 7.217874054593833e-08 3.173092178327781e-06 3.173092178327781e-06 0.9999873076312867 3.173092178327781e-06 3.173092178327781e-06 1.145963686702696e-07 0.0002161287513121284 0.04101759283451826 1.145963686702696e-07 0.9587660492214323 0.2 0.2 0.2 0.2 0.2 2.199206306444005e-07 0.9999991203174776 2.199206306444005e-07 2.199206306444005e-07 2.199206306444005e-07 1.921500922800818e-07 0.009314667873369247 0.9906847556763539 1.921500922800818e-07 1.921500922800818e-07 3.380548324938305e-06 3.380548324938305e-06 0.8028498022379229 3.380548324938305e-06 0.1971400561171022 2.860550999333492e-07 0.01102914043303021 0.002338786497055063 2.860550999333492e-07 0.9866315009597147 0.2 0.2 0.2 0.2 0.2 0.2 0.2 0.2 0.2 0.2 6.764984440535786e-06 6.764984440535786e-06 0.9999729400622378 6.764984440535786e-06 6.764984440535786e-06 0.0003824091778202677 0.0003824091778202677 0.5567877629063097 0.4420650095602294 0.0003824091778202677 0.0001298701298701299 0.0001298701298701299 0.0001298701298701299 0.0001298701298701299 0.9994805194805195 0.2 0.2 0.2 0.2 0.2 0.2 0.2 0.2 0.2 0.2 1.408936886672161e-06 1.408936886672161e-06 0.9999943642524531 1.408936886672161e-06 1.408936886672161e-06 2.794818406674026e-06 2.794818406674026e-06 0.1346012492838278 0.8653903662609521 2.794818406674026e-06 6.863417982155113e-05 6.863417982155113e-05 6.863417982155113e-05 6.863417982155113e-05 0.9997254632807138 0.2 0.2 0.2 0.2 0.2 0.2 0.2 0.2 0.2 0.2 0.2 0.2 0.2 0.2 0.2 1.832911763627699e-06 1.832911763627699e-06 1.832911763627699e-06 0.9999926683529454 1.832911763627699e-06 9.110911683377598e-07 9.110911683377598e-07 9.110911683377598e-07 9.110911683377598e-07 0.9999963556353267 0.2 0.2 0.2 0.2 0.2 0.2 0.2 0.2 0.2 0.2 2.37925291458482e-05 2.37925291458482e-05 0.9999048298834164 2.37925291458482e-05 2.37925291458482e-05 9.994488039846026e-08 9.994488039846026e-08 0.001374841774761219 0.9986248583905976 9.994488039846026e-08 3.291433386325411e-07 3.291433386325411e-07 3.291433386325411e-07 3.291433386325411e-07 0.9999986834266454 0.2 0.2 0.2 0.2 0.2 0.2 0.2 0.2 0.2 0.2 0.2 0.2 0.2 0.2 0.2 3.75601032076516e-08 3.75601032076516e-08 3.75601032076516e-08 0.9999998497595872 3.75601032076516e-08 8.605592774744307e-07 8.605592774744307e-07 8.605592774744307e-07 0.0217687074829932 0.9782287108391744</probabilities>
		</cpt>
	</dynamic>
	<extensions>
		<genie version="1.0" app="SMILE_ACADEMIC 1.5.0@a121f1f76773" name="emidas dbn v9" faultnameformat="user">
			<plate leftwidth="120" rightwidth="120">120 50 1164 561</plate>
			<node id="p1_imas">
				<name>p1_imas</name>
				<interior color="e5f6f7" />
				<outline color="000080" />
				<font color="000000" name="MS Sans Serif" size="8" />
				<position>491 462 547 497</position>
			</node>
			<node id="p2_imas">
				<name>p2_imas</name>
				<interior color="e5f6f7" />
				<outline color="000080" />
				<font color="000000" name="MS Sans Serif" size="8" />
				<position>651 472 707 507</position>
			</node>
			<node id="p1_wti">
				<name>p1_wti</name>
				<interior color="e5f6f7" />
				<outline color="000080" />
				<font color="000000" name="MS Sans Serif" size="8" />
				<position>487 311 571 363</position>
			</node>
			<node id="p2_wti">
				<name>p2_wti</name>
				<interior color="e5f6f7" />
				<outline color="000080" />
				<font color="000000" name="MS Sans Serif" size="8" />
				<position>650 301 734 353</position>
			</node>
			<node id="p1_approach">
				<name>p1_approach</name>
				<interior color="e5f6f7" />
				<outline color="000080" />
				<font color="000000" name="MS Sans Serif" size="8" />
				<position>268 135 344 182</position>
			</node>
			<node id="p2_head">
				<name>p2_head</name>
				<interior color="e5f6f7" />
				<outline color="000080" />
				<font color="000000" name="MS Sans Serif" size="8" />
				<position>676 84 733 119</position>
			</node>
			<node id="p1_body">
				<name>p1_body</name>
				<interior color="e5f6f7" />
				<outline color="000080" />
				<font color="000000" name="MS Sans Serif" size="8" />
				<position>404 76 461 111</position>
			</node>
			<node id="p2_approach">
				<name>p2_approach</name>
				<interior color="e5f6f7" />
				<outline color="000080" />
				<font color="000000" name="MS Sans Serif" size="8" />
				<position>924 160 1000 207</position>
			</node>
			<node id="p2_body">
				<name>p2_body</name>
				<interior color="e5f6f7" />
				<outline color="000080" />
				<font color="000000" name="MS Sans Serif" size="8" />
				<position>827 91 884 126</position>
			</node>
			<node id="dist">
				<name>dist</name>
				<interior color="e5f6f7" />
				<outline color="000080" />
				<font color="000000" name="MS Sans Serif" size="8" />
				<position>599 137 637 160</position>
			</node>
			<node id="p1_gesture">
				<name>p1_gesture</name>
				<interior color="e5f6f7" />
				<outline color="000080" />
				<font color="000000" name="MS Sans Serif" size="8" />
				<position>248 271 316 313</position>
			</node>
			<node id="p2_gesture">
				<name>p2_gesture</name>
				<interior color="e5f6f7" />
				<outline color="000080" />
				<font color="000000" name="MS Sans Serif" size="8" />
				<position>964 312 1032 354</position>
			</node>
			<node id="p1_head">
				<name>p1_head</name>
				<interior color="e5f6f7" />
				<outline color="000080" />
				<font color="000000" name="MS Sans Serif" size="8" />
				<position>528 80 585 115</position>
			</node>
		</genie>
	</extensions>
</smile>
