<?xml version="1.0" encoding="ISO-8859-1"?>
<!-- This file was created by ACADEMIC version of SMILE -->
<smile version="1.0" id="Network2" numsamples="10000" discsamples="10000">
	<nodes>
		<cpt id="p1_imas" target="true" dynamic="plate">
			<state id="very_high" />
			<state id="high" />
			<state id="medium" />
			<state id="low" />
			<state id="very_low" />
			<probabilities>0.05848506227994365 0.09991863684425333 0.1825697834203106 0.4842902565923782 0.1747362608631142</probabilities>
		</cpt>
		<cpt id="p2_imas" target="true" dynamic="plate">
			<state id="very_high" />
			<state id="high" />
			<state id="medium" />
			<state id="low" />
			<state id="very_low" />
			<probabilities>0.05877190242836303 0.1011577570021595 0.1819267410327537 0.4834073379600519 0.1747362615766721</probabilities>
		</cpt>
		<cpt id="p1_wti" target="true" dynamic="plate">
			<state id="very_high" />
			<state id="high" />
			<state id="medium" />
			<state id="low" />
			<state id="very_low" />
			<parents>p1_imas</parents>
			<probabilities>0.9999999999194619 2.013456277840821e-11 2.013456277840821e-11 2.013456277840821e-11 2.013456277840821e-11 0.2907469961926555 0.7092530037777417 9.867596407375166e-12 9.867596407375166e-12 9.867596407375166e-12 0.03036978304668079 0.9636544208970396 0.005975796050271942 3.003791912686877e-12 3.003791912686877e-12 0.03787071329834257 0.4429373658271957 0.3050068277269506 0.2141850931471287 3.824776899372675e-13 2.557172553570187e-12 2.557172553570187e-12 0.01432332707011333 0.1679398065563077 0.8177368663684647</probabilities>
		</cpt>
		<cpt id="p2_wti" target="true" dynamic="plate">
			<state id="very_high" />
			<state id="high" />
			<state id="medium" />
			<state id="very_low" />
			<state id="low" />
			<parents>p2_imas</parents>
			<probabilities>0.9999999999201176 1.997054762807537e-11 1.997054762807537e-11 1.997054762807537e-11 1.997054762807537e-11 0.2980278484416037 0.7019721515293307 9.688617746763591e-12 9.688617746763591e-12 9.688617746763591e-12 0.03193862775803963 0.9612582458924963 0.006803126343401888 3.031111950864915e-12 3.031111950864915e-12 0.03666196803944299 0.4421246838704043 0.3046731023136722 3.838883080613713e-13 0.2165402457760967 2.544457974272901e-12 2.544457974272901e-12 0.01386435188451035 0.8191096487774473 0.1670259993329535</probabilities>
		</cpt>
		<cpt id="p1_approach" dynamic="plate">
			<state id="y" />
			<state id="m" />
			<state id="n" />
			<parents>p1_wti</parents>
			<probabilities>0.7818713312255722 0.1485766370407726 0.0695520317336553 0.5901269084427875 0.1347868793718003 0.2750862121854121 0.2899761814122564 0.2347102470190399 0.4753135715687037 0.4047386568254728 0.04125533703437362 0.5540060061401536 4.951194874124454e-11 3.363237696708316e-09 0.9999999965872504</probabilities>
		</cpt>
		<cpt id="p2_head" dynamic="plate">
			<state id="central" />
			<state id="mid_peripheral" />
			<state id="outside" />
			<parents>p2_wti</parents>
			<probabilities>0.999999999999984 7.93262948194152e-15 7.93262948194152e-15 0.9977585732092806 0.00206851964946178 0.0001729071412575769 0.982112330584597 0.0161087526455372 0.001778916769865723 1.246334081488057e-08 0.2360652605878614 0.7639347269487978 0.460434363303866 0.431113097683032 0.1084525390131021</probabilities>
		</cpt>
		<cpt id="p1_body" dynamic="plate">
			<state id="strongly_facing" />
			<state id="slightly_facing" />
			<state id="turned_away" />
			<parents>p1_wti</parents>
			<probabilities>0.3791783411928591 0.6113003338697626 0.009521324937378329 0.2972503343803312 0.5776329858031571 0.1251166798165116 0.1056252367386625 0.517790335171874 0.3765844280894635 0.1027804019955006 0.8005803126511853 0.09663928535331406 0.002476894802360169 0.356472839233663 0.6410502659639769</probabilities>
		</cpt>
		<cpt id="p2_approach" dynamic="plate">
			<state id="y" />
			<state id="m" />
			<state id="n" />
			<parents>p2_wti</parents>
			<probabilities>0.7836747729299578 0.1491444411764212 0.06718078589362102 0.5880646674048149 0.1360487185936151 0.27588661400157 0.2922483613982107 0.2374246307692183 0.470327007832571 4.158931636066073e-11 3.410453863076174e-09 0.9999999965479568 0.4060532851429262 0.04290508204708147 0.5510416328099924</probabilities>
		</cpt>
		<cpt id="p2_body" dynamic="plate">
			<state id="strongly_facing" />
			<state id="slightly_facing" />
			<state id="turned_away" />
			<parents>p2_wti</parents>
			<probabilities>0.3826450812401538 0.6072495052951822 0.01010541346466396 0.2964850436220615 0.5792059382436016 0.124309018134337 0.1047499109404128 0.5217393627125904 0.3735107263469968 0.002482689379772348 0.3601838334667435 0.6373334771534841 0.1056286463309316 0.7974487944097557 0.09692255925931269</probabilities>
		</cpt>
		<cpt id="dist" dynamic="plate">
			<state id="range_0_3" />
			<state id="range_3_6" />
			<state id="range_6_9" />
			<state id="range_9_12" />
			<state id="range_12_15" />
			<state id="range_15_18" />
			<state id="range_18_21" />
			<state id="range_21_24" />
			<state id="range_24_27" />
			<state id="range_27_30" />
			<state id="range_30_inf" />
			<parents>p1_wti p2_wti</parents>
			<probabilities>0.1111111111111111 0.1111111111111111 0.1111111111111111 0.1111111111111111 0.1111111111111111 0.1111111111111111 0.1111111111111111 0.1111111111111111 0.1111111111111111 0 0 0.04317676791782043 0.1653068753942258 0.2085023135192307 0.2046623751425564 0.2266217227372174 0.1039232977736879 0.04166782409263899 0.006138823422619576 3.029782457919068e-15 0 0 2.699556339787124e-12 2.699556339787124e-12 2.699556339787124e-12 0.002882658556443028 0.6851146366040343 0.3120027048233254 2.699556339787124e-12 2.699556339787124e-12 2.699556339787124e-12 0 0 1.964606646870518e-11 1.964606646870518e-11 1.964606646870518e-11 1.964606646870518e-11 0.7243062110799618 0.275693788782516 1.964606646870518e-11 1.964606646870518e-11 1.964606646870518e-11 0 0 4.215607886570634e-11 4.215607886570634e-11 1.741889178730986e-07 5.565909248718075e-06 0.3545209970355999 0.6383971671479906 0.007076095549618689 4.215607886570634e-11 4.215607886570634e-11 0 0 0.04337341419193785 0.1663628452078785 0.2091325518341606 0.2042847769857906 0.2287689288407179 0.1011701829636808 0.04094601143915453 0.005961288536676217 2.968358998504704e-15 0 0 0.02770655178746538 0.1133884852193642 0.1774642453286607 0.2015345201553304 0.194770906006026 0.2341077917799506 0.04988605674227541 0.001141442980926778 5.536386052865148e-16 0 0 0.01629355959294409 0.07276972497113515 0.09410186506091968 0.1604886678189551 0.116773034340876 0.2545728847955798 0.1810269038297101 0.1026543594728994 0.001319000116980776 0 0 2.897704282161214e-12 2.897704282161214e-12 6.261938953750384e-09 0.006551778802267995 0.1224166529506479 0.2106678718065777 0.6457283304893763 0.01463535968049802 2.897704282161214e-12 0 0 3.740331404820345e-14 3.740331404820345e-14 3.57201649160343e-10 0.0109255674272873 0.001373944105836225 0.05775804193308216 0.09615494105141831 0.2350960443310678 0.3755669391472246 0.1910818098424035 0.03204271180440355 2.580209077097902e-12 2.580209077097902e-12 2.580209077097902e-12 0.002588434708809628 0.6792257561407233 0.3181858091349858 2.580209077097902e-12 2.580209077097902e-12 2.580209077097902e-12 0 0 0.0163300113635031 0.07316436967397025 0.09537394950373797 0.1639033202912492 0.1170092913697159 0.2460212317597233 0.1855866177867377 0.1006268539046114 0.001984354346751225 0 0 2.190345404492441e-14 2.190345404492441e-14 0.002739687986848711 0.1304149750751524 0.0924335809163595 0.2720684758879184 0.1690521786303086 0.04759804981821589 0.05371937229074362 0.231973679394409 0 2.058245816040202e-13 2.058245816040202e-13 2.058245816040202e-13 0.003491910725358887 0.2501664271274818 0.5115301097285625 0.2181538481041967 0.01665770431357672 2.058245816040202e-13 0 0 3.02630820706528e-13 3.02630820706528e-13 3.02630820706528e-13 0.07714965010997524 0.03563123769240887 0.1905845936555189 0.2750045388794966 0.2333794462150726 0.02982055588567748 0.04720001140137237 0.1112299661595701 4.992657775507645e-11 4.992657775507645e-11 1.353010257162572e-08 5.526922084064719e-06 0.3108551878429953 0.6781266493157589 0.0110126221893528 4.992657775507645e-11 4.992657775507645e-11 0 0 3.817654440016684e-14 3.817654440016684e-14 8.974923823035224e-10 0.01190770206623504 0.001719981540082941 0.0613991062834532 0.09087825581907066 0.239658617258607 0.3730750976603716 0.1908121188900208 0.03054911958458993 3.273345150122582e-13 3.273345150122582e-13 3.273345150122582e-13 0.08134086455914383 0.0371763499460652 0.194935674010934 0.2546171212814464 0.2326139848602748 0.03319458132198035 0.05059931790634257 0.1155221061128309 1.034680968160905e-12 1.034680968160905e-12 1.034680968160905e-12 0.1024249626523791 0.03422928202602438 0.3808109920328066 0.3017716729983906 0.1201563440033307 0.05964739560513558 0.0009593506788292307 0 2.379164808757558e-13 2.379164808757558e-13 3.351291549615895e-09 7.89013845519351e-07 0.01843512848581271 0.124260365477025 0.5192864217474452 0.3380172919238662 2.379164808757558e-13 0 0 2.263497567091332e-11 2.263497567091332e-11 2.263497567091332e-11 2.263497567091332e-11 0.7387028630504783 0.2612971367910772 2.263497567091332e-11 2.263497567091332e-11 2.263497567091332e-11 0 0 2.676607225502373e-12 2.676607225502373e-12 2.772965085620458e-09 0.01335021629239671 0.1480441307705022 0.1837342816653181 0.6386143617540748 0.01625700673671338 2.676607225502373e-12 0 0 2.057159241364218e-13 2.057159241364218e-13 2.057159241364218e-13 0.003521922569420786 0.2683097766356247 0.487614754874599 0.2258575498659193 0.01469599605361329 2.057159241364218e-13 0 0 1.011647978804847e-14 1.011647978804847e-14 1.011647978804847e-14 0.2240550715777727 0.2922026488743191 0.2265697913180811 0.107076549287934 0.0415972785264904 0.07230950786747956 0.03618915254789301 0 1.057139516534081e-12 1.057139516534081e-12 1.057139516534081e-12 0.09095181851630349 0.03700009942546632 0.390916172619209 0.29604272312258 0.1230112664327953 0.06169950992335277 0.0003784099571216738 0</probabilities>
		</cpt>
		<cpt id="p1_gesture" dynamic="plate">
			<state id="wave_slow_shoulder" />
			<state id="wave_fast_shoulder" />
			<state id="wave_small_head" />
			<state id="wave_wide_head" />
			<state id="arm_raise_high" />
			<state id="arm_raise_low" />
			<state id="come_here" />
			<state id="i_am_coming" />
			<state id="None" />
			<parents>p1_wti</parents>
			<probabilities>0.02244907907222906 2.696913805664288e-15 0.002438899144624437 0.0246479926456135 0.02562054747504675 2.696913805664288e-15 0.03477307712513435 0.008584386752436762 0.8814860177849098 1.84680884393297e-16 0.02540024975792908 0.07910775275501884 0.01057659352156899 0.1039012539254102 0.04510226639685819 0.0292151566675259 1.846808827311691e-16 0.7066967269756884 3.099970123344546e-15 3.099970095444815e-15 3.099970095444815e-15 3.099970095444815e-15 0.09729541140647813 0.0449295673169808 3.099970095444815e-15 3.099970095444815e-15 0.8577750212765225 9.597267428875182e-15 9.597267342499775e-15 0.0540079723978447 9.597267342499775e-15 9.597267342499775e-15 9.597267342499775e-15 9.597267342499775e-15 9.597267342499775e-15 0.9459920276020881 4.824315374815609e-15 4.824315331396771e-15 4.824315331396771e-15 4.824315331396771e-15 4.824315331396771e-15 4.824315331396771e-15 4.824315331396771e-15 4.824315331396771e-15 0.9999999999999615</probabilities>
		</cpt>
		<cpt id="p2_gesture" dynamic="plate">
			<state id="wave_slow_shoulder" />
			<state id="wave_fast_shoulder" />
			<state id="wave_small_head" />
			<state id="wave_wide_head" />
			<state id="arm_raise_high" />
			<state id="arm_raise_low" />
			<state id="come_here" />
			<state id="i_am_coming" />
			<state id="None" />
			<parents>p2_wti</parents>
			<probabilities>0.02209932576756837 2.644209827313839e-15 0.003493924825678662 0.02308704877340637 0.02495108355829932 2.644209827313839e-15 0.0346802980351989 0.00979168546439573 0.8818966335754473 1.859630907756514e-16 0.02556920028672642 0.08014989488902094 0.01012303645001494 0.1021018457217812 0.04627928321623417 0.02877826571131645 1.859630907756514e-16 0.7069984737249054 3.120168105529586e-15 3.120168105529586e-15 3.120168105529586e-15 3.120168105529586e-15 0.09881159521996141 0.04541569521948052 3.120168105529586e-15 3.120168105529586e-15 0.8557727095605394 4.811907481275105e-15 4.811907481275105e-15 4.811907481275105e-15 4.811907481275105e-15 4.811907481275105e-15 4.811907481275105e-15 4.811907481275105e-15 4.811907481275105e-15 0.9999999999999615 9.409718774277558e-15 9.409718774277558e-15 0.05469627738191023 9.409718774277558e-15 9.409718774277558e-15 9.409718774277558e-15 9.409718774277558e-15 9.409718774277558e-15 0.9453037226180239</probabilities>
		</cpt>
		<cpt id="p1_head" dynamic="plate">
			<state id="central" />
			<state id="mid_peripheral" />
			<state id="outside" />
			<parents>p1_wti</parents>
			<probabilities>0.9999999999999839 8.090741497900279e-15 8.090741497900279e-15 0.9977515499701257 0.002029242798925879 0.0002192072309485164 0.9826522149738304 0.01534590504881733 0.002001879977352344 0.456815537662471 0.4335477164122463 0.1096367459252828 1.246938384017841e-08 0.2238145056733366 0.7761854818572795</probabilities>
		</cpt>
	</nodes>
	<dynamic numslices="30">
		<cpt id="p1_imas" order="1">
			<parents>p1_imas</parents>
			<probabilities>0.999999999999943 1.425197992984379e-14 1.425197992984379e-14 1.425197992984379e-14 1.425197992984379e-14 0.001321467109219207 0.9986785328907586 7.443675722324742e-15 7.443675722324742e-15 7.443675722324742e-15 0.002270767954434165 0.004681727606220209 0.9906810717392719 0.002366432700070712 2.986056699737385e-15 0.001155802671840917 0.002065709787314851 0.005511577159146385 0.9911190400692297 0.0001478703124680707 6.539712555319235e-15 6.539712555319235e-15 3.902722612071289e-06 0.02682978204328395 0.9731663152340908</probabilities>
		</cpt>
		<cpt id="p2_imas" order="1">
			<parents>p2_imas</parents>
			<probabilities>0.9999999999999433 1.415999704102291e-14 1.415999704102291e-14 1.415999704102291e-14 1.415999704102291e-14 0.001311861793074074 0.9986881382069038 7.311157789517734e-15 7.311157789517734e-15 7.311157789517734e-15 0.002281374061236831 0.004719101699537298 0.9905830264701244 0.002416497769098378 2.998461025113449e-15 0.001158756485755644 0.002094045191582233 0.00563369303765086 0.9909652570694726 0.0001482482155388888 6.529994209363298e-15 6.529994209363298e-15 6.529994209363298e-15 0.02705727268968624 0.9729427273102942</probabilities>
		</cpt>
		<cpt id="p1_wti" order="1">
			<parents>p2_imas p1_wti</parents>
			<probabilities>0.2 0.2 0.2 0.2 0.2 0.2 0.2 0.2 0.2 0.2 0.2 0.2 0.2 0.2 0.2 0.2 0.2 0.2 0.2 0.2 0.2 0.2 0.2 0.2 0.2 0.2 0.2 0.2 0.2 0.2 0.2 0.2 0.2 0.2 0.2 0.2 0.2 0.2 0.2 0.2 0.2 0.2 0.2 0.2 0.2 0.2 0.2 0.2 0.2 0.2 0.2 0.2 0.2 0.2 0.2 0.2 0.2 0.2 0.2 0.2 0.2 0.2 0.2 0.2 0.2 0.2 0.2 0.2 0.2 0.2 0.2 0.2 0.2 0.2 0.2 0.9999999999999428 1.432850393470731e-14 1.432850393470731e-14 1.432850393470731e-14 1.432850393470731e-14 0.9999999977379819 5.655045781327931e-10 5.655045781327931e-10 5.655045781327931e-10 5.655045781327931e-10 0.9999999967749013 8.06274749384511e-10 8.06274749384511e-10 8.06274749384511e-10 8.06274749384511e-10 0.9999999934823826 1.629404348184449e-09 1.629404348184449e-09 1.629404348184449e-09 1.629404348184449e-09 0.2 0.2 0.2 0.2 0.2 0.9999999985519917 3.62002010779989e-10 3.62002010779989e-10 3.62002010779989e-10 3.62002010779989e-10 0.9999770937723693 5.726556907659269e-06 5.726556907659269e-06 5.726556907659269e-06 5.726556907659269e-06 0.2 0.2 0.2 0.2 0.2 0.2 0.2 0.2 0.2 0.2 0.2 0.2 0.2 0.2 0.2 0.2 0.2 0.2 0.2 0.2 0.2 0.2 0.2 0.2 0.2 0.2 0.2 0.2 0.2 0.2 0.2 0.2 0.2 0.2 0.2 0.2 0.2 0.2 0.2 0.2 0.2 0.2 0.2 0.2 0.2 0.2 0.2 0.2 0.2 0.2 0.2 0.2 0.2 0.2 0.2 0.2 0.2 0.2 0.2 0.2 0.2 0.2 0.2 0.2 0.2 0.2 0.2 0.2 0.2 0.2 3.05553164842282e-13 0.9999999999987781 3.05553164842282e-13 3.05553164842282e-13 3.05553164842282e-13 1.612477102724361e-09 0.9999999935500919 1.612477102724361e-09 1.612477102724361e-09 1.612477102724361e-09 0.2 0.2 0.2 0.2 0.2 0.2 0.2 0.2 0.2 0.2 0.9999999999995589 1.102004214446645e-13 1.102004214446645e-13 1.102004214446645e-13 1.102004214446645e-13 0.005864588975852124 0.9941354110240788 2.303682949099809e-14 2.303682949099809e-14 2.303682949099809e-14 0.2306552729548331 0.7693447250256181 6.731829882350501e-10 6.731829882350501e-10 6.731829882350501e-10 5.704792776112183e-09 0.9999999771808287 5.704792776112183e-09 5.704792776112183e-09 5.704792776112183e-09 0.2 0.2 0.2 0.2 0.2 0.9999999999319834 1.700414755236676e-11 1.700414755236676e-11 1.700414755236676e-11 1.700414755236676e-11 0.04546703554886992 0.9545327825565526 6.063152584691634e-08 6.063152584691634e-08 6.063152584691634e-08 0.999999981866057 4.533485730989667e-09 4.533485730989667e-09 4.533485730989667e-09 4.533485730989667e-09 9.370139240269113e-07 0.9999962519443041 9.370139240269113e-07 9.370139240269113e-07 9.370139240269113e-07 0.2 0.2 0.2 0.2 0.2 0.2 0.2 0.2 0.2 0.2 0.2 0.2 0.2 0.2 0.2 0.2 0.2 0.2 0.2 0.2 0.2 0.2 0.2 0.2 0.2 0.2 0.2 0.2 0.2 0.2 0.2 0.2 0.2 0.2 0.2 3.07246858313731e-13 0.9999999999987712 3.07246858313731e-13 3.07246858313731e-13 3.07246858313731e-13 0.2 0.2 0.2 0.2 0.2 0.2 0.2 0.2 0.2 0.2 0.2 0.2 0.2 0.2 0.2 0.2 0.2 0.2 0.2 0.2 6.987027018581136e-14 0.9999999999997203 6.987027018581136e-14 6.987027018581136e-14 6.987027018581136e-14 3.327822237852634e-09 0.9888404176789626 0.01115957233757083 3.327822237852634e-09 3.327822237852634e-09 4.642439323318044e-07 0.9154500380680026 0.08454856920020057 4.642439323318044e-07 4.642439323318044e-07 0.2 0.2 0.2 0.2 0.2 0.9999999999475094 1.312265791824993e-11 1.312265791824993e-11 1.312265791824993e-11 1.312265791824993e-11 7.378034898844034e-15 0.9999999999999706 7.378034898844034e-15 7.378034898844034e-15 7.378034898844034e-15 0.01949923852845102 0.4775433677982774 0.5029573935468967 6.318741589754947e-11 6.318741589754947e-11 0.05043270714248514 0.7750422739865105 0.1745250178954942 4.877551936392509e-10 4.877551936392509e-10 0.0004999999999999999 0.9979999999999997 0.0004999999999999999 0.0004999999999999999 0.0004999999999999999 0.9999999993343327 1.66416918002463e-10 1.66416918002463e-10 1.66416918002463e-10 1.66416918002463e-10 4.361693779233836e-12 0.999999999982553 4.361693779233836e-12 4.361693779233836e-12 4.361693779233836e-12 0.2966647890590092 0.7033352085919586 7.830107832643221e-10 7.830107832643221e-10 7.830107832643221e-10 4.599818588674645e-10 0.9999999981600726 4.599818588674645e-10 4.599818588674645e-10 4.599818588674645e-10 0.2 0.2 0.2 0.2 0.2 0.2 0.2 0.2 0.2 0.2 1.439208570273336e-14 0.9999999999999422 1.439208570273336e-14 1.439208570273336e-14 1.439208570273336e-14 4.354227179538895e-09 0.8204839261961978 0.1795160607411208 4.354227179538895e-09 4.354227179538895e-09 7.737250404039216e-09 0.2648001298001127 2.251539867575412e-06 0.7351976031855189 7.737250404039216e-09 0.2 0.2 0.2 0.2 0.2 0.9999999999981087 4.728901133079085e-13 4.728901133079085e-13 4.728901133079085e-13 4.728901133079085e-13 2.593690367329509e-14 0.999999999999896 2.593690367329509e-14 2.593690367329509e-14 2.593690367329509e-14 0.007200543335701387 0.008357092177144053 0.9844423644866217 2.663889278655849e-13 2.663889278655849e-13 7.696451935657661e-07 7.696451935657661e-07 0.9999969214192257 7.696451935657661e-07 7.696451935657661e-07 2.582644628099174e-05 2.582644628099174e-05 0.9998966942148761 2.582644628099174e-05 2.582644628099174e-05 0.9999838962921215 4.025926969684772e-06 4.025926969684772e-06 4.025926969684772e-06 4.025926969684772e-06 1.42989050225785e-14 0.9999999999999428 1.42989050225785e-14 1.42989050225785e-14 1.42989050225785e-14 2.484425621971743e-13 0.07791433857188412 0.9220856614273706 2.484425621971743e-13 2.484425621971743e-13 3.410823859970104e-13 0.01314751321946712 0.03876469410918754 0.948087792670663 3.410823859970104e-13 1.048679162378006e-09 1.048679162378006e-09 0.9999999958052834 1.048679162378006e-09 1.048679162378006e-09 0.9999999964376198 8.905950314771911e-10 8.905950314771911e-10 8.905950314771911e-10 8.905950314771911e-10 1.138369395864225e-13 0.9911536479226118 0.008846352077046656 1.138369395864225e-13 1.138369395864225e-13 0.0004644657309060743 0.006931286301815279 0.992604247967234 2.231551698179204e-14 2.231551698179204e-14 1.183871988482719e-13 0.001975857711336093 0.03170194691715236 0.9663221953712748 1.183871988482719e-13 1.35425912870868e-10 1.35425912870868e-10 0.9999999818529278 1.77407945860837e-08 1.35425912870868e-10 0.2 0.2 0.2 0.2 0.2 3.927420097585114e-11 0.9999999998429028 3.927420097585114e-11 3.927420097585114e-11 3.927420097585114e-11 2.972377904433222e-13 0.003189914001817527 0.9968100859972906 2.972377904433222e-13 2.972377904433222e-13 7.709233113910495e-13 3.72614573335916e-05 0.00332853022573502 0.9966342083153895 7.709233113910495e-13 9.157222164128803e-11 9.157222164128803e-11 0.9999948853251324 5.114400150887578e-06 9.157222164128803e-11 0.2 0.2 0.2 0.2 0.2 0.2 0.2 0.2 0.2 0.2 7.396309218032011e-10 7.396309218032011e-10 0.9999999970414764 7.396309218032011e-10 7.396309218032011e-10 0.0002551020408163266 0.0002551020408163266 0.0002551020408163266 0.9989795918367347 0.0002551020408163266 0.2 0.2 0.2 0.2 0.2 0.2 0.2 0.2 0.2 0.2 0.2 0.2 0.2 0.2 0.2 3.639993288762374e-11 3.639993288762374e-11 0.9999999998544004 3.639993288762374e-11 3.639993288762374e-11 2.17776674375961e-07 2.17776674375961e-07 2.17776674375961e-07 0.9999991288933027 2.17776674375961e-07 1.440602932664202e-10 1.440602932664202e-10 0.1455487265214136 1.440602932664202e-10 0.8544512730464056 0.2 0.2 0.2 0.2 0.2 0.2 0.2 0.2 0.2 0.2 0.2 0.2 0.2 0.2 0.2 1.287487967643598e-11 1.287487967643598e-11 1.287487967643598e-11 0.9999999999485005 1.287487967643598e-11 3.957872879184999e-11 3.957872879184999e-11 3.957872879184999e-11 3.957872879184999e-11 0.9999999998416851 0.2 0.2 0.2 0.2 0.2 0.2 0.2 0.2 0.2 0.2 1.928937926777517e-08 1.928937926777517e-08 0.999999922842483 1.928937926777517e-08 1.928937926777517e-08 1.076599050732048e-12 1.076599050732048e-12 1.076599050732048e-12 0.9999999999956936 1.076599050732048e-12 1.540891347924587e-13 1.540891347924587e-13 0.001429794323081294 1.540891347924587e-13 0.9985702056764564 0.2 0.2 0.2 0.2 0.2 0.2 0.2 0.2 0.2 0.2 0.2 0.2 0.2 0.2 0.2 2.282979400325863e-11 2.282979400325863e-11 2.282979400325863e-11 0.9230411875880769 0.0769588123434338 1.824897586197886e-14 1.824897586197886e-14 1.824897586197886e-14 1.824897586197886e-14 0.9999999999999269</probabilities>
		</cpt>
		<cpt id="p2_wti" order="1">
			<parents>p1_imas p2_wti</parents>
			<probabilities>0.2 0.2 0.2 0.2 0.2 0.2 0.2 0.2 0.2 0.2 0.2 0.2 0.2 0.2 0.2 0.2 0.2 0.2 0.2 0.2 0.2 0.2 0.2 0.2 0.2 0.2 0.2 0.2 0.2 0.2 0.2 0.2 0.2 0.2 0.2 0.2 0.2 0.2 0.2 0.2 0.2 0.2 0.2 0.2 0.2 0.2 0.2 0.2 0.2 0.2 0.2 0.2 0.2 0.2 0.2 0.2 0.2 0.2 0.2 0.2 0.2 0.2 0.2 0.2 0.2 0.2 0.2 0.2 0.2 0.2 0.2 0.2 0.2 0.2 0.2 0.999999999999943 1.425146702628757e-14 1.425146702628757e-14 1.425146702628757e-14 1.425146702628757e-14 0.9999999977497642 5.625589772767803e-10 5.625589772767803e-10 5.625589772767803e-10 5.625589772767803e-10 0.9999999967622657 8.09433618575582e-10 8.09433618575582e-10 8.09433618575582e-10 8.09433618575582e-10 0.2 0.2 0.2 0.2 0.2 0.9999999935163698 1.620907581166299e-09 1.620907581166299e-09 1.620907581166299e-09 1.620907581166299e-09 0.9999999987724569 3.068857505626788e-10 3.068857505626788e-10 3.068857505626788e-10 3.068857505626788e-10 0.9985507246376812 0.0003623188405797102 0.0003623188405797102 0.0003623188405797102 0.0003623188405797102 0.2 0.2 0.2 0.2 0.2 0.2 0.2 0.2 0.2 0.2 0.2 0.2 0.2 0.2 0.2 0.2 0.2 0.2 0.2 0.2 0.2 0.2 0.2 0.2 0.2 0.2 0.2 0.2 0.2 0.2 0.2 0.2 0.2 0.2 0.2 0.2 0.2 0.2 0.2 0.2 0.2 0.2 0.2 0.2 0.2 0.2 0.2 0.2 0.2 0.2 0.2 0.2 0.2 0.2 0.2 0.2 0.2 0.2 0.2 0.2 0.2 0.2 0.2 0.2 0.2 0.2 0.2 0.2 0.2 0.2 3.07246858313731e-13 0.9999999999987712 3.07246858313731e-13 3.07246858313731e-13 3.07246858313731e-13 1.612477102724361e-09 0.9999999935500919 1.612477102724361e-09 1.612477102724361e-09 1.612477102724361e-09 0.2 0.2 0.2 0.2 0.2 0.2 0.2 0.2 0.2 0.2 0.9999999999995925 1.018755654155404e-13 1.018755654155404e-13 1.018755654155404e-13 1.018755654155404e-13 0.005947809852363345 0.9940521901475672 2.31207517690563e-14 2.31207517690563e-14 2.31207517690563e-14 0.2485235573225205 0.7514764407657775 6.372340067765693e-10 6.372340067765693e-10 6.372340067765693e-10 0.2 0.2 0.2 0.2 0.2 5.683655035786568e-09 0.9999999772653799 5.683655035786568e-09 5.683655035786568e-09 5.683655035786568e-09 0.9999999999334543 1.663643447212376e-11 1.663643447212376e-11 1.663643447212376e-11 1.663643447212376e-11 0.05311647435096539 0.9468833138864712 7.058752111449227e-08 7.058752111449227e-08 7.058752111449227e-08 0.9999999821786587 4.455335263978614e-09 4.455335263978614e-09 4.455335263978614e-09 4.455335263978614e-09 0.2 0.2 0.2 0.2 0.2 1.453055412268147e-06 0.9999941877783509 1.453055412268147e-06 1.453055412268147e-06 1.453055412268147e-06 0.2 0.2 0.2 0.2 0.2 0.2 0.2 0.2 0.2 0.2 0.2 0.2 0.2 0.2 0.2 0.2 0.2 0.2 0.2 0.2 0.2 0.2 0.2 0.2 0.2 0.2 0.2 0.2 0.2 0.2 3.05553164842282e-13 0.9999999999987781 3.05553164842282e-13 3.05553164842282e-13 3.05553164842282e-13 0.2 0.2 0.2 0.2 0.2 0.2 0.2 0.2 0.2 0.2 0.2 0.2 0.2 0.2 0.2 0.9733333333333334 0.006666666666666668 0.006666666666666668 0.006666666666666668 0.006666666666666668 6.987027018581136e-14 0.9999999999997203 6.987027018581136e-14 6.987027018581136e-14 6.987027018581136e-14 2.921453395018069e-09 0.9999999883141868 2.921453395018069e-09 2.921453395018069e-09 2.921453395018069e-09 0.2 0.2 0.2 0.2 0.2 3.140683789674687e-07 0.9999987437264841 3.140683789674687e-07 3.140683789674687e-07 3.140683789674687e-07 0.9999999999522444 1.193888667530986e-11 1.193888667530986e-11 1.193888667530986e-11 1.193888667530986e-11 7.422373843307752e-15 0.9999999999999705 7.422373843307752e-15 7.422373843307752e-15 7.422373843307752e-15 0.01748643734673703 0.4435355866398094 0.5389779758947575 5.934806591145876e-11 5.934806591145876e-11 0.2 0.2 0.2 0.2 0.2 0.05271958794338527 0.7802498938486426 0.167030517387391 4.102903966088118e-10 4.102903966088118e-10 0.9999999991481353 2.129662306635647e-10 2.129662306635647e-10 2.129662306635647e-10 2.129662306635647e-10 4.712115595996947e-12 0.9999999999811513 4.712115595996947e-12 4.712115595996947e-12 4.712115595996947e-12 0.294099700668684 0.7059002970977778 7.445126624852351e-10 7.445126624852351e-10 7.445126624852351e-10 0.2 0.2 0.2 0.2 0.2 4.909054765505782e-10 0.9999999980363782 4.909054765505782e-10 4.909054765505782e-10 4.909054765505782e-10 0.2 0.2 0.2 0.2 0.2 1.450338815720326e-14 0.9999999999999419 1.450338815720326e-14 1.450338815720326e-14 1.450338815720326e-14 3.563024795695268e-09 0.7171382882252613 0.2828617010856644 3.563024795695268e-09 3.563024795695268e-09 0.0002222222222222223 0.0002222222222222223 0.9991111111111111 0.0002222222222222223 0.0002222222222222223 3.461873264627843e-09 0.2188565155657073 2.011348366748777e-06 3.461873264627843e-09 0.7811414661621794 0.999999999998079 4.803367938117241e-13 4.803367938117241e-13 4.803367938117241e-13 4.803367938117241e-13 2.669645695770743e-14 0.9999999999998935 2.669645695770743e-14 2.669645695770743e-14 2.669645695770743e-14 0.007315323712572615 0.008195304646667434 0.9844893716402262 2.668676444228139e-13 2.668676444228139e-13 0.0004132231404958678 0.0004132231404958678 0.9983471074380166 0.0004132231404958678 0.0004132231404958678 6.662136413905209e-07 6.662136413905209e-07 0.9999973351454343 6.662136413905209e-07 6.662136413905209e-07 0.9999817192998495 4.570175037703946e-06 4.570175037703946e-06 4.570175037703946e-06 4.570175037703946e-06 1.421117712289395e-14 0.9999999999999432 1.421117712289395e-14 1.421117712289395e-14 1.421117712289395e-14 2.472110391913439e-13 0.07794120080016441 0.9220587991990941 2.472110391913439e-13 2.472110391913439e-13 1.131496753806532e-09 1.131496753806532e-09 0.9999999954740129 1.131496753806532e-09 1.131496753806532e-09 3.457418448380194e-13 0.01331326627700454 0.03888075234900067 3.457418448380194e-13 0.9478059813733033 0.9999999964696061 8.825984800736275e-10 8.825984800736275e-10 8.825984800736275e-10 8.825984800736275e-10 1.153336457928584e-13 0.9907958626234636 0.009204137376190392 1.153336457928584e-13 1.153336457928584e-13 0.0004916664667854766 0.00690128122382062 0.9926070523093488 2.260648967585516e-14 2.260648967585516e-14 1.296100692020108e-10 1.296100692020108e-10 0.9999999994815595 1.296100692020108e-10 1.296100692020108e-10 1.14109708773479e-13 0.001787435264566434 0.03090688273757646 1.14109708773479e-13 0.9673056819976289 0.2 0.2 0.2 0.2 0.2 2.886403178893267e-11 0.9999999998845437 2.886403178893267e-11 2.886403178893267e-11 2.886403178893267e-11 2.992762098991942e-13 0.003494925961285044 0.9965050740378171 2.992762098991942e-13 2.992762098991942e-13 8.864500092219389e-11 8.864500092219389e-11 0.9999948303121913 8.864500092219389e-11 5.16942187377866e-06 7.408904281189521e-13 6.265902685757116e-05 0.003391679360730784 7.408904281189521e-13 0.9965456616109298 0.2 0.2 0.2 0.2 0.2 0.2 0.2 0.2 0.2 0.2 8.827578258423327e-10 8.827578258423327e-10 0.9999999964689688 8.827578258423327e-10 8.827578258423327e-10 2.913583124526543e-06 2.913583124526543e-06 0.555550375852223 0.4444408833984034 2.913583124526543e-06 0.0001531393568147014 0.0001531393568147014 0.0001531393568147014 0.0001531393568147014 0.9993874425727413 0.2 0.2 0.2 0.2 0.2 0.2 0.2 0.2 0.2 0.2 3.958541090764915e-11 3.958541090764915e-11 0.9999999998416584 3.958541090764915e-11 3.958541090764915e-11 1.385770808336049e-10 1.385770808336049e-10 0.1313011661746372 0.8686988334096316 1.385770808336049e-10 1.761602353500744e-07 1.761602353500744e-07 1.761602353500744e-07 1.761602353500744e-07 0.9999992953590586 0.2 0.2 0.2 0.2 0.2 0.2 0.2 0.2 0.2 0.2 0.2 0.2 0.2 0.2 0.2 3.692208081532335e-11 3.692208081532335e-11 3.692208081532335e-11 0.9999999998523117 3.692208081532335e-11 1.129982850487575e-11 1.129982850487575e-11 1.129982850487575e-11 1.129982850487575e-11 0.9999999999548007 0.2 0.2 0.2 0.2 0.2 0.2 0.2 0.2 0.2 0.2 1.00230083167415e-08 1.00230083167415e-08 0.9999999599079669 1.00230083167415e-08 1.00230083167415e-08 1.541552268590583e-13 1.541552268590583e-13 0.001732334919328318 0.9982676650802091 1.541552268590583e-13 1.122071566956014e-12 1.122071566956014e-12 1.122071566956014e-12 1.122071566956014e-12 0.9999999999955117 0.2 0.2 0.2 0.2 0.2 0.2 0.2 0.2 0.2 0.2 0.2 0.2 0.2 0.2 0.2 1.822534760039663e-14 1.822534760039663e-14 1.822534760039663e-14 0.9999999999999272 1.822534760039663e-14 2.287988538215255e-11 2.287988538215255e-11 2.287988538215255e-11 0.07481539345889503 0.9251846064724653</probabilities>
		</cpt>
	</dynamic>
	<extensions>
		<genie version="1.0" app="SMILE_ACADEMIC 1.5.0@a121f1f76773" name="emidas dbn v9" faultnameformat="user">
			<plate leftwidth="120" rightwidth="120">120 50 1164 561</plate>
			<node id="p1_imas">
				<name>p1_imas</name>
				<interior color="e5f6f7" />
				<outline color="000080" />
				<font color="000000" name="MS Sans Serif" size="8" />
				<position>491 462 547 497</position>
			</node>
			<node id="p2_imas">
				<name>p2_imas</name>
				<interior color="e5f6f7" />
				<outline color="000080" />
				<font color="000000" name="MS Sans Serif" size="8" />
				<position>651 472 707 507</position>
			</node>
			<node id="p1_wti">
				<name>p1_wti</name>
				<interior color="e5f6f7" />
				<outline color="000080" />
				<font color="000000" name="MS Sans Serif" size="8" />
				<position>487 311 571 363</position>
			</node>
			<node id="p2_wti">
				<name>p2_wti</name>
				<interior color="e5f6f7" />
				<outline color="000080" />
				<font color="000000" name="MS Sans Serif" size="8" />
				<position>650 301 734 353</position>
			</node>
			<node id="p1_approach">
				<name>p1_approach</name>
				<interior color="e5f6f7" />
				<outline color="000080" />
				<font color="000000" name="MS Sans Serif" size="8" />
				<position>268 135 344 182</position>
			</node>
			<node id="p2_head">
				<name>p2_head</name>
				<interior color="e5f6f7" />
				<outline color="000080" />
				<font color="000000" name="MS Sans Serif" size="8" />
				<position>676 84 733 119</position>
			</node>
			<node id="p1_body">
				<name>p1_body</name>
				<interior color="e5f6f7" />
				<outline color="000080" />
				<font color="000000" name="MS Sans Serif" size="8" />
				<position>404 76 461 111</position>
			</node>
			<node id="p2_approach">
				<name>p2_approach</name>
				<interior color="e5f6f7" />
				<outline color="000080" />
				<font color="000000" name="MS Sans Serif" size="8" />
				<position>924 160 1000 207</position>
			</node>
			<node id="p2_body">
				<name>p2_body</name>
				<interior color="e5f6f7" />
				<outline color="000080" />
				<font color="000000" name="MS Sans Serif" size="8" />
				<position>827 91 884 126</position>
			</node>
			<node id="dist">
				<name>dist</name>
				<interior color="e5f6f7" />
				<outline color="000080" />
				<font color="000000" name="MS Sans Serif" size="8" />
				<position>599 137 637 160</position>
			</node>
			<node id="p1_gesture">
				<name>p1_gesture</name>
				<interior color="e5f6f7" />
				<outline color="000080" />
				<font color="000000" name="MS Sans Serif" size="8" />
				<position>248 271 316 313</position>
			</node>
			<node id="p2_gesture">
				<name>p2_gesture</name>
				<interior color="e5f6f7" />
				<outline color="000080" />
				<font color="000000" name="MS Sans Serif" size="8" />
				<position>964 312 1032 354</position>
			</node>
			<node id="p1_head">
				<name>p1_head</name>
				<interior color="e5f6f7" />
				<outline color="000080" />
				<font color="000000" name="MS Sans Serif" size="8" />
				<position>528 80 585 115</position>
			</node>
		</genie>
	</extensions>
</smile>
