<?xml version="1.0" encoding="ISO-8859-1"?>
<!-- This file was created by ACADEMIC version of SMILE -->
<smile version="1.0" id="Network2" numsamples="10000" discsamples="10000">
	<nodes>
		<cpt id="p1_imas" target="true" dynamic="plate">
			<state id="very_high" />
			<state id="high" />
			<state id="medium" />
			<state id="low" />
			<state id="very_low" />
			<probabilities>0.06747389537356958 0.0616657950095953 0.118009142321267 0.4460920236482508 0.3067591436473173</probabilities>
		</cpt>
		<cpt id="p2_imas" target="true" dynamic="plate">
			<state id="very_high" />
			<state id="high" />
			<state id="medium" />
			<state id="low" />
			<state id="very_low" />
			<probabilities>0.06804780994834768 0.06369518240617664 0.119446580858835 0.4404377451204001 0.3083726816662406</probabilities>
		</cpt>
		<cpt id="p1_wti" dynamic="plate">
			<state id="very_high" />
			<state id="high" />
			<state id="medium" />
			<state id="low" />
			<state id="very_low" />
			<parents>p1_imas</parents>
			<probabilities>0.9999874223724552 3.144406886251082e-06 3.144406886251082e-06 3.144406886251082e-06 3.144406886251082e-06 0.3905074832272494 0.6094821950799932 3.440564252537417e-06 3.440564252537417e-06 3.440564252537417e-06 0.06898653386310927 0.9174340626741699 0.01357580769853113 1.797882094892217e-06 1.797882094892217e-06 0.02404038914743798 0.5422908903257718 0.3221838295969884 0.1114844153157245 4.756140772254577e-07 6.916418540151539e-07 6.916418540151539e-07 0.01197992855339648 0.1634287453270947 0.8245899428358008</probabilities>
		</cpt>
		<cpt id="p2_wti" dynamic="plate">
			<state id="very_high" />
			<state id="high" />
			<state id="medium" />
			<state id="very_low" />
			<state id="low" />
			<parents>p2_imas</parents>
			<probabilities>0.9999875284507219 3.117887319552272e-06 3.117887319552272e-06 3.117887319552272e-06 3.117887319552272e-06 0.3972353146911382 0.6027546924703963 3.330946155255401e-06 3.330946155255401e-06 3.330946155255401e-06 0.07142463831185557 0.9133564837429062 0.01521532545272077 1.776246258781318e-06 1.776246258781318e-06 0.02218127602793012 0.5407262891427552 0.3259779516786735 4.817199328482413e-07 0.1111140014307082 6.880228974020256e-07 6.880228974020256e-07 0.01153539189784236 0.8232992073976222 0.1651640246587406</probabilities>
		</cpt>
		<cpt id="p1_approach" dynamic="plate">
			<state id="y" />
			<state id="m" />
			<state id="n" />
			<parents>p1_wti</parents>
			<probabilities>0.637981062811611 0.2476181174255942 0.1144008197627947 0.2540807132630746 0.2607043697320616 0.4852149170048638 0.02916185753769094 0.3622103753418308 0.6086277671204784 0.02479179488697496 0.1546736739193623 0.8205345311936627 0.0002199768423092694 0.01494254270466833 0.9848374804530223</probabilities>
		</cpt>
		<cpt id="p2_head" dynamic="plate">
			<state id="central" />
			<state id="mid_peripheral" />
			<state id="outside" />
			<parents>p2_wti</parents>
			<probabilities>0.9999998348627109 8.256864447469208e-08 8.256864447469208e-08 0.9999999503344847 2.48327575858487e-08 2.48327575858487e-08 0.9999998332860699 8.335696503292015e-08 8.335696503292015e-08 0.05540021659117674 0.1925502876342891 0.7520494957745342 0.2428537713555408 0.1485517877438506 0.6085944409006087</probabilities>
		</cpt>
		<cpt id="p1_body" dynamic="plate">
			<state id="strongly_facing" />
			<state id="slightly_facing" />
			<state id="turned_away" />
			<parents>p1_wti</parents>
			<probabilities>0.47247045368695 0.4682911660541402 0.05923838025890981 0.2868252260440655 0.4197285612254816 0.2934462127304529 0.004463472179027285 0.3985597591770024 0.5969767686439704 0.003301968436117199 0.6270804580121916 0.3696175735516913 0.002033097866160328 0.3483507877659439 0.6496161143678958</probabilities>
		</cpt>
		<cpt id="p2_approach" dynamic="plate">
			<state id="y" />
			<state id="m" />
			<state id="n" />
			<parents>p2_wti</parents>
			<probabilities>0.6396602795691733 0.2490163803805341 0.1113233400502925 0.2548374584268597 0.2655336224362971 0.4796289191368431 0.0305707501409983 0.3665447487696095 0.6028845010893922 0.0001848667358521282 0.01515964984790043 0.9846554834162474 0.02398414767399636 0.1597016452488439 0.8163142070771596</probabilities>
		</cpt>
		<cpt id="p2_body" dynamic="plate">
			<state id="strongly_facing" />
			<state id="slightly_facing" />
			<state id="turned_away" />
			<parents>p2_wti</parents>
			<probabilities>0.473528368728447 0.4658128243141539 0.06065880695739912 0.2860298107321715 0.4238970592800139 0.2900731299878146 0.004514113084392759 0.4048075962868806 0.5906782906287266 0.002096033296289402 0.3543279959399902 0.6435759707637204 0.004998756410942517 0.6394309385683409 0.3555703050207166</probabilities>
		</cpt>
		<cpt id="dist" dynamic="plate">
			<state id="range_0_3" />
			<state id="range_3_6" />
			<state id="range_6_9" />
			<state id="range_9_12" />
			<state id="range_12_15" />
			<state id="range_15_18" />
			<state id="range_18_21" />
			<state id="range_21_24" />
			<state id="range_24_27" />
			<state id="range_27_inf" />
			<parents>p1_wti p2_wti</parents>
			<probabilities>0.1111111111111111 0.1111111111111111 0.1111111111111111 0.1111111111111111 0.1111111111111111 0.1111111111111111 0.1111111111111111 0.1111111111111111 0.1111111111111111 0 0.05155832172296466 0.2124390621729577 0.2794563142976434 0.2811048537828231 0.1358310749583535 0.03961027927567557 3.126319404486175e-08 3.126319404486175e-08 3.126319404486175e-08 0 4.801461949134271e-07 4.801461949134271e-07 4.801461949134271e-07 0.02087243523908159 0.6750591420075583 0.3040655418761904 4.801461949134271e-07 4.801461949134271e-07 4.801461949134271e-07 0 1.478996766913068e-06 1.478996766913068e-06 1.478996766913068e-06 1.478996766913068e-06 0.7250500640405602 0.2749395829820716 1.478996766913068e-06 1.478996766913068e-06 1.478996766913068e-06 0 8.389796664888028e-07 8.389796664888028e-07 0.003466663981931733 0.1107713243461831 0.3281517949130984 0.552781049798477 0.004825811041643593 8.389796664888028e-07 8.389796664888028e-07 0 0.05126996681411145 0.2122075902229372 0.2787346114022555 0.2803414986020001 0.1394293384316667 0.03801690182556378 3.090048843784064e-08 3.090048843784064e-08 3.090048843784064e-08 0 0.01738945075615956 0.0961074201352914 0.1877486821555564 0.3118436027682125 0.1565458573279922 0.1892549302312446 0.04025574646276188 0.0008542963461467147 1.381663479721684e-08 0 1.221681872330091e-07 1.221681872330091e-07 0.0002640054526105326 0.4944008487268304 0.09113331395745884 0.2716052912019236 0.1238933242049264 0.01870284995168859 1.221681872330091e-07 0 1.818735705874061e-07 1.818735705874061e-07 0.0003930287860393846 0.9202538955045398 0.01232248002800853 0.001767992979680175 0.06378869928569153 0.001473357795328577 1.818735705874061e-07 0 3.405996870570074e-07 3.405996870570074e-07 0.003252727011394421 0.8552338932110988 0.006756475992149858 0.1347552007869215 3.405996870570074e-07 3.405996870570074e-07 3.405996870570074e-07 0 4.77269104366344e-07 4.77269104366344e-07 4.77269104366344e-07 0.01353105637789022 0.6751076480464897 0.3113584319609937 4.77269104366344e-07 4.77269104366344e-07 4.77269104366344e-07 0 1.236001663163838e-07 1.236001663163838e-07 0.0001669838246934345 0.4995095545400566 0.08762287710534343 0.269800870244051 0.1277149394532225 0.01518440403213407 1.236001663163838e-07 0 5.95475647487468e-08 5.95475647487468e-08 0.003279939413925723 0.1759849077888096 0.1102410020950024 0.2523337583838505 0.06143939088081449 0.05469687967187863 0.0643114294762113 0.2777125731943779 1.511896813647227e-07 1.511896813647227e-07 1.511896813647227e-07 0.00397477672307856 0.2500450545250467 0.5112817740234356 0.2180480263094236 0.01664976366029009 1.511896813647227e-07 0 4.206412002071236e-07 4.206412002071236e-07 4.206412002071236e-07 0.604784877780596 0.07470882164518661 0.3173956588986855 0.003108538469530644 4.206412002071236e-07 4.206412002071236e-07 0 8.016269821229165e-07 8.016269821229165e-07 0.0002172409121553104 0.08874090854798898 0.2936656237499629 0.6087795790336065 0.008593441248357665 8.016269821229165e-07 8.016269821229165e-07 0 3.523991865217177e-07 3.523991865217177e-07 0.008284552475939063 0.8274815686415469 0.008798350489887728 0.1554337663966936 3.523991865217177e-07 3.523991865217177e-07 3.523991865217177e-07 0 4.323137214213609e-07 4.323137214213609e-07 4.323137214213609e-07 0.5943548474256798 0.07887131533611309 0.3233084104472933 0.003463265222306523 4.323137214213609e-07 4.323137214213609e-07 0 2.417108876735665e-07 2.417108876735665e-07 2.417108876735665e-07 0.6634226648431997 0.02121472290022126 0.142169026490063 0.08875430426663224 0.05612768522667887 0.02786273915479503 0.0004481319857467923 2.463906844610018e-07 2.463906844610018e-07 0.003470659181317672 0.8171172536308746 0.0261824596935639 0.1501039152711714 0.003124726660334426 2.463906844610018e-07 2.463906844610018e-07 0 1.590414255201052e-06 1.590414255201052e-06 1.590414255201052e-06 1.590414255201052e-06 0.7408085984156294 0.2591802686845843 1.590414255201052e-06 1.590414255201052e-06 1.590414255201052e-06 0 1.812614783831186e-07 1.812614783831186e-07 0.0001877868916049108 0.9122643691411757 0.01604454102056013 0.001272636839727876 0.06846807949113376 0.001762042831362296 1.812614783831186e-07 0 1.511656153853944e-07 1.511656153853944e-07 1.511656153853944e-07 0.00379591976794264 0.2682358262206132 0.4874802369853585 0.2257953238730868 0.01469208849053726 1.511656153853944e-07 0 3.352690426781399e-08 3.352690426781399e-08 3.352690426781399e-08 0.2240550374978308 0.2922025942313877 0.2265697564793425 0.1070765505053309 0.04159729950173657 0.07230951957555477 0.03618914162810403 2.458672783844552e-07 2.458672783844552e-07 2.458672783844552e-07 0.6525322485669011 0.02095108839297459 0.1495062370381844 0.08934005534472435 0.0582656276315482 0.02922476817788989 0.0001792372459422679</probabilities>
		</cpt>
		<cpt id="p1_gesture" dynamic="plate">
			<state id="wave_slow_shoulder" />
			<state id="wave_fast_shoulder" />
			<state id="wave_small_head" />
			<state id="wave_wide_head" />
			<state id="arm_raise_high" />
			<state id="arm_raise_low" />
			<state id="come_here" />
			<state id="i_am_coming" />
			<state id="None" />
			<parents>p1_wti</parents>
			<probabilities>0.03251672882366401 2.782629960994484e-08 0.003532687902307148 0.03570178276146781 0.03711048919330833 2.782629960994484e-08 2.782629960994484e-08 0.01243420993134528 0.8787040179090085 8.240069743620776e-09 0.03165272825907852 0.05708440985724598 8.24006966946015e-09 0.1296598542054794 0.08550127920490834 0.04880652642529384 8.24006966946015e-09 0.6472951773277849 2.780044206038973e-08 2.780044181018575e-08 2.780044181018575e-08 2.780044181018575e-08 0.04340040996199902 0.01477432254423169 2.780044181018575e-08 2.780044181018575e-08 0.9418251006911181 6.852120676534542e-08 6.852120614865456e-08 6.852120614865456e-08 6.852120614865456e-08 6.852120614865456e-08 6.852120614865456e-08 6.852120614865456e-08 6.852120614865456e-08 0.9999994518303501 2.14339707774815e-08 2.143397058457576e-08 2.143397058457576e-08 2.143397058457576e-08 2.143397058457576e-08 2.143397058457576e-08 2.143397058457576e-08 2.143397058457576e-08 0.9999998285282352</probabilities>
		</cpt>
		<cpt id="p2_gesture" dynamic="plate">
			<state id="wave_slow_shoulder" />
			<state id="wave_fast_shoulder" />
			<state id="wave_small_head" />
			<state id="wave_wide_head" />
			<state id="arm_raise_high" />
			<state id="arm_raise_low" />
			<state id="come_here" />
			<state id="i_am_coming" />
			<state id="None" />
			<parents>p2_wti</parents>
			<probabilities>0.03198381764659822 2.752288149156403e-08 0.005056696447800584 0.03341332858838857 0.03611109390931018 2.752288149156403e-08 2.752288149156403e-08 0.0141712839740729 0.879263696865185 8.277585861949568e-09 0.03193473587092661 0.0576063191752677 8.277585861949568e-09 0.1277200705879412 0.08487551793889436 0.04815896971206501 8.277585861949568e-09 0.6497043618821476 2.778565501097339e-08 2.778565501097339e-08 2.778565501097339e-08 2.778565501097339e-08 0.04282216786236676 0.0159207913221176 2.778565501097339e-08 2.778565501097339e-08 0.9412568741015855 2.138918614510334e-08 2.138918614510334e-08 2.138918614510334e-08 2.138918614510334e-08 2.138918614510334e-08 2.138918614510334e-08 2.138918614510334e-08 2.138918614510334e-08 0.9999998288865108 6.834784597320805e-08 6.834784597320805e-08 6.834784597320805e-08 6.834784597320805e-08 6.834784597320805e-08 6.834784597320805e-08 6.834784597320805e-08 6.834784597320805e-08 0.9999994532172322</probabilities>
		</cpt>
		<cpt id="p1_head" dynamic="plate">
			<state id="central" />
			<state id="mid_peripheral" />
			<state id="outside" />
			<parents>p1_wti</parents>
			<probabilities>0.9999998330422006 8.347889966462351e-08 8.347889966462351e-08 0.9999999505595814 2.472020925558254e-08 2.472020925558254e-08 0.9999998331973474 8.340132626457051e-08 8.340132626457051e-08 0.2447851592933052 0.1552231454769631 0.5999916952297317 0.05540027715410281 0.1828976589409848 0.7617020639049125</probabilities>
		</cpt>
	</nodes>
	<dynamic numslices="30">
		<cpt id="p1_imas" order="1">
			<parents>p1_imas</parents>
			<probabilities>0.9999996790362097 8.024094751720463e-08 8.024094751720463e-08 8.024094751720463e-08 8.024094751720463e-08 0.003083394463892731 0.9969163269664691 9.285654592220475e-08 9.285654592220475e-08 9.285654592220475e-08 0.007767796636494354 0.004970461217012573 0.9865537160064207 0.0007079716429863203 5.449708590457397e-08 0.0008516782601480087 0.001670073140075079 0.005796462799589618 0.9914644190187905 0.000217366781396946 3.364212316784998e-08 3.364212316784998e-08 3.229643824113597e-06 0.02639211105668563 0.973604592015244</probabilities>
		</cpt>
		<cpt id="p2_imas" order="1">
			<parents>p2_imas</parents>
			<probabilities>0.9999996810438793 7.973903010228123e-08 7.973903010228123e-08 7.973903010228123e-08 7.973903010228123e-08 0.003009693449127101 0.9969900358219485 9.024297469722351e-08 9.024297469722351e-08 9.024297469722351e-08 0.007671100185567237 0.004929208886647751 0.9866224580803635 0.0007771789739308871 5.387349049846716e-08 0.0008615049655168254 0.001725237921102694 0.005908676079563692 0.9912847062638781 0.0002198747699387512 3.34810629433939e-08 3.34810629433939e-08 3.34810629433939e-08 0.02650247106985054 0.9734974284869606</probabilities>
		</cpt>
		<cpt id="p1_wti" order="1">
			<parents>p2_imas p1_wti</parents>
			<probabilities>0.2 0.2 0.2 0.2 0.2 0.2 0.2 0.2 0.2 0.2 0.2 0.2 0.2 0.2 0.2 0.2 0.2 0.2 0.2 0.2 0.2 0.2 0.2 0.2 0.2 0.2 0.2 0.2 0.2 0.2 0.2 0.2 0.2 0.2 0.2 0.2 0.2 0.2 0.2 0.2 0.2 0.2 0.2 0.2 0.2 0.2 0.2 0.2 0.2 0.2 0.2 0.2 0.2 0.2 0.2 0.2 0.2 0.2 0.2 0.2 0.2 0.2 0.2 0.2 0.2 0.2 0.2 0.2 0.2 0.2 0.2 0.2 0.2 0.2 0.2 0.9999996776635763 8.058410583271785e-08 8.058410583271785e-08 8.058410583271785e-08 8.058410583271785e-08 0.9999616343755994 9.591406100134279e-06 9.591406100134279e-06 9.591406100134279e-06 9.591406100134279e-06 0.9999281673700275 1.795815749304121e-05 1.795815749304121e-05 1.795815749304121e-05 1.795815749304121e-05 0.2 0.2 0.2 0.2 0.2 0.2 0.2 0.2 0.2 0.2 0.9999671214861087 8.219628472793029e-06 8.219628472793029e-06 8.219628472793029e-06 8.219628472793029e-06 0.9986230636833043 0.0003442340791738381 0.0003442340791738381 0.0003442340791738381 0.0003442340791738381 0.2 0.2 0.2 0.2 0.2 0.2 0.2 0.2 0.2 0.2 0.2 0.2 0.2 0.2 0.2 0.2 0.2 0.2 0.2 0.2 0.2 0.2 0.2 0.2 0.2 0.2 0.2 0.2 0.2 0.2 0.2 0.2 0.2 0.2 0.2 0.2 0.2 0.2 0.2 0.2 0.2 0.2 0.2 0.2 0.2 0.2 0.2 0.2 0.2 0.2 0.2 0.2 0.2 0.2 0.2 0.2 0.2 0.2 0.2 0.2 0.2 0.2 0.2 0.2 0.2 0.2 0.2 0.2 0.2 0.2 0.2 0.2 0.2 0.2 0.2 0.2 0.2 0.2 0.2 0.2 0.2 0.2 0.2 0.2 0.2 0.2 0.2 0.2 0.2 0.2 0.9999988524888802 2.868777800249872e-07 2.868777800249872e-07 2.868777800249872e-07 2.868777800249872e-07 0.00482500276679813 0.995174557477208 1.465853313524769e-07 1.465853313524769e-07 1.465853313524769e-07 0.5526830491474424 0.4472417251755266 2.50752256770311e-05 2.50752256770311e-05 2.50752256770311e-05 0.2 0.2 0.2 0.2 0.2 0.2 0.2 0.2 0.2 0.2 0.9999926181556463 1.84546108845295e-06 1.84546108845295e-06 1.84546108845295e-06 1.84546108845295e-06 7.256894049346882e-05 0.9997097242380264 7.256894049346882e-05 7.256894049346882e-05 7.256894049346882e-05 0.9998795543510992 3.011141222523337e-05 3.011141222523337e-05 3.011141222523337e-05 3.011141222523337e-05 0.2 0.2 0.2 0.2 0.2 0.2 0.2 0.2 0.2 0.2 0.2 0.2 0.2 0.2 0.2 0.2 0.2 0.2 0.2 0.2 0.2 0.2 0.2 0.2 0.2 0.2 0.2 0.2 0.2 0.2 0.2 0.2 0.2 0.2 0.2 0.2 0.2 0.2 0.2 0.2 0.2 0.2 0.2 0.2 0.2 0.2 0.2 0.2 0.2 0.2 0.2 0.2 0.2 0.2 0.2 0.2 0.2 0.2 0.2 0.2 0.2 0.2 0.2 0.2 0.2 0.2 0.2 0.2 0.2 0.2 0.002272727272727273 0.002272727272727273 0.9909090909090907 0.002272727272727273 0.002272727272727273 0.003389830508474576 0.003389830508474576 0.9864406779661016 0.003389830508474576 0.003389830508474576 0.2 0.2 0.2 0.2 0.2 0.9999945947772032 1.351305699131786e-06 1.351305699131786e-06 1.351305699131786e-06 1.351305699131786e-06 6.237532731453006e-08 0.9999997504986905 6.237532731453006e-08 6.237532731453006e-08 6.237532731453006e-08 0.02284934000910332 0.387833849677713 0.589310937201756 2.93655571380328e-06 2.93655571380328e-06 0.08334292053578767 0.6282521160325417 0.2883720930232558 1.643520420741228e-05 1.643520420741228e-05 0.01 0.9600000000000002 0.01 0.01 0.01 0.9999769232988148 5.769175296391383e-06 5.769175296391383e-06 5.769175296391383e-06 5.769175296391383e-06 1.011234818837282e-06 0.9999959550607244 1.011234818837282e-06 1.011234818837282e-06 1.011234818837282e-06 0.2966587410837191 0.7033037166812663 1.251407833813039e-05 1.251407833813039e-05 1.251407833813039e-05 1.523809523809523e-05 0.9999390476190474 1.523809523809523e-05 1.523809523809523e-05 1.523809523809523e-05 0.2 0.2 0.2 0.2 0.2 0.2 0.2 0.2 0.2 0.2 8.091596876643603e-08 0.9999996763361246 8.091596876643603e-08 8.091596876643603e-08 8.091596876643603e-08 2.462750892747199e-05 0.6570865656938801 0.3428395517793376 2.462750892747199e-05 2.462750892747199e-05 1.795815749304121e-05 0.1718775253658974 0.005225823830474993 0.8228607344886414 1.795815749304121e-05 0.2 0.2 0.2 0.2 0.2 0.9999960959422197 9.760144450137859e-07 9.760144450137859e-07 9.760144450137859e-07 9.760144450137859e-07 1.069315146421323e-07 0.9999995722739415 1.069315146421323e-07 1.069315146421323e-07 1.069315146421323e-07 7.037050068611237e-06 0.310200204074452 0.6897786847753421 7.037050068611237e-06 7.037050068611237e-06 0.0005291005291005292 0.0005291005291005292 0.997883597883598 0.0005291005291005292 0.0005291005291005292 0.006666666666666668 0.006666666666666668 0.9733333333333334 0.006666666666666668 0.006666666666666668 0.9999838962921215 4.025926969684772e-06 4.025926969684772e-06 4.025926969684772e-06 4.025926969684772e-06 7.430734409204597e-08 0.9999997027706233 7.430734409204597e-08 7.430734409204597e-08 7.430734409204597e-08 3.291563393865185e-07 0.08986165559055585 0.9101373569404261 3.291563393865185e-07 3.291563393865185e-07 1.22578312219219e-06 0.05634434699468623 0.07647170586108198 0.8671814955779873 1.22578312219219e-06 1.840773124712379e-05 1.840773124712379e-05 0.9999263690750114 1.840773124712379e-05 1.840773124712379e-05 0.9999902942068548 2.426448286320898e-06 2.426448286320898e-06 2.426448286320898e-06 2.426448286320898e-06 3.733453799442597e-07 0.9948668743711467 0.005132005592713793 3.733453799442597e-07 3.733453799442597e-07 9.211631711594863e-08 0.0133403771610488 0.9866593464899998 9.211631711594863e-08 9.211631711594863e-08 8.311411984224939e-07 0.00940519380134894 0.09879442969168817 0.891798714224566 8.311411984224939e-07 4.776005349125992e-06 4.776005349125992e-06 0.9993600152832173 0.0006256567007355049 4.776005349125992e-06 0.2 0.2 0.2 0.2 0.2 3.346703413470148e-07 0.9999986613186349 3.346703413470148e-07 3.346703413470148e-07 3.346703413470148e-07 2.315653703251294e-07 0.01050982589757632 0.9894894794063128 2.315653703251294e-07 2.315653703251294e-07 4.816155311376481e-07 0.01850415032183958 0.003785979690273052 0.9777089067568251 4.816155311376481e-07 3.49357182783678e-06 3.49357182783678e-06 0.8048700391280044 0.195119480156512 3.49357182783678e-06 0.2 0.2 0.2 0.2 0.2 0.2 0.2 0.2 0.2 0.2 1.216249087813184e-05 1.216249087813184e-05 0.9999513500364873 1.216249087813184e-05 1.216249087813184e-05 0.0002551020408163265 0.0002551020408163265 0.0002551020408163265 0.9989795918367346 0.0002551020408163265 0.2 0.2 0.2 0.2 0.2 0.2 0.2 0.2 0.2 0.2 0.2 0.2 0.2 0.2 0.2 2.69814502529511e-06 2.69814502529511e-06 0.9999892074198989 2.69814502529511e-06 2.69814502529511e-06 0.0002222222222222222 0.0002222222222222222 0.0002222222222222222 0.9991111111111111 0.0002222222222222222 5.387785889388756e-06 5.387785889388756e-06 0.1460952021766655 5.387785889388756e-06 0.8538886344656663 0.2 0.2 0.2 0.2 0.2 0.2 0.2 0.2 0.2 0.2 0.2 0.2 0.2 0.2 0.2 1.571462245619549e-06 1.571462245619549e-06 1.571462245619549e-06 0.9999937141510175 1.571462245619549e-06 3.218020917135961e-06 3.218020917135961e-06 3.218020917135961e-06 3.218020917135961e-06 0.9999871279163314 0.2 0.2 0.2 0.2 0.2 0.2 0.2 0.2 0.2 0.2 6.211180124223604e-05 6.211180124223604e-05 0.9997515527950311 6.211180124223604e-05 6.211180124223604e-05 5.240691876141489e-07 5.240691876141489e-07 5.240691876141489e-07 0.9999979037232496 5.240691876141489e-07 1.377672339921362e-07 1.377672339921362e-07 0.0008591164711749616 1.377672339921362e-07 0.999140470227123 0.2 0.2 0.2 0.2 0.2 0.2 0.2 0.2 0.2 0.2 0.2 0.2 0.2 0.2 0.2 8.430814627463378e-07 8.430814627463378e-07 8.430814627463378e-07 0.9880164400885235 0.01198103066708821 5.885345812620595e-08 5.885345812620595e-08 5.885345812620595e-08 5.885345812620595e-08 0.9999997645861676</probabilities>
		</cpt>
		<cpt id="p2_wti" order="1">
			<parents>p1_imas p2_wti</parents>
			<probabilities>0.2 0.2 0.2 0.2 0.2 0.2 0.2 0.2 0.2 0.2 0.2 0.2 0.2 0.2 0.2 0.2 0.2 0.2 0.2 0.2 0.2 0.2 0.2 0.2 0.2 0.2 0.2 0.2 0.2 0.2 0.2 0.2 0.2 0.2 0.2 0.2 0.2 0.2 0.2 0.2 0.2 0.2 0.2 0.2 0.2 0.2 0.2 0.2 0.2 0.2 0.2 0.2 0.2 0.2 0.2 0.2 0.2 0.2 0.2 0.2 0.2 0.2 0.2 0.2 0.2 0.2 0.2 0.2 0.2 0.2 0.2 0.2 0.2 0.2 0.2 0.9999996794688154 8.013279606964659e-08 8.013279606964659e-08 8.013279606964659e-08 8.013279606964659e-08 0.9999615273636625 9.618159084351254e-06 9.618159084351254e-06 9.618159084351254e-06 9.618159084351254e-06 0.9999281673700275 1.795815749304121e-05 1.795815749304121e-05 1.795815749304121e-05 1.795815749304121e-05 0.2 0.2 0.2 0.2 0.2 0.2 0.2 0.2 0.2 0.2 0.9999693838499808 7.654037504783774e-06 7.654037504783774e-06 7.654037504783774e-06 7.654037504783774e-06 0.9985507246376808 0.00036231884057971 0.00036231884057971 0.00036231884057971 0.00036231884057971 0.2 0.2 0.2 0.2 0.2 0.2 0.2 0.2 0.2 0.2 0.2 0.2 0.2 0.2 0.2 0.2 0.2 0.2 0.2 0.2 0.2 0.2 0.2 0.2 0.2 0.2 0.2 0.2 0.2 0.2 0.2 0.2 0.2 0.2 0.2 0.2 0.2 0.2 0.2 0.2 0.2 0.2 0.2 0.2 0.2 0.2 0.2 0.2 0.2 0.2 0.2 0.2 0.2 0.2 0.2 0.2 0.2 0.2 0.2 0.2 0.2 0.2 0.2 0.2 0.2 0.2 0.2 0.2 0.2 0.2 0.2 0.2 0.2 0.2 0.2 0.2 0.2 0.2 0.2 0.2 0.2 0.2 0.2 0.2 0.2 0.2 0.2 0.2 0.2 0.2 0.999998914742143 2.713144643167218e-07 2.713144643167218e-07 2.713144643167218e-07 2.713144643167218e-07 0.004789432843226341 0.9952101344548967 1.442339590202476e-07 1.442339590202476e-07 1.442339590202476e-07 0.5752981461801864 0.4246310072027393 2.361553902467823e-05 2.361553902467823e-05 2.361553902467823e-05 0.2 0.2 0.2 0.2 0.2 0.2 0.2 0.2 0.2 0.2 0.9999926905260081 1.827368497994464e-06 1.827368497994464e-06 1.827368497994464e-06 1.827368497994464e-06 0.0001129943502824859 0.99954802259887 0.0001129943502824859 0.0001129943502824859 0.0001129943502824859 0.9998805970149255 2.985074626865672e-05 2.985074626865672e-05 2.985074626865672e-05 2.985074626865672e-05 0.2 0.2 0.2 0.2 0.2 0.2 0.2 0.2 0.2 0.2 0.2 0.2 0.2 0.2 0.2 0.2 0.2 0.2 0.2 0.2 0.2 0.2 0.2 0.2 0.2 0.2 0.2 0.2 0.2 0.2 0.2 0.2 0.2 0.2 0.2 0.2 0.2 0.2 0.2 0.2 0.2 0.2 0.2 0.2 0.2 0.2 0.2 0.2 0.2 0.2 0.2 0.2 0.2 0.2 0.2 0.2 0.2 0.2 0.2 0.2 0.9733333333333334 0.006666666666666668 0.006666666666666668 0.006666666666666668 0.006666666666666668 0.2 0.2 0.2 0.2 0.2 0.2 0.2 0.2 0.2 0.2 0.2 0.2 0.2 0.2 0.2 0.2 0.2 0.2 0.2 0.2 0.9999950243495889 1.243912602700534e-06 1.243912602700534e-06 1.243912602700534e-06 1.243912602700534e-06 6.163221836541494e-08 0.9999997534711264 6.163221836541494e-08 6.163221836541494e-08 6.163221836541494e-08 0.02022590463307406 0.3564179912073047 0.6233506932702062 2.705444707473791e-06 2.705444707473791e-06 0.2 0.2 0.2 0.2 0.2 0.08502097064110244 0.645611144397843 0.2693379269023367 1.497902935889754e-05 1.497902935889754e-05 0.9999738945994452 6.52635013868494e-06 6.52635013868494e-06 6.52635013868494e-06 6.52635013868494e-06 1.070910327323741e-06 0.9999957163586904 1.070910327323741e-06 1.070910327323741e-06 1.070910327323741e-06 0.2940939597315436 0.7058694325808419 1.220256253813301e-05 1.220256253813301e-05 1.220256253813301e-05 0.2 0.2 0.2 0.2 0.2 1.641092967916632e-05 0.9999343562812831 1.641092967916632e-05 1.641092967916632e-05 1.641092967916632e-05 0.2 0.2 0.2 0.2 0.2 8.154096108253777e-08 0.9999996738361554 8.154096108253777e-08 8.154096108253777e-08 8.154096108253777e-08 2.046245140167792e-05 0.5251892776754655 0.4747493349703295 2.046245140167792e-05 2.046245140167792e-05 0.006666666666666668 0.006666666666666668 0.9733333333333334 0.006666666666666668 0.006666666666666668 1.501501501501502e-05 0.1693843843843844 0.008723723723723724 1.501501501501502e-05 0.8218618618618619 0.99999569707401 1.075731497418244e-06 1.075731497418244e-06 1.075731497418244e-06 1.075731497418244e-06 1.09319784967983e-07 0.9999995627208602 1.09319784967983e-07 1.09319784967983e-07 1.09319784967983e-07 7.359976448075366e-06 0.3223007286376683 0.6776771914329873 7.359976448075366e-06 7.359976448075366e-06 0.2 0.2 0.2 0.2 0.2 0.0004587155963302753 0.0004587155963302753 0.998165137614679 0.0004587155963302753 0.0004587155963302753 0.9999817192998495 4.570175037703946e-06 4.570175037703946e-06 4.570175037703946e-06 4.570175037703946e-06 7.544542033095641e-08 0.9999996982183184 7.544542033095641e-08 7.544542033095641e-08 7.544542033095641e-08 3.262291498794584e-07 0.09019942387932132 0.9097995974332291 3.262291498794584e-07 3.262291498794584e-07 1.88821752265861e-05 1.88821752265861e-05 0.9999244712990936 1.88821752265861e-05 1.88821752265861e-05 1.358511071865236e-06 0.05868224426029073 0.08503056649911697 1.358511071865236e-06 0.8562844722184486 0.9999904692693505 2.382682662409607e-06 2.382682662409607e-06 2.382682662409607e-06 2.382682662409607e-06 3.753584673363064e-07 0.9948110445475432 0.005187829377055089 3.753584673363064e-07 3.753584673363064e-07 9.225960376345374e-08 0.01302807090704107 0.9869716523141475 9.225960376345374e-08 9.225960376345374e-08 4.721546778724711e-06 4.721546778724711e-06 0.9999811138128852 4.721546778724711e-06 4.721546778724711e-06 8.205229192564421e-07 0.009961968762692463 0.09678970407840917 8.205229192564421e-07 0.8932466861130599 0.2 0.2 0.2 0.2 0.2 3.373079452886514e-07 0.9999986507682191 3.373079452886514e-07 3.373079452886514e-07 3.373079452886514e-07 2.32668251137457e-07 0.01054126778603363 0.9894580342092131 2.32668251137457e-07 2.32668251137457e-07 3.430472890687981e-06 3.430472890687981e-06 0.7999382514879676 3.430472890687981e-06 0.2000514570933603 4.889318062363252e-07 0.01890503721993375 0.003911943381696838 4.889318062363252e-07 0.977182041534757 0.2 0.2 0.2 0.2 0.2 0.2 0.2 0.2 0.2 0.2 1.328727079457879e-05 1.328727079457879e-05 0.9999468509168216 1.328727079457879e-05 1.328727079457879e-05 0.0007633587786259542 0.0007633587786259542 0.5541984732824426 0.4435114503816794 0.0007633587786259542 0.0001531393568147014 0.0001531393568147014 0.0001531393568147014 0.0001531393568147014 0.9993874425727413 0.2 0.2 0.2 0.2 0.2 0.2 0.2 0.2 0.2 0.2 2.813731007315701e-06 2.813731007315701e-06 0.9999887450759709 2.813731007315701e-06 2.813731007315701e-06 5.272454063743971e-06 5.272454063743971e-06 0.1315002768038384 0.8684839058339705 5.272454063743971e-06 0.0001094091903719913 0.0001094091903719913 0.0001094091903719913 0.0001094091903719913 0.9995623632385121 0.2 0.2 0.2 0.2 0.2 0.2 0.2 0.2 0.2 0.2 0.2 0.2 0.2 0.2 0.2 3.140210394096405e-06 3.140210394096405e-06 3.140210394096405e-06 0.9999874391584237 3.140210394096405e-06 1.42201997938071e-06 1.42201997938071e-06 1.42201997938071e-06 1.42201997938071e-06 0.9999943119200826 0.2 0.2 0.2 0.2 0.2 0.2 0.2 0.2 0.2 0.2 4.477277815088428e-05 4.477277815088428e-05 0.9998209088873966 4.477277815088428e-05 4.477277815088428e-05 1.376504174937163e-07 1.376504174937163e-07 0.001038021798320114 0.9989615652504273 1.376504174937163e-07 5.071469686557816e-07 5.071469686557816e-07 5.071469686557816e-07 5.071469686557816e-07 0.9999979714121254 0.2 0.2 0.2 0.2 0.2 0.2 0.2 0.2 0.2 0.2 0.2 0.2 0.2 0.2 0.2 5.87479864127657e-08 5.87479864127657e-08 5.87479864127657e-08 0.9999997650080543 5.87479864127657e-08 8.69138206011829e-07 8.69138206011829e-07 8.69138206011829e-07 0.0123513230456341 0.9876460695397479</probabilities>
		</cpt>
	</dynamic>
	<extensions>
		<genie version="1.0" app="SMILE_ACADEMIC 1.5.0@a121f1f76773" name="emidas dbn v9" faultnameformat="user">
			<plate leftwidth="120" rightwidth="120">120 50 1164 561</plate>
			<node id="p1_imas">
				<name>p1_imas</name>
				<interior color="e5f6f7" />
				<outline color="000080" />
				<font color="000000" name="MS Sans Serif" size="8" />
				<position>491 462 547 497</position>
			</node>
			<node id="p2_imas">
				<name>p2_imas</name>
				<interior color="e5f6f7" />
				<outline color="000080" />
				<font color="000000" name="MS Sans Serif" size="8" />
				<position>651 472 707 507</position>
			</node>
			<node id="p1_wti">
				<name>p1_wti</name>
				<interior color="e5f6f7" />
				<outline color="000080" />
				<font color="000000" name="MS Sans Serif" size="8" />
				<position>487 311 571 363</position>
			</node>
			<node id="p2_wti">
				<name>p2_wti</name>
				<interior color="e5f6f7" />
				<outline color="000080" />
				<font color="000000" name="MS Sans Serif" size="8" />
				<position>650 301 734 353</position>
			</node>
			<node id="p1_approach">
				<name>p1_approach</name>
				<interior color="e5f6f7" />
				<outline color="000080" />
				<font color="000000" name="MS Sans Serif" size="8" />
				<position>268 135 344 182</position>
			</node>
			<node id="p2_head">
				<name>p2_head</name>
				<interior color="e5f6f7" />
				<outline color="000080" />
				<font color="000000" name="MS Sans Serif" size="8" />
				<position>676 84 733 119</position>
			</node>
			<node id="p1_body">
				<name>p1_body</name>
				<interior color="e5f6f7" />
				<outline color="000080" />
				<font color="000000" name="MS Sans Serif" size="8" />
				<position>404 76 461 111</position>
			</node>
			<node id="p2_approach">
				<name>p2_approach</name>
				<interior color="e5f6f7" />
				<outline color="000080" />
				<font color="000000" name="MS Sans Serif" size="8" />
				<position>924 160 1000 207</position>
			</node>
			<node id="p2_body">
				<name>p2_body</name>
				<interior color="e5f6f7" />
				<outline color="000080" />
				<font color="000000" name="MS Sans Serif" size="8" />
				<position>827 91 884 126</position>
			</node>
			<node id="dist">
				<name>dist</name>
				<interior color="e5f6f7" />
				<outline color="000080" />
				<font color="000000" name="MS Sans Serif" size="8" />
				<position>599 137 637 160</position>
			</node>
			<node id="p1_gesture">
				<name>p1_gesture</name>
				<interior color="e5f6f7" />
				<outline color="000080" />
				<font color="000000" name="MS Sans Serif" size="8" />
				<position>248 271 316 313</position>
			</node>
			<node id="p2_gesture">
				<name>p2_gesture</name>
				<interior color="e5f6f7" />
				<outline color="000080" />
				<font color="000000" name="MS Sans Serif" size="8" />
				<position>964 312 1032 354</position>
			</node>
			<node id="p1_head">
				<name>p1_head</name>
				<interior color="e5f6f7" />
				<outline color="000080" />
				<font color="000000" name="MS Sans Serif" size="8" />
				<position>528 80 585 115</position>
			</node>
		</genie>
	</extensions>
</smile>
