<?xml version="1.0" encoding="ISO-8859-1"?>
<!-- This file was created by ACADEMIC version of SMILE -->
<smile version="1.0" id="Network2" numsamples="10000" discsamples="10000">
	<nodes>
		<cpt id="p1_imas" target="true" dynamic="plate">
			<state id="very_high" />
			<state id="high" />
			<state id="medium" />
			<state id="low" />
			<state id="very_low" />
			<probabilities>0.07453998266715917 0.08357720515846041 0.1729131963856859 0.4967599372798363 0.1722096785088583</probabilities>
		</cpt>
		<cpt id="p2_imas" target="true" dynamic="plate">
			<state id="very_high" />
			<state id="high" />
			<state id="medium" />
			<state id="low" />
			<state id="very_low" />
			<probabilities>0.07464058787937149 0.08365409628493697 0.1723512444146142 0.4953895505677727 0.1739645208533047</probabilities>
		</cpt>
		<cpt id="p1_wti" dynamic="plate">
			<state id="very_high" />
			<state id="high" />
			<state id="medium" />
			<state id="low" />
			<state id="very_low" />
			<parents>p1_imas</parents>
			<probabilities>0.9999922875955616 1.928101109622189e-06 1.928101109622189e-06 1.928101109622189e-06 1.928101109622189e-06 0.150536950260092 0.8494578908903315 1.71961652551481e-06 1.71961652551481e-06 1.71961652551481e-06 0.01108871554257074 0.9826334140959092 0.006276208010040601 8.311757396425112e-07 8.311757396425112e-07 0.03672052320257609 0.4685724039862227 0.2568003460242651 0.2379064374689888 2.893179474048903e-07 8.345712807330875e-07 8.345712807330875e-07 8.345712807330875e-07 0.2872185408355727 0.7127789554505851</probabilities>
		</cpt>
		<cpt id="p2_wti" dynamic="plate">
			<state id="very_high" />
			<state id="high" />
			<state id="medium" />
			<state id="very_low" />
			<state id="low" />
			<parents>p2_imas</parents>
			<probabilities>0.9999922979907384 1.925502315416535e-06 1.925502315416535e-06 1.925502315416535e-06 1.925502315416535e-06 0.1535511802906917 0.8464436656014844 1.718035941311893e-06 1.718035941311893e-06 1.718035941311893e-06 0.01308450181578629 0.9797707647983454 0.007143065614302807 8.338857826643483e-07 8.338857826643483e-07 0.0355818467189073 0.4688880056398994 0.2556191559298726 2.901182812232547e-07 0.2399107015930395 8.261526895400808e-07 8.261526895400808e-07 8.261526895400808e-07 0.712065960030733 0.2879315615111985</probabilities>
		</cpt>
		<cpt id="p1_approach" dynamic="plate">
			<state id="y" />
			<state id="m" />
			<state id="n" />
			<parents>p1_wti</parents>
			<probabilities>0.7710894518416638 0.1258312795252094 0.1030792686331269 0.5475492721735233 0.1607214127857274 0.2917293150407493 0.3383101749405429 0.1795404265821893 0.4821493984772678 0.3154488471452364 0.08653488957660666 0.598016263278157 0.0002862328444365907 0.01944316709237632 0.9802706000631871</probabilities>
		</cpt>
		<cpt id="p2_head" dynamic="plate">
			<state id="central" />
			<state id="mid_peripheral" />
			<state id="outside" />
			<parents>p2_wti</parents>
			<probabilities>0.9999998844855954 5.77572023520119e-08 5.77572023520119e-08 0.997821029439638 0.002010869189681718 0.0001681013706803715 0.9789871871521749 0.01892304834880881 0.00208976449901643 0.07169023423082303 0.2079161938830204 0.7203935718861566 0.4359071592244953 0.3365028969881229 0.2275899437873818</probabilities>
		</cpt>
		<cpt id="p1_body" dynamic="plate">
			<state id="strongly_facing" />
			<state id="slightly_facing" />
			<state id="turned_away" />
			<parents>p1_wti</parents>
			<probabilities>0.3675750402965283 0.5894857752777798 0.04293918442569195 0.2681472890170504 0.5754330032965966 0.156419707686353 0.1228744753002966 0.5085375985893852 0.3685879261103183 0.07972283643940729 0.7884683959038641 0.1318087676567285 0.002432351657590216 0.3933332095026961 0.6042344388397136</probabilities>
		</cpt>
		<cpt id="p2_approach" dynamic="plate">
			<state id="y" />
			<state id="m" />
			<state id="n" />
			<parents>p2_wti</parents>
			<probabilities>0.7736349114102704 0.1245754123662098 0.1017896762235199 0.5462421654814821 0.1625371475105901 0.2912206870079279 0.3419638051622856 0.1781808765772031 0.4798553182605112 0.0002392254112024087 0.01961723103852143 0.9801435435502762 0.3150309383176684 0.08816343186945159 0.5968056298128801</probabilities>
		</cpt>
		<cpt id="p2_body" dynamic="plate">
			<state id="strongly_facing" />
			<state id="slightly_facing" />
			<state id="turned_away" />
			<parents>p2_wti</parents>
			<probabilities>0.3703715832716198 0.5854337028754655 0.04419471385291482 0.2663382797085921 0.5790808757145192 0.1545808445768886 0.1222601370084014 0.5099084351135207 0.367831427878078 0.002457520052046681 0.3999091591114698 0.5976333208364836 0.08154923144198339 0.7905427000428822 0.1279080685151343</probabilities>
		</cpt>
		<cpt id="dist" dynamic="plate">
			<state id="range_0_3" />
			<state id="range_3_6" />
			<state id="range_6_9" />
			<state id="range_9_12" />
			<state id="range_12_15" />
			<state id="range_15_18" />
			<state id="range_18_21" />
			<state id="range_21_24" />
			<state id="range_24_27" />
			<state id="range_27_30" />
			<state id="range_30_inf" />
			<parents>p1_wti p2_wti</parents>
			<probabilities>0.1111111111111111 0.1111111111111111 0.1111111111111111 0.1111111111111111 0.1111111111111111 0.1111111111111111 0.1111111111111111 0.1111111111111111 0.1111111111111111 0 0 0.05308901703912402 0.1965178183431072 0.2447158000308293 0.2445211300692132 0.140076651272421 0.07505328907952047 0.04011605261645257 0.005910221577037198 1.997229523094744e-08 0 0 1.874786743007983e-06 1.874786743007983e-06 1.874786743007983e-06 0.07593073787856633 0.8753435546706563 0.04871445873031944 1.874786743007983e-06 1.874786743007983e-06 1.874786743007983e-06 0 0 0.00140646976090014 0.00140646976090014 0.00140646976090014 0.00140646976090014 0.00140646976090014 0.9887482419127988 0.00140646976090014 0.00140646976090014 0.00140646976090014 0 0 8.014072711681711e-07 8.014072711681711e-07 0.003311414844466883 0.1058106034196048 0.3158362083819186 0.5687338967226448 0.006304671002280002 8.014072711681711e-07 8.014072711681711e-07 0 0 0.05314317533602107 0.1960917702566776 0.24472166767611 0.2457205681501797 0.1406116289864292 0.0741939849135556 0.0397325463462038 0.00578463840504367 1.992977941520846e-08 0 0 0.03207616297993732 0.1210959330200734 0.1826798779501374 0.247266697568574 0.1690066709429229 0.2189546285152292 0.02827908054914159 0.0006409400262235376 8.44776035934069e-09 0 0 0.01650103405629871 0.07369614961213133 0.09541858803463121 0.3069752597179359 0.08473671115895774 0.1974344453602585 0.1283562303334982 0.09554573556633646 0.001335846159952145 0 0 1.929836546704167e-07 1.929836546704167e-07 0.0004170376777427705 0.9757971479331642 1.929836546704167e-07 0.0225011221999519 0.001283727270867612 1.929836546704167e-07 1.929836546704167e-07 0 0 6.053560816463118e-08 6.053560816463118e-08 0.0005781150579722279 0.1520027933551032 0.001200844859161789 0.033477644169637 0.08403643928826349 0.205466571238334 0.3282336926303285 0.1669994611725517 0.02800431715743187 2.108930476997895e-06 2.108930476997895e-06 2.108930476997895e-06 0.05637382058063075 0.8582756540847876 0.08533787175171985 2.108930476997895e-06 2.108930476997895e-06 2.108930476997895e-06 0 0 0.01653109998537364 0.07406512777899575 0.09662252193596653 0.3075685546141556 0.08690249173974066 0.1895954514757915 0.1316105634766089 0.0950953507886389 0.002008838204728781 0 0 5.320931731328491e-08 5.320931731328491e-08 0.002930822406933046 0.1572200174941593 0.04250434760029437 0.2637884363489661 0.1791744478642073 0.04876288071200026 0.05746611590766502 0.24815282524714 0 5.499733262936745e-07 5.499733262936745e-07 5.499733262936745e-07 0.01020200520274766 5.499733262936745e-07 0.9753507454888436 0.01444394946845078 5.499733262936745e-07 5.499733262936745e-07 0 0 1.885351404049471e-07 1.885351404049471e-07 1.885351404049471e-07 0.2710699802848804 0.03348516068190143 0.04505066033490251 0.2559072301529529 0.2183549894222359 0.02790093835824731 0.04416134007761238 0.1040691350818459 7.755256512864418e-07 7.755256512864418e-07 0.0002101674514986257 0.0858514651230604 0.2841037405153212 0.6197659773794677 0.01006554742804673 7.755256512864418e-07 7.755256512864418e-07 0 0 6.159640764822882e-08 6.159640764822882e-08 0.001448069947402212 0.1446368038658891 0.001537877509753329 0.03431320282656059 0.08037450369464494 0.2119586592014285 0.3299547087774203 0.1687578339081202 0.02701821707596556 1.975522876456133e-07 1.975522876456133e-07 1.975522876456133e-07 0.2715994287578051 0.03604143935806569 0.04464148309614217 0.2392208063649767 0.2199938324175797 0.03139382423891499 0.04785407839783514 0.1092545147118176 2.384271627668327e-07 2.384271627668327e-07 2.384271627668327e-07 0.654409841510312 0.02092651364888214 0.1041766955092005 0.1371948042906398 0.05536517146608623 0.02748421433362111 0.0004420439597697079 0 1.210608611688571e-07 1.210608611688571e-07 0.001705263290424522 0.4014799448156171 0.01286441135124743 0.07392484638587327 0.308932669338722 0.2010925016355322 1.210608611688571e-07 0 0 0.0005527915975677169 0.0005527915975677169 0.0005527915975677169 0.0005527915975677169 0.0005527915975677169 0.9955776672194583 0.0005527915975677169 0.0005527915975677169 0.0005527915975677169 0 0 1.945569956664374e-07 1.945569956664374e-07 0.0002015610475104292 0.9776275019543248 1.945569956664374e-07 0.02137305875893649 0.0007969054542497277 1.945569956664374e-07 1.945569956664374e-07 0 0 5.964224197573274e-07 5.964224197573274e-07 5.964224197573274e-07 0.009329835912263874 5.964224197573274e-07 0.9715727182071062 0.01909386734611108 5.964224197573274e-07 5.964224197573274e-07 0 0 4.010552405066114e-08 4.010552405066114e-08 4.010552405066114e-08 0.2672082276001324 0.2879415402630787 0.2129852783449702 0.05705500083599966 0.04502165918879119 0.08649803015702799 0.04329014329342794 0 2.437309950756589e-07 2.437309950756589e-07 2.437309950756589e-07 0.646862548392789 0.02076904928338212 0.1074570960329368 0.1380026829907938 0.05775937121302965 0.02897084099867312 0.0001776798954101554 0</probabilities>
		</cpt>
		<cpt id="p1_gesture" dynamic="plate">
			<state id="wave_slow_shoulder" />
			<state id="wave_fast_shoulder" />
			<state id="wave_small_head" />
			<state id="wave_wide_head" />
			<state id="arm_raise_high" />
			<state id="arm_raise_low" />
			<state id="come_here" />
			<state id="i_am_coming" />
			<state id="None" />
			<parents>p1_wti</parents>
			<probabilities>1.928594146859474e-08 1.928594129502127e-08 0.0024484467015937 0.02474430650560495 1.928594129502127e-08 1.928594129502127e-08 0.03490894268085097 1.928594129502127e-08 0.9378982076822437 4.797470945064693e-09 0.0219153462359491 0.06921920618176772 0.01028719776790559 0.08583138964997163 0.07758941611511458 0.01976222688123811 4.797470901887454e-09 0.7153952075731115 2.24540104591679e-08 2.245401025708181e-08 2.245401025708181e-08 2.245401025708181e-08 0.1489473761972308 0.05259434310724951 2.245401025708181e-08 2.245401025708181e-08 0.7984581459714579 2.853837539647295e-08 2.853837513962757e-08 0.04187841071042918 2.853837513962757e-08 2.853837513962757e-08 2.853837513962757e-08 2.853837513962757e-08 2.853837513962757e-08 0.9581213895209446 2.788978311900593e-08 2.788978286799788e-08 2.788978286799788e-08 2.788978286799788e-08 2.788978286799788e-08 2.788978286799788e-08 2.788978286799788e-08 2.788978286799788e-08 0.9999997768817368</probabilities>
		</cpt>
		<cpt id="p2_gesture" dynamic="plate">
			<state id="wave_slow_shoulder" />
			<state id="wave_fast_shoulder" />
			<state id="wave_small_head" />
			<state id="wave_wide_head" />
			<state id="arm_raise_high" />
			<state id="arm_raise_low" />
			<state id="come_here" />
			<state id="i_am_coming" />
			<state id="None" />
			<parents>p2_wti</parents>
			<probabilities>1.925240078400397e-08 1.925240078400397e-08 0.003537185838842696 0.0233727995997965 1.925240078400397e-08 1.925240078400397e-08 0.03510952517534413 1.925240078400397e-08 0.9379803931240127 4.808529153590533e-09 0.02186234324501503 0.07044565895388688 0.009840837636930862 0.08614655489971546 0.07820687024276883 0.01937341008688334 4.808529153590533e-09 0.7141243153177413 2.259522418303578e-08 2.259522418303578e-08 2.259522418303578e-08 2.259522418303578e-08 0.1508970304000665 0.05334992274692852 2.259522418303578e-08 2.259522418303578e-08 0.7957529112816598 2.767851570084562e-08 2.767851570084562e-08 2.767851570084562e-08 2.767851570084562e-08 2.767851570084562e-08 2.767851570084562e-08 2.767851570084562e-08 2.767851570084562e-08 0.9999997785718744 2.822131095609145e-08 2.822131095609145e-08 0.04222083091159209 2.822131095609145e-08 2.822131095609145e-08 2.822131095609145e-08 2.822131095609145e-08 2.822131095609145e-08 0.9577789715392312</probabilities>
		</cpt>
		<cpt id="p1_head" dynamic="plate">
			<state id="central" />
			<state id="mid_peripheral" />
			<state id="outside" />
			<parents>p1_wti</parents>
			<probabilities>0.9999998842843512 5.785782446364206e-08 5.785782446364206e-08 0.9978130440826798 0.001973732320953743 0.0002132235963666239 0.9796926378284422 0.01796390445962246 0.002343457711935434 0.4370499801415714 0.3396064392506313 0.2233435806077972 0.0720865830508656 0.1955215478695776 0.7323918690795569</probabilities>
		</cpt>
	</nodes>
	<dynamic numslices="30">
		<cpt id="p1_imas" order="1">
			<parents>p1_imas</parents>
			<probabilities>0.9999997967804432 5.080488915770319e-08 5.080488915770319e-08 5.080488915770319e-08 5.080488915770319e-08 4.66026439544021e-08 0.999999813589424 4.66026439544021e-08 4.66026439544021e-08 4.66026439544021e-08 0.004354035181003646 0.003207124266159934 0.9899329907656765 0.002505823372813536 2.641434626540105e-08 0.001689600940942494 0.001998185577055043 0.005040462280151178 0.9911277585483036 0.0001439926535477075 4.151654112410602e-08 4.151654112410602e-08 3.985587947914178e-06 0.02692081986035081 0.973075111518619</probabilities>
		</cpt>
		<cpt id="p2_imas" order="1">
			<parents>p2_imas</parents>
			<probabilities>0.9999997969900731 5.075248166947242e-08 5.075248166947242e-08 5.075248166947242e-08 5.075248166947242e-08 4.656202317578141e-08 0.9999998137519072 4.656202317578141e-08 4.656202317578141e-08 4.656202317578141e-08 0.00435915887822048 0.003236157728380476 0.9898463455726002 0.00255831137857712 2.644222156439851e-08 0.001693762901533037 0.001996099036033764 0.005152522815509696 0.9910132678991194 0.000144347347804127 4.110125046444413e-08 4.110125046444413e-08 4.110125046444413e-08 0.02702781239416428 0.9729720643020844</probabilities>
		</cpt>
		<cpt id="p1_wti" order="1">
			<parents>p2_imas p1_wti</parents>
			<probabilities>0.2 0.2 0.2 0.2 0.2 0.2 0.2 0.2 0.2 0.2 0.2 0.2 0.2 0.2 0.2 0.2 0.2 0.2 0.2 0.2 0.2 0.2 0.2 0.2 0.2 0.2 0.2 0.2 0.2 0.2 0.2 0.2 0.2 0.2 0.2 0.2 0.2 0.2 0.2 0.2 0.2 0.2 0.2 0.2 0.2 0.2 0.2 0.2 0.2 0.2 0.2 0.2 0.2 0.2 0.2 0.2 0.2 0.2 0.2 0.2 0.2 0.2 0.2 0.2 0.2 0.2 0.2 0.2 0.2 0.2 0.2 0.2 0.2 0.2 0.2 0.9999997967130532 5.082173666005644e-08 5.082173666005644e-08 5.082173666005644e-08 5.082173666005644e-08 0.999974943623152 6.264094211976948e-06 6.264094211976948e-06 6.264094211976948e-06 6.264094211976948e-06 0.9999640820724642 8.979481883895298e-06 8.979481883895298e-06 8.979481883895298e-06 8.979481883895298e-06 0.9999277913169056 1.805217077353551e-05 1.805217077353551e-05 1.805217077353551e-05 1.805217077353551e-05 0.2 0.2 0.2 0.2 0.2 0.9995327102803737 0.000116822429906542 0.000116822429906542 0.000116822429906542 0.000116822429906542 0.9987401574803146 0.0003149606299212598 0.0003149606299212598 0.0003149606299212598 0.0003149606299212598 0.2 0.2 0.2 0.2 0.2 0.2 0.2 0.2 0.2 0.2 0.2 0.2 0.2 0.2 0.2 0.2 0.2 0.2 0.2 0.2 0.2 0.2 0.2 0.2 0.2 0.2 0.2 0.2 0.2 0.2 0.2 0.2 0.2 0.2 0.2 0.2 0.2 0.2 0.2 0.2 0.2 0.2 0.2 0.2 0.2 0.2 0.2 0.2 0.2 0.2 0.2 0.2 0.2 0.2 0.2 0.2 0.2 0.2 0.2 0.2 0.2 0.2 0.2 0.2 0.2 0.2 0.2 0.2 0.2 0.2 2.472056491434943e-07 0.9999990111774036 2.472056491434943e-07 2.472056491434943e-07 2.472056491434943e-07 1.795815749304121e-05 0.9999281673700275 1.795815749304121e-05 1.795815749304121e-05 1.795815749304121e-05 0.2 0.2 0.2 0.2 0.2 0.2 0.2 0.2 0.2 0.2 0.9999987692553844 3.076861539692285e-07 3.076861539692285e-07 3.076861539692285e-07 3.076861539692285e-07 0.003413326769960542 0.9965864634631532 6.992229535317399e-08 6.992229535317399e-08 6.992229535317399e-08 1.360174102285092e-05 0.9999455930359084 1.360174102285092e-05 1.360174102285092e-05 1.360174102285092e-05 3.377807802736025e-05 0.9998648876878907 3.377807802736025e-05 3.377807802736025e-05 3.377807802736025e-05 0.2 0.2 0.2 0.2 0.2 0.9898734177215188 0.002531645569620253 0.002531645569620253 0.002531645569620253 0.002531645569620253 0.01126606508066722 0.9885698660103912 5.468963631391853e-05 5.468963631391853e-05 5.468963631391853e-05 0.2 0.2 0.2 0.2 0.2 0.000432900432900433 0.9982683982683984 0.000432900432900433 0.000432900432900433 0.000432900432900433 0.2 0.2 0.2 0.2 0.2 0.2 0.2 0.2 0.2 0.2 0.2 0.2 0.2 0.2 0.2 0.2 0.2 0.2 0.2 0.2 0.2 0.2 0.2 0.2 0.2 0.2 0.2 0.2 0.2 0.2 0.2 0.2 0.2 0.2 0.2 2.478898377561013e-07 0.9999990084406493 2.478898377561013e-07 2.478898377561013e-07 2.478898377561013e-07 0.2 0.2 0.2 0.2 0.2 0.2 0.2 0.2 0.2 0.2 0.2 0.2 0.2 0.2 0.2 0.2 0.2 0.2 0.2 0.2 1.1821190311116e-07 0.9999995271523877 1.1821190311116e-07 1.1821190311116e-07 1.1821190311116e-07 2.565418163160596e-05 0.9887378142637251 0.0111852231913802 2.565418163160596e-05 2.565418163160596e-05 0.0002915451895043731 0.914285714285714 0.08483965014577258 0.0002915451895043731 0.0002915451895043731 0.2 0.2 0.2 0.2 0.2 0.9999822344607051 4.441384823788059e-06 4.441384823788059e-06 4.441384823788059e-06 4.441384823788059e-06 4.261649057887897e-08 0.9999998295340375 4.261649057887897e-08 4.261649057887897e-08 4.261649057887897e-08 2.640054913142194e-06 0.4701832198109721 0.5298088600242886 2.640054913142194e-06 2.640054913142194e-06 0.03851294903926483 0.8282144755828965 0.1332573858889648 7.5947444368497e-06 7.5947444368497e-06 0.01 0.9600000000000002 0.01 0.01 0.01 0.2 0.2 0.2 0.2 0.2 9.15482642449099e-07 0.99999633806943 9.15482642449099e-07 9.15482642449099e-07 9.15482642449099e-07 0.0002754820936639118 0.9988980716253441 0.0002754820936639118 0.0002754820936639118 0.0002754820936639118 7.036802476954472e-06 0.999971852790092 7.036802476954472e-06 7.036802476954472e-06 7.036802476954472e-06 0.2 0.2 0.2 0.2 0.2 0.2 0.2 0.2 0.2 0.2 5.096399673932348e-08 0.9999997961440128 5.096399673932348e-08 5.096399673932348e-08 5.096399673932348e-08 8.110300081103001e-05 0.2823195458231955 0.7174371451743715 8.110300081103001e-05 8.110300081103001e-05 1.525785779676534e-05 0.1858559658223985 0.004440036618858712 0.8096734818431492 1.525785779676534e-05 0.2 0.2 0.2 0.2 0.2 0.9999989484891105 2.62877722427413e-07 2.62877722427413e-07 2.62877722427413e-07 2.62877722427413e-07 1.068875105150589e-07 0.9999995724499581 1.068875105150589e-07 1.068875105150589e-07 1.068875105150589e-07 0.007259930130840772 0.003367253280385124 0.9893723482968223 2.341459759672571e-07 2.341459759672571e-07 0.000273224043715847 0.000273224043715847 0.9989071038251365 0.000273224043715847 0.000273224043715847 0.003389830508474576 0.003389830508474576 0.9864406779661016 0.003389830508474576 0.003389830508474576 0.9999838962921215 4.025926969684772e-06 4.025926969684772e-06 4.025926969684772e-06 4.025926969684772e-06 5.910986454974537e-08 0.9999997635605415 5.910986454974537e-08 5.910986454974537e-08 5.910986454974537e-08 3.25629482493345e-07 0.09127101327754217 0.9087280098340105 3.25629482493345e-07 3.25629482493345e-07 2.406950309714331e-07 0.02275915934853483 0.03263487646929274 0.9446054827921105 2.406950309714331e-07 6.180469715698394e-05 6.180469715698394e-05 0.9997527812113721 6.180469715698394e-05 6.180469715698394e-05 0.9999905953164677 2.351170883099784e-06 2.351170883099784e-06 2.351170883099784e-06 2.351170883099784e-06 1.408009461823584e-07 0.9927911323564096 0.00720844524075202 1.408009461823584e-07 1.408009461823584e-07 0.0004547388849029568 0.008015560896019252 0.9915295631669725 6.852605257729909e-08 6.852605257729909e-08 1.443362804396195e-07 0.001928477042953755 0.04110567364267966 0.9569655606418057 1.443362804396195e-07 6.333924499619964e-06 6.333924499619964e-06 0.9991512541170509 0.0008297441094502153 6.333924499619964e-06 0.2 0.2 0.2 0.2 0.2 3.391227234267675e-07 0.9999986435091066 3.391227234267675e-07 3.391227234267675e-07 3.391227234267675e-07 7.09584715545227e-07 0.0247971474694435 0.9752007237764097 7.09584715545227e-07 7.09584715545227e-07 3.033704456511847e-07 0.01165579589236417 0.002384795073263963 0.9859588022934807 3.033704456511847e-07 6.352836541515786e-06 6.352836541515786e-06 0.6451686678101772 0.3548122736801982 6.352836541515786e-06 0.2 0.2 0.2 0.2 0.2 0.2 0.2 0.2 0.2 0.2 0.2 0.2 0.2 0.2 0.2 0.0002551020408163265 0.0002551020408163265 0.0002551020408163265 0.9989795918367346 0.0002551020408163265 0.2 0.2 0.2 0.2 0.2 0.2 0.2 0.2 0.2 0.2 0.2 0.2 0.2 0.2 0.2 0.2 0.2 0.2 0.2 0.2 0.0001326259946949602 0.0001326259946949602 0.0001326259946949602 0.9994694960212201 0.0001326259946949602 0.001428571428571429 0.001428571428571429 0.001428571428571429 0.001428571428571429 0.9942857142857142 0.2 0.2 0.2 0.2 0.2 0.2 0.2 0.2 0.2 0.2 0.2 0.2 0.2 0.2 0.2 1.31435406069687e-06 1.31435406069687e-06 1.31435406069687e-06 0.9999947425837571 1.31435406069687e-06 2.127433251781726e-05 2.127433251781726e-05 2.127433251781726e-05 2.127433251781726e-05 0.9999149026699288 0.2 0.2 0.2 0.2 0.2 0.2 0.2 0.2 0.2 0.2 0.2 0.2 0.2 0.2 0.2 3.82687229727144e-07 3.82687229727144e-07 3.82687229727144e-07 0.9999984692510812 3.82687229727144e-07 2.095671599877613e-07 2.095671599877613e-07 2.095671599877613e-07 2.095671599877613e-07 0.9999991617313601 0.2 0.2 0.2 0.2 0.2 0.2 0.2 0.2 0.2 0.2 0.2 0.2 0.2 0.2 0.2 9.845475265704764e-07 9.845475265704764e-07 9.845475265704764e-07 0.9860056414573272 0.01399140490009304 7.02643167936987e-08 7.02643167936987e-08 7.02643167936987e-08 7.02643167936987e-08 0.9999997189427329</probabilities>
		</cpt>
		<cpt id="p2_wti" order="1">
			<parents>p1_imas p2_wti</parents>
			<probabilities>0.2 0.2 0.2 0.2 0.2 0.2 0.2 0.2 0.2 0.2 0.2 0.2 0.2 0.2 0.2 0.2 0.2 0.2 0.2 0.2 0.2 0.2 0.2 0.2 0.2 0.2 0.2 0.2 0.2 0.2 0.2 0.2 0.2 0.2 0.2 0.2 0.2 0.2 0.2 0.2 0.2 0.2 0.2 0.2 0.2 0.2 0.2 0.2 0.2 0.2 0.2 0.2 0.2 0.2 0.2 0.2 0.2 0.2 0.2 0.2 0.2 0.2 0.2 0.2 0.2 0.2 0.2 0.2 0.2 0.2 0.2 0.2 0.2 0.2 0.2 0.9999997969542115 5.076144708702897e-08 5.076144708702897e-08 5.076144708702897e-08 5.076144708702897e-08 0.999974943623152 6.264094211976948e-06 6.264094211976948e-06 6.264094211976948e-06 6.264094211976948e-06 0.9999640352454593 8.991188635137564e-06 8.991188635137564e-06 8.991188635137564e-06 8.991188635137564e-06 0.2 0.2 0.2 0.2 0.2 0.9999279798343533 1.800504141159524e-05 1.800504141159524e-05 1.800504141159524e-05 1.800504141159524e-05 0.9993277310924368 0.0001680672268907563 0.0001680672268907563 0.0001680672268907563 0.0001680672268907563 0.9985507246376808 0.00036231884057971 0.00036231884057971 0.00036231884057971 0.00036231884057971 0.2 0.2 0.2 0.2 0.2 0.2 0.2 0.2 0.2 0.2 0.2 0.2 0.2 0.2 0.2 0.2 0.2 0.2 0.2 0.2 0.2 0.2 0.2 0.2 0.2 0.2 0.2 0.2 0.2 0.2 0.2 0.2 0.2 0.2 0.2 0.2 0.2 0.2 0.2 0.2 0.2 0.2 0.2 0.2 0.2 0.2 0.2 0.2 0.2 0.2 0.2 0.2 0.2 0.2 0.2 0.2 0.2 0.2 0.2 0.2 0.2 0.2 0.2 0.2 0.2 0.2 0.2 0.2 0.2 0.2 2.478898377561013e-07 0.9999990084406493 2.478898377561013e-07 2.478898377561013e-07 2.478898377561013e-07 1.795815749304121e-05 0.9999281673700275 1.795815749304121e-05 1.795815749304121e-05 1.795815749304121e-05 0.2 0.2 0.2 0.2 0.2 0.2 0.2 0.2 0.2 0.2 0.9999987951516907 3.012120773994555e-07 3.012120773994555e-07 3.012120773994555e-07 3.012120773994555e-07 0.003495464539077934 0.9965043251694684 7.009715114663166e-08 7.009715114663166e-08 7.009715114663166e-08 1.357496775945157e-05 0.999945700128962 1.357496775945157e-05 1.357496775945157e-05 1.357496775945157e-05 0.2 0.2 0.2 0.2 0.2 3.371544167228591e-05 0.999865138233311 3.371544167228591e-05 3.371544167228591e-05 3.371544167228591e-05 0.9959595959595962 0.001010101010101011 0.001010101010101011 0.001010101010101011 0.001010101010101011 0.01945441493180187 0.9803302225412781 7.178750897343865e-05 7.178750897343865e-05 7.178750897343865e-05 0.2 0.2 0.2 0.2 0.2 0.2 0.2 0.2 0.2 0.2 0.0005390835579514826 0.9978436657681942 0.0005390835579514826 0.0005390835579514826 0.0005390835579514826 0.2 0.2 0.2 0.2 0.2 0.2 0.2 0.2 0.2 0.2 0.2 0.2 0.2 0.2 0.2 0.2 0.2 0.2 0.2 0.2 0.2 0.2 0.2 0.2 0.2 0.2 0.2 0.2 0.2 0.2 2.472056491434943e-07 0.9999990111774036 2.472056491434943e-07 2.472056491434943e-07 2.472056491434943e-07 0.2 0.2 0.2 0.2 0.2 0.2 0.2 0.2 0.2 0.2 0.2 0.2 0.2 0.2 0.2 0.9733333333333334 0.006666666666666668 0.006666666666666668 0.006666666666666668 0.006666666666666668 1.1821190311116e-07 0.9999995271523877 1.1821190311116e-07 1.1821190311116e-07 1.1821190311116e-07 2.417210539037949e-05 0.9999033115784381 2.417210539037949e-05 2.417210539037949e-05 2.417210539037949e-05 0.2 0.2 0.2 0.2 0.2 0.00025062656641604 0.9989974937343357 0.00025062656641604 0.00025062656641604 0.00025062656641604 0.9999858642258899 3.53394352758243e-06 3.53394352758243e-06 3.53394352758243e-06 3.53394352758243e-06 4.262453771024819e-08 0.999999829501849 4.262453771024819e-08 4.262453771024819e-08 4.262453771024819e-08 2.443136009381643e-06 0.4370794752143852 0.5629131953775868 2.443136009381643e-06 2.443136009381643e-06 0.2 0.2 0.2 0.2 0.2 0.03947011578178784 0.835478599492368 0.1250373770035812 6.953861131393206e-06 6.953861131393206e-06 0.2 0.2 0.2 0.2 0.2 1.046517712312281e-06 0.9999958139291505 1.046517712312281e-06 1.046517712312281e-06 1.046517712312281e-06 0.0002994011976047903 0.9988023952095806 0.0002994011976047903 0.0002994011976047903 0.0002994011976047903 0.2 0.2 0.2 0.2 0.2 7.359163998969716e-06 0.999970563344004 7.359163998969716e-06 7.359163998969716e-06 7.359163998969716e-06 0.2 0.2 0.2 0.2 0.2 5.109171499304257e-08 0.9999997956331398 5.109171499304257e-08 5.109171499304257e-08 5.109171499304257e-08 4.960317460317461e-05 0.2517857142857143 0.7480654761904763 4.960317460317461e-05 4.960317460317461e-05 0.2 0.2 0.2 0.2 0.2 1.192961526990755e-05 0.1795526394273785 0.006931106471816284 1.192961526990755e-05 0.8134923948702655 0.9999989260188057 2.684952986473208e-07 2.684952986473208e-07 2.684952986473208e-07 2.684952986473208e-07 1.064097509639394e-07 0.9999995743609963 1.064097509639394e-07 1.064097509639394e-07 1.064097509639394e-07 0.007360958566828433 0.003565383891089816 0.9890731896746333 2.339337242365866e-07 2.339337242365866e-07 0.009090909090909092 0.009090909090909092 0.9636363636363637 0.009090909090909092 0.009090909090909092 0.0002478314745972738 0.0002478314745972738 0.9990086741016109 0.0002478314745972738 0.0002478314745972738 0.9999817192998495 4.570175037703946e-06 4.570175037703946e-06 4.570175037703946e-06 4.570175037703946e-06 5.914881309034211e-08 0.9999997634047474 5.914881309034211e-08 5.914881309034211e-08 5.914881309034211e-08 3.233854576793537e-07 0.09083121381114614 0.909167816032481 3.233854576793537e-07 3.233854576793537e-07 6.313131313131314e-05 6.313131313131314e-05 0.9997474747474748 6.313131313131314e-05 6.313131313131314e-05 2.441343666727294e-07 0.02246915057109132 0.03449765081705669 2.441343666727294e-07 0.9430327103431186 0.9999907574287168 2.310642820832756e-06 2.310642820832756e-06 2.310642820832756e-06 2.310642820832756e-06 1.41277658633619e-07 0.9925322042422856 0.007467371924738567 1.41277658633619e-07 1.41277658633619e-07 0.0004829383334203212 0.007937512508109748 0.991579410899571 6.912944938739209e-08 6.912944938739209e-08 6.169792694965449e-06 6.169792694965449e-06 0.99997532082922 6.169792694965449e-06 6.169792694965449e-06 1.418224468059458e-07 0.001843833630924101 0.03939629020843645 1.418224468059458e-07 0.9587595925157458 0.2 0.2 0.2 0.2 0.2 3.434478731990454e-07 0.9999986262085075 3.434478731990454e-07 3.434478731990454e-07 3.434478731990454e-07 7.579920789827745e-07 0.02580659832104754 0.9741911277027153 7.579920789827745e-07 7.579920789827745e-07 6.192333890643383e-06 6.192333890643383e-06 0.6388692798315685 6.192333890643383e-06 0.3611121431667595 3.002664865067748e-07 0.01161010396727095 0.002402432158540705 3.002664865067748e-07 0.9859868633412152 0.2 0.2 0.2 0.2 0.2 0.2 0.2 0.2 0.2 0.2 0.2 0.2 0.2 0.2 0.2 0.2 0.2 0.2 0.2 0.2 0.0001531393568147014 0.0001531393568147014 0.0001531393568147014 0.0001531393568147014 0.9993874425727413 0.2 0.2 0.2 0.2 0.2 0.2 0.2 0.2 0.2 0.2 0.2 0.2 0.2 0.2 0.2 0.003448275862068965 0.003448275862068965 0.003448275862068965 0.9862068965517241 0.003448275862068965 8.631851532153647e-05 8.631851532153647e-05 8.631851532153647e-05 8.631851532153647e-05 0.9996547259387137 0.2 0.2 0.2 0.2 0.2 0.2 0.2 0.2 0.2 0.2 0.2 0.2 0.2 0.2 0.2 1.906577693040991e-05 1.906577693040991e-05 1.906577693040991e-05 0.9999237368922782 1.906577693040991e-05 1.134243374600888e-06 1.134243374600888e-06 1.134243374600888e-06 1.134243374600888e-06 0.9999954630265017 0.2 0.2 0.2 0.2 0.2 0.2 0.2 0.2 0.2 0.2 0.2 0.2 0.2 0.2 0.2 2.051732380235252e-07 2.051732380235252e-07 2.051732380235252e-07 0.999999179307048 2.051732380235252e-07 3.821768026324339e-07 3.821768026324339e-07 3.821768026324339e-07 3.821768026324339e-07 0.9999984712927895 0.2 0.2 0.2 0.2 0.2 0.2 0.2 0.2 0.2 0.2 0.2 0.2 0.2 0.2 0.2 7.008221695281819e-08 7.008221695281819e-08 7.008221695281819e-08 0.9999997196711321 7.008221695281819e-08 1.025804102190605e-06 1.025804102190605e-06 1.025804102190605e-06 0.01457770209623068 0.9854192204914628</probabilities>
		</cpt>
	</dynamic>
	<extensions>
		<genie version="1.0" app="SMILE_ACADEMIC 1.5.0@a121f1f76773" name="emidas dbn v9" faultnameformat="user">
			<plate leftwidth="120" rightwidth="120">120 50 1164 561</plate>
			<node id="p1_imas">
				<name>p1_imas</name>
				<interior color="e5f6f7" />
				<outline color="000080" />
				<font color="000000" name="MS Sans Serif" size="8" />
				<position>491 462 547 497</position>
			</node>
			<node id="p2_imas">
				<name>p2_imas</name>
				<interior color="e5f6f7" />
				<outline color="000080" />
				<font color="000000" name="MS Sans Serif" size="8" />
				<position>651 472 707 507</position>
			</node>
			<node id="p1_wti">
				<name>p1_wti</name>
				<interior color="e5f6f7" />
				<outline color="000080" />
				<font color="000000" name="MS Sans Serif" size="8" />
				<position>487 311 571 363</position>
			</node>
			<node id="p2_wti">
				<name>p2_wti</name>
				<interior color="e5f6f7" />
				<outline color="000080" />
				<font color="000000" name="MS Sans Serif" size="8" />
				<position>650 301 734 353</position>
			</node>
			<node id="p1_approach">
				<name>p1_approach</name>
				<interior color="e5f6f7" />
				<outline color="000080" />
				<font color="000000" name="MS Sans Serif" size="8" />
				<position>268 135 344 182</position>
			</node>
			<node id="p2_head">
				<name>p2_head</name>
				<interior color="e5f6f7" />
				<outline color="000080" />
				<font color="000000" name="MS Sans Serif" size="8" />
				<position>676 84 733 119</position>
			</node>
			<node id="p1_body">
				<name>p1_body</name>
				<interior color="e5f6f7" />
				<outline color="000080" />
				<font color="000000" name="MS Sans Serif" size="8" />
				<position>404 76 461 111</position>
			</node>
			<node id="p2_approach">
				<name>p2_approach</name>
				<interior color="e5f6f7" />
				<outline color="000080" />
				<font color="000000" name="MS Sans Serif" size="8" />
				<position>924 160 1000 207</position>
			</node>
			<node id="p2_body">
				<name>p2_body</name>
				<interior color="e5f6f7" />
				<outline color="000080" />
				<font color="000000" name="MS Sans Serif" size="8" />
				<position>827 91 884 126</position>
			</node>
			<node id="dist">
				<name>dist</name>
				<interior color="e5f6f7" />
				<outline color="000080" />
				<font color="000000" name="MS Sans Serif" size="8" />
				<position>599 137 637 160</position>
			</node>
			<node id="p1_gesture">
				<name>p1_gesture</name>
				<interior color="e5f6f7" />
				<outline color="000080" />
				<font color="000000" name="MS Sans Serif" size="8" />
				<position>248 271 316 313</position>
			</node>
			<node id="p2_gesture">
				<name>p2_gesture</name>
				<interior color="e5f6f7" />
				<outline color="000080" />
				<font color="000000" name="MS Sans Serif" size="8" />
				<position>964 312 1032 354</position>
			</node>
			<node id="p1_head">
				<name>p1_head</name>
				<interior color="e5f6f7" />
				<outline color="000080" />
				<font color="000000" name="MS Sans Serif" size="8" />
				<position>528 80 585 115</position>
			</node>
		</genie>
	</extensions>
</smile>
