<?xml version="1.0" encoding="ISO-8859-1"?>
<!-- This file was created by ACADEMIC version of SMILE -->
<smile version="1.0" id="Network2" numsamples="10000" discsamples="10000">
	<nodes>
		<cpt id="p1_imas" target="true" dynamic="plate">
			<state id="very_high" />
			<state id="high" />
			<state id="medium" />
			<state id="low" />
			<state id="very_low" />
			<probabilities>0.03708618223415695 0.04880795062734662 0.1640010571784231 0.5204184731841851 0.2296863367758883</probabilities>
		</cpt>
		<cpt id="p2_imas" target="true" dynamic="plate">
			<state id="very_high" />
			<state id="high" />
			<state id="medium" />
			<state id="low" />
			<state id="very_low" />
			<probabilities>0.03720319816648139 0.04885132722294964 0.1635995714795858 0.518214336872729 0.2321315662582542</probabilities>
		</cpt>
		<cpt id="p1_wti" dynamic="plate">
			<state id="very_high" />
			<state id="high" />
			<state id="medium" />
			<state id="low" />
			<state id="very_low" />
			<parents>p1_imas</parents>
			<probabilities>0.9999782401740789 5.439956480348159e-06 5.439956480348159e-06 5.439956480348159e-06 5.439956480348159e-06 0.1438296992869691 0.8561579001756745 4.133512452206264e-06 4.133512452206264e-06 4.133512452206264e-06 0.0164118146366667 0.9754591642165604 0.008126560789282681 1.230178744971644e-06 1.230178744971644e-06 0.02518739060401123 0.3490305310515002 0.3079645125712104 0.3178171781020002 3.876712780165186e-07 8.783757076414296e-07 8.783757076414296e-07 8.783757076414296e-07 0.3014813806309373 0.6985159842419398</probabilities>
		</cpt>
		<cpt id="p2_wti" dynamic="plate">
			<state id="very_high" />
			<state id="high" />
			<state id="medium" />
			<state id="very_low" />
			<state id="low" />
			<parents>p2_imas</parents>
			<probabilities>0.9999783086141919 5.422846452102712e-06 5.422846452102712e-06 5.422846452102712e-06 5.422846452102712e-06 0.1469645659535806 0.8530230445196996 4.129842240026432e-06 4.129842240026432e-06 4.129842240026432e-06 0.01931310889135528 0.9705956344802069 0.01008879023307436 1.233197681588358e-06 1.233197681588358e-06 0.02349586152660224 0.3491446635884419 0.3065355176790289 3.893201691206815e-07 0.3208235678857579 8.691230982500207e-07 8.691230982500207e-07 8.691230982500207e-07 0.6979979749431812 0.3019994176875241</probabilities>
		</cpt>
		<cpt id="p1_approach" dynamic="plate">
			<state id="y" />
			<state id="m" />
			<state id="n" />
			<parents>p1_wti</parents>
			<probabilities>0.7627944196453198 0.1305766724591688 0.1066289078955114 0.554005953925095 0.1667613307381623 0.2792327153367427 0.3409076841420526 0.1576261956927819 0.5014661201651655 0.363354696307446 0.08952977060569162 0.5471155330868623 0.0003491050763088134 0.0234663451935211 0.97618454973017</probabilities>
		</cpt>
		<cpt id="p2_head" dynamic="plate">
			<state id="central" />
			<state id="mid_peripheral" />
			<state id="outside" />
			<parents>p2_wti</parents>
			<probabilities>0.9999999195930768 4.02034616788644e-08 4.02034616788644e-08 0.9984692635303964 0.001412644512157391 0.000118091957446197 0.9862524626150173 0.01238031845127343 0.001367218933709373 0.08450686214222196 0.1991586303190974 0.7163345075386806 0.4847529508487005 0.3089343486890054 0.2063127004622941</probabilities>
		</cpt>
		<cpt id="p1_body" dynamic="plate">
			<state id="strongly_facing" />
			<state id="slightly_facing" />
			<state id="turned_away" />
			<parents>p1_wti</parents>
			<probabilities>0.350450930146354 0.5992307238244011 0.05031834602924501 0.2515214771640626 0.5886477854321501 0.1598307374037873 0.1090013191019723 0.4861518575196804 0.4048468233783474 0.08295310632386521 0.798164896577728 0.1188819970984068 0.001768027648567485 0.390997845434594 0.6072341269168385</probabilities>
		</cpt>
		<cpt id="p2_approach" dynamic="plate">
			<state id="y" />
			<state id="m" />
			<state id="n" />
			<parents>p2_wti</parents>
			<probabilities>0.7653165942200287 0.129638595001584 0.1050448107783873 0.5528430854103502 0.169025779759077 0.2781311348305728 0.3447619336517642 0.1580309776713001 0.4972070886769357 0.0002861094144589361 0.02377568172917059 0.9759382088563704 0.3633487643854962 0.09137141132051753 0.5452798242939862</probabilities>
		</cpt>
		<cpt id="p2_body" dynamic="plate">
			<state id="strongly_facing" />
			<state id="slightly_facing" />
			<state id="turned_away" />
			<parents>p2_wti</parents>
			<probabilities>0.3522641383513687 0.5957652889744419 0.05197057267418954 0.2497468669047396 0.5928045099878961 0.1574486231073643 0.1083230855109873 0.4885194897992536 0.4031574246897592 0.001740428188845161 0.3968406028312628 0.6014189689798921 0.08469371410875796 0.8001908146437787 0.1151154712474633</probabilities>
		</cpt>
		<cpt id="dist" dynamic="plate">
			<state id="range_0_3" />
			<state id="range_3_6" />
			<state id="range_6_9" />
			<state id="range_9_12" />
			<state id="range_12_15" />
			<state id="range_15_18" />
			<state id="range_18_21" />
			<state id="range_21_24" />
			<state id="range_24_27" />
			<state id="range_27_30" />
			<state id="range_30_inf" />
			<parents>p1_wti p2_wti</parents>
			<probabilities>0.1111111111111111 0.1111111111111111 0.1111111111111111 0.1111111111111111 0.1111111111111111 0.1111111111111111 0.1111111111111111 0.1111111111111111 0.1111111111111111 0 0 0.03688768500614501 0.1431997097314808 0.2293349721858846 0.2812793097058023 0.1581208643764863 0.08822677835887548 0.05522623356418763 0.007724433193847132 1.387729094298329e-08 0 0 1.083566841987782e-06 1.083566841987782e-06 1.083566841987782e-06 0.06197568909433317 0.9086629001883241 0.029354909316291 1.083566841987782e-06 1.083566841987782e-06 1.083566841987782e-06 0 0 0.00140646976090014 0.00140646976090014 0.00140646976090014 0.00140646976090014 0.00140646976090014 0.9887482419127988 0.00140646976090014 0.00140646976090014 0.00140646976090014 0 0 6.566307227009058e-07 6.566307227009058e-07 0.002813662646773382 0.1192461091346526 0.3711283411012747 0.5016435466989203 0.005165713895488026 6.566307227009058e-07 6.566307227009058e-07 0 0 0.03694235418766154 0.1431225775676071 0.2292675073301164 0.2823460855656525 0.1582115778066301 0.08780251921954937 0.05474813754799147 0.00755922692079224 1.385399932334297e-08 0 0 0.02263670219843593 0.08960685480042727 0.1691178412091271 0.2718312668802642 0.1760589780188719 0.2384367073171655 0.03147627600893358 0.000835367605058094 5.961716254821469e-09 0 0 0.01064469938984948 0.04935236512448705 0.08397840081138272 0.3091015693997145 0.1022188732579065 0.1961081729658508 0.134841275084475 0.112525236470959 0.00122940749537505 0 0 1.26572873635845e-07 1.26572873635845e-07 0.0005469213869804863 0.9834436352640632 1.26572873635845e-07 0.0151668477291624 0.000841962755425641 1.26572873635845e-07 1.26572873635845e-07 0 0 4.85218309421775e-08 4.85218309421775e-08 0.0005537796565430719 0.1421076330662692 0.001164281333457549 0.02961243672753245 0.08165923312216633 0.2692177504502826 0.3186456780634743 0.1345924748462828 0.02244663569032979 1.202345053792918e-06 1.202345053792918e-06 1.202345053792918e-06 0.04708383230653067 0.9000899354100238 0.05281901821312288 1.202345053792918e-06 1.202345053792918e-06 1.202345053792918e-06 0 0 0.01063659165252973 0.049400071650066 0.08489972554471657 0.3103702070189052 0.1049211780127557 0.1903117026088943 0.1365314949839812 0.1110760768315934 0.001852951696558035 0 0 3.191100251158736e-08 3.191100251158736e-08 0.003151466786039345 0.1475103323039482 0.05049450246822031 0.253269649183841 0.1722298393785217 0.05743093326215903 0.06885369998819932 0.247059512807066 0 5.025037248088599e-07 5.025037248088599e-07 5.025037248088599e-07 0.009335011695774194 5.025037248088599e-07 0.9765104633838096 0.01415150989806712 5.025037248088599e-07 5.025037248088599e-07 0 0 1.788600959906363e-07 1.788600959906363e-07 1.788600959906363e-07 0.2670642368880347 0.03214992339422088 0.04309455152798391 0.2753061101112832 0.2152917512227771 0.02646914788546229 0.04189511572427071 0.09872862666567936 6.227747479786286e-07 6.227747479786286e-07 0.0002640564931429386 0.0914345429487263 0.3514043881954291 0.5488115278096948 0.008082993454014621 6.227747479786286e-07 6.227747479786286e-07 0 0 4.94782200091604e-08 4.94782200091604e-08 0.001433928294085478 0.135027348838719 0.00145441227716927 0.03053454339247317 0.07856814781202612 0.2757705700875562 0.3193600407858863 0.1361481294783665 0.02170278007727805 1.880106722377989e-07 1.880106722377989e-07 1.880106722377989e-07 0.2682194092065442 0.03461370481233997 0.04295404624348096 0.2569449732244601 0.2178693991385727 0.02987752796799757 0.04554276518952322 0.1039776101850645 2.208603970142324e-07 2.208603970142324e-07 2.208603970142324e-07 0.6068225543520872 0.03326113406954937 0.1370770054068834 0.1450299674429689 0.05193996042623406 0.02545924054502162 0.0004094751760643869 0 1.204564867203348e-07 1.204564867203348e-07 0.001908151206136824 0.4036971468556099 0.01304411249045834 0.07381055543329222 0.3074510889447085 0.2000885837003341 1.204564867203348e-07 0 0 0.0005817335660267597 0.0005817335660267597 0.0005817335660267597 0.0005817335660267597 0.0005817335660267597 0.995346131471786 0.0005817335660267597 0.0005817335660267597 0.0005817335660267597 0 0 1.278269080498867e-07 1.278269080498867e-07 0.0002014552070866215 0.9848890698917906 1.278269080498867e-07 0.0143852567512101 0.000523579015372336 1.278269080498867e-07 1.278269080498867e-07 0 0 5.354829761929622e-07 5.354829761929622e-07 5.354829761929622e-07 0.008415114970872401 5.354829761929622e-07 0.9730555676039223 0.01852610452734791 5.354829761929622e-07 5.354829761929622e-07 0 0 2.374238543117846e-08 2.374238543117846e-08 2.374238543117846e-08 0.2808496981879836 0.3015000890220742 0.1842466566032192 0.06368287086846584 0.04960852723917584 0.0810532511552392 0.039058835696686 0 2.247193031184747e-07 2.247193031184747e-07 2.247193031184747e-07 0.597473346043457 0.03422250267191251 0.1414682170500827 0.1460733897288896 0.05388701472990087 0.02671103524587437 0.0001638203719733681 0</probabilities>
		</cpt>
		<cpt id="p1_gesture" dynamic="plate">
			<state id="wave_slow_shoulder" />
			<state id="wave_fast_shoulder" />
			<state id="wave_small_head" />
			<state id="wave_wide_head" />
			<state id="arm_raise_high" />
			<state id="arm_raise_low" />
			<state id="come_here" />
			<state id="i_am_coming" />
			<state id="None" />
			<parents>p1_wti</parents>
			<probabilities>1.342161857955735e-08 1.342161845876279e-08 0.002396456843013448 0.02560169720125148 1.342161845876279e-08 1.342161845876279e-08 0.03037779359918164 1.342161845876279e-08 0.941623985248461 3.371227613995112e-09 0.0216807154149551 0.0651040959235621 0.008361419873420484 0.08245887228727845 0.0776783366767483 0.02178924534564098 3.371227583654063e-09 0.7229273077359394 1.471653581164506e-08 1.471653567919624e-08 1.471653567919624e-08 1.471653567919624e-08 0.1790392998319635 0.04317422491758504 1.471653567919624e-08 1.471653567919624e-08 0.7777863869512373 2.502193107203636e-08 2.502193084683898e-08 0.06547661361491788 2.502193084683898e-08 2.502193084683898e-08 2.502193084683898e-08 2.502193084683898e-08 2.502193084683898e-08 0.9345232112315659 1.777430252836965e-08 1.777430236840093e-08 1.777430236840093e-08 1.777430236840093e-08 1.777430236840093e-08 1.777430236840093e-08 1.777430236840093e-08 1.777430236840093e-08 0.999999857805581</probabilities>
		</cpt>
		<cpt id="p2_gesture" dynamic="plate">
			<state id="wave_slow_shoulder" />
			<state id="wave_fast_shoulder" />
			<state id="wave_small_head" />
			<state id="wave_wide_head" />
			<state id="arm_raise_high" />
			<state id="arm_raise_low" />
			<state id="come_here" />
			<state id="i_am_coming" />
			<state id="None" />
			<parents>p2_wti</parents>
			<probabilities>1.34011538929548e-08 1.34011538929548e-08 0.003488306957182241 0.02436958291856762 1.34011538929548e-08 1.34011538929548e-08 0.03073093645655266 1.34011538929548e-08 0.941411106661928 3.378013028009869e-09 0.02169313012206849 0.0662874421413084 0.008028716110413654 0.08321914129192796 0.07816104983834619 0.02107922016839706 3.378013028009869e-09 0.7215312935715122 1.478282281519968e-08 1.478282281519968e-08 1.478282281519968e-08 1.478282281519968e-08 0.181891843280377 0.04421446215677926 1.478282281519968e-08 1.478282281519968e-08 0.7738936058659068 1.768727834192236e-08 1.768727834192236e-08 1.768727834192236e-08 1.768727834192236e-08 1.768727834192236e-08 1.768727834192236e-08 1.768727834192236e-08 1.768727834192236e-08 0.9999998585017732 2.470668165769283e-08 2.470668165769283e-08 0.06568120607939527 2.470668165769283e-08 2.470668165769283e-08 2.470668165769283e-08 2.470668165769283e-08 2.470668165769283e-08 0.9343186209738331</probabilities>
		</cpt>
		<cpt id="p1_head" dynamic="plate">
			<state id="central" />
			<state id="mid_peripheral" />
			<state id="outside" />
			<parents>p1_wti</parents>
			<probabilities>0.9999999194702885 4.026485577893692e-08 4.026485577893692e-08 0.998463205663258 0.001386960125288303 0.000149834211453847 0.9866903944317104 0.01177368487369989 0.001535920694589881 0.4852984019168201 0.3124889137206533 0.2022126843625267 0.08445346099264006 0.1873930142511869 0.728153524756173</probabilities>
		</cpt>
	</nodes>
	<dynamic numslices="60">
		<cpt id="p1_imas" order="1">
			<parents>p1_imas</parents>
			<probabilities>0.9999998642236195 3.394409509370352e-08 3.394409509370352e-08 3.394409509370352e-08 3.394409509370352e-08 3.167958507346654e-08 0.9999998732816596 3.167958507346654e-08 3.167958507346654e-08 3.167958507346654e-08 0.005008892036453211 0.003302640818172719 0.9897577136440643 0.001930734686167183 1.881514272790971e-08 0.002322884371360751 0.002357321787423932 0.004020592873432747 0.991124481930807 0.0001747190369755448 2.802211112700588e-08 2.802211112700588e-08 2.690122668192564e-06 0.02110614201241632 0.9788911118206932</probabilities>
		</cpt>
		<cpt id="p2_imas" order="1">
			<parents>p2_imas</parents>
			<probabilities>0.9999998645836012 3.385409966376108e-08 3.385409966376108e-08 3.385409966376108e-08 3.385409966376108e-08 3.16338070495939e-08 0.9999998734647717 3.16338070495939e-08 3.16338070495939e-08 3.16338070495939e-08 0.005052294938668226 0.003310991485386461 0.989669592455603 0.001967102352251726 1.876809067990693e-08 0.002333395658401931 0.00236693996772425 0.004120184508484704 0.9910014028772217 0.0001780769881673417 2.781221470751632e-08 2.781221470751632e-08 2.781221470751632e-08 0.02128276887284742 0.9787171476905084</probabilities>
		</cpt>
		<cpt id="p1_wti" order="1">
			<parents>p2_imas p1_wti</parents>
			<probabilities>0.2 0.2 0.2 0.2 0.2 0.2 0.2 0.2 0.2 0.2 0.2 0.2 0.2 0.2 0.2 0.2 0.2 0.2 0.2 0.2 0.2 0.2 0.2 0.2 0.2 0.2 0.2 0.2 0.2 0.2 0.2 0.2 0.2 0.2 0.2 0.2 0.2 0.2 0.2 0.2 0.2 0.2 0.2 0.2 0.2 0.2 0.2 0.2 0.2 0.2 0.2 0.2 0.2 0.2 0.2 0.2 0.2 0.2 0.2 0.2 0.2 0.2 0.2 0.2 0.2 0.2 0.2 0.2 0.2 0.2 0.2 0.2 0.2 0.2 0.2 0.9999998641938401 3.395153994848533e-08 3.395153994848533e-08 3.395153994848533e-08 3.395153994848533e-08 0.9999845291046221 3.867723844517502e-06 3.867723844517502e-06 3.867723844517502e-06 3.867723844517502e-06 0.9999820764439667 4.480889008379264e-06 4.480889008379264e-06 4.480889008379264e-06 4.480889008379264e-06 0.9999629732481716 9.256687957048966e-06 9.256687957048966e-06 9.256687957048966e-06 9.256687957048966e-06 0.2 0.2 0.2 0.2 0.2 0.9996114618746968 9.71345313258864e-05 9.71345313258864e-05 9.71345313258864e-05 9.71345313258864e-05 0.9989596879063717 0.000260078023407022 0.000260078023407022 0.000260078023407022 0.000260078023407022 0.2 0.2 0.2 0.2 0.2 0.2 0.2 0.2 0.2 0.2 0.2 0.2 0.2 0.2 0.2 0.2 0.2 0.2 0.2 0.2 0.2 0.2 0.2 0.2 0.2 0.2 0.2 0.2 0.2 0.2 0.2 0.2 0.2 0.2 0.2 0.2 0.2 0.2 0.2 0.2 0.2 0.2 0.2 0.2 0.2 0.2 0.2 0.2 0.2 0.2 0.2 0.2 0.2 0.2 0.2 0.2 0.2 0.2 0.2 0.2 0.2 0.2 0.2 0.2 0.2 0.2 0.2 0.2 0.2 0.2 1.533544758037308e-07 0.999999386582097 1.533544758037308e-07 1.533544758037308e-07 1.533544758037308e-07 9.032199792259404e-06 0.9999638712008309 9.032199792259404e-06 9.032199792259404e-06 9.032199792259404e-06 0.2 0.2 0.2 0.2 0.2 0.2 0.2 0.2 0.2 0.2 0.999999102842308 2.242894230715316e-07 2.242894230715316e-07 2.242894230715316e-07 2.242894230715316e-07 0.002832230806780117 0.9971676249149357 4.809276131803021e-08 4.809276131803021e-08 4.809276131803021e-08 7.181844297615627e-06 0.9999712726228094 7.181844297615627e-06 7.181844297615627e-06 7.181844297615627e-06 3.359086328518643e-05 0.9998656365468593 3.359086328518643e-05 3.359086328518643e-05 3.359086328518643e-05 0.2 0.2 0.2 0.2 0.2 0.9898734177215188 0.002531645569620253 0.002531645569620253 0.002531645569620253 0.002531645569620253 0.009037069532792281 0.9908313226584778 4.386926957666156e-05 4.386926957666156e-05 4.386926957666156e-05 0.2 0.2 0.2 0.2 0.2 0.000432900432900433 0.9982683982683984 0.000432900432900433 0.000432900432900433 0.000432900432900433 0.2 0.2 0.2 0.2 0.2 0.2 0.2 0.2 0.2 0.2 0.2 0.2 0.2 0.2 0.2 0.2 0.2 0.2 0.2 0.2 0.2 0.2 0.2 0.2 0.2 0.2 0.2 0.2 0.2 0.2 0.2 0.2 0.2 0.2 0.2 1.538218973161925e-07 0.9999993847124109 1.538218973161925e-07 1.538218973161925e-07 1.538218973161925e-07 0.2 0.2 0.2 0.2 0.2 0.2 0.2 0.2 0.2 0.2 0.2 0.2 0.2 0.2 0.2 0.2 0.2 0.2 0.2 0.2 8.213366843870053e-08 0.999999671465326 8.213366843870053e-08 8.213366843870053e-08 8.213366843870053e-08 2.473410833539451e-05 0.9829581993569133 0.01696759831808064 2.473410833539451e-05 2.473410833539451e-05 0.0002754820936639118 0.868044077134986 0.131129476584022 0.0002754820936639118 0.0002754820936639118 0.2 0.2 0.2 0.2 0.2 0.9999846619885734 3.834502856704629e-06 3.834502856704629e-06 3.834502856704629e-06 3.834502856704629e-06 3.114026462685477e-08 0.9999998754389414 3.114026462685477e-08 3.114026462685477e-08 3.114026462685477e-08 1.649171703511912e-06 0.3735802693097392 0.6264147831751503 1.649171703511912e-06 1.649171703511912e-06 0.0339058999253174 0.7665746663636068 0.1995064454329967 6.494139039516836e-06 6.494139039516836e-06 0.01 0.9600000000000002 0.01 0.01 0.01 0.2 0.2 0.2 0.2 0.2 8.518141511884935e-07 0.999996592743395 8.518141511884935e-07 8.518141511884935e-07 8.518141511884935e-07 0.0002028397565922921 0.9991886409736307 0.0002028397565922921 0.0002028397565922921 0.0002028397565922921 6.922571042885328e-06 0.9999723097158284 6.922571042885328e-06 6.922571042885328e-06 6.922571042885328e-06 0.2 0.2 0.2 0.2 0.2 0.2 0.2 0.2 0.2 0.2 3.398320549984197e-08 0.9999998640671779 3.398320549984197e-08 3.398320549984197e-08 3.398320549984197e-08 5.672149744753262e-05 0.2930232558139536 0.706806579693704 5.672149744753262e-05 5.672149744753262e-05 1.115262365471477e-05 0.1901633859365416 0.004527965203814197 0.8052863436123349 1.115262365471477e-05 0.2 0.2 0.2 0.2 0.2 0.9999992309149134 1.922712716918046e-07 1.922712716918046e-07 1.922712716918046e-07 1.922712716918046e-07 7.586272033852978e-08 0.9999996965491184 7.586272033852978e-08 7.586272033852978e-08 7.586272033852978e-08 0.00481008604865044 0.003066027724718788 0.992123588351597 1.489375169881856e-07 1.489375169881856e-07 0.0002347417840375587 0.0002347417840375587 0.9990610328638497 0.0002347417840375587 0.0002347417840375587 0.003571428571428571 0.003571428571428571 0.9857142857142857 0.003571428571428571 0.003571428571428571 0.9999913291351897 2.167716202594757e-06 2.167716202594757e-06 2.167716202594757e-06 2.167716202594757e-06 4.189638980903835e-08 0.9999998324144406 4.189638980903835e-08 4.189638980903835e-08 4.189638980903835e-08 2.341950540346539e-07 0.08608213923130158 0.9139171581835364 2.341950540346539e-07 2.341950540346539e-07 2.018163471241171e-07 0.02422119071644804 0.03682563067608476 0.938952774974773 2.018163471241171e-07 5.897965202005309e-05 5.897965202005309e-05 0.9997640813919199 5.897965202005309e-05 5.897965202005309e-05 0.9999927640445374 1.808988865673532e-06 1.808988865673532e-06 1.808988865673532e-06 1.808988865673532e-06 9.020536604660998e-08 0.9950212050264231 0.004978524357478451 9.020536604660998e-08 9.020536604660998e-08 0.000282031932051908 0.006279491065747557 0.9934383924475813 4.227730955657444e-08 4.227730955657444e-08 1.151170567791859e-07 0.001578369965499418 0.04099272345084098 0.957428676349546 1.151170567791859e-07 4.264937945152899e-06 4.264937945152899e-06 0.9994284983153496 0.0005587068708150297 4.264937945152899e-06 0.2 0.2 0.2 0.2 0.2 2.194493576717302e-07 0.9999991222025695 2.194493576717302e-07 2.194493576717302e-07 2.194493576717302e-07 6.488029585414909e-07 0.02481736196717057 0.9751806916239537 6.488029585414909e-07 6.488029585414909e-07 2.864020598036142e-07 0.01102390168390091 0.0022743187569005 0.9867012067550791 2.864020598036142e-07 6.317718040243863e-06 6.317718040243863e-06 0.6471301765802192 0.35285087026566 6.317718040243863e-06 0.2 0.2 0.2 0.2 0.2 0.2 0.2 0.2 0.2 0.2 0.2 0.2 0.2 0.2 0.2 0.0002024291497975708 0.0002024291497975708 0.0002024291497975708 0.9991902834008096 0.0002024291497975708 0.2 0.2 0.2 0.2 0.2 0.2 0.2 0.2 0.2 0.2 0.2 0.2 0.2 0.2 0.2 0.2 0.2 0.2 0.2 0.2 0.0001159420289855073 0.0001159420289855073 0.0001159420289855073 0.999536231884058 0.0001159420289855073 0.001470588235294118 0.001470588235294118 0.001470588235294118 0.001470588235294118 0.9941176470588234 0.2 0.2 0.2 0.2 0.2 0.2 0.2 0.2 0.2 0.2 0.2 0.2 0.2 0.2 0.2 1.232103693846874e-06 1.232103693846874e-06 1.232103693846874e-06 0.9999950715852245 1.232103693846874e-06 2.089864158829676e-05 2.089864158829676e-05 2.089864158829676e-05 2.089864158829676e-05 0.9999164054336469 0.2 0.2 0.2 0.2 0.2 0.2 0.2 0.2 0.2 0.2 0.2 0.2 0.2 0.2 0.2 3.745739221635391e-07 3.745739221635391e-07 3.745739221635391e-07 0.9999985017043115 3.745739221635391e-07 1.522095499315818e-07 1.522095499315818e-07 1.522095499315818e-07 1.522095499315818e-07 0.9999993911618003 0.2 0.2 0.2 0.2 0.2 0.2 0.2 0.2 0.2 0.2 0.2 0.2 0.2 0.2 0.2 9.738046547862497e-07 9.738046547862497e-07 9.738046547862497e-07 0.9757386308306553 0.02425844775538027 4.198582894301516e-08 4.198582894301516e-08 4.198582894301516e-08 4.198582894301516e-08 0.9999998320566843</probabilities>
		</cpt>
		<cpt id="p2_wti" order="1">
			<parents>p1_imas p2_wti</parents>
			<probabilities>0.2 0.2 0.2 0.2 0.2 0.2 0.2 0.2 0.2 0.2 0.2 0.2 0.2 0.2 0.2 0.2 0.2 0.2 0.2 0.2 0.2 0.2 0.2 0.2 0.2 0.2 0.2 0.2 0.2 0.2 0.2 0.2 0.2 0.2 0.2 0.2 0.2 0.2 0.2 0.2 0.2 0.2 0.2 0.2 0.2 0.2 0.2 0.2 0.2 0.2 0.2 0.2 0.2 0.2 0.2 0.2 0.2 0.2 0.2 0.2 0.2 0.2 0.2 0.2 0.2 0.2 0.2 0.2 0.2 0.2 0.2 0.2 0.2 0.2 0.2 0.9999998645705345 3.385736636412853e-08 3.385736636412853e-08 3.385736636412853e-08 3.385736636412853e-08 0.9999846763843931 3.830903901775625e-06 3.830903901775625e-06 3.830903901775625e-06 3.830903901775625e-06 0.9999820896858981 4.477578525533394e-06 4.477578525533394e-06 4.477578525533394e-06 4.477578525533394e-06 0.2 0.2 0.2 0.2 0.2 0.999963009201461 9.247699634715864e-06 9.247699634715864e-06 9.247699634715864e-06 9.247699634715864e-06 0.9994708994708994 0.0001322751322751323 0.0001322751322751323 0.0001322751322751323 0.0001322751322751323 0.9988455988455985 0.0002886002886002885 0.0002886002886002885 0.0002886002886002885 0.0002886002886002885 0.2 0.2 0.2 0.2 0.2 0.2 0.2 0.2 0.2 0.2 0.2 0.2 0.2 0.2 0.2 0.2 0.2 0.2 0.2 0.2 0.2 0.2 0.2 0.2 0.2 0.2 0.2 0.2 0.2 0.2 0.2 0.2 0.2 0.2 0.2 0.2 0.2 0.2 0.2 0.2 0.2 0.2 0.2 0.2 0.2 0.2 0.2 0.2 0.2 0.2 0.2 0.2 0.2 0.2 0.2 0.2 0.2 0.2 0.2 0.2 0.2 0.2 0.2 0.2 0.2 0.2 0.2 0.2 0.2 0.2 1.538218973161925e-07 0.9999993847124109 1.538218973161925e-07 1.538218973161925e-07 1.538218973161925e-07 9.006169225919754e-06 0.9999639753230962 9.006169225919754e-06 9.006169225919754e-06 9.006169225919754e-06 0.2 0.2 0.2 0.2 0.2 0.2 0.2 0.2 0.2 0.2 0.9999991178089022 2.205477745075445e-07 2.205477745075445e-07 2.205477745075445e-07 2.205477745075445e-07 0.002855419409117081 0.9971444362830337 4.810261634940585e-08 4.810261634940585e-08 4.810261634940585e-08 7.117944337675279e-06 0.9999715282226492 7.117944337675279e-06 7.117944337675279e-06 7.117944337675279e-06 0.2 0.2 0.2 0.2 0.2 3.359650596337982e-05 0.9998656139761466 3.359650596337982e-05 3.359650596337982e-05 3.359650596337982e-05 0.9958115183246076 0.001047120418848168 0.001047120418848168 0.001047120418848168 0.001047120418848168 0.01544615384615385 0.984369230769231 6.153846153846156e-05 6.153846153846156e-05 6.153846153846156e-05 0.2 0.2 0.2 0.2 0.2 0.2 0.2 0.2 0.2 0.2 0.0005390835579514826 0.9978436657681942 0.0005390835579514826 0.0005390835579514826 0.0005390835579514826 0.2 0.2 0.2 0.2 0.2 0.2 0.2 0.2 0.2 0.2 0.2 0.2 0.2 0.2 0.2 0.2 0.2 0.2 0.2 0.2 0.2 0.2 0.2 0.2 0.2 0.2 0.2 0.2 0.2 0.2 1.533544758037308e-07 0.999999386582097 1.533544758037308e-07 1.533544758037308e-07 1.533544758037308e-07 0.2 0.2 0.2 0.2 0.2 0.2 0.2 0.2 0.2 0.2 0.2 0.2 0.2 0.2 0.2 0.9799999999999998 0.004999999999999998 0.004999999999999998 0.004999999999999998 0.004999999999999998 8.213366843870053e-08 0.999999671465326 8.213366843870053e-08 8.213366843870053e-08 8.213366843870053e-08 2.338907730090047e-05 0.9999064436907961 2.338907730090047e-05 2.338907730090047e-05 2.338907730090047e-05 0.2 0.2 0.2 0.2 0.2 0.0002436053593179049 0.9990255785627281 0.0002436053593179049 0.0002436053593179049 0.0002436053593179049 0.9999880773185891 2.980670352762337e-06 2.980670352762337e-06 2.980670352762337e-06 2.980670352762337e-06 3.100499273397995e-08 0.9999998759800289 3.100499273397995e-08 3.100499273397995e-08 3.100499273397995e-08 1.523995306094457e-06 0.3500861057347943 0.6499093222792873 1.523995306094457e-06 1.523995306094457e-06 0.2 0.2 0.2 0.2 0.2 0.03483505216814427 0.7852421446233643 0.1799107412098185 6.030999336590075e-06 6.030999336590075e-06 0.2 0.2 0.2 0.2 0.2 9.800078400627202e-07 0.9999960799686395 9.800078400627202e-07 9.800078400627202e-07 9.800078400627202e-07 0.000208768267223382 0.9991649269311063 0.000208768267223382 0.000208768267223382 0.000208768267223382 0.2 0.2 0.2 0.2 0.2 7.239819004524886e-06 0.9999710407239818 7.239819004524886e-06 7.239819004524886e-06 7.239819004524886e-06 0.2 0.2 0.2 0.2 0.2 3.412017295515671e-08 0.999999863519308 3.412017295515671e-08 3.412017295515671e-08 3.412017295515671e-08 3.51123595505618e-05 0.2526685393258427 0.7472261235955056 3.51123595505618e-05 3.51123595505618e-05 0.2 0.2 0.2 0.2 0.2 8.630734043930437e-06 0.1844042635826177 0.006309066586113149 8.630734043930437e-06 0.8092694083631813 0.9999992064247851 1.983938037647209e-07 1.983938037647209e-07 1.983938037647209e-07 1.983938037647209e-07 7.527085275478147e-08 0.9999996989165887 7.527085275478147e-08 7.527085275478147e-08 7.527085275478147e-08 0.004929555390703014 0.003281693357354704 0.9917884527262117 1.492628653395208e-07 1.492628653395208e-07 0.009090909090909092 0.009090909090909092 0.9636363636363637 0.009090909090909092 0.009090909090909092 0.0002053388090349076 0.0002053388090349076 0.9991786447638603 0.0002053388090349076 0.0002053388090349076 0.9999903573796181 2.410655095522209e-06 2.410655095522209e-06 2.410655095522209e-06 2.410655095522209e-06 4.218010398239233e-08 0.9999998312795839 4.218010398239233e-08 4.218010398239233e-08 4.218010398239233e-08 2.339063649430497e-07 0.08535266647408377 0.9146466318068215 2.339063649430497e-07 2.339063649430497e-07 5.927682276229995e-05 5.927682276229995e-05 0.9997628927089509 5.927682276229995e-05 5.927682276229995e-05 2.041005848502259e-07 0.0237646556976209 0.03865685487121763 2.041005848502259e-07 0.9375780812299918 0.9999932095778905 1.697605527403598e-06 1.697605527403598e-06 1.697605527403598e-06 1.697605527403598e-06 9.075068970524172e-08 0.9948359227530126 0.00516380499491796 9.075068970524172e-08 9.075068970524172e-08 0.0003007597469381713 0.006175378958982511 0.9935237762255608 4.253425921908801e-08 4.253425921908801e-08 4.206895101070655e-06 4.206895101070655e-06 0.9999831724195958 4.206895101070655e-06 4.206895101070655e-06 1.131658252787557e-07 0.001532378440099631 0.03980449472024842 1.131658252787557e-07 0.9586629005080014 0.2 0.2 0.2 0.2 0.2 2.225662106655954e-07 0.9999991097351576 2.225662106655954e-07 2.225662106655954e-07 2.225662106655954e-07 6.845376632622326e-07 0.02540729990964102 0.974590646477369 6.845376632622326e-07 6.845376632622326e-07 6.131583788092464e-06 6.131583788092464e-06 0.6424121650622355 6.131583788092464e-06 0.3575694401864001 2.82839424987449e-07 0.01094192599506445 0.002312495138697383 2.82839424987449e-07 0.9867450131873882 0.2 0.2 0.2 0.2 0.2 0.2 0.2 0.2 0.2 0.2 0.2 0.2 0.2 0.2 0.2 0.2 0.2 0.2 0.2 0.2 0.0001298701298701299 0.0001298701298701299 0.0001298701298701299 0.0001298701298701299 0.9994805194805195 0.2 0.2 0.2 0.2 0.2 0.2 0.2 0.2 0.2 0.2 0.2 0.2 0.2 0.2 0.2 0.003448275862068965 0.003448275862068965 0.003448275862068965 0.9862068965517241 0.003448275862068965 6.863417982155113e-05 6.863417982155113e-05 6.863417982155113e-05 6.863417982155113e-05 0.9997254632807138 0.2 0.2 0.2 0.2 0.2 0.2 0.2 0.2 0.2 0.2 0.2 0.2 0.2 0.2 0.2 1.872483849826795e-05 1.872483849826795e-05 1.872483849826795e-05 0.9999251006460068 1.872483849826795e-05 1.056384523966724e-06 1.056384523966724e-06 1.056384523966724e-06 1.056384523966724e-06 0.9999957744619042 0.2 0.2 0.2 0.2 0.2 0.2 0.2 0.2 0.2 0.2 0.2 0.2 0.2 0.2 0.2 1.498375386487201e-07 1.498375386487201e-07 1.498375386487201e-07 0.9999994006498454 1.498375386487201e-07 3.732979944565248e-07 3.732979944565248e-07 3.732979944565248e-07 3.732979944565248e-07 0.999998506808022 0.2 0.2 0.2 0.2 0.2 0.2 0.2 0.2 0.2 0.2 0.2 0.2 0.2 0.2 0.2 4.1921830877273e-08 4.1921830877273e-08 4.1921830877273e-08 0.9999998323126765 4.1921830877273e-08 1.013890297069857e-06 1.013890297069857e-06 1.013890297069857e-06 0.0256473689546791 0.9743495893744297</probabilities>
		</cpt>
	</dynamic>
	<extensions>
		<genie version="1.0" app="SMILE_ACADEMIC 1.5.0@a121f1f76773" name="emidas dbn v9" faultnameformat="user">
			<plate leftwidth="120" rightwidth="120">120 50 1164 561</plate>
			<node id="p1_imas">
				<name>p1_imas</name>
				<interior color="e5f6f7" />
				<outline color="000080" />
				<font color="000000" name="MS Sans Serif" size="8" />
				<position>491 462 547 497</position>
			</node>
			<node id="p2_imas">
				<name>p2_imas</name>
				<interior color="e5f6f7" />
				<outline color="000080" />
				<font color="000000" name="MS Sans Serif" size="8" />
				<position>651 472 707 507</position>
			</node>
			<node id="p1_wti">
				<name>p1_wti</name>
				<interior color="e5f6f7" />
				<outline color="000080" />
				<font color="000000" name="MS Sans Serif" size="8" />
				<position>487 311 571 363</position>
			</node>
			<node id="p2_wti">
				<name>p2_wti</name>
				<interior color="e5f6f7" />
				<outline color="000080" />
				<font color="000000" name="MS Sans Serif" size="8" />
				<position>650 301 734 353</position>
			</node>
			<node id="p1_approach">
				<name>p1_approach</name>
				<interior color="e5f6f7" />
				<outline color="000080" />
				<font color="000000" name="MS Sans Serif" size="8" />
				<position>268 135 344 182</position>
			</node>
			<node id="p2_head">
				<name>p2_head</name>
				<interior color="e5f6f7" />
				<outline color="000080" />
				<font color="000000" name="MS Sans Serif" size="8" />
				<position>676 84 733 119</position>
			</node>
			<node id="p1_body">
				<name>p1_body</name>
				<interior color="e5f6f7" />
				<outline color="000080" />
				<font color="000000" name="MS Sans Serif" size="8" />
				<position>404 76 461 111</position>
			</node>
			<node id="p2_approach">
				<name>p2_approach</name>
				<interior color="e5f6f7" />
				<outline color="000080" />
				<font color="000000" name="MS Sans Serif" size="8" />
				<position>924 160 1000 207</position>
			</node>
			<node id="p2_body">
				<name>p2_body</name>
				<interior color="e5f6f7" />
				<outline color="000080" />
				<font color="000000" name="MS Sans Serif" size="8" />
				<position>827 91 884 126</position>
			</node>
			<node id="dist">
				<name>dist</name>
				<interior color="e5f6f7" />
				<outline color="000080" />
				<font color="000000" name="MS Sans Serif" size="8" />
				<position>599 137 637 160</position>
			</node>
			<node id="p1_gesture">
				<name>p1_gesture</name>
				<interior color="e5f6f7" />
				<outline color="000080" />
				<font color="000000" name="MS Sans Serif" size="8" />
				<position>248 271 316 313</position>
			</node>
			<node id="p2_gesture">
				<name>p2_gesture</name>
				<interior color="e5f6f7" />
				<outline color="000080" />
				<font color="000000" name="MS Sans Serif" size="8" />
				<position>964 312 1032 354</position>
			</node>
			<node id="p1_head">
				<name>p1_head</name>
				<interior color="e5f6f7" />
				<outline color="000080" />
				<font color="000000" name="MS Sans Serif" size="8" />
				<position>528 80 585 115</position>
			</node>
		</genie>
	</extensions>
</smile>
