<?xml version="1.0" encoding="ISO-8859-1"?>
<!-- This file was created by ACADEMIC version of SMILE -->
<smile version="1.0" id="Network2" numsamples="10000" discsamples="10000">
	<nodes>
		<cpt id="p1_imas" target="true" dynamic="plate">
			<state id="very_high" />
			<state id="high" />
			<state id="medium" />
			<state id="low" />
			<state id="very_low" />
			<probabilities>0.07499336916226546 0.08956837829876539 0.1610335306491376 0.4767659112604458 0.1976388106293857</probabilities>
		</cpt>
		<cpt id="p2_imas" target="true" dynamic="plate">
			<state id="very_high" />
			<state id="high" />
			<state id="medium" />
			<state id="low" />
			<state id="very_low" />
			<probabilities>0.07524026855809531 0.09010556782583082 0.1601461595532343 0.4758815958501345 0.1986264082127051</probabilities>
		</cpt>
		<cpt id="p1_wti" dynamic="plate">
			<state id="very_high" />
			<state id="high" />
			<state id="medium" />
			<state id="low" />
			<state id="very_low" />
			<parents>p1_imas</parents>
			<probabilities>0.9999934806701872 1.629832453223809e-06 1.629832453223809e-06 1.629832453223809e-06 1.629832453223809e-06 0.2743444709029004 0.7256514352385695 1.364619509965134e-06 1.364619509965134e-06 1.364619509965134e-06 0.01899893358229063 0.9809987893692195 7.590161632491963e-07 7.590161632491963e-07 7.590161632491963e-07 0.01958032635586377 0.5005040185610091 0.2814956481612039 0.1984197505543948 2.563675284888416e-07 6.184368390456283e-07 6.184368390456283e-07 0.01071194448910933 0.2345768036710411 0.7547100149661715</probabilities>
		</cpt>
		<cpt id="p2_wti" dynamic="plate">
			<state id="very_high" />
			<state id="high" />
			<state id="medium" />
			<state id="very_low" />
			<state id="low" />
			<parents>p2_imas</parents>
			<probabilities>0.999993502063095 1.624484226258163e-06 1.624484226258163e-06 1.624484226258163e-06 1.624484226258163e-06 0.2830046120455778 0.7169913185024415 1.356483993488877e-06 1.356483993488877e-06 1.356483993488877e-06 0.01871496334626994 0.9812827469881356 7.632218647799821e-07 7.632218647799821e-07 7.632218647799821e-07 0.01967450169067515 0.498865648794182 0.2811608831835291 2.56843927503233e-07 0.2002987094876863 6.153618943300555e-07 6.153618943300555e-07 0.01031715752033771 0.7538989329624752 0.2357826787933984</probabilities>
		</cpt>
		<cpt id="p1_approach" dynamic="plate">
			<state id="y" />
			<state id="m" />
			<state id="n" />
			<parents>p1_wti</parents>
			<probabilities>0.7850752213702122 0.1645210277017283 0.05040375092805952 0.5195345512463229 0.1604631777629823 0.3200022709906949 0.2694966541456041 0.2496316217515363 0.4808717241028597 0.3149216225190316 0.07865537029600385 0.6064230071849647 0.0002178258875211045 0.01479643308039806 0.9849857410320808</probabilities>
		</cpt>
		<cpt id="p2_head" dynamic="plate">
			<state id="central" />
			<state id="mid_peripheral" />
			<state id="outside" />
			<parents>p2_wti</parents>
			<probabilities>0.9999999073038452 4.634807739832298e-08 4.634807739832298e-08 0.9981070803833105 0.001746886261332812 0.0001460333553567624 0.9832384542105362 0.01509457794498103 0.001666967844482807 0.05483954709264993 0.1990243102420048 0.7461361426653452 0.4261133148228411 0.317448335170999 0.2564383500061599</probabilities>
		</cpt>
		<cpt id="p1_body" dynamic="plate">
			<state id="strongly_facing" />
			<state id="slightly_facing" />
			<state id="turned_away" />
			<parents>p1_wti</parents>
			<probabilities>0.3851225871505558 0.5851215763810879 0.02975583646835651 0.299962001218567 0.5469829733858013 0.1530550253956318 0.09882195994951497 0.5127418498214821 0.388436190229003 0.08079677832654472 0.7528679882272973 0.1663352334461579 0.002084086268475087 0.3537677702244428 0.6441481435070822</probabilities>
		</cpt>
		<cpt id="p2_approach" dynamic="plate">
			<state id="y" />
			<state id="m" />
			<state id="n" />
			<parents>p2_wti</parents>
			<probabilities>0.7835699124596054 0.1653392113819013 0.05109087615849337 0.5190643017709549 0.1621144812780677 0.3188212169509775 0.2720348341072576 0.2508699280601369 0.4770952378326055 0.0001829958200604197 0.01500622890839786 0.9848107752715417 0.314423135987602 0.07909666464540602 0.606480199366992</probabilities>
		</cpt>
		<cpt id="p2_body" dynamic="plate">
			<state id="strongly_facing" />
			<state id="slightly_facing" />
			<state id="turned_away" />
			<parents>p2_wti</parents>
			<probabilities>0.3905479028700027 0.5788317299679439 0.03062036716205346 0.2985040961146856 0.5503206530564532 0.1511752508288612 0.09804284165216742 0.5156774137942035 0.3862797445536291 0.002093876156991231 0.3597543473258124 0.6381517765171963 0.08229507797296039 0.7571057263446445 0.1605991956823951</probabilities>
		</cpt>
		<cpt id="dist" dynamic="plate">
			<state id="range_0_3" />
			<state id="range_3_6" />
			<state id="range_6_9" />
			<state id="range_9_12" />
			<state id="range_12_15" />
			<state id="range_15_18" />
			<state id="range_18_21" />
			<state id="range_21_24" />
			<state id="range_24_27" />
			<state id="range_27_30" />
			<state id="range_30_inf" />
			<parents>p1_wti p2_wti</parents>
			<probabilities>0.1111111111111111 0.1111111111111111 0.1111111111111111 0.1111111111111111 0.1111111111111111 0.1111111111111111 0.1111111111111111 0.1111111111111111 0.1111111111111111 0 0 0.05040220790805282 0.1879340029290431 0.2373848268246444 0.2356040427597189 0.1702314641177942 0.08104650326495742 0.03259480540791554 0.004802130560128535 1.622774510808133e-08 0 0 6.181012177830191e-07 6.181012177830191e-07 6.181012177830191e-07 0.02503371742143006 0.5876554060986809 0.3873071678725821 6.181012177830191e-07 6.181012177830191e-07 6.181012177830191e-07 0 0 1.477462782712504e-06 1.477462782712504e-06 1.477462782712504e-06 1.477462782712504e-06 0.7242980574319334 0.2756916003285877 1.477462782712504e-06 1.477462782712504e-06 1.477462782712504e-06 0 0 5.206950237176584e-06 5.206950237176584e-06 0.02151511838001365 0.6874788467646616 0.01546984915465163 0.2644974511978589 0.01101790670186565 5.206950237176584e-06 5.206950237176584e-06 0 0 0.05030403553844872 0.1881043280319114 0.2378303845919206 0.236439313548152 0.1719800441805769 0.07866613140340514 0.0320147392989943 0.004661007348050761 1.605854018780559e-08 0 0 0.03062919155444878 0.1206785721348935 0.1837747114865108 0.2416653021266083 0.1691735948382056 0.2083963424315409 0.04466039612737037 0.001021881879401523 7.421020031819105e-09 0 0 0.01424811411060167 0.06363426350149289 0.08239089295564238 0.2659574079271552 0.1019339791211383 0.2226138604819434 0.1583008396038886 0.08976718194793971 0.001153460350197986 0 0 1.781943248315039e-07 1.781943248315039e-07 0.0003850779359608799 0.901637445470309 0.01207320009030888 0.02077674549805402 0.06368344419693252 0.001443552225460013 1.781943248315039e-07 0 0 6.000018960059913e-08 6.000018960059913e-08 0.0005730018106857217 0.1506583760804684 7.188022714151776e-05 0.04314457633686122 0.08329316320639574 0.203649283531736 0.325330568044595 0.1655224030507936 0.02775662771094357 5.981079453257563e-07 5.981079453257563e-07 5.981079453257563e-07 0.01469611032459916 0.6056279565223371 0.3796723445053916 5.981079453257563e-07 5.981079453257563e-07 5.981079453257563e-07 0 0 0.01430253483513716 0.06408037402624353 0.08359679555932048 0.2679048699911304 0.1023789749753083 0.215320947104147 0.162544344666858 0.08813313303433437 0.001738025807520902 0 0 4.892863655608159e-08 4.892863655608159e-08 0.002695038230145531 0.1446020778328372 0.09092555317126312 0.2676296605199089 0.1662940995636104 0.04682152482279394 0.05284297640920468 0.2281889715929633 0 1.511896813647227e-07 1.511896813647227e-07 1.511896813647227e-07 0.00397477672307856 0.2500450545250467 0.5112817740234356 0.2180480263094236 0.01664976366029009 1.511896813647227e-07 0 0 1.668703319067588e-07 1.668703319067588e-07 1.668703319067588e-07 0.2399209902352488 0.02883235655784552 0.1543570594577348 0.2277336155444387 0.1932635448231233 0.02469480667821743 0.03908670532384775 0.09211042076854802 6.537485944405221e-06 6.537485944405221e-06 0.001771658690933815 0.7237062315316024 6.537485944405221e-06 0.2597147041133862 0.0147747182343558 6.537485944405221e-06 6.537485944405221e-06 0 0 6.090556093351658e-08 6.090556093351658e-08 0.001431828831986041 0.1430146011337448 6.967596170794298e-05 0.04659500761989473 0.07947304752302566 0.2095813948615927 0.326254036363787 0.1668650969841881 0.02671518890895118 1.741174118978955e-07 1.741174118978955e-07 1.741174118978955e-07 0.2393806225777003 0.02994506073302386 0.1583982660691653 0.2122376333543493 0.1938968016546726 0.02766969439434216 0.04217733127108671 0.096294067593424 2.221760096122228e-07 2.221760096122228e-07 2.221760096122228e-07 0.6098053827026201 0.01950016618765519 0.1635082125140193 0.1295712713977715 0.05159149119205426 0.02561089515602977 0.0004119143218210612 0 1.299078706372228e-07 1.299078706372228e-07 0.00182988226579592 0.4308197069720126 0.00416120891225152 0.01753886161473145 0.3298618053062948 0.2157881452053019 1.299078706372228e-07 0 0 1.585874300431199e-06 1.585874300431199e-06 1.585874300431199e-06 1.585874300431199e-06 0.738693905643651 0.2612949932362462 1.585874300431199e-06 1.585874300431199e-06 1.585874300431199e-06 0 0 1.778150478117991e-07 1.778150478117991e-07 0.0001842163895330239 0.8949189527902824 0.01573947677210921 0.01953387207736519 0.06789440844578799 0.001728540079778499 1.778150478117991e-07 0 0 1.511656153853944e-07 1.511656153853944e-07 1.511656153853944e-07 0.00379591976794264 0.2682358262206132 0.4874802369853585 0.2257953238730868 0.01469208849053726 1.511656153853944e-07 0 0 3.352690426781399e-08 3.352690426781399e-08 3.352690426781399e-08 0.2240550374978308 0.2922025942313877 0.2265697564793425 0.1070765505053309 0.04159729950173657 0.07230951957555477 0.03618914162810403 0 2.262849420721862e-07 2.262849420721862e-07 2.262849420721862e-07 0.6005606888294664 0.01928241876879721 0.170413832164911 0.1290552807324934 0.05362500557226669 0.02689713335446834 0.0001649617227706238 0</probabilities>
		</cpt>
		<cpt id="p1_gesture" dynamic="plate">
			<state id="wave_slow_shoulder" />
			<state id="wave_fast_shoulder" />
			<state id="wave_small_head" />
			<state id="wave_wide_head" />
			<state id="arm_raise_high" />
			<state id="arm_raise_low" />
			<state id="come_here" />
			<state id="i_am_coming" />
			<state id="None" />
			<parents>p1_wti</parents>
			<probabilities>0.01822755833629465 1.559829410190746e-08 1.559829410190746e-08 1.559829410190746e-08 0.02080263394044686 1.559829410190746e-08 0.02823403568396804 0.00697011338743243 0.9257655962586816 4.160237950800576e-09 0.02820445802279545 0.07644378998909124 0.008920781605870613 0.1037137628817296 0.06728345772153597 0.02464138894436562 4.160237913358435e-09 0.6907923525141357 1.795675053780019e-08 1.795675037618943e-08 1.795675037618943e-08 1.795675037618943e-08 0.1191150633200812 0.03473938101967498 1.795675037618943e-08 1.795675037618943e-08 0.8461454479197414 2.897396801969302e-08 2.897396775892731e-08 0.0425176176212717 2.897396775892731e-08 2.897396775892731e-08 2.897396775892731e-08 2.897396775892731e-08 2.897396775892731e-08 0.9574821795609537 2.122438734320165e-08 2.122438715218217e-08 2.122438715218217e-08 2.122438715218217e-08 2.122438715218217e-08 2.122438715218217e-08 2.122438715218217e-08 2.122438715218217e-08 0.9999998302049027</probabilities>
		</cpt>
		<cpt id="p2_gesture" dynamic="plate">
			<state id="wave_slow_shoulder" />
			<state id="wave_fast_shoulder" />
			<state id="wave_small_head" />
			<state id="wave_wide_head" />
			<state id="arm_raise_high" />
			<state id="arm_raise_low" />
			<state id="come_here" />
			<state id="i_am_coming" />
			<state id="None" />
			<parents>p2_wti</parents>
			<probabilities>0.01795340671037352 1.544935913277432e-08 1.544935913277432e-08 1.544935913277432e-08 0.02027016170720609 1.544935913277432e-08 0.02817413108632911 0.007954735973233306 0.9256475027254214 4.177274960861649e-09 0.02835071401367224 0.07764996068307034 0.008548951943851878 0.1028099425861127 0.0679400270638961 0.02430337319046819 4.177274960861649e-09 0.6903970221643787 1.802380706999693e-08 1.802380706999693e-08 1.802380706999693e-08 1.802380706999693e-08 0.1203678680651555 0.03422009022213153 1.802380706999693e-08 1.802380706999693e-08 0.8454119335698705 2.117272012731919e-08 2.117272012731919e-08 2.117272012731919e-08 2.117272012731919e-08 2.117272012731919e-08 2.117272012731919e-08 2.117272012731919e-08 2.117272012731919e-08 0.9999998306182389 2.859734920875138e-08 2.859734920875138e-08 0.04278340745194301 2.859734920875138e-08 2.859734920875138e-08 2.859734920875138e-08 2.859734920875138e-08 2.859734920875138e-08 0.9572163923666125</probabilities>
		</cpt>
		<cpt id="p1_head" dynamic="plate">
			<state id="central" />
			<state id="mid_peripheral" />
			<state id="outside" />
			<parents>p1_wti</parents>
			<probabilities>0.9999999064102345 4.679488277367122e-08 4.679488277367122e-08 0.9981035305668035 0.001711567657288384 0.0001849017759082334 0.9837599507108746 0.01436595710387278 0.001874092185252685 0.4287077842042039 0.3184419596369445 0.2528502561588515 0.05485856789889516 0.1889441232345661 0.7561973088665388</probabilities>
		</cpt>
	</nodes>
	<dynamic numslices="30">
		<cpt id="p1_imas" order="1">
			<parents>p1_imas</parents>
			<probabilities>0.9999998286132713 4.28466821457447e-08 4.28466821457447e-08 4.28466821457447e-08 4.28466821457447e-08 0.001242170502733777 0.998757717273225 3.740801369432565e-08 3.740801369432565e-08 3.740801369432565e-08 0.004696145459943032 0.003896161260917785 0.9894474865976012 0.0019601827406671 2.394087083720627e-08 0.001462566738800522 0.00221423821012726 0.005231186121355473 0.9909673647841039 0.0001246441456128852 3.18379169851785e-08 3.18379169851785e-08 3.056440030577135e-06 0.03041017743589515 0.9695867024482403</probabilities>
		</cpt>
		<cpt id="p2_imas" order="1">
			<parents>p2_imas</parents>
			<probabilities>0.9999998289980416 4.275048954654341e-08 4.275048954654341e-08 4.275048954654341e-08 4.275048954654341e-08 0.001239746378171899 0.9987601421037585 3.717268981955261e-08 3.717268981955261e-08 3.717268981955261e-08 0.004696269294774476 0.00393767183691031 0.9893893836692779 0.001976651188989568 2.401004772477186e-08 0.001465515828376865 0.002235577158638039 0.005330323748741521 0.9908436877887318 0.0001248954755117728 3.170866585154256e-08 3.170866585154256e-08 3.170866585154256e-08 0.03053294023043322 0.9694669646435693</probabilities>
		</cpt>
		<cpt id="p1_wti" order="1">
			<parents>p2_imas p1_wti</parents>
			<probabilities>0.2 0.2 0.2 0.2 0.2 0.2 0.2 0.2 0.2 0.2 0.2 0.2 0.2 0.2 0.2 0.2 0.2 0.2 0.2 0.2 0.2 0.2 0.2 0.2 0.2 0.2 0.2 0.2 0.2 0.2 0.2 0.2 0.2 0.2 0.2 0.2 0.2 0.2 0.2 0.2 0.2 0.2 0.2 0.2 0.2 0.2 0.2 0.2 0.2 0.2 0.2 0.2 0.2 0.2 0.2 0.2 0.2 0.2 0.2 0.2 0.2 0.2 0.2 0.2 0.2 0.2 0.2 0.2 0.2 0.2 0.2 0.2 0.2 0.2 0.2 0.9999998282066251 4.29483436649153e-08 4.29483436649153e-08 4.29483436649153e-08 4.29483436649153e-08 0.999974943623152 6.264094211976948e-06 6.264094211976948e-06 6.264094211976948e-06 6.264094211976948e-06 0.9999640820724642 8.979481883895298e-06 8.979481883895298e-06 8.979481883895298e-06 8.979481883895298e-06 0.9999277913169056 1.805217077353551e-05 1.805217077353551e-05 1.805217077353551e-05 1.805217077353551e-05 0.2 0.2 0.2 0.2 0.2 0.99996716062559 8.209843602479372e-06 8.209843602479372e-06 8.209843602479372e-06 8.209843602479372e-06 0.9987401574803146 0.0003149606299212598 0.0003149606299212598 0.0003149606299212598 0.0003149606299212598 0.2 0.2 0.2 0.2 0.2 0.2 0.2 0.2 0.2 0.2 0.2 0.2 0.2 0.2 0.2 0.2 0.2 0.2 0.2 0.2 0.2 0.2 0.2 0.2 0.2 0.2 0.2 0.2 0.2 0.2 0.2 0.2 0.2 0.2 0.2 0.2 0.2 0.2 0.2 0.2 0.2 0.2 0.2 0.2 0.2 0.2 0.2 0.2 0.2 0.2 0.2 0.2 0.2 0.2 0.2 0.2 0.2 0.2 0.2 0.2 0.2 0.2 0.2 0.2 0.2 0.2 0.2 0.2 0.2 0.2 2.472056491434943e-07 0.9999990111774036 2.472056491434943e-07 2.472056491434943e-07 2.472056491434943e-07 1.795815749304121e-05 0.9999281673700275 1.795815749304121e-05 1.795815749304121e-05 1.795815749304121e-05 0.2 0.2 0.2 0.2 0.2 0.2 0.2 0.2 0.2 0.2 0.9999994061638707 1.48459032358873e-07 1.48459032358873e-07 1.48459032358873e-07 1.48459032358873e-07 0.005247876122616315 0.9947519312500038 6.420912655683052e-08 6.420912655683052e-08 6.420912655683052e-08 0.2835767127693791 0.7163846896108073 1.286587327114828e-05 1.286587327114828e-05 1.286587327114828e-05 3.377807802736025e-05 0.9998648876878907 3.377807802736025e-05 3.377807802736025e-05 3.377807802736025e-05 0.2 0.2 0.2 0.2 0.2 0.9999926234647587 1.844133810349279e-06 1.844133810349279e-06 1.844133810349279e-06 1.844133810349279e-06 0.01126606508066722 0.9885698660103912 5.468963631391853e-05 5.468963631391853e-05 5.468963631391853e-05 0.9998795543510992 3.011141222523337e-05 3.011141222523337e-05 3.011141222523337e-05 3.011141222523337e-05 0.000432900432900433 0.9982683982683984 0.000432900432900433 0.000432900432900433 0.000432900432900433 0.2 0.2 0.2 0.2 0.2 0.2 0.2 0.2 0.2 0.2 0.2 0.2 0.2 0.2 0.2 0.2 0.2 0.2 0.2 0.2 0.2 0.2 0.2 0.2 0.2 0.2 0.2 0.2 0.2 0.2 0.2 0.2 0.2 0.2 0.2 2.478898377561013e-07 0.9999990084406493 2.478898377561013e-07 2.478898377561013e-07 2.478898377561013e-07 0.2 0.2 0.2 0.2 0.2 0.2 0.2 0.2 0.2 0.2 0.2 0.2 0.2 0.2 0.2 0.2 0.2 0.2 0.2 0.2 1.1821190311116e-07 0.9999995271523877 1.1821190311116e-07 1.1821190311116e-07 1.1821190311116e-07 2.594370216629914e-05 0.9998962251913349 2.594370216629914e-05 2.594370216629914e-05 2.594370216629914e-05 0.0003184713375796178 0.9987261146496812 0.0003184713375796178 0.0003184713375796178 0.0003184713375796178 0.2 0.2 0.2 0.2 0.2 0.9999922311240593 1.942218985190581e-06 1.942218985190581e-06 1.942218985190581e-06 1.942218985190581e-06 3.739331220611193e-08 0.999999850426751 3.739331220611193e-08 3.739331220611193e-08 3.739331220611193e-08 0.03923457039128683 0.9607503025413476 5.042355788624447e-06 5.042355788624447e-06 5.042355788624447e-06 9.806805923310776e-06 0.9999607727763066 9.806805923310776e-06 9.806805923310776e-06 9.806805923310776e-06 0.01 0.9600000000000002 0.01 0.01 0.01 0.9999769232988148 5.769175296391383e-06 5.769175296391383e-06 5.769175296391383e-06 5.769175296391383e-06 6.959474977207719e-07 0.9999972162100089 6.959474977207719e-07 6.959474977207719e-07 6.959474977207719e-07 0.2966587410837191 0.7033037166812663 1.251407833813039e-05 1.251407833813039e-05 1.251407833813039e-05 7.036802476954472e-06 0.999971852790092 7.036802476954472e-06 7.036802476954472e-06 7.036802476954472e-06 0.2 0.2 0.2 0.2 0.2 0.2 0.2 0.2 0.2 0.2 4.310478601060033e-08 0.9999998275808558 4.310478601060033e-08 4.310478601060033e-08 4.310478601060033e-08 2.462750892747199e-05 0.6570865656938801 0.3428395517793376 2.462750892747199e-05 2.462750892747199e-05 1.525785779676534e-05 0.1858559658223985 0.004440036618858712 0.8096734818431492 1.525785779676534e-05 0.2 0.2 0.2 0.2 0.2 0.9999985608818919 3.597795271057897e-07 3.597795271057897e-07 3.597795271057897e-07 3.597795271057897e-07 6.596125501841471e-08 0.9999997361549797 6.596125501841471e-08 6.596125501841471e-08 6.596125501841471e-08 0.007113099334709797 0.01078366597843542 0.9821027758660243 2.294104152328516e-07 2.294104152328516e-07 0.000273224043715847 0.000273224043715847 0.9989071038251365 0.000273224043715847 0.000273224043715847 0.002272727272727273 0.002272727272727273 0.9909090909090907 0.002272727272727273 0.002272727272727273 0.2 0.2 0.2 0.2 0.2 5.220341478197112e-08 0.9999997911863406 5.220341478197112e-08 5.220341478197112e-08 5.220341478197112e-08 2.179166730225697e-07 0.08170589529975529 0.9182934509502257 2.179166730225697e-07 2.179166730225697e-07 2.521120688568483e-07 0.02383870878282815 0.0399448883017479 0.9362158986912863 2.521120688568483e-07 1.448225923244026e-05 1.448225923244026e-05 0.9999420709630702 1.448225923244026e-05 1.448225923244026e-05 0.99969696969697 7.575757575757578e-05 7.575757575757578e-05 7.575757575757578e-05 7.575757575757578e-05 1.317579474746943e-07 0.9932541248472433 0.006745479878914448 1.317579474746943e-07 1.317579474746943e-07 0.0004230880068959009 0.01073474243656868 0.9888420420435736 6.375648084627802e-08 6.375648084627802e-08 1.583603997649932e-07 0.002115853301260074 0.04588983500429948 0.9519939949736409 1.583603997649932e-07 4.494786048184108e-06 4.494786048184108e-06 0.9993976986695434 0.000588816972312118 4.494786048184108e-06 0.2 0.2 0.2 0.2 0.2 3.349696601230345e-07 0.9999986601213599 3.349696601230345e-07 3.349696601230345e-07 3.349696601230345e-07 2.317408488435553e-07 0.01007168903158976 0.9899276157458637 2.317408488435553e-07 2.317408488435553e-07 3.105903546165374e-07 0.01193319201472198 0.00158587435067204 0.9864803124538969 3.105903546165374e-07 3.49357182783678e-06 3.49357182783678e-06 0.8048700391280044 0.195119480156512 3.49357182783678e-06 0.2 0.2 0.2 0.2 0.2 0.2 0.2 0.2 0.2 0.2 1.216249087813184e-05 1.216249087813184e-05 0.9999513500364873 1.216249087813184e-05 1.216249087813184e-05 0.0002551020408163265 0.0002551020408163265 0.0002551020408163265 0.9989795918367346 0.0002551020408163265 0.2 0.2 0.2 0.2 0.2 0.2 0.2 0.2 0.2 0.2 0.2 0.2 0.2 0.2 0.2 2.69814502529511e-06 2.69814502529511e-06 0.9999892074198989 2.69814502529511e-06 2.69814502529511e-06 0.0001326259946949602 0.0001326259946949602 0.0001326259946949602 0.9994694960212201 0.0001326259946949602 5.367686527106817e-06 5.367686527106817e-06 0.1455501878690284 5.367686527106817e-06 0.8544337090713903 0.2 0.2 0.2 0.2 0.2 0.2 0.2 0.2 0.2 0.2 0.2 0.2 0.2 0.2 0.2 1.096978373071375e-06 1.096978373071375e-06 1.096978373071375e-06 0.9999956120865077 1.096978373071375e-06 2.813493514897448e-06 2.813493514897448e-06 2.813493514897448e-06 2.813493514897448e-06 0.9999887460259403 0.2 0.2 0.2 0.2 0.2 0.2 0.2 0.2 0.2 0.2 6.211180124223604e-05 6.211180124223604e-05 0.9997515527950311 6.211180124223604e-05 6.211180124223604e-05 3.429549340068969e-07 3.429549340068969e-07 3.429549340068969e-07 0.9999986281802641 3.429549340068969e-07 1.34389455265782e-07 1.34389455265782e-07 0.0008380526430374168 1.34389455265782e-07 0.9991615441885967 0.2 0.2 0.2 0.2 0.2 0.2 0.2 0.2 0.2 0.2 0.2 0.2 0.2 0.2 0.2 8.430814627463378e-07 8.430814627463378e-07 8.430814627463378e-07 0.9880164400885235 0.01198103066708821 5.885345812620595e-08 5.885345812620595e-08 5.885345812620595e-08 5.885345812620595e-08 0.9999997645861676</probabilities>
		</cpt>
		<cpt id="p2_wti" order="1">
			<parents>p1_imas p2_wti</parents>
			<probabilities>0.2 0.2 0.2 0.2 0.2 0.2 0.2 0.2 0.2 0.2 0.2 0.2 0.2 0.2 0.2 0.2 0.2 0.2 0.2 0.2 0.2 0.2 0.2 0.2 0.2 0.2 0.2 0.2 0.2 0.2 0.2 0.2 0.2 0.2 0.2 0.2 0.2 0.2 0.2 0.2 0.2 0.2 0.2 0.2 0.2 0.2 0.2 0.2 0.2 0.2 0.2 0.2 0.2 0.2 0.2 0.2 0.2 0.2 0.2 0.2 0.2 0.2 0.2 0.2 0.2 0.2 0.2 0.2 0.2 0.2 0.2 0.2 0.2 0.2 0.2 0.9999998285282298 4.286794251666116e-08 4.286794251666116e-08 4.286794251666116e-08 4.286794251666116e-08 0.999974943623152 6.264094211976948e-06 6.264094211976948e-06 6.264094211976948e-06 6.264094211976948e-06 0.9999640352454593 8.991188635137564e-06 8.991188635137564e-06 8.991188635137564e-06 8.991188635137564e-06 0.2 0.2 0.2 0.2 0.2 0.9999279798343533 1.800504141159524e-05 1.800504141159524e-05 1.800504141159524e-05 1.800504141159524e-05 0.9999693838499808 7.654037504783774e-06 7.654037504783774e-06 7.654037504783774e-06 7.654037504783774e-06 0.9985507246376808 0.00036231884057971 0.00036231884057971 0.00036231884057971 0.00036231884057971 0.2 0.2 0.2 0.2 0.2 0.2 0.2 0.2 0.2 0.2 0.2 0.2 0.2 0.2 0.2 0.2 0.2 0.2 0.2 0.2 0.2 0.2 0.2 0.2 0.2 0.2 0.2 0.2 0.2 0.2 0.2 0.2 0.2 0.2 0.2 0.2 0.2 0.2 0.2 0.2 0.2 0.2 0.2 0.2 0.2 0.2 0.2 0.2 0.2 0.2 0.2 0.2 0.2 0.2 0.2 0.2 0.2 0.2 0.2 0.2 0.2 0.2 0.2 0.2 0.2 0.2 0.2 0.2 0.2 0.2 2.478898377561013e-07 0.9999990084406493 2.478898377561013e-07 2.478898377561013e-07 2.478898377561013e-07 1.795815749304121e-05 0.9999281673700275 1.795815749304121e-05 1.795815749304121e-05 1.795815749304121e-05 0.2 0.2 0.2 0.2 0.2 0.2 0.2 0.2 0.2 0.2 0.9999994290343187 1.427414203485032e-07 1.427414203485032e-07 1.427414203485032e-07 1.427414203485032e-07 0.005364986826652043 0.9946348194238986 6.458314967500143e-08 6.458314967500143e-08 6.458314967500143e-08 0.3043413080142419 0.6956212130676493 1.249297270285464e-05 1.249297270285464e-05 1.249297270285464e-05 0.2 0.2 0.2 0.2 0.2 3.371544167228591e-05 0.999865138233311 3.371544167228591e-05 3.371544167228591e-05 3.371544167228591e-05 0.9999927036591151 1.824085221261538e-06 1.824085221261538e-06 1.824085221261538e-06 1.824085221261538e-06 0.01945441493180187 0.9803302225412781 7.178750897343865e-05 7.178750897343865e-05 7.178750897343865e-05 0.9998805970149255 2.985074626865672e-05 2.985074626865672e-05 2.985074626865672e-05 2.985074626865672e-05 0.2 0.2 0.2 0.2 0.2 0.0005390835579514826 0.9978436657681942 0.0005390835579514826 0.0005390835579514826 0.0005390835579514826 0.2 0.2 0.2 0.2 0.2 0.2 0.2 0.2 0.2 0.2 0.2 0.2 0.2 0.2 0.2 0.2 0.2 0.2 0.2 0.2 0.2 0.2 0.2 0.2 0.2 0.2 0.2 0.2 0.2 0.2 2.472056491434943e-07 0.9999990111774036 2.472056491434943e-07 2.472056491434943e-07 2.472056491434943e-07 0.2 0.2 0.2 0.2 0.2 0.2 0.2 0.2 0.2 0.2 0.2 0.2 0.2 0.2 0.2 0.2 0.2 0.2 0.2 0.2 1.1821190311116e-07 0.9999995271523877 1.1821190311116e-07 1.1821190311116e-07 1.1821190311116e-07 2.417210539037949e-05 0.9999033115784381 2.417210539037949e-05 2.417210539037949e-05 2.417210539037949e-05 0.2 0.2 0.2 0.2 0.2 0.00025062656641604 0.9989974937343357 0.00025062656641604 0.00025062656641604 0.00025062656641604 0.9999923217199348 1.919570016316346e-06 1.919570016316346e-06 1.919570016316346e-06 1.919570016316346e-06 3.742150838616002e-08 0.9999998503139663 3.742150838616002e-08 3.742150838616002e-08 3.742150838616002e-08 0.03793383397605035 0.9620509437791762 5.074081591231989e-06 5.074081591231989e-06 5.074081591231989e-06 0.2 0.2 0.2 0.2 0.2 8.833141948591112e-06 0.9999646674322055 8.833141948591112e-06 8.833141948591112e-06 8.833141948591112e-06 0.9999738945994452 6.52635013868494e-06 6.52635013868494e-06 6.52635013868494e-06 6.52635013868494e-06 7.468232008095563e-07 0.9999970127071965 7.468232008095563e-07 7.468232008095563e-07 7.468232008095563e-07 0.2940939597315436 0.7058694325808419 1.220256253813301e-05 1.220256253813301e-05 1.220256253813301e-05 0.2 0.2 0.2 0.2 0.2 7.359163998969716e-06 0.999970563344004 7.359163998969716e-06 7.359163998969716e-06 7.359163998969716e-06 0.2 0.2 0.2 0.2 0.2 4.324676843928683e-08 0.9999998270129261 4.324676843928683e-08 4.324676843928683e-08 4.324676843928683e-08 2.046245140167792e-05 0.5251892776754655 0.4747493349703295 2.046245140167792e-05 2.046245140167792e-05 0.006666666666666668 0.006666666666666668 0.9733333333333334 0.006666666666666668 0.006666666666666668 1.192961526990755e-05 0.1795526394273785 0.006931106471816284 1.192961526990755e-05 0.8134923948702655 0.9999985688038603 3.577990350160027e-07 3.577990350160027e-07 3.577990350160027e-07 3.577990350160027e-07 6.677704912887668e-08 0.9999997328918032 6.677704912887668e-08 6.677704912887668e-08 6.677704912887668e-08 0.007223740591815957 0.01082229566003928 0.9819535046023626 2.295728911147257e-07 2.295728911147257e-07 0.009090909090909092 0.009090909090909092 0.9636363636363637 0.009090909090909092 0.009090909090909092 0.0002478314745972738 0.0002478314745972738 0.9990086741016109 0.0002478314745972738 0.0002478314745972738 0.2 0.2 0.2 0.2 0.2 5.217159027354607e-08 0.9999997913136387 5.217159027354607e-08 5.217159027354607e-08 5.217159027354607e-08 2.164572442828231e-07 0.08159702154831867 0.9184023290799486 2.164572442828231e-07 2.164572442828231e-07 1.504324934185784e-05 1.504324934185784e-05 0.9999398270026325 1.504324934185784e-05 1.504324934185784e-05 2.536728660087238e-07 0.0233470358959789 0.04128297588712572 2.536728660087238e-07 0.9353694808711633 0.9996944232238353 7.63941940412529e-05 7.63941940412529e-05 7.63941940412529e-05 7.63941940412529e-05 1.324613841949726e-07 0.9929982236928381 0.007001378923009471 1.324613841949726e-07 1.324613841949726e-07 0.0004487326482227656 0.01061555251090518 0.9889355863746114 6.423313029240848e-08 6.423313029240848e-08 4.411797145567248e-06 4.411797145567248e-06 0.9999823528114178 4.411797145567248e-06 4.411797145567248e-06 1.550034333260482e-07 0.002015199636671952 0.04411800721385978 1.550034333260482e-07 0.9538664831426016 0.2 0.2 0.2 0.2 0.2 3.378823561212459e-07 0.9999986484705758 3.378823561212459e-07 3.378823561212459e-07 3.378823561212459e-07 2.329188929830855e-07 0.01000759315591125 0.9899917080874099 2.329188929830855e-07 2.329188929830855e-07 3.430472890687981e-06 3.430472890687981e-06 0.7999382514879676 3.430472890687981e-06 0.2000514570933603 3.07568806986733e-07 0.01189245549094902 0.00141973761305076 3.07568806986733e-07 0.9866871917583862 0.2 0.2 0.2 0.2 0.2 0.2 0.2 0.2 0.2 0.2 1.328727079457879e-05 1.328727079457879e-05 0.9999468509168216 1.328727079457879e-05 1.328727079457879e-05 0.0007633587786259542 0.0007633587786259542 0.5541984732824426 0.4435114503816794 0.0007633587786259542 0.0001531393568147014 0.0001531393568147014 0.0001531393568147014 0.0001531393568147014 0.9993874425727413 0.2 0.2 0.2 0.2 0.2 0.2 0.2 0.2 0.2 0.2 2.813731007315701e-06 2.813731007315701e-06 0.9999887450759709 2.813731007315701e-06 2.813731007315701e-06 5.264543300868651e-06 5.264543300868651e-06 0.131302974466965 0.8686812319031325 5.264543300868651e-06 8.631851532153647e-05 8.631851532153647e-05 8.631851532153647e-05 8.631851532153647e-05 0.9996547259387137 0.2 0.2 0.2 0.2 0.2 0.2 0.2 0.2 0.2 0.2 0.2 0.2 0.2 0.2 0.2 2.717428225926983e-06 2.717428225926983e-06 2.717428225926983e-06 0.9999891302870962 2.717428225926983e-06 9.889044916042009e-07 9.889044916042009e-07 9.889044916042009e-07 9.889044916042009e-07 0.9999960443820336 0.2 0.2 0.2 0.2 0.2 0.2 0.2 0.2 0.2 0.2 4.477277815088428e-05 4.477277815088428e-05 0.9998209088873966 4.477277815088428e-05 4.477277815088428e-05 1.34192433291264e-07 1.34192433291264e-07 0.001011945139449422 0.9989876522832507 1.34192433291264e-07 3.421757243432365e-07 3.421757243432365e-07 3.421757243432365e-07 3.421757243432365e-07 0.9999986312971025 0.2 0.2 0.2 0.2 0.2 0.2 0.2 0.2 0.2 0.2 0.2 0.2 0.2 0.2 0.2 5.87479864127657e-08 5.87479864127657e-08 5.87479864127657e-08 0.9999997650080543 5.87479864127657e-08 8.69138206011829e-07 8.69138206011829e-07 8.69138206011829e-07 0.0123513230456341 0.9876460695397479</probabilities>
		</cpt>
	</dynamic>
	<extensions>
		<genie version="1.0" app="SMILE_ACADEMIC 1.5.0@a121f1f76773" name="emidas dbn v9" faultnameformat="user">
			<plate leftwidth="120" rightwidth="120">120 50 1164 561</plate>
			<node id="p1_imas">
				<name>p1_imas</name>
				<interior color="e5f6f7" />
				<outline color="000080" />
				<font color="000000" name="MS Sans Serif" size="8" />
				<position>491 462 547 497</position>
			</node>
			<node id="p2_imas">
				<name>p2_imas</name>
				<interior color="e5f6f7" />
				<outline color="000080" />
				<font color="000000" name="MS Sans Serif" size="8" />
				<position>651 472 707 507</position>
			</node>
			<node id="p1_wti">
				<name>p1_wti</name>
				<interior color="e5f6f7" />
				<outline color="000080" />
				<font color="000000" name="MS Sans Serif" size="8" />
				<position>487 311 571 363</position>
			</node>
			<node id="p2_wti">
				<name>p2_wti</name>
				<interior color="e5f6f7" />
				<outline color="000080" />
				<font color="000000" name="MS Sans Serif" size="8" />
				<position>650 301 734 353</position>
			</node>
			<node id="p1_approach">
				<name>p1_approach</name>
				<interior color="e5f6f7" />
				<outline color="000080" />
				<font color="000000" name="MS Sans Serif" size="8" />
				<position>268 135 344 182</position>
			</node>
			<node id="p2_head">
				<name>p2_head</name>
				<interior color="e5f6f7" />
				<outline color="000080" />
				<font color="000000" name="MS Sans Serif" size="8" />
				<position>676 84 733 119</position>
			</node>
			<node id="p1_body">
				<name>p1_body</name>
				<interior color="e5f6f7" />
				<outline color="000080" />
				<font color="000000" name="MS Sans Serif" size="8" />
				<position>404 76 461 111</position>
			</node>
			<node id="p2_approach">
				<name>p2_approach</name>
				<interior color="e5f6f7" />
				<outline color="000080" />
				<font color="000000" name="MS Sans Serif" size="8" />
				<position>924 160 1000 207</position>
			</node>
			<node id="p2_body">
				<name>p2_body</name>
				<interior color="e5f6f7" />
				<outline color="000080" />
				<font color="000000" name="MS Sans Serif" size="8" />
				<position>827 91 884 126</position>
			</node>
			<node id="dist">
				<name>dist</name>
				<interior color="e5f6f7" />
				<outline color="000080" />
				<font color="000000" name="MS Sans Serif" size="8" />
				<position>599 137 637 160</position>
			</node>
			<node id="p1_gesture">
				<name>p1_gesture</name>
				<interior color="e5f6f7" />
				<outline color="000080" />
				<font color="000000" name="MS Sans Serif" size="8" />
				<position>248 271 316 313</position>
			</node>
			<node id="p2_gesture">
				<name>p2_gesture</name>
				<interior color="e5f6f7" />
				<outline color="000080" />
				<font color="000000" name="MS Sans Serif" size="8" />
				<position>964 312 1032 354</position>
			</node>
			<node id="p1_head">
				<name>p1_head</name>
				<interior color="e5f6f7" />
				<outline color="000080" />
				<font color="000000" name="MS Sans Serif" size="8" />
				<position>528 80 585 115</position>
			</node>
		</genie>
	</extensions>
</smile>
