<?xml version="1.0" encoding="ISO-8859-1"?>
<!-- This file was created by ACADEMIC version of SMILE -->
<smile version="1.0" id="Network2" numsamples="10000" discsamples="10000">
	<nodes>
		<cpt id="p1_imas" target="true" dynamic="plate">
			<state id="very_high" />
			<state id="high" />
			<state id="medium" />
			<state id="low" />
			<state id="very_low" />
			<probabilities>0.09345726424370607 0.1126047135798346 0.1378268801444624 0.4743011570595474 0.1818099849724495</probabilities>
		</cpt>
		<cpt id="p2_imas" target="true" dynamic="plate">
			<state id="very_high" />
			<state id="high" />
			<state id="medium" />
			<state id="low" />
			<state id="very_low" />
			<probabilities>0.09376276259562284 0.113673339393827 0.1369431612276829 0.4734316617502458 0.1821890750326216</probabilities>
		</cpt>
		<cpt id="p1_wti" dynamic="plate">
			<state id="very_high" />
			<state id="high" />
			<state id="medium" />
			<state id="low" />
			<state id="very_low" />
			<parents>p1_imas</parents>
			<probabilities>0.9999947063338712 1.323416532119319e-06 1.323416532119319e-06 1.323416532119319e-06 1.323416532119319e-06 0.261075535735861 0.7389211691178892 1.098382083191459e-06 1.098382083191459e-06 1.098382083191459e-06 0.03443337177111423 0.9587887163426375 0.006776117126050494 8.973800988015486e-07 8.973800988015486e-07 0.03850813601752373 0.5126854073224157 0.2456271513507876 0.2031790445394806 2.607697924272452e-07 6.802883061841609e-07 6.802883061841609e-07 0.01178327375141585 0.2623708727758824 0.7258444928960894</probabilities>
		</cpt>
		<cpt id="p2_wti" dynamic="plate">
			<state id="very_high" />
			<state id="high" />
			<state id="medium" />
			<state id="very_low" />
			<state id="low" />
			<parents>p2_imas</parents>
			<probabilities>0.9999947235816324 1.319104591803084e-06 1.319104591803084e-06 1.319104591803084e-06 1.319104591803084e-06 0.2683484391830872 0.731648296647698 1.088056404844027e-06 1.088056404844027e-06 1.088056404844027e-06 0.03631741042801274 0.9559442201569709 0.007736563072949123 9.031710334986134e-07 9.031710334986134e-07 0.03750120827531435 0.5114599362030634 0.2459633154552129 2.612487166156796e-07 0.2050752788176928 6.788727996035383e-07 6.788727996035383e-07 0.01138198135815292 0.7243715335057671 0.2642451273904808</probabilities>
		</cpt>
		<cpt id="p1_approach" dynamic="plate">
			<state id="y" />
			<state id="m" />
			<state id="n" />
			<parents>p1_wti</parents>
			<probabilities>0.7563861119898864 0.162099803168652 0.08151408484146169 0.5776634117258094 0.125868450154847 0.2964681381193437 0.3158241330502477 0.2142758315640481 0.4699000353857041 0.2797269557202311 0.07868588027057784 0.641587164009191 0.0002164710455504049 0.01470228445756873 0.9850812444968809</probabilities>
		</cpt>
		<cpt id="p2_head" dynamic="plate">
			<state id="central" />
			<state id="mid_peripheral" />
			<state id="outside" />
			<parents>p2_wti</parents>
			<probabilities>0.9999998784076264 6.079618686315995e-08 6.079618686315995e-08 0.9969222517214091 0.002839399865982454 0.0002383484126083672 0.9726453813432383 0.0246262280036834 0.002728390653078256 0.05464196229219397 0.1935680414092661 0.7517899962985399 0.3928148864242518 0.3556299941744572 0.251555119401291</probabilities>
		</cpt>
		<cpt id="p1_body" dynamic="plate">
			<state id="strongly_facing" />
			<state id="slightly_facing" />
			<state id="turned_away" />
			<parents>p1_wti</parents>
			<probabilities>0.3997496210645756 0.5684322419588699 0.03181813697655456 0.3557986190476364 0.5587174129745865 0.08548396797777691 0.1211654281670205 0.5252394727530078 0.3535950990799717 0.07895981509501947 0.7619858284384154 0.1590543564665649 0.00187431089417821 0.3689755140024784 0.6291501751033434</probabilities>
		</cpt>
		<cpt id="p2_approach" dynamic="plate">
			<state id="y" />
			<state id="m" />
			<state id="n" />
			<parents>p2_wti</parents>
			<probabilities>0.7570238442644878 0.1623867975000608 0.08058935823545146 0.5776658189988332 0.1269129720259388 0.295421208975228 0.3173123020071535 0.2167713409682959 0.4659163570245505 0.0001823673984431463 0.01495213306725351 0.9848654995343034 0.2791564963329944 0.07978800628565709 0.6410554973813485</probabilities>
		</cpt>
		<cpt id="p2_body" dynamic="plate">
			<state id="strongly_facing" />
			<state id="slightly_facing" />
			<state id="turned_away" />
			<parents>p2_wti</parents>
			<probabilities>0.4033286520269449 0.5637678436808443 0.0329035042922108 0.3544869646040232 0.5618021602633618 0.08371087513261491 0.120267077664305 0.5275792778955576 0.3521536444401374 0.002186510109808717 0.3727714936497507 0.6250419962404405 0.08078458223101839 0.7645885784030946 0.1546268393658869</probabilities>
		</cpt>
		<cpt id="dist" dynamic="plate">
			<state id="range_0_3" />
			<state id="range_3_6" />
			<state id="range_6_9" />
			<state id="range_9_12" />
			<state id="range_12_15" />
			<state id="range_15_18" />
			<state id="range_18_21" />
			<state id="range_21_24" />
			<state id="range_24_27" />
			<state id="range_27_30" />
			<state id="range_30_inf" />
			<parents>p1_wti p2_wti</parents>
			<probabilities>0.1111111111111111 0.1111111111111111 0.1111111111111111 0.1111111111111111 0.1111111111111111 0.1111111111111111 0.1111111111111111 0.1111111111111111 0.1111111111111111 0 0 0.06832676951800244 0.2195092406386986 0.2281895515252844 0.2200388464205825 0.1578829707884716 0.07277198845648689 0.02900787724979853 0.004272733744564545 2.165811073831005e-08 0 0 7.132932177227684e-07 7.132932177227684e-07 7.132932177227684e-07 0.02067195074282355 0.671623341236622 0.3077004282612478 7.132932177227684e-07 7.132932177227684e-07 7.132932177227684e-07 0 0 2.181600815046065e-06 2.181600815046065e-06 2.181600815046065e-06 2.181600815046065e-06 0.7251597477196818 0.274824981074613 2.181600815046065e-06 2.181600815046065e-06 2.181600815046065e-06 0 0 1.077806878563499e-06 1.077806878563499e-06 0.003105161617141441 0.09486963925803776 0.283636735969649 0.6100796499283259 0.00830450199933176 1.077806878563499e-06 1.077806878563499e-06 0 0 0.06823687665340049 0.2198856306469984 0.2282425368480238 0.2203495810259588 0.1596490198199817 0.07092836878934491 0.02855172111306938 0.004156243624038413 2.147918421113282e-08 0 0 0.05765762825249864 0.172594807925234 0.1826725337977148 0.2135597257292753 0.1530657360867523 0.1627705867328737 0.05639187143503348 0.001287096020116727 1.402050108513771e-08 0 0 0.02271922613374849 0.08546475746354618 0.08859596394993828 0.222274132395343 0.1102511452066222 0.1918548467278252 0.1820370036932762 0.09557519199943741 0.00122773243026304 0 0 2.571433126538681e-07 2.571433126538681e-07 0.0003705435135342239 0.8965769596506141 0.0135712526119332 0.02625587508183586 0.06183576668050096 0.001388831031643542 2.571433126538681e-07 0 0 8.080561256391521e-08 8.080561256391521e-08 0.0005237011750267345 0.1311313480687216 0.001141864111140686 0.046991372707969 0.09399866412161309 0.1871965446227178 0.3075695950459049 0.1940944349336239 0.03735231360205725 7.091187710120754e-07 7.091187710120754e-07 7.091187710120754e-07 0.01340305389089924 0.6699903063464001 0.3166023850500744 7.091187710120754e-07 7.091187710120754e-07 7.091187710120754e-07 0 0 0.02288001246798953 0.08624099808637425 0.09010755549022378 0.2231599927127593 0.1109748760394412 0.184326815191134 0.1863868268546879 0.09406821812845373 0.001854705028936406 0 0 8.864324074014978e-08 8.864324074014978e-08 0.00325506844321904 0.1464741796422643 0.1126032427824901 0.142005762519794 0.1840021820420141 0.05659525212619677 0.06382322197614858 0.2912409131813917 0 2.888839200854634e-07 2.888839200854634e-07 2.888839200854634e-07 0.002810840542431559 0.3655748010023116 0.3352905218919123 0.2751067570526675 0.02121592397499652 2.888839200854634e-07 0 0 2.147439779346268e-07 2.147439779346268e-07 2.147439779346268e-07 0.1696967041953243 0.03387457405531976 0.168521625148066 0.2364752095256993 0.1912810509054894 0.03166936814590908 0.04995438837908669 0.1185264354131717 1.05032859530104e-06 1.05032859530104e-06 0.0001901094757494882 0.07751530066181206 0.2565543130168274 0.6523401846267606 0.01339589090446947 1.05032859530104e-06 1.05032859530104e-06 0 0 8.21161462268493e-08 8.21161462268493e-08 0.00130080187237952 0.1231900677564957 0.001416831986998058 0.05034532713553508 0.08864265541281306 0.1936735585927034 0.3090237515204831 0.196404987964647 0.03600185352565263 2.241241396714743e-07 2.241241396714743e-07 2.241241396714743e-07 0.1651496824273003 0.0361631023084114 0.1735368559820862 0.2217580611289626 0.1901821075872073 0.0355620013658125 0.05370372985152 0.1239437869762807 2.517973293368061e-07 2.517973293368061e-07 2.517973293368061e-07 0.626285173568935 0.01654107015879347 0.1597883190211731 0.1178867254462352 0.05008500677838409 0.02894611738590055 0.0004668322485904385 0 1.302532605321809e-07 1.302532605321809e-07 0.001266191945633331 0.3691567573242385 0.01192338346911584 0.07488064568104284 0.3264283474860014 0.2163442833341865 1.302532605321809e-07 0 0 2.346096096096096e-06 2.346096096096096e-06 2.346096096096096e-06 2.346096096096096e-06 0.7385792042042043 0.2614043731231231 2.346096096096096e-06 2.346096096096096e-06 2.346096096096096e-06 0 0 2.567102124199994e-07 2.567102124199994e-07 0.0001850880631548196 0.8896790429227176 0.01736978310297442 0.02540532617214524 0.06569625072167658 0.001663738886694016 2.567102124199994e-07 0 0 2.811174531208534e-07 2.811174531208534e-07 2.811174531208534e-07 0.002702382076850765 0.3765334957067742 0.3260715072843154 0.2764747983825626 0.01821669207968443 2.811174531208534e-07 0 0 5.04521216428906e-08 5.04521216428906e-08 5.04521216428906e-08 0.2338946737291565 0.326857147642887 0.1575334199898975 0.121416310121523 0.04275882896993115 0.07774439865409886 0.03979506953614118 0 2.556258782346579e-07 2.556258782346579e-07 2.556258782346579e-07 0.6198413739175203 0.01570897709515443 0.1660576380117726 0.1165319134849552 0.05133197698242341 0.03034100236530625 0.0001863512652330656 0</probabilities>
		</cpt>
		<cpt id="p1_gesture" dynamic="plate">
			<state id="wave_slow_shoulder" />
			<state id="wave_fast_shoulder" />
			<state id="wave_small_head" />
			<state id="wave_wide_head" />
			<state id="arm_raise_high" />
			<state id="arm_raise_low" />
			<state id="come_here" />
			<state id="i_am_coming" />
			<state id="None" />
			<parents>p1_wti</parents>
			<probabilities>0.0159117237067855 2.042475755148739e-08 0.001806263452128218 0.01811943577260272 0.01830748651725977 2.042475755148739e-08 0.02508135742694927 0.006084555760191 0.9146891365145685 6.786980550129026e-09 0.03084573392731352 0.08773351268336667 0.01083829892585302 0.111481965302702 0.06013824699323519 0.008428581479119996 6.7869804890462e-09 0.6905336471144485 2.948808678343949e-08 2.948808651804671e-08 2.948808651804671e-08 2.948808651804671e-08 0.13041404222694 0.05015103798065552 2.948808651804671e-08 2.948808651804671e-08 0.8194347428638851 3.419910414078649e-08 3.419910383299456e-08 0.03345701781349224 3.419910383299456e-08 3.419910383299456e-08 3.419910383299456e-08 3.419910383299456e-08 3.419910383299456e-08 0.9665427427927806 3.163393911061433e-08 3.163393882590888e-08 3.163393882590888e-08 3.163393882590888e-08 3.163393882590888e-08 3.163393882590888e-08 3.163393882590888e-08 3.163393882590888e-08 0.9999997469284891</probabilities>
		</cpt>
		<cpt id="p2_gesture" dynamic="plate">
			<state id="wave_slow_shoulder" />
			<state id="wave_fast_shoulder" />
			<state id="wave_small_head" />
			<state id="wave_wide_head" />
			<state id="arm_raise_high" />
			<state id="arm_raise_low" />
			<state id="come_here" />
			<state id="i_am_coming" />
			<state id="None" />
			<parents>p2_wti</parents>
			<probabilities>0.01570002756093804 2.026539562105331e-08 0.002628421812050615 0.01683339007644107 0.0178556779585451 2.026539562105331e-08 0.0250437935199371 0.006956319966278381 0.9149823285750184 6.817941377281019e-09 0.03100325891461687 0.0891920977414076 0.01035776199683431 0.1099295141448387 0.06079701502890408 0.008449297482388559 6.817941377281019e-09 0.6902710410551272 2.950026115106184e-08 2.950026115106184e-08 2.950026115106184e-08 2.950026115106184e-08 0.1313599723641554 0.05011466014002889 2.950026115106184e-08 2.950026115106184e-08 0.8185251904942489 3.164452515064139e-08 3.164452515064139e-08 3.164452515064139e-08 3.164452515064139e-08 3.164452515064139e-08 3.164452515064139e-08 3.164452515064139e-08 3.164452515064139e-08 0.9999997468437988 3.384188893511691e-08 3.384188893511691e-08 0.03375325702799584 3.384188893511691e-08 3.384188893511691e-08 3.384188893511691e-08 3.384188893511691e-08 3.384188893511691e-08 0.9662465060787816</probabilities>
		</cpt>
		<cpt id="p1_head" dynamic="plate">
			<state id="central" />
			<state id="mid_peripheral" />
			<state id="outside" />
			<parents>p1_wti</parents>
			<probabilities>0.9999998774514536 6.127427326720492e-08 6.127427326720492e-08 0.9969198578268742 0.002778494822273616 0.0003016473508521318 0.9733798655343241 0.02354255130927105 0.003077583156404812 0.3946943236190094 0.3580729310944137 0.2472327452865769 0.05450980079539112 0.1863087805249323 0.7591814186796766</probabilities>
		</cpt>
	</nodes>
	<dynamic numslices="20">
		<cpt id="p1_imas" order="1">
			<parents>p1_imas</parents>
			<probabilities>0.9999997605438525 5.986403679962069e-08 5.986403679962069e-08 5.986403679962069e-08 5.986403679962069e-08 0.001100168646002685 0.9988996796484475 5.056851654728282e-08 5.056851654728282e-08 5.056851654728282e-08 0.005879451460661083 0.005639956148363044 0.9851006299088898 0.003379917208870019 4.527321593535709e-08 0.001493035718348941 0.002342999164932609 0.005500074582772084 0.9905366454233887 0.0001272451105577705 4.571165272308887e-08 4.571165272308887e-08 4.571165272308887e-08 0.02911539723883333 0.9708844656262086</probabilities>
		</cpt>
		<cpt id="p2_imas" order="1">
			<parents>p2_imas</parents>
			<probabilities>0.9999997612147006 5.969632479576394e-08 5.969632479576394e-08 5.969632479576394e-08 5.969632479576394e-08 0.001094966042572937 0.9989048836257199 5.011056897043325e-08 5.011056897043325e-08 5.011056897043325e-08 0.005907444975762909 0.005707603073923521 0.9849584144479776 0.003426491980262539 4.55220733119334e-08 0.001495964219875836 0.002365121745725655 0.00558268197296773 0.9904287373670916 0.0001274946943393095 4.563583380433317e-08 4.563583380433317e-08 4.563583380433317e-08 0.02925900412114397 0.9707408589713546</probabilities>
		</cpt>
		<cpt id="p1_wti" order="1">
			<parents>p2_imas p1_wti</parents>
			<probabilities>0.2 0.2 0.2 0.2 0.2 0.2 0.2 0.2 0.2 0.2 0.2 0.2 0.2 0.2 0.2 0.2 0.2 0.2 0.2 0.2 0.2 0.2 0.2 0.2 0.2 0.2 0.2 0.2 0.2 0.2 0.2 0.2 0.2 0.2 0.2 0.2 0.2 0.2 0.2 0.2 0.2 0.2 0.2 0.2 0.2 0.2 0.2 0.2 0.2 0.2 0.2 0.2 0.2 0.2 0.2 0.2 0.2 0.2 0.2 0.2 0.2 0.2 0.2 0.2 0.2 0.2 0.2 0.2 0.2 0.2 0.2 0.2 0.2 0.2 0.2 0.999999760043024 5.998924392856359e-08 5.998924392856359e-08 5.998924392856359e-08 5.998924392856359e-08 0.9999617590822178 9.56022944550669e-06 9.56022944550669e-06 9.56022944550669e-06 9.56022944550669e-06 0.9999451791955045 1.370520112382649e-05 1.370520112382649e-05 1.370520112382649e-05 1.370520112382649e-05 0.9998897919823668 2.755200440832071e-05 2.755200440832071e-05 2.755200440832071e-05 2.755200440832071e-05 0.2 0.2 0.2 0.2 0.2 0.9999498778272037 1.253054319904768e-05 1.253054319904768e-05 1.253054319904768e-05 1.253054319904768e-05 0.9980906921241052 0.0004773269689737471 0.0004773269689737471 0.0004773269689737471 0.0004773269689737471 0.2 0.2 0.2 0.2 0.2 0.2 0.2 0.2 0.2 0.2 0.2 0.2 0.2 0.2 0.2 0.2 0.2 0.2 0.2 0.2 0.2 0.2 0.2 0.2 0.2 0.2 0.2 0.2 0.2 0.2 0.2 0.2 0.2 0.2 0.2 0.2 0.2 0.2 0.2 0.2 0.2 0.2 0.2 0.2 0.2 0.2 0.2 0.2 0.2 0.2 0.2 0.2 0.2 0.2 0.2 0.2 0.2 0.2 0.2 0.2 0.2 0.2 0.2 0.2 0.2 0.2 0.2 0.2 0.2 0.2 3.530182175051145e-07 0.9999985879271303 3.530182175051145e-07 3.530182175051145e-07 3.530182175051145e-07 2.740852405097986e-05 0.9998903659037962 2.740852405097986e-05 2.740852405097986e-05 2.740852405097986e-05 0.2 0.2 0.2 0.2 0.2 0.2 0.2 0.2 0.2 0.2 0.9999991606601409 2.098349648001847e-07 2.098349648001847e-07 2.098349648001847e-07 2.098349648001847e-07 0.004604357175984209 0.995395391453312 8.379023449953976e-08 8.379023449953976e-08 8.379023449953976e-08 0.2306500559016131 0.7693020284299631 1.597188947452483e-05 1.597188947452483e-05 1.597188947452483e-05 4.042037186742119e-05 0.9998383185125305 4.042037186742119e-05 4.042037186742119e-05 4.042037186742119e-05 0.2 0.2 0.2 0.2 0.2 0.999988744917627 2.81377059328353e-06 2.81377059328353e-06 2.81377059328353e-06 2.81377059328353e-06 0.01358858858858859 0.9861861861861865 7.50750750750751e-05 7.50750750750751e-05 7.50750750750751e-05 0.9998161764705884 4.595588235294119e-05 4.595588235294119e-05 4.595588235294119e-05 4.595588235294119e-05 0.0004504504504504505 0.9981981981981983 0.0004504504504504505 0.0004504504504504505 0.0004504504504504505 0.2 0.2 0.2 0.2 0.2 0.2 0.2 0.2 0.2 0.2 0.2 0.2 0.2 0.2 0.2 0.2 0.2 0.2 0.2 0.2 0.2 0.2 0.2 0.2 0.2 0.2 0.2 0.2 0.2 0.2 0.2 0.2 0.2 0.2 0.2 3.539321865930489e-07 0.999998584271254 3.539321865930489e-07 3.539321865930489e-07 3.539321865930489e-07 0.2 0.2 0.2 0.2 0.2 0.2 0.2 0.2 0.2 0.2 0.2 0.2 0.2 0.2 0.2 0.2 0.2 0.2 0.2 0.2 1.691567956628198e-07 0.9999993233728175 1.691567956628198e-07 1.691567956628198e-07 1.691567956628198e-07 3.404834865509024e-05 0.990160027238679 0.009737827715355807 3.404834865509024e-05 3.404834865509024e-05 0.0003663003663003662 0.9289377289377287 0.06996336996336995 0.0003663003663003662 0.0003663003663003662 0.2 0.2 0.2 0.2 0.2 0.9999922630560929 1.934235976789169e-06 1.934235976789169e-06 1.934235976789169e-06 1.934235976789169e-06 8.926638651899028e-08 0.9999996429344535 8.926638651899028e-08 8.926638651899028e-08 8.926638651899028e-08 0.02544192388744267 0.3226031982149498 0.6519449609520268 4.958472790380563e-06 4.958472790380563e-06 0.04111276892717908 0.8482071521393848 0.1106608268758723 9.626028781826056e-06 9.626028781826056e-06 0.2 0.2 0.2 0.2 0.2 0.9999655973165905 8.60067085232648e-06 8.60067085232648e-06 8.60067085232648e-06 8.60067085232648e-06 9.295494473828533e-07 0.9999962818022102 9.295494473828533e-07 9.295494473828533e-07 9.295494473828533e-07 0.3214821944177093 0.6784600577478344 1.924927815206929e-05 1.924927815206929e-05 1.924927815206929e-05 8.106026830948809e-06 0.999967575892676 8.106026830948809e-06 8.106026830948809e-06 8.106026830948809e-06 0.2 0.2 0.2 0.2 0.2 0.2 0.2 0.2 0.2 0.2 6.014863931748135e-08 0.9999997594054425 6.014863931748135e-08 6.014863931748135e-08 6.014863931748135e-08 3.758691975192634e-05 0.6570569441834242 0.3428302950573201 3.758691975192634e-05 3.758691975192634e-05 2.3285597857725e-05 0.1858423565025032 0.004447549190825475 0.8096635231109559 2.3285597857725e-05 0.2 0.2 0.2 0.2 0.2 0.9999985164580439 3.708854891052389e-07 3.708854891052389e-07 3.708854891052389e-07 3.708854891052389e-07 9.090157087004617e-08 0.9999996363937161 9.090157087004617e-08 9.090157087004617e-08 9.090157087004617e-08 0.007250114401516639 0.0101526443093417 0.9825965875661895 3.268614761064262e-07 3.268614761064262e-07 0.0003478260869565217 0.0003478260869565217 0.9986086956521738 0.0003478260869565217 0.0003478260869565217 0.003448275862068965 0.003448275862068965 0.9862068965517241 0.003448275862068965 0.003448275862068965 0.9999754209167997 6.144770800049158e-06 6.144770800049158e-06 6.144770800049158e-06 6.144770800049158e-06 1.507240784729842e-07 0.9999993971036862 1.507240784729842e-07 1.507240784729842e-07 1.507240784729842e-07 4.298459217293561e-07 0.07302910271813068 0.9269696077441042 4.298459217293561e-07 4.298459217293561e-07 3.276357476811581e-07 0.02072984139153455 0.03351582644479174 0.9457536768921785 3.276357476811581e-07 2.069750595053296e-05 2.069750595053296e-05 0.9999172099761977 2.069750595053296e-05 2.069750595053296e-05 0.9999865383320995 3.365416975163224e-06 3.365416975163224e-06 3.365416975163224e-06 3.365416975163224e-06 1.909435475401698e-07 0.9918774524311889 0.008121974738168662 1.909435475401698e-07 1.909435475401698e-07 0.0005730496544957811 0.01220576505499126 0.9872209713063255 1.069920938192273e-07 1.069920938192273e-07 1.975568148704966e-07 0.002111092123706126 0.04017732699702776 0.9577111857656364 1.975568148704966e-07 1.049207848074703e-05 1.049207848074703e-05 0.9989612842304059 0.001007239534151715 1.049207848074703e-05 0.2 0.2 0.2 0.2 0.2 4.958423617963376e-07 0.9999980166305527 4.958423617963376e-07 4.958423617963376e-07 4.958423617963376e-07 4.180610745423799e-07 0.01358531267832917 0.9864134331384471 4.180610745423799e-07 4.180610745423799e-07 3.485923839535955e-07 0.01178451413193525 0.00106355536344242 0.9871512333198545 3.485923839535955e-07 5.036134263339461e-06 5.036134263339461e-06 0.7263163195930804 0.2736685720041296 5.036134263339461e-06 0.2 0.2 0.2 0.2 0.2 0.2 0.2 0.2 0.2 0.2 1.856320772229441e-05 1.856320772229441e-05 0.9999257471691108 1.856320772229441e-05 1.856320772229441e-05 0.0003891050583657587 0.0003891050583657587 0.0003891050583657587 0.9984435797665369 0.0003891050583657587 0.2 0.2 0.2 0.2 0.2 0.2 0.2 0.2 0.2 0.2 0.2 0.2 0.2 0.2 0.2 4.118192113662103e-06 4.118192113662103e-06 0.9999835272315455 4.118192113662103e-06 4.118192113662103e-06 0.0001700680272108844 0.0001700680272108844 0.0001700680272108844 0.9993197278911565 0.0001700680272108844 8.1913499344692e-06 8.1913499344692e-06 0.1455275229357798 8.1913499344692e-06 0.8544479030144168 0.2 0.2 0.2 0.2 0.2 0.2 0.2 0.2 0.2 0.2 0.2 0.2 0.2 0.2 0.2 1.463614542474094e-06 1.463614542474094e-06 1.463614542474094e-06 0.99999414554183 1.463614542474094e-06 4.049812696162802e-06 4.049812696162802e-06 4.049812696162802e-06 4.049812696162802e-06 0.9999838007492153 0.2 0.2 0.2 0.2 0.2 0.2 0.2 0.2 0.2 0.2 9.478672985781993e-05 9.478672985781993e-05 0.9996208530805688 9.478672985781993e-05 9.478672985781993e-05 3.855964309194354e-07 3.855964309194354e-07 3.855964309194354e-07 0.9999984576142763 3.855964309194354e-07 2.130985271695295e-07 2.130985271695295e-07 0.0008707205820146975 2.130985271695295e-07 0.9991286401224038 0.2 0.2 0.2 0.2 0.2 0.2 0.2 0.2 0.2 0.2 0.2 0.2 0.2 0.2 0.2 8.704962699234833e-07 8.704962699234833e-07 8.704962699234833e-07 0.9918921977419326 0.008105190769257553 8.736729999222431e-08 8.736729999222431e-08 8.736729999222431e-08 8.736729999222431e-08 0.9999996505308001</probabilities>
		</cpt>
		<cpt id="p2_wti" order="1">
			<parents>p1_imas p2_wti</parents>
			<probabilities>0.2 0.2 0.2 0.2 0.2 0.2 0.2 0.2 0.2 0.2 0.2 0.2 0.2 0.2 0.2 0.2 0.2 0.2 0.2 0.2 0.2 0.2 0.2 0.2 0.2 0.2 0.2 0.2 0.2 0.2 0.2 0.2 0.2 0.2 0.2 0.2 0.2 0.2 0.2 0.2 0.2 0.2 0.2 0.2 0.2 0.2 0.2 0.2 0.2 0.2 0.2 0.2 0.2 0.2 0.2 0.2 0.2 0.2 0.2 0.2 0.2 0.2 0.2 0.2 0.2 0.2 0.2 0.2 0.2 0.2 0.2 0.2 0.2 0.2 0.2 0.9999997606377804 5.984055484162448e-08 5.984055484162448e-08 5.984055484162448e-08 5.984055484162448e-08 0.9999617590822178 9.56022944550669e-06 9.56022944550669e-06 9.56022944550669e-06 9.56022944550669e-06 0.9999451077260874 1.37230684781117e-05 1.37230684781117e-05 1.37230684781117e-05 1.37230684781117e-05 0.2 0.2 0.2 0.2 0.2 0.9998900796922232 2.748007694421545e-05 2.748007694421545e-05 2.748007694421545e-05 2.748007694421545e-05 0.9999532710280372 1.16822429906542e-05 1.16822429906542e-05 1.16822429906542e-05 1.16822429906542e-05 0.9977900552486189 0.000552486187845304 0.000552486187845304 0.000552486187845304 0.000552486187845304 0.2 0.2 0.2 0.2 0.2 0.2 0.2 0.2 0.2 0.2 0.2 0.2 0.2 0.2 0.2 0.2 0.2 0.2 0.2 0.2 0.2 0.2 0.2 0.2 0.2 0.2 0.2 0.2 0.2 0.2 0.2 0.2 0.2 0.2 0.2 0.2 0.2 0.2 0.2 0.2 0.2 0.2 0.2 0.2 0.2 0.2 0.2 0.2 0.2 0.2 0.2 0.2 0.2 0.2 0.2 0.2 0.2 0.2 0.2 0.2 0.2 0.2 0.2 0.2 0.2 0.2 0.2 0.2 0.2 0.2 3.539321865930489e-07 0.999998584271254 3.539321865930489e-07 3.539321865930489e-07 3.539321865930489e-07 2.740852405097986e-05 0.9998903659037962 2.740852405097986e-05 2.740852405097986e-05 2.740852405097986e-05 0.2 0.2 0.2 0.2 0.2 0.2 0.2 0.2 0.2 0.2 0.9999991926898064 2.018275484512259e-07 2.018275484512259e-07 2.018275484512259e-07 2.018275484512259e-07 0.004687540591523776 0.9953122080029093 8.380185554068535e-08 8.380185554068535e-08 8.380185554068535e-08 0.248516932658622 0.7514363565589722 1.557026080186843e-05 1.557026080186843e-05 1.557026080186843e-05 0.2 0.2 0.2 0.2 0.2 4.016870857601929e-05 0.9998393251656961 4.016870857601929e-05 4.016870857601929e-05 4.016870857601929e-05 0.9999888641425392 2.783964365256126e-06 2.783964365256126e-06 2.783964365256126e-06 2.783964365256126e-06 0.01809568924680247 0.981620085267646 9.474182851729043e-05 9.474182851729043e-05 9.474182851729043e-05 0.9998177676537587 4.555808656036447e-05 4.555808656036447e-05 4.555808656036447e-05 4.555808656036447e-05 0.2 0.2 0.2 0.2 0.2 0.0005479452054794521 0.9978082191780823 0.0005479452054794521 0.0005479452054794521 0.0005479452054794521 0.2 0.2 0.2 0.2 0.2 0.2 0.2 0.2 0.2 0.2 0.2 0.2 0.2 0.2 0.2 0.2 0.2 0.2 0.2 0.2 0.2 0.2 0.2 0.2 0.2 0.2 0.2 0.2 0.2 0.2 3.530182175051145e-07 0.9999985879271303 3.530182175051145e-07 3.530182175051145e-07 3.530182175051145e-07 0.2 0.2 0.2 0.2 0.2 0.2 0.2 0.2 0.2 0.2 0.2 0.2 0.2 0.2 0.2 0.9600000000000002 0.01 0.01 0.01 0.01 1.691567956628198e-07 0.9999993233728175 1.691567956628198e-07 1.691567956628198e-07 1.691567956628198e-07 3.218020917135962e-05 0.9998712791633146 3.218020917135962e-05 3.218020917135962e-05 3.218020917135962e-05 0.2 0.2 0.2 0.2 0.2 0.0003205128205128204 0.9987179487179484 0.0003205128205128204 0.0003205128205128204 0.0003205128205128204 0.9999929063550193 1.773411245200706e-06 1.773411245200706e-06 1.773411245200706e-06 1.773411245200706e-06 9.005727192207881e-08 0.999999639770912 9.005727192207881e-08 9.005727192207881e-08 9.005727192207881e-08 0.02253129346314326 0.2890900385325703 0.6883695478693085 4.560067488998838e-06 4.560067488998838e-06 0.2 0.2 0.2 0.2 0.2 0.04195760874374972 0.8537634408602149 0.1042612504978096 8.8499491127926e-06 8.8499491127926e-06 0.9999610155450512 9.746113737147311e-06 9.746113737147311e-06 9.746113737147311e-06 9.746113737147311e-06 1.007399348212621e-06 0.9999959704026069 1.007399348212621e-06 1.007399348212621e-06 1.007399348212621e-06 0.3148716988200037 0.6850721108821876 1.873009926952613e-05 1.873009926952613e-05 1.873009926952613e-05 0.2 0.2 0.2 0.2 0.2 8.535700567624087e-06 0.9999658571977293 8.535700567624087e-06 8.535700567624087e-06 8.535700567624087e-06 0.2 0.2 0.2 0.2 0.2 6.037564518923839e-08 0.9999997584974191 6.037564518923839e-08 6.037564518923839e-08 6.037564518923839e-08 3.123048094940663e-05 0.5251717676452218 0.4747345409119301 3.123048094940663e-05 3.123048094940663e-05 0.01 0.01 0.9600000000000002 0.01 0.01 1.817851299763679e-05 0.1796218869296492 0.006926013452099618 1.817851299763679e-05 0.813415742592256 0.9999984877526874 3.780618282313891e-07 3.780618282313891e-07 3.780618282313891e-07 3.780618282313891e-07 9.200122913642122e-08 0.9999996319950831 9.200122913642122e-08 9.200122913642122e-08 9.200122913642122e-08 0.007293655359991632 0.01021294819154223 0.9824927426314827 3.269084917749824e-07 3.269084917749824e-07 0.01 0.01 0.9600000000000002 0.01 0.01 0.0003179650238473767 0.0003179650238473767 0.9987281399046104 0.0003179650238473767 0.0003179650238473767 0.9999720982142856 6.975446428571428e-06 6.975446428571428e-06 6.975446428571428e-06 6.975446428571428e-06 1.492724460977197e-07 0.9999994029102157 1.492724460977197e-07 1.492724460977197e-07 1.492724460977197e-07 4.24603208301842e-07 0.07254175972553648 0.9274569664648387 4.24603208301842e-07 4.24603208301842e-07 2.190100744634253e-05 2.190100744634253e-05 0.9999123959702145 2.190100744634253e-05 2.190100744634253e-05 3.316133653450769e-07 0.02044595365371606 0.03552607144278343 3.316133653450769e-07 0.9440273116767698 0.9999864798634468 3.380034138344798e-06 3.380034138344798e-06 3.380034138344798e-06 3.380034138344798e-06 1.917585989349728e-07 0.9917075911476562 0.008291833576547159 1.917585989349728e-07 1.917585989349728e-07 0.0006073316305141737 0.01220076410768386 0.9871916881680001 1.080469009987856e-07 1.080469009987856e-07 1.029230135858378e-05 1.029230135858378e-05 0.9999588307945655 1.029230135858378e-05 1.029230135858378e-05 1.937597727585385e-07 0.001967824252135717 0.03865526842510119 1.937597727585385e-07 0.9593765198032175 0.2 0.2 0.2 0.2 0.2 5.001437913400102e-07 0.9999979994248345 5.001437913400102e-07 5.001437913400102e-07 5.001437913400102e-07 4.116471443008482e-07 0.01327809028656816 0.9867206747719989 4.116471443008482e-07 4.116471443008482e-07 4.949637439057589e-06 4.949637439057589e-06 0.7219095701239885 4.949637439057589e-06 0.2780755809636944 3.439445974042501e-07 0.0118148408654334 0.001133641393044409 3.439445974042501e-07 0.9870508298523273 0.2 0.2 0.2 0.2 0.2 0.2 0.2 0.2 0.2 0.2 2.027986209693774e-05 2.027986209693774e-05 0.9999188805516122 2.027986209693774e-05 2.027986209693774e-05 0.001162790697674419 0.001162790697674419 0.5534883720930233 0.4430232558139535 0.001162790697674419 0.0002336448598130841 0.0002336448598130841 0.0002336448598130841 0.0002336448598130841 0.9990654205607478 0.2 0.2 0.2 0.2 0.2 0.2 0.2 0.2 0.2 0.2 4.294610264118532e-06 4.294610264118532e-06 0.9999828215589436 4.294610264118532e-06 4.294610264118532e-06 8.029226384037898e-06 8.029226384037898e-06 0.1312055883415633 0.8687703239792847 8.029226384037898e-06 0.0001192605843768634 0.0001192605843768634 0.0001192605843768634 0.0001192605843768634 0.9995229576624926 0.2 0.2 0.2 0.2 0.2 0.2 0.2 0.2 0.2 0.2 0.2 0.2 0.2 0.2 0.2 3.900232063807797e-06 3.900232063807797e-06 3.900232063807797e-06 0.9999843990717449 3.900232063807797e-06 1.307112653504042e-06 1.307112653504042e-06 1.307112653504042e-06 1.307112653504042e-06 0.9999947715493861 0.2 0.2 0.2 0.2 0.2 0.2 0.2 0.2 0.2 0.2 6.832934745473182e-05 6.832934745473182e-05 0.9997266826101812 6.832934745473182e-05 6.832934745473182e-05 2.154420223973527e-07 2.154420223973527e-07 0.00106449903266532 0.9989348546412675 2.154420223973527e-07 3.858783942828257e-07 3.858783942828257e-07 3.858783942828257e-07 3.858783942828257e-07 0.9999984564864229 0.2 0.2 0.2 0.2 0.2 0.2 0.2 0.2 0.2 0.2 0.2 0.2 0.2 0.2 0.2 8.712197773859223e-08 8.712197773859223e-08 8.712197773859223e-08 0.9999996515120889 8.712197773859223e-08 8.982627598225034e-07 8.982627598225034e-07 8.982627598225034e-07 0.008363724556707329 0.9916335806550133</probabilities>
		</cpt>
	</dynamic>
	<extensions>
		<genie version="1.0" app="SMILE_ACADEMIC 1.5.0@a121f1f76773" name="emidas dbn v9" faultnameformat="user">
			<plate leftwidth="120" rightwidth="120">120 50 1164 561</plate>
			<node id="p1_imas">
				<name>p1_imas</name>
				<interior color="e5f6f7" />
				<outline color="000080" />
				<font color="000000" name="MS Sans Serif" size="8" />
				<position>491 462 547 497</position>
			</node>
			<node id="p2_imas">
				<name>p2_imas</name>
				<interior color="e5f6f7" />
				<outline color="000080" />
				<font color="000000" name="MS Sans Serif" size="8" />
				<position>651 472 707 507</position>
			</node>
			<node id="p1_wti">
				<name>p1_wti</name>
				<interior color="e5f6f7" />
				<outline color="000080" />
				<font color="000000" name="MS Sans Serif" size="8" />
				<position>487 311 571 363</position>
			</node>
			<node id="p2_wti">
				<name>p2_wti</name>
				<interior color="e5f6f7" />
				<outline color="000080" />
				<font color="000000" name="MS Sans Serif" size="8" />
				<position>650 301 734 353</position>
			</node>
			<node id="p1_approach">
				<name>p1_approach</name>
				<interior color="e5f6f7" />
				<outline color="000080" />
				<font color="000000" name="MS Sans Serif" size="8" />
				<position>268 135 344 182</position>
			</node>
			<node id="p2_head">
				<name>p2_head</name>
				<interior color="e5f6f7" />
				<outline color="000080" />
				<font color="000000" name="MS Sans Serif" size="8" />
				<position>676 84 733 119</position>
			</node>
			<node id="p1_body">
				<name>p1_body</name>
				<interior color="e5f6f7" />
				<outline color="000080" />
				<font color="000000" name="MS Sans Serif" size="8" />
				<position>404 76 461 111</position>
			</node>
			<node id="p2_approach">
				<name>p2_approach</name>
				<interior color="e5f6f7" />
				<outline color="000080" />
				<font color="000000" name="MS Sans Serif" size="8" />
				<position>924 160 1000 207</position>
			</node>
			<node id="p2_body">
				<name>p2_body</name>
				<interior color="e5f6f7" />
				<outline color="000080" />
				<font color="000000" name="MS Sans Serif" size="8" />
				<position>827 91 884 126</position>
			</node>
			<node id="dist">
				<name>dist</name>
				<interior color="e5f6f7" />
				<outline color="000080" />
				<font color="000000" name="MS Sans Serif" size="8" />
				<position>599 137 637 160</position>
			</node>
			<node id="p1_gesture">
				<name>p1_gesture</name>
				<interior color="e5f6f7" />
				<outline color="000080" />
				<font color="000000" name="MS Sans Serif" size="8" />
				<position>248 271 316 313</position>
			</node>
			<node id="p2_gesture">
				<name>p2_gesture</name>
				<interior color="e5f6f7" />
				<outline color="000080" />
				<font color="000000" name="MS Sans Serif" size="8" />
				<position>964 312 1032 354</position>
			</node>
			<node id="p1_head">
				<name>p1_head</name>
				<interior color="e5f6f7" />
				<outline color="000080" />
				<font color="000000" name="MS Sans Serif" size="8" />
				<position>528 80 585 115</position>
			</node>
		</genie>
	</extensions>
</smile>
