<?xml version="1.0" encoding="ISO-8859-1"?>
<!-- This file was created by ACADEMIC version of SMILE -->
<smile version="1.0" id="Network2" numsamples="10000" discsamples="10000">
	<nodes>
		<cpt id="p1_imas" target="true" dynamic="plate">
			<state id="very_high" />
			<state id="high" />
			<state id="medium" />
			<state id="low" />
			<state id="very_low" />
			<probabilities>0.09417872225527051 0.1113139009479933 0.1708108148016893 0.496925561222983 0.1267710007720639</probabilities>
		</cpt>
		<cpt id="p2_imas" target="true" dynamic="plate">
			<state id="very_high" />
			<state id="high" />
			<state id="medium" />
			<state id="low" />
			<state id="very_low" />
			<probabilities>0.09443924109911529 0.1123253890906943 0.1703193096145165 0.4952822885156543 0.1276337716800196</probabilities>
		</cpt>
		<cpt id="p1_wti" dynamic="plate">
			<state id="very_high" />
			<state id="high" />
			<state id="medium" />
			<state id="low" />
			<state id="very_low" />
			<parents>p1_imas</parents>
			<probabilities>0.9999955203153695 1.119921157550508e-06 1.119921157550508e-06 1.119921157550508e-06 1.119921157550508e-06 0.2599452329966457 0.7400519244253253 9.47526009588963e-07 9.47526009588963e-07 9.47526009588963e-07 0.02369348091202395 0.9716426619737877 0.004662622146065854 6.174840611926704e-07 6.174840611926704e-07 0.03574758643671354 0.5497779320137667 0.245638712101193 0.1688355571969661 2.122513607965369e-07 8.319952077076036e-07 8.319952077076036e-07 0.0144109889927034 0.3208805837278377 0.6647067632890435</probabilities>
		</cpt>
		<cpt id="p2_wti" dynamic="plate">
			<state id="very_high" />
			<state id="high" />
			<state id="medium" />
			<state id="very_low" />
			<state id="low" />
			<parents>p2_imas</parents>
			<probabilities>0.9999955326729132 1.116831771630239e-06 1.116831771630239e-06 1.116831771630239e-06 1.116831771630239e-06 0.2672666835685512 0.7327304994506886 9.389935866738028e-07 9.389935866738028e-07 9.389935866738028e-07 0.02490130448379535 0.9697928245650429 0.005304632419193529 6.192659840291302e-07 6.192659840291302e-07 0.03501969306712466 0.5489528441814679 0.2457200720215767 2.129555785310963e-07 0.1703071777742522 8.263711563411592e-07 8.263711563411592e-07 0.01385493880721587 0.6644858731850823 0.3216575352653891</probabilities>
		</cpt>
		<cpt id="p1_approach" dynamic="plate">
			<state id="y" />
			<state id="m" />
			<state id="n" />
			<parents>p1_wti</parents>
			<probabilities>0.7524568338505735 0.1624416249334895 0.08510154121593692 0.5055492043324005 0.1550278465326631 0.3394229491349364 0.2638149062033193 0.2477306885143742 0.4884544052823064 0.2472029929811812 0.06846676019316371 0.684330246825655 0.0002816499503348203 0.01912084732943516 0.9805975027202299</probabilities>
		</cpt>
		<cpt id="p2_head" dynamic="plate">
			<state id="central" />
			<state id="mid_peripheral" />
			<state id="outside" />
			<parents>p2_wti</parents>
			<probabilities>0.9999997734014034 1.132992982241468e-07 1.132992982241468e-07 0.9960083048599797 0.003615936655290243 0.0003757584847299309 0.9618530597665067 0.03373154316935748 0.004415397064135673 0.07049217470750833 0.1983762778330939 0.7311315474593978 0.3501940983519827 0.3600013557125096 0.2898045459355078</probabilities>
		</cpt>
		<cpt id="p1_body" dynamic="plate">
			<state id="strongly_facing" />
			<state id="slightly_facing" />
			<state id="turned_away" />
			<parents>p1_wti</parents>
			<probabilities>0.3994770507489135 0.5689064423237216 0.03161650692736486 0.3229072387347592 0.5308617662069728 0.1462309950582681 0.1122941181187511 0.5207830728379109 0.366922809043338 0.07999480889624574 0.7324385842947121 0.1875666068090422 0.002809834692954654 0.3533462778761866 0.6438438874308587</probabilities>
		</cpt>
		<cpt id="p2_approach" dynamic="plate">
			<state id="y" />
			<state id="m" />
			<state id="n" />
			<parents>p2_wti</parents>
			<probabilities>0.753109159341867 0.1626011479484896 0.08428969270964334 0.504768111962658 0.1566921924072048 0.3385396956301371 0.2657543848163405 0.2489595375390586 0.4852860776446009 0.0002353895010403922 0.01928944703062635 0.9804751634683332 0.2457048713065101 0.06910628786075179 0.6851888408327381</probabilities>
		</cpt>
		<cpt id="p2_body" dynamic="plate">
			<state id="strongly_facing" />
			<state id="slightly_facing" />
			<state id="turned_away" />
			<parents>p2_wti</parents>
			<probabilities>0.4032583745176282 0.5643217110913215 0.03241991439105026 0.3216865642652939 0.5336067924990919 0.1447066432356142 0.1120694506898035 0.5237338001129046 0.3641967491972919 0.001727087795874928 0.3641634793556549 0.6341094328484702 0.08058751950903369 0.7349046371981061 0.1845078432928604</probabilities>
		</cpt>
		<cpt id="dist" dynamic="plate">
			<state id="range_0_3" />
			<state id="range_3_6" />
			<state id="range_6_9" />
			<state id="range_9_12" />
			<state id="range_12_15" />
			<state id="range_15_18" />
			<state id="range_18_21" />
			<state id="range_21_24" />
			<state id="range_24_27" />
			<state id="range_27_30" />
			<state id="range_30_inf" />
			<parents>p1_wti p2_wti</parents>
			<probabilities>0.1111111111111111 0.1111111111111111 0.1111111111111111 0.1111111111111111 0.1111111111111111 0.1111111111111111 0.1111111111111111 0.1111111111111111 0.1111111111111111 0 0 0.110585434800577 0.2265508689159268 0.212992792352543 0.2045513334371239 0.1467445329482534 0.0676418632557976 0.02696183610920782 0.003971297920456402 4.026011415594329e-08 0 0 1.426494859625773e-06 1.426494859625773e-06 1.426494859625773e-06 0.02067133701083709 0.6715809414580776 0.3077391625619277 1.426494859625773e-06 1.426494859625773e-06 1.426494859625773e-06 0 0 4.362259475918147e-06 4.362259475918147e-06 4.362259475918147e-06 4.362259475918147e-06 0.7251427549413496 0.2748267092423192 4.362259475918147e-06 4.362259475918147e-06 4.362259475918147e-06 0 0 1.97882655585238e-06 1.97882655585238e-06 0.002851489066983279 0.08709013554961909 0.260375977045612 0.6371880874641338 0.01248639556742852 1.97882655585238e-06 1.97882655585238e-06 0 0 0.1104524760784116 0.227005122419669 0.2129917087851692 0.2048269502834167 0.1483923695125011 0.0659290273735428 0.02653909870377671 0.003863206914138549 3.992937451952485e-08 0 0 0.06770569339497483 0.1527067039507284 0.1723277932517622 0.2155934583839454 0.1659195686290725 0.1842768126657092 0.04058515274330949 0.0008847977042794843 1.927621847627469e-08 0 0 0.0352262264091037 0.08014099234920798 0.07606432619783378 0.2544796613018994 0.09488421273979966 0.2151991501317639 0.1608521896546968 0.08209910375544113 0.001054137460253513 0 0 5.076835364829003e-07 5.076835364829003e-07 0.0003660398298041711 0.8888376128517038 0.01343381405887402 0.03381680036512599 0.0621729566118419 0.001371253232040313 5.076835364829003e-07 0 0 1.493182056072869e-07 1.493182056072869e-07 0.0004839403043732167 0.1359615427975094 0.001061801760073417 0.04359509262730907 0.0944697464143846 0.1741407147892366 0.2992369690375262 0.1922424115368024 0.05880748209637385 1.417757985876295e-06 1.417757985876295e-06 1.417757985876295e-06 0.01339923072451687 0.6697644678658065 0.3168277948617615 1.417757985876295e-06 1.417757985876295e-06 1.417757985876295e-06 0 0 0.03558604270062801 0.08084221853134171 0.07742598991080633 0.2561263828833384 0.09542788571701386 0.2080501067850162 0.1640841651914293 0.08086346667065396 0.00159374160977215 0 0 1.404402267435549e-07 1.404402267435549e-07 0.002578623003238411 0.1540038034022207 0.08927377937430227 0.2564327592558185 0.1592214387061972 0.04483287402357176 0.0505586220679065 0.2430978192862912 0 4.125203217823517e-07 4.125203217823517e-07 4.125203217823517e-07 0.006308260760695722 0.2691921985806825 0.5090500770794221 0.2002996547617427 0.01514815873616974 4.125203217823517e-07 0 0 3.25017437185505e-07 3.25017437185505e-07 3.25017437185505e-07 0.2274283515310596 0.0281315592581542 0.1392436454215769 0.1975156967171289 0.1493910148279455 0.04291237724903941 0.05150323814872668 0.1638731417940573 1.938435295029852e-06 1.938435295029852e-06 0.0001763976118477165 0.07153020082189658 0.2367430410172909 0.6713208498100334 0.02022175699775142 1.938435295029852e-06 1.938435295029852e-06 0 0 1.519058949057295e-07 1.519058949057295e-07 0.001203246593548283 0.1291277578705103 0.001326290368421924 0.04664741411354631 0.08813640784788386 0.1805928674409918 0.3005810552386039 0.1952103159900854 0.05717434072461846 3.353629499061654e-07 3.353629499061654e-07 3.353629499061654e-07 0.2258028924383703 0.03006528845908773 0.1408930178775281 0.1848450153663304 0.1460995276748213 0.04789720723149836 0.05459440534112449 0.1698016395223895 3.878264383609988e-07 3.878264383609988e-07 3.878264383609988e-07 0.7835513499656579 0.007626994736807404 0.13095463865629 0.07786507750905282 3.878264383609988e-07 3.878264383609988e-07 0 0 1.869666659001033e-07 1.869666659001033e-07 0.0009088449629404021 0.2835553282040898 0.009443499327948317 0.07907025964247859 0.3371560537843268 0.2898654531782183 1.869666659001033e-07 0 0 4.691994050551545e-06 4.691994050551545e-06 4.691994050551545e-06 4.691994050551545e-06 0.7385714754913693 0.2613956805502772 4.691994050551545e-06 4.691994050551545e-06 4.691994050551545e-06 0 0 5.078575723595467e-07 5.078575723595467e-07 0.0001833365836217964 0.8828758552321515 0.0173235296507565 0.03240689954983503 0.06556288901890041 0.001645966392017291 5.078575723595467e-07 0 0 4.154090158711169e-07 4.154090158711169e-07 4.154090158711169e-07 0.005978566556417114 0.285209445071712 0.4863953547302209 0.2089553044823464 0.01345966752324006 4.154090158711169e-07 0 0 1.981667593096266e-07 1.981667593096266e-07 1.981667593096266e-07 0.003403117757624218 0.2289517672016178 0.5470944294333124 0.2099699678276266 0.01057992511278166 1.981667593096266e-07 0 0 3.971857009970154e-07 3.971857009970154e-07 3.971857009970154e-07 0.7807658058063782 0.00527661203774535 0.1376538399516386 0.07630175627573264 3.971857009970154e-07 3.971857009970154e-07 0 0</probabilities>
		</cpt>
		<cpt id="p1_gesture" dynamic="plate">
			<state id="wave_slow_shoulder" />
			<state id="wave_fast_shoulder" />
			<state id="wave_small_head" />
			<state id="wave_wide_head" />
			<state id="arm_raise_high" />
			<state id="arm_raise_low" />
			<state id="come_here" />
			<state id="i_am_coming" />
			<state id="None" />
			<parents>p1_wti</parents>
			<probabilities>0.01482530678547583 3.806035268245562e-08 0.001702477652863318 0.01722345157162578 0.0170586883032158 3.806035268245562e-08 0.02337518449756109 0.005669127649095344 0.9201456874194575 1.072117344487128e-08 0.02437063173828421 0.07008747362537714 0.008836423325619557 0.0963493096400545 0.05989334233568815 0.02158533520156203 1.072117334838071e-08 0.7188774626910677 4.773076483586726e-08 4.773076440629038e-08 4.773076440629038e-08 4.773076440629038e-08 0.1055470881178647 0.04114449209883963 4.773076440629038e-08 4.773076440629038e-08 0.8533081333987087 5.553170463286019e-08 5.553170413307485e-08 0.02716338888003103 5.553170413307485e-08 5.553170413307485e-08 5.553170413307485e-08 5.553170413307485e-08 5.553170413307485e-08 0.9728362223980395 8.228160971462762e-08 8.228160897409315e-08 8.228160897409315e-08 8.228160897409315e-08 8.228160897409315e-08 8.228160897409315e-08 8.228160897409315e-08 8.228160897409315e-08 0.9999993417471275</probabilities>
		</cpt>
		<cpt id="p2_gesture" dynamic="plate">
			<state id="wave_slow_shoulder" />
			<state id="wave_fast_shoulder" />
			<state id="wave_small_head" />
			<state id="wave_wide_head" />
			<state id="arm_raise_high" />
			<state id="arm_raise_low" />
			<state id="come_here" />
			<state id="i_am_coming" />
			<state id="None" />
			<parents>p2_wti</parents>
			<probabilities>0.01462924315313458 3.776643274138226e-08 0.002502366067011247 0.01593309147709806 0.0166380397106487 3.776643274138226e-08 0.02334082619358922 0.006481890617836179 0.9204744672478165 1.076517647127721e-08 0.02448615821144947 0.07120603370055718 0.008427884416539385 0.09509216250585061 0.0603452409318621 0.02139034105736898 1.076517647127721e-08 0.7190521576460194 4.785715748775957e-08 4.785715748775957e-08 4.785715748775957e-08 4.785715748775957e-08 0.1065501804310552 0.04109364899148698 4.785715748775957e-08 4.785715748775957e-08 0.8523558834345129 8.164741624710101e-08 8.164741624710101e-08 8.164741624710101e-08 8.164741624710101e-08 8.164741624710101e-08 8.164741624710101e-08 8.164741624710101e-08 8.164741624710101e-08 0.9999993468206699 5.511026461744659e-08 5.511026461744659e-08 0.02748299297233905 5.511026461744659e-08 5.511026461744659e-08 5.511026461744659e-08 5.511026461744659e-08 5.511026461744659e-08 0.9725166212558086</probabilities>
		</cpt>
		<cpt id="p1_head" dynamic="plate">
			<state id="central" />
			<state id="mid_peripheral" />
			<state id="outside" />
			<parents>p1_wti</parents>
			<probabilities>0.9999997716378816 1.141810591891774e-07 1.141810591891774e-07 0.996015357952321 0.00350862194625064 0.0004760201014283046 0.962935820067999 0.03210328288382407 0.00496089704817676 0.3530185452015027 0.3617118114436517 0.2852696433548458 0.07089161339755248 0.1916890801771753 0.7374193064252722</probabilities>
		</cpt>
	</nodes>
	<dynamic numslices="10">
		<cpt id="p1_imas" order="1">
			<parents>p1_imas</parents>
			<probabilities>0.9999995310954082 1.172261479956673e-07 1.172261479956673e-07 1.172261479956673e-07 1.172261479956673e-07 0.001028522384782739 0.9989711782199957 9.979840721742082e-08 9.979840721742082e-08 9.979840721742082e-08 0.004104854078696611 0.003939701698100114 0.9893385630475051 0.002616814447463526 6.672823458444323e-08 0.001216561513509626 0.001921095697581112 0.006139955468832003 0.9907223638120967 2.350798078316604e-08 1.080605030756721e-07 1.080605030756721e-07 4.970783141480914e-06 0.04207508584056213 0.9579197272552902</probabilities>
		</cpt>
		<cpt id="p2_imas" order="1">
			<parents>p2_imas</parents>
			<probabilities>0.999999532314168 1.169214580105814e-07 1.169214580105814e-07 1.169214580105814e-07 1.169214580105814e-07 0.001023844873307728 0.9989758583887327 9.891265320333574e-08 9.891265320333574e-08 9.891265320333574e-08 0.004113495015304067 0.003974975474680367 0.9892778514615483 0.002633611130814642 6.691765247521703e-08 0.001220548785866342 0.001940127991230144 0.006173050897905603 0.99066624873997 2.358502803552283e-08 1.072558588512898e-07 1.072558588512898e-07 1.072558588512898e-07 0.04187922990293345 0.9581204483294899</probabilities>
		</cpt>
		<cpt id="p1_wti" order="1">
			<parents>p2_imas p1_wti</parents>
			<probabilities>0.2 0.2 0.2 0.2 0.2 0.2 0.2 0.2 0.2 0.2 0.2 0.2 0.2 0.2 0.2 0.2 0.2 0.2 0.2 0.2 0.2 0.2 0.2 0.2 0.2 0.2 0.2 0.2 0.2 0.2 0.2 0.2 0.2 0.2 0.2 0.2 0.2 0.2 0.2 0.2 0.2 0.2 0.2 0.2 0.2 0.2 0.2 0.2 0.2 0.2 0.2 0.2 0.2 0.2 0.2 0.2 0.2 0.2 0.2 0.2 0.2 0.2 0.2 0.2 0.2 0.2 0.2 0.2 0.2 0.2 0.2 0.2 0.2 0.2 0.2 0.9999995301858527 1.174535368489918e-07 1.174535368489918e-07 1.174535368489918e-07 1.174535368489918e-07 0.9999192734611501 2.01816347124117e-05 2.01816347124117e-05 2.01816347124117e-05 2.01816347124117e-05 0.999884276001736 2.893099956603501e-05 2.893099956603501e-05 2.893099956603501e-05 2.893099956603501e-05 0.9997673742366969 5.815644082582148e-05 5.815644082582148e-05 5.815644082582148e-05 5.815644082582148e-05 0.2 0.2 0.2 0.2 0.2 0.9998941938896972 2.64515275757175e-05 2.64515275757175e-05 2.64515275757175e-05 2.64515275757175e-05 0.9959798994974877 0.001005025125628141 0.001005025125628141 0.001005025125628141 0.001005025125628141 0.2 0.2 0.2 0.2 0.2 0.2 0.2 0.2 0.2 0.2 0.2 0.2 0.2 0.2 0.2 0.2 0.2 0.2 0.2 0.2 0.2 0.2 0.2 0.2 0.2 0.2 0.2 0.2 0.2 0.2 0.2 0.2 0.2 0.2 0.2 0.2 0.2 0.2 0.2 0.2 0.2 0.2 0.2 0.2 0.2 0.2 0.2 0.2 0.2 0.2 0.2 0.2 0.2 0.2 0.2 0.2 0.2 0.2 0.2 0.2 0.2 0.2 0.2 0.2 0.2 0.2 0.2 0.2 0.2 0.2 7.001746935860496e-07 0.9999971993012255 7.001746935860496e-07 7.001746935860496e-07 7.001746935860496e-07 5.78536303153023e-05 0.999768585478739 5.78536303153023e-05 5.78536303153023e-05 5.78536303153023e-05 0.2 0.2 0.2 0.2 0.2 0.2 0.2 0.2 0.2 0.2 0.9999983487143709 4.128214072668952e-07 4.128214072668952e-07 4.128214072668952e-07 4.128214072668952e-07 0.004303362621391293 0.9956961419039442 1.651582215762701e-07 1.651582215762701e-07 1.651582215762701e-07 0.2306473364801079 0.7692515171948754 3.371544167228591e-05 3.371544167228591e-05 3.371544167228591e-05 8.288437629506842e-05 0.99966846249482 8.288437629506842e-05 8.288437629506842e-05 8.288437629506842e-05 0.2 0.2 0.2 0.2 0.2 0.9999762399762403 5.940005940005943e-06 5.940005940005943e-06 5.940005940005943e-06 5.940005940005943e-06 0.01413043478260869 0.9854037267080744 0.00015527950310559 0.00015527950310559 0.00015527950310559 0.9996120271580993 9.699321047526678e-05 9.699321047526678e-05 9.699321047526678e-05 9.699321047526678e-05 0.0008196721311475412 0.99672131147541 0.0008196721311475412 0.0008196721311475412 0.0008196721311475412 0.2 0.2 0.2 0.2 0.2 0.2 0.2 0.2 0.2 0.2 0.2 0.2 0.2 0.2 0.2 0.2 0.2 0.2 0.2 0.2 0.2 0.2 0.2 0.2 0.2 0.2 0.2 0.2 0.2 0.2 0.2 0.2 0.2 0.2 0.2 7.018775223723459e-07 0.9999971924899104 7.018775223723459e-07 7.018775223723459e-07 7.018775223723459e-07 0.2 0.2 0.2 0.2 0.2 0.2 0.2 0.2 0.2 0.2 0.2 0.2 0.2 0.2 0.2 0.2 0.2 0.2 0.2 0.2 3.376923791272342e-07 0.9999986492304838 3.376923791272342e-07 3.376923791272342e-07 3.376923791272342e-07 7.142857142857146e-05 0.9900714285714288 0.009714285714285717 7.142857142857146e-05 7.142857142857146e-05 0.0007633587786259544 0.9282442748091605 0.06946564885496184 0.0007633587786259544 0.0007633587786259544 0.2 0.2 0.2 0.2 0.2 0.9999846675738354 3.833106541196314e-06 3.833106541196314e-06 3.833106541196314e-06 3.833106541196314e-06 1.04896461947235e-07 0.9999995804141523 1.04896461947235e-07 1.04896461947235e-07 1.04896461947235e-07 0.01618239307705109 0.5692195040772174 0.414584789482443 6.656681644200366e-06 6.656681644200366e-06 0.04180769594402949 0.8551763259903562 0.1029781601588352 1.890895338942989e-05 1.890895338942989e-05 0.02000000000000001 0.9200000000000003 0.02000000000000001 0.02000000000000001 0.02000000000000001 0.9999273849505307 1.815376236725061e-05 1.815376236725061e-05 1.815376236725061e-05 1.815376236725061e-05 1.855717930874507e-06 0.9999925771282766 1.855717930874507e-06 1.855717930874507e-06 1.855717930874507e-06 0.3076713925033988 0.6922120800155371 3.884249368809478e-05 3.884249368809478e-05 3.884249368809478e-05 1.441233696043813e-05 0.9999423506521581 1.441233696043813e-05 1.441233696043813e-05 1.441233696043813e-05 0.2 0.2 0.2 0.2 0.2 0.2 0.2 0.2 0.2 0.2 1.177429154087799e-07 0.9999995290283384 1.177429154087799e-07 1.177429154087799e-07 1.177429154087799e-07 7.933359777865926e-05 0.6569615232050774 0.3428004760015867 7.933359777865926e-05 7.933359777865926e-05 4.915212582944213e-05 0.1858441877611207 0.004472843450479233 0.8095846645367412 4.915212582944213e-05 0.2 0.2 0.2 0.2 0.2 0.9999970815062345 7.296234413419234e-07 7.296234413419234e-07 7.296234413419234e-07 7.296234413419234e-07 1.785288685643691e-07 0.9999992858845259 1.785288685643691e-07 1.785288685643691e-07 1.785288685643691e-07 0.006856164428153827 0.009580791541611596 0.9835617419384239 6.510459052467789e-07 6.510459052467789e-07 0.0007142857142857145 0.0007142857142857145 0.9971428571428573 0.0007142857142857145 0.0007142857142857145 0.007142857142857144 0.007142857142857144 0.9714285714285715 0.007142857142857144 0.007142857142857144 0.9999481125956672 1.297185108314956e-05 1.297185108314956e-05 1.297185108314956e-05 1.297185108314956e-05 1.471201596547973e-07 0.9999994115193616 1.471201596547973e-07 1.471201596547973e-07 1.471201596547973e-07 6.487777028079098e-07 0.08139629937198317 0.9186017542949082 6.487777028079098e-07 6.487777028079098e-07 6.170382779695739e-07 0.0184932542290261 0.03647374964905948 0.9450317620453585 6.170382779695739e-07 4.094165813715456e-05 4.094165813715456e-05 0.9998362333674515 4.094165813715456e-05 4.094165813715456e-05 0.9999724745389484 6.881365262868152e-06 6.881365262868152e-06 6.881365262868152e-06 6.881365262868152e-06 3.915250487938092e-07 0.991508213216711 0.008490612208142545 3.915250487938092e-07 3.915250487938092e-07 0.0004671272402901798 0.01161191665983999 0.987920592010049 1.820449104794153e-07 1.820449104794153e-07 3.487060390655376e-07 0.001804902458203223 0.04127842608042209 0.9569159740492967 3.487060390655376e-07 1.253682692910424e-05 1.253682692910424e-05 0.9993856954804738 0.0005766940387387951 1.253682692910424e-05 0.2 0.2 0.2 0.2 0.2 1.043879473675969e-06 0.999995824482105 1.043879473675969e-06 1.043879473675969e-06 1.043879473675969e-06 6.744270742004666e-07 0.01044080553569742 0.9895571711830798 6.744270742004666e-07 6.744270742004666e-07 5.670412919468796e-07 0.009824557424271635 0.002294249067217075 0.9878800594259274 5.670412919468796e-07 7.55943606606947e-06 7.55943606606947e-06 0.75126431568205 0.2487130060097516 7.55943606606947e-06 0.2 0.2 0.2 0.2 0.2 0.2 0.2 0.2 0.2 0.2 3.918495297805644e-05 3.918495297805644e-05 0.9998432601880879 3.918495297805644e-05 3.918495297805644e-05 0.0008196721311475411 0.0008196721311475411 0.0008196721311475411 0.9967213114754099 0.0008196721311475411 0.2 0.2 0.2 0.2 0.2 0.2 0.2 0.2 0.2 0.2 0.2 0.2 0.2 0.2 0.2 8.693762225603128e-06 8.693762225603128e-06 0.9999652249510974 8.693762225603128e-06 8.693762225603128e-06 0.000341296928327645 0.000341296928327645 0.000341296928327645 0.9986348122866893 0.000341296928327645 1.729206294310912e-05 1.729206294310912e-05 0.1455300017292063 1.729206294310912e-05 0.8544181220819644 0.2 0.2 0.2 0.2 0.2 0.2 0.2 0.2 0.2 0.2 0.2 0.2 0.2 0.2 0.2 2.953555342243225e-06 2.953555342243225e-06 2.953555342243225e-06 0.999988185778631 2.953555342243225e-06 8.166598611678236e-06 8.166598611678236e-06 8.166598611678236e-06 8.166598611678236e-06 0.9999673336055533 0.2 0.2 0.2 0.2 0.2 0.2 0.2 0.2 0.2 0.2 0.0002 0.0002 0.9992 0.0002 0.0002 6.254945316140574e-07 6.254945316140574e-07 6.254945316140574e-07 0.9999974980218735 6.254945316140574e-07 3.961023528479759e-07 3.961023528479759e-07 0.0007668541551136813 3.961023528479759e-07 0.9992319575378278 0.2 0.2 0.2 0.2 0.2 0.2 0.2 0.2 0.2 0.2 0.2 0.2 0.2 0.2 0.2 1.227897838899803e-06 1.227897838899803e-06 1.227897838899803e-06 0.9999950884086443 1.227897838899803e-06 3.068957950672639e-07 3.068957950672639e-07 3.068957950672639e-07 3.068957950672639e-07 0.9999987724168197</probabilities>
		</cpt>
		<cpt id="p2_wti" order="1">
			<parents>p1_imas p2_wti</parents>
			<probabilities>0.2 0.2 0.2 0.2 0.2 0.2 0.2 0.2 0.2 0.2 0.2 0.2 0.2 0.2 0.2 0.2 0.2 0.2 0.2 0.2 0.2 0.2 0.2 0.2 0.2 0.2 0.2 0.2 0.2 0.2 0.2 0.2 0.2 0.2 0.2 0.2 0.2 0.2 0.2 0.2 0.2 0.2 0.2 0.2 0.2 0.2 0.2 0.2 0.2 0.2 0.2 0.2 0.2 0.2 0.2 0.2 0.2 0.2 0.2 0.2 0.2 0.2 0.2 0.2 0.2 0.2 0.2 0.2 0.2 0.2 0.2 0.2 0.2 0.2 0.2 0.9999995312660213 1.171834947047709e-07 1.171834947047709e-07 1.171834947047709e-07 1.171834947047709e-07 0.9999192734611501 2.01816347124117e-05 2.01816347124117e-05 2.01816347124117e-05 2.01816347124117e-05 0.9998841251448437 2.896871378910777e-05 2.896871378910777e-05 2.896871378910777e-05 2.896871378910777e-05 0.2 0.2 0.2 0.2 0.2 0.9997679814385153 5.800464037122972e-05 5.800464037122972e-05 5.800464037122972e-05 5.800464037122972e-05 0.9999013563501851 2.466091245376079e-05 2.466091245376079e-05 2.466091245376079e-05 2.466091245376079e-05 0.9953488372093026 0.001162790697674419 0.001162790697674419 0.001162790697674419 0.001162790697674419 0.2 0.2 0.2 0.2 0.2 0.2 0.2 0.2 0.2 0.2 0.2 0.2 0.2 0.2 0.2 0.2 0.2 0.2 0.2 0.2 0.2 0.2 0.2 0.2 0.2 0.2 0.2 0.2 0.2 0.2 0.2 0.2 0.2 0.2 0.2 0.2 0.2 0.2 0.2 0.2 0.2 0.2 0.2 0.2 0.2 0.2 0.2 0.2 0.2 0.2 0.2 0.2 0.2 0.2 0.2 0.2 0.2 0.2 0.2 0.2 0.2 0.2 0.2 0.2 0.2 0.2 0.2 0.2 0.2 0.2 7.018775223723459e-07 0.9999971924899104 7.018775223723459e-07 7.018775223723459e-07 7.018775223723459e-07 5.78536303153023e-05 0.999768585478739 5.78536303153023e-05 5.78536303153023e-05 5.78536303153023e-05 0.2 0.2 0.2 0.2 0.2 0.2 0.2 0.2 0.2 0.2 0.9999984114250311 3.97143742206054e-07 3.97143742206054e-07 3.97143742206054e-07 3.97143742206054e-07 0.004379701950261153 0.9956198023466586 1.652343601547255e-07 1.652343601547255e-07 1.652343601547255e-07 0.2485127362366475 0.7513886606409204 3.286770747740346e-05 3.286770747740346e-05 3.286770747740346e-05 0.2 0.2 0.2 0.2 0.2 8.257638315441788e-05 0.9996696944673826 8.257638315441788e-05 8.257638315441788e-05 8.257638315441788e-05 0.9999764913311787 5.877167205406997e-06 5.877167205406997e-06 5.877167205406997e-06 5.877167205406997e-06 0.01756756756756756 0.9818532818532817 0.000193050193050193 0.000193050193050193 0.000193050193050193 0.999615384615385 9.615384615384621e-05 9.615384615384621e-05 9.615384615384621e-05 9.615384615384621e-05 0.2 0.2 0.2 0.2 0.2 0.001005025125628141 0.9959798994974877 0.001005025125628141 0.001005025125628141 0.001005025125628141 0.2 0.2 0.2 0.2 0.2 0.2 0.2 0.2 0.2 0.2 0.2 0.2 0.2 0.2 0.2 0.2 0.2 0.2 0.2 0.2 0.2 0.2 0.2 0.2 0.2 0.2 0.2 0.2 0.2 0.2 7.001746935860496e-07 0.9999971993012255 7.001746935860496e-07 7.001746935860496e-07 7.001746935860496e-07 0.2 0.2 0.2 0.2 0.2 0.2 0.2 0.2 0.2 0.2 0.2 0.2 0.2 0.2 0.2 0.9200000000000003 0.02000000000000001 0.02000000000000001 0.02000000000000001 0.02000000000000001 3.376923791272342e-07 0.9999986492304838 3.376923791272342e-07 3.376923791272342e-07 3.376923791272342e-07 6.752194463200542e-05 0.9997299122214722 6.752194463200542e-05 6.752194463200542e-05 6.752194463200542e-05 0.2 0.2 0.2 0.2 0.2 0.0006711409395973156 0.9973154362416109 0.0006711409395973156 0.0006711409395973156 0.0006711409395973156 0.9999859028352924 3.52429117693704e-06 3.52429117693704e-06 3.52429117693704e-06 3.52429117693704e-06 1.05194393980356e-07 0.9999995792224242 1.05194393980356e-07 1.05194393980356e-07 1.05194393980356e-07 0.0147362457509757 0.5351315623819715 0.4501196021654287 6.294850812035754e-06 6.294850812035754e-06 0.2 0.2 0.2 0.2 0.2 0.0424604569420035 0.8594200351493847 0.09808435852372581 1.757469244288225e-05 1.757469244288225e-05 0.9999177039399236 2.057401501903096e-05 2.057401501903096e-05 2.057401501903096e-05 2.057401501903096e-05 2.023472278429786e-06 0.9999919061108864 2.023472278429786e-06 2.023472278429786e-06 2.023472278429786e-06 0.302544625902013 0.6973414356247627 3.797949107481961e-05 3.797949107481961e-05 3.797949107481961e-05 0.2 0.2 0.2 0.2 0.2 1.547508511296812e-05 0.9999380996595479 1.547508511296812e-05 1.547508511296812e-05 1.547508511296812e-05 0.2 0.2 0.2 0.2 0.2 1.181548466527323e-07 0.9999995273806135 1.181548466527323e-07 1.181548466527323e-07 1.181548466527323e-07 6.591957811470006e-05 0.5251153592617007 0.4746868820039552 6.591957811470006e-05 6.591957811470006e-05 0.02 0.02 0.92 0.02 0.02 3.837298541826555e-05 0.179623944742901 0.006945510360706063 3.837298541826555e-05 0.8133537989255564 0.9999970304159643 7.423960088790562e-07 7.423960088790562e-07 7.423960088790562e-07 7.423960088790562e-07 1.806976918580331e-07 0.9999992772092328 1.806976918580331e-07 1.806976918580331e-07 1.806976918580331e-07 0.006885461493889932 0.009639385673083806 0.9834738507412156 6.510459052467789e-07 6.510459052467789e-07 0.02 0.02 0.92 0.02 0.02 0.0006514657980456027 0.0006514657980456027 0.9973941368078177 0.0006514657980456027 0.0006514657980456027 0.9999410985127373 1.472537181563834e-05 1.472537181563834e-05 1.472537181563834e-05 1.472537181563834e-05 1.470247699981255e-07 0.9999994119009201 1.470247699981255e-07 1.470247699981255e-07 1.470247699981255e-07 6.408181966735126e-07 0.08117628588181389 0.9188217916635959 6.408181966735126e-07 6.408181966735126e-07 4.284490145672666e-05 4.284490145672666e-05 0.9998286203941732 4.284490145672666e-05 4.284490145672666e-05 6.233869861732767e-07 0.01820664031817672 0.03852905606742554 6.233869861732767e-07 0.9432630568404254 0.9999721011333913 6.974716652136007e-06 6.974716652136007e-06 6.974716652136007e-06 6.974716652136007e-06 3.935683067313955e-07 0.9914638969953027 0.008534922299777042 3.935683067313955e-07 3.935683067313955e-07 0.0004954136180968121 0.01148493858228434 0.9880192809624342 1.834185924090382e-07 1.834185924090382e-07 1.230844975075389e-05 1.230844975075389e-05 0.9999507662009969 1.230844975075389e-05 1.230844975075389e-05 3.428802627834334e-07 0.001682170569215524 0.03995103669847452 3.428802627834334e-07 0.9583661069717843 0.2 0.2 0.2 0.2 0.2 1.053629754504267e-06 0.9999957854809818 1.053629754504267e-06 1.053629754504267e-06 1.053629754504267e-06 6.807097079414997e-07 0.01044617117807025 0.9895517866928057 6.807097079414997e-07 6.807097079414997e-07 7.572028925150493e-06 7.572028925150493e-06 0.7503956385113391 7.572028925150493e-06 0.2495816454018854 5.653246800968967e-07 0.009817428394562707 0.002236424434463323 5.653246800968967e-07 0.9879450165216138 0.2 0.2 0.2 0.2 0.2 0.2 0.2 0.2 0.2 0.2 4.280821917808221e-05 4.280821917808221e-05 0.9998287671232878 4.280821917808221e-05 4.280821917808221e-05 0.002439024390243902 0.002439024390243902 0.5512195121951219 0.4414634146341463 0.002439024390243902 0.0004926108374384237 0.0004926108374384237 0.0004926108374384237 0.0004926108374384237 0.9980295566502463 0.2 0.2 0.2 0.2 0.2 0.2 0.2 0.2 0.2 0.2 9.066183136899364e-06 9.066183136899364e-06 0.9999637352674523 9.066183136899364e-06 9.066183136899364e-06 1.694915254237288e-05 1.694915254237288e-05 0.1312033898305085 0.8687457627118643 1.694915254237288e-05 0.0002466091245376079 0.0002466091245376079 0.0002466091245376079 0.0002466091245376079 0.9990135635018497 0.2 0.2 0.2 0.2 0.2 0.2 0.2 0.2 0.2 0.2 0.2 0.2 0.2 0.2 0.2 7.814942169427947e-06 7.814942169427947e-06 7.814942169427947e-06 0.9999687402313223 7.814942169427947e-06 2.623776664130349e-06 2.623776664130349e-06 2.623776664130349e-06 2.623776664130349e-06 0.9999895048933435 0.2 0.2 0.2 0.2 0.2 0.2 0.2 0.2 0.2 0.2 0.0001441961067051189 0.0001441961067051189 0.9994232155731794 0.0001441961067051189 0.0001441961067051189 3.929798086974291e-07 3.929798086974291e-07 0.0009199657321606816 0.9990788553284132 3.929798086974291e-07 6.249550813535278e-07 6.249550813535278e-07 6.249550813535278e-07 6.249550813535278e-07 0.9999975001796746 0.2 0.2 0.2 0.2 0.2 0.2 0.2 0.2 0.2 0.2 0.2 0.2 0.2 0.2 0.2 3.050156778058393e-07 3.050156778058393e-07 3.050156778058393e-07 0.9999987799372889 3.050156778058393e-07 1.258455246185308e-06 1.258455246185308e-06 1.258455246185308e-06 1.258455246185308e-06 0.9999949661790153</probabilities>
		</cpt>
	</dynamic>
	<extensions>
		<genie version="1.0" app="SMILE_ACADEMIC 1.5.0@a121f1f76773" name="emidas dbn v9" faultnameformat="user">
			<plate leftwidth="120" rightwidth="120">120 50 1164 561</plate>
			<node id="p1_imas">
				<name>p1_imas</name>
				<interior color="e5f6f7" />
				<outline color="000080" />
				<font color="000000" name="MS Sans Serif" size="8" />
				<position>491 462 547 497</position>
			</node>
			<node id="p2_imas">
				<name>p2_imas</name>
				<interior color="e5f6f7" />
				<outline color="000080" />
				<font color="000000" name="MS Sans Serif" size="8" />
				<position>651 472 707 507</position>
			</node>
			<node id="p1_wti">
				<name>p1_wti</name>
				<interior color="e5f6f7" />
				<outline color="000080" />
				<font color="000000" name="MS Sans Serif" size="8" />
				<position>487 311 571 363</position>
			</node>
			<node id="p2_wti">
				<name>p2_wti</name>
				<interior color="e5f6f7" />
				<outline color="000080" />
				<font color="000000" name="MS Sans Serif" size="8" />
				<position>650 301 734 353</position>
			</node>
			<node id="p1_approach">
				<name>p1_approach</name>
				<interior color="e5f6f7" />
				<outline color="000080" />
				<font color="000000" name="MS Sans Serif" size="8" />
				<position>268 135 344 182</position>
			</node>
			<node id="p2_head">
				<name>p2_head</name>
				<interior color="e5f6f7" />
				<outline color="000080" />
				<font color="000000" name="MS Sans Serif" size="8" />
				<position>676 84 733 119</position>
			</node>
			<node id="p1_body">
				<name>p1_body</name>
				<interior color="e5f6f7" />
				<outline color="000080" />
				<font color="000000" name="MS Sans Serif" size="8" />
				<position>404 76 461 111</position>
			</node>
			<node id="p2_approach">
				<name>p2_approach</name>
				<interior color="e5f6f7" />
				<outline color="000080" />
				<font color="000000" name="MS Sans Serif" size="8" />
				<position>924 160 1000 207</position>
			</node>
			<node id="p2_body">
				<name>p2_body</name>
				<interior color="e5f6f7" />
				<outline color="000080" />
				<font color="000000" name="MS Sans Serif" size="8" />
				<position>827 91 884 126</position>
			</node>
			<node id="dist">
				<name>dist</name>
				<interior color="e5f6f7" />
				<outline color="000080" />
				<font color="000000" name="MS Sans Serif" size="8" />
				<position>599 137 637 160</position>
			</node>
			<node id="p1_gesture">
				<name>p1_gesture</name>
				<interior color="e5f6f7" />
				<outline color="000080" />
				<font color="000000" name="MS Sans Serif" size="8" />
				<position>248 271 316 313</position>
			</node>
			<node id="p2_gesture">
				<name>p2_gesture</name>
				<interior color="e5f6f7" />
				<outline color="000080" />
				<font color="000000" name="MS Sans Serif" size="8" />
				<position>964 312 1032 354</position>
			</node>
			<node id="p1_head">
				<name>p1_head</name>
				<interior color="e5f6f7" />
				<outline color="000080" />
				<font color="000000" name="MS Sans Serif" size="8" />
				<position>528 80 585 115</position>
			</node>
		</genie>
	</extensions>
</smile>
