<?xml version="1.0" encoding="ISO-8859-1"?>
<!-- This file was created by ACADEMIC version of SMILE -->
<smile version="1.0" id="Network2" numsamples="10000" discsamples="10000">
	<nodes>
		<cpt id="p1_imas" target="true" dynamic="plate">
			<state id="very_high" />
			<state id="high" />
			<state id="medium" />
			<state id="low" />
			<state id="very_low" />
			<probabilities>0.06442939602338045 0.08057132667906744 0.159256737680625 0.4799616900160346 0.2157808496008927</probabilities>
		</cpt>
		<cpt id="p2_imas" target="true" dynamic="plate">
			<state id="very_high" />
			<state id="high" />
			<state id="medium" />
			<state id="low" />
			<state id="very_low" />
			<probabilities>0.06472252953961828 0.08103669302166623 0.1583233033040335 0.479045141210655 0.2168723329240271</probabilities>
		</cpt>
		<cpt id="p1_wti" dynamic="plate">
			<state id="very_high" />
			<state id="high" />
			<state id="medium" />
			<state id="low" />
			<state id="very_low" />
			<parents>p1_imas</parents>
			<probabilities>0.9999916135524993 2.096611875209662e-06 2.096611875209662e-06 2.096611875209662e-06 2.096611875209662e-06 0.2756134159324677 0.7243815543502864 1.67657241535405e-06 1.67657241535405e-06 1.67657241535405e-06 0.02123169443867186 0.9787657609133588 8.48215989719622e-07 8.48215989719622e-07 8.48215989719622e-07 0.01740082464361605 0.4639045327254049 0.3008727712810121 0.2178215899016338 2.814483331222471e-07 6.260251161276591e-07 6.260251161276591e-07 0.01084338103644718 0.2374550826979178 0.7517002842154028</probabilities>
		</cpt>
		<cpt id="p2_wti" dynamic="plate">
			<state id="very_high" />
			<state id="high" />
			<state id="medium" />
			<state id="very_low" />
			<state id="low" />
			<parents>p2_imas</parents>
			<probabilities>0.9999916515350741 2.087116231502933e-06 2.087116231502933e-06 2.087116231502933e-06 2.087116231502933e-06 0.2844324054009001 0.7155625937656277 1.666944490748458e-06 1.666944490748458e-06 1.666944490748458e-06 0.02092173015310976 0.9790757101963676 8.532168407940034e-07 8.532168407940034e-07 8.532168407940034e-07 0.01744116697426729 0.4621696348129652 0.3005065893270807 2.819868227557726e-07 0.219882326898864 6.228744409701892e-07 6.228744409701892e-07 0.01044311287730619 0.7508944476972332 0.2386611936765787</probabilities>
		</cpt>
		<cpt id="p1_approach" dynamic="plate">
			<state id="y" />
			<state id="m" />
			<state id="n" />
			<parents>p1_wti</parents>
			<probabilities>0.7801752520346249 0.1691039327888764 0.05072081517649867 0.5226546448763674 0.1635831591778074 0.3137621959458252 0.2714217645389742 0.2394257909416667 0.4891524445193592 0.3424880299285174 0.08104765805000652 0.5764643120214761 0.0002436512841026325 0.0165411496622537 0.9832151990536436</probabilities>
		</cpt>
		<cpt id="p2_head" dynamic="plate">
			<state id="central" />
			<state id="mid_peripheral" />
			<state id="outside" />
			<parents>p2_wti</parents>
			<probabilities>0.9999999241209659 3.793951697379843e-08 3.793951697379843e-08 0.9984459934818126 0.001434119342791118 0.0001198871753963162 0.9863269924054334 0.0123132007913159 0.001359806803250745 0.06127872300952714 0.1932644116592463 0.7454568653312265 0.4548490094467154 0.3016773295931335 0.2434736609601512</probabilities>
		</cpt>
		<cpt id="p1_body" dynamic="plate">
			<state id="strongly_facing" />
			<state id="slightly_facing" />
			<state id="turned_away" />
			<parents>p1_wti</parents>
			<probabilities>0.3776813193840717 0.5902506902844511 0.03206799033147716 0.2904104935065904 0.5535166670083741 0.1560728394850355 0.09438560736893595 0.5027484119968723 0.4028659806341919 0.0821867471098334 0.7598850003066839 0.1579282525834826 0.001830883679028617 0.3506811338155716 0.6474879825053997</probabilities>
		</cpt>
		<cpt id="p2_approach" dynamic="plate">
			<state id="y" />
			<state id="m" />
			<state id="n" />
			<parents>p2_wti</parents>
			<probabilities>0.7784350419698318 0.1700866106057188 0.05147834742444933 0.5222216635786434 0.1652982933973648 0.3124800430239918 0.2739312257717286 0.2412424035477332 0.4848263706805381 0.0002047252377143787 0.01678618929307276 0.9830090854692128 0.3420704477325905 0.0816245976925085 0.5763049545749011</probabilities>
		</cpt>
		<cpt id="p2_body" dynamic="plate">
			<state id="strongly_facing" />
			<state id="slightly_facing" />
			<state id="turned_away" />
			<parents>p2_wti</parents>
			<probabilities>0.3830717365698473 0.5839617065832118 0.03296655684694083 0.2890234016206693 0.5569094791949043 0.1540671191844265 0.093521177130704 0.505934053273604 0.400544769595692 0.001822897413666279 0.3564876083622205 0.6416894942241133 0.08362999853982168 0.7642580343888146 0.1521119670713638</probabilities>
		</cpt>
		<cpt id="dist" dynamic="plate">
			<state id="range_0_3" />
			<state id="range_3_6" />
			<state id="range_6_9" />
			<state id="range_9_12" />
			<state id="range_12_15" />
			<state id="range_15_18" />
			<state id="range_18_21" />
			<state id="range_21_24" />
			<state id="range_24_27" />
			<state id="range_27_30" />
			<state id="range_30_inf" />
			<parents>p1_wti p2_wti</parents>
			<probabilities>0.1111111111111111 0.1111111111111111 0.1111111111111111 0.1111111111111111 0.1111111111111111 0.1111111111111111 0.1111111111111111 0.1111111111111111 0.1111111111111111 0 0 0.04135877897318872 0.1600562060992217 0.2342467869768972 0.2528984573963009 0.1844253076426776 0.08610591384593523 0.03565453076618529 0.005254004983515495 1.331607782704194e-08 0 0 4.718694997711432e-07 4.718694997711432e-07 4.718694997711432e-07 0.02538374787068888 0.5914685994441377 0.3831448214681746 4.718694997711432e-07 4.718694997711432e-07 4.718694997711432e-07 0 0 1.196235208551646e-06 1.196235208551646e-06 1.196235208551646e-06 1.196235208551646e-06 0.7258850944308075 0.2741065319227328 1.196235208551646e-06 1.196235208551646e-06 1.196235208551646e-06 0 0 4.12286126571841e-06 4.12286126571841e-06 0.01926200783343641 0.7196701710987427 0.0159224902082045 0.2364048649762936 0.008723974438260155 4.12286126571841e-06 4.12286126571841e-06 0 0 0.04126814785867357 0.1601854158382751 0.2347002799335882 0.2539403177653497 0.1861386113048663 0.08365494454069955 0.0350139558403121 0.005098313744331976 1.317390328276148e-08 0 0 0.02507314170338567 0.1024302898755922 0.1790421263030646 0.2573421769363691 0.1735804980210645 0.215221894052509 0.04619451767833374 0.00111534935482646 6.074854466078397e-09 0 0 0.0115124741161285 0.05312092220678933 0.08172511228744853 0.2674642304762203 0.1042981570407352 0.2238807229473849 0.1601051493448378 0.09666715143794516 0.001226080142510484 0 0 1.431683704418591e-07 1.431683704418591e-07 0.000412468075242996 0.903159196212681 0.009907537571317532 0.01707039431289419 0.06790361275361023 0.00154636156914252 1.431683704418591e-07 0 0 5.204326002311553e-08 5.204326002311553e-08 0.0005677399235921673 0.149817661234183 6.234782550769241e-05 0.04129419305468122 0.07778734332897003 0.2311145938460719 0.3309199312362814 0.1443604049881591 0.02407568047603345 4.561904357850374e-07 4.561904357850374e-07 4.561904357850374e-07 0.01490419772753296 0.6097646650398915 0.3753284000899607 4.561904357850374e-07 4.561904357850374e-07 4.561904357850374e-07 0 0 0.0115434248038591 0.05340460838799935 0.08293204267652202 0.2696028239409712 0.1049281698286766 0.217022558978884 0.1639373206525832 0.09478783364387158 0.001841217086633103 0 0 3.816787483257662e-08 3.816787483257662e-08 0.002798964765097342 0.1400298411712591 0.08950900998486874 0.2706446981539421 0.1697741041961609 0.0484086209931556 0.05496177792678517 0.2238729064729815 0 1.317900194891081e-07 1.317900194891081e-07 1.317900194891081e-07 0.003468317942894857 0.2411719137545026 0.4980501666616586 0.2382018938752961 0.01910718060556987 1.317900194891081e-07 0 0 1.594348608149608e-07 1.594348608149608e-07 1.594348608149608e-07 0.2378572018480413 0.02781883225443762 0.151202760646502 0.2423269581709888 0.1918481274535032 0.02359444618228442 0.03734506518813153 0.08800612995152859 5.166036410224619e-06 5.166036410224619e-06 0.001864939144091088 0.7572582811563657 5.166036410224619e-06 0.2291757072303846 0.01167524228710764 5.166036410224619e-06 5.166036410224619e-06 0 0 5.288680789877168e-08 5.288680789877168e-08 0.001500345853280254 0.1418805501730007 6.097848950728376e-05 0.04486652348092296 0.07436641471920252 0.2370668087840969 0.3315329077320355 0.1455274657852763 0.02319789920906192 1.667718997353997e-07 1.667718997353997e-07 1.667718997353997e-07 0.2377922135534189 0.02885737567071488 0.1550014725958747 0.2260262892551867 0.1931900696005846 0.0265023896745513 0.04039799113240455 0.09223169820156518 2.136275582968243e-07 2.136275582968243e-07 2.136275582968243e-07 0.5866424242113512 0.02346036482459896 0.1767530918316512 0.1378848393648938 0.05023708386419781 0.02462548952754983 0.0003960654930823124 0 1.292810448390619e-07 1.292810448390619e-07 0.00204794103129558 0.4332565921051169 0.004158583369338105 0.01745423386372175 0.3283353281398552 0.214746933647538 1.292810448390619e-07 0 0 1.282105524977339e-06 1.282105524977339e-06 1.282105524977339e-06 1.282105524977339e-06 0.7448289478913852 0.25516207736994 1.282105524977339e-06 1.282105524977339e-06 1.282105524977339e-06 0 0 1.429556188563036e-07 1.429556188563036e-07 0.0001738340325292651 0.8964223640913782 0.01297293649997184 0.01600159424106148 0.07257599449220591 0.00185284777599655 1.429556188563036e-07 0 0 1.311440151445108e-07 1.311440151445108e-07 1.311440151445108e-07 0.003302599733384217 0.2601421207692121 0.474194726568007 0.2456315600695325 0.01672846828380352 1.311440151445108e-07 0 0 2.766124785587295e-08 2.766124785587295e-08 2.766124785587295e-08 0.2368806089922457 0.2972716964386061 0.2107541731349037 0.1006378158191855 0.04427301662698246 0.07379913049080267 0.03638347551353038 0 2.171008140195021e-07 2.171008140195021e-07 2.171008140195021e-07 0.5765924073332312 0.02365812700614721 0.1837456620543599 0.1379812446606768 0.05205816999210838 0.0258054711576141 0.0001582664934202171 0</probabilities>
		</cpt>
		<cpt id="p1_gesture" dynamic="plate">
			<state id="wave_slow_shoulder" />
			<state id="wave_fast_shoulder" />
			<state id="wave_small_head" />
			<state id="wave_wide_head" />
			<state id="arm_raise_high" />
			<state id="arm_raise_low" />
			<state id="come_here" />
			<state id="i_am_coming" />
			<state id="None" />
			<parents>p1_wti</parents>
			<probabilities>0.01990016028758552 1.277222435071343e-08 1.277222435071343e-08 1.277222435071343e-08 0.02142635170718712 1.277222435071343e-08 0.02826760216569402 0.007606140665846844 0.9227996940847891 3.415366715762905e-09 0.02967638782154406 0.07700654664664999 0.008199168421729668 0.1051701763333686 0.06894318345177497 0.02564619703167947 3.415366685024604e-09 0.6853583334625198 1.465468017875075e-08 1.465468004685863e-08 1.465468004685863e-08 1.465468004685863e-08 0.1290877142107575 0.03134127575966696 1.465468004685863e-08 1.465468004685863e-08 0.8395709221014951 2.66565819219273e-08 2.665658168201806e-08 0.05200491216829489 2.665658168201806e-08 2.665658168201806e-08 2.665658168201806e-08 2.665658168201806e-08 2.665658168201806e-08 0.9479949012356331 1.780686135050656e-08 1.78068611902448e-08 1.78068611902448e-08 1.78068611902448e-08 1.78068611902448e-08 1.78068611902448e-08 1.78068611902448e-08 1.78068611902448e-08 0.9999998575451103</probabilities>
		</cpt>
		<cpt id="p2_gesture" dynamic="plate">
			<state id="wave_slow_shoulder" />
			<state id="wave_fast_shoulder" />
			<state id="wave_small_head" />
			<state id="wave_wide_head" />
			<state id="arm_raise_high" />
			<state id="arm_raise_low" />
			<state id="come_here" />
			<state id="i_am_coming" />
			<state id="None" />
			<parents>p2_wti</parents>
			<probabilities>0.01959376236907294 1.264650565793281e-08 1.264650565793281e-08 1.264650565793281e-08 0.02090620407974755 1.264650565793281e-08 0.02828164617945397 0.008680384432525872 0.922537952353177 3.429365124755176e-09 0.0298894719392593 0.07823711071488912 0.007869069226374975 0.1043337288317251 0.06955998704289833 0.02518041521264586 3.429365124755176e-09 0.6849302101734771 1.470268041184972e-08 1.470268041184972e-08 1.470268041184972e-08 1.470268041184972e-08 0.1303964405751694 0.03101215795518885 1.470268041184972e-08 1.470268041184972e-08 0.8385913132535592 1.778054869848695e-08 1.778054869848695e-08 1.778054869848695e-08 1.778054869848695e-08 1.778054869848695e-08 1.778054869848695e-08 1.778054869848695e-08 1.778054869848695e-08 0.9999998577556104 2.626692400897457e-08 2.626692400897457e-08 0.0522439925115101 2.626692400897457e-08 2.626692400897457e-08 2.626692400897457e-08 2.626692400897457e-08 2.626692400897457e-08 0.9477558236200219</probabilities>
		</cpt>
		<cpt id="p1_head" dynamic="plate">
			<state id="central" />
			<state id="mid_peripheral" />
			<state id="outside" />
			<parents>p1_wti</parents>
			<probabilities>0.999999923366653 3.831667343530702e-08 3.831667343530702e-08 0.9984430845888623 0.001405119437303852 0.0001517959738338783 0.9867463365424446 0.01172419844981035 0.001529465007745145 0.457243095792 0.3028828533589172 0.2398740508490828 0.06122164542236878 0.1833468701093455 0.7554314844682857</probabilities>
		</cpt>
	</nodes>
	<dynamic numslices="40">
		<cpt id="p1_imas" order="1">
			<parents>p1_imas</parents>
			<probabilities>0.999999860714995 3.482125120068027e-08 3.482125120068027e-08 3.482125120068027e-08 3.482125120068027e-08 0.00135051457066892 0.9986493947014621 3.024262295478591e-08 3.024262295478591e-08 3.024262295478591e-08 0.005139473921620694 0.004076734979795774 0.9890613953347589 0.001722376108952461 1.965487223645126e-08 0.001611317006687169 0.002358052227131957 0.004753748388061463 0.9911402461793993 0.00013663619872002 2.7119828147073e-08 2.7119828147073e-08 2.603503502119008e-06 0.02880386099569364 0.971193481261148</probabilities>
		</cpt>
		<cpt id="p2_imas" order="1">
			<parents>p2_imas</parents>
			<probabilities>0.999999861077321 3.473066973407942e-08 3.473066973407942e-08 3.473066973407942e-08 3.473066973407942e-08 0.00134787260258329 0.9986520372407243 3.005223077709058e-08 3.005223077709058e-08 3.005223077709058e-08 0.005143579350907992 0.0041085869814419 0.989013291195999 0.001734522783761311 1.968788985098138e-08 0.00161505499660858 0.002382967911214935 0.004845438665706209 0.991019729294223 0.0001368091322472434 2.702962771553155e-08 2.702962771553155e-08 2.702962771553155e-08 0.02897619338509327 0.9710237255260236</probabilities>
		</cpt>
		<cpt id="p1_wti" order="1">
			<parents>p2_imas p1_wti</parents>
			<probabilities>0.2 0.2 0.2 0.2 0.2 0.2 0.2 0.2 0.2 0.2 0.2 0.2 0.2 0.2 0.2 0.2 0.2 0.2 0.2 0.2 0.2 0.2 0.2 0.2 0.2 0.2 0.2 0.2 0.2 0.2 0.2 0.2 0.2 0.2 0.2 0.2 0.2 0.2 0.2 0.2 0.2 0.2 0.2 0.2 0.2 0.2 0.2 0.2 0.2 0.2 0.2 0.2 0.2 0.2 0.2 0.2 0.2 0.2 0.2 0.2 0.2 0.2 0.2 0.2 0.2 0.2 0.2 0.2 0.2 0.2 0.2 0.2 0.2 0.2 0.2 0.9999998603555521 3.491111194509878e-08 3.491111194509878e-08 3.491111194509878e-08 3.491111194509878e-08 0.9999811910751655 4.702231208708534e-06 4.702231208708534e-06 4.702231208708534e-06 4.702231208708534e-06 0.9999732914900009 6.677127499749607e-06 6.677127499749607e-06 6.677127499749607e-06 6.677127499749607e-06 0.9999463051211489 1.34237197127324e-05 1.34237197127324e-05 1.34237197127324e-05 1.34237197127324e-05 0.2 0.2 0.2 0.2 0.2 0.9999755239406455 6.119014838610984e-06 6.119014838610984e-06 6.119014838610984e-06 6.119014838610984e-06 0.9989962358845669 0.0002509410288582182 0.0002509410288582182 0.0002509410288582182 0.0002509410288582182 0.2 0.2 0.2 0.2 0.2 0.2 0.2 0.2 0.2 0.2 0.2 0.2 0.2 0.2 0.2 0.2 0.2 0.2 0.2 0.2 0.2 0.2 0.2 0.2 0.2 0.2 0.2 0.2 0.2 0.2 0.2 0.2 0.2 0.2 0.2 0.2 0.2 0.2 0.2 0.2 0.2 0.2 0.2 0.2 0.2 0.2 0.2 0.2 0.2 0.2 0.2 0.2 0.2 0.2 0.2 0.2 0.2 0.2 0.2 0.2 0.2 0.2 0.2 0.2 0.2 0.2 0.2 0.2 0.2 0.2 1.974054995198112e-07 0.9999992103780021 1.974054995198112e-07 1.974054995198112e-07 1.974054995198112e-07 1.33538091740669e-05 0.9999465847633036 1.33538091740669e-05 1.33538091740669e-05 1.33538091740669e-05 0.2 0.2 0.2 0.2 0.2 0.2 0.2 0.2 0.2 0.2 0.9999995174050873 1.206487282115938e-07 1.206487282115938e-07 1.206487282115938e-07 1.206487282115938e-07 0.005289957567185289 0.9947098861425209 5.209676453043883e-08 5.209676453043883e-08 5.209676453043883e-08 0.2831250897601608 0.716846186988367 9.574417157355544e-06 9.574417157355544e-06 9.574417157355544e-06 3.359086328518643e-05 0.9998656365468593 3.359086328518643e-05 3.359086328518643e-05 3.359086328518643e-05 0.2 0.2 0.2 0.2 0.2 0.9999945138593624 1.371535159303808e-06 1.371535159303808e-06 1.371535159303808e-06 1.371535159303808e-06 0.009186176142697884 0.9906800445930882 4.459308807134895e-05 4.459308807134895e-05 4.459308807134895e-05 0.9999104343931927 2.239140170174652e-05 2.239140170174652e-05 2.239140170174652e-05 2.239140170174652e-05 0.000432900432900433 0.9982683982683984 0.000432900432900433 0.000432900432900433 0.000432900432900433 0.2 0.2 0.2 0.2 0.2 0.2 0.2 0.2 0.2 0.2 0.2 0.2 0.2 0.2 0.2 0.2 0.2 0.2 0.2 0.2 0.2 0.2 0.2 0.2 0.2 0.2 0.2 0.2 0.2 0.2 0.2 0.2 0.2 0.2 0.2 1.979923574950007e-07 0.9999992080305702 1.979923574950007e-07 1.979923574950007e-07 1.979923574950007e-07 0.2 0.2 0.2 0.2 0.2 0.2 0.2 0.2 0.2 0.2 0.2 0.2 0.2 0.2 0.2 0.2 0.2 0.2 0.2 0.2 9.60890784192578e-08 0.9999996156436864 9.60890784192578e-08 9.60890784192578e-08 9.60890784192578e-08 2.516989680342311e-05 0.9998993204127864 2.516989680342311e-05 2.516989680342311e-05 2.516989680342311e-05 0.0003169572107765451 0.9987321711568935 0.0003169572107765451 0.0003169572107765451 0.0003169572107765451 0.2 0.2 0.2 0.2 0.2 0.9999940917986777 1.477050330490011e-06 1.477050330490011e-06 1.477050330490011e-06 1.477050330490011e-06 3.084256965485931e-08 0.9999998766297212 3.084256965485931e-08 3.084256965485931e-08 3.084256965485931e-08 0.04097420578679983 0.9590127117720169 4.360813727841617e-06 4.360813727841617e-06 4.360813727841617e-06 9.270418095856123e-06 0.9999629183276164 9.270418095856123e-06 9.270418095856123e-06 9.270418095856123e-06 0.01 0.9600000000000002 0.01 0.01 0.01 0.9999799513821019 5.01215447460091e-06 5.01215447460091e-06 5.01215447460091e-06 5.01215447460091e-06 6.22533212146868e-07 0.9999975098671513 6.22533212146868e-07 6.22533212146868e-07 6.22533212146868e-07 0.2672369456835476 0.7327315665179742 1.049593282602991e-05 1.049593282602991e-05 1.049593282602991e-05 6.923769300006923e-06 0.9999723049227999 6.923769300006923e-06 6.923769300006923e-06 6.923769300006923e-06 0.2 0.2 0.2 0.2 0.2 0.2 0.2 0.2 0.2 0.2 3.504404949411286e-08 0.9999998598238019 3.504404949411286e-08 3.504404949411286e-08 3.504404949411286e-08 1.832005129614363e-05 0.6573417605569295 0.342603279289182 1.832005129614363e-05 1.832005129614363e-05 1.147578609134726e-05 0.1862061051182006 0.004487032361716777 0.8092839109479 1.147578609134726e-05 0.2 0.2 0.2 0.2 0.2 0.9999988105681027 2.973579743974785e-07 2.973579743974785e-07 2.973579743974785e-07 2.973579743974785e-07 5.354200437170464e-08 0.9999997858319823 5.354200437170464e-08 5.354200437170464e-08 5.354200437170464e-08 0.006006533772114644 0.01152418722032533 0.982468910180458 1.844135510765602e-07 1.844135510765602e-07 0.0002347417840375587 0.0002347417840375587 0.9990610328638497 0.0002347417840375587 0.0002347417840375587 0.00198019801980198 0.00198019801980198 0.992079207920792 0.00198019801980198 0.00198019801980198 0.2 0.2 0.2 0.2 0.2 4.246099692051619e-08 0.9999998301560121 4.246099692051619e-08 4.246099692051619e-08 4.246099692051619e-08 1.77347571978729e-07 0.08060021512260482 0.9193992528346794 1.77347571978729e-07 1.77347571978729e-07 2.219511951516981e-07 0.02523718259591899 0.04150953446846573 0.9332528390332251 2.219511951516981e-07 1.181893393215932e-05 1.181893393215932e-05 0.9999527242642712 1.181893393215932e-05 1.181893393215932e-05 0.9996996996997 7.50750750750751e-05 7.50750750750751e-05 7.50750750750751e-05 7.50750750750751e-05 1.045753821184463e-07 0.9943430992796849 0.005656586994168877 1.045753821184463e-07 1.045753821184463e-07 0.0003371769279193969 0.01020810604469628 0.9894546159400127 5.054368579214465e-08 5.054368579214465e-08 1.376741061164475e-07 0.001885584557370865 0.0461650189370733 0.9519491211573435 1.376741061164475e-07 3.750586029067042e-06 3.750586029067042e-06 0.9994974214721051 0.0004913267698077826 3.750586029067042e-06 0.2 0.2 0.2 0.2 0.2 2.674683584931904e-07 0.9999989301265663 2.674683584931904e-07 2.674683584931904e-07 2.674683584931904e-07 2.034083096362653e-07 0.009512593008449583 0.9904867967666215 2.034083096362653e-07 2.034083096362653e-07 3.003647930411485e-07 0.01156134124894685 0.001536666281198516 0.9869013917402687 3.003647930411485e-07 3.448870494912916e-06 3.448870494912916e-06 0.807366787377134 0.1926228660113813 3.448870494912916e-06 0.2 0.2 0.2 0.2 0.2 0.2 0.2 0.2 0.2 0.2 9.044044496698923e-06 9.044044496698923e-06 0.9999638238220131 9.044044496698923e-06 9.044044496698923e-06 0.0001921229586935639 0.0001921229586935639 0.0001921229586935639 0.9992315081652258 0.0001921229586935639 0.2 0.2 0.2 0.2 0.2 0.2 0.2 0.2 0.2 0.2 0.2 0.2 0.2 0.2 0.2 2.006319907709285e-06 2.006319907709285e-06 0.9999919747203693 2.006319907709285e-06 2.006319907709285e-06 0.0001137009664582149 0.0001137009664582149 0.0001137009664582149 0.9995451961341671 0.0001137009664582149 3.995445192480572e-06 3.995445192480572e-06 0.1456979043889965 3.995445192480572e-06 0.8542901092754259 0.2 0.2 0.2 0.2 0.2 0.2 0.2 0.2 0.2 0.2 0.2 0.2 0.2 0.2 0.2 1.012847976582955e-06 1.012847976582955e-06 1.012847976582955e-06 0.9999959486080936 1.012847976582955e-06 2.298269403139436e-06 2.298269403139436e-06 2.298269403139436e-06 2.298269403139436e-06 0.9999908069223874 0.2 0.2 0.2 0.2 0.2 0.2 0.2 0.2 0.2 0.2 4.618937644341802e-05 4.618937644341802e-05 0.9998152424942265 4.618937644341802e-05 4.618937644341802e-05 3.352543407055764e-07 3.352543407055764e-07 3.352543407055764e-07 0.9999986589826373 3.352543407055764e-07 1.133879409657024e-07 1.133879409657024e-07 0.0009508712729383805 1.133879409657024e-07 0.9990487885632386 0.2 0.2 0.2 0.2 0.2 0.2 0.2 0.2 0.2 0.2 0.2 0.2 0.2 0.2 0.2 8.393204861344255e-07 8.393204861344255e-07 8.393204861344255e-07 0.9840369636742093 0.01596051836433223 4.873440407692531e-08 4.873440407692531e-08 4.873440407692531e-08 4.873440407692531e-08 0.9999998050623837</probabilities>
		</cpt>
		<cpt id="p2_wti" order="1">
			<parents>p1_imas p2_wti</parents>
			<probabilities>0.2 0.2 0.2 0.2 0.2 0.2 0.2 0.2 0.2 0.2 0.2 0.2 0.2 0.2 0.2 0.2 0.2 0.2 0.2 0.2 0.2 0.2 0.2 0.2 0.2 0.2 0.2 0.2 0.2 0.2 0.2 0.2 0.2 0.2 0.2 0.2 0.2 0.2 0.2 0.2 0.2 0.2 0.2 0.2 0.2 0.2 0.2 0.2 0.2 0.2 0.2 0.2 0.2 0.2 0.2 0.2 0.2 0.2 0.2 0.2 0.2 0.2 0.2 0.2 0.2 0.2 0.2 0.2 0.2 0.2 0.2 0.2 0.2 0.2 0.2 0.9999998606605074 3.48348731218125e-08 3.48348731218125e-08 3.48348731218125e-08 3.48348731218125e-08 0.9999812228611668 4.694284708367564e-06 4.694284708367564e-06 4.694284708367564e-06 4.694284708367564e-06 0.9999732566691181 6.685832720465333e-06 6.685832720465333e-06 6.685832720465333e-06 6.685832720465333e-06 0.2 0.2 0.2 0.2 0.2 0.9999464453072698 1.338867318248761e-05 1.338867318248761e-05 1.338867318248761e-05 1.338867318248761e-05 0.9999772222538583 5.694436535504815e-06 5.694436535504815e-06 5.694436535504815e-06 5.694436535504815e-06 0.9988934993084368 0.000276625172890733 0.000276625172890733 0.000276625172890733 0.000276625172890733 0.2 0.2 0.2 0.2 0.2 0.2 0.2 0.2 0.2 0.2 0.2 0.2 0.2 0.2 0.2 0.2 0.2 0.2 0.2 0.2 0.2 0.2 0.2 0.2 0.2 0.2 0.2 0.2 0.2 0.2 0.2 0.2 0.2 0.2 0.2 0.2 0.2 0.2 0.2 0.2 0.2 0.2 0.2 0.2 0.2 0.2 0.2 0.2 0.2 0.2 0.2 0.2 0.2 0.2 0.2 0.2 0.2 0.2 0.2 0.2 0.2 0.2 0.2 0.2 0.2 0.2 0.2 0.2 0.2 0.2 1.979923574950007e-07 0.9999992080305702 1.979923574950007e-07 1.979923574950007e-07 1.979923574950007e-07 1.33538091740669e-05 0.9999465847633036 1.33538091740669e-05 1.33538091740669e-05 1.33538091740669e-05 0.2 0.2 0.2 0.2 0.2 0.2 0.2 0.2 0.2 0.2 0.9999995359795647 1.160051088649944e-07 1.160051088649944e-07 1.160051088649944e-07 1.160051088649944e-07 0.005365051796606794 0.9946347910256761 5.239257230502431e-08 5.239257230502431e-08 5.239257230502431e-08 0.3041126446396207 0.6958594730238393 9.29411217993401e-06 9.29411217993401e-06 9.29411217993401e-06 0.2 0.2 0.2 0.2 0.2 3.359650596337982e-05 0.9998656139761466 3.359650596337982e-05 3.359650596337982e-05 3.359650596337982e-05 0.9999945720023879 1.356999402920262e-06 1.356999402920262e-06 1.356999402920262e-06 1.356999402920262e-06 0.01648418491484185 0.9833333333333335 6.082725060827253e-05 6.082725060827253e-05 6.082725060827253e-05 0.9999111308598087 2.221728504776716e-05 2.221728504776716e-05 2.221728504776716e-05 2.221728504776716e-05 0.2 0.2 0.2 0.2 0.2 0.0005390835579514826 0.9978436657681942 0.0005390835579514826 0.0005390835579514826 0.0005390835579514826 0.2 0.2 0.2 0.2 0.2 0.2 0.2 0.2 0.2 0.2 0.2 0.2 0.2 0.2 0.2 0.2 0.2 0.2 0.2 0.2 0.2 0.2 0.2 0.2 0.2 0.2 0.2 0.2 0.2 0.2 1.974054995198112e-07 0.9999992103780021 1.974054995198112e-07 1.974054995198112e-07 1.974054995198112e-07 0.2 0.2 0.2 0.2 0.2 0.2 0.2 0.2 0.2 0.2 0.2 0.2 0.2 0.2 0.2 0.2 0.2 0.2 0.2 0.2 9.60890784192578e-08 0.9999996156436864 9.60890784192578e-08 9.60890784192578e-08 9.60890784192578e-08 2.338360809072839e-05 0.9999064655676367 2.338360809072839e-05 2.338360809072839e-05 2.338360809072839e-05 0.2 0.2 0.2 0.2 0.2 0.0002436053593179049 0.9990255785627281 0.0002436053593179049 0.0002436053593179049 0.0002436053593179049 0.999994161947574 1.459513106427695e-06 1.459513106427695e-06 1.459513106427695e-06 1.459513106427695e-06 3.082723339452539e-08 0.9999998766910663 3.082723339452539e-08 3.082723339452539e-08 3.082723339452539e-08 0.03882161257651153 0.9611651768021492 4.403540446519003e-06 4.403540446519003e-06 4.403540446519003e-06 0.2 0.2 0.2 0.2 0.2 8.318429480514079e-06 0.9999667262820778 8.318429480514079e-06 8.318429480514079e-06 8.318429480514079e-06 0.9999772118726147 5.697031846408024e-06 5.697031846408024e-06 5.697031846408024e-06 5.697031846408024e-06 6.643701604786122e-07 0.9999973425193579 6.643701604786122e-07 6.643701604786122e-07 6.643701604786122e-07 0.267676405874226 0.7322928925958142 1.023384331985877e-05 1.023384331985877e-05 1.023384331985877e-05 0.2 0.2 0.2 0.2 0.2 7.240605314604301e-06 0.9999710375787415 7.240605314604301e-06 7.240605314604301e-06 7.240605314604301e-06 0.2 0.2 0.2 0.2 0.2 3.51736540889197e-08 0.9999998593053835 3.51736540889197e-08 3.51736540889197e-08 3.51736540889197e-08 1.522881291403335e-05 0.5256377065407751 0.4743166070204827 1.522881291403335e-05 1.522881291403335e-05 0.004999999999999999 0.004999999999999999 0.9799999999999999 0.004999999999999999 0.004999999999999999 9.053460685346975e-06 0.1795844461545426 0.006934950884975782 9.053460685346975e-06 0.813462496039111 0.9999988176769128 2.955807718796278e-07 2.955807718796278e-07 2.955807718796278e-07 2.955807718796278e-07 5.419607707115727e-08 0.9999997832156915 5.419607707115727e-08 5.419607707115727e-08 5.419607707115727e-08 0.006166780743150563 0.01153530320790463 0.9822975465704546 1.847392451739182e-07 1.847392451739182e-07 0.009090909090909092 0.009090909090909092 0.9636363636363637 0.009090909090909092 0.009090909090909092 0.0002100840336134454 0.0002100840336134454 0.9991596638655461 0.0002100840336134454 0.0002100840336134454 0.2 0.2 0.2 0.2 0.2 4.250335404592614e-08 0.9999998299865837 4.250335404592614e-08 4.250335404592614e-08 4.250335404592614e-08 1.764757786993735e-07 0.08034430424424249 0.9196551663284216 1.764757786993735e-07 1.764757786993735e-07 1.222195062331948e-05 1.222195062331948e-05 0.9999511121975067 1.222195062331948e-05 1.222195062331948e-05 2.23124886345761e-07 0.02465886993938813 0.04267955138510351 2.23124886345761e-07 0.9326611324257357 0.9996974281391834 7.564296520423604e-05 7.564296520423604e-05 7.564296520423604e-05 7.564296520423604e-05 1.051941173345704e-07 0.9941344812115418 0.005865203206106309 1.051941173345704e-07 1.051941173345704e-07 0.0003597743663689577 0.01006772926711809 0.9895723946059793 5.088026677541475e-08 5.088026677541475e-08 3.693512345565016e-06 3.693512345565016e-06 0.9999852259506178 3.693512345565016e-06 3.693512345565016e-06 1.345838868095679e-07 0.001819035814118119 0.04455413031219424 1.345838868095679e-07 0.953626564705914 0.2 0.2 0.2 0.2 0.2 2.701924986456602e-07 0.9999989192300057 2.701924986456602e-07 2.701924986456602e-07 2.701924986456602e-07 2.037259437859004e-07 0.009359373583468049 0.9906400152387007 2.037259437859004e-07 2.037259437859004e-07 3.381805884342239e-06 3.381805884342239e-06 0.802776462631045 3.381805884342239e-06 0.197213391951302 2.970073539020826e-07 0.01149002649305597 0.001382866239768097 2.970073539020826e-07 0.987126513252468 0.2 0.2 0.2 0.2 0.2 0.2 0.2 0.2 0.2 0.2 9.880446596186146e-06 9.880446596186146e-06 0.9999604782136151 9.880446596186146e-06 9.880446596186146e-06 0.0005681818181818183 0.0005681818181818183 0.5545454545454546 0.44375 0.0005681818181818183 0.0001181334908446545 0.0001181334908446545 0.0001181334908446545 0.0001181334908446545 0.9995274660366215 0.2 0.2 0.2 0.2 0.2 0.2 0.2 0.2 0.2 0.2 2.092269065801863e-06 2.092269065801863e-06 0.9999916309237369 2.092269065801863e-06 2.092269065801863e-06 3.916193459956923e-06 3.916193459956923e-06 0.1313530448404151 0.8686352065792051 3.916193459956923e-06 6.971070059254095e-05 6.971070059254095e-05 6.971070059254095e-05 6.971070059254095e-05 0.9997211571976298 0.2 0.2 0.2 0.2 0.2 0.2 0.2 0.2 0.2 0.2 0.2 0.2 0.2 0.2 0.2 2.237737200143216e-06 2.237737200143216e-06 2.237737200143216e-06 0.9999910490511994 2.237737200143216e-06 9.140726047869983e-07 9.140726047869983e-07 9.140726047869983e-07 9.140726047869983e-07 0.9999963437095809 0.2 0.2 0.2 0.2 0.2 0.2 0.2 0.2 0.2 0.2 3.32944897619444e-05 3.32944897619444e-05 0.9998668220409523 3.32944897619444e-05 3.32944897619444e-05 1.134843204388666e-07 1.134843204388666e-07 0.001150844493570546 0.9988488150534681 1.134843204388666e-07 3.337276882182446e-07 3.337276882182446e-07 3.337276882182446e-07 3.337276882182446e-07 0.9999986650892471 0.2 0.2 0.2 0.2 0.2 0.2 0.2 0.2 0.2 0.2 0.2 0.2 0.2 0.2 0.2 4.866298450083944e-08 4.866298450083944e-08 4.866298450083944e-08 0.9999998053480619 4.866298450083944e-08 8.652502520041359e-07 8.652502520041359e-07 8.652502520041359e-07 0.01643629378707057 0.9835611104621734</probabilities>
		</cpt>
	</dynamic>
	<extensions>
		<genie version="1.0" app="SMILE_ACADEMIC 1.5.0@a121f1f76773" name="emidas dbn v9" faultnameformat="user">
			<plate leftwidth="120" rightwidth="120">120 50 1164 561</plate>
			<node id="p1_imas">
				<name>p1_imas</name>
				<interior color="e5f6f7" />
				<outline color="000080" />
				<font color="000000" name="MS Sans Serif" size="8" />
				<position>491 462 547 497</position>
			</node>
			<node id="p2_imas">
				<name>p2_imas</name>
				<interior color="e5f6f7" />
				<outline color="000080" />
				<font color="000000" name="MS Sans Serif" size="8" />
				<position>651 472 707 507</position>
			</node>
			<node id="p1_wti">
				<name>p1_wti</name>
				<interior color="e5f6f7" />
				<outline color="000080" />
				<font color="000000" name="MS Sans Serif" size="8" />
				<position>487 311 571 363</position>
			</node>
			<node id="p2_wti">
				<name>p2_wti</name>
				<interior color="e5f6f7" />
				<outline color="000080" />
				<font color="000000" name="MS Sans Serif" size="8" />
				<position>650 301 734 353</position>
			</node>
			<node id="p1_approach">
				<name>p1_approach</name>
				<interior color="e5f6f7" />
				<outline color="000080" />
				<font color="000000" name="MS Sans Serif" size="8" />
				<position>268 135 344 182</position>
			</node>
			<node id="p2_head">
				<name>p2_head</name>
				<interior color="e5f6f7" />
				<outline color="000080" />
				<font color="000000" name="MS Sans Serif" size="8" />
				<position>676 84 733 119</position>
			</node>
			<node id="p1_body">
				<name>p1_body</name>
				<interior color="e5f6f7" />
				<outline color="000080" />
				<font color="000000" name="MS Sans Serif" size="8" />
				<position>404 76 461 111</position>
			</node>
			<node id="p2_approach">
				<name>p2_approach</name>
				<interior color="e5f6f7" />
				<outline color="000080" />
				<font color="000000" name="MS Sans Serif" size="8" />
				<position>924 160 1000 207</position>
			</node>
			<node id="p2_body">
				<name>p2_body</name>
				<interior color="e5f6f7" />
				<outline color="000080" />
				<font color="000000" name="MS Sans Serif" size="8" />
				<position>827 91 884 126</position>
			</node>
			<node id="dist">
				<name>dist</name>
				<interior color="e5f6f7" />
				<outline color="000080" />
				<font color="000000" name="MS Sans Serif" size="8" />
				<position>599 137 637 160</position>
			</node>
			<node id="p1_gesture">
				<name>p1_gesture</name>
				<interior color="e5f6f7" />
				<outline color="000080" />
				<font color="000000" name="MS Sans Serif" size="8" />
				<position>248 271 316 313</position>
			</node>
			<node id="p2_gesture">
				<name>p2_gesture</name>
				<interior color="e5f6f7" />
				<outline color="000080" />
				<font color="000000" name="MS Sans Serif" size="8" />
				<position>964 312 1032 354</position>
			</node>
			<node id="p1_head">
				<name>p1_head</name>
				<interior color="e5f6f7" />
				<outline color="000080" />
				<font color="000000" name="MS Sans Serif" size="8" />
				<position>528 80 585 115</position>
			</node>
		</genie>
	</extensions>
</smile>
