<?xml version="1.0" encoding="ISO-8859-1"?>
<!-- This file was created by ACADEMIC version of SMILE -->
<smile version="1.0" id="Network2" numsamples="10000" discsamples="10000">
	<nodes>
		<cpt id="p1_imas" target="true" dynamic="plate">
			<state id="very_high" />
			<state id="high" />
			<state id="medium" />
			<state id="low" />
			<state id="very_low" />
			<probabilities>0.0653408187114428 0.08429179801770115 0.163526295006353 0.4697764078844839 0.2170646803800192</probabilities>
		</cpt>
		<cpt id="p2_imas" target="true" dynamic="plate">
			<state id="very_high" />
			<state id="high" />
			<state id="medium" />
			<state id="low" />
			<state id="very_low" />
			<probabilities>0.06567634220083664 0.08520735631403781 0.1630359143682909 0.4679833273808702 0.2180970597359645</probabilities>
		</cpt>
		<cpt id="p1_wti" target="true" dynamic="plate">
			<state id="very_high" />
			<state id="high" />
			<state id="medium" />
			<state id="low" />
			<state id="very_low" />
			<parents>p1_imas</parents>
			<probabilities>0.9999999999999988 3.36749170492947e-16 3.36749170492947e-16 3.36749170492947e-16 3.36749170492947e-16 0.2649210424877261 0.7350789575122735 1.195260884996429e-16 1.195260884996429e-16 1.195260884996429e-16 0.03187354520133522 0.9618547512212053 0.006271703577459528 1.565946463690877e-17 1.565946463690877e-17 0.0306998830300699 0.4806740370840118 0.2542116828798784 0.2344143970060399 6.629740297653163e-19 8.233016090022732e-18 8.233016090022732e-18 0.0108388989656048 0.23772938132416 0.7514317197102353</probabilities>
		</cpt>
		<cpt id="p2_wti" target="true" dynamic="plate">
			<state id="very_high" />
			<state id="high" />
			<state id="medium" />
			<state id="very_low" />
			<state id="low" />
			<parents>p2_imas</parents>
			<probabilities>0.9999999999999988 3.316308373653679e-16 3.316308373653679e-16 3.316308373653679e-16 3.316308373653679e-16 0.2720223984351668 0.7279776015648328 1.160178861520848e-16 1.160178861520848e-16 1.160178861520848e-16 0.03350248029267015 0.9593612664443757 0.007136253262954245 1.585696271347933e-17 1.585696271347933e-17 0.02953308401148142 0.4796334053488543 0.2542466865818586 6.679323631464108e-19 0.2365868240578057 8.152805371538445e-18 8.152805371538445e-18 0.01044191601277872 0.7508519363376339 0.2387061476495874</probabilities>
		</cpt>
		<cpt id="p1_approach" dynamic="plate">
			<state id="y" />
			<state id="m" />
			<state id="n" />
			<parents>p1_wti</parents>
			<probabilities>0.7504259788461417 0.1696052467278329 0.0799687744260253 0.5234043849104483 0.1643314634638043 0.3122641516257474 0.3323489486838219 0.2902177355103579 0.3774333158058202 0.3302965490549346 0.08656404459739279 0.5831394063476726 0.0002435978635185349 0.0165410962416701 0.9832153058948114</probabilities>
		</cpt>
		<cpt id="p2_head" dynamic="plate">
			<state id="central" />
			<state id="mid_peripheral" />
			<state id="outside" />
			<parents>p2_wti</parents>
			<probabilities>1 5.699297918159248e-22 5.699297918159248e-22 0.9984718015745707 0.001410310827177699 0.0001178875982515481 0.98275595960916 0.01552913209736717 0.001714908293473022 0.0612786696678829 0.1932643948685863 0.7454569354635308 0.4494370751851171 0.3073465229022003 0.2432164019126826</probabilities>
		</cpt>
		<cpt id="p1_body" dynamic="plate">
			<state id="strongly_facing" />
			<state id="slightly_facing" />
			<state id="turned_away" />
			<parents>p1_wti</parents>
			<probabilities>0.3875207877690067 0.5772560260230198 0.03522318620797345 0.2905440063732608 0.5541177603973382 0.155338233229401 0.1185552131593515 0.6090083975933099 0.2724363892473385 0.07838051924546384 0.7657374381838935 0.1558820425706426 0.001830830605677928 0.3506811372190332 0.6474880321752888</probabilities>
		</cpt>
		<cpt id="p2_approach" dynamic="plate">
			<state id="y" />
			<state id="m" />
			<state id="n" />
			<parents>p2_wti</parents>
			<probabilities>0.7513089571919557 0.1702520165603331 0.07843902624771125 0.5228581159033989 0.166191796908213 0.310950087188388 0.335254560082858 0.2939383821719432 0.3708070577451987 0.0002046718960682895 0.01678613595142718 0.9830091921525046 0.3304372512603915 0.08861612346660046 0.580946625273008</probabilities>
		</cpt>
		<cpt id="p2_body" dynamic="plate">
			<state id="strongly_facing" />
			<state id="slightly_facing" />
			<state id="turned_away" />
			<parents>p2_wti</parents>
			<probabilities>0.3909829015866275 0.5729161028723861 0.03610099554098641 0.2893334367004644 0.5573079118924373 0.1533586514070983 0.1171487967867856 0.6146002011959206 0.2682510020172938 0.001822844416466142 0.3564876123563685 0.6416895432271654 0.08037432911284546 0.7689035222873677 0.1507221485997869</probabilities>
		</cpt>
		<cpt id="dist" dynamic="plate">
			<state id="range_0_3" />
			<state id="range_3_6" />
			<state id="range_6_9" />
			<state id="range_9_12" />
			<state id="range_12_15" />
			<state id="range_15_18" />
			<state id="range_18_21" />
			<state id="range_21_24" />
			<state id="range_24_27" />
			<state id="range_27_30" />
			<state id="range_30_inf" />
			<parents>p1_wti p2_wti</parents>
			<probabilities>0.1111111111111111 0.1111111111111111 0.1111111111111111 0.1111111111111111 0.1111111111111111 0.1111111111111111 0.1111111111111111 0.1111111111111111 0.1111111111111111 0 0 0.04059572975368872 0.1605413633149582 0.2359219704493822 0.255334152158935 0.1850404600354666 0.08316012297225812 0.03434515514613617 0.005061046169175108 2.346056062623378e-22 0 0 5.133827433753866e-18 5.133827433753866e-18 5.133827433753866e-18 0.02097375072509644 0.6779375018214199 0.3010887474534836 5.133827433753866e-18 5.133827433753866e-18 5.133827433753866e-18 0 0 1.386547528918587e-16 1.386547528918587e-16 1.386547528918587e-16 1.386547528918587e-16 0.7258917132306225 0.2741082867693763 1.386547528918587e-16 1.386547528918587e-16 1.386547528918587e-16 0 0 1.808167453275189e-16 1.808167453275189e-16 0.00321788624019599 0.1202522227911326 0.3477387790595985 0.5233721283498506 0.005418983559221491 1.808167453275189e-16 1.808167453275189e-16 0 0 0.04057625667737517 0.1606864410912775 0.2360510133035314 0.2558221647003555 0.1869555271682942 0.08117953399603681 0.03380656588088268 0.00492249718224654 2.279090108872934e-22 0 0 0.02497316586545923 0.1024877511806174 0.1789604281015485 0.2564309357735021 0.1768326985999424 0.2136326299856633 0.04558183986469382 0.001100550628573302 2.006052208440186e-23 0 0 0.01166069406040305 0.05380497989709795 0.08277753754715865 0.2630953868295196 0.1005767659977675 0.2267638423893527 0.1621669605866834 0.09791200181315912 0.001241830878858023 0 0 2.451718308079111e-18 2.451718308079111e-18 0.0004123249068796176 0.9031590600124135 0.009907526075091598 0.01707047801311139 0.06790437204204083 0.00154623895046299 2.451718308079111e-18 0 0 1.308048896503453e-20 1.308048896503453e-20 0.0005631624825987938 0.1486233230490246 0.00114212390388171 0.04785629120815989 0.07716724152228049 0.2292723062062077 0.3282820859312132 0.1432096947181135 0.02388377097852006 4.87723616576444e-18 4.87723616576444e-18 4.87723616576444e-18 0.0136245183634395 0.6777159119626114 0.3086595696739491 4.87723616576444e-18 4.87723616576444e-18 4.87723616576444e-18 0 0 0.01168730852270839 0.05407041466442131 0.08396599508580238 0.2657169357457575 0.1008477041308273 0.2198966625150047 0.1659812417107963 0.09596960332402144 0.00186413430066062 0 0 1.000323230161108e-20 1.000323230161108e-20 2.135470343836262e-09 0.07233789122609185 0.108051478091189 0.5194202409137557 0.2920371447067618 0.008153030186919119 4.193363463577356e-08 1.708061772801239e-07 0 1.85488740956454e-19 1.85488740956454e-19 1.85488740956454e-19 0.003468189763006588 0.2411720681429857 0.4980506258662075 0.2382020447395035 0.01910707148829665 1.85488740956454e-19 0 0 4.086618603679147e-19 4.086618603679147e-19 4.086618603679147e-19 0.2435108736243302 0.0009903226223892411 0.1548610322066242 0.2496065412201087 0.1976112752984595 0.02430308301969012 0.03846694877275771 0.09064992323564038 2.024988010605034e-16 2.024988010605034e-16 0.0002379606770712281 0.09689163868639505 0.3184291780424318 0.5758626836642038 0.00857853892989729 2.024988010605034e-16 2.024988010605034e-16 0 0 1.358416650417377e-20 1.358416650417377e-20 0.001487315117813013 0.1406532061241717 0.001462307142288499 0.0517266962548031 0.07372311734376512 0.2350162066918311 0.3286652050580908 0.1442687012309261 0.02299724503631051 4.635619447475976e-19 4.635619447475976e-19 4.635619447475976e-19 0.2429586485537629 0.002682227323286602 0.1603926315104778 0.2321300630538086 0.19840708601413 0.02721792775927259 0.04148895767349049 0.09472245811177102 1.750284886859002e-18 1.750284886859002e-18 1.750284886859002e-18 0.5866423914362325 0.02346023149020644 0.1767536314191784 0.1378852133191685 0.0502370843161436 0.02462538083819385 0.0003960671808766344 0 2.611734754901136e-19 2.611734754901136e-19 0.001943168933149189 0.4111171344449799 0.01126929648441878 0.05878320591743674 0.3131135405967736 0.2037736536232418 2.611734754901136e-19 0 0 1.707089668554834e-16 1.707089668554834e-16 1.707089668554834e-16 1.707089668554834e-16 0.7448362604140213 0.2551637395859775 1.707089668554834e-16 1.707089668554834e-16 1.707089668554834e-16 0 0 2.262349852560286e-18 2.262349852560286e-18 0.0001736910769131599 0.8964222358518725 0.01297295311347727 0.01600164810793581 0.0725767442406168 0.001852727609184497 2.262349852560286e-18 0 0 1.827418871404525e-19 1.827418871404525e-19 1.827418871404525e-19 0.003302472195607656 0.2601422967462683 0.4741951552534618 0.2456317189155637 0.01672835688909848 1.827418871404525e-19 0 0 1.714353282333928e-21 1.714353282333928e-21 1.714353282333928e-21 0.2368806403027248 0.2972717427835244 0.2107541979411728 0.1006378132118451 0.04427299998755244 0.07379912120193684 0.03638348457124364 0 1.806791398816645e-18 1.806791398816645e-18 1.806791398816645e-18 0.5765923535885222 0.02365799778966473 0.1837462275899257 0.1379816152695169 0.05205817462439803 0.02580536397043969 0.0001582671675327943 0</probabilities>
		</cpt>
		<cpt id="p1_gesture" dynamic="plate">
			<state id="wave_slow_shoulder" />
			<state id="wave_fast_shoulder" />
			<state id="wave_small_head" />
			<state id="wave_wide_head" />
			<state id="arm_raise_high" />
			<state id="arm_raise_low" />
			<state id="come_here" />
			<state id="i_am_coming" />
			<state id="None" />
			<parents>p1_wti</parents>
			<probabilities>0.01877176428939215 1.954118625995954e-22 0.001872730713043476 0.01930329841916656 0.02021141721493662 1.954118625995954e-22 0.02666475334989026 0.007174843295198644 0.9060011927183723 3.771177496771342e-24 0.02920297548365197 0.07672643974247527 0.008068368890369538 0.1072807725968374 0.06671113048988027 0.0252370760400198 3.771177462830745e-24 0.6867732367567657 3.433156358699614e-22 3.433156327801208e-22 3.433156327801208e-22 3.433156327801208e-22 0.1628820026819609 0.0472641191147244 3.433156327801208e-22 3.433156327801208e-22 0.7898538782033147 1.838171991819476e-21 1.838171975275929e-21 0.04969571136827031 1.838171975275929e-21 1.838171975275929e-21 1.838171975275929e-21 1.838171975275929e-21 1.838171975275929e-21 0.9503042886317298 5.41857532828298e-22 5.4185752795158e-22 5.4185752795158e-22 5.4185752795158e-22 5.4185752795158e-22 5.4185752795158e-22 5.4185752795158e-22 5.4185752795158e-22 1</probabilities>
		</cpt>
		<cpt id="p2_gesture" dynamic="plate">
			<state id="wave_slow_shoulder" />
			<state id="wave_fast_shoulder" />
			<state id="wave_small_head" />
			<state id="wave_wide_head" />
			<state id="arm_raise_high" />
			<state id="arm_raise_low" />
			<state id="come_here" />
			<state id="i_am_coming" />
			<state id="None" />
			<parents>p2_wti</parents>
			<probabilities>0.01851523872953298 1.89976597271975e-22 0.002669156832458003 0.0182543137798795 0.01975543889212612 1.89976597271975e-22 0.02672490992985353 0.008202572665004345 0.9058783691711455 3.810076904938128e-24 0.02939346945586861 0.07787598853534813 0.007738483106956733 0.1062929394063992 0.06730756499378462 0.0247625571113125 3.810076904938128e-24 0.6866289973903301 3.462241230986023e-22 3.462241230986023e-22 3.462241230986023e-22 3.462241230986023e-22 0.1644536253604654 0.04843097306898332 3.462241230986023e-22 3.462241230986023e-22 0.7871154015705513 5.406936659311416e-22 5.406936659311416e-22 5.406936659311416e-22 5.406936659311416e-22 5.406936659311416e-22 5.406936659311416e-22 5.406936659311416e-22 5.406936659311416e-22 1 1.780026562763786e-21 1.780026562763786e-21 0.05014059264241626 1.780026562763786e-21 1.780026562763786e-21 1.780026562763786e-21 1.780026562763786e-21 1.780026562763786e-21 0.9498594073575838</probabilities>
		</cpt>
		<cpt id="p1_head" dynamic="plate">
			<state id="central" />
			<state id="mid_peripheral" />
			<state id="outside" />
			<parents>p1_wti</parents>
			<probabilities>1 5.862355936611419e-22 5.862355936611419e-22 0.9984679412452633 0.001382694369131751 0.0001493643856049306 0.9832767257905144 0.0147934608214871 0.001929813387998519 0.4494551350085406 0.3104564583983218 0.2400884065931376 0.06122159200178654 0.1833468513656673 0.7554315566325461</probabilities>
		</cpt>
	</nodes>
	<dynamic numslices="40">
		<cpt id="p1_imas" order="1">
			<parents>p1_imas</parents>
			<probabilities>1 1.615430529709418e-21 1.615430529709418e-21 1.615430529709418e-21 1.615430529709418e-21 0.001289038689296922 0.998710961310703 7.016949718065231e-22 7.016949718065231e-22 7.016949718065231e-22 0.00512137199162029 0.004670515515782732 0.9882322705341344 0.001975841958462421 1.953041080187766e-22 0.00166087045515013 0.002430573753730045 0.0051825824309447 0.9905851419124392 0.0001408314477360223 6.338277904279734e-22 6.338277904279734e-22 2.572925606736232e-06 0.02878047338677992 0.9712169536876134</probabilities>
		</cpt>
		<cpt id="p2_imas" order="1">
			<parents>p2_imas</parents>
			<probabilities>1 1.598605453527476e-21 1.598605453527476e-21 1.598605453527476e-21 1.598605453527476e-21 0.001282158139779153 0.9987178418602208 6.822905485949858e-22 6.822905485949858e-22 6.822905485949858e-22 0.005126295099629687 0.004693339756628874 0.9881638130323939 0.002016552111347507 1.95614098191919e-22 0.001667883878950307 0.002460918979757181 0.005290483080372451 0.9904394366708039 0.0001412773901161783 6.319498259338388e-22 6.319498259338388e-22 6.319498259338388e-22 0.02894833104507367 0.9710516689549263</probabilities>
		</cpt>
		<cpt id="p1_wti" order="1">
			<parents>p2_imas p1_wti</parents>
			<probabilities>0.2 0.2 0.2 0.2 0.2 0.2 0.2 0.2 0.2 0.2 0.2 0.2 0.2 0.2 0.2 0.2 0.2 0.2 0.2 0.2 0.2 0.2 0.2 0.2 0.2 0.2 0.2 0.2 0.2 0.2 0.2 0.2 0.2 0.2 0.2 0.2 0.2 0.2 0.2 0.2 0.2 0.2 0.2 0.2 0.2 0.2 0.2 0.2 0.2 0.2 0.2 0.2 0.2 0.2 0.2 0.2 0.2 0.2 0.2 0.2 0.2 0.2 0.2 0.2 0.2 0.2 0.2 0.2 0.2 0.2 0.2 0.2 0.2 0.2 0.2 1 1.628860525212168e-21 1.628860525212168e-21 1.628860525212168e-21 1.628860525212168e-21 0.9999999999999699 7.595664149829103e-15 7.595664149829103e-15 7.595664149829103e-15 7.595664149829103e-15 0.9999999999999403 1.488416627091955e-14 1.488416627091955e-14 1.488416627091955e-14 1.488416627091955e-14 0.9999999999997583 6.047259914289561e-14 6.047259914289561e-14 6.047259914289561e-14 6.047259914289561e-14 0.2 0.2 0.2 0.2 0.2 0.9999999999999755 6.139900724007315e-15 6.139900724007315e-15 6.139900724007315e-15 6.139900724007315e-15 0.9999999775102142 5.622446425394742e-09 5.622446425394742e-09 5.622446425394742e-09 5.622446425394742e-09 0.2 0.2 0.2 0.2 0.2 0.2 0.2 0.2 0.2 0.2 0.2 0.2 0.2 0.2 0.2 0.2 0.2 0.2 0.2 0.2 0.2 0.2 0.2 0.2 0.2 0.2 0.2 0.2 0.2 0.2 0.2 0.2 0.2 0.2 0.2 0.2 0.2 0.2 0.2 0.2 0.2 0.2 0.2 0.2 0.2 0.2 0.2 0.2 0.2 0.2 0.2 0.2 0.2 0.2 0.2 0.2 0.2 0.2 0.2 0.2 0.2 0.2 0.2 0.2 0.2 0.2 0.2 0.2 0.2 0.2 1.923170334329219e-19 1 1.923170334329219e-19 1.923170334329219e-19 1.923170334329219e-19 5.953268994371149e-14 0.999999999999762 5.953268994371149e-14 5.953268994371149e-14 5.953268994371149e-14 0.2 0.2 0.2 0.2 0.2 0.2 0.2 0.2 0.2 0.2 1 4.390442092855791e-20 4.390442092855791e-20 4.390442092855791e-20 4.390442092855791e-20 0.004886244918426711 0.9951137550815733 3.646433430530754e-21 3.646433430530754e-21 3.646433430530754e-21 0.2302511194104885 0.7697488805894682 1.45117366784796e-14 1.45117366784796e-14 1.45117366784796e-14 9.475529864327224e-13 0.9999999999962099 9.475529864327224e-13 9.475529864327224e-13 9.475529864327224e-13 0.2 0.2 0.2 0.2 0.2 1 6.450016778011971e-17 6.450016778011971e-17 6.450016778011971e-17 6.450016778011971e-17 0.009151720118101515 0.9908482798488293 1.10229684242743e-11 1.10229684242743e-11 1.10229684242743e-11 0.9999999999988775 2.806621530278647e-13 2.806621530278647e-13 2.806621530278647e-13 2.806621530278647e-13 2.028168666724917e-09 0.9999999918873255 2.028168666724917e-09 2.028168666724917e-09 2.028168666724917e-09 0.2 0.2 0.2 0.2 0.2 0.2 0.2 0.2 0.2 0.2 0.2 0.2 0.2 0.2 0.2 0.2 0.2 0.2 0.2 0.2 0.2 0.2 0.2 0.2 0.2 0.2 0.2 0.2 0.2 0.2 0.2 0.2 0.2 0.2 0.2 1.940373296098965e-19 1 1.940373296098965e-19 1.940373296098965e-19 1.940373296098965e-19 0.2 0.2 0.2 0.2 0.2 0.2 0.2 0.2 0.2 0.2 0.2 0.2 0.2 0.2 0.2 0.2 0.2 0.2 0.2 0.2 2.218002815280824e-20 1 2.218002815280824e-20 2.218002815280824e-20 2.218002815280824e-20 3.87157890932716e-13 0.9854874723129725 0.01451252768586612 3.87157890932716e-13 3.87157890932716e-13 6.323159268899125e-10 0.8910893236541447 0.1089106744489076 6.323159268899125e-10 6.323159268899125e-10 0.2 0.2 0.2 0.2 0.2 1 4.320515472821671e-17 4.320515472821671e-17 4.320515472821671e-17 4.320515472821671e-17 7.737016131181179e-22 1 7.737016131181179e-22 7.737016131181179e-22 7.737016131181179e-22 0.01882048919471436 0.44054368081485 0.5406358299904347 4.374889531983448e-16 4.374889531983448e-16 0.03580788429403731 0.8022155115839639 0.1619766041219697 1.460416246025283e-14 1.460416246025283e-14 2.5e-05 0.9999000000000002 2.5e-05 2.5e-05 2.5e-05 0.9999999999999876 3.147845083986406e-15 3.147845083986406e-15 3.147845083986406e-15 3.147845083986406e-15 1.086133392260106e-17 1 1.086133392260106e-17 1.086133392260106e-17 1.086133392260106e-17 0.2672404744410526 0.7327595255588609 2.890700758030236e-14 2.890700758030236e-14 2.890700758030236e-14 1.56662030456596e-14 0.9999999999999375 1.56662030456596e-14 1.56662030456596e-14 1.56662030456596e-14 0.2 0.2 0.2 0.2 0.2 0.2 0.2 0.2 0.2 0.2 1.641604159706452e-21 1 1.641604159706452e-21 1.641604159706452e-21 1.641604159706452e-21 2.206312644578845e-13 0.6573985977253434 0.3426014022739948 2.206312644578845e-13 2.206312644578845e-13 2.620248038487051e-13 0.1862102740800878 0.004475556678077129 0.8093141692413111 2.620248038487051e-13 0.2 0.2 0.2 0.2 0.2 1 3.482977651944253e-19 3.482977651944253e-19 3.482977651944253e-19 3.482977651944253e-19 4.457157038500962e-21 1 4.457157038500962e-21 4.457157038500962e-21 4.457157038500962e-21 0.006005923016768368 0.01155914032589042 0.9824349366573413 1.58863371689564e-19 1.58863371689564e-19 7.761085235652936e-10 7.761085235652936e-10 0.9999999968955658 7.761085235652936e-10 7.761085235652936e-10 1.941180295855289e-07 1.941180295855289e-07 0.9999992235278817 1.941180295855289e-07 1.941180295855289e-07 0.9999999998203847 4.490385434128682e-11 4.490385434128682e-11 4.490385434128682e-11 4.490385434128682e-11 1.996555085360325e-21 1 1.996555085360325e-21 1.996555085360325e-21 1.996555085360325e-21 1.454931655623896e-19 0.08082739598018251 0.9191726040198175 1.454931655623896e-19 1.454931655623896e-19 2.846788051736065e-19 0.02404652283639488 0.03994573490989344 0.9360077422537117 2.846788051736065e-19 4.127384449023369e-14 4.127384449023369e-14 0.9999999999998349 4.127384449023369e-14 4.127384449023369e-14 0.9999999999999709 7.217255418245414e-15 7.217255418245414e-15 7.217255418245414e-15 7.217255418245414e-15 3.862900034837337e-20 0.9960275047788447 0.00397249522115531 3.862900034837337e-20 3.862900034837337e-20 0.0005649766940321245 0.01747065269506826 0.9819643706108997 5.951411911989559e-21 5.951411911989559e-21 5.662551256247406e-20 0.0002791857432287392 0.04227999427715946 0.9574408199796117 5.662551256247406e-20 1.842760370131116e-15 1.842760370131116e-15 0.9995124238159743 0.000487576184020117 1.842760370131116e-15 0.2 0.2 0.2 0.2 0.2 4.074064493074202e-17 1 4.074064493074202e-17 4.074064493074202e-17 4.074064493074202e-17 2.306944014872217e-19 0.009911458365416168 0.9900885416345838 2.306944014872217e-19 2.306944014872217e-19 1.056063685950397e-18 0.01142371999544551 0.002361174524474003 0.9862151054800804 1.056063685950397e-18 1.530298951559395e-15 1.530298951559395e-15 0.8073805827736403 0.1926194172263551 1.530298951559395e-15 0.2 0.2 0.2 0.2 0.2 0.2 0.2 0.2 0.2 0.2 1.849388189795381e-14 1.849388189795381e-14 0.9999999999999262 1.849388189795381e-14 1.849388189795381e-14 1.845561562858443e-07 1.845561562858443e-07 1.845561562858443e-07 0.9999992617753748 1.845561562858443e-07 0.2 0.2 0.2 0.2 0.2 0.2 0.2 0.2 0.2 0.2 0.2 0.2 0.2 0.2 0.2 2.019019698084262e-16 2.019019698084262e-16 0.9999999999999992 2.019019698084262e-16 2.019019698084262e-16 1.061404743311339e-10 1.061404743311339e-10 1.061404743311339e-10 0.9999999995754382 1.061404743311339e-10 1.594540452495766e-15 1.594540452495766e-15 0.1456968195620909 1.594540452495766e-15 0.8543031804379043 0.2 0.2 0.2 0.2 0.2 0.2 0.2 0.2 0.2 0.2 0.2 0.2 0.2 0.2 0.2 5.660547501341865e-17 5.660547501341865e-17 5.660547501341865e-17 0.9999999999999999 5.660547501341865e-17 3.03488902197542e-16 3.03488902197542e-16 3.03488902197542e-16 3.03488902197542e-16 0.9999999999999988 0.2 0.2 0.2 0.2 0.2 0.2 0.2 0.2 0.2 0.2 2.463577940221454e-12 2.463577940221454e-12 0.9999999999901455 2.463577940221454e-12 2.463577940221454e-12 1.720521381863865e-18 1.720521381863865e-18 1.720521381863865e-18 1 1.720521381863865e-18 6.362950543034074e-20 6.362950543034074e-20 0.0009507588260740425 6.362950543034074e-20 0.9990492411739259 0.2 0.2 0.2 0.2 0.2 0.2 0.2 0.2 0.2 0.2 0.2 0.2 0.2 0.2 0.2 9.295860210141307e-17 9.295860210141307e-17 9.295860210141307e-17 0.984039899754654 0.01596010024534577 3.021235462051328e-21 3.021235462051328e-21 3.021235462051328e-21 3.021235462051328e-21 1</probabilities>
		</cpt>
		<cpt id="p2_wti" order="1">
			<parents>p1_imas p2_wti</parents>
			<probabilities>0.2 0.2 0.2 0.2 0.2 0.2 0.2 0.2 0.2 0.2 0.2 0.2 0.2 0.2 0.2 0.2 0.2 0.2 0.2 0.2 0.2 0.2 0.2 0.2 0.2 0.2 0.2 0.2 0.2 0.2 0.2 0.2 0.2 0.2 0.2 0.2 0.2 0.2 0.2 0.2 0.2 0.2 0.2 0.2 0.2 0.2 0.2 0.2 0.2 0.2 0.2 0.2 0.2 0.2 0.2 0.2 0.2 0.2 0.2 0.2 0.2 0.2 0.2 0.2 0.2 0.2 0.2 0.2 0.2 0.2 0.2 0.2 0.2 0.2 0.2 1 1.614452694420242e-21 1.614452694420242e-21 1.614452694420242e-21 1.614452694420242e-21 0.9999999999999699 7.496873145272348e-15 7.496873145272348e-15 7.496873145272348e-15 7.496873145272348e-15 0.9999999999999402 1.496196250034974e-14 1.496196250034974e-14 1.496196250034974e-14 1.496196250034974e-14 0.2 0.2 0.2 0.2 0.2 0.9999999999997599 6.000019065050977e-14 6.000019065050977e-14 6.000019065050977e-14 6.000019065050977e-14 0.9999999999999809 4.833876070613888e-15 4.833876070613888e-15 4.833876070613888e-15 4.833876070613888e-15 0.9999984695702745 3.826074313841398e-07 3.826074313841398e-07 3.826074313841398e-07 3.826074313841398e-07 0.2 0.2 0.2 0.2 0.2 0.2 0.2 0.2 0.2 0.2 0.2 0.2 0.2 0.2 0.2 0.2 0.2 0.2 0.2 0.2 0.2 0.2 0.2 0.2 0.2 0.2 0.2 0.2 0.2 0.2 0.2 0.2 0.2 0.2 0.2 0.2 0.2 0.2 0.2 0.2 0.2 0.2 0.2 0.2 0.2 0.2 0.2 0.2 0.2 0.2 0.2 0.2 0.2 0.2 0.2 0.2 0.2 0.2 0.2 0.2 0.2 0.2 0.2 0.2 0.2 0.2 0.2 0.2 0.2 0.2 1.940373296098965e-19 1 1.940373296098965e-19 1.940373296098965e-19 1.940373296098965e-19 5.953268994371149e-14 0.999999999999762 5.953268994371149e-14 5.953268994371149e-14 5.953268994371149e-14 0.2 0.2 0.2 0.2 0.2 0.2 0.2 0.2 0.2 0.2 1 3.902755609363008e-20 3.902755609363008e-20 3.902755609363008e-20 3.902755609363008e-20 0.004922906759215014 0.995077093240785 3.652616467742302e-21 3.652616467742302e-21 3.652616467742302e-21 0.2483114518523644 0.7516885481475954 1.338079351644602e-14 1.338079351644602e-14 1.338079351644602e-14 0.2 0.2 0.2 0.2 0.2 9.480305836951248e-13 0.999999999996208 9.480305836951248e-13 9.480305836951248e-13 9.480305836951248e-13 1 6.24710748631449e-17 6.24710748631449e-17 6.24710748631449e-17 6.24710748631449e-17 0.01643951142146314 0.9835604885239652 1.81905330214434e-11 1.81905330214434e-11 1.81905330214434e-11 0.9999999999989032 2.74165604806564e-13 2.74165604806564e-13 2.74165604806564e-13 2.74165604806564e-13 0.2 0.2 0.2 0.2 0.2 3.916591407730856e-09 0.9999999843336345 3.916591407730856e-09 3.916591407730856e-09 3.916591407730856e-09 0.2 0.2 0.2 0.2 0.2 0.2 0.2 0.2 0.2 0.2 0.2 0.2 0.2 0.2 0.2 0.2 0.2 0.2 0.2 0.2 0.2 0.2 0.2 0.2 0.2 0.2 0.2 0.2 0.2 0.2 1.923170334329219e-19 1 1.923170334329219e-19 1.923170334329219e-19 1.923170334329219e-19 0.2 0.2 0.2 0.2 0.2 0.2 0.2 0.2 0.2 0.2 0.2 0.2 0.2 0.2 0.2 0.9994999999999997 0.0001249999999999999 0.0001249999999999999 0.0001249999999999999 0.0001249999999999999 2.218002815280824e-20 1 2.218002815280824e-20 2.218002815280824e-20 2.218002815280824e-20 3.196499049110129e-13 0.9999999999987215 3.196499049110129e-13 3.196499049110129e-13 3.196499049110129e-13 0.2 0.2 0.2 0.2 0.2 3.61410298954967e-10 0.9999999985543587 3.61410298954967e-10 3.61410298954967e-10 3.61410298954967e-10 1 3.658471292089615e-17 3.658471292089615e-17 3.658471292089615e-17 3.658471292089615e-17 7.762663419599916e-22 1 7.762663419599916e-22 7.762663419599916e-22 7.762663419599916e-22 0.01642781267083494 0.4067723961047149 0.5767997912244495 3.823391366758496e-16 3.823391366758496e-16 0.2 0.2 0.2 0.2 0.2 0.03638180997457829 0.8125785546764279 0.1510396353489713 1.127525104357523e-14 1.127525104357523e-14 0.9999999999999818 4.622596117328549e-15 4.622596117328549e-15 4.622596117328549e-15 4.622596117328549e-15 1.227106378501901e-17 1 1.227106378501901e-17 1.227106378501901e-17 1.227106378501901e-17 0.2676798690000933 0.7323201309998263 2.679515660221513e-14 2.679515660221513e-14 2.679515660221513e-14 0.2 0.2 0.2 0.2 0.2 1.746613983271456e-14 0.9999999999999299 1.746613983271456e-14 1.746613983271456e-14 1.746613983271456e-14 0.2 0.2 0.2 0.2 0.2 1.662754982620984e-21 1 1.662754982620984e-21 1.662754982620984e-21 1.662754982620984e-21 1.501467970805574e-13 0.525677084208993 0.4743229157905566 1.501467970805574e-13 1.501467970805574e-13 3.125e-06 3.125e-06 0.9999875000000001 3.125e-06 3.125e-06 9.480123800731356e-14 0.1795852899251877 0.006925897496908183 9.480123800731356e-14 0.8134888125777144 1 3.627525407231281e-19 3.627525407231281e-19 3.627525407231281e-19 3.627525407231281e-19 4.641535459106177e-21 1 4.641535459106177e-21 4.641535459106177e-21 4.641535459106177e-21 0.006166601778293335 0.01153512650402211 0.9822982717176846 1.597895574279656e-19 1.597895574279656e-19 1.878287002253945e-05 1.878287002253945e-05 0.9999248685199099 1.878287002253945e-05 1.878287002253945e-05 5.93216413700205e-10 5.93216413700205e-10 0.9999999976271344 5.93216413700205e-10 5.93216413700205e-10 0.9999999997690239 5.774409019379285e-11 5.774409019379285e-11 5.774409019379285e-11 5.774409019379285e-11 1.993598075197507e-21 1 1.993598075197507e-21 1.993598075197507e-21 1.993598075197507e-21 1.448166830171744e-19 0.08057968544781804 0.919420314552182 1.448166830171744e-19 1.448166830171744e-19 4.564167594685269e-14 4.564167594685269e-14 0.9999999999998174 4.564167594685269e-14 4.564167594685269e-14 2.91641024175006e-19 0.02368426977070475 0.04119433976627236 2.91641024175006e-19 0.9351213904630229 0.9999999999999731 6.684815090107727e-15 6.684815090107727e-15 6.684815090107727e-15 6.684815090107727e-15 3.939880326778234e-20 0.99582759318804 0.004172406811960027 3.939880326778234e-20 3.939880326778234e-20 0.0006051933600897303 0.01731178075018075 0.9820830258897295 6.083663808473874e-21 6.083663808473874e-21 1.748485484458382e-15 1.748485484458382e-15 0.999999999999993 1.748485484458382e-15 1.748485484458382e-15 5.365967392459479e-20 0.0002353459362927235 0.04104242910086441 5.365967392459479e-20 0.9587222249628429 0.2 0.2 0.2 0.2 0.2 2.988954399378234e-17 1 2.988954399378234e-17 2.988954399378234e-17 2.988954399378234e-17 2.30918488168803e-19 0.009852831474058354 0.9901471685259415 2.30918488168803e-19 2.30918488168803e-19 1.44763563446138e-15 1.44763563446138e-15 0.8027899897701576 1.44763563446138e-15 0.197210010229838 9.997835603044434e-19 0.01131712165525471 0.002398160272799718 9.997835603044434e-19 0.9862847180719455 0.2 0.2 0.2 0.2 0.2 0.2 0.2 0.2 0.2 0.2 2.411402651419979e-14 2.411402651419979e-14 0.9999999999999036 2.411402651419979e-14 2.411402651419979e-14 4.585661626596544e-09 4.585661626596544e-09 0.5555555474032682 0.4444444388397469 4.585661626596544e-09 6.97776082957203e-08 6.97776082957203e-08 6.97776082957203e-08 6.97776082957203e-08 0.9999997208895668 0.2 0.2 0.2 0.2 0.2 0.2 0.2 0.2 0.2 0.2 2.289773953191441e-16 2.289773953191441e-16 0.9999999999999989 2.289773953191441e-16 2.289773953191441e-16 1.501524497337906e-15 1.501524497337906e-15 0.1313517006403107 0.8686482993596847 1.501524497337906e-15 4.958756915411112e-11 4.958756915411112e-11 4.958756915411112e-11 4.958756915411112e-11 0.9999999998016498 0.2 0.2 0.2 0.2 0.2 0.2 0.2 0.2 0.2 0.2 0.2 0.2 0.2 0.2 0.2 2.801349230724578e-16 2.801349230724578e-16 2.801349230724578e-16 0.9999999999999989 2.801349230724578e-16 4.560646748008165e-17 4.560646748008165e-17 4.560646748008165e-17 4.560646748008165e-17 0.9999999999999999 0.2 0.2 0.2 0.2 0.2 0.2 0.2 0.2 0.2 0.2 9.226927322359088e-13 9.226927322359088e-13 0.9999999999963093 9.226927322359088e-13 9.226927322359088e-13 6.415927357879414e-20 6.415927357879414e-20 0.001150732155796873 0.9988492678442031 6.415927357879414e-20 1.785011809560144e-18 1.785011809560144e-18 1.785011809560144e-18 1.785011809560144e-18 1 0.2 0.2 0.2 0.2 0.2 0.2 0.2 0.2 0.2 0.2 0.2 0.2 0.2 0.2 0.2 3.013687933429619e-21 3.013687933429619e-21 3.013687933429619e-21 1 3.013687933429619e-21 9.611240899083635e-17 9.611240899083635e-17 9.611240899083635e-17 0.01643585053336886 0.9835641494666308</probabilities>
		</cpt>
	</dynamic>
	<extensions>
		<genie version="1.0" app="SMILE_ACADEMIC 1.5.0@a121f1f76773" name="emidas dbn v9" faultnameformat="user">
			<plate leftwidth="120" rightwidth="120">120 50 1164 561</plate>
			<node id="p1_imas">
				<name>p1_imas</name>
				<interior color="e5f6f7" />
				<outline color="000080" />
				<font color="000000" name="MS Sans Serif" size="8" />
				<position>491 462 547 497</position>
			</node>
			<node id="p2_imas">
				<name>p2_imas</name>
				<interior color="e5f6f7" />
				<outline color="000080" />
				<font color="000000" name="MS Sans Serif" size="8" />
				<position>651 472 707 507</position>
			</node>
			<node id="p1_wti">
				<name>p1_wti</name>
				<interior color="e5f6f7" />
				<outline color="000080" />
				<font color="000000" name="MS Sans Serif" size="8" />
				<position>487 311 571 363</position>
			</node>
			<node id="p2_wti">
				<name>p2_wti</name>
				<interior color="e5f6f7" />
				<outline color="000080" />
				<font color="000000" name="MS Sans Serif" size="8" />
				<position>650 301 734 353</position>
			</node>
			<node id="p1_approach">
				<name>p1_approach</name>
				<interior color="e5f6f7" />
				<outline color="000080" />
				<font color="000000" name="MS Sans Serif" size="8" />
				<position>268 135 344 182</position>
			</node>
			<node id="p2_head">
				<name>p2_head</name>
				<interior color="e5f6f7" />
				<outline color="000080" />
				<font color="000000" name="MS Sans Serif" size="8" />
				<position>676 84 733 119</position>
			</node>
			<node id="p1_body">
				<name>p1_body</name>
				<interior color="e5f6f7" />
				<outline color="000080" />
				<font color="000000" name="MS Sans Serif" size="8" />
				<position>404 76 461 111</position>
			</node>
			<node id="p2_approach">
				<name>p2_approach</name>
				<interior color="e5f6f7" />
				<outline color="000080" />
				<font color="000000" name="MS Sans Serif" size="8" />
				<position>924 160 1000 207</position>
			</node>
			<node id="p2_body">
				<name>p2_body</name>
				<interior color="e5f6f7" />
				<outline color="000080" />
				<font color="000000" name="MS Sans Serif" size="8" />
				<position>827 91 884 126</position>
			</node>
			<node id="dist">
				<name>dist</name>
				<interior color="e5f6f7" />
				<outline color="000080" />
				<font color="000000" name="MS Sans Serif" size="8" />
				<position>599 137 637 160</position>
			</node>
			<node id="p1_gesture">
				<name>p1_gesture</name>
				<interior color="e5f6f7" />
				<outline color="000080" />
				<font color="000000" name="MS Sans Serif" size="8" />
				<position>248 271 316 313</position>
			</node>
			<node id="p2_gesture">
				<name>p2_gesture</name>
				<interior color="e5f6f7" />
				<outline color="000080" />
				<font color="000000" name="MS Sans Serif" size="8" />
				<position>964 312 1032 354</position>
			</node>
			<node id="p1_head">
				<name>p1_head</name>
				<interior color="e5f6f7" />
				<outline color="000080" />
				<font color="000000" name="MS Sans Serif" size="8" />
				<position>528 80 585 115</position>
			</node>
		</genie>
	</extensions>
</smile>
