<?xml version="1.0" encoding="ISO-8859-1"?>
<!-- This file was created by ACADEMIC version of SMILE -->
<smile version="1.0" id="Network2" numsamples="10000" discsamples="10000">
	<nodes>
		<cpt id="p1_imas" target="true" dynamic="plate">
			<state id="very_high" />
			<state id="high" />
			<state id="medium" />
			<state id="low" />
			<state id="very_low" />
			<probabilities>0.0412218466344722 0.04562701838674729 0.1110464851619717 0.4362527296587586 0.3658519201580503</probabilities>
		</cpt>
		<cpt id="p2_imas" target="true" dynamic="plate">
			<state id="very_high" />
			<state id="high" />
			<state id="medium" />
			<state id="low" />
			<state id="very_low" />
			<probabilities>0.04191637327034905 0.04766117505062631 0.1128153170436056 0.4297925914557617 0.3678145431796574</probabilities>
		</cpt>
		<cpt id="p1_wti" dynamic="plate">
			<state id="very_high" />
			<state id="high" />
			<state id="medium" />
			<state id="low" />
			<state id="very_low" />
			<parents>p1_imas</parents>
			<probabilities>0.9999747594257768 6.310143555765894e-06 6.310143555765894e-06 6.310143555765894e-06 6.310143555765894e-06 0.4309959523402316 0.5689869448720143 5.700929251467991e-06 5.700929251467991e-06 5.700929251467991e-06 0.08988182382497278 0.8925428373994215 0.01757065389255221 2.342441526803388e-06 2.342441526803388e-06 0.02274507933290004 0.4458300290380475 0.3919456684415453 0.1394786269236961 5.962638109605213e-07 7.110024067431469e-07 7.110024067431469e-07 0.01222995239838887 0.1679679195714077 0.8198007060253899</probabilities>
		</cpt>
		<cpt id="p2_wti" dynamic="plate">
			<state id="very_high" />
			<state id="high" />
			<state id="medium" />
			<state id="very_low" />
			<state id="low" />
			<parents>p2_imas</parents>
			<probabilities>0.9999751776350491 6.205591237705172e-06 6.205591237705172e-06 6.205591237705172e-06 6.205591237705172e-06 0.4336407793483601 0.5663428477869346 5.45762156852044e-06 5.45762156852044e-06 5.45762156852044e-06 0.09271509436137468 0.887564127690481 0.01971616651871664 2.305714713918447e-06 2.305714713918447e-06 0.02042396090239215 0.4429535035027461 0.3973255057420829 6.05226127611929e-07 0.1392964246266511 7.072085770256222e-07 7.072085770256222e-07 0.0117332975014321 0.8185345223866876 0.1697307656947263</probabilities>
		</cpt>
		<cpt id="p1_approach" dynamic="plate">
			<state id="y" />
			<state id="m" />
			<state id="n" />
			<parents>p1_wti</parents>
			<probabilities>0.6107853600199118 0.266817704444323 0.1223969355357652 0.2524218594982303 0.2716001767970741 0.4759779637046956 0.0259785502136584 0.3265328839328599 0.6474885658534817 0.02921675512484564 0.1669721043698207 0.8038111405053335 0.0002699866319284184 0.01821651215793509 0.9815135012101365</probabilities>
		</cpt>
		<cpt id="p2_head" dynamic="plate">
			<state id="central" />
			<state id="mid_peripheral" />
			<state id="outside" />
			<parents>p2_wti</parents>
			<probabilities>0.9999998800438633 5.997806841950173e-08 5.997806841950173e-08 0.999999963994067 1.800296656483649e-08 1.800296656483649e-08 0.9999998809169964 5.954150185578954e-08 5.954150185578954e-08 0.06694359730378772 0.185702356833229 0.7473540458629833 0.2579063165029125 0.1574368089029182 0.5846568745941694</probabilities>
		</cpt>
		<cpt id="p1_body" dynamic="plate">
			<state id="strongly_facing" />
			<state id="slightly_facing" />
			<state id="turned_away" />
			<parents>p1_wti</parents>
			<probabilities>0.4536025666709161 0.478570786816976 0.0678266465121079 0.2706821382208501 0.4284701932560637 0.3008476685230861 0.00383113665122717 0.3592341375512682 0.6369347257975047 0.003103399070367336 0.6425805049231997 0.3543160960064329 0.001642081808565163 0.3474632836965978 0.650894634494837</probabilities>
		</cpt>
		<cpt id="p2_approach" dynamic="plate">
			<state id="y" />
			<state id="m" />
			<state id="n" />
			<parents>p2_wti</parents>
			<probabilities>0.6129452104543452 0.2685135353406673 0.1185412542049874 0.2534697252482658 0.2766779435448932 0.4698523312068409 0.02697182400865781 0.3324132980466576 0.6406148779446845 0.0002246051469082099 0.01851585709485647 0.9812595377582353 0.02709399157294052 0.1727403110144227 0.8001656974126368</probabilities>
		</cpt>
		<cpt id="p2_body" dynamic="plate">
			<state id="strongly_facing" />
			<state id="slightly_facing" />
			<state id="turned_away" />
			<parents>p2_wti</parents>
			<probabilities>0.4540044687259657 0.476895878253158 0.06909965302087638 0.2703041912652451 0.4327222928448595 0.2969735158898953 0.003914615581010738 0.3664000040964553 0.629685380322534 0.001659350127867149 0.3531738665305539 0.645166783341579 0.004657158971879784 0.6545273405470479 0.3408155004810723</probabilities>
		</cpt>
		<cpt id="dist" dynamic="plate">
			<state id="range_0_3" />
			<state id="range_3_6" />
			<state id="range_6_9" />
			<state id="range_9_12" />
			<state id="range_12_15" />
			<state id="range_15_18" />
			<state id="range_18_21" />
			<state id="range_21_24" />
			<state id="range_24_27" />
			<state id="range_27_inf" />
			<parents>p1_wti p2_wti</parents>
			<probabilities>0.1111111111111111 0.1111111111111111 0.1111111111111111 0.1111111111111111 0.1111111111111111 0.1111111111111111 0.1111111111111111 0.1111111111111111 0.1111111111111111 0 0.03770075181128982 0.1612432101635688 0.2664715756718283 0.3243668972599248 0.1627595431478232 0.04745795336424524 2.286043998574423e-08 2.286043998574423e-08 2.286043998574423e-08 0 3.071896509035369e-07 3.071896509035369e-07 3.071896509035369e-07 0.02004166720424855 0.6869580790570997 0.2929984106007462 3.071896509035369e-07 3.071896509035369e-07 3.071896509035369e-07 0 1.053086068724397e-06 1.053086068724397e-06 1.053086068724397e-06 1.053086068724397e-06 0.7302635874430018 0.2697290409545172 1.053086068724397e-06 1.053086068724397e-06 1.053086068724397e-06 0 6.804901434405172e-07 6.804901434405172e-07 0.00319762318402699 0.1340395460041959 0.3766703481183426 0.4821755814277907 0.003914179305069855 6.804901434405172e-07 6.804901434405172e-07 0 0.03746804555368374 0.1610012483130927 0.2656021804865307 0.3235525736411348 0.1670018633126182 0.04537402094679262 2.258204910913704e-08 2.258204910913704e-08 2.258204910913704e-08 0 0.01258547009123913 0.07152950028417573 0.1664110699914503 0.3332258568338429 0.1473798398386164 0.2192971274925575 0.04854064903106105 0.001030476437382434 9.999674310607702e-09 0 8.494148805595266e-08 8.494148805595266e-08 0.0002829400967143783 0.4670658067190416 0.07402404353760912 0.293891178061992 0.1430651645613919 0.02167061219878686 8.494148805595266e-08 0 1.267092764621553e-07 1.267092764621553e-07 0.0004562801045402214 0.9137472215823402 0.008768535349734074 0.001639998165249677 0.07369170771413676 0.001695876956169487 1.267092764621553e-07 0 2.91201435972521e-07 2.91201435972521e-07 0.003323481988754382 0.8559918626670731 0.006982136830313137 0.1337010625066794 2.91201435972521e-07 2.91201435972521e-07 2.91201435972521e-07 0 3.044623833680724e-07 3.044623833680724e-07 3.044623833680724e-07 0.01295030747656096 0.689866091354547 0.2971817743945917 3.044623833680724e-07 3.044623833680724e-07 3.044623833680724e-07 0 8.572653971080495e-08 8.572653971080495e-08 0.000152078881446968 0.4717960970249547 0.07126172921232141 0.2917127553975787 0.147524487571752 0.01755259473232702 8.572653971080495e-08 0 4.0095451231201e-08 4.0095451231201e-08 0.003586618303533392 0.1693133072592614 0.1076313070896577 0.2443203891183351 0.06531047812422254 0.06137422748595307 0.07217149145255196 0.2762921009755825 1.254894401890975e-07 1.254894401890975e-07 1.254894401890975e-07 0.00330250559745648 0.2373874955796345 0.4881707379205747 0.2499408317289508 0.02119792721562273 1.254894401890975e-07 0 4.066726854224108e-07 4.066726854224108e-07 4.066726854224108e-07 0.6072216935477311 0.07309900853199292 0.3164194096739298 0.003257854882918933 4.066726854224108e-07 4.066726854224108e-07 0 6.401774059627402e-07 6.401774059627402e-07 0.0002771968167818665 0.1044929570882683 0.3527716800879859 0.5355929035054193 0.006862701791920576 6.401774059627402e-07 6.401774059627402e-07 0 3.011361566052559e-07 3.011361566052559e-07 0.008727226954576922 0.8246568478211443 0.008851897323411498 0.1577625222200841 3.011361566052559e-07 3.011361566052559e-07 3.011361566052559e-07 0 4.189899660282934e-07 4.189899660282934e-07 4.189899660282934e-07 0.597738627355352 0.07713814769563897 0.3214289904185374 0.003692139580641322 4.189899660282934e-07 4.189899660282934e-07 0 2.262545304641543e-07 2.262545304641543e-07 2.262545304641543e-07 0.621480243115018 0.02979523286229402 0.1680777030459063 0.1009371236397295 0.05320850418378564 0.02608103849019447 0.0004194758994805422 2.439300447660418e-07 2.439300447660418e-07 0.003864095839138868 0.8175056884486439 0.0264149406176699 0.1491207785466453 0.003093520827722942 2.439300447660418e-07 2.439300447660418e-07 0 1.125107447761261e-06 1.125107447761261e-06 1.125107447761261e-06 1.125107447761261e-06 0.7534439538975973 0.2465481703502685 1.125107447761261e-06 1.125107447761261e-06 1.125107447761261e-06 0 1.264776382476472e-07 1.264776382476472e-07 0.0001765627829937156 0.9058890012010316 0.01147759271569749 0.001235180615126523 0.07917221903498572 0.002049064217250133 1.264776382476472e-07 0 1.245368009360186e-07 1.245368009360186e-07 1.245368009360186e-07 0.003136210257971756 0.2566278796800151 0.4643705816678093 0.2573071033923202 0.01855772685467987 1.245368009360186e-07 0 2.386983777461503e-08 2.386983777461503e-08 2.386983777461503e-08 0.2454588170705145 0.3006534248741612 0.2015491524715726 0.09691777139259619 0.04597999110848544 0.07359039955124706 0.03585037192190983 2.292543707918927e-07 2.292543707918927e-07 2.292543707918927e-07 0.6092008490664876 0.0303305825101382 0.1758791389297535 0.1021970134116099 0.05497451035278349 0.02725009152980754 0.0001671264363072898</probabilities>
		</cpt>
		<cpt id="p1_gesture" dynamic="plate">
			<state id="wave_slow_shoulder" />
			<state id="wave_fast_shoulder" />
			<state id="wave_small_head" />
			<state id="wave_wide_head" />
			<state id="arm_raise_high" />
			<state id="arm_raise_low" />
			<state id="come_here" />
			<state id="i_am_coming" />
			<state id="None" />
			<parents>p1_wti</parents>
			<probabilities>0.03925624416964633 2.02355005554645e-08 0.003480688249851573 0.03669291211114935 0.03737021455701433 2.02355005554645e-08 2.02355005554645e-08 0.01479522685008104 0.8684046533557558 5.974246582236583e-09 0.03420686317505045 0.0617560856946647 5.974246528468363e-09 0.1410636177027512 0.08711468342380697 0.0509134016647345 5.974246528468363e-09 0.6249453304162526 1.98737207683403e-08 1.987372058947682e-08 1.987372058947682e-08 1.987372058947682e-08 0.05170659217678116 0.01588309752766124 1.987372058947682e-08 1.987372058947682e-08 0.932410191053234 6.333596741288471e-08 6.333596684286099e-08 6.333596684286099e-08 6.333596684286099e-08 6.333596684286099e-08 6.333596684286099e-08 6.333596684286099e-08 6.333596684286099e-08 0.9999994933122647 1.585265877860559e-08 1.585265863593166e-08 1.585265863593166e-08 1.585265863593166e-08 1.585265863593166e-08 1.585265863593166e-08 1.585265863593166e-08 1.585265863593166e-08 0.9999998731787308</probabilities>
		</cpt>
		<cpt id="p2_gesture" dynamic="plate">
			<state id="wave_slow_shoulder" />
			<state id="wave_fast_shoulder" />
			<state id="wave_small_head" />
			<state id="wave_wide_head" />
			<state id="arm_raise_high" />
			<state id="arm_raise_low" />
			<state id="come_here" />
			<state id="i_am_coming" />
			<state id="None" />
			<parents>p2_wti</parents>
			<probabilities>0.03856909682405532 1.999268947316724e-08 0.004958826755408617 0.03462637851843095 0.03637767813821199 1.999268947316724e-08 1.999268947316724e-08 0.0168819869326582 0.8685859728531665 6.000988854945495e-09 0.03482526857740673 0.06241393269265696 6.000988854945495e-09 0.138558757989259 0.08674569812962919 0.04976726274909032 6.000988854945495e-09 0.6276890618589913 1.984716728526318e-08 1.984716728526318e-08 1.984716728526318e-08 1.984716728526318e-08 0.05097891786257758 0.01718048204164793 1.984716728526318e-08 1.984716728526318e-08 0.9318404810127707 1.584180751221681e-08 1.584180751221681e-08 1.584180751221681e-08 1.584180751221681e-08 1.584180751221681e-08 1.584180751221681e-08 1.584180751221681e-08 1.584180751221681e-08 0.9999998732655399 6.319504677223399e-08 6.319504677223399e-08 6.319504677223399e-08 6.319504677223399e-08 6.319504677223399e-08 6.319504677223399e-08 6.319504677223399e-08 6.319504677223399e-08 0.9999994944396258</probabilities>
		</cpt>
		<cpt id="p1_head" dynamic="plate">
			<state id="central" />
			<state id="mid_peripheral" />
			<state id="outside" />
			<parents>p1_wti</parents>
			<probabilities>0.9999998785869956 6.070650227345852e-08 6.070650227345852e-08 0.9999999641545206 1.792273976463249e-08 1.792273976463249e-08 0.9999998807576754 5.962116236464208e-08 5.962116236464208e-08 0.2602302629766372 0.1646327270751191 0.5751370099482438 0.06677572661810902 0.1760789371096649 0.757145336272226</probabilities>
		</cpt>
	</nodes>
	<dynamic numslices="50">
		<cpt id="p1_imas" order="1">
			<parents>p1_imas</parents>
			<probabilities>0.9999997662239141 5.844402143960481e-08 5.844402143960481e-08 5.844402143960481e-08 5.844402143960481e-08 0.003657282167278321 0.99634252227705 6.518522381346594e-08 6.518522381346594e-08 6.518522381346594e-08 0.009011771200591984 0.006023260503148839 0.9843960040953519 0.000568925048402284 3.915250487938092e-08 0.001035312704318661 0.001933454813869432 0.005401522856692945 0.9913801474267414 0.000249562198377565 2.52926613848845e-08 2.52926613848845e-08 2.428095492948912e-06 0.02382356244100487 0.9761739588781795</probabilities>
		</cpt>
		<cpt id="p2_imas" order="1">
			<parents>p2_imas</parents>
			<probabilities>0.9999997680875745 5.797810630749615e-08 5.797810630749615e-08 5.797810630749615e-08 5.797810630749615e-08 0.003560325598160414 0.9964394848581437 6.318123188870498e-08 6.318123188870498e-08 6.318123188870498e-08 0.008908223426739142 0.0059500854500291 0.9845134751685456 0.0006281773593702478 3.859531576371638e-08 0.001048493887082599 0.002006594029220661 0.005506774460083767 0.991183249774935 0.0002548878486779065 2.521573956377275e-08 2.521573956377275e-08 2.521573956377275e-08 0.02398258903614601 0.9760173353166354</probabilities>
		</cpt>
		<cpt id="p1_wti" order="1">
			<parents>p2_imas p1_wti</parents>
			<probabilities>0.2 0.2 0.2 0.2 0.2 0.2 0.2 0.2 0.2 0.2 0.2 0.2 0.2 0.2 0.2 0.2 0.2 0.2 0.2 0.2 0.2 0.2 0.2 0.2 0.2 0.2 0.2 0.2 0.2 0.2 0.2 0.2 0.2 0.2 0.2 0.2 0.2 0.2 0.2 0.2 0.2 0.2 0.2 0.2 0.2 0.2 0.2 0.2 0.2 0.2 0.2 0.2 0.2 0.2 0.2 0.2 0.2 0.2 0.2 0.2 0.2 0.2 0.2 0.2 0.2 0.2 0.2 0.2 0.2 0.2 0.2 0.2 0.2 0.2 0.2 0.999999765023308 5.87441729451949e-08 5.87441729451949e-08 5.87441729451949e-08 5.87441729451949e-08 0.9999761819697515 5.954507562224607e-06 5.954507562224607e-06 5.954507562224607e-06 5.954507562224607e-06 0.9999574716920949 1.063207697623731e-05 1.063207697623731e-05 1.063207697623731e-05 1.063207697623731e-05 0.2 0.2 0.2 0.2 0.2 0.2 0.2 0.2 0.2 0.2 0.9999801940978414 4.951475539710836e-06 4.951475539710836e-06 4.951475539710836e-06 4.951475539710836e-06 0.9989515072083877 0.0002621231979030144 0.0002621231979030144 0.0002621231979030144 0.0002621231979030144 0.2 0.2 0.2 0.2 0.2 0.2 0.2 0.2 0.2 0.2 0.2 0.2 0.2 0.2 0.2 0.2 0.2 0.2 0.2 0.2 0.2 0.2 0.2 0.2 0.2 0.2 0.2 0.2 0.2 0.2 0.2 0.2 0.2 0.2 0.2 0.2 0.2 0.2 0.2 0.2 0.2 0.2 0.2 0.2 0.2 0.2 0.2 0.2 0.2 0.2 0.2 0.2 0.2 0.2 0.2 0.2 0.2 0.2 0.2 0.2 0.2 0.2 0.2 0.2 0.2 0.2 0.2 0.2 0.2 0.2 0.2 0.2 0.2 0.2 0.2 0.2 0.2 0.2 0.2 0.2 0.2 0.2 0.2 0.2 0.2 0.2 0.2 0.2 0.2 0.2 0.999999192785928 2.018035180407301e-07 2.018035180407301e-07 2.018035180407301e-07 2.018035180407301e-07 0.005780757766826325 0.9942189299623351 1.040902795812865e-07 1.040902795812865e-07 1.040902795812865e-07 0.5402109124254928 0.459743237047226 1.528350909368791e-05 1.528350909368791e-05 1.528350909368791e-05 0.2 0.2 0.2 0.2 0.2 0.2 0.2 0.2 0.2 0.2 0.999995617302888 1.095674277950651e-06 1.095674277950651e-06 1.095674277950651e-06 1.095674277950651e-06 5.243838489774517e-05 0.9997902464604093 5.243838489774517e-05 5.243838489774517e-05 5.243838489774517e-05 0.9999269539810077 1.826150474799123e-05 1.826150474799123e-05 1.826150474799123e-05 1.826150474799123e-05 0.2 0.2 0.2 0.2 0.2 0.2 0.2 0.2 0.2 0.2 0.2 0.2 0.2 0.2 0.2 0.2 0.2 0.2 0.2 0.2 0.2 0.2 0.2 0.2 0.2 0.2 0.2 0.2 0.2 0.2 0.2 0.2 0.2 0.2 0.2 0.2 0.2 0.2 0.2 0.2 0.2 0.2 0.2 0.2 0.2 0.2 0.2 0.2 0.2 0.2 0.2 0.2 0.2 0.2 0.2 0.2 0.2 0.2 0.2 0.2 0.2 0.2 0.2 0.2 0.2 0.2 0.2 0.2 0.2 0.2 0.001550387596899225 0.001550387596899225 0.9937984496124033 0.001550387596899225 0.001550387596899225 0.002272727272727273 0.002272727272727273 0.9909090909090907 0.002272727272727273 0.002272727272727273 0.2 0.2 0.2 0.2 0.2 0.9999961004713553 9.748821611187745e-07 9.748821611187745e-07 9.748821611187745e-07 9.748821611187745e-07 4.465637367024483e-08 0.9999998213745052 4.465637367024483e-08 4.465637367024483e-08 4.465637367024483e-08 0.01825678160483764 0.3442098079730063 0.6375296191685782 1.895626788997782e-06 1.895626788997782e-06 0.06472447777846649 0.5797557800781007 0.3554949482427322 1.239695035021385e-05 1.239695035021385e-05 0.01 0.9600000000000002 0.01 0.01 0.01 0.9999801675839162 4.958104021022363e-06 4.958104021022363e-06 4.958104021022363e-06 4.958104021022363e-06 8.127537315555698e-07 0.9999967489850736 8.127537315555698e-07 8.127537315555698e-07 8.127537315555698e-07 0.2430958160788233 0.7568756247322576 9.519729639678232e-06 9.519729639678232e-06 9.519729639678232e-06 1.471453796350794e-05 0.9999411418481458 1.471453796350794e-05 1.471453796350794e-05 1.471453796350794e-05 0.2 0.2 0.2 0.2 0.2 0.2 0.2 0.2 0.2 0.2 5.898640127505004e-08 0.9999997640543947 5.898640127505004e-08 5.898640127505004e-08 5.898640127505004e-08 1.518141794443601e-05 0.6734628814331257 0.3264915743130407 1.518141794443601e-05 1.518141794443601e-05 1.179036726994046e-05 0.1740965631079408 0.004786889111595826 0.8210929670459235 1.179036726994046e-05 0.2 0.2 0.2 0.2 0.2 0.9999971972210445 7.006947388335534e-07 7.006947388335534e-07 7.006947388335534e-07 7.006947388335534e-07 7.561779740479717e-08 0.9999996975288101 7.561779740479717e-08 7.561779740479717e-08 7.561779740479717e-08 4.342822400277941e-06 0.3165526675786594 0.6834343039541398 4.342822400277941e-06 4.342822400277941e-06 0.0003703703703703703 0.0003703703703703703 0.9985185185185184 0.0003703703703703703 0.0003703703703703703 0.004999999999999999 0.004999999999999999 0.9799999999999999 0.004999999999999999 0.004999999999999999 0.9999902767480585 2.430812985402968e-06 2.430812985402968e-06 2.430812985402968e-06 2.430812985402968e-06 5.301636615223118e-08 0.9999997879345351 5.301636615223118e-08 5.301636615223118e-08 5.301636615223118e-08 2.275620931616454e-07 0.09075767936728636 0.9092416379464342 2.275620931616454e-07 2.275620931616454e-07 1.00852201099289e-06 0.06643739599616762 0.07341132570218345 0.8601492612576269 1.00852201099289e-06 1.237853561923624e-05 1.237853561923624e-05 0.999950485857523 1.237853561923624e-05 1.237853561923624e-05 0.999992498476253 1.875380936752778e-06 1.875380936752778e-06 1.875380936752778e-06 1.875380936752778e-06 2.507302518585381e-07 0.9956275151378392 0.004371732671405469 2.507302518585381e-07 2.507302518585381e-07 6.191045766686725e-08 0.01178038379530917 0.9882194304733177 6.191045766686725e-08 6.191045766686725e-08 7.185069425733326e-07 0.008374916922634765 0.09493344829444415 0.896690197769036 7.185069425733326e-07 3.591051100657163e-06 3.591051100657163e-06 0.9995187991525121 0.0004704276941860883 3.591051100657163e-06 0.2 0.2 0.2 0.2 0.2 2.343775635046009e-07 0.9999990624897462 2.343775635046009e-07 2.343775635046009e-07 2.343775635046009e-07 1.944106925880924e-07 0.00949424058323208 0.9905051761846903 1.944106925880924e-07 1.944106925880924e-07 4.457708604046263e-07 0.01715816618783447 0.003539866402473137 0.9793010758679717 4.457708604046263e-07 3.447800303406427e-06 3.447800303406427e-06 0.8074265618535373 0.1925630947455524 3.447800303406427e-06 0.2 0.2 0.2 0.2 0.2 0.2 0.2 0.2 0.2 0.2 7.214486689272058e-06 7.214486689272058e-06 0.9999711420532428 7.214486689272058e-06 7.214486689272058e-06 0.00018001800180018 0.00018001800180018 0.00018001800180018 0.9992799279927993 0.00018001800180018 0.2 0.2 0.2 0.2 0.2 0.2 0.2 0.2 0.2 0.2 0.2 0.2 0.2 0.2 0.2 1.596933886937081e-06 1.596933886937081e-06 0.9999936122644524 1.596933886937081e-06 1.596933886937081e-06 0.0001647446457990116 0.0001647446457990116 0.0001647446457990116 0.999341021416804 0.0001647446457990116 3.220300776092487e-06 3.220300776092487e-06 0.1474285898302902 3.220300776092487e-06 0.8525617492673815 0.2 0.2 0.2 0.2 0.2 0.2 0.2 0.2 0.2 0.2 0.2 0.2 0.2 0.2 0.2 1.396579776128262e-06 1.396579776128262e-06 1.396579776128262e-06 0.9999944136808954 1.396579776128262e-06 2.209578522896757e-06 2.209578522896757e-06 2.209578522896757e-06 2.209578522896757e-06 0.9999911616859084 0.2 0.2 0.2 0.2 0.2 0.2 0.2 0.2 0.2 0.2 3.719546215361727e-05 3.719546215361727e-05 0.9998512181513857 3.719546215361727e-05 3.719546215361727e-05 5.055662847955996e-07 5.055662847955996e-07 5.055662847955996e-07 0.9999979777348609 5.055662847955996e-07 1.059246293300002e-07 1.059246293300002e-07 0.001101192446514682 1.059246293300002e-07 0.9988984897795973 0.2 0.2 0.2 0.2 0.2 0.2 0.2 0.2 0.2 0.2 0.2 0.2 0.2 0.2 0.2 8.367535635242386e-07 8.367535635242386e-07 8.367535635242386e-07 0.9810274497006514 0.01897004003865801 4.215555695605684e-08 4.215555695605684e-08 4.215555695605684e-08 4.215555695605684e-08 0.9999998313777723</probabilities>
		</cpt>
		<cpt id="p2_wti" order="1">
			<parents>p1_imas p2_wti</parents>
			<probabilities>0.2 0.2 0.2 0.2 0.2 0.2 0.2 0.2 0.2 0.2 0.2 0.2 0.2 0.2 0.2 0.2 0.2 0.2 0.2 0.2 0.2 0.2 0.2 0.2 0.2 0.2 0.2 0.2 0.2 0.2 0.2 0.2 0.2 0.2 0.2 0.2 0.2 0.2 0.2 0.2 0.2 0.2 0.2 0.2 0.2 0.2 0.2 0.2 0.2 0.2 0.2 0.2 0.2 0.2 0.2 0.2 0.2 0.2 0.2 0.2 0.2 0.2 0.2 0.2 0.2 0.2 0.2 0.2 0.2 0.2 0.2 0.2 0.2 0.2 0.2 0.9999997666851469 5.832871321317423e-08 5.832871321317423e-08 5.832871321317423e-08 5.832871321317423e-08 0.9999762463256039 5.938418599127056e-06 5.938418599127056e-06 5.938418599127056e-06 5.938418599127056e-06 0.9999574852526969 1.062868682574268e-05 1.062868682574268e-05 1.062868682574268e-05 1.062868682574268e-05 0.2 0.2 0.2 0.2 0.2 0.2 0.2 0.2 0.2 0.2 0.9999817117776155 4.572055596196052e-06 4.572055596196052e-06 4.572055596196052e-06 4.572055596196052e-06 0.9989290495314589 0.0002677376171352075 0.0002677376171352075 0.0002677376171352075 0.0002677376171352075 0.2 0.2 0.2 0.2 0.2 0.2 0.2 0.2 0.2 0.2 0.2 0.2 0.2 0.2 0.2 0.2 0.2 0.2 0.2 0.2 0.2 0.2 0.2 0.2 0.2 0.2 0.2 0.2 0.2 0.2 0.2 0.2 0.2 0.2 0.2 0.2 0.2 0.2 0.2 0.2 0.2 0.2 0.2 0.2 0.2 0.2 0.2 0.2 0.2 0.2 0.2 0.2 0.2 0.2 0.2 0.2 0.2 0.2 0.2 0.2 0.2 0.2 0.2 0.2 0.2 0.2 0.2 0.2 0.2 0.2 0.2 0.2 0.2 0.2 0.2 0.2 0.2 0.2 0.2 0.2 0.2 0.2 0.2 0.2 0.2 0.2 0.2 0.2 0.2 0.2 0.999999237616752 1.905958120382221e-07 1.905958120382221e-07 1.905958120382221e-07 1.905958120382221e-07 0.005711172095856593 0.9942885217899721 1.020380571341693e-07 1.020380571341693e-07 1.020380571341693e-07 0.5648471772743616 0.4351096727795756 1.438331535418914e-05 1.438331535418914e-05 1.438331535418914e-05 0.2 0.2 0.2 0.2 0.2 0.2 0.2 0.2 0.2 0.2 0.9999956591805615 1.085204859547361e-06 1.085204859547361e-06 1.085204859547361e-06 1.085204859547361e-06 8.336807002917886e-05 0.9996665277198836 8.336807002917886e-05 8.336807002917886e-05 8.336807002917886e-05 0.9999277978339347 1.805054151624548e-05 1.805054151624548e-05 1.805054151624548e-05 1.805054151624548e-05 0.2 0.2 0.2 0.2 0.2 0.2 0.2 0.2 0.2 0.2 0.2 0.2 0.2 0.2 0.2 0.2 0.2 0.2 0.2 0.2 0.2 0.2 0.2 0.2 0.2 0.2 0.2 0.2 0.2 0.2 0.2 0.2 0.2 0.2 0.2 0.2 0.2 0.2 0.2 0.2 0.2 0.2 0.2 0.2 0.2 0.2 0.2 0.2 0.2 0.2 0.2 0.2 0.2 0.2 0.2 0.2 0.2 0.2 0.2 0.2 0.9799999999999998 0.004999999999999998 0.004999999999999998 0.004999999999999998 0.004999999999999998 0.2 0.2 0.2 0.2 0.2 0.2 0.2 0.2 0.2 0.2 0.2 0.2 0.2 0.2 0.2 0.2 0.2 0.2 0.2 0.2 0.9999963763684869 9.059078782278628e-07 9.059078782278628e-07 9.059078782278628e-07 9.059078782278628e-07 4.402234838538132e-08 0.9999998239106063 4.402234838538132e-08 4.402234838538132e-08 4.402234838538132e-08 0.01562702314920124 0.317485258350685 0.6668842189987927 1.749750660530875e-06 1.749750660530875e-06 0.2 0.2 0.2 0.2 0.2 0.06665512665166463 0.6059200276960359 0.3274017656222952 1.15400150020195e-05 1.15400150020195e-05 0.9999774939514998 5.626512125133632e-06 5.626512125133632e-06 5.626512125133632e-06 5.626512125133632e-06 8.502063876005899e-07 0.9999965991744494 8.502063876005899e-07 8.502063876005899e-07 8.502063876005899e-07 0.2433778519755147 0.7565943238731218 9.274717121127805e-06 9.274717121127805e-06 9.274717121127805e-06 0.2 0.2 0.2 0.2 0.2 1.585037248375336e-05 0.9999365985100648 1.585037248375336e-05 1.585037248375336e-05 1.585037248375336e-05 0.2 0.2 0.2 0.2 0.2 5.955223862820226e-08 0.9999997617910452 5.955223862820226e-08 5.955223862820226e-08 5.955223862820226e-08 1.27967240386461e-05 0.5394586985731652 0.4605029112547186 1.27967240386461e-05 1.27967240386461e-05 0.004761904761904761 0.004761904761904761 0.9809523809523809 0.004761904761904761 0.004761904761904761 9.752291788570315e-06 0.1734055002925687 0.007616539886873414 9.752291788570315e-06 0.8189584552369807 0.9999968490291069 7.877427232265941e-07 7.877427232265941e-07 7.877427232265941e-07 7.877427232265941e-07 7.74089670547436e-08 0.9999996903641315 7.74089670547436e-08 7.74089670547436e-08 7.74089670547436e-08 4.562980538888002e-06 0.3305696881202802 0.6694166229381032 4.562980538888002e-06 4.562980538888002e-06 0.2 0.2 0.2 0.2 0.2 0.0003134796238244514 0.0003134796238244514 0.9987460815047021 0.0003134796238244514 0.0003134796238244514 0.9999890962122969 2.725946925813355e-06 2.725946925813355e-06 2.725946925813355e-06 2.725946925813355e-06 5.39915843317502e-08 0.9999997840336625 5.39915843317502e-08 5.39915843317502e-08 5.39915843317502e-08 2.259373859722256e-07 0.09139867668473037 0.9086006455031118 2.259373859722256e-07 2.259373859722256e-07 1.272912423625254e-05 1.272912423625254e-05 0.9999490835030549 1.272912423625254e-05 1.272912423625254e-05 1.10756076355239e-06 0.06884708462318015 0.08074782502755058 1.10756076355239e-06 0.8504028752277423 0.9999929382894772 1.765427630707849e-06 1.765427630707849e-06 1.765427630707849e-06 1.765427630707849e-06 2.514562459845582e-07 0.9956173690887353 0.00438187654252691 2.514562459845582e-07 2.514562459845582e-07 6.199631865859805e-08 0.0115087486105075 0.9884910654005364 6.199631865859805e-08 6.199631865859805e-08 3.563410896910523e-06 3.563410896910523e-06 0.9999857463564125 3.563410896910523e-06 3.563410896910523e-06 7.227235112799073e-07 0.009157629611427704 0.09554477091471501 7.227235112799073e-07 0.8952961540268347 0.2 0.2 0.2 0.2 0.2 2.367435451872406e-07 0.9999990530258195 2.367435451872406e-07 2.367435451872406e-07 2.367435451872406e-07 1.942235960304582e-07 0.009416154159152644 0.9905832631700593 1.942235960304582e-07 1.942235960304582e-07 3.380548324938305e-06 3.380548324938305e-06 0.8028498022379229 3.380548324938305e-06 0.1971400561171022 4.502060818339595e-07 0.01741667248182856 0.003680884925074453 4.502060818339595e-07 0.9789015421809334 0.2 0.2 0.2 0.2 0.2 0.2 0.2 0.2 0.2 0.2 7.894529091339701e-06 7.894529091339701e-06 0.9999684218836346 7.894529091339701e-06 7.894529091339701e-06 0.0004524886877828055 0.0004524886877828055 0.5547511312217195 0.4438914027149322 0.0004524886877828055 0.0001154068090017311 0.0001154068090017311 0.0001154068090017311 0.0001154068090017311 0.9995383727639932 0.2 0.2 0.2 0.2 0.2 0.2 0.2 0.2 0.2 0.2 1.666041900953809e-06 1.666041900953809e-06 0.9999933358323962 1.666041900953809e-06 1.666041900953809e-06 3.14613811546327e-06 3.14613811546327e-06 0.1322667925121913 0.8677237690734624 3.14613811546327e-06 7.898894154818326e-05 7.898894154818326e-05 7.898894154818326e-05 7.898894154818326e-05 0.9996840442338072 0.2 0.2 0.2 0.2 0.2 0.2 0.2 0.2 0.2 0.2 0.2 0.2 0.2 0.2 0.2 2.197681446074391e-06 2.197681446074391e-06 2.197681446074391e-06 0.9999912092742157 2.197681446074391e-06 1.265406321969985e-06 1.265406321969985e-06 1.265406321969985e-06 1.265406321969985e-06 0.9999949383747122 0.2 0.2 0.2 0.2 0.2 0.2 0.2 0.2 0.2 0.2 2.661343978709249e-05 2.661343978709249e-05 0.9998935462408517 2.661343978709249e-05 2.661343978709249e-05 1.061835456915761e-07 1.061835456915761e-07 0.001332709681974971 0.9986669717673879 1.061835456915761e-07 4.879381684752908e-07 4.879381684752908e-07 4.879381684752908e-07 4.879381684752908e-07 0.9999980482473261 0.2 0.2 0.2 0.2 0.2 0.2 0.2 0.2 0.2 0.2 0.2 0.2 0.2 0.2 0.2 4.21021431674958e-08 4.21021431674958e-08 4.21021431674958e-08 0.9999998315914274 4.21021431674958e-08 8.623588965255561e-07 8.623588965255561e-07 8.623588965255561e-07 0.01972301032243599 0.9802744026008745</probabilities>
		</cpt>
	</dynamic>
	<extensions>
		<genie version="1.0" app="SMILE_ACADEMIC 1.5.0@a121f1f76773" name="emidas dbn v9" faultnameformat="user">
			<plate leftwidth="120" rightwidth="120">120 50 1164 561</plate>
			<node id="p1_imas">
				<name>p1_imas</name>
				<interior color="e5f6f7" />
				<outline color="000080" />
				<font color="000000" name="MS Sans Serif" size="8" />
				<position>491 462 547 497</position>
			</node>
			<node id="p2_imas">
				<name>p2_imas</name>
				<interior color="e5f6f7" />
				<outline color="000080" />
				<font color="000000" name="MS Sans Serif" size="8" />
				<position>651 472 707 507</position>
			</node>
			<node id="p1_wti">
				<name>p1_wti</name>
				<interior color="e5f6f7" />
				<outline color="000080" />
				<font color="000000" name="MS Sans Serif" size="8" />
				<position>487 311 571 363</position>
			</node>
			<node id="p2_wti">
				<name>p2_wti</name>
				<interior color="e5f6f7" />
				<outline color="000080" />
				<font color="000000" name="MS Sans Serif" size="8" />
				<position>650 301 734 353</position>
			</node>
			<node id="p1_approach">
				<name>p1_approach</name>
				<interior color="e5f6f7" />
				<outline color="000080" />
				<font color="000000" name="MS Sans Serif" size="8" />
				<position>268 135 344 182</position>
			</node>
			<node id="p2_head">
				<name>p2_head</name>
				<interior color="e5f6f7" />
				<outline color="000080" />
				<font color="000000" name="MS Sans Serif" size="8" />
				<position>676 84 733 119</position>
			</node>
			<node id="p1_body">
				<name>p1_body</name>
				<interior color="e5f6f7" />
				<outline color="000080" />
				<font color="000000" name="MS Sans Serif" size="8" />
				<position>404 76 461 111</position>
			</node>
			<node id="p2_approach">
				<name>p2_approach</name>
				<interior color="e5f6f7" />
				<outline color="000080" />
				<font color="000000" name="MS Sans Serif" size="8" />
				<position>924 160 1000 207</position>
			</node>
			<node id="p2_body">
				<name>p2_body</name>
				<interior color="e5f6f7" />
				<outline color="000080" />
				<font color="000000" name="MS Sans Serif" size="8" />
				<position>827 91 884 126</position>
			</node>
			<node id="dist">
				<name>dist</name>
				<interior color="e5f6f7" />
				<outline color="000080" />
				<font color="000000" name="MS Sans Serif" size="8" />
				<position>599 137 637 160</position>
			</node>
			<node id="p1_gesture">
				<name>p1_gesture</name>
				<interior color="e5f6f7" />
				<outline color="000080" />
				<font color="000000" name="MS Sans Serif" size="8" />
				<position>248 271 316 313</position>
			</node>
			<node id="p2_gesture">
				<name>p2_gesture</name>
				<interior color="e5f6f7" />
				<outline color="000080" />
				<font color="000000" name="MS Sans Serif" size="8" />
				<position>964 312 1032 354</position>
			</node>
			<node id="p1_head">
				<name>p1_head</name>
				<interior color="e5f6f7" />
				<outline color="000080" />
				<font color="000000" name="MS Sans Serif" size="8" />
				<position>528 80 585 115</position>
			</node>
		</genie>
	</extensions>
</smile>
