<?xml version="1.0" encoding="ISO-8859-1"?>
<!-- This file was created by ACADEMIC version of SMILE -->
<smile version="1.0" id="Network2" numsamples="10000" discsamples="10000">
	<nodes>
		<cpt id="p1_imas" target="true" dynamic="plate">
			<state id="very_high" />
			<state id="high" />
			<state id="medium" />
			<state id="low" />
			<state id="very_low" />
			<probabilities>0.0672981193089212 0.08681676347759157 0.1684247310093802 0.5093007442965667 0.1681596419075403</probabilities>
		</cpt>
		<cpt id="p2_imas" target="true" dynamic="plate">
			<state id="very_high" />
			<state id="high" />
			<state id="medium" />
			<state id="low" />
			<state id="very_low" />
			<probabilities>0.06764369346917201 0.08775974721851906 0.1679196610828596 0.5073728042997563 0.169304093929693</probabilities>
		</cpt>
		<cpt id="p1_wti" target="true" dynamic="plate">
			<state id="very_high" />
			<state id="high" />
			<state id="medium" />
			<state id="low" />
			<state id="very_low" />
			<parents>p1_imas</parents>
			<probabilities>1 3.500365582438849e-21 3.500365582438849e-21 3.500365582438849e-21 3.500365582438849e-21 0.2649208331671514 0.7350791668328487 9.630967761400974e-22 9.630967761400974e-22 9.630967761400974e-22 0.03187353591072291 0.9618547623398386 0.006271701749438571 6.504045287690807e-23 6.504045287690807e-23 0.02916566151438026 0.4583090982530531 0.2940190209885363 0.2185062192440303 9.106173207645588e-25 3.424914965939253e-23 3.424914965939253e-23 0.01441020208705568 0.32088074068116 0.6647090572317844</probabilities>
		</cpt>
		<cpt id="p2_wti" target="true" dynamic="plate">
			<state id="very_high" />
			<state id="high" />
			<state id="medium" />
			<state id="very_low" />
			<state id="low" />
			<parents>p2_imas</parents>
			<probabilities>1 3.429552186863926e-21 3.429552186863926e-21 3.429552186863926e-21 3.429552186863926e-21 0.2720221915793712 0.7279778084206288 9.247842727380933e-22 9.247842727380933e-22 9.247842727380933e-22 0.03350247040105436 0.9593612784428891 0.007136251156056469 6.605884243022846e-23 6.605884243022846e-23 0.0280562883318659 0.4572627608889171 0.2941862864341536 9.209138419182465e-25 0.2204946643450634 3.368621601151319e-23 3.368621601151319e-23 0.01385415558055058 0.6644881492258404 0.321657695193609</probabilities>
		</cpt>
		<cpt id="p1_approach" dynamic="plate">
			<state id="y" />
			<state id="m" />
			<state id="n" />
			<parents>p1_wti</parents>
			<probabilities>0.75042597547136 0.1696052486337012 0.07996877589493868 0.5236008251169876 0.1644297984713238 0.3119693764116886 0.2719311569044651 0.2419553877048106 0.4861134553907243 0.3412415785713697 0.08936152573520796 0.5693968956934224 0.0005154578820442187 0.03500128577594075 0.964483256342015</probabilities>
		</cpt>
		<cpt id="p2_head" dynamic="plate">
			<state id="central" />
			<state id="mid_peripheral" />
			<state id="outside" />
			<parents>p2_wti</parents>
			<probabilities>1 6.129797257426678e-29 6.129797257426678e-29 0.9984734897199637 0.001408752907940322 0.0001177573720959908 0.9864613576055464 0.01219223345557475 0.001346408938878769 0.1293165140073854 0.1439758183386448 0.7267076676539698 0.4640960040791317 0.2880017861588615 0.2479022097620068</probabilities>
		</cpt>
		<cpt id="p1_body" dynamic="plate">
			<state id="strongly_facing" />
			<state id="slightly_facing" />
			<state id="turned_away" />
			<parents>p1_wti</parents>
			<probabilities>0.3875207891427379 0.5772560218304166 0.03522318902684553 0.2902681746266009 0.5545183407963916 0.1552134845770075 0.09365308333880805 0.5057612356344837 0.4005856810267082 0.0797383958325948 0.7605391367923121 0.1597224673750931 0.001747131267375287 0.2759351915862153 0.7223176771464094</probabilities>
		</cpt>
		<cpt id="p2_approach" dynamic="plate">
			<state id="y" />
			<state id="m" />
			<state id="n" />
			<parents>p2_wti</parents>
			<probabilities>0.7513089537372339 0.1702520184308084 0.07843902783195772 0.5229908383572167 0.1663421112959877 0.3106670503467956 0.2741746381270506 0.2446678944463762 0.4811574674265732 0.0004319195612156882 0.03542382033842224 0.964144260100362 0.3415230667779321 0.09144718763277696 0.567029745589291</probabilities>
		</cpt>
		<cpt id="p2_body" dynamic="plate">
			<state id="strongly_facing" />
			<state id="slightly_facing" />
			<state id="turned_away" />
			<parents>p2_wti</parents>
			<probabilities>0.3909829029631328 0.5729160986494181 0.03610099838744914 0.289050022727822 0.5577079491531902 0.1532420281189877 0.09273804281343825 0.5095636310583579 0.3976983261282039 0.001301162306782526 0.2886564083775538 0.7100424293156636 0.08108231110655327 0.764328168600487 0.1545895202929597</probabilities>
		</cpt>
		<cpt id="dist" dynamic="plate">
			<state id="range_0_3" />
			<state id="range_3_6" />
			<state id="range_6_9" />
			<state id="range_9_12" />
			<state id="range_12_15" />
			<state id="range_15_18" />
			<state id="range_18_21" />
			<state id="range_21_24" />
			<state id="range_24_27" />
			<state id="range_27_30" />
			<state id="range_30_inf" />
			<parents>p1_wti p2_wti</parents>
			<probabilities>0.1111111111111111 0.1111111111111111 0.1111111111111111 0.1111111111111111 0.1111111111111111 0.1111111111111111 0.1111111111111111 0.1111111111111111 0.1111111111111111 0 0 0.04059573036584869 0.1605413656812363 0.2359219744636517 0.255334156599891 0.1850404531575613 0.08316011988121819 0.03434515386953577 0.00506104598105735 2.708370491869632e-29 0 0 1.677973627981287e-23 1.677973627981287e-23 1.677973627981287e-23 0.02097380970260472 0.6779374609827027 0.3010887293146925 1.677973627981287e-23 1.677973627981287e-23 1.677973627981287e-23 0 0 1.492773275180426e-21 1.492773275180426e-21 1.492773275180426e-21 1.492773275180426e-21 0.7258917132306234 0.2741082867693765 1.492773275180426e-21 1.492773275180426e-21 1.492773275180426e-21 0 0 1.121093866346236e-21 1.121093866346236e-21 0.003217906190780603 0.1202529683433329 0.3477384753715702 0.5233716712679858 0.005418978826330614 1.121093866346236e-21 1.121093866346236e-21 0 0 0.04057625726297254 0.1606864433516753 0.2360510172168335 0.2558221691864503 0.186955520317092 0.08117953102111854 0.03380656464200182 0.004922497001855916 2.609026265952104e-29 0 0 0.02497316598633935 0.1024877515189756 0.1789604285155686 0.2564309380748218 0.1768326973157787 0.2136326284342575 0.04558183953367729 0.001100550620581074 1.082236217554561e-30 0 0 0.01151022683994087 0.05311069139847149 0.08170939311123794 0.2674128703069473 0.1044703273740127 0.2238377279669261 0.160074391166383 0.09664856528987857 0.00122580654620184 0 0 3.159076634551424e-24 3.159076634551424e-24 0.0004123254381595194 0.9031602167786087 0.009907407168946362 0.01707027314009642 0.06790355708106442 0.001546220393124676 3.159076634551424e-24 0 0 6.077545732070413e-27 6.077545732070413e-27 0.0005631279434281944 0.148614203466266 0.001203848569820121 0.04785333026197573 0.0771624670601629 0.2292581207575769 0.3282617745872771 0.143200834102536 0.023882293250957 1.585917708534484e-23 1.585917708534484e-23 1.585917708534484e-23 0.0136245541127757 0.6777158874007816 0.3086595584864427 1.585917708534484e-23 1.585917708534484e-23 1.585917708534484e-23 0 0 0.01154025677652979 0.05339009131387785 0.08290952037644413 0.2695296905426075 0.1050049430493095 0.2171298845062914 0.1638928368929514 0.09476209710294033 0.001840679439048048 0 0 3.436219065681711e-27 3.436219065681711e-27 0.002798926597223242 0.1400298278522365 0.08950900893385151 0.2706448384125679 0.1697741663462207 0.04840858562593527 0.05496173975892474 0.2238729064730402 0 2.200100830709508e-25 2.200100830709508e-25 2.200100830709508e-25 0.003468190266530537 0.2411720680211272 0.4980506256145543 0.2382020446191457 0.01910707147864229 2.200100830709508e-25 0 0 5.839052581638125e-25 5.839052581638125e-25 5.839052581638125e-25 0.2368476796792487 0.02852501366714811 0.1539815637048113 0.2412984704548673 0.1910338496782653 0.02349416297875629 0.03718658916773771 0.08763267066916505 1.204668794791656e-21 1.204668794791656e-21 0.0002379620926302215 0.09689221506671043 0.318428974265612 0.5758623151353918 0.008578533439655731 1.204668794791656e-21 1.204668794791656e-21 0 0 6.409584865644672e-27 6.409584865644672e-27 0.001487247747101528 0.1406468300939184 0.001508008798117133 0.05172432504213376 0.07371973778924754 0.2350054332721543 0.328650138658045 0.1442620877837665 0.0229961908155158 6.917193453308805e-25 6.917193453308805e-25 6.917193453308805e-25 0.2364039622815609 0.03052410350711894 0.1581000335631268 0.2247067220317313 0.1920621798813207 0.02634751934679346 0.04016217269179056 0.09169330669655723 4.585342618299619e-24 4.585342618299619e-24 4.585342618299619e-24 0.7985124599958384 0.006292747326476935 0.1300562903375872 0.06513830518010474 1.316095713694414e-07 6.451281679742072e-08 1.03760464243197e-09 0 2.831464927684214e-25 2.831464927684214e-25 0.00190807422744104 0.4036921316061679 0.0130366981563215 0.0738120991104762 0.3074579742925667 0.2000930226070267 2.831464927684214e-25 0 0 1.969802186117298e-21 1.969802186117298e-21 1.969802186117298e-21 1.969802186117298e-21 0.7448362604140223 0.2551637395859777 1.969802186117298e-21 1.969802186117298e-21 1.969802186117298e-21 0 0 2.910740609180005e-24 2.910740609180005e-24 0.0001736913003814474 0.8964233744731188 0.01297281023536185 0.0160014718731722 0.07257594491386754 0.001852707204098092 2.910740609180005e-24 0 0 2.15689543332156e-25 2.15689543332156e-25 2.15689543332156e-25 0.003302472487264245 0.2601422966701447 0.4741951551147014 0.2456317188436862 0.01672835688420337 2.15689543332156e-25 0 0 1.9763637815864e-27 1.9763637815864e-27 1.9763637815864e-27 0.002589536976717725 0.1967359795530497 0.5356792849137888 0.2492184949503742 0.01577657658387784 8.507809432245309e-08 4.194409745966655e-08 0 4.879777775181953e-24 4.879777775181953e-24 4.879777775181953e-24 0.7952703001189799 0.004180898495919878 0.1372091139661687 0.0633394766978301 1.405985902495754e-07 6.969506367248965e-08 4.274475776082125e-10 0</probabilities>
		</cpt>
		<cpt id="p1_gesture" dynamic="plate">
			<state id="wave_slow_shoulder" />
			<state id="wave_fast_shoulder" />
			<state id="wave_small_head" />
			<state id="wave_wide_head" />
			<state id="arm_raise_high" />
			<state id="arm_raise_low" />
			<state id="come_here" />
			<state id="i_am_coming" />
			<state id="None" />
			<parents>p1_wti</parents>
			<probabilities>0.01877176367616025 2.118891466315037e-29 0.001872730651865548 0.01930329778857093 0.02021141655467446 2.118891466315037e-29 0.02666475247881192 0.007174843060812429 0.9060011957891044 1.139410648402111e-31 0.02916986704942261 0.07663945201871615 0.008059221429349785 0.1071591444664751 0.06776645588242931 0.02520846366836631 1.139410638147415e-31 0.6859973954852407 4.487973822041725e-29 4.487973781649962e-29 4.487973781649962e-29 4.487973781649962e-29 0.1279448503574009 0.03895928290649009 4.487973781649962e-29 4.487973781649962e-29 0.833095866736109 4.313224337588923e-28 4.313224298769904e-28 0.05086431220498039 4.313224298769904e-28 4.313224298769904e-28 4.313224298769904e-28 4.313224298769904e-28 4.313224298769904e-28 0.9491356877950196 1.837530864996848e-28 1.837530848459069e-28 1.837530848459069e-28 1.837530848459069e-28 1.837530848459069e-28 1.837530848459069e-28 1.837530848459069e-28 1.837530848459069e-28 1</probabilities>
		</cpt>
		<cpt id="p2_gesture" dynamic="plate">
			<state id="wave_slow_shoulder" />
			<state id="wave_fast_shoulder" />
			<state id="wave_small_head" />
			<state id="wave_wide_head" />
			<state id="arm_raise_high" />
			<state id="arm_raise_low" />
			<state id="come_here" />
			<state id="i_am_coming" />
			<state id="None" />
			<parents>p2_wti</parents>
			<probabilities>0.01851523813487933 2.04326575247556e-29 0.002669156746732774 0.01825431319360626 0.01975543825764097 2.04326575247556e-29 0.02672490907152998 0.008202572401562436 0.9058783721940482 1.155161251779664e-31 0.02936099980837048 0.07778996214470454 0.007729934685241379 0.1061755222176362 0.06833010978017286 0.02473520281228357 1.155161251779664e-31 0.685878268551591 4.536387469837842e-29 4.536387469837842e-29 4.536387469837842e-29 4.536387469837842e-29 0.1291158479425045 0.03967084636396576 4.536387469837842e-29 4.536387469837842e-29 0.8312133056935298 1.825927549409502e-28 1.825927549409502e-28 1.825927549409502e-28 1.825927549409502e-28 1.825927549409502e-28 1.825927549409502e-28 1.825927549409502e-28 1.825927549409502e-28 1 4.133749804959093e-28 4.133749804959093e-28 0.051321839700357 4.133749804959093e-28 4.133749804959093e-28 4.133749804959093e-28 4.133749804959093e-28 4.133749804959093e-28 0.948678160299643</probabilities>
		</cpt>
		<cpt id="p1_head" dynamic="plate">
			<state id="central" />
			<state id="mid_peripheral" />
			<state id="outside" />
			<parents>p1_wti</parents>
			<probabilities>1 6.356674462511853e-29 6.356674462511853e-29 0.9984696782069626 0.001381126748338041 0.0001491950446992747 0.9868637620497492 0.01162035729513664 0.001515880655114121 0.4640246570991036 0.2914965418724819 0.2444788010284145 0.1295460957366526 0.135869651352772 0.7345842529105754</probabilities>
		</cpt>
	</nodes>
	<dynamic numslices="40">
		<cpt id="p1_imas" order="1">
			<parents>p1_imas</parents>
			<probabilities>1 2.792127865267975e-28 2.792127865267975e-28 2.792127865267975e-28 2.792127865267975e-28 0.001289038668129052 0.9987109613318709 1.012777764348182e-28 1.012777764348182e-28 1.012777764348182e-28 0.005121372248254577 0.00467051548957549 0.9882322703147943 0.001975841947375558 1.892823915824088e-29 0.001571884158095387 0.002300348198809159 0.004904909429775908 0.9912228582083837 4.935801860873231e-12 1.514216335255382e-28 1.514216335255382e-28 4.539105842360125e-06 0.05105084557091394 0.9489446153232437</probabilities>
		</cpt>
		<cpt id="p2_imas" order="1">
			<parents>p2_imas</parents>
			<probabilities>1 2.753745524752405e-28 2.753745524752405e-28 2.753745524752405e-28 2.753745524752405e-28 0.001282158119398512 0.9987178418806014 9.75255564801271e-29 9.75255564801271e-29 9.75255564801271e-29 0.005126295354983867 0.004693339729980624 0.9881638128151379 0.002016552099897754 1.895104406739139e-29 0.001578378421856859 0.00232885601039861 0.005006574123269171 0.9910861914395035 4.971887976880657e-12 1.500297652141759e-28 1.500297652141759e-28 1.500297652141759e-28 0.05118962132954756 0.9488103786704524</probabilities>
		</cpt>
		<cpt id="p1_wti" order="1">
			<parents>p2_imas p1_wti</parents>
			<probabilities>0.2 0.2 0.2 0.2 0.2 0.2 0.2 0.2 0.2 0.2 0.2 0.2 0.2 0.2 0.2 0.2 0.2 0.2 0.2 0.2 0.2 0.2 0.2 0.2 0.2 0.2 0.2 0.2 0.2 0.2 0.2 0.2 0.2 0.2 0.2 0.2 0.2 0.2 0.2 0.2 0.2 0.2 0.2 0.2 0.2 0.2 0.2 0.2 0.2 0.2 0.2 0.2 0.2 0.2 0.2 0.2 0.2 0.2 0.2 0.2 0.2 0.2 0.2 0.2 0.2 0.2 0.2 0.2 0.2 0.2 0.2 0.2 0.2 0.2 0.2 1 2.822285812722735e-28 2.822285812722735e-28 2.822285812722735e-28 2.822285812722735e-28 1 1.785828450809748e-19 1.785828450809748e-19 1.785828450809748e-19 1.785828450809748e-19 1 4.969173795920125e-19 4.969173795920125e-19 4.969173795920125e-19 4.969173795920125e-19 1 4.058836105973261e-18 4.058836105973261e-18 4.058836105973261e-18 4.058836105973261e-18 0.2 0.2 0.2 0.2 0.2 1 1.878507181889954e-19 1.878507181889954e-19 1.878507181889954e-19 1.878507181889954e-19 0.9999999999717817 7.05451245344384e-12 7.05451245344384e-12 7.05451245344384e-12 7.05451245344384e-12 0.2 0.2 0.2 0.2 0.2 0.2 0.2 0.2 0.2 0.2 0.2 0.2 0.2 0.2 0.2 0.2 0.2 0.2 0.2 0.2 0.2 0.2 0.2 0.2 0.2 0.2 0.2 0.2 0.2 0.2 0.2 0.2 0.2 0.2 0.2 0.2 0.2 0.2 0.2 0.2 0.2 0.2 0.2 0.2 0.2 0.2 0.2 0.2 0.2 0.2 0.2 0.2 0.2 0.2 0.2 0.2 0.2 0.2 0.2 0.2 0.2 0.2 0.2 0.2 0.2 0.2 0.2 0.2 0.2 0.2 1.898222002549708e-25 1 1.898222002549708e-25 1.898222002549708e-25 1.898222002549708e-25 3.974940905636074e-18 1 3.974940905636074e-18 3.974940905636074e-18 3.974940905636074e-18 0.2 0.2 0.2 0.2 0.2 0.2 0.2 0.2 0.2 0.2 1 2.648506273948496e-26 2.648506273948496e-26 2.648506273948496e-26 2.648506273948496e-26 0.00488624467266281 0.9951137553273371 8.773567873335791e-28 8.773567873335791e-28 8.773567873335791e-28 0.2302511193303516 0.7697488806696484 5.649667787308106e-19 5.649667787308106e-19 5.649667787308106e-19 1.591456141136585e-16 0.9999999999999993 1.591456141136585e-16 1.591456141136585e-16 1.591456141136585e-16 0.2 0.2 0.2 0.2 0.2 1 4.423212394571444e-22 4.423212394571444e-22 4.423212394571444e-22 4.423212394571444e-22 0.009143623571932687 0.99085637642806 2.457741008756811e-15 2.457741008756811e-15 2.457741008756811e-15 1 3.142209505461987e-17 3.142209505461987e-17 3.142209505461987e-17 3.142209505461987e-17 4.389975469101551e-12 0.99999999998244 4.389975469101551e-12 4.389975469101551e-12 4.389975469101551e-12 0.2 0.2 0.2 0.2 0.2 0.2 0.2 0.2 0.2 0.2 0.2 0.2 0.2 0.2 0.2 0.2 0.2 0.2 0.2 0.2 0.2 0.2 0.2 0.2 0.2 0.2 0.2 0.2 0.2 0.2 0.2 0.2 0.2 0.2 0.2 1.920895416574895e-25 1 1.920895416574895e-25 1.920895416574895e-25 1.920895416574895e-25 0.2 0.2 0.2 0.2 0.2 0.2 0.2 0.2 0.2 0.2 0.2 0.2 0.2 0.2 0.2 0.2 0.2 0.2 0.2 0.2 1.065629232258268e-26 1 1.065629232258268e-26 1.065629232258268e-26 1.065629232258268e-26 4.801660559750912e-17 0.9854874720913201 0.01451252790867988 4.801660559750912e-17 4.801660559750912e-17 8.931015916524187e-13 0.8910891092142007 0.1089108907831199 8.931015916524187e-13 8.931015916524187e-13 0.2 0.2 0.2 0.2 0.2 1 2.336714750818927e-22 2.336714750818927e-22 2.336714750818927e-22 2.336714750818927e-22 1.187864270121519e-28 1 1.187864270121519e-28 1.187864270121519e-28 1.187864270121519e-28 0.01882048919249186 0.4405436807628363 0.5406358300446718 4.381944462568182e-21 4.381944462568182e-21 0.03580747048935061 0.8022177972299627 0.1619747322806867 5.013616142075879e-19 5.013616142075879e-19 1.25e-06 0.9999949999999999 1.25e-06 1.25e-06 1.25e-06 1 7.888742911526467e-20 7.888742911526467e-20 7.888742911526467e-20 7.888742911526467e-20 3.380770547518289e-23 1 3.380770547518289e-23 3.380770547518289e-23 3.380770547518289e-23 0.2672404744410622 0.7327595255589378 1.517030048821955e-18 1.517030048821955e-18 1.517030048821955e-18 5.423458784760647e-19 1 5.423458784760647e-19 5.423458784760647e-19 5.423458784760647e-19 0.2 0.2 0.2 0.2 0.2 0.2 0.2 0.2 0.2 0.2 2.853123863266005e-28 1 2.853123863266005e-28 2.853123863266005e-28 2.853123863266005e-28 2.020988041200738e-17 0.6573836583857952 0.3426163416142048 2.020988041200738e-17 2.020988041200738e-17 1.503470299797481e-17 0.186205313878476 0.004475813378280817 0.8093188727432431 1.503470299797481e-17 0.2 0.2 0.2 0.2 0.2 1 3.76952160637441e-25 3.76952160637441e-25 3.76952160637441e-25 3.76952160637441e-25 1.165315207965215e-27 1 1.165315207965215e-27 1.165315207965215e-27 1.165315207965215e-27 0.006005922942736349 0.01155914275914494 0.9824349342981187 1.464722580733342e-25 1.464722580733342e-25 9.109254971423633e-13 9.109254971423633e-13 0.9999999999963562 9.109254971423633e-13 9.109254971423633e-13 1.921960688965632e-09 1.921960688965632e-09 0.9999999923121572 1.921960688965632e-09 1.921960688965632e-09 0.9999999999999973 6.728378785892119e-16 6.728378785892119e-16 6.728378785892119e-16 6.728378785892119e-16 4.196243609885427e-28 1 4.196243609885427e-28 4.196243609885427e-28 4.196243609885427e-28 1.285296887159675e-25 0.08082739977737788 0.9191726002226221 1.285296887159675e-25 1.285296887159675e-25 3.010215670714845e-25 0.02404653444825294 0.03994573377829217 0.936007731773455 3.010215670714845e-25 2.43906420578145e-18 2.43906420578145e-18 1 2.43906420578145e-18 2.43906420578145e-18 1 7.076364991269243e-20 7.076364991269243e-20 7.076364991269243e-20 7.076364991269243e-20 2.002608712810981e-26 0.9943917189636892 0.005608281036310844 2.002608712810981e-26 2.002608712810981e-26 0.0003369305150505317 0.0104188310917157 0.9892442383932338 1.503156995154304e-27 1.503156995154304e-27 3.54218287584951e-26 0.001713369018103749 0.04240762557354336 0.9558790054083529 3.54218287584951e-26 3.455715649566087e-20 3.455715649566087e-20 0.9995124146727392 0.0004875853272608349 3.455715649566087e-20 0.2 0.2 0.2 0.2 0.2 5.444441242759171e-23 1 5.444441242759171e-23 5.444441242759171e-23 5.444441242759171e-23 2.344664985153365e-25 0.009911465569541143 0.9900885344304589 2.344664985153365e-25 2.344664985153365e-25 1.926329079522673e-24 0.01404167519183693 0.002896619936257172 0.9830617048719059 1.926329079522673e-24 2.638901451214684e-20 2.638901451214684e-20 0.8073772612619895 0.1926227387380104 2.638901451214684e-20 0.2 0.2 0.2 0.2 0.2 0.2 0.2 0.2 0.2 0.2 8.36297454008945e-19 8.36297454008945e-19 1 8.36297454008945e-19 8.36297454008945e-19 1.772873739537409e-10 1.772873739537409e-10 1.772873739537409e-10 0.9999999992908504 1.772873739537409e-10 0.2 0.2 0.2 0.2 0.2 0.2 0.2 0.2 0.2 0.2 0.2 0.2 0.2 0.2 0.2 2.025399707161821e-21 2.025399707161821e-21 1 2.025399707161821e-21 2.025399707161821e-21 6.034137255891637e-14 6.034137255891637e-14 6.034137255891637e-14 0.9999999999997586 6.034137255891637e-14 3.185449492570003e-20 3.185449492570003e-20 0.1456968195620905 3.185449492570003e-20 0.8543031804379095 0.2 0.2 0.2 0.2 0.2 0.2 0.2 0.2 0.2 0.2 0.2 0.2 0.2 0.2 0.2 2.866637041542904e-22 2.866637041542904e-22 2.866637041542904e-22 1 2.866637041542904e-22 3.487496290564937e-21 3.487496290564937e-21 3.487496290564937e-21 3.487496290564937e-21 1 0.2 0.2 0.2 0.2 0.2 0.2 0.2 0.2 0.2 0.2 5.689556443929456e-16 5.689556443929456e-16 0.9999999999999977 5.689556443929456e-16 5.689556443929456e-16 2.805583672967857e-24 2.805583672967857e-24 2.805583672967857e-24 1 2.805583672967857e-24 3.918142961317705e-26 3.918142961317705e-26 0.001032654493681738 3.918142961317705e-26 0.9989673455063183 0.2 0.2 0.2 0.2 0.2 0.2 0.2 0.2 0.2 0.2 0.2 0.2 0.2 0.2 0.2 3.964373077229378e-22 3.964373077229378e-22 3.964373077229378e-22 0.9999999319355172 6.806448278288916e-08 2.913516914681716e-27 2.913516914681716e-27 2.913516914681716e-27 2.913516914681716e-27 1</probabilities>
		</cpt>
		<cpt id="p2_wti" order="1">
			<parents>p1_imas p2_wti</parents>
			<probabilities>0.2 0.2 0.2 0.2 0.2 0.2 0.2 0.2 0.2 0.2 0.2 0.2 0.2 0.2 0.2 0.2 0.2 0.2 0.2 0.2 0.2 0.2 0.2 0.2 0.2 0.2 0.2 0.2 0.2 0.2 0.2 0.2 0.2 0.2 0.2 0.2 0.2 0.2 0.2 0.2 0.2 0.2 0.2 0.2 0.2 0.2 0.2 0.2 0.2 0.2 0.2 0.2 0.2 0.2 0.2 0.2 0.2 0.2 0.2 0.2 0.2 0.2 0.2 0.2 0.2 0.2 0.2 0.2 0.2 0.2 0.2 0.2 0.2 0.2 0.2 1 2.789001242986466e-28 2.789001242986466e-28 2.789001242986466e-28 2.789001242986466e-28 1 1.759622848321171e-19 1.759622848321171e-19 1.759622848321171e-19 1.759622848321171e-19 1 5.001658922360682e-19 5.001658922360682e-19 5.001658922360682e-19 5.001658922360682e-19 0.2 0.2 0.2 0.2 0.2 1 4.016614717533122e-18 4.016614717533122e-18 4.016614717533122e-18 4.016614717533122e-18 1 1.376310025230308e-19 1.376310025230308e-19 1.376310025230308e-19 1.376310025230308e-19 0.9999999978832228 5.291942342795846e-10 5.291942342795846e-10 5.291942342795846e-10 5.291942342795846e-10 0.2 0.2 0.2 0.2 0.2 0.2 0.2 0.2 0.2 0.2 0.2 0.2 0.2 0.2 0.2 0.2 0.2 0.2 0.2 0.2 0.2 0.2 0.2 0.2 0.2 0.2 0.2 0.2 0.2 0.2 0.2 0.2 0.2 0.2 0.2 0.2 0.2 0.2 0.2 0.2 0.2 0.2 0.2 0.2 0.2 0.2 0.2 0.2 0.2 0.2 0.2 0.2 0.2 0.2 0.2 0.2 0.2 0.2 0.2 0.2 0.2 0.2 0.2 0.2 0.2 0.2 0.2 0.2 0.2 0.2 1.920895416574895e-25 1 1.920895416574895e-25 1.920895416574895e-25 1.920895416574895e-25 3.974940905636074e-18 1 3.974940905636074e-18 3.974940905636074e-18 3.974940905636074e-18 0.2 0.2 0.2 0.2 0.2 0.2 0.2 0.2 0.2 0.2 1 2.263697946688117e-26 2.263697946688117e-26 2.263697946688117e-26 2.263697946688117e-26 0.004922906514774547 0.9950770934852254 8.780022013036329e-28 8.780022013036329e-28 8.780022013036329e-28 0.2483114517720301 0.75168854822797 5.077136602711446e-19 5.077136602711446e-19 5.077136602711446e-19 0.2 0.2 0.2 0.2 0.2 1.592525757928985e-16 0.9999999999999993 1.592525757928985e-16 1.592525757928985e-16 1.592525757928985e-16 1 4.238660564453732e-22 4.238660564453732e-22 4.238660564453732e-22 4.238660564453732e-22 0.01642835751563913 0.9835716424843443 5.532400553966971e-15 5.532400553966971e-15 5.532400553966971e-15 1 3.045607696140459e-17 3.045607696140459e-17 3.045607696140459e-17 3.045607696140459e-17 0.2 0.2 0.2 0.2 0.2 1.055685015560878e-11 0.9999999999577729 1.055685015560878e-11 1.055685015560878e-11 1.055685015560878e-11 0.2 0.2 0.2 0.2 0.2 0.2 0.2 0.2 0.2 0.2 0.2 0.2 0.2 0.2 0.2 0.2 0.2 0.2 0.2 0.2 0.2 0.2 0.2 0.2 0.2 0.2 0.2 0.2 0.2 0.2 1.898222002549708e-25 1 1.898222002549708e-25 1.898222002549708e-25 1.898222002549708e-25 0.2 0.2 0.2 0.2 0.2 0.2 0.2 0.2 0.2 0.2 0.2 0.2 0.2 0.2 0.2 0.9999875000000003 3.125e-06 3.125e-06 3.125e-06 3.125e-06 1.065629232258268e-26 1 1.065629232258268e-26 1.065629232258268e-26 1.065629232258268e-26 3.737284051338863e-17 1 3.737284051338863e-17 3.737284051338863e-17 3.737284051338863e-17 0.2 0.2 0.2 0.2 0.2 4.40207428690581e-13 0.9999999999982392 4.40207428690581e-13 4.40207428690581e-13 4.40207428690581e-13 1 1.831662598988467e-22 1.831662598988467e-22 1.831662598988467e-22 1.831662598988467e-22 1.191303859743236e-28 1 1.191303859743236e-28 1.191303859743236e-28 1.191303859743236e-28 0.01642781266889061 0.4067723960565799 0.5767997912745294 3.56264162614122e-21 3.56264162614122e-21 0.2 0.2 0.2 0.2 0.2 0.03638139038081058 0.8125807162200667 0.1510378933991227 3.551483886725219e-19 3.551483886725219e-19 1 1.316753864675141e-19 1.316753864675141e-19 1.316753864675141e-19 1.316753864675141e-19 4.076264308048184e-23 1 4.076264308048184e-23 4.076264308048184e-23 4.076264308048184e-23 0.2676798690001023 0.7323201309998976 1.371087171990745e-18 1.371087171990745e-18 1.371087171990745e-18 0.2 0.2 0.2 0.2 0.2 6.323271244918746e-19 1 6.323271244918746e-19 6.323271244918746e-19 6.323271244918746e-19 0.2 0.2 0.2 0.2 0.2 2.902795583436131e-28 1 2.902795583436131e-28 2.902795583436131e-28 2.902795583436131e-28 1.143278741190569e-17 0.5256625049177042 0.4743374950822958 1.143278741190569e-17 1.143278741190569e-17 7.812500000000001e-08 7.812500000000001e-08 0.9999996875000001 7.812500000000001e-08 7.812500000000001e-08 4.291396406107173e-18 0.1795835220356673 0.00692621094099393 4.291396406107173e-18 0.8134902670233388 1 4.018626140474545e-25 4.018626140474545e-25 4.018626140474545e-25 4.018626140474545e-25 1.228082853116745e-27 1 1.228082853116745e-27 1.228082853116745e-27 1.228082853116745e-27 0.006166601699972176 0.01153512912361227 0.9822982691764156 1.47597011129584e-25 1.47597011129584e-25 8.537668192063387e-07 8.537668192063387e-07 0.9999965849327233 8.537668192063387e-07 8.537668192063387e-07 6.23126484979207e-13 6.23126484979207e-13 0.9999999999975074 6.23126484979207e-13 6.23126484979207e-13 0.999999999999996 9.811746447664115e-16 9.811746447664115e-16 9.811746447664115e-16 9.811746447664115e-16 4.1973454863281e-28 1 4.1973454863281e-28 4.1973454863281e-28 4.1973454863281e-28 1.274884525469878e-25 0.080579689220795 0.9194203107792051 1.274884525469878e-25 1.274884525469878e-25 2.78915154893991e-18 2.78915154893991e-18 1 2.78915154893991e-18 2.78915154893991e-18 3.12505115721003e-25 0.02368428102245281 0.04119434011797633 3.12505115721003e-25 0.9351213788595709 1 6.284197499513727e-20 6.284197499513727e-20 6.284197499513727e-20 6.284197499513727e-20 2.053900536469172e-26 0.9941868657034553 0.005813134296544709 2.053900536469172e-26 2.053900536469172e-26 0.0003594529619377507 0.01028228670753703 0.9893582603305252 1.546527609222907e-27 1.546527609222907e-27 3.229026361444129e-20 3.229026361444129e-20 1 3.229026361444129e-20 3.229026361444129e-20 3.299309570982303e-26 0.001661962120637618 0.04116048419010503 3.299309570982303e-26 0.9571775536892574 0.2 0.2 0.2 0.2 0.2 4.032049684915579e-23 1 4.032049684915579e-23 4.032049684915579e-23 4.032049684915579e-23 2.349927932176099e-25 0.009852838364393325 0.9901471616356067 2.349927932176099e-25 2.349927932176099e-25 2.447811353502502e-20 2.447811353502502e-20 0.8027866552247171 2.447811353502502e-20 0.1972133447752829 1.807207910604178e-24 0.0139854150557132 0.002953621340805236 1.807207910604178e-24 0.9830609636034815 0.2 0.2 0.2 0.2 0.2 0.2 0.2 0.2 0.2 0.2 1.191286755962839e-18 1.191286755962839e-18 1 1.191286755962839e-18 1.191286755962839e-18 1.302744780283109e-11 1.302744780283109e-11 0.5555555555323957 0.444444444428522 1.302744780283109e-11 4.121536225382179e-11 4.121536225382179e-11 4.121536225382179e-11 4.121536225382179e-11 0.9999999998351385 0.2 0.2 0.2 0.2 0.2 0.2 0.2 0.2 0.2 0.2 2.395411604970647e-21 2.395411604970647e-21 1 2.395411604970647e-21 2.395411604970647e-21 2.940130208219905e-20 2.940130208219905e-20 0.1313517006403102 0.8686482993596898 2.940130208219905e-20 1.72839209320708e-14 1.72839209320708e-14 1.72839209320708e-14 1.72839209320708e-14 0.9999999999999309 0.2 0.2 0.2 0.2 0.2 0.2 0.2 0.2 0.2 0.2 0.2 0.2 0.2 0.2 0.2 3.134341692092483e-21 3.134341692092483e-21 3.134341692092483e-21 1 3.134341692092483e-21 2.084381126232588e-22 2.084381126232588e-22 2.084381126232588e-22 2.084381126232588e-22 1 0.2 0.2 0.2 0.2 0.2 0.2 0.2 0.2 0.2 0.2 1.536029186342448e-16 1.536029186342448e-16 0.9999999999999994 1.536029186342448e-16 1.536029186342448e-16 3.946995093194318e-26 3.946995093194318e-26 0.001247599940654236 0.9987524000593457 3.946995093194318e-26 2.903917268286252e-24 2.903917268286252e-24 2.903917268286252e-24 2.903917268286252e-24 1 0.2 0.2 0.2 0.2 0.2 0.2 0.2 0.2 0.2 0.2 0.2 0.2 0.2 0.2 0.2 2.889455782079127e-27 2.889455782079127e-27 2.889455782079127e-27 1 2.889455782079127e-27 4.227545832417103e-22 4.227545832417103e-22 4.227545832417103e-22 7.229379864071317e-08 0.9999999277062014</probabilities>
		</cpt>
	</dynamic>
	<extensions>
		<genie version="1.0" app="SMILE_ACADEMIC 1.5.0@a121f1f76773" name="emidas dbn v9" faultnameformat="user">
			<plate leftwidth="120" rightwidth="120">120 50 1164 561</plate>
			<node id="p1_imas">
				<name>p1_imas</name>
				<interior color="e5f6f7" />
				<outline color="000080" />
				<font color="000000" name="MS Sans Serif" size="8" />
				<position>491 462 547 497</position>
			</node>
			<node id="p2_imas">
				<name>p2_imas</name>
				<interior color="e5f6f7" />
				<outline color="000080" />
				<font color="000000" name="MS Sans Serif" size="8" />
				<position>651 472 707 507</position>
			</node>
			<node id="p1_wti">
				<name>p1_wti</name>
				<interior color="e5f6f7" />
				<outline color="000080" />
				<font color="000000" name="MS Sans Serif" size="8" />
				<position>487 311 571 363</position>
			</node>
			<node id="p2_wti">
				<name>p2_wti</name>
				<interior color="e5f6f7" />
				<outline color="000080" />
				<font color="000000" name="MS Sans Serif" size="8" />
				<position>650 301 734 353</position>
			</node>
			<node id="p1_approach">
				<name>p1_approach</name>
				<interior color="e5f6f7" />
				<outline color="000080" />
				<font color="000000" name="MS Sans Serif" size="8" />
				<position>268 135 344 182</position>
			</node>
			<node id="p2_head">
				<name>p2_head</name>
				<interior color="e5f6f7" />
				<outline color="000080" />
				<font color="000000" name="MS Sans Serif" size="8" />
				<position>676 84 733 119</position>
			</node>
			<node id="p1_body">
				<name>p1_body</name>
				<interior color="e5f6f7" />
				<outline color="000080" />
				<font color="000000" name="MS Sans Serif" size="8" />
				<position>404 76 461 111</position>
			</node>
			<node id="p2_approach">
				<name>p2_approach</name>
				<interior color="e5f6f7" />
				<outline color="000080" />
				<font color="000000" name="MS Sans Serif" size="8" />
				<position>924 160 1000 207</position>
			</node>
			<node id="p2_body">
				<name>p2_body</name>
				<interior color="e5f6f7" />
				<outline color="000080" />
				<font color="000000" name="MS Sans Serif" size="8" />
				<position>827 91 884 126</position>
			</node>
			<node id="dist">
				<name>dist</name>
				<interior color="e5f6f7" />
				<outline color="000080" />
				<font color="000000" name="MS Sans Serif" size="8" />
				<position>599 137 637 160</position>
			</node>
			<node id="p1_gesture">
				<name>p1_gesture</name>
				<interior color="e5f6f7" />
				<outline color="000080" />
				<font color="000000" name="MS Sans Serif" size="8" />
				<position>248 271 316 313</position>
			</node>
			<node id="p2_gesture">
				<name>p2_gesture</name>
				<interior color="e5f6f7" />
				<outline color="000080" />
				<font color="000000" name="MS Sans Serif" size="8" />
				<position>964 312 1032 354</position>
			</node>
			<node id="p1_head">
				<name>p1_head</name>
				<interior color="e5f6f7" />
				<outline color="000080" />
				<font color="000000" name="MS Sans Serif" size="8" />
				<position>528 80 585 115</position>
			</node>
		</genie>
	</extensions>
</smile>
