<?xml version="1.0" encoding="ISO-8859-1"?>
<!-- This file was created by ACADEMIC version of SMILE -->
<smile version="1.0" id="Network2" numsamples="10000" discsamples="10000">
	<nodes>
		<cpt id="p1_imas" target="true" dynamic="plate">
			<state id="very_high" />
			<state id="high" />
			<state id="medium" />
			<state id="low" />
			<state id="very_low" />
			<probabilities>0.09182047357290826 0.1085265849391002 0.1665336875558186 0.4627519837607466 0.1703672701714263</probabilities>
		</cpt>
		<cpt id="p2_imas" target="true" dynamic="plate">
			<state id="very_high" />
			<state id="high" />
			<state id="medium" />
			<state id="low" />
			<state id="very_low" />
			<probabilities>0.09207446898762262 0.1095127452739628 0.1660544897288676 0.4612095014851533 0.1711487945243936</probabilities>
		</cpt>
		<cpt id="p1_wti" dynamic="plate">
			<state id="very_high" />
			<state id="high" />
			<state id="medium" />
			<state id="low" />
			<state id="very_low" />
			<parents>p1_imas</parents>
			<probabilities>0.9999955203153695 1.119921157550508e-06 1.119921157550508e-06 1.119921157550508e-06 1.119921157550508e-06 0.2599452329966457 0.7400519244253253 9.47526009588963e-07 9.47526009588963e-07 9.47526009588963e-07 0.02369348091202395 0.9716426619737877 0.004662622146065854 6.174840611926704e-07 6.174840611926704e-07 0.03742626511780359 0.5742550957484042 0.208162308405971 0.1801561085093026 2.222185185802459e-07 6.035895470362244e-07 6.035895470362244e-07 0.01045477454421444 0.229292200717668 0.7602518175590236</probabilities>
		</cpt>
		<cpt id="p2_wti" dynamic="plate">
			<state id="very_high" />
			<state id="high" />
			<state id="medium" />
			<state id="very_low" />
			<state id="low" />
			<parents>p2_imas</parents>
			<probabilities>0.9999955326729132 1.116831771630239e-06 1.116831771630239e-06 1.116831771630239e-06 1.116831771630239e-06 0.2672666835685512 0.7327304994506886 9.389935866738028e-07 9.389935866738028e-07 9.389935866738028e-07 0.02490130448379535 0.9697928245650429 0.005304632419193529 6.192659840291302e-07 6.192659840291302e-07 0.03666516167511134 0.5734421386487406 0.2081372106375033 2.22961711900024e-07 0.181755266076933 6.008333558645842e-07 6.008333558645842e-07 0.01007357204442562 0.7596522376536257 0.2302729886352371</probabilities>
		</cpt>
		<cpt id="p1_approach" dynamic="plate">
			<state id="y" />
			<state id="m" />
			<state id="n" />
			<parents>p1_wti</parents>
			<probabilities>0.7524568338505735 0.1624416249334895 0.08510154121593692 0.5053025695361099 0.1549350724960251 0.339762357967865 0.3116484497954674 0.2920634717787146 0.3962880784258181 0.2411600704170845 0.06698845100528787 0.6918514785776275 0.0001671041250553962 0.01134448083340583 0.9884884150415388</probabilities>
		</cpt>
		<cpt id="p2_head" dynamic="plate">
			<state id="central" />
			<state id="mid_peripheral" />
			<state id="outside" />
			<parents>p2_wti</parents>
			<probabilities>0.9999997734014034 1.132992982241468e-07 1.132992982241468e-07 0.9960037748467147 0.003620040235458456 0.0003761849178267937 0.952697211414268 0.04182762878081825 0.005475159804913829 0.04196914048799766 0.2179939202634309 0.7400369392485714 0.3422055985068731 0.3715913606150339 0.2862030408780931</probabilities>
		</cpt>
		<cpt id="p1_body" dynamic="plate">
			<state id="strongly_facing" />
			<state id="slightly_facing" />
			<state id="turned_away" />
			<parents>p1_wti</parents>
			<probabilities>0.3994770507489135 0.5689064423237216 0.03161650692736486 0.3232283722681967 0.5304166383297938 0.1463549894020095 0.1384427188691358 0.6123538199697093 0.2492034611611549 0.07979691686469415 0.7351352597576902 0.1850678233776157 0.003181568810432453 0.3803442198522044 0.6164742113373631</probabilities>
		</cpt>
		<cpt id="p2_approach" dynamic="plate">
			<state id="y" />
			<state id="m" />
			<state id="n" />
			<parents>p2_wti</parents>
			<probabilities>0.753109159341867 0.1626011479484896 0.08428969270964334 0.5045853498105883 0.1565499274498206 0.338864722739591 0.3141757929715213 0.293763313367177 0.3920608936613017 0.0001401445632732287 0.01148441675580648 0.9883754386809204 0.2396165387443658 0.06763365563574843 0.6927498056198858</probabilities>
		</cpt>
		<cpt id="p2_body" dynamic="plate">
			<state id="strongly_facing" />
			<state id="slightly_facing" />
			<state id="turned_away" />
			<parents>p2_wti</parents>
			<probabilities>0.4032583745176282 0.5643217110913215 0.03241991439105026 0.3220108947808037 0.5331667385411034 0.1448223666780928 0.1379268845229798 0.6167172719269433 0.245355843550077 0.002836870124197833 0.3857618373666822 0.6114012925091199 0.08112495131303217 0.7371278031475768 0.1817472455393911</probabilities>
		</cpt>
		<cpt id="dist" dynamic="plate">
			<state id="range_0_3" />
			<state id="range_3_6" />
			<state id="range_6_9" />
			<state id="range_9_12" />
			<state id="range_12_15" />
			<state id="range_15_18" />
			<state id="range_18_21" />
			<state id="range_21_24" />
			<state id="range_24_27" />
			<state id="range_27_30" />
			<state id="range_30_inf" />
			<parents>p1_wti p2_wti</parents>
			<probabilities>0.1111111111111111 0.1111111111111111 0.1111111111111111 0.1111111111111111 0.1111111111111111 0.1111111111111111 0.1111111111111111 0.1111111111111111 0.1111111111111111 0 0 0.110585434800577 0.2265508689159268 0.212992792352543 0.2045513334371239 0.1467445329482534 0.0676418632557976 0.02696183610920782 0.003971297920456402 4.026011415594329e-08 0 0 1.426494859625773e-06 1.426494859625773e-06 1.426494859625773e-06 0.02067133701083709 0.6715809414580776 0.3077391625619277 1.426494859625773e-06 1.426494859625773e-06 1.426494859625773e-06 0 0 4.362259475918147e-06 4.362259475918147e-06 4.362259475918147e-06 4.362259475918147e-06 0.7251427549413496 0.2748267092423192 4.362259475918147e-06 4.362259475918147e-06 4.362259475918147e-06 0 0 1.97882655585238e-06 1.97882655585238e-06 0.002851489066983279 0.08709013554961909 0.260375977045612 0.6371880874641338 0.01248639556742852 1.97882655585238e-06 1.97882655585238e-06 0 0 0.1104524760784116 0.227005122419669 0.2129917087851692 0.2048269502834167 0.1483923695125011 0.0659290273735428 0.02653909870377671 0.003863206914138549 3.992937451952485e-08 0 0 0.06770569339497483 0.1527067039507284 0.1723277932517622 0.2155934583839454 0.1659195686290725 0.1842768126657092 0.04058515274330949 0.0008847977042794843 1.927621847627469e-08 0 0 0.03572790768328448 0.0812823361505262 0.07714761135144223 0.2504425867283899 0.08965512417372151 0.2182639514132552 0.1631429979440537 0.08326833438783397 0.001069150167492714 0 0 5.076835364829003e-07 5.076835364829003e-07 0.0003660398298041711 0.8888376128517038 0.01343381405887402 0.03381680036512599 0.0621729566118419 0.001371253232040313 5.076835364829003e-07 0 0 1.49332253362477e-07 1.49332253362477e-07 0.000483985833147788 0.1359743339669501 0.0009678223340422135 0.04359919402396215 0.09447863406385178 0.1741570978292018 0.2992651210479779 0.1922604975720816 0.05881301466427795 1.417757985876295e-06 1.417757985876295e-06 1.417757985876295e-06 0.01339923072451687 0.6697644678658065 0.3168277948617615 1.417757985876295e-06 1.417757985876295e-06 1.417757985876295e-06 0 0 0.03608182367908661 0.08196850375899152 0.07850468060308237 0.2525971026820226 0.08992308865677043 0.2109486388409132 0.1663701684048952 0.08199004792513055 0.001615945449107426 0 0 3.044865792972875e-07 3.044865792972875e-07 3.044865792972875e-07 0.1167185359554499 0.1130409470506973 0.4894594358411761 0.2726954400394371 0.008084423166922282 3.044865792972875e-07 0 0 4.125203217823517e-07 4.125203217823517e-07 4.125203217823517e-07 0.006308260760695722 0.2691921985806825 0.5090500770794221 0.2002996547617427 0.01514815873616974 4.125203217823517e-07 0 0 3.368013771134707e-07 3.368013771134707e-07 3.368013771134707e-07 0.2347040812580475 0.0006672035280617856 0.1374900685693924 0.2046768912828731 0.1548073849764357 0.04446822262166866 0.05337055662153192 0.1698145807378577 1.938435295029852e-06 1.938435295029852e-06 0.0001763976118477165 0.07153020082189658 0.2367430410172909 0.6713208498100334 0.02022175699775142 1.938435295029852e-06 1.938435295029852e-06 0 0 1.519183566444456e-07 1.519183566444456e-07 0.001203345302980653 0.1291383509839676 0.001244363259274654 0.04665124087673299 0.08814363819853389 0.1806076825416792 0.3006057136797771 0.1952263302465042 0.05717903107383642 3.470411101428664e-07 3.470411101428664e-07 3.470411101428664e-07 0.2328538266314489 0.001905602735794479 0.1409955151877336 0.191281772047435 0.1511870714692992 0.04956510543282447 0.05649551640237751 0.1757145489697564 3.308975961282333e-07 3.308975961282333e-07 3.308975961282333e-07 0.6687724989684267 0.01380372412008538 0.1436270942922481 0.1069669496172011 0.03460560150068677 0.03160965466534175 0.0006134841432217447 0 1.917451047954108e-07 1.917451047954108e-07 0.0009320729544104919 0.2908023516386632 0.007658874720843094 0.05755938777321998 0.3457729887520404 0.2972737489255083 1.917451047954108e-07 0 0 4.691994050551545e-06 4.691994050551545e-06 4.691994050551545e-06 4.691994050551545e-06 0.7385714754913693 0.2613956805502772 4.691994050551545e-06 4.691994050551545e-06 4.691994050551545e-06 0 0 5.078575723595467e-07 5.078575723595467e-07 0.0001833365836217964 0.8828758552321515 0.0173235296507565 0.03240689954983503 0.06556288901890041 0.001645966392017291 5.078575723595467e-07 0 0 4.154090158711169e-07 4.154090158711169e-07 4.154090158711169e-07 0.005978566556417114 0.285209445071712 0.4863953547302209 0.2089553044823464 0.01345966752324006 4.154090158711169e-07 0 0 7.736061068466077e-08 7.736061068466077e-08 7.736061068466077e-08 0.1866969146654444 0.288285398764938 0.2802061660274747 0.1147058266077953 0.03321238001852787 0.06343430827042951 0.03345877356355852 0 3.368881773810582e-07 3.368881773810582e-07 3.368881773810582e-07 0.662721369221357 0.0124800225310813 0.149986996116353 0.1060139929873357 0.03541402209447422 0.03314002689715208 0.0002425594877143619 0</probabilities>
		</cpt>
		<cpt id="p1_gesture" dynamic="plate">
			<state id="wave_slow_shoulder" />
			<state id="wave_fast_shoulder" />
			<state id="wave_small_head" />
			<state id="wave_wide_head" />
			<state id="arm_raise_high" />
			<state id="arm_raise_low" />
			<state id="come_here" />
			<state id="i_am_coming" />
			<state id="None" />
			<parents>p1_wti</parents>
			<probabilities>0.01482530678547583 3.806035268245562e-08 0.001702477652863318 0.01722345157162578 0.0170586883032158 3.806035268245562e-08 0.02337518449756109 0.005669127649095344 0.9201456874194575 1.07336639537975e-08 0.02439902430135859 0.07016912776700965 0.008846718040558373 0.09646155965804767 0.05880195222162789 0.02161048280535717 1.073366385719453e-08 0.7197111137387129 5.916393426910561e-08 5.91639337366302e-08 5.91639337366302e-08 5.91639337366302e-08 0.1308292671440362 0.04782646792081133 5.91639337366302e-08 5.91639337366302e-08 0.8213439099515495 5.489326821893851e-08 5.489326772489909e-08 0.02685109706941254 5.489326772489909e-08 5.489326772489909e-08 5.489326772489909e-08 5.489326772489909e-08 5.489326772489909e-08 0.9731485186777129 4.881803239506051e-08 4.881803195569822e-08 4.881803195569822e-08 4.881803195569822e-08 4.881803195569822e-08 4.881803195569822e-08 4.881803195569822e-08 4.881803195569822e-08 0.9999996094557438</probabilities>
		</cpt>
		<cpt id="p2_gesture" dynamic="plate">
			<state id="wave_slow_shoulder" />
			<state id="wave_fast_shoulder" />
			<state id="wave_small_head" />
			<state id="wave_wide_head" />
			<state id="arm_raise_high" />
			<state id="arm_raise_low" />
			<state id="come_here" />
			<state id="i_am_coming" />
			<state id="None" />
			<parents>p2_wti</parents>
			<probabilities>0.01462924315313458 3.776643274138226e-08 0.002502366067011247 0.01593309147709806 0.0166380397106487 3.776643274138226e-08 0.02334082619358922 0.006481890617836179 0.9204744672478165 1.077739343437312e-08 0.02451394656141551 0.07128684254639889 0.008437448881475766 0.09520007875256931 0.05928856442899311 0.02141461608973879 1.077739343437312e-08 0.7198584811846218 5.934360630502079e-08 5.934360630502079e-08 5.934360630502079e-08 5.934360630502079e-08 0.1321238512932307 0.04808386913191876 5.934360630502079e-08 5.934360630502079e-08 0.8197919235132126 4.8610670576909e-08 4.8610670576909e-08 4.8610670576909e-08 4.8610670576909e-08 4.8610670576909e-08 4.8610670576909e-08 4.8610670576909e-08 4.8610670576909e-08 0.9999996111146353 5.448254899438562e-08 5.448254899438562e-08 0.02716995684055916 5.448254899438562e-08 5.448254899438562e-08 5.448254899438562e-08 5.448254899438562e-08 5.448254899438562e-08 0.9728296617815978</probabilities>
		</cpt>
		<cpt id="p1_head" dynamic="plate">
			<state id="central" />
			<state id="mid_peripheral" />
			<state id="outside" />
			<parents>p1_wti</parents>
			<probabilities>0.9999997716378816 1.141810591891774e-07 1.141810591891774e-07 0.9960107157172783 0.003512709602696433 0.0004765746800251836 0.9540576667318063 0.03979312975378515 0.006149203514408697 0.3450086374557629 0.3729361915160259 0.2820551710282113 0.04206029866676977 0.2095065404935327 0.7484331608396975</probabilities>
		</cpt>
	</nodes>
	<dynamic numslices="10">
		<cpt id="p1_imas" order="1">
			<parents>p1_imas</parents>
			<probabilities>0.9999995310954082 1.172261479956673e-07 1.172261479956673e-07 1.172261479956673e-07 1.172261479956673e-07 0.001028522384782739 0.9989711782199957 9.979840721742082e-08 9.979840721742082e-08 9.979840721742082e-08 0.004104854078696611 0.003939701698100114 0.9893385630475051 0.002616814447463526 6.672823458444323e-08 0.00127459944793054 0.0020127445167114 0.006432871469289211 0.990171143995552 0.0001086405705169294 7.472395104385624e-08 7.472395104385624e-08 3.437301748017386e-06 0.02878075170800271 0.9712156615423473</probabilities>
		</cpt>
		<cpt id="p2_imas" order="1">
			<parents>p2_imas</parents>
			<probabilities>0.999999532314168 1.169214580105814e-07 1.169214580105814e-07 1.169214580105814e-07 1.169214580105814e-07 0.001023844873307728 0.9989758583887327 9.891265320333574e-08 9.891265320333574e-08 9.891265320333574e-08 0.004113495015304067 0.003974975474680367 0.9892778514615483 0.002633611130814642 6.691765247521703e-08 0.001278808149124682 0.002032734384942233 0.006467703613829641 0.9901117545526544 0.0001089992994490729 7.43678269906873e-08 7.43678269906873e-08 7.43678269906873e-08 0.02873171248654407 0.971268064409975</probabilities>
		</cpt>
		<cpt id="p1_wti" order="1">
			<parents>p2_imas p1_wti</parents>
			<probabilities>0.2 0.2 0.2 0.2 0.2 0.2 0.2 0.2 0.2 0.2 0.2 0.2 0.2 0.2 0.2 0.2 0.2 0.2 0.2 0.2 0.2 0.2 0.2 0.2 0.2 0.2 0.2 0.2 0.2 0.2 0.2 0.2 0.2 0.2 0.2 0.2 0.2 0.2 0.2 0.2 0.2 0.2 0.2 0.2 0.2 0.2 0.2 0.2 0.2 0.2 0.2 0.2 0.2 0.2 0.2 0.2 0.2 0.2 0.2 0.2 0.2 0.2 0.2 0.2 0.2 0.2 0.2 0.2 0.2 0.2 0.2 0.2 0.2 0.2 0.2 0.9999995301858527 1.174535368489918e-07 1.174535368489918e-07 1.174535368489918e-07 1.174535368489918e-07 0.9999192734611501 2.01816347124117e-05 2.01816347124117e-05 2.01816347124117e-05 2.01816347124117e-05 0.999884276001736 2.893099956603501e-05 2.893099956603501e-05 2.893099956603501e-05 2.893099956603501e-05 0.9997673742366969 5.815644082582148e-05 5.815644082582148e-05 5.815644082582148e-05 5.815644082582148e-05 0.2 0.2 0.2 0.2 0.2 0.9998941938896972 2.64515275757175e-05 2.64515275757175e-05 2.64515275757175e-05 2.64515275757175e-05 0.9959798994974877 0.001005025125628141 0.001005025125628141 0.001005025125628141 0.001005025125628141 0.2 0.2 0.2 0.2 0.2 0.2 0.2 0.2 0.2 0.2 0.2 0.2 0.2 0.2 0.2 0.2 0.2 0.2 0.2 0.2 0.2 0.2 0.2 0.2 0.2 0.2 0.2 0.2 0.2 0.2 0.2 0.2 0.2 0.2 0.2 0.2 0.2 0.2 0.2 0.2 0.2 0.2 0.2 0.2 0.2 0.2 0.2 0.2 0.2 0.2 0.2 0.2 0.2 0.2 0.2 0.2 0.2 0.2 0.2 0.2 0.2 0.2 0.2 0.2 0.2 0.2 0.2 0.2 0.2 0.2 7.001746935860496e-07 0.9999971993012255 7.001746935860496e-07 7.001746935860496e-07 7.001746935860496e-07 5.78536303153023e-05 0.999768585478739 5.78536303153023e-05 5.78536303153023e-05 5.78536303153023e-05 0.2 0.2 0.2 0.2 0.2 0.2 0.2 0.2 0.2 0.2 0.9999983487143709 4.128214072668952e-07 4.128214072668952e-07 4.128214072668952e-07 4.128214072668952e-07 0.004303362621391293 0.9956961419039442 1.651582215762701e-07 1.651582215762701e-07 1.651582215762701e-07 0.2306473364801079 0.7692515171948754 3.371544167228591e-05 3.371544167228591e-05 3.371544167228591e-05 8.288437629506842e-05 0.99966846249482 8.288437629506842e-05 8.288437629506842e-05 8.288437629506842e-05 0.2 0.2 0.2 0.2 0.2 0.9999762399762403 5.940005940005943e-06 5.940005940005943e-06 5.940005940005943e-06 5.940005940005943e-06 0.01413043478260869 0.9854037267080744 0.00015527950310559 0.00015527950310559 0.00015527950310559 0.9996120271580993 9.699321047526678e-05 9.699321047526678e-05 9.699321047526678e-05 9.699321047526678e-05 0.0008196721311475412 0.99672131147541 0.0008196721311475412 0.0008196721311475412 0.0008196721311475412 0.2 0.2 0.2 0.2 0.2 0.2 0.2 0.2 0.2 0.2 0.2 0.2 0.2 0.2 0.2 0.2 0.2 0.2 0.2 0.2 0.2 0.2 0.2 0.2 0.2 0.2 0.2 0.2 0.2 0.2 0.2 0.2 0.2 0.2 0.2 7.018775223723459e-07 0.9999971924899104 7.018775223723459e-07 7.018775223723459e-07 7.018775223723459e-07 0.2 0.2 0.2 0.2 0.2 0.2 0.2 0.2 0.2 0.2 0.2 0.2 0.2 0.2 0.2 0.2 0.2 0.2 0.2 0.2 3.376923791272342e-07 0.9999986492304838 3.376923791272342e-07 3.376923791272342e-07 3.376923791272342e-07 7.142857142857146e-05 0.9900714285714288 0.009714285714285717 7.142857142857146e-05 7.142857142857146e-05 0.0007633587786259544 0.9282442748091605 0.06946564885496184 0.0007633587786259544 0.0007633587786259544 0.2 0.2 0.2 0.2 0.2 0.9999846675738354 3.833106541196314e-06 3.833106541196314e-06 3.833106541196314e-06 3.833106541196314e-06 1.04896461947235e-07 0.9999995804141523 1.04896461947235e-07 1.04896461947235e-07 1.04896461947235e-07 0.01618239307705109 0.5692195040772174 0.414584789482443 6.656681644200366e-06 6.656681644200366e-06 0.04180769594402949 0.8551763259903562 0.1029781601588352 1.890895338942989e-05 1.890895338942989e-05 0.02000000000000001 0.9200000000000003 0.02000000000000001 0.02000000000000001 0.02000000000000001 0.9999273849505307 1.815376236725061e-05 1.815376236725061e-05 1.815376236725061e-05 1.815376236725061e-05 1.855717930874507e-06 0.9999925771282766 1.855717930874507e-06 1.855717930874507e-06 1.855717930874507e-06 0.3076713925033988 0.6922120800155371 3.884249368809478e-05 3.884249368809478e-05 3.884249368809478e-05 1.441233696043813e-05 0.9999423506521581 1.441233696043813e-05 1.441233696043813e-05 1.441233696043813e-05 0.2 0.2 0.2 0.2 0.2 0.2 0.2 0.2 0.2 0.2 1.177429154087799e-07 0.9999995290283384 1.177429154087799e-07 1.177429154087799e-07 1.177429154087799e-07 7.933359777865926e-05 0.6569615232050774 0.3428004760015867 7.933359777865926e-05 7.933359777865926e-05 4.915212582944213e-05 0.1858441877611207 0.004472843450479233 0.8095846645367412 4.915212582944213e-05 0.2 0.2 0.2 0.2 0.2 0.9999970815062345 7.296234413419234e-07 7.296234413419234e-07 7.296234413419234e-07 7.296234413419234e-07 1.785288685643691e-07 0.9999992858845259 1.785288685643691e-07 1.785288685643691e-07 1.785288685643691e-07 0.006856164428153827 0.009580791541611596 0.9835617419384239 6.510459052467789e-07 6.510459052467789e-07 0.0007142857142857145 0.0007142857142857145 0.9971428571428573 0.0007142857142857145 0.0007142857142857145 0.007142857142857144 0.007142857142857144 0.9714285714285715 0.007142857142857144 0.007142857142857144 0.9999481125956672 1.297185108314956e-05 1.297185108314956e-05 1.297185108314956e-05 1.297185108314956e-05 1.471201596547973e-07 0.9999994115193616 1.471201596547973e-07 1.471201596547973e-07 1.471201596547973e-07 6.487777028079098e-07 0.08139629937198317 0.9186017542949082 6.487777028079098e-07 6.487777028079098e-07 6.170382779695739e-07 0.0184932542290261 0.03647374964905948 0.9450317620453585 6.170382779695739e-07 4.094165813715456e-05 4.094165813715456e-05 0.9998362333674515 4.094165813715456e-05 4.094165813715456e-05 0.9999724745389484 6.881365262868152e-06 6.881365262868152e-06 6.881365262868152e-06 6.881365262868152e-06 3.999744016382951e-07 0.9930888423140918 0.006909957762703186 3.999744016382951e-07 3.999744016382951e-07 0.0007388286715048526 0.01836591022626988 0.9808946852419982 2.879301136028264e-07 2.879301136028264e-07 3.554752971329141e-07 0.0002882904659747933 0.04058497014896193 0.9591260284344691 3.554752971329141e-07 1.253682692910424e-05 1.253682692910424e-05 0.9993856954804738 0.0005766940387387951 1.253682692910424e-05 0.2 0.2 0.2 0.2 0.2 1.044222837153448e-06 0.9999958231086511 1.044222837153448e-06 1.044222837153448e-06 1.044222837153448e-06 6.744270742004666e-07 0.01044080553569742 0.9895571711830798 6.744270742004666e-07 6.744270742004666e-07 5.136317876440737e-07 0.008876070922277237 0.002078154212807922 0.9890447476013395 5.136317876440737e-07 7.55943606606947e-06 7.55943606606947e-06 0.75126431568205 0.2487130060097516 7.55943606606947e-06 0.2 0.2 0.2 0.2 0.2 0.2 0.2 0.2 0.2 0.2 3.918495297805644e-05 3.918495297805644e-05 0.9998432601880879 3.918495297805644e-05 3.918495297805644e-05 0.0008196721311475411 0.0008196721311475411 0.0008196721311475411 0.9967213114754099 0.0008196721311475411 0.2 0.2 0.2 0.2 0.2 0.2 0.2 0.2 0.2 0.2 0.2 0.2 0.2 0.2 0.2 8.693762225603128e-06 8.693762225603128e-06 0.9999652249510974 8.693762225603128e-06 8.693762225603128e-06 0.000341296928327645 0.000341296928327645 0.000341296928327645 0.9986348122866893 0.000341296928327645 1.729206294310912e-05 1.729206294310912e-05 0.1455300017292063 1.729206294310912e-05 0.8544181220819644 0.2 0.2 0.2 0.2 0.2 0.2 0.2 0.2 0.2 0.2 0.2 0.2 0.2 0.2 0.2 2.953555342243225e-06 2.953555342243225e-06 2.953555342243225e-06 0.999988185778631 2.953555342243225e-06 8.166598611678236e-06 8.166598611678236e-06 8.166598611678236e-06 8.166598611678236e-06 0.9999673336055533 0.2 0.2 0.2 0.2 0.2 0.2 0.2 0.2 0.2 0.2 0.0002 0.0002 0.9992 0.0002 0.0002 6.376595344447739e-07 6.376595344447739e-07 6.376595344447739e-07 0.9999974493618623 6.376595344447739e-07 3.633562490007703e-07 3.633562490007703e-07 0.0007034576980654913 3.633562490007703e-07 0.9992954522331874 0.2 0.2 0.2 0.2 0.2 0.2 0.2 0.2 0.2 0.2 0.2 0.2 0.2 0.2 0.2 1.221284547086626e-06 1.221284547086626e-06 1.221284547086626e-06 0.9946092500091596 0.005387086137199106 1.390021176972631e-07 1.390021176972631e-07 1.390021176972631e-07 1.390021176972631e-07 0.9999994439915292</probabilities>
		</cpt>
		<cpt id="p2_wti" order="1">
			<parents>p1_imas p2_wti</parents>
			<probabilities>0.2 0.2 0.2 0.2 0.2 0.2 0.2 0.2 0.2 0.2 0.2 0.2 0.2 0.2 0.2 0.2 0.2 0.2 0.2 0.2 0.2 0.2 0.2 0.2 0.2 0.2 0.2 0.2 0.2 0.2 0.2 0.2 0.2 0.2 0.2 0.2 0.2 0.2 0.2 0.2 0.2 0.2 0.2 0.2 0.2 0.2 0.2 0.2 0.2 0.2 0.2 0.2 0.2 0.2 0.2 0.2 0.2 0.2 0.2 0.2 0.2 0.2 0.2 0.2 0.2 0.2 0.2 0.2 0.2 0.2 0.2 0.2 0.2 0.2 0.2 0.9999995312660213 1.171834947047709e-07 1.171834947047709e-07 1.171834947047709e-07 1.171834947047709e-07 0.9999192734611501 2.01816347124117e-05 2.01816347124117e-05 2.01816347124117e-05 2.01816347124117e-05 0.9998841251448437 2.896871378910777e-05 2.896871378910777e-05 2.896871378910777e-05 2.896871378910777e-05 0.2 0.2 0.2 0.2 0.2 0.9997679814385153 5.800464037122972e-05 5.800464037122972e-05 5.800464037122972e-05 5.800464037122972e-05 0.9999013563501851 2.466091245376079e-05 2.466091245376079e-05 2.466091245376079e-05 2.466091245376079e-05 0.9953488372093026 0.001162790697674419 0.001162790697674419 0.001162790697674419 0.001162790697674419 0.2 0.2 0.2 0.2 0.2 0.2 0.2 0.2 0.2 0.2 0.2 0.2 0.2 0.2 0.2 0.2 0.2 0.2 0.2 0.2 0.2 0.2 0.2 0.2 0.2 0.2 0.2 0.2 0.2 0.2 0.2 0.2 0.2 0.2 0.2 0.2 0.2 0.2 0.2 0.2 0.2 0.2 0.2 0.2 0.2 0.2 0.2 0.2 0.2 0.2 0.2 0.2 0.2 0.2 0.2 0.2 0.2 0.2 0.2 0.2 0.2 0.2 0.2 0.2 0.2 0.2 0.2 0.2 0.2 0.2 7.018775223723459e-07 0.9999971924899104 7.018775223723459e-07 7.018775223723459e-07 7.018775223723459e-07 5.78536303153023e-05 0.999768585478739 5.78536303153023e-05 5.78536303153023e-05 5.78536303153023e-05 0.2 0.2 0.2 0.2 0.2 0.2 0.2 0.2 0.2 0.2 0.9999984114250311 3.97143742206054e-07 3.97143742206054e-07 3.97143742206054e-07 3.97143742206054e-07 0.004379701950261153 0.9956198023466586 1.652343601547255e-07 1.652343601547255e-07 1.652343601547255e-07 0.2485127362366475 0.7513886606409204 3.286770747740346e-05 3.286770747740346e-05 3.286770747740346e-05 0.2 0.2 0.2 0.2 0.2 8.257638315441788e-05 0.9996696944673826 8.257638315441788e-05 8.257638315441788e-05 8.257638315441788e-05 0.9999764913311787 5.877167205406997e-06 5.877167205406997e-06 5.877167205406997e-06 5.877167205406997e-06 0.01756756756756756 0.9818532818532817 0.000193050193050193 0.000193050193050193 0.000193050193050193 0.999615384615385 9.615384615384621e-05 9.615384615384621e-05 9.615384615384621e-05 9.615384615384621e-05 0.2 0.2 0.2 0.2 0.2 0.001005025125628141 0.9959798994974877 0.001005025125628141 0.001005025125628141 0.001005025125628141 0.2 0.2 0.2 0.2 0.2 0.2 0.2 0.2 0.2 0.2 0.2 0.2 0.2 0.2 0.2 0.2 0.2 0.2 0.2 0.2 0.2 0.2 0.2 0.2 0.2 0.2 0.2 0.2 0.2 0.2 7.001746935860496e-07 0.9999971993012255 7.001746935860496e-07 7.001746935860496e-07 7.001746935860496e-07 0.2 0.2 0.2 0.2 0.2 0.2 0.2 0.2 0.2 0.2 0.2 0.2 0.2 0.2 0.2 0.9200000000000003 0.02000000000000001 0.02000000000000001 0.02000000000000001 0.02000000000000001 3.376923791272342e-07 0.9999986492304838 3.376923791272342e-07 3.376923791272342e-07 3.376923791272342e-07 6.752194463200542e-05 0.9997299122214722 6.752194463200542e-05 6.752194463200542e-05 6.752194463200542e-05 0.2 0.2 0.2 0.2 0.2 0.0006711409395973156 0.9973154362416109 0.0006711409395973156 0.0006711409395973156 0.0006711409395973156 0.9999859028352924 3.52429117693704e-06 3.52429117693704e-06 3.52429117693704e-06 3.52429117693704e-06 1.05194393980356e-07 0.9999995792224242 1.05194393980356e-07 1.05194393980356e-07 1.05194393980356e-07 0.0147362457509757 0.5351315623819715 0.4501196021654287 6.294850812035754e-06 6.294850812035754e-06 0.2 0.2 0.2 0.2 0.2 0.0424604569420035 0.8594200351493847 0.09808435852372581 1.757469244288225e-05 1.757469244288225e-05 0.9999177039399236 2.057401501903096e-05 2.057401501903096e-05 2.057401501903096e-05 2.057401501903096e-05 2.023472278429786e-06 0.9999919061108864 2.023472278429786e-06 2.023472278429786e-06 2.023472278429786e-06 0.302544625902013 0.6973414356247627 3.797949107481961e-05 3.797949107481961e-05 3.797949107481961e-05 0.2 0.2 0.2 0.2 0.2 1.547508511296812e-05 0.9999380996595479 1.547508511296812e-05 1.547508511296812e-05 1.547508511296812e-05 0.2 0.2 0.2 0.2 0.2 1.181548466527323e-07 0.9999995273806135 1.181548466527323e-07 1.181548466527323e-07 1.181548466527323e-07 6.591957811470006e-05 0.5251153592617007 0.4746868820039552 6.591957811470006e-05 6.591957811470006e-05 0.02 0.02 0.92 0.02 0.02 3.837298541826555e-05 0.179623944742901 0.006945510360706063 3.837298541826555e-05 0.8133537989255564 0.9999970304159643 7.423960088790562e-07 7.423960088790562e-07 7.423960088790562e-07 7.423960088790562e-07 1.806976918580331e-07 0.9999992772092328 1.806976918580331e-07 1.806976918580331e-07 1.806976918580331e-07 0.006885461493889932 0.009639385673083806 0.9834738507412156 6.510459052467789e-07 6.510459052467789e-07 0.02 0.02 0.92 0.02 0.02 0.0006514657980456027 0.0006514657980456027 0.9973941368078177 0.0006514657980456027 0.0006514657980456027 0.9999410985127373 1.472537181563834e-05 1.472537181563834e-05 1.472537181563834e-05 1.472537181563834e-05 1.470247699981255e-07 0.9999994119009201 1.470247699981255e-07 1.470247699981255e-07 1.470247699981255e-07 6.408181966735126e-07 0.08117628588181389 0.9188217916635959 6.408181966735126e-07 6.408181966735126e-07 4.284490145672666e-05 4.284490145672666e-05 0.9998286203941732 4.284490145672666e-05 4.284490145672666e-05 6.233869861732767e-07 0.01820664031817672 0.03852905606742554 6.233869861732767e-07 0.9432630568404254 0.9999721011333913 6.974716652136007e-06 6.974716652136007e-06 6.974716652136007e-06 6.974716652136007e-06 4.018525402103698e-07 0.993056389957705 0.006942404484674348 4.018525402103698e-07 4.018525402103698e-07 0.0007865611900050527 0.01823447444404161 0.9809783819437469 2.912111032969466e-07 2.912111032969466e-07 1.230844975075389e-05 1.230844975075389e-05 0.9999507662009969 1.230844975075389e-05 1.230844975075389e-05 3.498503515121407e-07 0.0002050123059861145 0.03932352936031613 3.498503515121407e-07 0.9604707586329947 0.2 0.2 0.2 0.2 0.2 1.053929576425703e-06 0.999995784281694 1.053929576425703e-06 1.053929576425703e-06 1.053929576425703e-06 6.807097079414997e-07 0.01044617117807025 0.9895517866928057 6.807097079414997e-07 6.807097079414997e-07 7.572028925150493e-06 7.572028925150493e-06 0.7503956385113391 7.572028925150493e-06 0.2495816454018854 5.108374157756811e-07 0.008825227194940666 0.002020872816808594 5.108374157756811e-07 0.9891528783134192 0.2 0.2 0.2 0.2 0.2 0.2 0.2 0.2 0.2 0.2 4.280821917808221e-05 4.280821917808221e-05 0.9998287671232878 4.280821917808221e-05 4.280821917808221e-05 0.002439024390243902 0.002439024390243902 0.5512195121951219 0.4414634146341463 0.002439024390243902 0.0004926108374384237 0.0004926108374384237 0.0004926108374384237 0.0004926108374384237 0.9980295566502463 0.2 0.2 0.2 0.2 0.2 0.2 0.2 0.2 0.2 0.2 9.066183136899364e-06 9.066183136899364e-06 0.9999637352674523 9.066183136899364e-06 9.066183136899364e-06 1.694915254237288e-05 1.694915254237288e-05 0.1312033898305085 0.8687457627118643 1.694915254237288e-05 0.0002466091245376079 0.0002466091245376079 0.0002466091245376079 0.0002466091245376079 0.9990135635018497 0.2 0.2 0.2 0.2 0.2 0.2 0.2 0.2 0.2 0.2 0.2 0.2 0.2 0.2 0.2 7.814942169427947e-06 7.814942169427947e-06 7.814942169427947e-06 0.9999687402313223 7.814942169427947e-06 2.623776664130349e-06 2.623776664130349e-06 2.623776664130349e-06 2.623776664130349e-06 0.9999895048933435 0.2 0.2 0.2 0.2 0.2 0.2 0.2 0.2 0.2 0.2 0.0001441961067051189 0.0001441961067051189 0.9994232155731794 0.0001441961067051189 0.0001441961067051189 3.611842509219229e-07 3.611842509219229e-07 0.0008455323314082215 0.9991533841158391 3.611842509219229e-07 6.378791793046479e-07 6.378791793046479e-07 6.378791793046479e-07 6.378791793046479e-07 0.9999974484832829 0.2 0.2 0.2 0.2 0.2 0.2 0.2 0.2 0.2 0.2 0.2 0.2 0.2 0.2 0.2 1.386151240189515e-07 1.386151240189515e-07 1.386151240189515e-07 0.9999994455395039 1.386151240189515e-07 1.251509633495404e-06 1.251509633495404e-06 1.251509633495404e-06 0.005520408993348227 0.9944758364777514</probabilities>
		</cpt>
	</dynamic>
	<extensions>
		<genie version="1.0" app="SMILE_ACADEMIC 1.5.0@a121f1f76773" name="emidas dbn v9" faultnameformat="user">
			<plate leftwidth="120" rightwidth="120">120 50 1164 561</plate>
			<node id="p1_imas">
				<name>p1_imas</name>
				<interior color="e5f6f7" />
				<outline color="000080" />
				<font color="000000" name="MS Sans Serif" size="8" />
				<position>491 462 547 497</position>
			</node>
			<node id="p2_imas">
				<name>p2_imas</name>
				<interior color="e5f6f7" />
				<outline color="000080" />
				<font color="000000" name="MS Sans Serif" size="8" />
				<position>651 472 707 507</position>
			</node>
			<node id="p1_wti">
				<name>p1_wti</name>
				<interior color="e5f6f7" />
				<outline color="000080" />
				<font color="000000" name="MS Sans Serif" size="8" />
				<position>487 311 571 363</position>
			</node>
			<node id="p2_wti">
				<name>p2_wti</name>
				<interior color="e5f6f7" />
				<outline color="000080" />
				<font color="000000" name="MS Sans Serif" size="8" />
				<position>650 301 734 353</position>
			</node>
			<node id="p1_approach">
				<name>p1_approach</name>
				<interior color="e5f6f7" />
				<outline color="000080" />
				<font color="000000" name="MS Sans Serif" size="8" />
				<position>268 135 344 182</position>
			</node>
			<node id="p2_head">
				<name>p2_head</name>
				<interior color="e5f6f7" />
				<outline color="000080" />
				<font color="000000" name="MS Sans Serif" size="8" />
				<position>676 84 733 119</position>
			</node>
			<node id="p1_body">
				<name>p1_body</name>
				<interior color="e5f6f7" />
				<outline color="000080" />
				<font color="000000" name="MS Sans Serif" size="8" />
				<position>404 76 461 111</position>
			</node>
			<node id="p2_approach">
				<name>p2_approach</name>
				<interior color="e5f6f7" />
				<outline color="000080" />
				<font color="000000" name="MS Sans Serif" size="8" />
				<position>924 160 1000 207</position>
			</node>
			<node id="p2_body">
				<name>p2_body</name>
				<interior color="e5f6f7" />
				<outline color="000080" />
				<font color="000000" name="MS Sans Serif" size="8" />
				<position>827 91 884 126</position>
			</node>
			<node id="dist">
				<name>dist</name>
				<interior color="e5f6f7" />
				<outline color="000080" />
				<font color="000000" name="MS Sans Serif" size="8" />
				<position>599 137 637 160</position>
			</node>
			<node id="p1_gesture">
				<name>p1_gesture</name>
				<interior color="e5f6f7" />
				<outline color="000080" />
				<font color="000000" name="MS Sans Serif" size="8" />
				<position>248 271 316 313</position>
			</node>
			<node id="p2_gesture">
				<name>p2_gesture</name>
				<interior color="e5f6f7" />
				<outline color="000080" />
				<font color="000000" name="MS Sans Serif" size="8" />
				<position>964 312 1032 354</position>
			</node>
			<node id="p1_head">
				<name>p1_head</name>
				<interior color="e5f6f7" />
				<outline color="000080" />
				<font color="000000" name="MS Sans Serif" size="8" />
				<position>528 80 585 115</position>
			</node>
		</genie>
	</extensions>
</smile>
