<?xml version="1.0" encoding="ISO-8859-1"?>
<!-- This file was created by ACADEMIC version of SMILE -->
<smile version="1.0" id="Network2" numsamples="10000" discsamples="10000">
	<nodes>
		<cpt id="p1_imas" target="true" dynamic="plate">
			<state id="very_high" />
			<state id="high" />
			<state id="medium" />
			<state id="low" />
			<state id="very_low" />
			<probabilities>0.08454971654055222 0.1018722347513036 0.1657079218098019 0.4646808330517186 0.1831892938466237</probabilities>
		</cpt>
		<cpt id="p2_imas" target="true" dynamic="plate">
			<state id="very_high" />
			<state id="high" />
			<state id="medium" />
			<state id="low" />
			<state id="very_low" />
			<probabilities>0.0848260978066646 0.1028390098658868 0.1652256532052895 0.4630695418654174 0.1840396972567417</probabilities>
		</cpt>
		<cpt id="p1_wti" target="true" dynamic="plate">
			<state id="very_high" />
			<state id="high" />
			<state id="medium" />
			<state id="low" />
			<state id="very_low" />
			<parents>p1_imas</parents>
			<probabilities>1 1.140846205239747e-21 1.140846205239747e-21 1.140846205239747e-21 1.140846205239747e-21 0.2610760335334716 0.7389239664665285 5.545716619654278e-22 5.545716619654278e-22 5.545716619654278e-22 0.02590957465265755 0.9689922421670973 0.005098183180245027 6.659883806952163e-23 6.659883806952163e-23 0.0355589756806461 0.5482755384108918 0.2209451268377205 0.1952203590707416 8.421131277637081e-25 2.590765729261043e-23 2.590765729261043e-23 0.01057937121062373 0.2320371780958777 0.7573834506934985</probabilities>
		</cpt>
		<cpt id="p2_wti" target="true" dynamic="plate">
			<state id="very_high" />
			<state id="high" />
			<state id="medium" />
			<state id="very_low" />
			<state id="low" />
			<parents>p2_imas</parents>
			<probabilities>1 1.121712108833891e-21 1.121712108833891e-21 1.121712108833891e-21 1.121712108833891e-21 0.2683489726876743 0.7316510273123256 5.239810246467535e-22 5.239810246467535e-22 5.239810246467535e-22 0.02723129854247412 0.9669682520167268 0.005800449440799151 6.664755356129429e-23 6.664755356129429e-23 0.03468594885357289 0.547402057178296 0.2209322254305089 8.583949147353541e-25 0.1969797685376222 2.552876798440242e-23 2.552876798440242e-23 0.01019304894410215 0.7567899839031014 0.2330169671527965</probabilities>
		</cpt>
		<cpt id="p1_approach" dynamic="plate">
			<state id="y" />
			<state id="m" />
			<state id="n" />
			<parents>p1_wti</parents>
			<probabilities>0.7563861941030059 0.162099768705137 0.08151403719185717 0.5150150358232088 0.1575773488310601 0.3274076153457311 0.3206407077028077 0.3005698330854576 0.3787894592117347 0.2722093319825484 0.07677391322318317 0.6510167547942685 0.0001916282653708708 0.0130206363470418 0.9867877353875872</probabilities>
		</cpt>
		<cpt id="p2_head" dynamic="plate">
			<state id="central" />
			<state id="mid_peripheral" />
			<state id="outside" />
			<parents>p2_wti</parents>
			<probabilities>1 9.618929638791817e-28 9.618929638791817e-28 0.9974150178549578 0.002384809274827852 0.0002001728702144096 0.9710377117794263 0.02607362120687248 0.002888667013701137 0.04819306161583518 0.2091179105930309 0.7426890277911339 0.3835545314647796 0.3463036179156135 0.2701418506196068</probabilities>
		</cpt>
		<cpt id="p1_body" dynamic="plate">
			<state id="strongly_facing" />
			<state id="slightly_facing" />
			<state id="turned_away" />
			<parents>p1_wti</parents>
			<probabilities>0.3997496301122781 0.5684322923145972 0.03181807757312472 0.3115590396754063 0.5395454610399183 0.1488954992846754 0.1290911926287273 0.6158645123748259 0.2550442949964469 0.07754478888011708 0.7483928994587349 0.1740623116611481 0.002526468155572856 0.365168427751221 0.6323051040932061</probabilities>
		</cpt>
		<cpt id="p2_approach" dynamic="plate">
			<state id="y" />
			<state id="m" />
			<state id="n" />
			<parents>p2_wti</parents>
			<probabilities>0.7570239260054227 0.1623867633792724 0.08058931061530498 0.5143602163375036 0.1593306441551088 0.3263091395073875 0.323528741232414 0.3027115511858643 0.3737597075817217 0.0001607607601070286 0.01318740610252969 0.9866518331373633 0.2720945181206424 0.07802760690494336 0.6498778749744143</probabilities>
		</cpt>
		<cpt id="p2_body" dynamic="plate">
			<state id="strongly_facing" />
			<state id="slightly_facing" />
			<state id="turned_away" />
			<parents>p2_wti</parents>
			<probabilities>0.403328661653354 0.5637678928554875 0.03290344549115855 0.3102869112611069 0.5425377925053324 0.1471752962335607 0.1279626641249385 0.6206743522573741 0.2513629836176875 0.002518669726187312 0.3712014605849749 0.6262798696888379 0.07956586964616819 0.7514780721463604 0.1689560582074714</probabilities>
		</cpt>
		<cpt id="dist" dynamic="plate">
			<state id="range_0_3" />
			<state id="range_3_6" />
			<state id="range_6_9" />
			<state id="range_9_12" />
			<state id="range_12_15" />
			<state id="range_15_18" />
			<state id="range_18_21" />
			<state id="range_21_24" />
			<state id="range_24_27" />
			<state id="range_27_30" />
			<state id="range_30_inf" />
			<parents>p1_wti p2_wti</parents>
			<probabilities>0.1111111111111111 0.1111111111111111 0.1111111111111111 0.1111111111111111 0.1111111111111111 0.1111111111111111 0.1111111111111111 0.1111111111111111 0.1111111111111111 0 0 0.06832675952398953 0.2195092570925702 0.2281895693574056 0.2200388618787313 0.1578829901303968 0.07277198569625776 0.02900786312463 0.00427271319601853 4.411234540841456e-28 0 0 2.514265469165314e-22 2.514265469165314e-22 2.514265469165314e-22 0.02067125591332658 0.6716270178879489 0.3077017261987245 2.514265469165314e-22 2.514265469165314e-22 2.514265469165314e-22 0 0 1.653810563988929e-20 1.653810563988929e-20 1.653810563988929e-20 1.653810563988929e-20 0.7251718044374631 0.2748281955625368 1.653810563988929e-20 1.653810563988929e-20 1.653810563988929e-20 0 0 8.039538545694175e-21 8.039538545694175e-21 0.003104083812545039 0.09486856152090772 0.2836387083381038 0.61008513284071 0.008303513487733396 8.039538545694175e-21 8.039538545694175e-21 0 0 0.06823686678145656 0.2198856472224401 0.2282425546043717 0.2203495962760747 0.1596490393837153 0.07092836554457732 0.02855170697401935 0.004156223213344997 4.238251120969312e-28 0 0 0.04240342560930627 0.1430037488695181 0.1795581850335822 0.2265155963406732 0.1689868572041985 0.1957292992232441 0.04286247632242716 0.0009404113970504561 1.733621647577644e-29 0 0 0.02039224812355789 0.07671136321680273 0.07952187052375555 0.2568316902310098 0.09241372332371187 0.2232115853190704 0.1640293155779951 0.08578628399923563 0.001101919684860983 0 0 3.095013143945262e-23 3.095013143945262e-23 0.0003696575815802319 0.8950888830031585 0.01354824783440356 0.02787510404537499 0.06173186116770612 0.001386246367776626 3.095013143945262e-23 0 0 2.075090996732121e-25 2.075090996732121e-25 0.0005172339477884155 0.1418219667288527 0.001034468826828572 0.04641819323825857 0.09285219086020095 0.1849134441555125 0.3038184431249578 0.1917272886632107 0.03689677045438973 2.371611752554494e-22 2.371611752554494e-22 2.371611752554494e-22 0.01340236124375667 0.6699939200728456 0.3166037186833978 2.371611752554494e-22 2.371611752554494e-22 2.371611752554494e-22 0 0 0.02053179775320399 0.07739012698407381 0.08085986453664953 0.2590233237170693 0.09262023952641492 0.2156710975615458 0.1678252098614814 0.08441404950945013 0.001664290550111104 0 0 5.0628371362349e-26 5.0628371362349e-26 3.705682477578427e-09 0.1053562027236715 0.1143550080988721 0.4958444825536818 0.2762542125910091 0.008189686098886227 7.266044073683188e-08 3.315677561923481e-07 0 1.393532483612917e-24 1.393532483612917e-24 1.393532483612917e-24 0.005234734242350207 0.2645742781625739 0.511824254869734 0.2030125131232808 0.01535421960206107 1.393532483612917e-24 0 0 3.652831518959374e-24 3.652831518959374e-24 3.652831518959374e-24 0.2389717173207071 0.0008158553139001333 0.1564808287996305 0.2273707692621838 0.183916573941789 0.03044989926958558 0.04803115747717433 0.1139631986150296 8.97783301524239e-21 8.97783301524239e-21 0.0001890591473194824 0.07751425040098778 0.2565558921968046 0.6523458203884829 0.0133949778664052 8.97783301524239e-21 8.97783301524239e-21 0 0 2.232865746009162e-25 2.232865746009162e-25 0.001283712028382491 0.1347255883098906 0.001327476088927805 0.04968699063119325 0.08748358871270741 0.1911412330498357 0.3049832444076534 0.1938370305509793 0.03553113622043011 4.171408098593888e-24 4.171408098593888e-24 4.171408098593888e-24 0.2381938045648843 0.00233215035799048 0.162149034203362 0.2118878848401849 0.1817173073393366 0.03397900097993833 0.05131349529721372 0.1184273224170896 6.648612942096087e-24 6.648612942096087e-24 6.648612942096087e-24 0.6438146881460277 0.01576501077667712 0.1522938609793799 0.1123574904006147 0.04773573424344455 0.02758827806395716 0.000444937389898628 0 7.964829454125474e-25 7.964829454125474e-25 0.001291260557253697 0.376504079427755 0.01000250624976246 0.05862576312173794 0.3329258528680475 0.2206505377754435 7.964829454125474e-25 0 0 2.215115758336486e-20 2.215115758336486e-20 2.215115758336486e-20 2.215115758336486e-20 0.7385924533879517 0.2614075466120484 2.215115758336486e-20 2.215115758336486e-20 2.215115758336486e-20 0 0 2.872061727644832e-23 2.872061727644832e-23 0.0001846095623225283 0.8886112356261722 0.01734903890665707 0.02657509072214189 0.06561850509587572 0.001661520086830685 2.872061727644832e-23 0 0 1.42143305860056e-24 1.42143305860056e-24 1.42143305860056e-24 0.004924421723587692 0.2814409420596188 0.4886392220195859 0.2113795002127073 0.01361591398450019 1.42143305860056e-24 0 0 2.831415631632063e-27 2.831415631632063e-27 2.831415631632063e-27 0.2058069336401811 0.2876058285088718 0.2527174803325782 0.1128212811692177 0.03762400763923016 0.06840826730912912 0.0350162014007919 0 7.11531227668913e-24 7.11531227668913e-24 7.11531227668913e-24 0.6357476467822294 0.01505151363952192 0.159110215134702 0.1116564460161948 0.04918421036708006 0.02907141297602419 0.0001785550842476463 0</probabilities>
		</cpt>
		<cpt id="p1_gesture" dynamic="plate">
			<state id="wave_slow_shoulder" />
			<state id="wave_fast_shoulder" />
			<state id="wave_small_head" />
			<state id="wave_wide_head" />
			<state id="arm_raise_high" />
			<state id="arm_raise_low" />
			<state id="come_here" />
			<state id="i_am_coming" />
			<state id="None" />
			<parents>p1_wti</parents>
			<probabilities>0.01591170711828984 3.330134001770184e-28 0.001806243462850146 0.01811941971637888 0.01830747050637523 3.330134001770184e-28 0.0250813430492239 0.006084536802395953 0.914689279344486 1.905370339313447e-30 0.02592623214424244 0.07374114557836245 0.009109724693264789 0.1018077285555817 0.06209035319529678 0.02287683951902532 1.905370322165114e-30 0.7044479763142265 6.085323298504512e-28 6.085323243736603e-28 6.085323243736603e-28 6.085323243736603e-28 0.1376854587778578 0.04976318208181135 6.085323243736603e-28 6.085323243736603e-28 0.8125513591403308 3.189217159696856e-27 3.189217130993901e-27 0.03298900070478542 3.189217130993901e-27 3.189217130993901e-27 3.189217130993901e-27 3.189217130993901e-27 3.189217130993901e-27 0.9670109992952146 5.449394805208896e-28 5.449394756164343e-28 5.449394756164343e-28 5.449394756164343e-28 5.449394756164343e-28 5.449394756164343e-28 5.449394756164343e-28 5.449394756164343e-28 1</probabilities>
		</cpt>
		<cpt id="p2_gesture" dynamic="plate">
			<state id="wave_slow_shoulder" />
			<state id="wave_fast_shoulder" />
			<state id="wave_small_head" />
			<state id="wave_wide_head" />
			<state id="arm_raise_high" />
			<state id="arm_raise_low" />
			<state id="come_here" />
			<state id="i_am_coming" />
			<state id="None" />
			<parents>p2_wti</parents>
			<probabilities>0.01570001104281201 3.206309879597273e-28 0.002628402174000388 0.01683337382882464 0.01785566195492859 3.206309879597273e-28 0.02504377923197627 0.00695630136120876 0.9149824704062494 1.936468566695856e-30 0.02603978944960347 0.07491289222546453 0.00869953149313134 0.1005496042900139 0.06265034454629981 0.02261051521674952 1.936468566695856e-30 0.7045373227787374 6.144028242614516e-28 6.144028242614516e-28 6.144028242614516e-28 6.144028242614516e-28 0.1390810443553976 0.05019775831363305 6.144028242614516e-28 6.144028242614516e-28 0.8107211973309694 5.383086941059958e-28 5.383086941059958e-28 5.383086941059958e-28 5.383086941059958e-28 5.383086941059958e-28 5.383086941059958e-28 5.383086941059958e-28 5.383086941059958e-28 1 3.100992707656943e-27 3.100992707656943e-27 0.03334665687397997 3.100992707656943e-27 3.100992707656943e-27 3.100992707656943e-27 3.100992707656943e-27 3.100992707656943e-27 0.96665334312602</probabilities>
		</cpt>
		<cpt id="p1_head" dynamic="plate">
			<state id="central" />
			<state id="mid_peripheral" />
			<state id="outside" />
			<parents>p1_wti</parents>
			<probabilities>1 9.990402105214571e-28 9.990402105214571e-28 0.9974111349012722 0.002335343713353183 0.0002535213853746789 0.9718958017040386 0.02485511268182873 0.003249085614132727 0.3846887445362753 0.3480937449178295 0.2672175105458952 0.04827519432619331 0.1992281509322232 0.7524966547415834</probabilities>
		</cpt>
	</nodes>
	<dynamic numslices="20">
		<cpt id="p1_imas" order="1">
			<parents>p1_imas</parents>
			<probabilities>1 4.760387266648741e-27 4.760387266648741e-27 4.760387266648741e-27 4.760387266648741e-27 0.001100118388299607 0.9988998816117004 2.492880073932955e-27 2.492880073932955e-27 2.492880073932955e-27 0.004338703510423525 0.004161968514956717 0.9890051537062344 0.00249417426838526 3.885960351662147e-28 0.001376906925247673 0.002160767139549722 0.00624233524138244 0.9901026542747283 0.0001173364190917425 5.262145830160391e-28 5.262145830160391e-28 3.950801547801296e-06 0.03101171024644507 0.9689843389520071</probabilities>
		</cpt>
		<cpt id="p2_imas" order="1">
			<parents>p2_imas</parents>
			<probabilities>1 4.691450994884269e-27 4.691450994884269e-27 4.691450994884269e-27 4.691450994884269e-27 0.001094916237871263 0.9989050837621287 2.361358222448186e-27 2.361358222448186e-27 2.361358222448186e-27 0.004344849529083717 0.004197867655908392 0.9889371560128049 0.002520126802203099 3.880533899235161e-28 0.001381681850232074 0.002184448511237392 0.006340560233188737 0.989975566079583 0.0001177433257586579 5.18944545292628e-28 5.18944545292628e-28 5.18944545292628e-28 0.03111831269439773 0.9688816873056022</probabilities>
		</cpt>
		<cpt id="p1_wti" order="1">
			<parents>p2_imas p1_wti</parents>
			<probabilities>0.2 0.2 0.2 0.2 0.2 0.2 0.2 0.2 0.2 0.2 0.2 0.2 0.2 0.2 0.2 0.2 0.2 0.2 0.2 0.2 0.2 0.2 0.2 0.2 0.2 0.2 0.2 0.2 0.2 0.2 0.2 0.2 0.2 0.2 0.2 0.2 0.2 0.2 0.2 0.2 0.2 0.2 0.2 0.2 0.2 0.2 0.2 0.2 0.2 0.2 0.2 0.2 0.2 0.2 0.2 0.2 0.2 0.2 0.2 0.2 0.2 0.2 0.2 0.2 0.2 0.2 0.2 0.2 0.2 0.2 0.2 0.2 0.2 0.2 0.2 1 4.812780397375981e-27 4.812780397375981e-27 4.812780397375981e-27 4.812780397375981e-27 1 4.608032758991069e-18 4.608032758991069e-18 4.608032758991069e-18 4.608032758991069e-18 1 1.763811371477499e-17 1.763811371477499e-17 1.763811371477499e-17 1.763811371477499e-17 0.9999999999979087 5.228770814961592e-13 5.228770814961592e-13 5.228770814961592e-13 5.228770814961592e-13 0.2 0.2 0.2 0.2 0.2 1 3.314190079407325e-18 3.314190079407325e-18 3.314190079407325e-18 3.314190079407325e-18 0.9999999996933293 7.666768803744012e-11 7.666768803744012e-11 7.666768803744012e-11 7.666768803744012e-11 0.2 0.2 0.2 0.2 0.2 0.2 0.2 0.2 0.2 0.2 0.2 0.2 0.2 0.2 0.2 0.2 0.2 0.2 0.2 0.2 0.2 0.2 0.2 0.2 0.2 0.2 0.2 0.2 0.2 0.2 0.2 0.2 0.2 0.2 0.2 0.2 0.2 0.2 0.2 0.2 0.2 0.2 0.2 0.2 0.2 0.2 0.2 0.2 0.2 0.2 0.2 0.2 0.2 0.2 0.2 0.2 0.2 0.2 0.2 0.2 0.2 0.2 0.2 0.2 0.2 0.2 0.2 0.2 0.2 0.2 1.099844688668718e-18 1 1.099844688668718e-18 1.099844688668718e-18 1.099844688668718e-18 5.147507130691663e-13 0.999999999997941 5.147507130691663e-13 5.147507130691663e-13 5.147507130691663e-13 0.2 0.2 0.2 0.2 0.2 0.2 0.2 0.2 0.2 0.2 1 4.687408931236252e-25 4.687408931236252e-25 4.687408931236252e-25 4.687408931236252e-25 0.004604275727580308 0.9953957242724196 2.002598122027681e-26 2.002598122027681e-26 2.002598122027681e-26 0.2306525041313553 0.7693474958686447 2.396360531341605e-17 2.396360531341605e-17 2.396360531341605e-17 1.650976618735463e-12 0.9999999999933961 1.650976618735463e-12 1.650976618735463e-12 1.650976618735463e-12 0.2 0.2 0.2 0.2 0.2 1 7.843741145198349e-21 7.843741145198349e-21 7.843741145198349e-21 7.843741145198349e-21 0.01352925109927525 0.9864707489006705 1.816563755766949e-14 1.816563755766949e-14 1.816563755766949e-14 0.9999999999999974 5.575379692625078e-16 5.575379692625078e-16 5.575379692625078e-16 5.575379692625078e-16 2.28497306656547e-09 0.9999999908601077 2.28497306656547e-09 2.28497306656547e-09 2.28497306656547e-09 0.2 0.2 0.2 0.2 0.2 0.2 0.2 0.2 0.2 0.2 0.2 0.2 0.2 0.2 0.2 0.2 0.2 0.2 0.2 0.2 0.2 0.2 0.2 0.2 0.2 0.2 0.2 0.2 0.2 0.2 0.2 0.2 0.2 0.2 0.2 1.108409364218666e-18 1 1.108409364218666e-18 1.108409364218666e-18 1.108409364218666e-18 0.2 0.2 0.2 0.2 0.2 0.2 0.2 0.2 0.2 0.2 0.2 0.2 0.2 0.2 0.2 0.2 0.2 0.2 0.2 0.2 1.210064047791571e-19 1 1.210064047791571e-19 1.210064047791571e-19 1.210064047791571e-19 1.71804705313585e-14 0.9902945686400183 0.009705431359930078 1.71804705313585e-14 1.71804705313585e-14 3.386229516247287e-11 0.930275456673211 0.06972454322520218 3.386229516247287e-11 3.386229516247287e-11 0.2 0.2 0.2 0.2 0.2 1 2.68062081920589e-21 2.68062081920589e-21 2.68062081920589e-21 2.68062081920589e-21 1.707232559974315e-27 1 1.707232559974315e-27 1.707232559974315e-27 1.707232559974315e-27 0.0175606750461434 0.5323657277146608 0.4500735972391957 3.875503926789913e-20 3.875503926789913e-20 0.04110561096271805 0.8482365440685595 0.1106578449687222 4.218488353280447e-18 4.218488353280447e-18 1.25e-06 0.9999949999999999 1.25e-06 1.25e-06 1.25e-06 1 6.83973574788861e-19 6.83973574788861e-19 6.83973574788861e-19 6.83973574788861e-19 2.502247391088993e-22 1 2.502247391088993e-22 2.502247391088993e-22 2.502247391088993e-22 0.3074374079528719 0.6925625920471281 1.435195529904569e-17 1.435195529904569e-17 1.435195529904569e-17 2.250316835842721e-18 1 2.250316835842721e-18 2.250316835842721e-18 2.250316835842721e-18 0.2 0.2 0.2 0.2 0.2 0.2 0.2 0.2 0.2 0.2 4.863344096001975e-27 1 4.863344096001975e-27 4.863344096001975e-27 4.863344096001975e-27 3.582158547118869e-16 0.6571735517267335 0.3428264482732653 3.582158547118869e-16 3.582158547118869e-16 2.873438583717444e-16 0.1858498829767316 0.004424263991404778 0.8097258530318631 2.873438583717444e-16 0.2 0.2 0.2 0.2 0.2 1 1.197737238005439e-23 1.197737238005439e-23 1.197737238005439e-23 1.197737238005439e-23 1.778534426356149e-26 1 1.778534426356149e-26 1.778534426356149e-26 1.778534426356149e-26 0.007249799525398795 0.01015233027890588 0.9825978701956952 4.742927463379036e-23 4.742927463379036e-23 7.43650341558602e-12 7.43650341558602e-12 0.999999999970254 7.43650341558602e-12 7.43650341558602e-12 5.125261388330807e-08 5.125261388330807e-08 0.9999997949895444 5.125261388330807e-08 5.125261388330807e-08 0.9999999999999768 5.800388377955138e-15 5.800388377955138e-15 5.800388377955138e-15 5.800388377955138e-15 5.66366866438277e-27 1 5.66366866438277e-27 5.66366866438277e-27 5.66366866438277e-27 1.916926370265835e-24 0.08153076837224923 0.9184692316277507 1.916926370265835e-24 1.916926370265835e-24 7.949540250431558e-24 0.02014585070522923 0.03802941848378121 0.9418247308109895 7.949540250431558e-24 2.934125793870339e-17 2.934125793870339e-17 1 2.934125793870339e-17 2.934125793870339e-17 1 4.818919832081821e-19 4.818919832081821e-19 4.818919832081821e-19 4.818919832081821e-19 6.571386954345247e-25 0.993532194369214 0.006467805630786 6.571386954345247e-25 6.571386954345247e-25 0.0007935406392243512 0.01816622368088228 0.9810402356798934 2.303741923866818e-26 2.303741923866818e-26 1.047893485836579e-24 0.0003305472888202323 0.0419676847234435 0.9577017679877363 1.047893485836579e-24 2.84374463887487e-19 2.84374463887487e-19 0.9993991144837184 0.000600885516281486 2.84374463887487e-19 0.2 0.2 0.2 0.2 0.2 4.767831329335031e-22 1 4.767831329335031e-22 4.767831329335031e-22 4.767831329335031e-22 1.527316854764383e-24 0.01054238899500719 0.9894576110049927 1.527316854764383e-24 1.527316854764383e-24 4.485920666680856e-24 0.01149742652723273 0.002384366704636489 0.9861182067681308 4.485920666680856e-24 4.991335739807309e-20 4.991335739807309e-20 0.7820821301181786 0.2179178698818213 4.991335739807309e-20 0.2 0.2 0.2 0.2 0.2 0.2 0.2 0.2 0.2 0.2 1.484301446976761e-17 1.484301446976761e-17 1 1.484301446976761e-17 1.484301446976761e-17 1.472789362313429e-09 1.472789362313429e-09 1.472789362313429e-09 0.9999999941088425 1.472789362313429e-09 0.2 0.2 0.2 0.2 0.2 0.2 0.2 0.2 0.2 0.2 0.2 0.2 0.2 0.2 0.2 3.595310667899115e-20 3.595310667899115e-20 1 3.595310667899115e-20 3.595310667899115e-20 4.175661057286707e-13 4.175661057286707e-13 4.175661057286707e-13 0.9999999999983297 4.175661057286707e-13 5.649695209852458e-19 5.649695209852458e-19 0.1455252918287938 5.649695209852458e-19 0.8544747081712061 0.2 0.2 0.2 0.2 0.2 0.2 0.2 0.2 0.2 0.2 0.2 0.2 0.2 0.2 0.2 1.765675928985627e-21 1.765675928985627e-21 1.765675928985627e-21 1 1.765675928985627e-21 3.961198627500951e-20 3.961198627500951e-20 3.961198627500951e-20 3.961198627500951e-20 1 0.2 0.2 0.2 0.2 0.2 0.2 0.2 0.2 0.2 0.2 1.009020929127752e-14 1.009020929127752e-14 0.9999999999999595 1.009020929127752e-14 1.009020929127752e-14 8.588807498366386e-24 8.588807498366386e-24 8.588807498366386e-24 1 8.588807498366386e-24 2.658624219972333e-25 2.658624219972333e-25 0.000762083995919255 2.658624219972333e-25 0.9992379160040809 0.2 0.2 0.2 0.2 0.2 0.2 0.2 0.2 0.2 0.2 0.2 0.2 0.2 0.2 0.2 4.659460634029522e-22 4.659460634029522e-22 4.659460634029522e-22 0.9918954507386661 0.008104549261333784 4.873233171331114e-27 4.873233171331114e-27 4.873233171331114e-27 4.873233171331114e-27 1</probabilities>
		</cpt>
		<cpt id="p2_wti" order="1">
			<parents>p1_imas p2_wti</parents>
			<probabilities>0.2 0.2 0.2 0.2 0.2 0.2 0.2 0.2 0.2 0.2 0.2 0.2 0.2 0.2 0.2 0.2 0.2 0.2 0.2 0.2 0.2 0.2 0.2 0.2 0.2 0.2 0.2 0.2 0.2 0.2 0.2 0.2 0.2 0.2 0.2 0.2 0.2 0.2 0.2 0.2 0.2 0.2 0.2 0.2 0.2 0.2 0.2 0.2 0.2 0.2 0.2 0.2 0.2 0.2 0.2 0.2 0.2 0.2 0.2 0.2 0.2 0.2 0.2 0.2 0.2 0.2 0.2 0.2 0.2 0.2 0.2 0.2 0.2 0.2 0.2 1 4.752261634550001e-27 4.752261634550001e-27 4.752261634550001e-27 4.752261634550001e-27 1 4.596821649829648e-18 4.596821649829648e-18 4.596821649829648e-18 4.596821649829648e-18 1 1.773029933766342e-17 1.773029933766342e-17 1.773029933766342e-17 1.773029933766342e-17 0.2 0.2 0.2 0.2 0.2 0.9999999999979245 5.187926826463323e-13 5.187926826463323e-13 5.187926826463323e-13 5.187926826463323e-13 1 2.439158850135311e-18 2.439158850135311e-18 2.439158850135311e-18 2.439158850135311e-18 0.9999999831358571 4.216035742539179e-09 4.216035742539179e-09 4.216035742539179e-09 4.216035742539179e-09 0.2 0.2 0.2 0.2 0.2 0.2 0.2 0.2 0.2 0.2 0.2 0.2 0.2 0.2 0.2 0.2 0.2 0.2 0.2 0.2 0.2 0.2 0.2 0.2 0.2 0.2 0.2 0.2 0.2 0.2 0.2 0.2 0.2 0.2 0.2 0.2 0.2 0.2 0.2 0.2 0.2 0.2 0.2 0.2 0.2 0.2 0.2 0.2 0.2 0.2 0.2 0.2 0.2 0.2 0.2 0.2 0.2 0.2 0.2 0.2 0.2 0.2 0.2 0.2 0.2 0.2 0.2 0.2 0.2 0.2 1.108409364218666e-18 1 1.108409364218666e-18 1.108409364218666e-18 1.108409364218666e-18 5.147507130691663e-13 0.999999999997941 5.147507130691663e-13 5.147507130691663e-13 5.147507130691663e-13 0.2 0.2 0.2 0.2 0.2 0.2 0.2 0.2 0.2 0.2 1 3.946696384426416e-25 3.946696384426416e-25 3.946696384426416e-25 3.946696384426416e-25 0.004687459169998857 0.9953125408300011 1.981944906381451e-26 1.981944906381451e-26 1.981944906381451e-26 0.2485207103976866 0.7514792896023134 2.082634067398506e-17 2.082634067398506e-17 2.082634067398506e-17 0.2 0.2 0.2 0.2 0.2 1.620330536920231e-12 0.999999999993519 1.620330536920231e-12 1.620330536920231e-12 1.620330536920231e-12 1 7.522626011645081e-21 7.522626011645081e-21 7.522626011645081e-21 7.522626011645081e-21 0.01801986493369519 0.9819801350661826 4.064045779665156e-14 4.064045779665156e-14 4.064045779665156e-14 0.9999999999999976 5.384828978268226e-16 5.384828978268226e-16 5.384828978268226e-16 5.384828978268226e-16 0.2 0.2 0.2 0.2 0.2 4.112930797368753e-09 0.9999999835482768 4.112930797368753e-09 4.112930797368753e-09 4.112930797368753e-09 0.2 0.2 0.2 0.2 0.2 0.2 0.2 0.2 0.2 0.2 0.2 0.2 0.2 0.2 0.2 0.2 0.2 0.2 0.2 0.2 0.2 0.2 0.2 0.2 0.2 0.2 0.2 0.2 0.2 0.2 1.099844688668718e-18 1 1.099844688668718e-18 1.099844688668718e-18 1.099844688668718e-18 0.2 0.2 0.2 0.2 0.2 0.2 0.2 0.2 0.2 0.2 0.2 0.2 0.2 0.2 0.2 0.9999000000000002 2.499999999999999e-05 2.499999999999999e-05 2.499999999999999e-05 2.499999999999999e-05 1.210064047791571e-19 1 1.210064047791571e-19 1.210064047791571e-19 1.210064047791571e-19 8.331181514983571e-13 0.9999999999966676 8.331181514983571e-13 8.331181514983571e-13 8.331181514983571e-13 0.2 0.2 0.2 0.2 0.2 8.231447765471431e-10 0.9999999967074208 8.231447765471431e-10 8.231447765471431e-10 8.231447765471431e-10 1 2.041312659311162e-21 2.041312659311162e-21 2.041312659311162e-21 2.041312659311162e-21 1.707191208577615e-27 1 1.707191208577615e-27 1.707191208577615e-27 1.707191208577615e-27 0.01589702333453935 0.4983266292449561 0.4857763474205046 3.18417517796344e-20 3.18417517796344e-20 0.2 0.2 0.2 0.2 0.2 0.04195111401102276 0.8537906321809924 0.1042582538079849 3.001596881649693e-18 3.001596881649693e-18 1 1.12780993021526e-18 1.12780993021526e-18 1.12780993021526e-18 1.12780993021526e-18 3.227775344664652e-22 1 3.227775344664652e-22 3.227775344664652e-22 3.227775344664652e-22 0.3025013496490912 0.6974986503509087 1.310364526320477e-17 1.310364526320477e-17 1.310364526320477e-17 0.2 0.2 0.2 0.2 0.2 2.78940803519531e-18 1 2.78940803519531e-18 2.78940803519531e-18 2.78940803519531e-18 0.2 0.2 0.2 0.2 0.2 4.951592419333241e-27 1 4.951592419333241e-27 4.951592419333241e-27 4.951592419333241e-27 2.023679850993446e-16 0.5252525172872515 0.4747474827127479 2.023679850993446e-16 2.023679850993446e-16 1.25e-06 1.25e-06 0.9999949999999999 1.25e-06 1.25e-06 8.356665019026513e-17 0.1796235657345767 0.006907835216707134 8.356665019026513e-17 0.813468599048716 1 1.353512328506443e-23 1.353512328506443e-23 1.353512328506443e-23 1.353512328506443e-23 1.893341941560301e-26 1 1.893341941560301e-26 1.893341941560301e-26 1.893341941560301e-26 0.007293340514004917 0.01021263396193424 0.9824940255240607 4.963817994737594e-23 4.963817994737594e-23 2.5e-05 2.5e-05 0.9999 2.5e-05 2.5e-05 5.138119836063938e-12 5.138119836063938e-12 0.9999999999794474 5.138119836063938e-12 5.138119836063938e-12 0.999999999999966 8.485081765811575e-15 8.485081765811575e-15 8.485081765811575e-15 8.485081765811575e-15 5.704043783770373e-27 1 5.704043783770373e-27 5.704043783770373e-27 5.704043783770373e-27 1.843292970267425e-24 0.0812870366754545 0.9187129633245456 1.843292970267425e-24 1.843292970267425e-24 3.422701811417016e-17 3.422701811417016e-17 1 3.422701811417016e-17 3.422701811417016e-17 8.975352563582308e-24 0.01988908172609698 0.04011690433036166 8.975352563582308e-24 0.9399940139435414 1 4.887342024611448e-19 4.887342024611448e-19 4.887342024611448e-19 4.887342024611448e-19 6.71571112391363e-25 0.9933687687506035 0.006631231249396536 6.71571112391363e-25 6.71571112391363e-25 0.0008431524033367208 0.01811427068771994 0.9810425769089434 2.370336009064901e-26 2.370336009064901e-26 2.590320975026191e-19 2.590320975026191e-19 1 2.590320975026191e-19 2.590320975026191e-19 9.760693671240359e-25 0.0002347533571115628 0.0404789997120756 9.760693671240359e-25 0.9592862469308129 0.2 0.2 0.2 0.2 0.2 3.6556134615913e-22 1 3.6556134615913e-22 3.6556134615913e-22 3.6556134615913e-22 1.575825389111753e-24 0.0105314258356119 0.9894685741643882 1.575825389111753e-24 1.575825389111753e-24 4.792530974352208e-20 4.792530974352208e-20 0.7772932687137577 4.792530974352208e-20 0.2227067312862422 4.372301954519073e-24 0.01155066507190703 0.00234591795331418 4.372301954519073e-24 0.9861034169747789 0.2 0.2 0.2 0.2 0.2 0.2 0.2 0.2 0.2 0.2 2.114316518836089e-17 2.114316518836089e-17 1 2.114316518836089e-17 2.114316518836089e-17 2.285157866749191e-10 2.285157866749191e-10 0.5555555551493052 0.4444444441651473 2.285157866749191e-10 3.188663581604891e-10 3.188663581604891e-10 3.188663581604891e-10 3.188663581604891e-10 0.9999999987245346 0.2 0.2 0.2 0.2 0.2 0.2 0.2 0.2 0.2 0.2 4.252115413863496e-20 4.252115413863496e-20 1 4.252115413863496e-20 4.252115413863496e-20 5.206936698351185e-19 5.206936698351185e-19 0.1312028264011563 0.8687971735988438 5.206936698351185e-19 1.236704141095486e-13 1.236704141095486e-13 1.236704141095486e-13 1.236704141095486e-13 0.9999999999995053 0.2 0.2 0.2 0.2 0.2 0.2 0.2 0.2 0.2 0.2 0.2 0.2 0.2 0.2 0.2 3.433398260481397e-20 3.433398260481397e-20 3.433398260481397e-20 1 3.433398260481397e-20 1.198706956498211e-21 1.198706956498211e-21 1.198706956498211e-21 1.198706956498211e-21 1 0.2 0.2 0.2 0.2 0.2 0.2 0.2 0.2 0.2 0.2 2.724828078616722e-15 2.724828078616722e-15 0.999999999999989 2.724828078616722e-15 2.724828078616722e-15 2.614452203906883e-25 2.614452203906883e-25 0.0009174053788425733 0.9990825946211574 2.614452203906883e-25 8.657635358243458e-24 8.657635358243458e-24 8.657635358243458e-24 8.657635358243458e-24 1 0.2 0.2 0.2 0.2 0.2 0.2 0.2 0.2 0.2 0.2 0.2 0.2 0.2 0.2 0.2 4.83848347625668e-27 4.83848347625668e-27 4.83848347625668e-27 1 4.83848347625668e-27 4.984777508493527e-22 4.984777508493527e-22 4.984777508493527e-22 0.008363056358977883 0.9916369436410222</probabilities>
		</cpt>
	</dynamic>
	<extensions>
		<genie version="1.0" app="SMILE_ACADEMIC 1.5.0@a121f1f76773" name="emidas dbn v9" faultnameformat="user">
			<plate leftwidth="120" rightwidth="120">120 50 1164 561</plate>
			<node id="p1_imas">
				<name>p1_imas</name>
				<interior color="e5f6f7" />
				<outline color="000080" />
				<font color="000000" name="MS Sans Serif" size="8" />
				<position>491 462 547 497</position>
			</node>
			<node id="p2_imas">
				<name>p2_imas</name>
				<interior color="e5f6f7" />
				<outline color="000080" />
				<font color="000000" name="MS Sans Serif" size="8" />
				<position>651 472 707 507</position>
			</node>
			<node id="p1_wti">
				<name>p1_wti</name>
				<interior color="e5f6f7" />
				<outline color="000080" />
				<font color="000000" name="MS Sans Serif" size="8" />
				<position>487 311 571 363</position>
			</node>
			<node id="p2_wti">
				<name>p2_wti</name>
				<interior color="e5f6f7" />
				<outline color="000080" />
				<font color="000000" name="MS Sans Serif" size="8" />
				<position>650 301 734 353</position>
			</node>
			<node id="p1_approach">
				<name>p1_approach</name>
				<interior color="e5f6f7" />
				<outline color="000080" />
				<font color="000000" name="MS Sans Serif" size="8" />
				<position>268 135 344 182</position>
			</node>
			<node id="p2_head">
				<name>p2_head</name>
				<interior color="e5f6f7" />
				<outline color="000080" />
				<font color="000000" name="MS Sans Serif" size="8" />
				<position>676 84 733 119</position>
			</node>
			<node id="p1_body">
				<name>p1_body</name>
				<interior color="e5f6f7" />
				<outline color="000080" />
				<font color="000000" name="MS Sans Serif" size="8" />
				<position>404 76 461 111</position>
			</node>
			<node id="p2_approach">
				<name>p2_approach</name>
				<interior color="e5f6f7" />
				<outline color="000080" />
				<font color="000000" name="MS Sans Serif" size="8" />
				<position>924 160 1000 207</position>
			</node>
			<node id="p2_body">
				<name>p2_body</name>
				<interior color="e5f6f7" />
				<outline color="000080" />
				<font color="000000" name="MS Sans Serif" size="8" />
				<position>827 91 884 126</position>
			</node>
			<node id="dist">
				<name>dist</name>
				<interior color="e5f6f7" />
				<outline color="000080" />
				<font color="000000" name="MS Sans Serif" size="8" />
				<position>599 137 637 160</position>
			</node>
			<node id="p1_gesture">
				<name>p1_gesture</name>
				<interior color="e5f6f7" />
				<outline color="000080" />
				<font color="000000" name="MS Sans Serif" size="8" />
				<position>248 271 316 313</position>
			</node>
			<node id="p2_gesture">
				<name>p2_gesture</name>
				<interior color="e5f6f7" />
				<outline color="000080" />
				<font color="000000" name="MS Sans Serif" size="8" />
				<position>964 312 1032 354</position>
			</node>
			<node id="p1_head">
				<name>p1_head</name>
				<interior color="e5f6f7" />
				<outline color="000080" />
				<font color="000000" name="MS Sans Serif" size="8" />
				<position>528 80 585 115</position>
			</node>
		</genie>
	</extensions>
</smile>
