<?xml version="1.0" encoding="ISO-8859-1"?>
<!-- This file was created by ACADEMIC version of SMILE -->
<smile version="1.0" id="Network2" numsamples="10000" discsamples="10000">
	<nodes>
		<cpt id="p1_imas" target="true" dynamic="plate">
			<state id="very_high" />
			<state id="high" />
			<state id="medium" />
			<state id="low" />
			<state id="very_low" />
			<probabilities>0.05396900024157838 0.07467178284556863 0.1672400827377818 0.5154509121728716 0.1886682220021995</probabilities>
		</cpt>
		<cpt id="p2_imas" target="true" dynamic="plate">
			<state id="very_high" />
			<state id="high" />
			<state id="medium" />
			<state id="low" />
			<state id="very_low" />
			<probabilities>0.05435128033288564 0.07557371267085031 0.1667322075446075 0.5133997872347641 0.1899430122168925</probabilities>
		</cpt>
		<cpt id="p1_wti" target="true" dynamic="plate">
			<state id="very_high" />
			<state id="high" />
			<state id="medium" />
			<state id="low" />
			<state id="very_low" />
			<parents>p1_imas</parents>
			<probabilities>1 1.281670642492905e-20 1.281670642492905e-20 1.281670642492905e-20 1.281670642492905e-20 0.2685672837389684 0.7314327162610316 2.736559894049349e-21 2.736559894049349e-21 2.736559894049349e-21 0.03601920648858982 0.9569402918521862 0.007040501659223967 1.073348015812405e-22 1.073348015812405e-22 0.02602752670740789 0.4148520614647232 0.3169917646438593 0.2421286471840097 1.370098216370684e-24 3.570968059403301e-23 3.570968059403301e-23 0.01431238724305235 0.3208845388253727 0.664803073931575</probabilities>
		</cpt>
		<cpt id="p2_wti" target="true" dynamic="plate">
			<state id="very_high" />
			<state id="high" />
			<state id="medium" />
			<state id="very_low" />
			<state id="low" />
			<parents>p2_imas</parents>
			<probabilities>1 1.246614609139191e-20 1.246614609139191e-20 1.246614609139191e-20 1.246614609139191e-20 0.2755203789130439 0.7244796210869561 2.618849086265249e-21 2.618849086265249e-21 2.618849086265249e-21 0.03786145400795838 0.9540879259530454 0.008050620038996372 1.090895200778075e-22 1.090895200778075e-22 0.02472639413741354 0.4137405181601699 0.3171711110047302 1.38595331811688e-24 0.2443619766976862 3.512446070951318e-23 3.512446070951318e-23 0.01371214691595939 0.6646144571415949 0.3216733959424457</probabilities>
		</cpt>
		<cpt id="p1_approach" dynamic="plate">
			<state id="y" />
			<state id="m" />
			<state id="n" />
			<parents>p1_wti</parents>
			<probabilities>0.7445478635609368 0.1743768402602603 0.08107529617880294 0.5250024439895813 0.1669678298112801 0.3080297261991385 0.2753130174371181 0.2292873092225932 0.4953996733402887 0.357493683221268 0.0900658075855707 0.5524405091931613 0.0006065510932607034 0.04093226059008106 0.9584611883166583</probabilities>
		</cpt>
		<cpt id="p2_head" dynamic="plate">
			<state id="central" />
			<state id="mid_peripheral" />
			<state id="outside" />
			<parents>p2_wti</parents>
			<probabilities>1 3.787929789598726e-29 3.787929789598726e-29 0.9986382431857286 0.001256708780216444 0.0001050480340548944 0.9880754294342352 0.01073867999163928 0.001185890574125339 0.1500226750560626 0.1362374295420729 0.7137398954018644 0.4805632768519486 0.2791147495249877 0.2403219736230638</probabilities>
		</cpt>
		<cpt id="p1_body" dynamic="plate">
			<state id="strongly_facing" />
			<state id="slightly_facing" />
			<state id="turned_away" />
			<parents>p1_wti</parents>
			<probabilities>0.3808900117934492 0.5815753676863342 0.03753462052021654 0.2841722735745358 0.5587622573250145 0.1570654691004497 0.09049035485539607 0.4956591851995632 0.4138504599450407 0.08133497813033651 0.7636035420107978 0.1550614798588657 0.001651665861782402 0.2700230282560647 0.7283253058821528</probabilities>
		</cpt>
		<cpt id="p2_approach" dynamic="plate">
			<state id="y" />
			<state id="m" />
			<state id="n" />
			<parents>p2_wti</parents>
			<probabilities>0.7453612431951271 0.175180323591337 0.07945843321353577 0.524406141877426 0.1689359818742455 0.3066578762483286 0.2776903095534985 0.2323706166453957 0.4899390738011058 0.0005032409424215354 0.04149453220858103 0.9580022268489975 0.3580175008868589 0.09218998793050838 0.5497925111826328</probabilities>
		</cpt>
		<cpt id="p2_body" dynamic="plate">
			<state id="strongly_facing" />
			<state id="slightly_facing" />
			<state id="turned_away" />
			<parents>p2_wti</parents>
			<probabilities>0.384108790549008 0.5774327066629042 0.03845850278808777 0.2830991236455756 0.5619187028730427 0.1549821734813817 0.08964552599255216 0.4997147345518158 0.4106397394556321 0.001231103436602267 0.2826847300464158 0.716084166516982 0.08262498945364387 0.7674013468247247 0.1499736637216313</probabilities>
		</cpt>
		<cpt id="dist" dynamic="plate">
			<state id="range_0_3" />
			<state id="range_3_6" />
			<state id="range_6_9" />
			<state id="range_9_12" />
			<state id="range_12_15" />
			<state id="range_15_18" />
			<state id="range_18_21" />
			<state id="range_21_24" />
			<state id="range_24_27" />
			<state id="range_27_30" />
			<state id="range_30_inf" />
			<parents>p1_wti p2_wti</parents>
			<probabilities>0.1111111111111111 0.1111111111111111 0.1111111111111111 0.1111111111111111 0.1111111111111111 0.1111111111111111 0.1111111111111111 0.1111111111111111 0.1111111111111111 0 0 0.03606325637719177 0.1434588441995535 0.2252484431728607 0.2668266652117611 0.1964931111129806 0.08819914670633229 0.03812777909617176 0.00558275412314858 1.681954930311648e-29 0 0 8.461638307388604e-24 8.461638307388604e-24 8.461638307388604e-24 0.01993707266883758 0.6855311143749144 0.294531812956248 8.461638307388604e-24 8.461638307388604e-24 8.461638307388604e-24 0 0 8.939211970274355e-22 8.939211970274355e-22 8.939211970274355e-22 8.939211970274355e-22 0.7297299856989971 0.2702700143010029 8.939211970274355e-22 8.939211970274355e-22 8.939211970274355e-22 0 0 8.751312649233372e-22 8.751312649233372e-22 0.003063182540927672 0.128430676419048 0.3634213753825918 0.4999559887592008 0.005128776898231667 8.751312649233372e-22 8.751312649233372e-22 0 0 0.03604475956787774 0.1436563409540363 0.2253264748123447 0.2673360853245402 0.1984889166304904 0.08618058460135765 0.03753281984931889 0.005434018260034205 1.620158953479851e-29 0 0 0.02230907104726854 0.0921878901407879 0.1704884610255723 0.264718981040757 0.1807953947910914 0.2193619374448457 0.04891241670189206 0.001225847807784982 6.899626863525733e-31 0 0 0.009973204877178541 0.04623592492830425 0.07656370148402505 0.2657732144838834 0.1065745157665078 0.2243210092165867 0.1662660306506678 0.1031405746133876 0.001151823979458871 0 0 1.788777616150293e-24 1.788777616150293e-24 0.0004496847709749778 0.900789421614315 0.008644065510176619 0.0149677576020928 0.07347736736631989 0.001671703136120774 1.788777616150293e-24 0 0 4.761588074636558e-27 4.761588074636558e-27 0.0005551537355682292 0.1429971822043756 0.001166348201282113 0.04543197790709177 0.07757441599601179 0.2557822676606805 0.3190500916873177 0.1349382588521922 0.02250430375548019 7.90326996028706e-24 7.90326996028706e-24 7.90326996028706e-24 0.01289136447693147 0.6875767180757865 0.299531917447282 7.90326996028706e-24 7.90326996028706e-24 7.90326996028706e-24 0 0 0.009994254589599783 0.04641605429714545 0.07769993933163755 0.2680033910294754 0.1075201739617994 0.2179175710066611 0.169809969104129 0.1009090160133815 0.001729630666170949 0 0 1.943905547990857e-27 1.943905547990857e-27 0.002929633959348271 0.1383006133543051 0.08829994684202411 0.2662080554145636 0.1680636282027891 0.05156173699257432 0.05895199338320706 0.2256843918511886 0 1.808557742192051e-25 1.808557742192051e-25 1.808557742192051e-25 0.003302383837744467 0.2373876381969708 0.4881711637740693 0.2499409885241033 0.02119782566711204 1.808557742192051e-25 0 0 5.725823558886469e-25 5.725823558886469e-25 5.725823558886469e-25 0.2359457335534177 0.02840361372183065 0.1533629442058488 0.2444588677202064 0.1902057835808947 0.02338480293862596 0.03701349396586263 0.0872247603133131 9.235898885187476e-22 9.235898885187476e-22 0.000268450370229406 0.1014294982183439 0.3424308181037157 0.5478065367684549 0.008064696539255867 9.235898885187476e-22 9.235898885187476e-22 0 0 5.037107158053225e-27 5.037107158053225e-27 0.001432563412090741 0.1353710139060026 0.00145302858449215 0.04932689540023998 0.07420767453725639 0.2616496990999805 0.3188530238939038 0.1360232306644555 0.02168287050157835 6.812381687025103e-25 6.812381687025103e-25 6.812381687025103e-25 0.235673430265139 0.03041346106538834 0.1576429272099546 0.2272077257059835 0.1914329051932372 0.02625201586707511 0.04001659438536142 0.09136094030786081 4.187534567845505e-24 4.187534567845505e-24 4.187534567845505e-24 0.7985124274442401 0.006292757986258462 0.1300563150614329 0.06513830656971098 1.287931555282431e-07 6.312984064315873e-08 1.015361272055801e-09 0 2.831261925454076e-25 2.831261925454076e-25 0.001908032856209313 0.4036974721003724 0.01304400425921899 0.0738104987027645 0.3074513079297397 0.200088684151695 2.831261925454076e-25 0 0 1.158701069719348e-21 1.158701069719348e-21 1.158701069719348e-21 1.158701069719348e-21 0.7519200452726463 0.2480799547273536 1.158701069719348e-21 1.158701069719348e-21 1.158701069719348e-21 0 0 1.651145256812204e-24 1.651145256812204e-24 0.0001740821937498927 0.8938020000348245 0.01132432748129579 0.01405124081310043 0.07862674980765204 0.002021599669377409 1.651145256812204e-24 0 0 1.753963632379378e-25 1.753963632379378e-25 1.753963632379378e-25 0.003136089236197214 0.2566280427799336 0.4643709776124925 0.2573072672535346 0.01855762311784209 1.753963632379378e-25 0 0 1.269910017674546e-27 1.269910017674546e-27 1.269910017674546e-27 0.002589385668919854 0.1967237368077558 0.535677053298134 0.2492191156908942 0.01579058237516988 8.483218267436746e-08 4.132694352573833e-08 0 4.43304787554804e-24 4.43304787554804e-24 4.43304787554804e-24 0.7952702653373329 0.004180910400507293 0.1372091403386398 0.06333947801543288 1.373889379708757e-07 6.810147514567467e-08 4.176739219201671e-10 0</probabilities>
		</cpt>
		<cpt id="p1_gesture" dynamic="plate">
			<state id="wave_slow_shoulder" />
			<state id="wave_fast_shoulder" />
			<state id="wave_small_head" />
			<state id="wave_wide_head" />
			<state id="arm_raise_high" />
			<state id="arm_raise_low" />
			<state id="come_here" />
			<state id="i_am_coming" />
			<state id="None" />
			<parents>p1_wti</parents>
			<probabilities>0.02074507574889949 1.310626727283039e-29 0.001839370025390472 0.01939047481192947 0.01974839743250436 1.310626727283039e-29 0.02516526131431041 0.007818573749094629 0.9052928469178712 7.217984001900392e-32 0.02968646284472186 0.07644897181711367 0.007397317274955984 0.1072201718397105 0.06758108027084229 0.02552225263798446 7.217983936938537e-32 0.6861437433146713 2.74687402792318e-29 2.746874003201314e-29 2.746874003201314e-29 2.746874003201314e-29 0.137543524357793 0.03647495348578211 2.746874003201314e-29 2.746874003201314e-29 0.8259815221564248 3.736366748681288e-28 3.736366715053988e-28 0.05991305927624975 3.736366715053988e-28 3.736366715053988e-28 3.736366715053988e-28 3.736366715053988e-28 3.736366715053988e-28 0.9400869407237502 1.193432322474241e-28 1.19343231173335e-28 1.19343231173335e-28 1.19343231173335e-28 1.19343231173335e-28 1.19343231173335e-28 1.19343231173335e-28 1.19343231173335e-28 1</probabilities>
		</cpt>
		<cpt id="p2_gesture" dynamic="plate">
			<state id="wave_slow_shoulder" />
			<state id="wave_fast_shoulder" />
			<state id="wave_small_head" />
			<state id="wave_wide_head" />
			<state id="arm_raise_high" />
			<state id="arm_raise_low" />
			<state id="come_here" />
			<state id="i_am_coming" />
			<state id="None" />
			<parents>p2_wti</parents>
			<probabilities>0.02045730427337594 1.262643263199576e-29 0.002630185296406209 0.01836605930023276 0.01929496069324127 1.262643263199576e-29 0.02524640032815527 0.008954311660971725 0.9050507784476167 7.317549730099776e-32 0.0299328206470996 0.07762535835954573 0.007105942348947094 0.1061267507877073 0.06811153329127324 0.02492224038423255 7.317549730099776e-32 0.6861753541811946 2.773162152919013e-29 2.773162152919013e-29 2.773162152919013e-29 2.773162152919013e-29 0.1390209733795603 0.03722837775996684 2.773162152919013e-29 2.773162152919013e-29 0.8237506488604728 1.18878990512681e-28 1.18878990512681e-28 1.18878990512681e-28 1.18878990512681e-28 1.18878990512681e-28 1.18878990512681e-28 1.18878990512681e-28 1.18878990512681e-28 1 3.574591285552918e-28 3.574591285552918e-28 0.06029699617227442 3.574591285552918e-28 3.574591285552918e-28 3.574591285552918e-28 3.574591285552918e-28 3.574591285552918e-28 0.9397030038277256</probabilities>
		</cpt>
		<cpt id="p1_head" dynamic="plate">
			<state id="central" />
			<state id="mid_peripheral" />
			<state id="outside" />
			<parents>p1_wti</parents>
			<probabilities>1 3.931880221167918e-29 3.931880221167918e-29 0.9986348133169497 0.001232091088955646 0.0001330955940948324 0.9884264558119742 0.01023799349138188 0.001335550696643841 0.4801985862598125 0.2827365850598977 0.2370648286802898 0.1500444546399614 0.1284487748476697 0.7215067705123688</probabilities>
		</cpt>
	</nodes>
	<dynamic numslices="50">
		<cpt id="p1_imas" order="1">
			<parents>p1_imas</parents>
			<probabilities>1 1.656662400926661e-28 1.656662400926661e-28 1.656662400926661e-28 1.656662400926661e-28 0.001422538043162705 0.9985774619568373 6.014027758287429e-29 6.014027758287429e-29 6.014027758287429e-29 0.005441495730454539 0.00487681139143331 0.9878982184721821 0.001783474405930003 1.222777092331922e-29 0.001754561263494923 0.002462164927411029 0.004616898592831342 0.9911663752115772 4.685420237831519e-12 1.017638930069867e-28 1.017638930069867e-28 4.315643958004778e-06 0.05085327697767882 0.9491424073783632</probabilities>
		</cpt>
		<cpt id="p2_imas" order="1">
			<parents>p2_imas</parents>
			<probabilities>1 1.629786310574427e-28 1.629786310574427e-28 1.629786310574427e-28 1.629786310574427e-28 0.001414241144804994 0.998585758855195 5.781607125931811e-29 5.781607125931811e-29 5.781607125931811e-29 0.00546089760537073 0.004900634178273655 0.9878194998752753 0.00181896834108039 1.220334552518999e-29 0.001762908814529306 0.002498773328853449 0.004711821203050261 0.9910264966487966 4.770420967110194e-12 1.011274277756526e-28 1.011274277756526e-28 1.011274277756526e-28 0.05100822270346769 0.9489917772965323</probabilities>
		</cpt>
		<cpt id="p1_wti" order="1">
			<parents>p2_imas p1_wti</parents>
			<probabilities>0.2 0.2 0.2 0.2 0.2 0.2 0.2 0.2 0.2 0.2 0.2 0.2 0.2 0.2 0.2 0.2 0.2 0.2 0.2 0.2 0.2 0.2 0.2 0.2 0.2 0.2 0.2 0.2 0.2 0.2 0.2 0.2 0.2 0.2 0.2 0.2 0.2 0.2 0.2 0.2 0.2 0.2 0.2 0.2 0.2 0.2 0.2 0.2 0.2 0.2 0.2 0.2 0.2 0.2 0.2 0.2 0.2 0.2 0.2 0.2 0.2 0.2 0.2 0.2 0.2 0.2 0.2 0.2 0.2 0.2 0.2 0.2 0.2 0.2 0.2 1 1.676155204026706e-28 1.676155204026706e-28 1.676155204026706e-28 1.676155204026706e-28 1 9.612895347197934e-20 9.612895347197934e-20 9.612895347197934e-20 9.612895347197934e-20 1 1.995174247342936e-19 1.995174247342936e-19 1.995174247342936e-19 1.995174247342936e-19 1 1.670288286620206e-18 1.670288286620206e-18 1.670288286620206e-18 1.670288286620206e-18 0.2 0.2 0.2 0.2 0.2 1 7.936672224467259e-20 7.936672224467259e-20 7.936672224467259e-20 7.936672224467259e-20 0.9999999999738999 6.525023162109619e-12 6.525023162109619e-12 6.525023162109619e-12 6.525023162109619e-12 0.2 0.2 0.2 0.2 0.2 0.2 0.2 0.2 0.2 0.2 0.2 0.2 0.2 0.2 0.2 0.2 0.2 0.2 0.2 0.2 0.2 0.2 0.2 0.2 0.2 0.2 0.2 0.2 0.2 0.2 0.2 0.2 0.2 0.2 0.2 0.2 0.2 0.2 0.2 0.2 0.2 0.2 0.2 0.2 0.2 0.2 0.2 0.2 0.2 0.2 0.2 0.2 0.2 0.2 0.2 0.2 0.2 0.2 0.2 0.2 0.2 0.2 0.2 0.2 0.2 0.2 0.2 0.2 0.2 0.2 1.035791718392654e-25 1 1.035791718392654e-25 1.035791718392654e-25 1.035791718392654e-25 1.607173085221472e-18 1 1.607173085221472e-18 1.607173085221472e-18 1.607173085221472e-18 0.2 0.2 0.2 0.2 0.2 0.2 0.2 0.2 0.2 0.2 1 1.640919734756527e-26 1.640919734756527e-26 1.640919734756527e-26 1.640919734756527e-26 0.004865362201191574 0.9951346377988084 5.308655750963032e-28 5.308655750963032e-28 5.308655750963032e-28 0.2232433285962435 0.7767566714037565 2.455630415491863e-19 2.455630415491863e-19 2.455630415491863e-19 1.591456141136585e-16 0.9999999999999993 1.591456141136585e-16 1.591456141136585e-16 1.591456141136585e-16 0.2 0.2 0.2 0.2 0.2 1 1.798430743247498e-22 1.798430743247498e-22 1.798430743247498e-22 1.798430743247498e-22 0.008697498471822085 0.9913025015281716 2.115331160291426e-15 2.115331160291426e-15 2.115331160291426e-15 1 1.390132686626619e-17 1.390132686626619e-17 1.390132686626619e-17 1.390132686626619e-17 4.389975469101551e-12 0.99999999998244 4.389975469101551e-12 4.389975469101551e-12 4.389975469101551e-12 0.2 0.2 0.2 0.2 0.2 0.2 0.2 0.2 0.2 0.2 0.2 0.2 0.2 0.2 0.2 0.2 0.2 0.2 0.2 0.2 0.2 0.2 0.2 0.2 0.2 0.2 0.2 0.2 0.2 0.2 0.2 0.2 0.2 0.2 0.2 1.049031057758979e-25 1 1.049031057758979e-25 1.049031057758979e-25 1.049031057758979e-25 0.2 0.2 0.2 0.2 0.2 0.2 0.2 0.2 0.2 0.2 0.2 0.2 0.2 0.2 0.2 0.2 0.2 0.2 0.2 0.2 6.789296528537347e-27 1 6.789296528537347e-27 6.789296528537347e-27 6.789296528537347e-27 4.774932647342729e-17 0.9841505695889354 0.01584943041106457 4.774932647342729e-17 4.774932647342729e-17 8.563026808727451e-13 0.878661088190497 0.1213389118069341 8.563026808727451e-13 8.563026808727451e-13 0.2 0.2 0.2 0.2 0.2 1 1.506806648737543e-22 1.506806648737543e-22 1.506806648737543e-22 1.506806648737543e-22 7.857873596547015e-29 1 7.857873596547015e-29 7.857873596547015e-29 7.857873596547015e-29 0.01643232543853663 0.4096904648146887 0.5738772097467747 2.486831734956145e-21 2.486831734956145e-21 0.03437829295200662 0.7767716016076122 0.1888501054403812 4.363117011071517e-19 4.363117011071517e-19 1.25e-06 0.9999949999999999 1.25e-06 1.25e-06 1.25e-06 1 7.553922922158481e-20 7.553922922158481e-20 7.553922922158481e-20 7.553922922158481e-20 2.748253439654769e-23 1 2.748253439654769e-23 2.748253439654769e-23 2.748253439654769e-23 0.2430978674790556 0.7569021325209444 1.026617046855214e-18 1.026617046855214e-18 1.026617046855214e-18 5.420643451145363e-19 1 5.420643451145363e-19 5.420643451145363e-19 5.420643451145363e-19 0.2 0.2 0.2 0.2 0.2 0.2 0.2 0.2 0.2 0.2 1.692011813595971e-28 1 1.692011813595971e-28 1.692011813595971e-28 1.692011813595971e-28 9.286931055797894e-18 0.6734988242353478 0.3265011757646522 9.286931055797894e-18 9.286931055797894e-18 1.027582936484215e-17 0.1879249529478035 0.004140892581586422 0.80793415447061 1.027582936484215e-17 0.2 0.2 0.2 0.2 0.2 1 2.592051824946408e-25 2.592051824946408e-25 2.592051824946408e-25 2.592051824946408e-25 7.07395123196757e-28 1 7.07395123196757e-28 7.07395123196757e-28 7.07395123196757e-28 0.005187712005506411 0.01216865799817239 0.9826436299963212 8.163173721595735e-26 8.163173721595735e-26 7.884771031420868e-13 7.884771031420868e-13 0.9999999999968462 7.884771031420868e-13 7.884771031420868e-13 1.921960688965632e-09 1.921960688965632e-09 0.9999999923121572 1.921960688965632e-09 1.921960688965632e-09 0.9999999999999986 3.590828402836572e-16 3.590828402836572e-16 3.590828402836572e-16 3.590828402836572e-16 2.714497509001082e-28 1 2.714497509001082e-28 2.714497509001082e-28 2.714497509001082e-28 7.634278926911485e-26 0.07922024475089827 0.9207797552491017 7.634278926911485e-26 7.634278926911485e-26 2.521132482008766e-25 0.02427469301288259 0.04174397406922723 0.9339813329178902 2.521132482008766e-25 1.502154602414695e-18 1.502154602414695e-18 1 1.502154602414695e-18 1.502154602414695e-18 1 5.748306686808584e-20 5.748306686808584e-20 5.748306686808584e-20 5.748306686808584e-20 1.193344150113171e-26 0.9950041192740349 0.004995880725965184 1.193344150113171e-26 1.193344150113171e-26 0.0002913929679043006 0.009523788156392043 0.9901848188757036 8.674897091827084e-28 8.674897091827084e-28 2.741983472348792e-26 0.00161014536043869 0.04220203627566585 0.9561878183638954 2.741983472348792e-26 2.565258442743063e-20 2.565258442743063e-20 0.9995541302969774 0.0004458697030225561 2.565258442743063e-20 0.2 0.2 0.2 0.2 0.2 3.671019205489795e-23 1 3.671019205489795e-23 3.671019205489795e-23 3.671019205489795e-23 1.95355521163349e-25 0.00949405540126249 0.9905059445987375 1.95355521163349e-25 1.95355521163349e-25 1.813456733375949e-24 0.01404152116861144 0.002896588163074211 0.9830618906683143 1.813456733375949e-24 2.635225130100381e-20 2.635225130100381e-20 0.8074370335187038 0.1925629664812962 2.635225130100381e-20 0.2 0.2 0.2 0.2 0.2 0.2 0.2 0.2 0.2 0.2 3.386349343678436e-19 3.386349343678436e-19 1 3.386349343678436e-19 3.386349343678436e-19 1.458437487494582e-10 1.458437487494582e-10 1.458437487494582e-10 0.9999999994166251 1.458437487494582e-10 0.2 0.2 0.2 0.2 0.2 0.2 0.2 0.2 0.2 0.2 0.2 0.2 0.2 0.2 0.2 8.129386274131292e-22 8.129386274131292e-22 1 8.129386274131292e-22 8.129386274131292e-22 5.429596861179117e-14 5.429596861179117e-14 5.429596861179117e-14 0.9999999999997828 5.429596861179117e-14 1.332245316236862e-20 1.332245316236862e-20 0.1470961523013897 1.332245316236862e-20 0.8529038476986104 0.2 0.2 0.2 0.2 0.2 0.2 0.2 0.2 0.2 0.2 0.2 0.2 0.2 0.2 0.2 2.805103628589359e-22 2.805103628589359e-22 2.805103628589359e-22 1 2.805103628589359e-22 2.044529484918963e-21 2.044529484918963e-21 2.044529484918963e-21 2.044529484918963e-21 1 0.2 0.2 0.2 0.2 0.2 0.2 0.2 0.2 0.2 0.2 2.392598630182465e-16 2.392598630182465e-16 0.9999999999999991 2.392598630182465e-16 2.392598630182465e-16 2.798949284069839e-24 2.798949284069839e-24 2.798949284069839e-24 1 2.798949284069839e-24 2.842533675093576e-26 2.842533675093576e-26 0.001173259781371173 2.842533675093576e-26 0.9988267402186288 0.2 0.2 0.2 0.2 0.2 0.2 0.2 0.2 0.2 0.2 0.2 0.2 0.2 0.2 0.2 3.865585823226416e-22 3.865585823226416e-22 3.865585823226416e-22 0.9999999191006058 8.089939415039848e-08 1.874423617128795e-27 1.874423617128795e-27 1.874423617128795e-27 1.874423617128795e-27 1</probabilities>
		</cpt>
		<cpt id="p2_wti" order="1">
			<parents>p1_imas p2_wti</parents>
			<probabilities>0.2 0.2 0.2 0.2 0.2 0.2 0.2 0.2 0.2 0.2 0.2 0.2 0.2 0.2 0.2 0.2 0.2 0.2 0.2 0.2 0.2 0.2 0.2 0.2 0.2 0.2 0.2 0.2 0.2 0.2 0.2 0.2 0.2 0.2 0.2 0.2 0.2 0.2 0.2 0.2 0.2 0.2 0.2 0.2 0.2 0.2 0.2 0.2 0.2 0.2 0.2 0.2 0.2 0.2 0.2 0.2 0.2 0.2 0.2 0.2 0.2 0.2 0.2 0.2 0.2 0.2 0.2 0.2 0.2 0.2 0.2 0.2 0.2 0.2 0.2 1 1.652813388334792e-28 1.652813388334792e-28 1.652813388334792e-28 1.652813388334792e-28 1 9.304422046349707e-20 9.304422046349707e-20 9.304422046349707e-20 9.304422046349707e-20 1 2.007257099215761e-19 2.007257099215761e-19 2.007257099215761e-19 2.007257099215761e-19 0.2 0.2 0.2 0.2 0.2 1 1.650679468720041e-18 1.650679468720041e-18 1.650679468720041e-18 1.650679468720041e-18 1 5.681419789736219e-20 5.681419789736219e-20 5.681419789736219e-20 5.681419789736219e-20 0.9999999980807647 4.798087793121751e-10 4.798087793121751e-10 4.798087793121751e-10 4.798087793121751e-10 0.2 0.2 0.2 0.2 0.2 0.2 0.2 0.2 0.2 0.2 0.2 0.2 0.2 0.2 0.2 0.2 0.2 0.2 0.2 0.2 0.2 0.2 0.2 0.2 0.2 0.2 0.2 0.2 0.2 0.2 0.2 0.2 0.2 0.2 0.2 0.2 0.2 0.2 0.2 0.2 0.2 0.2 0.2 0.2 0.2 0.2 0.2 0.2 0.2 0.2 0.2 0.2 0.2 0.2 0.2 0.2 0.2 0.2 0.2 0.2 0.2 0.2 0.2 0.2 0.2 0.2 0.2 0.2 0.2 0.2 1.049031057758979e-25 1 1.049031057758979e-25 1.049031057758979e-25 1.049031057758979e-25 1.598304533083519e-18 1 1.598304533083519e-18 1.598304533083519e-18 1.598304533083519e-18 0.2 0.2 0.2 0.2 0.2 0.2 0.2 0.2 0.2 0.2 1 1.402981907923324e-26 1.402981907923324e-26 1.402981907923324e-26 1.402981907923324e-26 0.004897978211901068 0.995102021788099 5.291307291499857e-28 5.291307291499857e-28 5.291307291499857e-28 0.241817789956589 0.758182210043411 2.208435760027004e-19 2.208435760027004e-19 2.208435760027004e-19 0.2 0.2 0.2 0.2 0.2 1.592525757928985e-16 0.9999999999999993 1.592525757928985e-16 1.592525757928985e-16 1.592525757928985e-16 1 1.726089636254238e-22 1.726089636254238e-22 1.726089636254238e-22 1.726089636254238e-22 0.01581722639658821 0.984182773603397 4.937838922550658e-15 4.937838922550658e-15 4.937838922550658e-15 1 1.327000095423918e-17 1.327000095423918e-17 1.327000095423918e-17 1.327000095423918e-17 0.2 0.2 0.2 0.2 0.2 1.055685015560878e-11 0.9999999999577729 1.055685015560878e-11 1.055685015560878e-11 1.055685015560878e-11 0.2 0.2 0.2 0.2 0.2 0.2 0.2 0.2 0.2 0.2 0.2 0.2 0.2 0.2 0.2 0.2 0.2 0.2 0.2 0.2 0.2 0.2 0.2 0.2 0.2 0.2 0.2 0.2 0.2 0.2 1.035791718392654e-25 1 1.035791718392654e-25 1.035791718392654e-25 1.035791718392654e-25 0.2 0.2 0.2 0.2 0.2 0.2 0.2 0.2 0.2 0.2 0.2 0.2 0.2 0.2 0.2 0.9999875000000003 3.125e-06 3.125e-06 3.125e-06 3.125e-06 6.789296528537347e-27 1 6.789296528537347e-27 6.789296528537347e-27 6.789296528537347e-27 3.728557689871034e-17 1 3.728557689871034e-17 3.728557689871034e-17 3.728557689871034e-17 0.2 0.2 0.2 0.2 0.2 4.40207428690581e-13 0.9999999999982392 4.40207428690581e-13 4.40207428690581e-13 4.40207428690581e-13 1 1.198611208951808e-22 1.198611208951808e-22 1.198611208951808e-22 1.198611208951808e-22 7.85504016264191e-29 1 7.85504016264191e-29 7.85504016264191e-29 7.85504016264191e-29 0.01418879196656975 0.3802373802373805 0.6055738277960497 2.0197659171409e-21 2.0197659171409e-21 0.2 0.2 0.2 0.2 0.2 0.03514697828435646 0.7921915890009782 0.1726614327146654 3.162698728380995e-19 3.162698728380995e-19 1 1.252757609621632e-19 1.252757609621632e-19 1.252757609621632e-19 1.252757609621632e-19 3.233324258122965e-23 1 3.233324258122965e-23 3.233324258122965e-23 3.233324258122965e-23 0.2433798636553355 0.7566201363446644 9.249381719604514e-19 9.249381719604514e-19 9.249381719604514e-19 0.2 0.2 0.2 0.2 0.2 6.321211398358848e-19 1 6.321211398358848e-19 6.321211398358848e-19 6.321211398358848e-19 0.2 0.2 0.2 0.2 0.2 1.725421400406527e-28 1 1.725421400406527e-28 1.725421400406527e-28 1.725421400406527e-28 5.532638640685427e-18 0.5394804205191279 0.4605195794808721 5.532638640685427e-18 5.532638640685427e-18 6.427363084311576e-08 6.427363084311576e-08 0.9999997429054766 6.427363084311576e-08 6.427363084311576e-08 2.873428139702836e-18 0.1822295187643868 0.006246496346198289 2.873428139702836e-18 0.8115239848894149 1 2.792640380173411e-25 2.792640380173411e-25 2.792640380173411e-25 2.792640380173411e-25 7.454299564221839e-28 1 7.454299564221839e-28 7.454299564221839e-28 7.454299564221839e-28 0.005334954780325673 0.01215206338983975 0.9825129818298346 8.263870388689045e-26 8.263870388689045e-26 8.537668192063387e-07 8.537668192063387e-07 0.9999965849327233 8.537668192063387e-07 8.537668192063387e-07 5.233757027901511e-13 5.233757027901511e-13 0.9999999999979066 5.233757027901511e-13 5.233757027901511e-13 0.9999999999999977 5.0639825010231e-16 5.0639825010231e-16 5.0639825010231e-16 5.0639825010231e-16 2.730039814137487e-28 1 2.730039814137487e-28 2.730039814137487e-28 2.730039814137487e-28 7.569469104686575e-26 0.07910659467958824 0.9208934053204119 7.569469104686575e-26 7.569469104686575e-26 1.73841893321953e-18 1.73841893321953e-18 1 1.73841893321953e-18 1.73841893321953e-18 2.606229695980544e-25 0.02386705958725783 0.04291032932016429 2.606229695980544e-25 0.9332226110925779 1 4.8549083663257e-20 4.8549083663257e-20 4.8549083663257e-20 4.8549083663257e-20 1.227873537154302e-26 0.99481940167234 0.005180598327659998 1.227873537154302e-26 1.227873537154302e-26 0.0003106605839283088 0.009397812218905843 0.9902915271971658 8.900868722998617e-28 8.900868722998617e-28 2.414152643887733e-20 2.414152643887733e-20 1 2.414152643887733e-20 2.414152643887733e-20 2.552251445350477e-26 0.001563299312195116 0.04116940382134181 2.552251445350477e-26 0.9572672968664632 0.2 0.2 0.2 0.2 0.2 2.723739408635202e-23 1 2.723739408635202e-23 2.723739408635202e-23 2.723739408635202e-23 1.940360703889712e-25 0.009415969079567368 0.9905840309204327 1.940360703889712e-25 1.940360703889712e-25 2.443720611993977e-20 2.443720611993977e-20 0.8028599922809294 2.443720611993977e-20 0.1971400077190706 1.698203879576486e-24 0.01398508606939846 0.002955359420234541 1.698203879576486e-24 0.9830595545103671 0.2 0.2 0.2 0.2 0.2 0.2 0.2 0.2 0.2 0.2 4.855287271736882e-19 4.855287271736882e-19 1 4.855287271736882e-19 4.855287271736882e-19 5.240116207986251e-12 5.240116207986251e-12 0.5555555555462398 0.4444444444380399 5.240116207986251e-12 3.842680774368738e-11 3.842680774368738e-11 3.842680774368738e-11 3.842680774368738e-11 0.9999999998462927 0.2 0.2 0.2 0.2 0.2 0.2 0.2 0.2 0.2 0.2 9.63060768900467e-22 9.63060768900467e-22 1 9.63060768900467e-22 9.63060768900467e-22 1.220293248241959e-20 1.220293248241959e-20 0.1321472354069091 0.8678527645930908 1.220293248241959e-20 1.480409078859135e-14 1.480409078859135e-14 1.480409078859135e-14 1.480409078859135e-14 0.9999999999999408 0.2 0.2 0.2 0.2 0.2 0.2 0.2 0.2 0.2 0.2 0.2 0.2 0.2 0.2 0.2 1.928444291141017e-21 1.928444291141017e-21 1.928444291141017e-21 1 1.928444291141017e-21 2.049714436275205e-22 2.049714436275205e-22 2.049714436275205e-22 2.049714436275205e-22 1 0.2 0.2 0.2 0.2 0.2 0.2 0.2 0.2 0.2 0.2 6.270671584763027e-17 6.270671584763027e-17 0.9999999999999997 6.270671584763027e-17 6.270671584763027e-17 2.88041201454774e-26 2.88041201454774e-26 0.001416468101622998 0.998583531898377 2.88041201454774e-26 2.893970635610376e-24 2.893970635610376e-24 2.893970635610376e-24 2.893970635610376e-24 1 0.2 0.2 0.2 0.2 0.2 0.2 0.2 0.2 0.2 0.2 0.2 0.2 0.2 0.2 0.2 1.859579616593004e-27 1.859579616593004e-27 1.859579616593004e-27 1 1.859579616593004e-27 4.117407539930927e-22 4.117407539930927e-22 4.117407539930927e-22 8.675090376904607e-08 0.9999999132490962</probabilities>
		</cpt>
	</dynamic>
	<extensions>
		<genie version="1.0" app="SMILE_ACADEMIC 1.5.0@a121f1f76773" name="emidas dbn v9" faultnameformat="user">
			<plate leftwidth="120" rightwidth="120">120 50 1164 561</plate>
			<node id="p1_imas">
				<name>p1_imas</name>
				<interior color="e5f6f7" />
				<outline color="000080" />
				<font color="000000" name="MS Sans Serif" size="8" />
				<position>491 462 547 497</position>
			</node>
			<node id="p2_imas">
				<name>p2_imas</name>
				<interior color="e5f6f7" />
				<outline color="000080" />
				<font color="000000" name="MS Sans Serif" size="8" />
				<position>651 472 707 507</position>
			</node>
			<node id="p1_wti">
				<name>p1_wti</name>
				<interior color="e5f6f7" />
				<outline color="000080" />
				<font color="000000" name="MS Sans Serif" size="8" />
				<position>487 311 571 363</position>
			</node>
			<node id="p2_wti">
				<name>p2_wti</name>
				<interior color="e5f6f7" />
				<outline color="000080" />
				<font color="000000" name="MS Sans Serif" size="8" />
				<position>650 301 734 353</position>
			</node>
			<node id="p1_approach">
				<name>p1_approach</name>
				<interior color="e5f6f7" />
				<outline color="000080" />
				<font color="000000" name="MS Sans Serif" size="8" />
				<position>268 135 344 182</position>
			</node>
			<node id="p2_head">
				<name>p2_head</name>
				<interior color="e5f6f7" />
				<outline color="000080" />
				<font color="000000" name="MS Sans Serif" size="8" />
				<position>676 84 733 119</position>
			</node>
			<node id="p1_body">
				<name>p1_body</name>
				<interior color="e5f6f7" />
				<outline color="000080" />
				<font color="000000" name="MS Sans Serif" size="8" />
				<position>404 76 461 111</position>
			</node>
			<node id="p2_approach">
				<name>p2_approach</name>
				<interior color="e5f6f7" />
				<outline color="000080" />
				<font color="000000" name="MS Sans Serif" size="8" />
				<position>924 160 1000 207</position>
			</node>
			<node id="p2_body">
				<name>p2_body</name>
				<interior color="e5f6f7" />
				<outline color="000080" />
				<font color="000000" name="MS Sans Serif" size="8" />
				<position>827 91 884 126</position>
			</node>
			<node id="dist">
				<name>dist</name>
				<interior color="e5f6f7" />
				<outline color="000080" />
				<font color="000000" name="MS Sans Serif" size="8" />
				<position>599 137 637 160</position>
			</node>
			<node id="p1_gesture">
				<name>p1_gesture</name>
				<interior color="e5f6f7" />
				<outline color="000080" />
				<font color="000000" name="MS Sans Serif" size="8" />
				<position>248 271 316 313</position>
			</node>
			<node id="p2_gesture">
				<name>p2_gesture</name>
				<interior color="e5f6f7" />
				<outline color="000080" />
				<font color="000000" name="MS Sans Serif" size="8" />
				<position>964 312 1032 354</position>
			</node>
			<node id="p1_head">
				<name>p1_head</name>
				<interior color="e5f6f7" />
				<outline color="000080" />
				<font color="000000" name="MS Sans Serif" size="8" />
				<position>528 80 585 115</position>
			</node>
		</genie>
	</extensions>
</smile>
