<?xml version="1.0" encoding="ISO-8859-1"?>
<!-- This file was created by ACADEMIC version of SMILE -->
<smile version="1.0" id="Network2" numsamples="10000" discsamples="10000">
	<nodes>
		<cpt id="p1_imas" target="true" dynamic="plate">
			<state id="very_high" />
			<state id="high" />
			<state id="medium" />
			<state id="low" />
			<state id="very_low" />
			<probabilities>0.09012697643175606 0.09774628591826669 0.1758074261133201 0.4870908299355168 0.1492284816011404</probabilities>
		</cpt>
		<cpt id="p2_imas" target="true" dynamic="plate">
			<state id="very_high" />
			<state id="high" />
			<state id="medium" />
			<state id="low" />
			<state id="very_low" />
			<probabilities>0.09021139423233468 0.09781080523728035 0.175203235854893 0.4860735954385444 0.1507009692369475</probabilities>
		</cpt>
		<cpt id="p1_wti" dynamic="plate">
			<state id="very_high" />
			<state id="high" />
			<state id="medium" />
			<state id="low" />
			<state id="very_low" />
			<parents>p1_imas</parents>
			<probabilities>0.9999946477195937 1.338070101492617e-06 1.338070101492617e-06 1.338070101492617e-06 1.338070101492617e-06 0.1516807007803584 0.8483155979149315 1.233768236636747e-06 1.233768236636747e-06 1.233768236636747e-06 0.00915136694299345 0.985667591566831 0.005179669573985724 6.859580948199874e-07 6.859580948199874e-07 0.0416986361740082 0.5205925716853532 0.2341185514749301 0.2035899930799789 2.475857296537142e-07 8.081330510255209e-07 8.081330510255209e-07 8.081330510255209e-07 0.278119797643484 0.721877777957363</probabilities>
		</cpt>
		<cpt id="p2_wti" dynamic="plate">
			<state id="very_high" />
			<state id="high" />
			<state id="medium" />
			<state id="very_low" />
			<state id="low" />
			<parents>p2_imas</parents>
			<probabilities>0.9999946527281109 1.336817972180818e-06 1.336817972180818e-06 1.336817972180818e-06 1.336817972180818e-06 0.1548294824057406 0.845166818731043 1.23295440534609e-06 1.23295440534609e-06 1.23295440534609e-06 0.0108004859564773 0.9833019572482197 0.00589618014805841 6.883236222342296e-07 6.883236222342296e-07 0.04079968838154405 0.5210344938805181 0.2329908672966851 2.481038662025471e-07 0.2051747023373865 8.002368701135537e-07 8.002368701135537e-07 8.002368701135537e-07 0.7210982450805439 0.2788993542088458</probabilities>
		</cpt>
		<cpt id="p1_approach" dynamic="plate">
			<state id="y" />
			<state id="m" />
			<state id="n" />
			<parents>p1_wti</parents>
			<probabilities>0.7627422588881638 0.1285116924827868 0.1087460486290493 0.5316388067155596 0.1558864060909808 0.3124747871934594 0.3261509086207453 0.1742394715423465 0.4996096198369083 0.2501351940894897 0.06927887944665498 0.6805859264638553 0.0002305177639089994 0.01564954996507888 0.984119932271012</probabilities>
		</cpt>
		<cpt id="p2_head" dynamic="plate">
			<state id="central" />
			<state id="mid_peripheral" />
			<state id="outside" />
			<parents>p2_wti</parents>
			<probabilities>0.9999997026006825 1.486996586599335e-07 1.486996586599335e-07 0.995330146926252 0.004230256147291681 0.0004395969264561709 0.9523705296730526 0.042116498063361 0.005512972263586545 0.05759692817450453 0.2206263491571733 0.7217767226683222 0.3539075507747266 0.3870803999655807 0.2590120492596927</probabilities>
		</cpt>
		<cpt id="p1_body" dynamic="plate">
			<state id="strongly_facing" />
			<state id="slightly_facing" />
			<state id="turned_away" />
			<parents>p1_wti</parents>
			<probabilities>0.3766901141987171 0.5828922396713174 0.04041764612996547 0.289718817853739 0.558508082167729 0.151773099978532 0.1389416554079281 0.510396088392548 0.350662256199524 0.08211742938384536 0.7635098003914897 0.1543727702246649 0.00394041934029897 0.4126078064507396 0.5834517742089614</probabilities>
		</cpt>
		<cpt id="p2_approach" dynamic="plate">
			<state id="y" />
			<state id="m" />
			<state id="n" />
			<parents>p2_wti</parents>
			<probabilities>0.7650157287063947 0.1269465342942305 0.1080377369993747 0.5300710745297956 0.1574505086024981 0.3124784168677062 0.3291727010176071 0.1720653604683284 0.4987619385140645 0.0001923293222362717 0.01576079756027953 0.9840468731174842 0.2483103216951002 0.06983908979342575 0.6818505885114741</probabilities>
		</cpt>
		<cpt id="p2_body" dynamic="plate">
			<state id="strongly_facing" />
			<state id="slightly_facing" />
			<state id="turned_away" />
			<parents>p2_wti</parents>
			<probabilities>0.3797392254086081 0.5788706707023754 0.04139010388901652 0.2883116183408528 0.5614681562560593 0.1502202254030879 0.1391063764872109 0.511353542784691 0.3495400807280981 0.003429706134404774 0.4193461683636077 0.5772241255019875 0.08321048485258602 0.7644814591107959 0.1523080560366181</probabilities>
		</cpt>
		<cpt id="dist" dynamic="plate">
			<state id="range_0_3" />
			<state id="range_3_6" />
			<state id="range_6_9" />
			<state id="range_9_12" />
			<state id="range_12_15" />
			<state id="range_15_18" />
			<state id="range_18_21" />
			<state id="range_21_24" />
			<state id="range_24_27" />
			<state id="range_27_30" />
			<state id="range_30_inf" />
			<parents>p1_wti p2_wti</parents>
			<probabilities>0.1111111111111111 0.1111111111111111 0.1111111111111111 0.1111111111111111 0.1111111111111111 0.1111111111111111 0.1111111111111111 0.1111111111111111 0.1111111111111111 0 0 0.1174895414437848 0.2301264300051266 0.2172331941772073 0.2103829253156047 0.1203551161941573 0.0649173018032724 0.0344248846581232 0.005070554998591785 5.140413214172388e-08 0 0 5.580388283416762e-06 5.580388283416762e-06 5.580388283416762e-06 0.0753408222144097 0.8693742710617807 0.05525142439410936 5.580388283416762e-06 5.580388283416762e-06 5.580388283416762e-06 0 0 0.002710027100271001 0.002710027100271001 0.002710027100271001 0.002710027100271001 0.002710027100271001 0.9783197831978317 0.002710027100271001 0.002710027100271001 0.002710027100271001 0 0 1.97882655585238e-06 1.97882655585238e-06 0.002851489066983279 0.08709013554961909 0.260375977045612 0.6371880874641338 0.01248639556742852 1.97882655585238e-06 1.97882655585238e-06 0 0 0.1174266120857052 0.2301432416877428 0.217162774701111 0.2113099789756828 0.1207947390895262 0.06411308963506394 0.03408750904049743 0.004962003498342991 5.128632777276711e-08 0 0 0.07048185294189872 0.1484238044458134 0.1711261806479901 0.221738356971572 0.1654223353826437 0.1952384174741736 0.02700698352251369 0.0005620463902170016 2.222317781886843e-08 0 0 0.04028682591386173 0.09165404689791797 0.08699172690820427 0.2900872609387203 0.07750904218336284 0.1916160090100387 0.1343502366801912 0.08629927662533096 0.001205574842371945 0 0 5.487266523668498e-07 5.487266523668498e-07 0.0003956319163564988 0.9600033143089799 5.487266523668498e-07 0.03655068231415587 0.003047627827245484 5.487266523668498e-07 5.487266523668498e-07 0 0 1.514883656177764e-07 1.514883656177764e-07 0.0004909737929672132 0.1379375798249007 0.001077233767908008 0.02969490091676214 0.09584275022886105 0.1766716400297099 0.3035860174420675 0.1950364231051873 0.05966217791490504 6.248867392785059e-06 6.248867392785059e-06 6.248867392785059e-06 0.05568365733710766 0.848102531416181 0.09617631804235484 6.248867392785059e-06 6.248867392785059e-06 6.248867392785059e-06 0 0 0.04064445082615428 0.09233360403168263 0.08843177270566668 0.2906461361368514 0.07973556950843005 0.1837340702560339 0.1364307696087397 0.08622334156813589 0.001820285358305293 0 0 1.525448989214618e-07 1.525448989214618e-07 0.00280087688909696 0.1672363455916889 0.04069302978118807 0.2523261952998781 0.1713385830134848 0.04663770449215743 0.05491631615662517 0.2640506436860827 0 1.496849132575927e-06 1.496849132575927e-06 1.496849132575927e-06 0.01655814510455491 1.496849132575927e-06 0.9694208690706063 0.01401200473004326 1.496849132575927e-06 1.496849132575927e-06 0 0 3.603923086515057e-07 3.603923086515057e-07 3.603923086515057e-07 0.2521816348404219 0.03119339588302242 0.04653205293153916 0.2180402298726301 0.1656507207485781 0.04758295690356695 0.05710884640584354 0.1817090812374719 1.938435295029852e-06 1.938435295029852e-06 0.0001763976118477165 0.07153020082189658 0.2367430410172909 0.6713208498100334 0.02022175699775142 1.938435295029852e-06 1.938435295029852e-06 0 0 1.545040320144715e-07 1.545040320144715e-07 0.001223826437586629 0.1313363069179335 0.00134897470351835 0.03034165631103392 0.0896438573909244 0.1836816549483084 0.3057220722760592 0.1985491144369649 0.05815222756960677 3.738106746123863e-07 3.738106746123863e-07 3.738106746123863e-07 0.2516900915125913 0.03351212697900044 0.04344352898210232 0.2049936620400119 0.1628491251521877 0.05338838816949024 0.0608533873414996 0.1892685683910927 3.590959543890682e-07 3.590959543890682e-07 3.590959543890682e-07 0.7257638060723843 0.01498004683329437 0.07207091714184037 0.1146604155242926 0.03755461400596314 0.03430335923492452 0.0006657638994373324 0 1.869666659001033e-07 1.869666659001033e-07 0.0009088449629404021 0.2835553282040898 0.009443499327948317 0.07907025964247859 0.3371560537843268 0.2898654531782183 1.869666659001033e-07 0 0 0.001564945226917058 0.001564945226917058 0.001564945226917058 0.001564945226917058 0.001564945226917058 0.9874804381846634 0.001564945226917058 0.001564945226917058 0.001564945226917058 0 0 5.546570111974155e-07 5.546570111974155e-07 0.000200231181042267 0.9626360850976969 5.546570111974155e-07 0.03539321854151828 0.001767691894686163 5.546570111974155e-07 5.546570111974155e-07 0 0 1.65000165000165e-06 1.65000165000165e-06 1.65000165000165e-06 0.01602481602481602 1.65000165000165e-06 0.9654011154011154 0.01856416856416856 1.65000165000165e-06 1.65000165000165e-06 0 0 1.029406118110558e-07 1.029406118110558e-07 1.029406118110558e-07 0.2466622793377913 0.2646774011077851 0.2694431396721897 0.0515866287968744 0.03869856713874201 0.08440944875405315 0.04452222637072888 0 3.669370625880877e-07 3.669370625880877e-07 3.669370625880877e-07 0.7218330854673475 0.01359318348357571 0.07499533072587855 0.1146443480867718 0.03857279095632237 0.03609596578385278 0.0002641946850634232 0</probabilities>
		</cpt>
		<cpt id="p1_gesture" dynamic="plate">
			<state id="wave_slow_shoulder" />
			<state id="wave_fast_shoulder" />
			<state id="wave_small_head" />
			<state id="wave_wide_head" />
			<state id="arm_raise_high" />
			<state id="arm_raise_low" />
			<state id="come_here" />
			<state id="i_am_coming" />
			<state id="None" />
			<parents>p1_wti</parents>
			<probabilities>4.965593398342882e-08 4.965593353652541e-08 0.002221159585233418 0.02247079982799135 4.965593353652541e-08 4.965593353652541e-08 0.03049673810169287 4.965593353652541e-08 0.9448110542054142 1.255656937296774e-08 0.01922851508509191 0.06450595983125816 0.01034916215725717 0.07888365870104261 0.07014669727003971 0.01738307608250141 1.255656925995862e-08 0.7395029057596705 5.940503122595767e-08 5.940503069131239e-08 5.940503069131239e-08 5.940503069131239e-08 0.1313624050863532 0.05120784982835748 5.940503069131239e-08 5.940503069131239e-08 0.8174293886551046 5.619039457794158e-08 5.619039407222803e-08 0.02748558772567973 5.619039407222803e-08 5.619039407222803e-08 5.619039407222803e-08 5.619039407222803e-08 5.619039407222803e-08 0.9725140189415612 6.734378138430665e-08 6.734378077821261e-08 6.734378077821261e-08 6.734378077821261e-08 6.734378077821261e-08 6.734378077821261e-08 6.734378077821261e-08 6.734378077821261e-08 0.9999994612497531</probabilities>
		</cpt>
		<cpt id="p2_gesture" dynamic="plate">
			<state id="wave_slow_shoulder" />
			<state id="wave_fast_shoulder" />
			<state id="wave_small_head" />
			<state id="wave_wide_head" />
			<state id="arm_raise_high" />
			<state id="arm_raise_low" />
			<state id="come_here" />
			<state id="i_am_coming" />
			<state id="None" />
			<parents>p2_wti</parents>
			<probabilities>4.956655288664452e-08 4.956655288664452e-08 0.003284230227716179 0.02091138516458202 4.956655288664452e-08 4.956655288664452e-08 0.0306336662470858 4.956655288664452e-08 0.9451704705278515 1.259409615975278e-08 0.01918736997540272 0.06569982294212091 0.009859716377931899 0.07868517988726874 0.07059742765082173 0.01706324971709882 1.259409615975278e-08 0.7389072082611629 5.975344414370536e-08 5.975344414370536e-08 5.975344414370536e-08 5.975344414370536e-08 0.1330363228638726 0.05130866914320791 5.975344414370536e-08 5.975344414370536e-08 0.8156546494722545 6.671152349506475e-08 6.671152349506475e-08 6.671152349506475e-08 6.671152349506475e-08 6.671152349506475e-08 6.671152349506475e-08 6.671152349506475e-08 6.671152349506475e-08 0.999999466307812 5.569465295130143e-08 5.569465295130143e-08 0.02777442217493746 5.569465295130143e-08 5.569465295130143e-08 5.569465295130143e-08 5.569465295130143e-08 5.569465295130143e-08 0.9722251879624918</probabilities>
		</cpt>
		<cpt id="p1_head" dynamic="plate">
			<state id="central" />
			<state id="mid_peripheral" />
			<state id="outside" />
			<parents>p1_wti</parents>
			<probabilities>0.9999997020643957 1.489678020992542e-07 1.489678020992542e-07 0.9953332128656065 0.004109275453676071 0.0005575116807172793 0.9538704486761025 0.03995528939725339 0.006174261926644173 0.357205878684039 0.3888928784069079 0.2539012429090531 0.05802158381664281 0.2094244793702764 0.7325539368130808</probabilities>
		</cpt>
	</nodes>
	<dynamic numslices="10">
		<cpt id="p1_imas" order="1">
			<parents>p1_imas</parents>
			<probabilities>0.9999994395973508 1.401006623258812e-07 1.401006623258812e-07 1.401006623258812e-07 1.401006623258812e-07 1.297541094748397e-07 0.9999994809835622 1.297541094748397e-07 1.297541094748397e-07 1.297541094748397e-07 0.003792630588026002 0.002851996530994967 0.9904484504369611 0.002906848319978652 7.412403916714229e-08 0.001428202015340387 0.001782140892787016 0.006076737260339224 0.9905911869357504 0.000121732895783008 9.94212687943481e-08 9.94212687943481e-08 4.573378364540012e-06 0.02710830257073574 0.9728869252083621</probabilities>
		</cpt>
		<cpt id="p2_imas" order="1">
			<parents>p2_imas</parents>
			<probabilities>0.9999994400915452 1.399771137419032e-07 1.399771137419032e-07 1.399771137419032e-07 1.399771137419032e-07 1.296730941296991e-07 0.9999994813076236 1.296730941296991e-07 1.296730941296991e-07 1.296730941296991e-07 0.003805688673751042 0.002881898396457762 0.9903850688119624 0.002927269738579252 7.43792493794911e-08 0.001430942263494009 0.001778094591336317 0.006097382933211818 0.9905716137509374 0.0001219664610205034 9.839832132463821e-08 9.839832132463821e-08 9.839832132463821e-08 0.02696468238251855 0.9730350224225175</probabilities>
		</cpt>
		<cpt id="p1_wti" order="1">
			<parents>p2_imas p1_wti</parents>
			<probabilities>0.2 0.2 0.2 0.2 0.2 0.2 0.2 0.2 0.2 0.2 0.2 0.2 0.2 0.2 0.2 0.2 0.2 0.2 0.2 0.2 0.2 0.2 0.2 0.2 0.2 0.2 0.2 0.2 0.2 0.2 0.2 0.2 0.2 0.2 0.2 0.2 0.2 0.2 0.2 0.2 0.2 0.2 0.2 0.2 0.2 0.2 0.2 0.2 0.2 0.2 0.2 0.2 0.2 0.2 0.2 0.2 0.2 0.2 0.2 0.2 0.2 0.2 0.2 0.2 0.2 0.2 0.2 0.2 0.2 0.2 0.2 0.2 0.2 0.2 0.2 0.9999994394383174 1.40140420701543e-07 1.40140420701543e-07 1.40140420701543e-07 1.40140420701543e-07 0.9999192734611501 2.01816347124117e-05 2.01816347124117e-05 2.01816347124117e-05 2.01816347124117e-05 0.999884276001736 2.893099956603501e-05 2.893099956603501e-05 2.893099956603501e-05 2.893099956603501e-05 0.9997673742366969 5.815644082582148e-05 5.815644082582148e-05 5.815644082582148e-05 5.815644082582148e-05 0.2 0.2 0.2 0.2 0.2 0.9984962406015034 0.00037593984962406 0.00037593984962406 0.00037593984962406 0.00037593984962406 0.9959798994974877 0.001005025125628141 0.001005025125628141 0.001005025125628141 0.001005025125628141 0.2 0.2 0.2 0.2 0.2 0.2 0.2 0.2 0.2 0.2 0.2 0.2 0.2 0.2 0.2 0.2 0.2 0.2 0.2 0.2 0.2 0.2 0.2 0.2 0.2 0.2 0.2 0.2 0.2 0.2 0.2 0.2 0.2 0.2 0.2 0.2 0.2 0.2 0.2 0.2 0.2 0.2 0.2 0.2 0.2 0.2 0.2 0.2 0.2 0.2 0.2 0.2 0.2 0.2 0.2 0.2 0.2 0.2 0.2 0.2 0.2 0.2 0.2 0.2 0.2 0.2 0.2 0.2 0.2 0.2 7.001746935860496e-07 0.9999971993012255 7.001746935860496e-07 7.001746935860496e-07 7.001746935860496e-07 5.78536303153023e-05 0.999768585478739 5.78536303153023e-05 5.78536303153023e-05 5.78536303153023e-05 0.2 0.2 0.2 0.2 0.2 0.2 0.2 0.2 0.2 0.2 0.9999965812111912 8.546972021487086e-07 8.546972021487086e-07 8.546972021487086e-07 8.546972021487086e-07 0.003074883437440555 0.9969245342350354 1.941091747642545e-07 1.941091747642545e-07 1.941091747642545e-07 4.382120946538126e-05 0.9998247151621387 4.382120946538126e-05 4.382120946538126e-05 4.382120946538126e-05 8.288437629506842e-05 0.99966846249482 8.288437629506842e-05 8.288437629506842e-05 8.288437629506842e-05 0.2 0.2 0.2 0.2 0.2 0.978378378378378 0.005405405405405404 0.005405405405405404 0.005405405405405404 0.005405405405405404 0.01413043478260869 0.9854037267080744 0.00015527950310559 0.00015527950310559 0.00015527950310559 0.2 0.2 0.2 0.2 0.2 0.0008196721311475412 0.99672131147541 0.0008196721311475412 0.0008196721311475412 0.0008196721311475412 0.2 0.2 0.2 0.2 0.2 0.2 0.2 0.2 0.2 0.2 0.2 0.2 0.2 0.2 0.2 0.2 0.2 0.2 0.2 0.2 0.2 0.2 0.2 0.2 0.2 0.2 0.2 0.2 0.2 0.2 0.2 0.2 0.2 0.2 0.2 7.018775223723459e-07 0.9999971924899104 7.018775223723459e-07 7.018775223723459e-07 7.018775223723459e-07 0.2 0.2 0.2 0.2 0.2 0.2 0.2 0.2 0.2 0.2 0.2 0.2 0.2 0.2 0.2 0.2 0.2 0.2 0.2 0.2 3.376923791272342e-07 0.9999986492304838 3.376923791272342e-07 3.376923791272342e-07 3.376923791272342e-07 7.142857142857146e-05 0.9900714285714288 0.009714285714285717 7.142857142857146e-05 7.142857142857146e-05 0.0007633587786259544 0.9282442748091605 0.06946564885496184 0.0007633587786259544 0.0007633587786259544 0.2 0.2 0.2 0.2 0.2 0.9999604136770744 9.896580731357315e-06 9.896580731357315e-06 9.896580731357315e-06 9.896580731357315e-06 1.19310670669142e-07 0.9999995227573174 1.19310670669142e-07 1.19310670669142e-07 1.19310670669142e-07 6.948063227375369e-06 0.5672468299461525 0.4327323258641653 6.948063227375369e-06 6.948063227375369e-06 0.04180769594402949 0.8551763259903562 0.1029781601588352 1.890895338942989e-05 1.890895338942989e-05 0.02000000000000001 0.9200000000000003 0.02000000000000001 0.02000000000000001 0.02000000000000001 0.2 0.2 0.2 0.2 0.2 2.319647413593135e-06 0.9999907214103457 2.319647413593135e-06 2.319647413593135e-06 2.319647413593135e-06 0.0008849557522123897 0.9964601769911506 0.0008849557522123897 0.0008849557522123897 0.0008849557522123897 1.441233696043813e-05 0.9999423506521581 1.441233696043813e-05 1.441233696043813e-05 1.441233696043813e-05 0.2 0.2 0.2 0.2 0.2 0.2 0.2 0.2 0.2 0.2 1.404761720805013e-07 0.9999994380953118 1.404761720805013e-07 1.404761720805013e-07 1.404761720805013e-07 0.0002610966057441253 0.2822454308093994 0.7169712793733681 0.0002610966057441253 0.0002610966057441253 4.915212582944213e-05 0.1858441877611207 0.004472843450479233 0.8095846645367412 4.915212582944213e-05 0.2 0.2 0.2 0.2 0.2 0.9999970815062345 7.296234413419234e-07 7.296234413419234e-07 7.296234413419234e-07 7.296234413419234e-07 2.938393638965452e-07 0.9999988246425446 2.938393638965452e-07 2.938393638965452e-07 2.938393638965452e-07 0.006980921951025493 0.003013509751150118 0.990004242512628 6.628925981412491e-07 6.628925981412491e-07 0.0007142857142857145 0.0007142857142857145 0.9971428571428573 0.0007142857142857145 0.0007142857142857145 0.01052631578947369 0.01052631578947369 0.9578947368421054 0.01052631578947369 0.01052631578947369 0.9999481125956672 1.297185108314956e-05 1.297185108314956e-05 1.297185108314956e-05 1.297185108314956e-05 1.682480582070983e-07 0.9999993270077673 1.682480582070983e-07 1.682480582070983e-07 1.682480582070983e-07 9.395714614564296e-07 0.08950921484710822 0.9104879664385074 9.395714614564296e-07 9.395714614564296e-07 6.199647240072041e-07 0.01858096274321991 0.03190400466213473 0.9495137926651974 6.199647240072041e-07 0.000125 0.000125 0.9994999999999998 0.000125 0.000125 0.9999724745389484 6.881365262868152e-06 6.881365262868152e-06 6.881365262868152e-06 6.881365262868152e-06 4.202457597202844e-07 0.9908852897174266 0.009113449545294087 4.202457597202844e-07 4.202457597202844e-07 0.0004989868583274024 0.008964845345187676 0.9905357788745377 1.944609736272028e-07 1.944609736272028e-07 3.490291753487675e-07 0.001806575011605221 0.04039000520053472 0.9578027217295095 3.490291753487675e-07 1.719246969827216e-05 1.719246969827216e-05 0.9991575689847846 0.000790853606120519 1.719246969827216e-05 0.2 0.2 0.2 0.2 0.2 1.059204219869612e-06 0.9999957631831202 1.059204219869612e-06 1.059204219869612e-06 1.059204219869612e-06 2.077404075866797e-06 0.02384028917464736 0.9761534786131252 2.077404075866797e-06 2.077404075866797e-06 5.042508345351312e-07 0.008736649959155683 0.002040198876529141 0.9892221426626462 5.042508345351312e-07 1.345804454612745e-05 1.345804454612745e-05 0.5571765022542225 0.4427831236121391 1.345804454612745e-05 0.2 0.2 0.2 0.2 0.2 0.2 0.2 0.2 0.2 0.2 0.2 0.2 0.2 0.2 0.2 0.0008196721311475411 0.0008196721311475411 0.0008196721311475411 0.9967213114754099 0.0008196721311475411 0.2 0.2 0.2 0.2 0.2 0.2 0.2 0.2 0.2 0.2 0.2 0.2 0.2 0.2 0.2 0.2 0.2 0.2 0.2 0.2 0.000341296928327645 0.000341296928327645 0.000341296928327645 0.9986348122866893 0.000341296928327645 0.004347826086956522 0.004347826086956522 0.004347826086956522 0.004347826086956522 0.982608695652174 0.2 0.2 0.2 0.2 0.2 0.2 0.2 0.2 0.2 0.2 0.2 0.2 0.2 0.2 0.2 3.437902879243662e-06 3.437902879243662e-06 3.437902879243662e-06 0.999986248388483 3.437902879243662e-06 3.891050583657588e-05 3.891050583657588e-05 3.891050583657588e-05 3.891050583657588e-05 0.9998443579766536 0.2 0.2 0.2 0.2 0.2 0.2 0.2 0.2 0.2 0.2 0.2 0.2 0.2 0.2 0.2 6.907914051733369e-07 6.907914051733369e-07 6.907914051733369e-07 0.9999972368343794 6.907914051733369e-07 5.392056422478406e-07 5.392056422478406e-07 5.392056422478406e-07 5.392056422478406e-07 0.999997843177431 0.2 0.2 0.2 0.2 0.2 0.2 0.2 0.2 0.2 0.2 0.2 0.2 0.2 0.2 0.2 1.437959248234905e-06 1.437959248234905e-06 1.437959248234905e-06 0.993652847878291 0.006342838243964165 1.827694135386443e-07 1.827694135386443e-07 1.827694135386443e-07 1.827694135386443e-07 0.9999992689223458</probabilities>
		</cpt>
		<cpt id="p2_wti" order="1">
			<parents>p1_imas p2_wti</parents>
			<probabilities>0.2 0.2 0.2 0.2 0.2 0.2 0.2 0.2 0.2 0.2 0.2 0.2 0.2 0.2 0.2 0.2 0.2 0.2 0.2 0.2 0.2 0.2 0.2 0.2 0.2 0.2 0.2 0.2 0.2 0.2 0.2 0.2 0.2 0.2 0.2 0.2 0.2 0.2 0.2 0.2 0.2 0.2 0.2 0.2 0.2 0.2 0.2 0.2 0.2 0.2 0.2 0.2 0.2 0.2 0.2 0.2 0.2 0.2 0.2 0.2 0.2 0.2 0.2 0.2 0.2 0.2 0.2 0.2 0.2 0.2 0.2 0.2 0.2 0.2 0.2 0.999999440006888 1.399982780211804e-07 1.399982780211804e-07 1.399982780211804e-07 1.399982780211804e-07 0.9999192734611501 2.01816347124117e-05 2.01816347124117e-05 2.01816347124117e-05 2.01816347124117e-05 0.9998841251448437 2.896871378910777e-05 2.896871378910777e-05 2.896871378910777e-05 2.896871378910777e-05 0.2 0.2 0.2 0.2 0.2 0.9997679814385153 5.800464037122972e-05 5.800464037122972e-05 5.800464037122972e-05 5.800464037122972e-05 0.997837837837838 0.0005405405405405407 0.0005405405405405407 0.0005405405405405407 0.0005405405405405407 0.9953488372093026 0.001162790697674419 0.001162790697674419 0.001162790697674419 0.001162790697674419 0.2 0.2 0.2 0.2 0.2 0.2 0.2 0.2 0.2 0.2 0.2 0.2 0.2 0.2 0.2 0.2 0.2 0.2 0.2 0.2 0.2 0.2 0.2 0.2 0.2 0.2 0.2 0.2 0.2 0.2 0.2 0.2 0.2 0.2 0.2 0.2 0.2 0.2 0.2 0.2 0.2 0.2 0.2 0.2 0.2 0.2 0.2 0.2 0.2 0.2 0.2 0.2 0.2 0.2 0.2 0.2 0.2 0.2 0.2 0.2 0.2 0.2 0.2 0.2 0.2 0.2 0.2 0.2 0.2 0.2 7.018775223723459e-07 0.9999971924899104 7.018775223723459e-07 7.018775223723459e-07 7.018775223723459e-07 5.78536303153023e-05 0.999768585478739 5.78536303153023e-05 5.78536303153023e-05 5.78536303153023e-05 0.2 0.2 0.2 0.2 0.2 0.2 0.2 0.2 0.2 0.2 0.9999966527896904 8.368025773519381e-07 8.368025773519381e-07 8.368025773519381e-07 8.368025773519381e-07 0.003154240634235806 0.9968451752831828 1.946941938297517e-07 1.946941938297517e-07 1.946941938297517e-07 4.373496610540128e-05 0.9998250601355786 4.373496610540128e-05 4.373496610540128e-05 4.373496610540128e-05 0.2 0.2 0.2 0.2 0.2 8.257638315441788e-05 0.9996696944673826 8.257638315441788e-05 8.257638315441788e-05 8.257638315441788e-05 0.9874999999999998 0.003124999999999999 0.003124999999999999 0.003124999999999999 0.003124999999999999 0.01756756756756756 0.9818532818532817 0.000193050193050193 0.000193050193050193 0.000193050193050193 0.2 0.2 0.2 0.2 0.2 0.2 0.2 0.2 0.2 0.2 0.001005025125628141 0.9959798994974877 0.001005025125628141 0.001005025125628141 0.001005025125628141 0.2 0.2 0.2 0.2 0.2 0.2 0.2 0.2 0.2 0.2 0.2 0.2 0.2 0.2 0.2 0.2 0.2 0.2 0.2 0.2 0.2 0.2 0.2 0.2 0.2 0.2 0.2 0.2 0.2 0.2 7.001746935860496e-07 0.9999971993012255 7.001746935860496e-07 7.001746935860496e-07 7.001746935860496e-07 0.2 0.2 0.2 0.2 0.2 0.2 0.2 0.2 0.2 0.2 0.2 0.2 0.2 0.2 0.2 0.9200000000000003 0.02000000000000001 0.02000000000000001 0.02000000000000001 0.02000000000000001 3.376923791272342e-07 0.9999986492304838 3.376923791272342e-07 3.376923791272342e-07 3.376923791272342e-07 6.752194463200542e-05 0.9997299122214722 6.752194463200542e-05 6.752194463200542e-05 6.752194463200542e-05 0.2 0.2 0.2 0.2 0.2 0.0006711409395973156 0.9973154362416109 0.0006711409395973156 0.0006711409395973156 0.0006711409395973156 0.9999672050504221 8.198737394441256e-06 8.198737394441256e-06 8.198737394441256e-06 8.198737394441256e-06 1.196447030897048e-07 0.9999995214211878 1.196447030897048e-07 1.196447030897048e-07 1.196447030897048e-07 6.527841242900972e-06 0.5332006005613943 0.4667798159148769 6.527841242900972e-06 6.527841242900972e-06 0.2 0.2 0.2 0.2 0.2 0.0424604569420035 0.8594200351493847 0.09808435852372581 1.757469244288225e-05 1.757469244288225e-05 0.2 0.2 0.2 0.2 0.2 2.67183220893728e-06 0.9999893126711644 2.67183220893728e-06 2.67183220893728e-06 2.67183220893728e-06 0.0009615384615384618 0.9961538461538464 0.0009615384615384618 0.0009615384615384618 0.0009615384615384618 0.2 0.2 0.2 0.2 0.2 1.547508511296812e-05 0.9999380996595479 1.547508511296812e-05 1.547508511296812e-05 1.547508511296812e-05 0.2 0.2 0.2 0.2 0.2 1.407778539542388e-07 0.9999994368885843 1.407778539542388e-07 1.407778539542388e-07 1.407778539542388e-07 0.0001597444089456869 0.2517571884984026 0.7477635782747604 0.0001597444089456869 0.0001597444089456869 0.2 0.2 0.2 0.2 0.2 3.837298541826555e-05 0.179623944742901 0.006945510360706063 3.837298541826555e-05 0.8133537989255564 0.9999970304159643 7.423960088790562e-07 7.423960088790562e-07 7.423960088790562e-07 7.423960088790562e-07 2.928133358905699e-07 0.9999988287466567 2.928133358905699e-07 2.928133358905699e-07 2.928133358905699e-07 0.007000311095519561 0.003247307699945061 0.9897510573938136 6.619053607715168e-07 6.619053607715168e-07 0.02 0.02 0.92 0.02 0.02 0.0006514657980456027 0.0006514657980456027 0.9973941368078177 0.0006514657980456027 0.0006514657980456027 0.9999410985127373 1.472537181563834e-05 1.472537181563834e-05 1.472537181563834e-05 1.472537181563834e-05 1.681513025420274e-07 0.99999932739479 1.681513025420274e-07 1.681513025420274e-07 1.681513025420274e-07 9.236211490770715e-07 0.08886251437385412 0.9111347147626986 9.236211490770715e-07 9.236211490770715e-07 0.0001317523056653491 0.0001317523056653491 0.9994729907773385 0.0001317523056653491 0.0001317523056653491 6.260917474846764e-07 0.01828563557703746 0.0343574107349691 6.260917474846764e-07 0.9473557015044985 0.9999721011333913 6.974716652136007e-06 6.974716652136007e-06 6.974716652136007e-06 6.974716652136007e-06 4.217265061435009e-07 0.9908531738082536 0.009145561012227958 4.217265061435009e-07 4.217265061435009e-07 0.0005299564713649863 0.008877604777260337 0.9905920463363644 1.962075051332789e-07 1.962075051332789e-07 1.679120141046092e-05 1.679120141046092e-05 0.999932835194358 1.679120141046092e-05 1.679120141046092e-05 3.432669054660106e-07 0.001684067438216248 0.03886845497282184 3.432669054660106e-07 0.9594467910551508 0.2 0.2 0.2 0.2 0.2 1.074569769128685e-06 0.9999957017209232 1.074569769128685e-06 1.074569769128685e-06 1.074569769128685e-06 2.245551002077135e-06 0.02486049514399596 0.975132768202998 2.245551002077135e-06 2.245551002077135e-06 1.357865435535338e-05 1.357865435535338e-05 0.5523932378301311 1.357865435535338e-05 0.4475660262068029 5.020067720713552e-07 0.008717849603791154 0.001985938790314281 5.020067720713552e-07 0.9892952075923505 0.2 0.2 0.2 0.2 0.2 0.2 0.2 0.2 0.2 0.2 0.2 0.2 0.2 0.2 0.2 0.2 0.2 0.2 0.2 0.2 0.0004926108374384237 0.0004926108374384237 0.0004926108374384237 0.0004926108374384237 0.9980295566502463 0.2 0.2 0.2 0.2 0.2 0.2 0.2 0.2 0.2 0.2 0.2 0.2 0.2 0.2 0.2 0.007142857142857144 0.007142857142857144 0.007142857142857144 0.9714285714285714 0.007142857142857144 0.0002466091245376079 0.0002466091245376079 0.0002466091245376079 0.0002466091245376079 0.9990135635018497 0.2 0.2 0.2 0.2 0.2 0.2 0.2 0.2 0.2 0.2 0.2 0.2 0.2 0.2 0.2 3.474635163307853e-05 3.474635163307853e-05 3.474635163307853e-05 0.9998610145934677 3.474635163307853e-05 2.94039812990679e-06 2.94039812990679e-06 2.94039812990679e-06 2.94039812990679e-06 0.9999882384074803 0.2 0.2 0.2 0.2 0.2 0.2 0.2 0.2 0.2 0.2 0.2 0.2 0.2 0.2 0.2 5.267774128380924e-07 5.267774128380924e-07 5.267774128380924e-07 0.9999978928903487 5.267774128380924e-07 6.886080133314512e-07 6.886080133314512e-07 6.886080133314512e-07 6.886080133314512e-07 0.9999972455679467 0.2 0.2 0.2 0.2 0.2 0.2 0.2 0.2 0.2 0.2 0.2 0.2 0.2 0.2 0.2 1.819844494287963e-07 1.819844494287963e-07 1.819844494287963e-07 0.9999992720622023 1.819844494287963e-07 1.486811977757293e-06 1.486811977757293e-06 1.486811977757293e-06 0.006558327633887419 0.9934372119301794</probabilities>
		</cpt>
	</dynamic>
	<extensions>
		<genie version="1.0" app="SMILE_ACADEMIC 1.5.0@a121f1f76773" name="emidas dbn v9" faultnameformat="user">
			<plate leftwidth="120" rightwidth="120">120 50 1164 561</plate>
			<node id="p1_imas">
				<name>p1_imas</name>
				<interior color="e5f6f7" />
				<outline color="000080" />
				<font color="000000" name="MS Sans Serif" size="8" />
				<position>491 462 547 497</position>
			</node>
			<node id="p2_imas">
				<name>p2_imas</name>
				<interior color="e5f6f7" />
				<outline color="000080" />
				<font color="000000" name="MS Sans Serif" size="8" />
				<position>651 472 707 507</position>
			</node>
			<node id="p1_wti">
				<name>p1_wti</name>
				<interior color="e5f6f7" />
				<outline color="000080" />
				<font color="000000" name="MS Sans Serif" size="8" />
				<position>487 311 571 363</position>
			</node>
			<node id="p2_wti">
				<name>p2_wti</name>
				<interior color="e5f6f7" />
				<outline color="000080" />
				<font color="000000" name="MS Sans Serif" size="8" />
				<position>650 301 734 353</position>
			</node>
			<node id="p1_approach">
				<name>p1_approach</name>
				<interior color="e5f6f7" />
				<outline color="000080" />
				<font color="000000" name="MS Sans Serif" size="8" />
				<position>268 135 344 182</position>
			</node>
			<node id="p2_head">
				<name>p2_head</name>
				<interior color="e5f6f7" />
				<outline color="000080" />
				<font color="000000" name="MS Sans Serif" size="8" />
				<position>676 84 733 119</position>
			</node>
			<node id="p1_body">
				<name>p1_body</name>
				<interior color="e5f6f7" />
				<outline color="000080" />
				<font color="000000" name="MS Sans Serif" size="8" />
				<position>404 76 461 111</position>
			</node>
			<node id="p2_approach">
				<name>p2_approach</name>
				<interior color="e5f6f7" />
				<outline color="000080" />
				<font color="000000" name="MS Sans Serif" size="8" />
				<position>924 160 1000 207</position>
			</node>
			<node id="p2_body">
				<name>p2_body</name>
				<interior color="e5f6f7" />
				<outline color="000080" />
				<font color="000000" name="MS Sans Serif" size="8" />
				<position>827 91 884 126</position>
			</node>
			<node id="dist">
				<name>dist</name>
				<interior color="e5f6f7" />
				<outline color="000080" />
				<font color="000000" name="MS Sans Serif" size="8" />
				<position>599 137 637 160</position>
			</node>
			<node id="p1_gesture">
				<name>p1_gesture</name>
				<interior color="e5f6f7" />
				<outline color="000080" />
				<font color="000000" name="MS Sans Serif" size="8" />
				<position>248 271 316 313</position>
			</node>
			<node id="p2_gesture">
				<name>p2_gesture</name>
				<interior color="e5f6f7" />
				<outline color="000080" />
				<font color="000000" name="MS Sans Serif" size="8" />
				<position>964 312 1032 354</position>
			</node>
			<node id="p1_head">
				<name>p1_head</name>
				<interior color="e5f6f7" />
				<outline color="000080" />
				<font color="000000" name="MS Sans Serif" size="8" />
				<position>528 80 585 115</position>
			</node>
		</genie>
	</extensions>
</smile>
