<?xml version="1.0" encoding="ISO-8859-1"?>
<!-- This file was created by ACADEMIC version of SMILE -->
<smile version="1.0" id="Network2" numsamples="10000" discsamples="10000">
	<nodes>
		<cpt id="p1_imas" target="true" dynamic="plate">
			<state id="very_high" />
			<state id="high" />
			<state id="medium" />
			<state id="low" />
			<state id="very_low" />
			<probabilities>0.03282515699001233 0.06320017445009531 0.1701483328258604 0.502882747629197 0.2309435881048349</probabilities>
		</cpt>
		<cpt id="p2_imas" target="true" dynamic="plate">
			<state id="very_high" />
			<state id="high" />
			<state id="medium" />
			<state id="low" />
			<state id="very_low" />
			<probabilities>0.03308241058678942 0.06422918883720369 0.1695122331119546 0.5022647360588146 0.2309114314052377</probabilities>
		</cpt>
		<cpt id="p1_wti" dynamic="plate">
			<state id="very_high" />
			<state id="high" />
			<state id="medium" />
			<state id="low" />
			<state id="very_low" />
			<parents>p1_imas</parents>
			<probabilities>0.9999755097042796 6.122573930080205e-06 6.122573930080205e-06 6.122573930080205e-06 6.122573930080205e-06 0.2900036570047542 0.709986802982844 3.180004134005375e-06 3.180004134005375e-06 3.180004134005375e-06 0.04447909284195604 0.9477155681549726 0.007802976612331677 1.18119536971415e-06 1.18119536971415e-06 0.02596591351889264 0.3154392296271429 0.3718343914170328 0.2867600657830319 3.9965389972284e-07 8.702500663565676e-07 8.702500663565676e-07 0.0141380825780288 0.1766964437231038 0.8091637331987347</probabilities>
		</cpt>
		<cpt id="p2_wti" dynamic="plate">
			<state id="very_high" />
			<state id="high" />
			<state id="medium" />
			<state id="very_low" />
			<state id="low" />
			<parents>p2_imas</parents>
			<probabilities>0.9999757001397246 6.074965068950857e-06 6.074965068950857e-06 6.074965068950857e-06 6.074965068950857e-06 0.2972479934915594 0.7027426193344495 3.129057997089977e-06 3.129057997089977e-06 3.129057997089977e-06 0.04676234683170604 0.9435356607207429 0.009699621191911643 1.185627819571158e-06 1.185627819571158e-06 0.02414919030527112 0.3153932031259378 0.3707713607753222 4.001456530176984e-07 0.2896858456478158 8.703712568596135e-07 8.703712568596135e-07 0.01350032856514946 0.8107516961359869 0.17574623455635</probabilities>
		</cpt>
		<cpt id="p1_approach" dynamic="plate">
			<state id="y" />
			<state id="m" />
			<state id="n" />
			<parents>p1_wti</parents>
			<probabilities>0.7775194617633591 0.1584794608794058 0.06400107735723519 0.598229829521043 0.1388296750348979 0.2629404954440591 0.2959526987443724 0.2007760536686088 0.5032712475870188 0.4567393705491093 0.04449061797352474 0.4987700114773659 5.056477823400691e-08 5.056477823400691e-08 0.9999998988704435</probabilities>
		</cpt>
		<cpt id="p2_head" dynamic="plate">
			<state id="central" />
			<state id="mid_peripheral" />
			<state id="outside" />
			<parents>p2_wti</parents>
			<probabilities>0.9999999224193674 3.879031623029499e-08 3.879031623029499e-08 0.9984407508282993 0.001438957540522656 0.000120291631178158 0.9881177713238375 0.01070051826754331 0.001181710408619046 5.063448298420604e-08 0.2212307146545865 0.7787692347109305 0.5154244395505588 0.3877758512609906 0.09679970918845049</probabilities>
		</cpt>
		<cpt id="p1_body" dynamic="plate">
			<state id="strongly_facing" />
			<state id="slightly_facing" />
			<state id="turned_away" />
			<parents>p1_wti</parents>
			<probabilities>0.3688470573152404 0.6222174524270727 0.008935490257686876 0.2836656412382349 0.5892815570490006 0.1270528017127646 0.09486447868805854 0.4868998887938307 0.4182356325181107 0.1046782774550874 0.8096120854995534 0.08570963704535908 0.001861340051572029 0.3582383575103764 0.6399003024380515</probabilities>
		</cpt>
		<cpt id="p2_approach" dynamic="plate">
			<state id="y" />
			<state id="m" />
			<state id="n" />
			<parents>p2_wti</parents>
			<probabilities>0.779454165944197 0.1597792132780804 0.06076662077772257 0.5962203343397138 0.1402869122116878 0.2634927534485984 0.2987885139695504 0.2047262206701692 0.4964852653602804 5.063448298420604e-08 5.063448298420604e-08 0.999999898731034 0.4591176992028547 0.04627581105337831 0.494606489743767</probabilities>
		</cpt>
		<cpt id="p2_body" dynamic="plate">
			<state id="strongly_facing" />
			<state id="slightly_facing" />
			<state id="turned_away" />
			<parents>p2_wti</parents>
			<probabilities>0.3715884207802828 0.6191218803373051 0.009289698882412198 0.2835543997869291 0.590872151694591 0.12557344851848 0.0941048791848778 0.491886104720034 0.4140090160950882 0.001821980601220686 0.3621960519584735 0.6359819674403059 0.1074557140190071 0.8071604349570154 0.08538385102397736</probabilities>
		</cpt>
		<cpt id="dist" dynamic="plate">
			<state id="range_0_3" />
			<state id="range_3_6" />
			<state id="range_6_9" />
			<state id="range_9_12" />
			<state id="range_12_15" />
			<state id="range_15_18" />
			<state id="range_18_21" />
			<state id="range_21_24" />
			<state id="range_24_27" />
			<state id="range_27_30" />
			<state id="range_30_inf" />
			<parents>p1_wti p2_wti</parents>
			<probabilities>0.1111111111111111 0.1111111111111111 0.1111111111111111 0.1111111111111111 0.1111111111111111 0.1111111111111111 0.1111111111111111 0.1111111111111111 0.1111111111111111 0 0 0.02945929048607349 0.1175831096876598 0.1827126731538668 0.2198491853293307 0.2627214271925142 0.1234678822336087 0.05632789621306443 0.007878521549764343 1.415411759062553e-08 0 0 2.808339532742852e-07 2.808339532742852e-07 2.808339532742852e-07 0.003033287529315554 0.6996618478368624 0.2973031796301023 2.808339532742852e-07 2.808339532742852e-07 2.808339532742852e-07 0 0 9.837891228339424e-07 9.837891228339424e-07 9.837891228339424e-07 9.837891228339424e-07 0.7315268997459857 0.2684662137301546 9.837891228339424e-07 9.837891228339424e-07 9.837891228339424e-07 0 0 7.479207802309578e-07 7.479207802309578e-07 7.479207802309578e-07 7.479207802309578e-07 0.4227255729073175 0.5713860467899239 0.005883892778076945 7.479207802309578e-07 7.479207802309578e-07 0 0 0.02962237123165289 0.1185028244070468 0.1836398440153256 0.2191101957786871 0.2653566174735804 0.1206836400964976 0.05543098360419352 0.00765350936622291 1.402679330728951e-08 0 0 0.01936324247383809 0.0825230399852548 0.1570195870723177 0.2152560665088566 0.2046619752830491 0.2581455768402749 0.06150237798281347 0.001528128060447463 5.793147600850182e-09 0 0 0.01056562513716169 0.04898575060136436 0.08322468631925459 0.149095135010744 0.1263581932695837 0.2549360343894418 0.2032877763828864 0.1223265240596952 0.001220274829868473 0 0 1.141673716501866e-06 1.141673716501866e-06 1.141673716501866e-06 0.004162542370365803 0.07847180123003926 0.1368033364272691 0.7631403790585073 0.01741737421895247 1.141673716501866e-06 0 0 5.509651890827129e-08 5.509651890827129e-08 5.509651890827129e-08 0.008690649409996172 0.00132204097120397 0.05142659488031025 0.09272402533844828 0.3056966439663499 0.3618220352687143 0.152829699359784 0.02548814551563647 2.75010484774732e-07 2.75010484774732e-07 2.75010484774732e-07 0.002680802205584087 0.700107941615274 0.2972096061162331 2.75010484774732e-07 2.75010484774732e-07 2.75010484774732e-07 0 0 0.01056182990123685 0.04905285178949396 0.08425640456313363 0.1526417197738736 0.1279359488934219 0.247849030922653 0.2069473884873653 0.118914897873004 0.001839927795817908 0 0 3.015718740318601e-08 3.015718740318601e-08 0.002978263513563844 0.1279213003562077 0.08943849759787449 0.2603312266426929 0.1642335998655713 0.05654629455471873 0.06506952995891899 0.2334812271960773 0 1.241722985012652e-07 1.241722985012652e-07 1.241722985012652e-07 0.002866641683200208 0.236087176900575 0.4857938198453657 0.2532047007658699 0.02204716411579513 1.241722985012652e-07 0 0 1.91640929289863e-07 1.91640929289863e-07 1.91640929289863e-07 0.07349602115102608 0.03428686194110797 0.1859940376674079 0.2965137448707306 0.2306758868950567 0.02836055784374825 0.04488882143128178 0.1057834932768529 6.856467397154702e-07 6.856467397154702e-07 6.856467397154702e-07 6.856467397154702e-07 0.3868802867648923 0.604216590319902 0.008899009034767088 6.856467397154702e-07 6.856467397154702e-07 0 0 5.554400240305572e-08 5.554400240305572e-08 5.554400240305572e-08 0.009500079539011441 0.00161721917396737 0.05538903463635119 0.08820020991189388 0.3095786631936113 0.3585119850626625 0.1528392094444355 0.02436343240605954 1.995028389253979e-07 1.995028389253979e-07 1.995028389253979e-07 0.07783084553293193 0.0358137521296928 0.1903959333341314 0.2744085738340057 0.231186682786496 0.03170379414499068 0.04832657018709376 0.110333249542141 4.41409314001371e-07 4.41409314001371e-07 4.41409314001371e-07 0.08832512091304633 0.05693297331989684 0.4059451654865588 0.2932877975485009 0.1038066697830164 0.05088257585288004 0.0008183728681585418 0 2.03305090190204e-07 2.03305090190204e-07 2.03305090190204e-07 2.03305090190204e-07 0.01880267126624102 0.1245766171496789 0.5189124560149436 0.3377072390436853 2.03305090190204e-07 0 0 1.05032859530104e-06 1.05032859530104e-06 1.05032859530104e-06 1.05032859530104e-06 0.7545361066209565 0.2454565410788765 1.05032859530104e-06 1.05032859530104e-06 1.05032859530104e-06 0 0 1.057204265607771e-06 1.057204265607771e-06 1.057204265607771e-06 0.00881179755384077 0.09496865917954606 0.1189745964387017 0.7572204408330346 0.02002027717781436 1.057204265607771e-06 0 0 1.231266738301765e-07 1.231266738301765e-07 1.231266738301765e-07 0.002867989613526302 0.2552302671959636 0.4618529554772716 0.2606812081730994 0.01936708703344379 1.231266738301765e-07 0 0 2.125985248000963e-08 2.125985248000963e-08 2.125985248000963e-08 0.2519134558177215 0.3026275795774881 0.1957618696679626 0.09510165557912212 0.04704235589779667 0.07257822376696312 0.03497479591338865 0 4.399150787931897e-07 4.399150787931897e-07 4.399150787931897e-07 0.07897927384097773 0.06086577047166815 0.4142869460479349 0.2877656097266983 0.1054903161493705 0.05229006592567371 0.0003206980924402353 0</probabilities>
		</cpt>
		<cpt id="p1_gesture" dynamic="plate">
			<state id="wave_slow_shoulder" />
			<state id="wave_fast_shoulder" />
			<state id="wave_small_head" />
			<state id="wave_wide_head" />
			<state id="arm_raise_high" />
			<state id="arm_raise_low" />
			<state id="come_here" />
			<state id="i_am_coming" />
			<state id="None" />
			<parents>p1_wti</parents>
			<probabilities>0.02935008288955756 1.30607751964592e-08 0.002332027556198329 0.0249133897540541 0.0245928391452019 1.30607751964592e-08 0.02956107971496621 0.01038787459560725 0.8788626802228643 3.432338976150101e-09 0.02800975326579757 0.08045633221320664 0.008512990107329721 0.1042211265166497 0.04089777768579106 0.03049333196932179 3.43233894525905e-09 0.7074086813772256 1.27440860335917e-08 1.274408591889493e-08 1.274408591889493e-08 1.274408591889493e-08 0.115493012169111 0.0373876056040282 1.274408591889493e-08 1.274408591889493e-08 0.8471193057623452 3.15867622343111e-08 3.158676195003024e-08 0.082655260307771 3.158676195003024e-08 3.158676195003024e-08 3.158676195003024e-08 3.158676195003024e-08 3.158676195003024e-08 0.9173445185848951 1.685492606114738e-08 1.685492590945305e-08 1.685492590945305e-08 1.685492590945305e-08 1.685492590945305e-08 1.685492590945305e-08 1.685492590945305e-08 1.685492590945305e-08 0.9999998651605926</probabilities>
		</cpt>
		<cpt id="p2_gesture" dynamic="plate">
			<state id="wave_slow_shoulder" />
			<state id="wave_fast_shoulder" />
			<state id="wave_small_head" />
			<state id="wave_wide_head" />
			<state id="arm_raise_high" />
			<state id="arm_raise_low" />
			<state id="come_here" />
			<state id="i_am_coming" />
			<state id="None" />
			<parents>p2_wti</parents>
			<probabilities>0.02894856649739866 1.293010541009833e-08 0.003365693508143186 0.02351299585499611 0.02399151319601303 1.293010541009833e-08 0.02965074880179946 0.01188858541931491 0.8786418708621239 3.440934556999857e-09 0.02813489775147692 0.08155853455841201 0.00817826529489131 0.1023398558002738 0.04185972589150579 0.02953240923526052 3.440934556999857e-09 0.7083963045863105 1.277704335332583e-08 1.277704335332583e-08 1.277704335332583e-08 1.277704335332583e-08 0.1180457875059119 0.03821530616197959 1.277704335332583e-08 1.277704335332583e-08 0.8437388296698484 1.687816099473535e-08 1.687816099473535e-08 1.687816099473535e-08 1.687816099473535e-08 1.687816099473535e-08 1.687816099473535e-08 1.687816099473535e-08 1.687816099473535e-08 0.999999864974712 3.135096480242857e-08 3.135096480242857e-08 0.08334462751840341 3.135096480242857e-08 3.135096480242857e-08 3.135096480242857e-08 3.135096480242857e-08 3.135096480242857e-08 0.9166551530248429</probabilities>
		</cpt>
		<cpt id="p1_head" dynamic="plate">
			<state id="central" />
			<state id="mid_peripheral" />
			<state id="outside" />
			<parents>p1_wti</parents>
			<probabilities>0.9999999216353479 3.918232598120086e-08 3.918232598120086e-08 0.9984353476821235 0.001412102011928991 0.0001525503059475415 0.9884742740678658 0.01019566390373607 0.001330062028397927 0.5108752590746241 0.3905604919347624 0.09856424899061342 5.056477823400691e-08 0.2091434569278095 0.7908564925074122</probabilities>
		</cpt>
	</nodes>
	<dynamic numslices="60">
		<cpt id="p1_imas" order="1">
			<parents>p1_imas</parents>
			<probabilities>0.99999982683293 4.32917674643319e-08 4.32917674643319e-08 4.32917674643319e-08 4.32917674643319e-08 0.001768608288028163 0.9982313127926509 2.630644030325538e-08 2.630644030325538e-08 2.630644030325538e-08 0.002580833190017894 0.005392178871672074 0.9902307619261421 0.001796208507992188 1.750417583994882e-08 0.001580070018203527 0.002468873311183119 0.004629220904908994 0.9911430199134074 0.0001788158522970006 2.777047260067977e-08 2.777047260067977e-08 2.665965369665258e-06 0.02127096011132627 0.9787263183823589</probabilities>
		</cpt>
		<cpt id="p2_imas" order="1">
			<parents>p2_imas</parents>
			<probabilities>0.9999998277830314 4.305424210218364e-08 4.305424210218364e-08 4.305424210218364e-08 4.305424210218364e-08 0.00175360074104728 0.9982463213742189 2.596157790316643e-08 2.596157790316643e-08 2.596157790316643e-08 0.002599292116160085 0.005398309225829631 0.9901699777879374 0.001832403387142879 1.74829301041196e-08 0.001587520832647906 0.00251702386203716 0.004734476328248982 0.9909786675198943 0.0001823114571716723 2.788077789043161e-08 2.788077789043161e-08 2.788077789043161e-08 0.02139545802611621 0.9786044583315502</probabilities>
		</cpt>
		<cpt id="p1_wti" order="1">
			<parents>p2_imas p1_wti</parents>
			<probabilities>0.2 0.2 0.2 0.2 0.2 0.2 0.2 0.2 0.2 0.2 0.2 0.2 0.2 0.2 0.2 0.2 0.2 0.2 0.2 0.2 0.2 0.2 0.2 0.2 0.2 0.2 0.2 0.2 0.2 0.2 0.2 0.2 0.2 0.2 0.2 0.2 0.2 0.2 0.2 0.2 0.2 0.2 0.2 0.2 0.2 0.2 0.2 0.2 0.2 0.2 0.2 0.2 0.2 0.2 0.2 0.2 0.2 0.2 0.2 0.2 0.2 0.2 0.2 0.2 0.2 0.2 0.2 0.2 0.2 0.2 0.2 0.2 0.2 0.2 0.2 0.9999998261278541 4.346803643143069e-08 4.346803643143069e-08 4.346803643143069e-08 4.346803643143069e-08 0.9999527074958617 1.182312603452353e-05 1.182312603452353e-05 1.182312603452353e-05 1.182312603452353e-05 0.9999643175735948 8.920606601248884e-06 8.920606601248884e-06 8.920606601248884e-06 8.920606601248884e-06 0.9999629732481716 9.256687957048966e-06 9.256687957048966e-06 9.256687957048966e-06 9.256687957048966e-06 0.2 0.2 0.2 0.2 0.2 0.9999821049099656 4.473772508667936e-06 4.473772508667936e-06 4.473772508667936e-06 4.473772508667936e-06 0.9839999999999998 0.003999999999999999 0.003999999999999999 0.003999999999999999 0.003999999999999999 0.2 0.2 0.2 0.2 0.2 0.2 0.2 0.2 0.2 0.2 0.2 0.2 0.2 0.2 0.2 0.2 0.2 0.2 0.2 0.2 0.2 0.2 0.2 0.2 0.2 0.2 0.2 0.2 0.2 0.2 0.2 0.2 0.2 0.2 0.2 0.2 0.2 0.2 0.2 0.2 0.2 0.2 0.2 0.2 0.2 0.2 0.2 0.2 0.2 0.2 0.2 0.2 0.2 0.2 0.2 0.2 0.2 0.2 0.2 0.2 0.2 0.2 0.2 0.2 0.2 0.2 0.2 0.2 0.2 0.2 1.533544758037308e-07 0.999999386582097 1.533544758037308e-07 1.533544758037308e-07 1.533544758037308e-07 9.032199792259404e-06 0.9999638712008309 9.032199792259404e-06 9.032199792259404e-06 9.032199792259404e-06 0.2 0.2 0.2 0.2 0.2 0.2 0.2 0.2 0.2 0.2 0.9999995925564132 1.018608967222182e-07 1.018608967222182e-07 1.018608967222182e-07 1.018608967222182e-07 0.005935899434494377 0.9940639564448015 4.80402346573302e-08 4.80402346573302e-08 4.80402346573302e-08 0.2097448849286302 0.7902380884815121 5.675529952609326e-06 5.675529952609326e-06 5.675529952609326e-06 3.359086328518643e-05 0.9998656365468593 3.359086328518643e-05 3.359086328518643e-05 3.359086328518643e-05 0.2 0.2 0.2 0.2 0.2 0.999996231055163 9.422362091952829e-07 9.422362091952829e-07 9.422362091952829e-07 9.422362091952829e-07 0.04567627494456762 0.9536585365853657 0.0002217294900221729 0.0002217294900221729 0.0002217294900221729 0.9999327391962332 1.681520094165125e-05 1.681520094165125e-05 1.681520094165125e-05 1.681520094165125e-05 0.000432900432900433 0.9982683982683984 0.000432900432900433 0.000432900432900433 0.000432900432900433 0.2 0.2 0.2 0.2 0.2 0.2 0.2 0.2 0.2 0.2 0.2 0.2 0.2 0.2 0.2 0.2 0.2 0.2 0.2 0.2 0.2 0.2 0.2 0.2 0.2 0.2 0.2 0.2 0.2 0.2 0.2 0.2 0.2 0.2 0.2 1.538218973161925e-07 0.9999993847124109 1.538218973161925e-07 1.538218973161925e-07 1.538218973161925e-07 0.2 0.2 0.2 0.2 0.2 0.2 0.2 0.2 0.2 0.2 0.2 0.2 0.2 0.2 0.2 0.2 0.2 0.2 0.2 0.2 8.213366843870053e-08 0.999999671465326 8.213366843870053e-08 8.213366843870053e-08 8.213366843870053e-08 2.473410833539451e-05 0.9829581993569133 0.01696759831808064 2.473410833539451e-05 2.473410833539451e-05 0.0002754820936639118 0.868044077134986 0.131129476584022 0.0002754820936639118 0.0002754820936639118 0.2 0.2 0.2 0.2 0.2 0.9999961914555303 9.521361173793403e-07 9.521361173793403e-07 9.521361173793403e-07 9.521361173793403e-07 2.833105575254296e-08 0.9999998866757769 2.833105575254296e-08 2.833105575254296e-08 2.833105575254296e-08 0.01517194662801872 0.3864600891633454 0.5983648135603901 1.575324122938295e-06 1.575324122938295e-06 0.04468503937007873 0.6923656282095172 0.2629322149948647 8.558712769599451e-06 8.558712769599451e-06 0.01 0.9600000000000002 0.01 0.01 0.01 0.9999801675839162 4.958104021022363e-06 4.958104021022363e-06 4.958104021022363e-06 4.958104021022363e-06 9.914979054606744e-07 0.9999960340083779 9.914979054606744e-07 9.914979054606744e-07 9.914979054606744e-07 0.2319451382896589 0.768027612516463 9.083064626004813e-06 9.083064626004813e-06 9.083064626004813e-06 1.30718954248366e-05 0.9999477124183005 1.30718954248366e-05 1.30718954248366e-05 1.30718954248366e-05 0.2 0.2 0.2 0.2 0.2 0.2 0.2 0.2 0.2 0.2 4.348250514017563e-08 0.9999998260699793 4.348250514017563e-08 4.348250514017563e-08 4.348250514017563e-08 1.889466225791213e-05 0.8488615965989605 0.1510817194142654 1.889466225791213e-05 1.889466225791213e-05 7.809449433814917e-05 0.2718469347910972 7.809449433814917e-05 0.7279187817258883 7.809449433814917e-05 0.2 0.2 0.2 0.2 0.2 0.9999992309149134 1.922712716918046e-07 1.922712716918046e-07 1.922712716918046e-07 1.922712716918046e-07 5.285973827029192e-08 0.9999997885610468 5.285973827029192e-08 5.285973827029192e-08 5.285973827029192e-08 0.004749317476785388 0.009770541320135558 0.9854798470912711 1.470559040371993e-07 1.470559040371993e-07 0.000563380281690141 0.000563380281690141 0.9977464788732395 0.000563380281690141 0.000563380281690141 0.002105263157894737 0.002105263157894737 0.9915789473684209 0.002105263157894737 0.002105263157894737 0.9999913291351897 2.167716202594757e-06 2.167716202594757e-06 2.167716202594757e-06 2.167716202594757e-06 3.875742907245139e-08 0.9999998449702836 3.875742907245139e-08 3.875742907245139e-08 3.875742907245139e-08 1.50715105496806e-07 0.07406230713176344 0.9259372407229202 1.50715105496806e-07 1.50715105496806e-07 2.299402960021431e-07 0.01242735323773183 0.04470292288607263 0.9428692639956037 2.299402960021431e-07 9.624175929935999e-06 9.624175929935999e-06 0.9999615032962801 9.624175929935999e-06 9.624175929935999e-06 0.9999927640445374 1.808988865673532e-06 1.808988865673532e-06 1.808988865673532e-06 1.808988865673532e-06 1.173771603999979e-07 0.9935214850088826 0.006478162859636285 1.173771603999979e-07 1.173771603999979e-07 0.0002935036308480191 0.005323234567521013 0.9943831738077376 4.399694661190513e-08 4.399694661190513e-08 1.188295526720904e-07 0.001612041711549579 0.03243583352692648 0.9659518871024185 1.188295526720904e-07 5.063932143309281e-06 5.063932143309281e-06 0.9999797442714269 5.063932143309281e-06 5.063932143309281e-06 0.2 0.2 0.2 0.2 0.2 2.293052052281586e-05 0.9999082779179084 2.293052052281586e-05 2.293052052281586e-05 2.293052052281586e-05 2.101590904314566e-07 0.002657671857596201 0.9973416976651326 2.101590904314566e-07 2.101590904314566e-07 4.545950467323708e-07 3.454922355166018e-05 0.003080336036658545 0.9968842055496964 4.545950467323708e-07 5.143768324674658e-06 5.143768324674658e-06 0.9999794249267014 5.143768324674658e-06 5.143768324674658e-06 0.2 0.2 0.2 0.2 0.2 0.2 0.2 0.2 0.2 0.2 6.133276089423165e-06 6.133276089423165e-06 0.9999754668956422 6.133276089423165e-06 6.133276089423165e-06 0.2 0.2 0.2 0.2 0.2 0.2 0.2 0.2 0.2 0.2 0.2 0.2 0.2 0.2 0.2 0.2 0.2 0.2 0.2 0.2 1.344113120560226e-06 1.344113120560226e-06 0.9999946235475177 1.344113120560226e-06 1.344113120560226e-06 0.0003284072249589491 0.0003284072249589491 0.0003284072249589491 0.9986863711001641 0.0003284072249589491 2.864631823194924e-06 2.864631823194924e-06 0.1514845954423708 2.864631823194924e-06 0.8485068106621596 0.2 0.2 0.2 0.2 0.2 0.2 0.2 0.2 0.2 0.2 0.2 0.2 0.2 0.2 0.2 2.194450235354788e-06 2.194450235354788e-06 2.194450235354788e-06 0.9999912221990586 2.194450235354788e-06 1.847046111506174e-06 1.847046111506174e-06 1.847046111506174e-06 1.847046111506174e-06 0.999992611815554 0.2 0.2 0.2 0.2 0.2 0.2 0.2 0.2 0.2 0.2 3.356267830172849e-05 3.356267830172849e-05 0.9998657492867932 3.356267830172849e-05 3.356267830172849e-05 6.223123883727154e-07 6.223123883727154e-07 6.223123883727154e-07 0.9999975107504465 6.223123883727154e-07 1.833972319855777e-07 1.833972319855777e-07 0.002082658966428219 1.833972319855777e-07 0.9979167908418758 0.2 0.2 0.2 0.2 0.2 0.2 0.2 0.2 0.2 0.2 0.2 0.2 0.2 0.2 0.2 5.119017148707449e-06 5.119017148707449e-06 5.119017148707449e-06 0.8724648067571027 0.1275198361914513 3.886903544933771e-08 3.886903544933771e-08 3.886903544933771e-08 3.886903544933771e-08 0.9999998445238583</probabilities>
		</cpt>
		<cpt id="p2_wti" order="1">
			<parents>p1_imas p2_wti</parents>
			<probabilities>0.2 0.2 0.2 0.2 0.2 0.2 0.2 0.2 0.2 0.2 0.2 0.2 0.2 0.2 0.2 0.2 0.2 0.2 0.2 0.2 0.2 0.2 0.2 0.2 0.2 0.2 0.2 0.2 0.2 0.2 0.2 0.2 0.2 0.2 0.2 0.2 0.2 0.2 0.2 0.2 0.2 0.2 0.2 0.2 0.2 0.2 0.2 0.2 0.2 0.2 0.2 0.2 0.2 0.2 0.2 0.2 0.2 0.2 0.2 0.2 0.2 0.2 0.2 0.2 0.2 0.2 0.2 0.2 0.2 0.2 0.2 0.2 0.2 0.2 0.2 0.9999998269069283 4.327326787386102e-08 4.327326787386102e-08 4.327326787386102e-08 4.327326787386102e-08 0.9999532983070635 1.167542323409223e-05 1.167542323409223e-05 1.167542323409223e-05 1.167542323409223e-05 0.9999643318917472 8.917027063177137e-06 8.917027063177137e-06 8.917027063177137e-06 8.917027063177137e-06 0.2 0.2 0.2 0.2 0.2 0.999963009201461 9.247699634715864e-06 9.247699634715864e-06 9.247699634715864e-06 9.247699634715864e-06 0.999983880067704 4.02998307407109e-06 4.02998307407109e-06 4.02998307407109e-06 4.02998307407109e-06 0.2 0.2 0.2 0.2 0.2 0.2 0.2 0.2 0.2 0.2 0.2 0.2 0.2 0.2 0.2 0.2 0.2 0.2 0.2 0.2 0.2 0.2 0.2 0.2 0.2 0.2 0.2 0.2 0.2 0.2 0.2 0.2 0.2 0.2 0.2 0.2 0.2 0.2 0.2 0.2 0.2 0.2 0.2 0.2 0.2 0.2 0.2 0.2 0.2 0.2 0.2 0.2 0.2 0.2 0.2 0.2 0.2 0.2 0.2 0.2 0.2 0.2 0.2 0.2 0.2 0.2 0.2 0.2 0.2 0.2 0.2 0.2 0.2 0.2 0.2 1.538218973161925e-07 0.9999993847124109 1.538218973161925e-07 1.538218973161925e-07 1.538218973161925e-07 9.006169225919754e-06 0.9999639753230962 9.006169225919754e-06 9.006169225919754e-06 9.006169225919754e-06 0.2 0.2 0.2 0.2 0.2 0.2 0.2 0.2 0.2 0.2 0.9999996081758038 9.795604907989884e-08 9.795604907989884e-08 9.795604907989884e-08 9.795604907989884e-08 0.005916936191514778 0.994082920507724 4.776692035678067e-08 4.776692035678067e-08 4.776692035678067e-08 0.2253584031760036 0.7746250551389503 5.513895015438907e-06 5.513895015438907e-06 5.513895015438907e-06 0.2 0.2 0.2 0.2 0.2 3.359650596337982e-05 0.9998656139761466 3.359650596337982e-05 3.359650596337982e-05 3.359650596337982e-05 0.9999962794504746 9.301373812912166e-07 9.301373812912166e-07 9.301373812912166e-07 9.301373812912166e-07 0.04955577492596248 0.9498519249753207 0.0001974333662388943 0.0001974333662388943 0.0001974333662388943 0.9999334553318913 1.663616702711695e-05 1.663616702711695e-05 1.663616702711695e-05 1.663616702711695e-05 0.2 0.2 0.2 0.2 0.2 0.0005390835579514826 0.9978436657681942 0.0005390835579514826 0.0005390835579514826 0.0005390835579514826 0.2 0.2 0.2 0.2 0.2 0.2 0.2 0.2 0.2 0.2 0.2 0.2 0.2 0.2 0.2 0.2 0.2 0.2 0.2 0.2 0.2 0.2 0.2 0.2 0.2 0.2 0.2 0.2 0.2 0.2 1.533544758037308e-07 0.999999386582097 1.533544758037308e-07 1.533544758037308e-07 1.533544758037308e-07 0.2 0.2 0.2 0.2 0.2 0.2 0.2 0.2 0.2 0.2 0.2 0.2 0.2 0.2 0.2 0.9799999999999998 0.004999999999999998 0.004999999999999998 0.004999999999999998 0.004999999999999998 8.213366843870053e-08 0.999999671465326 8.213366843870053e-08 8.213366843870053e-08 8.213366843870053e-08 2.338907730090047e-05 0.9999064436907961 2.338907730090047e-05 2.338907730090047e-05 2.338907730090047e-05 0.2 0.2 0.2 0.2 0.2 0.0002436053593179049 0.9990255785627281 0.0002436053593179049 0.0002436053593179049 0.0002436053593179049 0.9999964647602885 8.838099278369192e-07 8.838099278369192e-07 8.838099278369192e-07 8.838099278369192e-07 2.839123749880579e-08 0.9999998864350499 2.839123749880579e-08 2.839123749880579e-08 2.839123749880579e-08 0.01310510792528137 0.3611292902316982 0.625762667097096 1.467372962185799e-06 1.467372962185799e-06 0.2 0.2 0.2 0.2 0.2 0.04707992012063414 0.7097526184945184 0.2431511594734482 8.150955699555772e-06 8.150955699555772e-06 0.9999774971168184 5.625720795476923e-06 5.625720795476923e-06 5.625720795476923e-06 5.625720795476923e-06 9.743264968090805e-07 0.9999961026940125 9.743264968090805e-07 9.743264968090805e-07 9.743264968090805e-07 0.2316676966540125 0.7683058179570936 8.828462964597862e-06 8.828462964597862e-06 8.828462964597862e-06 0.2 0.2 0.2 0.2 0.2 1.332622601279317e-05 0.9999466950959486 1.332622601279317e-05 1.332622601279317e-05 1.332622601279317e-05 0.2 0.2 0.2 0.2 0.2 4.371253153039539e-08 0.9999998251498737 4.371253153039539e-08 4.371253153039539e-08 4.371253153039539e-08 1.945336056803813e-05 0.7579223810913335 0.2420192588269623 1.945336056803813e-05 1.945336056803813e-05 0.004999999999999999 0.004999999999999999 0.9799999999999999 0.004999999999999999 0.004999999999999999 4.918839153959666e-05 0.2277914412198721 4.918839153959666e-05 4.918839153959666e-05 0.7720609936055091 0.9999992064247851 1.983938037647209e-07 1.983938037647209e-07 1.983938037647209e-07 1.983938037647209e-07 5.372010375500838e-08 0.9999997851195848 5.372010375500838e-08 5.372010375500838e-08 5.372010375500838e-08 0.004881718904281298 0.00958960805529442 0.9855283774115924 1.47814416044368e-07 1.47814416044368e-07 0.009090909090909092 0.009090909090909092 0.9636363636363637 0.009090909090909092 0.009090909090909092 0.0005376344086021506 0.0005376344086021506 0.9978494623655915 0.0005376344086021506 0.0005376344086021506 0.9999903573796181 2.410655095522209e-06 2.410655095522209e-06 2.410655095522209e-06 2.410655095522209e-06 3.869647817547652e-08 0.9999998452140871 3.869647817547652e-08 3.869647817547652e-08 3.869647817547652e-08 1.514273924581588e-07 0.0738649191945577 0.9261346265232651 1.514273924581588e-07 1.514273924581588e-07 1.004772670183371e-05 1.004772670183371e-05 0.9999598090931925 1.004772670183371e-05 1.004772670183371e-05 2.309722198162616e-07 0.01254895167483731 0.04458595342445187 2.309722198162616e-07 0.9428646329562711 0.9999932095778905 1.697605527403598e-06 1.697605527403598e-06 1.697605527403598e-06 1.697605527403598e-06 1.186830924066558e-07 0.9932464573096917 0.00675318664103112 1.186830924066558e-07 1.186830924066558e-07 0.0003122681505034445 0.005264794205970676 0.994422849319908 4.416180886769121e-08 4.416180886769121e-08 4.955033074845775e-06 4.955033074845775e-06 0.9999801798677007 4.955033074845775e-06 4.955033074845775e-06 1.17049829282824e-07 0.001466166161596653 0.0320155863552673 1.17049829282824e-07 0.9665180133834774 0.2 0.2 0.2 0.2 0.2 1.654122901331569e-05 0.9999338350839465 1.654122901331569e-05 1.654122901331569e-05 1.654122901331569e-05 2.092120238334338e-07 0.002895703621878557 0.99710366874205 2.092120238334338e-07 2.092120238334338e-07 5.060344609467906e-06 5.060344609467906e-06 0.9999797586215622 5.060344609467906e-06 5.060344609467906e-06 4.407256989358678e-07 5.773506656059868e-05 0.003162647615563788 4.407256989358678e-07 0.9967787358664778 0.2 0.2 0.2 0.2 0.2 0.2 0.2 0.2 0.2 0.2 6.764984440535786e-06 6.764984440535786e-06 0.9999729400622378 6.764984440535786e-06 6.764984440535786e-06 0.0003824091778202677 0.0003824091778202677 0.5567877629063097 0.4420650095602294 0.0003824091778202677 0.2 0.2 0.2 0.2 0.2 0.2 0.2 0.2 0.2 0.2 0.2 0.2 0.2 0.2 0.2 1.408936886672161e-06 1.408936886672161e-06 0.9999943642524531 1.408936886672161e-06 1.408936886672161e-06 2.794818406674026e-06 2.794818406674026e-06 0.1346012492838278 0.8653903662609521 2.794818406674026e-06 0.0004081632653061225 0.0004081632653061225 0.0004081632653061225 0.0004081632653061225 0.9983673469387755 0.2 0.2 0.2 0.2 0.2 0.2 0.2 0.2 0.2 0.2 0.2 0.2 0.2 0.2 0.2 1.832911763627699e-06 1.832911763627699e-06 1.832911763627699e-06 0.9999926683529454 1.832911763627699e-06 2.176444342877042e-06 2.176444342877042e-06 2.176444342877042e-06 2.176444342877042e-06 0.9999912942226284 0.2 0.2 0.2 0.2 0.2 0.2 0.2 0.2 0.2 0.2 2.37925291458482e-05 2.37925291458482e-05 0.9999048298834164 2.37925291458482e-05 2.37925291458482e-05 1.852769659044064e-07 1.852769659044064e-07 0.002548669942981014 0.9974507742261213 1.852769659044064e-07 6.492789756974879e-07 6.492789756974879e-07 6.492789756974879e-07 6.492789756974879e-07 0.9999974028840972 0.2 0.2 0.2 0.2 0.2 0.2 0.2 0.2 0.2 0.2 0.2 0.2 0.2 0.2 0.2 3.888188906880403e-08 3.888188906880403e-08 3.888188906880403e-08 0.9999998444724437 3.888188906880403e-08 4.974258213743876e-06 4.974258213743876e-06 4.974258213743876e-06 0.1258288357748651 0.8741562414504936</probabilities>
		</cpt>
	</dynamic>
	<extensions>
		<genie version="1.0" app="SMILE_ACADEMIC 1.5.0@a121f1f76773" name="emidas dbn v9" faultnameformat="user">
			<plate leftwidth="120" rightwidth="120">120 50 1164 561</plate>
			<node id="p1_imas">
				<name>p1_imas</name>
				<interior color="e5f6f7" />
				<outline color="000080" />
				<font color="000000" name="MS Sans Serif" size="8" />
				<position>491 462 547 497</position>
			</node>
			<node id="p2_imas">
				<name>p2_imas</name>
				<interior color="e5f6f7" />
				<outline color="000080" />
				<font color="000000" name="MS Sans Serif" size="8" />
				<position>651 472 707 507</position>
			</node>
			<node id="p1_wti">
				<name>p1_wti</name>
				<interior color="e5f6f7" />
				<outline color="000080" />
				<font color="000000" name="MS Sans Serif" size="8" />
				<position>487 311 571 363</position>
			</node>
			<node id="p2_wti">
				<name>p2_wti</name>
				<interior color="e5f6f7" />
				<outline color="000080" />
				<font color="000000" name="MS Sans Serif" size="8" />
				<position>650 301 734 353</position>
			</node>
			<node id="p1_approach">
				<name>p1_approach</name>
				<interior color="e5f6f7" />
				<outline color="000080" />
				<font color="000000" name="MS Sans Serif" size="8" />
				<position>268 135 344 182</position>
			</node>
			<node id="p2_head">
				<name>p2_head</name>
				<interior color="e5f6f7" />
				<outline color="000080" />
				<font color="000000" name="MS Sans Serif" size="8" />
				<position>676 84 733 119</position>
			</node>
			<node id="p1_body">
				<name>p1_body</name>
				<interior color="e5f6f7" />
				<outline color="000080" />
				<font color="000000" name="MS Sans Serif" size="8" />
				<position>404 76 461 111</position>
			</node>
			<node id="p2_approach">
				<name>p2_approach</name>
				<interior color="e5f6f7" />
				<outline color="000080" />
				<font color="000000" name="MS Sans Serif" size="8" />
				<position>924 160 1000 207</position>
			</node>
			<node id="p2_body">
				<name>p2_body</name>
				<interior color="e5f6f7" />
				<outline color="000080" />
				<font color="000000" name="MS Sans Serif" size="8" />
				<position>827 91 884 126</position>
			</node>
			<node id="dist">
				<name>dist</name>
				<interior color="e5f6f7" />
				<outline color="000080" />
				<font color="000000" name="MS Sans Serif" size="8" />
				<position>599 137 637 160</position>
			</node>
			<node id="p1_gesture">
				<name>p1_gesture</name>
				<interior color="e5f6f7" />
				<outline color="000080" />
				<font color="000000" name="MS Sans Serif" size="8" />
				<position>248 271 316 313</position>
			</node>
			<node id="p2_gesture">
				<name>p2_gesture</name>
				<interior color="e5f6f7" />
				<outline color="000080" />
				<font color="000000" name="MS Sans Serif" size="8" />
				<position>964 312 1032 354</position>
			</node>
			<node id="p1_head">
				<name>p1_head</name>
				<interior color="e5f6f7" />
				<outline color="000080" />
				<font color="000000" name="MS Sans Serif" size="8" />
				<position>528 80 585 115</position>
			</node>
		</genie>
	</extensions>
</smile>
