<?xml version="1.0" encoding="ISO-8859-1"?>
<!-- This file was created by ACADEMIC version of SMILE -->
<smile version="1.0" id="Network2" numsamples="10000" discsamples="10000">
	<nodes>
		<cpt id="p1_imas" target="true" dynamic="plate">
			<state id="very_high" />
			<state id="high" />
			<state id="medium" />
			<state id="low" />
			<state id="very_low" />
			<probabilities>0.05138925162324674 0.06945895801221907 0.1570705019723524 0.483918648202691 0.2381626401894908</probabilities>
		</cpt>
		<cpt id="p2_imas" target="true" dynamic="plate">
			<state id="very_high" />
			<state id="high" />
			<state id="medium" />
			<state id="low" />
			<state id="very_low" />
			<probabilities>0.05173420570736722 0.06983561465986923 0.156077154981756 0.4829796484638598 0.2393733761871478</probabilities>
		</cpt>
		<cpt id="p1_wti" dynamic="plate">
			<state id="very_high" />
			<state id="high" />
			<state id="medium" />
			<state id="low" />
			<state id="very_low" />
			<parents>p1_imas</parents>
			<probabilities>0.999988249463882 2.937634029552599e-06 2.937634029552599e-06 2.937634029552599e-06 2.937634029552599e-06 0.2776344530052923 0.7223590267438955 2.173416937438194e-06 2.173416937438194e-06 2.173416937438194e-06 0.02405785957998942 0.9759392570522368 9.611225911865055e-07 9.611225911865055e-07 9.611225911865055e-07 0.01475925085360699 0.4196629870707203 0.32427893801776 0.2412985120955603 3.119623523833144e-07 6.338702214108684e-07 6.338702214108684e-07 0.01090320167848834 0.2403990846914003 0.7486964458896685</probabilities>
		</cpt>
		<cpt id="p2_wti" dynamic="plate">
			<state id="very_high" />
			<state id="high" />
			<state id="medium" />
			<state id="very_low" />
			<state id="low" />
			<parents>p2_imas</parents>
			<probabilities>0.9999883278133619 2.918046659566087e-06 2.918046659566087e-06 2.918046659566087e-06 2.918046659566087e-06 0.286707738867272 0.713285776048422 2.16169476869866e-06 2.16169476869866e-06 2.16169476869866e-06 0.02371768210703473 0.9762794161741802 9.672395949200574e-07 9.672395949200574e-07 9.672395949200574e-07 0.01472699454098481 0.4178704995944419 0.3238310315241327 3.125688628275917e-07 0.2435711617715778 6.306641524189124e-07 6.306641524189124e-07 0.01046334895278218 0.7479241689423132 0.2416112207765998</probabilities>
		</cpt>
		<cpt id="p1_approach" dynamic="plate">
			<state id="y" />
			<state id="m" />
			<state id="n" />
			<parents>p1_wti</parents>
			<probabilities>0.773905776887316 0.1742459908395566 0.05184823227312736 0.5241967938831961 0.1660025549816777 0.3098006511351262 0.2747831821113683 0.2264268416604441 0.4987899762281877 0.3580046625236615 0.08109551911453024 0.5608998183618084 0.0002680290872700725 0.01808443289232941 0.9816475380204005</probabilities>
		</cpt>
		<cpt id="p2_head" dynamic="plate">
			<state id="central" />
			<state id="mid_peripheral" />
			<state id="outside" />
			<parents>p2_wti</parents>
			<probabilities>0.9999999326922266 3.365388660322908e-08 3.365388660322908e-08 0.9986135165908454 0.001279520164334022 0.0001069632448203992 0.9879498762369501 0.01085171586634679 0.001198407896702985 0.06644045728275541 0.190561854715068 0.7429976880021765 0.4699776390359804 0.2940822224018528 0.2359401385621667</probabilities>
		</cpt>
		<cpt id="p1_body" dynamic="plate">
			<state id="strongly_facing" />
			<state id="slightly_facing" />
			<state id="turned_away" />
			<parents>p1_wti</parents>
			<probabilities>0.3704943541656147 0.5949792513694844 0.03452639446490092 0.2842312086384758 0.5578172971093188 0.1579514942522053 0.09124331144050733 0.492290497484104 0.4164661910753887 0.08370053316356212 0.7631608833514817 0.1531385834849562 0.001682724097127471 0.3514864613678114 0.6468308145350611</probabilities>
		</cpt>
		<cpt id="p2_approach" dynamic="plate">
			<state id="y" />
			<state id="m" />
			<state id="n" />
			<parents>p2_wti</parents>
			<probabilities>0.7718833219751465 0.1753677107784985 0.05274896724635486 0.5237682784906901 0.1677641528835489 0.308467568625761 0.2774857916224878 0.2285389009679469 0.4939753074095652 0.0002229170416540727 0.01837669414121564 0.9814003888171302 0.3578239854639272 0.08183330372473165 0.5603427108113411</probabilities>
		</cpt>
		<cpt id="p2_body" dynamic="plate">
			<state id="strongly_facing" />
			<state id="slightly_facing" />
			<state id="turned_away" />
			<parents>p2_wti</parents>
			<probabilities>0.375719158316296 0.5887557316775621 0.03552511000614184 0.2829904988312111 0.5611739484605687 0.1558355527082202 0.09044074852738375 0.4957118696065036 0.4138473818661126 0.001661029120154078 0.3572124841844935 0.6411264866953524 0.08501504862889339 0.7676696751746108 0.1473152761964958</probabilities>
		</cpt>
		<cpt id="dist" dynamic="plate">
			<state id="range_0_3" />
			<state id="range_3_6" />
			<state id="range_6_9" />
			<state id="range_9_12" />
			<state id="range_12_15" />
			<state id="range_15_18" />
			<state id="range_18_21" />
			<state id="range_21_24" />
			<state id="range_24_27" />
			<state id="range_27_30" />
			<state id="range_30_inf" />
			<parents>p1_wti p2_wti</parents>
			<probabilities>0.1111111111111111 0.1111111111111111 0.1111111111111111 0.1111111111111111 0.1111111111111111 0.1111111111111111 0.1111111111111111 0.1111111111111111 0.1111111111111111 0 0 0.03675368237597593 0.1430913190428485 0.223663482772584 0.2640160210009682 0.1956921697695019 0.09139082424114192 0.03959490491746322 0.005797584046118064 1.183339806202073e-08 0 0 3.998096905872804e-07 3.998096905872804e-07 3.998096905872804e-07 0.02410532586488831 0.597434821025192 0.3784574542517761 3.998096905872804e-07 3.998096905872804e-07 3.998096905872804e-07 0 0 1.052308132658172e-06 1.052308132658172e-06 1.052308132658172e-06 1.052308132658172e-06 0.7297241268999424 0.2702685069431291 1.052308132658172e-06 1.052308132658172e-06 1.052308132658172e-06 0 0 3.761378168961108e-06 3.761378168961108e-06 0.01767471601594825 0.7408974648311143 0.01449259008500715 0.218961107349733 0.007959076205521705 3.761378168961108e-06 3.761378168961108e-06 0 0 0.03666112577816889 0.1432350748716288 0.2240527225283491 0.2652148590841868 0.1974652702621175 0.08886742518732607 0.03887514053370301 0.00562837005130164 1.170321786411944e-08 0 0 0.02240098220841419 0.0921556727652357 0.1706494581984461 0.2657697882977424 0.1772210711458546 0.2209849311384309 0.04957561653956359 0.001242474278882826 5.427429415235673e-09 0 0 0.009975120187075458 0.04624468350598336 0.07657818332504229 0.2658234048357956 0.1064056462919376 0.224363374868365 0.1662974405395068 0.1031600718713228 0.001152074574971247 0 0 1.249122959542031e-07 1.249122959542031e-07 0.0004498091777310855 0.90078853385067 0.008644180704622766 0.0149678656873043 0.07347740967373281 0.001671826169051055 1.249122959542031e-07 0 0 4.902522411513515e-08 4.902522411513515e-08 0.0005595248828260375 0.1441105287404739 5.873221848993191e-05 0.03911658899355284 0.07817841681176908 0.2577736969181225 0.3215340894689749 0.1359888140126641 0.02267950990267856 3.853956626030547e-07 3.853956626030547e-07 3.853956626030547e-07 0.01396481183442169 0.6173834255199757 0.3686494502716268 3.853956626030547e-07 3.853956626030547e-07 3.853956626030547e-07 0 0 0.009997006850250297 0.04642871509423657 0.07772111089748135 0.2680763365500112 0.1074405783454531 0.217813416956225 0.1698561991677371 0.1009365015995071 0.001730134539098431 0 0 3.275127119146439e-08 3.275127119146439e-08 0.002929666710618873 0.1383006269313834 0.08829994898006975 0.2662079327115963 0.168063573885525 0.05156176729265483 0.05895202613446638 0.2256843918511431 0 1.254894401890975e-07 1.254894401890975e-07 1.254894401890975e-07 0.00330250559745648 0.2373874955796345 0.4881707379205747 0.2499408317289508 0.02119792721562273 1.254894401890975e-07 0 0 1.586900328218595e-07 1.586900328218595e-07 1.586900328218595e-07 0.2369473877478282 0.02769744094866171 0.1505949368675508 0.245496654576073 0.1910132882272784 0.02348422057724133 0.03717060114799543 0.08759499383727257 4.74286554450468e-06 4.74286554450468e-06 0.002053660780770527 0.7741542285017764 4.74286554450468e-06 0.2130495202591502 0.01071887613058058 4.74286554450468e-06 4.74286554450468e-06 0 0 4.985686592361987e-08 4.985686592361987e-08 0.001444901831332428 0.1365322794788442 5.748496640993372e-05 0.04257965805967647 0.07484427955781747 0.2638941861808933 0.3215882024296448 0.1371900411109745 0.02186886667067516 1.661641033361265e-07 1.661641033361265e-07 1.661641033361265e-07 0.2370527007731782 0.02875220562076666 0.1545517249744814 0.2285374551336151 0.1925532892433502 0.02640580231755721 0.04025076157162662 0.09189556187311476 2.090480162388499e-07 2.090480162388499e-07 2.090480162388499e-07 0.5742170629171814 0.0275293242104779 0.1861904970952778 0.1384152906080998 0.04916203102690657 0.02409759197590094 0.0003875750221068277 0 1.292790893787791e-07 1.292790893787791e-07 0.002047910054849239 0.4332651644695039 0.004158520468047187 0.01745396985702896 0.328330361853464 0.2147436854598386 1.292790893787791e-07 0 0 1.122822146094881e-06 1.122822146094881e-06 1.122822146094881e-06 1.122822146094881e-06 0.7519135696424823 0.2480785706024952 1.122822146094881e-06 1.122822146094881e-06 1.122822146094881e-06 0 0 1.247899628937045e-07 1.247899628937045e-07 0.0001742067881996115 0.8938011209882366 0.0113244395526779 0.01405134982183113 0.07862678629032509 0.002021722188840907 1.247899628937045e-07 0 0 1.245368009360186e-07 1.245368009360186e-07 1.245368009360186e-07 0.003136210257971756 0.2566278796800151 0.4643705816678093 0.2573071033923202 0.01855772685467987 1.245368009360186e-07 0 0 2.386983777461503e-08 2.386983777461503e-08 2.386983777461503e-08 0.2454588170705145 0.3006534248741612 0.2015491524715726 0.09691777139259619 0.04597999110848544 0.07359039955124706 0.03585037192190983 0 2.121368138196103e-07 2.121368138196103e-07 2.121368138196103e-07 0.5637141252782439 0.02806591260514826 0.1935103530189932 0.1384691231685433 0.05086977154350109 0.02521543023785416 0.0001546477372744959 0</probabilities>
		</cpt>
		<cpt id="p1_gesture" dynamic="plate">
			<state id="wave_slow_shoulder" />
			<state id="wave_fast_shoulder" />
			<state id="wave_small_head" />
			<state id="wave_wide_head" />
			<state id="arm_raise_high" />
			<state id="arm_raise_low" />
			<state id="come_here" />
			<state id="i_am_coming" />
			<state id="None" />
			<parents>p1_wti</parents>
			<probabilities>0.02198915611241149 1.13347975624971e-08 1.13347975624971e-08 1.13347975624971e-08 0.02093270762983192 1.13347975624971e-08 0.02667441740131729 0.008287459990289367 0.9221162135269597 3.046998863646149e-09 0.03020373885896093 0.07678410025776815 0.007526215174684446 0.1052146655492468 0.0687586526007692 0.02596696920379351 3.046998836223159e-09 0.6855456522607792 1.291932276961651e-08 1.291932265334261e-08 1.291932265334261e-08 1.291932265334261e-08 0.1388577985386126 0.02813632128329997 1.291932265334261e-08 1.291932265334261e-08 0.8330058026621514 2.576976541653669e-08 2.57697651846088e-08 0.06118538601755694 2.57697651846088e-08 2.57697651846088e-08 2.57697651846088e-08 2.57697651846088e-08 2.57697651846088e-08 0.9388144335940866 1.573771868956864e-08 1.573771854792917e-08 1.573771854792917e-08 1.573771854792917e-08 1.573771854792917e-08 1.573771854792917e-08 1.573771854792917e-08 1.573771854792917e-08 0.9999998740982515</probabilities>
		</cpt>
		<cpt id="p2_gesture" dynamic="plate">
			<state id="wave_slow_shoulder" />
			<state id="wave_fast_shoulder" />
			<state id="wave_small_head" />
			<state id="wave_wide_head" />
			<state id="arm_raise_high" />
			<state id="arm_raise_low" />
			<state id="come_here" />
			<state id="i_am_coming" />
			<state id="None" />
			<parents>p2_wti</parents>
			<probabilities>0.02164124395982848 1.121796220107636e-08 1.121796220107636e-08 1.121796220107636e-08 0.0204116319050063 1.121796220107636e-08 0.02670750004907859 0.00947253702628649 0.9217670421879515 3.059676902096719e-09 0.03047593626074958 0.07804339903851795 0.007234878346251978 0.1042668892520419 0.06934737810702349 0.02537444211189976 3.059676902096719e-09 0.6852570707641615 1.295758211103165e-08 1.295758211103165e-08 1.295758211103165e-08 1.295758211103165e-08 0.1404838247133537 0.02786967295010922 1.295758211103165e-08 1.295758211103165e-08 0.8316464245910444 1.572274239343157e-08 1.572274239343157e-08 1.572274239343157e-08 1.572274239343157e-08 1.572274239343157e-08 1.572274239343157e-08 1.572274239343157e-08 1.572274239343157e-08 0.9999998742180608 2.537155243099813e-08 2.537155243099813e-08 0.0612736184415869 2.537155243099813e-08 2.537155243099813e-08 2.537155243099813e-08 2.537155243099813e-08 2.537155243099813e-08 0.938726203957546</probabilities>
		</cpt>
		<cpt id="p1_head" dynamic="plate">
			<state id="central" />
			<state id="mid_peripheral" />
			<state id="outside" />
			<parents>p1_wti</parents>
			<probabilities>0.9999999319912138 3.400439302753522e-08 3.400439302753522e-08 0.9986110072846246 0.001253568850745094 0.0001354238646301769 0.98831579031412 0.01033585872503492 0.001348350960844917 0.4719717078899162 0.2953825090036339 0.2326457831064499 0.06629156758395691 0.180611756916267 0.753096675499776</probabilities>
		</cpt>
	</nodes>
	<dynamic numslices="50">
		<cpt id="p1_imas" order="1">
			<parents>p1_imas</parents>
			<probabilities>0.9999998774758868 3.063102828208787e-08 3.063102828208787e-08 3.063102828208787e-08 3.063102828208787e-08 0.001489384689753996 0.9985105356725232 2.654590756343343e-08 2.654590756343343e-08 2.654590756343343e-08 0.00546040500635426 0.004207802581112135 0.9887786112493537 0.001553163530825984 1.763235395892632e-08 0.001798403655761298 0.002523686104434595 0.004451109179028949 0.9910817765556255 0.0001450245051496941 2.425844657883735e-08 2.425844657883735e-08 2.328810871568385e-06 0.02700113080748727 0.972996491864748</probabilities>
		</cpt>
		<cpt id="p2_imas" order="1">
			<parents>p2_imas</parents>
			<probabilities>0.9999998778805124 3.052987187681319e-08 3.052987187681319e-08 3.052987187681319e-08 3.052987187681319e-08 0.001486271421314468 0.998513649452951 2.637524482821012e-08 2.637524482821012e-08 2.637524482821012e-08 0.005478926766971573 0.004243401702347604 0.9887157377376367 0.001561916146467645 1.764657665677312e-08 0.001803532601079274 0.002556351414475197 0.004541227565117465 0.9909521985869005 0.0001466898324275028 2.419676421511504e-08 2.419676421511504e-08 2.419676421511504e-08 0.0271660943325371 0.9728338330771703</probabilities>
		</cpt>
		<cpt id="p1_wti" order="1">
			<parents>p2_imas p1_wti</parents>
			<probabilities>0.2 0.2 0.2 0.2 0.2 0.2 0.2 0.2 0.2 0.2 0.2 0.2 0.2 0.2 0.2 0.2 0.2 0.2 0.2 0.2 0.2 0.2 0.2 0.2 0.2 0.2 0.2 0.2 0.2 0.2 0.2 0.2 0.2 0.2 0.2 0.2 0.2 0.2 0.2 0.2 0.2 0.2 0.2 0.2 0.2 0.2 0.2 0.2 0.2 0.2 0.2 0.2 0.2 0.2 0.2 0.2 0.2 0.2 0.2 0.2 0.2 0.2 0.2 0.2 0.2 0.2 0.2 0.2 0.2 0.2 0.2 0.2 0.2 0.2 0.2 0.9999998771334622 3.07166344397977e-08 3.07166344397977e-08 3.07166344397977e-08 3.07166344397977e-08 0.9999840370340811 3.990741479766942e-06 3.990741479766942e-06 3.990741479766942e-06 3.990741479766942e-06 0.9999787386716988 5.315332075371411e-06 5.315332075371411e-06 5.315332075371411e-06 5.315332075371411e-06 0.9999569938716265 1.07515320933233e-05 1.07515320933233e-05 1.07515320933233e-05 1.07515320933233e-05 0.2 0.2 0.2 0.2 0.2 0.9999802092867924 4.947678301956808e-06 4.947678301956808e-06 4.947678301956808e-06 4.947678301956808e-06 0.9990220048899753 0.0002444987775061124 0.0002444987775061124 0.0002444987775061124 0.0002444987775061124 0.2 0.2 0.2 0.2 0.2 0.2 0.2 0.2 0.2 0.2 0.2 0.2 0.2 0.2 0.2 0.2 0.2 0.2 0.2 0.2 0.2 0.2 0.2 0.2 0.2 0.2 0.2 0.2 0.2 0.2 0.2 0.2 0.2 0.2 0.2 0.2 0.2 0.2 0.2 0.2 0.2 0.2 0.2 0.2 0.2 0.2 0.2 0.2 0.2 0.2 0.2 0.2 0.2 0.2 0.2 0.2 0.2 0.2 0.2 0.2 0.2 0.2 0.2 0.2 0.2 0.2 0.2 0.2 0.2 0.2 1.696643530104395e-07 0.9999993213425881 1.696643530104395e-07 1.696643530104395e-07 1.696643530104395e-07 1.064849323820679e-05 0.999957406027047 1.064849323820679e-05 1.064849323820679e-05 1.064849323820679e-05 0.2 0.2 0.2 0.2 0.2 0.2 0.2 0.2 0.2 0.2 0.9999995718417443 1.070395639636323e-07 1.070395639636323e-07 1.070395639636323e-07 1.070395639636323e-07 0.005263600406327199 0.9947362617621937 4.594382632130998e-08 4.594382632130998e-08 4.594382632130998e-08 0.2756023391812865 0.7243742690058479 7.797270955165692e-06 7.797270955165692e-06 7.797270955165692e-06 3.359086328518643e-05 0.9998656365468593 3.359086328518643e-05 3.359086328518643e-05 3.359086328518643e-05 0.2 0.2 0.2 0.2 0.2 0.9999956191748713 1.095206282103234e-06 1.095206282103234e-06 1.095206282103234e-06 1.095206282103234e-06 0.008738069989395549 0.9911346765641571 4.241781548250266e-05 4.241781548250266e-05 4.241781548250266e-05 0.9999269539810077 1.826150474799123e-05 1.826150474799123e-05 1.826150474799123e-05 1.826150474799123e-05 0.000432900432900433 0.9982683982683984 0.000432900432900433 0.000432900432900433 0.000432900432900433 0.2 0.2 0.2 0.2 0.2 0.2 0.2 0.2 0.2 0.2 0.2 0.2 0.2 0.2 0.2 0.2 0.2 0.2 0.2 0.2 0.2 0.2 0.2 0.2 0.2 0.2 0.2 0.2 0.2 0.2 0.2 0.2 0.2 0.2 0.2 1.702039298385361e-07 0.9999993191842808 1.702039298385361e-07 1.702039298385361e-07 1.702039298385361e-07 0.2 0.2 0.2 0.2 0.2 0.2 0.2 0.2 0.2 0.2 0.2 0.2 0.2 0.2 0.2 0.2 0.2 0.2 0.2 0.2 8.584770531229889e-08 0.9999996566091784 8.584770531229889e-08 8.584770531229889e-08 8.584770531229889e-08 2.516039753428105e-05 0.999899358409863 2.516039753428105e-05 2.516039753428105e-05 2.516039753428105e-05 0.0003169572107765451 0.9987321711568935 0.0003169572107765451 0.0003169572107765451 0.0003169572107765451 0.2 0.2 0.2 0.2 0.2 0.9999947958340649 1.301041483707708e-06 1.301041483707708e-06 1.301041483707708e-06 1.301041483707708e-06 2.781689915567366e-08 0.9999998887324033 2.781689915567366e-08 2.781689915567366e-08 2.781689915567366e-08 0.03856565090297522 0.9614223361230131 4.004324670644297e-06 4.004324670644297e-06 4.004324670644297e-06 9.231053263177328e-06 0.9999630757869472 9.231053263177328e-06 9.231053263177328e-06 9.231053263177328e-06 0.01 0.9600000000000002 0.01 0.01 0.01 0.9999801675839162 4.958104021022363e-06 4.958104021022363e-06 4.958104021022363e-06 4.958104021022363e-06 5.954436650748472e-07 0.9999976182253396 5.954436650748472e-07 5.954436650748472e-07 5.954436650748472e-07 0.2430958160788233 0.7568756247322576 9.519729639678232e-06 9.519729639678232e-06 9.519729639678232e-06 6.922571042885328e-06 0.9999723097158284 6.922571042885328e-06 6.922571042885328e-06 6.922571042885328e-06 0.2 0.2 0.2 0.2 0.2 0.2 0.2 0.2 0.2 0.2 3.081950924246262e-08 0.9999998767219629 3.081950924246262e-08 3.081950924246262e-08 3.081950924246262e-08 1.518141794443601e-05 0.6734628814331257 0.3264915743130407 1.518141794443601e-05 1.518141794443601e-05 1.022390348635109e-05 0.1879255699826194 0.004150904815458542 0.8079030773949494 1.022390348635109e-05 0.2 0.2 0.2 0.2 0.2 0.9999989073919038 2.731520241247869e-07 2.731520241247869e-07 2.731520241247869e-07 2.731520241247869e-07 4.727973670860221e-08 0.9999998108810529 4.727973670860221e-08 4.727973670860221e-08 4.727973670860221e-08 0.005188272251642598 0.01213071941248127 0.982680689655722 1.593400771365314e-07 1.593400771365314e-07 0.0002237136465324385 0.0002237136465324385 0.9991051454138702 0.0002237136465324385 0.0002237136465324385 0.00198019801980198 0.00198019801980198 0.992079207920792 0.00198019801980198 0.00198019801980198 0.2 0.2 0.2 0.2 0.2 3.806805387923937e-08 0.9999998477277844 3.806805387923937e-08 3.806805387923937e-08 3.806805387923937e-08 1.558297466519979e-07 0.07900895397724264 0.9209905785335175 1.558297466519979e-07 1.558297466519979e-07 2.11969493350517e-07 0.02543125193422163 0.04332783625780578 0.9312404878689859 2.11969493350517e-07 1.047010784211077e-05 1.047010784211077e-05 0.9999581195686315 1.047010784211077e-05 1.047010784211077e-05 0.9996996996997 7.50750750750751e-05 7.50750750750751e-05 7.50750750750751e-05 7.50750750750751e-05 9.152036373853361e-08 0.994965098709288 0.005034626729620472 9.152036373853361e-08 9.152036373853361e-08 0.0002915833553153643 0.009340458206786402 0.9903678710197132 4.370909238725294e-08 4.370909238725294e-08 1.292079809185654e-07 0.00177157062637445 0.04595746990100084 0.9522707010566628 1.292079809185654e-07 3.429708131837981e-06 3.429708131837981e-06 0.9995404191103338 0.0004492917652707755 3.429708131837981e-06 0.2 0.2 0.2 0.2 0.2 2.345276261817261e-07 0.9999990618894955 2.345276261817261e-07 2.345276261817261e-07 2.345276261817261e-07 1.945370116391494e-07 0.009112308162189399 0.9908871082267757 1.945370116391494e-07 1.945370116391494e-07 2.953088709308284e-07 0.01136673375099852 0.001510800183682118 0.9871218754475776 2.953088709308284e-07 3.447800303406427e-06 3.447800303406427e-06 0.8074265618535373 0.1925630947455524 3.447800303406427e-06 0.2 0.2 0.2 0.2 0.2 0.2 0.2 0.2 0.2 0.2 7.214486689272058e-06 7.214486689272058e-06 0.9999711420532428 7.214486689272058e-06 7.214486689272058e-06 0.00018001800180018 0.00018001800180018 0.00018001800180018 0.9992799279927993 0.00018001800180018 0.2 0.2 0.2 0.2 0.2 0.2 0.2 0.2 0.2 0.2 0.2 0.2 0.2 0.2 0.2 1.596933886937081e-06 1.596933886937081e-06 0.9999936122644524 1.596933886937081e-06 1.596933886937081e-06 0.0001097694840834248 0.0001097694840834248 0.0001097694840834248 0.9995609220636663 0.0001097694840834248 3.213057867172188e-06 3.213057867172188e-06 0.1470970022170099 3.213057867172188e-06 0.8528933586093885 0.2 0.2 0.2 0.2 0.2 0.2 0.2 0.2 0.2 0.2 0.2 0.2 0.2 0.2 0.2 1.007556675062972e-06 1.007556675062972e-06 1.007556675062972e-06 0.9999959697732996 1.007556675062972e-06 2.011040612965179e-06 2.011040612965179e-06 2.011040612965179e-06 2.011040612965179e-06 0.9999919558375481 0.2 0.2 0.2 0.2 0.2 0.2 0.2 0.2 0.2 0.2 3.719546215361727e-05 3.719546215361727e-05 0.9998512181513857 3.719546215361727e-05 3.719546215361727e-05 3.349965914096825e-07 3.349965914096825e-07 3.349965914096825e-07 0.9999986600136345 3.349965914096825e-07 1.039164553265757e-07 1.039164553265757e-07 0.00108031546957508 1.039164553265757e-07 0.9989193727810589 0.2 0.2 0.2 0.2 0.2 0.2 0.2 0.2 0.2 0.2 0.2 0.2 0.2 0.2 0.2 8.367535635242386e-07 8.367535635242386e-07 8.367535635242386e-07 0.9810274497006514 0.01897004003865801 4.215555695605684e-08 4.215555695605684e-08 4.215555695605684e-08 4.215555695605684e-08 0.9999998313777723</probabilities>
		</cpt>
		<cpt id="p2_wti" order="1">
			<parents>p1_imas p2_wti</parents>
			<probabilities>0.2 0.2 0.2 0.2 0.2 0.2 0.2 0.2 0.2 0.2 0.2 0.2 0.2 0.2 0.2 0.2 0.2 0.2 0.2 0.2 0.2 0.2 0.2 0.2 0.2 0.2 0.2 0.2 0.2 0.2 0.2 0.2 0.2 0.2 0.2 0.2 0.2 0.2 0.2 0.2 0.2 0.2 0.2 0.2 0.2 0.2 0.2 0.2 0.2 0.2 0.2 0.2 0.2 0.2 0.2 0.2 0.2 0.2 0.2 0.2 0.2 0.2 0.2 0.2 0.2 0.2 0.2 0.2 0.2 0.2 0.2 0.2 0.2 0.2 0.2 0.9999998774773504 3.063066236510064e-08 3.063066236510064e-08 3.063066236510064e-08 3.063066236510064e-08 0.9999841376848954 3.965578776222391e-06 3.965578776222391e-06 3.965578776222391e-06 3.965578776222391e-06 0.9999787143465307 5.321413367390381e-06 5.321413367390381e-06 5.321413367390381e-06 5.321413367390381e-06 0.2 0.2 0.2 0.2 0.2 0.9999571206517659 1.071983705847671e-05 1.071983705847671e-05 1.071983705847671e-05 1.071983705847671e-05 0.9999817117776155 4.572055596196052e-06 4.572055596196052e-06 4.572055596196052e-06 4.572055596196052e-06 0.9989290495314589 0.0002677376171352075 0.0002677376171352075 0.0002677376171352075 0.0002677376171352075 0.2 0.2 0.2 0.2 0.2 0.2 0.2 0.2 0.2 0.2 0.2 0.2 0.2 0.2 0.2 0.2 0.2 0.2 0.2 0.2 0.2 0.2 0.2 0.2 0.2 0.2 0.2 0.2 0.2 0.2 0.2 0.2 0.2 0.2 0.2 0.2 0.2 0.2 0.2 0.2 0.2 0.2 0.2 0.2 0.2 0.2 0.2 0.2 0.2 0.2 0.2 0.2 0.2 0.2 0.2 0.2 0.2 0.2 0.2 0.2 0.2 0.2 0.2 0.2 0.2 0.2 0.2 0.2 0.2 0.2 1.702039298385361e-07 0.9999993191842808 1.702039298385361e-07 1.702039298385361e-07 1.702039298385361e-07 1.063377286261165e-05 0.9999574649085494 1.063377286261165e-05 1.063377286261165e-05 1.063377286261165e-05 0.2 0.2 0.2 0.2 0.2 0.2 0.2 0.2 0.2 0.2 0.9999995882861227 1.02928469345586e-07 1.02928469345586e-07 1.02928469345586e-07 1.02928469345586e-07 0.00533728835123921 0.9946625731030609 4.618189988179742e-08 4.618189988179742e-08 4.618189988179742e-08 0.2971698827090427 0.7028074158153612 7.567158531971244e-06 7.567158531971244e-06 7.567158531971244e-06 0.2 0.2 0.2 0.2 0.2 3.359650596337982e-05 0.9998656139761466 3.359650596337982e-05 3.359650596337982e-05 3.359650596337982e-05 0.9999956639096357 1.084022591030797e-06 1.084022591030797e-06 1.084022591030797e-06 1.084022591030797e-06 0.01587115666178624 0.9839531478770134 5.856515373352857e-05 5.856515373352857e-05 5.856515373352857e-05 0.9999277978339347 1.805054151624548e-05 1.805054151624548e-05 1.805054151624548e-05 1.805054151624548e-05 0.2 0.2 0.2 0.2 0.2 0.0005390835579514826 0.9978436657681942 0.0005390835579514826 0.0005390835579514826 0.0005390835579514826 0.2 0.2 0.2 0.2 0.2 0.2 0.2 0.2 0.2 0.2 0.2 0.2 0.2 0.2 0.2 0.2 0.2 0.2 0.2 0.2 0.2 0.2 0.2 0.2 0.2 0.2 0.2 0.2 0.2 0.2 1.696643530104395e-07 0.9999993213425881 1.696643530104395e-07 1.696643530104395e-07 1.696643530104395e-07 0.2 0.2 0.2 0.2 0.2 0.2 0.2 0.2 0.2 0.2 0.2 0.2 0.2 0.2 0.2 0.2 0.2 0.2 0.2 0.2 8.584770531229889e-08 0.9999996566091784 8.584770531229889e-08 8.584770531229889e-08 8.584770531229889e-08 2.336994624912362e-05 0.9999065202150031 2.336994624912362e-05 2.336994624912362e-05 2.336994624912362e-05 0.2 0.2 0.2 0.2 0.2 0.0002436053593179049 0.9990255785627281 0.0002436053593179049 0.0002436053593179049 0.0002436053593179049 0.9999948408731819 1.289781704446522e-06 1.289781704446522e-06 1.289781704446522e-06 1.289781704446522e-06 2.778082595173637e-08 0.9999998888766961 2.778082595173637e-08 2.778082595173637e-08 2.778082595173637e-08 0.03597655541904168 0.9640113597454131 4.02827851517654e-06 4.02827851517654e-06 4.02827851517654e-06 0.2 0.2 0.2 0.2 0.2 8.278831029058696e-06 0.9999668846758837 8.278831029058696e-06 8.278831029058696e-06 8.278831029058696e-06 0.9999774939514998 5.626512125133632e-06 5.626512125133632e-06 5.626512125133632e-06 5.626512125133632e-06 6.315722992389553e-07 0.9999974737108029 6.315722992389553e-07 6.315722992389553e-07 6.315722992389553e-07 0.2433778519755147 0.7565943238731218 9.274717121127805e-06 9.274717121127805e-06 9.274717121127805e-06 0.2 0.2 0.2 0.2 0.2 7.239819004524886e-06 0.9999710407239818 7.239819004524886e-06 7.239819004524886e-06 7.239819004524886e-06 0.2 0.2 0.2 0.2 0.2 3.095410774939182e-08 0.9999998761835689 3.095410774939182e-08 3.095410774939182e-08 3.095410774939182e-08 1.27967240386461e-05 0.5394586985731652 0.4605029112547186 1.27967240386461e-05 1.27967240386461e-05 0.004761904761904761 0.004761904761904761 0.9809523809523809 0.004761904761904761 0.004761904761904761 8.008008008008009e-06 0.1822302302302302 0.006254254254254254 8.008008008008009e-06 0.8114994994994995 0.9999989141101882 2.714724530115119e-07 2.714724530115119e-07 2.714724530115119e-07 2.714724530115119e-07 4.785464057216922e-08 0.9999998085814376 4.785464057216922e-08 4.785464057216922e-08 4.785464057216922e-08 0.005335110318499024 0.01215221348111714 0.9825123565987355 1.598008242526515e-07 1.598008242526515e-07 0.009090909090909092 0.009090909090909092 0.9636363636363637 0.009090909090909092 0.009090909090909092 0.0001982160555004955 0.0001982160555004955 0.9992071357779979 0.0001982160555004955 0.0001982160555004955 0.2 0.2 0.2 0.2 0.2 3.815652838168433e-08 0.9999998473738864 3.815652838168433e-08 3.815652838168433e-08 3.815652838168433e-08 1.550909375712449e-07 0.078894139578742 0.9211053951484455 1.550909375712449e-07 1.550909375712449e-07 1.085953195417277e-05 1.085953195417277e-05 0.9999565618721832 1.085953195417277e-05 1.085953195417277e-05 2.128567612353781e-07 0.02480760409493837 0.04440106896665492 2.128567612353781e-07 0.9307909012248842 0.9996974281391834 7.564296520423604e-05 7.564296520423604e-05 7.564296520423604e-05 7.564296520423604e-05 9.213329107486379e-08 0.9947765951958013 0.005223128404325103 9.213329107486379e-08 9.213329107486379e-08 0.0003109066638057332 0.009211824566155272 0.9904771808315114 4.396926372588505e-08 4.396926372588505e-08 3.383922981912932e-06 3.383922981912932e-06 0.9999864643080725 3.383922981912932e-06 3.383922981912932e-06 1.261713432075027e-07 0.001708486158372793 0.04452725490270297 1.261713432075027e-07 0.9537640065962378 0.2 0.2 0.2 0.2 0.2 2.370482748811796e-07 0.9999990518069007 2.370482748811796e-07 2.370482748811796e-07 2.370482748811796e-07 1.944035117050355e-07 0.008942755941943338 0.9910566608475216 1.944035117050355e-07 1.944035117050355e-07 3.380548324938305e-06 3.380548324938305e-06 0.8028498022379229 3.380548324938305e-06 0.1971400561171022 2.918123296545526e-07 0.01128905178501602 0.001358678206871597 2.918123296545526e-07 0.9873516863834531 0.2 0.2 0.2 0.2 0.2 0.2 0.2 0.2 0.2 0.2 7.894529091339701e-06 7.894529091339701e-06 0.9999684218836346 7.894529091339701e-06 7.894529091339701e-06 0.0004524886877828055 0.0004524886877828055 0.5547511312217195 0.4438914027149322 0.0004524886877828055 0.0001154068090017311 0.0001154068090017311 0.0001154068090017311 0.0001154068090017311 0.9995383727639932 0.2 0.2 0.2 0.2 0.2 0.2 0.2 0.2 0.2 0.2 1.666041900953809e-06 1.666041900953809e-06 0.9999933358323962 1.666041900953809e-06 1.666041900953809e-06 3.143319659892813e-06 3.143319659892813e-06 0.1321483018215538 0.8678422682194666 3.143319659892813e-06 6.620324395895399e-05 6.620324395895399e-05 6.620324395895399e-05 6.620324395895399e-05 0.9997351870241641 0.2 0.2 0.2 0.2 0.2 0.2 0.2 0.2 0.2 0.2 0.2 0.2 0.2 0.2 0.2 1.981865926770054e-06 1.981865926770054e-06 1.981865926770054e-06 0.9999920725362929 1.981865926770054e-06 9.100174723354689e-07 9.100174723354689e-07 9.100174723354689e-07 9.100174723354689e-07 0.9999963599301107 0.2 0.2 0.2 0.2 0.2 0.2 0.2 0.2 0.2 0.2 2.661343978709249e-05 2.661343978709249e-05 0.9998935462408517 2.661343978709249e-05 2.661343978709249e-05 1.041137963794427e-07 1.041137963794427e-07 0.001306732258358386 0.9986929554002525 1.041137963794427e-07 3.333588908482984e-07 3.333588908482984e-07 3.333588908482984e-07 3.333588908482984e-07 0.9999986665644365 0.2 0.2 0.2 0.2 0.2 0.2 0.2 0.2 0.2 0.2 0.2 0.2 0.2 0.2 0.2 4.21021431674958e-08 4.21021431674958e-08 4.21021431674958e-08 0.9999998315914274 4.21021431674958e-08 8.623588965255561e-07 8.623588965255561e-07 8.623588965255561e-07 0.01972301032243599 0.9802744026008745</probabilities>
		</cpt>
	</dynamic>
	<extensions>
		<genie version="1.0" app="SMILE_ACADEMIC 1.5.0@a121f1f76773" name="emidas dbn v9" faultnameformat="user">
			<plate leftwidth="120" rightwidth="120">120 50 1164 561</plate>
			<node id="p1_imas">
				<name>p1_imas</name>
				<interior color="e5f6f7" />
				<outline color="000080" />
				<font color="000000" name="MS Sans Serif" size="8" />
				<position>491 462 547 497</position>
			</node>
			<node id="p2_imas">
				<name>p2_imas</name>
				<interior color="e5f6f7" />
				<outline color="000080" />
				<font color="000000" name="MS Sans Serif" size="8" />
				<position>651 472 707 507</position>
			</node>
			<node id="p1_wti">
				<name>p1_wti</name>
				<interior color="e5f6f7" />
				<outline color="000080" />
				<font color="000000" name="MS Sans Serif" size="8" />
				<position>487 311 571 363</position>
			</node>
			<node id="p2_wti">
				<name>p2_wti</name>
				<interior color="e5f6f7" />
				<outline color="000080" />
				<font color="000000" name="MS Sans Serif" size="8" />
				<position>650 301 734 353</position>
			</node>
			<node id="p1_approach">
				<name>p1_approach</name>
				<interior color="e5f6f7" />
				<outline color="000080" />
				<font color="000000" name="MS Sans Serif" size="8" />
				<position>268 135 344 182</position>
			</node>
			<node id="p2_head">
				<name>p2_head</name>
				<interior color="e5f6f7" />
				<outline color="000080" />
				<font color="000000" name="MS Sans Serif" size="8" />
				<position>676 84 733 119</position>
			</node>
			<node id="p1_body">
				<name>p1_body</name>
				<interior color="e5f6f7" />
				<outline color="000080" />
				<font color="000000" name="MS Sans Serif" size="8" />
				<position>404 76 461 111</position>
			</node>
			<node id="p2_approach">
				<name>p2_approach</name>
				<interior color="e5f6f7" />
				<outline color="000080" />
				<font color="000000" name="MS Sans Serif" size="8" />
				<position>924 160 1000 207</position>
			</node>
			<node id="p2_body">
				<name>p2_body</name>
				<interior color="e5f6f7" />
				<outline color="000080" />
				<font color="000000" name="MS Sans Serif" size="8" />
				<position>827 91 884 126</position>
			</node>
			<node id="dist">
				<name>dist</name>
				<interior color="e5f6f7" />
				<outline color="000080" />
				<font color="000000" name="MS Sans Serif" size="8" />
				<position>599 137 637 160</position>
			</node>
			<node id="p1_gesture">
				<name>p1_gesture</name>
				<interior color="e5f6f7" />
				<outline color="000080" />
				<font color="000000" name="MS Sans Serif" size="8" />
				<position>248 271 316 313</position>
			</node>
			<node id="p2_gesture">
				<name>p2_gesture</name>
				<interior color="e5f6f7" />
				<outline color="000080" />
				<font color="000000" name="MS Sans Serif" size="8" />
				<position>964 312 1032 354</position>
			</node>
			<node id="p1_head">
				<name>p1_head</name>
				<interior color="e5f6f7" />
				<outline color="000080" />
				<font color="000000" name="MS Sans Serif" size="8" />
				<position>528 80 585 115</position>
			</node>
		</genie>
	</extensions>
</smile>
