<?xml version="1.0" encoding="ISO-8859-1"?>
<!-- This file was created by ACADEMIC version of SMILE -->
<smile version="1.0" id="Network2" numsamples="10000" discsamples="10000">
	<nodes>
		<cpt id="p1_imas" target="true" dynamic="plate">
			<state id="very_high" />
			<state id="high" />
			<state id="medium" />
			<state id="low" />
			<state id="very_low" />
			<probabilities>0.02904504546030725 0.04362806669816433 0.07852130123647429 0.5120651309648647 0.3367404556401894</probabilities>
		</cpt>
		<cpt id="p2_imas" target="true" dynamic="plate">
			<state id="very_high" />
			<state id="high" />
			<state id="medium" />
			<state id="low" />
			<state id="very_low" />
			<probabilities>0.0300187833462013 0.04536235725233066 0.082220352850344 0.5074672443794005 0.3349312621717235</probabilities>
		</cpt>
		<cpt id="p1_wti" target="true" dynamic="plate">
			<state id="very_high" />
			<state id="high" />
			<state id="medium" />
			<state id="low" />
			<state id="very_low" />
			<parents>p1_imas</parents>
			<probabilities>0.9999999999937588 1.560348010835504e-12 1.560348010835504e-12 1.560348010835504e-12 1.560348010835504e-12 0.2435287902798787 0.75647120971874 4.604962789170417e-13 4.604962789170417e-13 4.604962789170417e-13 0.1226885823305266 0.837540358086041 0.03977105958327432 7.9001988196453e-14 7.9001988196453e-14 0.04057475273705197 0.250199723200522 0.5410304591945805 0.1681950648678452 2.849087676766815e-16 1.001815869048017e-15 1.001815869048017e-15 0.004500034220793533 0.1011566627883107 0.8943433029908938</probabilities>
		</cpt>
		<cpt id="p2_wti" target="true" dynamic="plate">
			<state id="very_high" />
			<state id="high" />
			<state id="medium" />
			<state id="very_low" />
			<state id="low" />
			<parents>p2_imas</parents>
			<probabilities>0.9999999999943465 1.413405497418949e-12 1.413405497418949e-12 1.413405497418949e-12 1.413405497418949e-12 0.2484440492822582 0.7515559507165127 4.096790580694323e-13 4.096790580694323e-13 4.096790580694323e-13 0.132025227750549 0.8239663629990845 0.04400840925022886 6.881241141721051e-14 6.881241141721051e-14 0.03796764121487393 0.2445529378370707 0.5475787680953728 2.927232695349045e-16 0.1699006528526824 1.018137922120773e-15 1.018137922120773e-15 0.004128677103045896 0.8930156545673454 0.1028556683296065</probabilities>
		</cpt>
		<cpt id="p1_approach" dynamic="plate">
			<state id="y" />
			<state id="m" />
			<state id="n" />
			<parents>p1_wti</parents>
			<probabilities>0.5789404483658452 0.2100154528903402 0.2110440987438146 0.407598144480958 0.2135736814795957 0.3788281740394463 0.07284691339413582 0.1256888017888998 0.8014642848169644 0.1578338736987165 0.1243730604265593 0.7177930658747242 0.0001921989643679137 0.00525183670135324 0.9945559643342788</probabilities>
		</cpt>
		<cpt id="p2_head" dynamic="plate">
			<state id="central" />
			<state id="mid_peripheral" />
			<state id="outside" />
			<parents>p2_wti</parents>
			<probabilities>1 1.179517930880578e-18 1.179517930880578e-18 0.9994536118401973 0.0005288413500320473 1.754680977064861e-05 0.9987586418681791 0.001139328696328891 0.0001020294354921395 0.01410926772254787 0.2230604196296398 0.7628303126478123 0.3135372500710195 0.4235710473985616 0.2628917025304189</probabilities>
		</cpt>
		<cpt id="p1_body" dynamic="plate">
			<state id="strongly_facing" />
			<state id="slightly_facing" />
			<state id="turned_away" />
			<parents>p1_wti</parents>
			<probabilities>0.4587543949474154 0.4860374860204709 0.05520811903211387 0.2775461401977951 0.4995671168133579 0.2228867429888471 0.01122182859727142 0.2072978065877742 0.7814803648149543 0.02857883014010331 0.8128768981780696 0.1585442716818272 0.001970039384771115 0.3785710967994068 0.619458863815822</probabilities>
		</cpt>
		<cpt id="p2_approach" dynamic="plate">
			<state id="y" />
			<state id="m" />
			<state id="n" />
			<parents>p2_wti</parents>
			<probabilities>0.5929061673310658 0.2157986809542967 0.1912951517146375 0.4088962325537189 0.2235200362634069 0.3675837311828743 0.07455650955300605 0.1262279167539835 0.7992155736930103 5.193897861004793e-20 0.004023455177783769 0.9959765448222163 0.1563199409542369 0.1312493860461906 0.7124306729995726</probabilities>
		</cpt>
		<cpt id="p2_body" dynamic="plate">
			<state id="strongly_facing" />
			<state id="slightly_facing" />
			<state id="turned_away" />
			<parents>p2_wti</parents>
			<probabilities>0.4425050896634117 0.4991542625169147 0.05834064781967352 0.276063958121614 0.5096290555673347 0.2143069863110513 0.01315629559127808 0.2084386345460665 0.7784050698626553 0.002070650732126781 0.4038452328486568 0.5940841164192163 0.03830806277329242 0.8008718807827812 0.1608200564439264</probabilities>
		</cpt>
		<cpt id="dist" dynamic="plate">
			<state id="range_0_3" />
			<state id="range_3_6" />
			<state id="range_6_9" />
			<state id="range_9_12" />
			<state id="range_12_15" />
			<state id="range_15_18" />
			<state id="range_18_21" />
			<state id="range_21_24" />
			<state id="range_24_27" />
			<state id="range_27_30" />
			<state id="range_30_inf" />
			<parents>p1_wti p2_wti</parents>
			<probabilities>0.1111111111111111 0.1111111111111111 0.1111111111111111 0.1111111111111111 0.1111111111111111 0.1111111111111111 0.1111111111111111 0.1111111111111111 0.1111111111111111 0 0 0.03665957497581544 0.1665715193045126 0.2526153286989531 0.2823582105442857 0.1957508595386301 0.05304817271173654 0.01211522682090941 0.0008811074051570489 6.872550511875312e-19 0 0 1.250745049827365e-15 1.250745049827365e-15 1.250745049827365e-15 0.006051233779332858 0.8186198704587652 0.1753288957618944 1.250745049827365e-15 1.250745049827365e-15 1.250745049827365e-15 0 0 2.277729959938626e-13 2.277729959938626e-13 2.277729959938626e-13 2.277729959938626e-13 0.7704230720352385 0.2295769279631672 2.277729959938626e-13 2.277729959938626e-13 2.277729959938626e-13 0 0 9.316509969790762e-16 9.316509969790762e-16 9.316509969790762e-16 0.02098655072934942 0.408028930153181 0.5641989354353706 0.006785583682094248 9.316509969790762e-16 9.316509969790762e-16 0 0 0.03754760519365637 0.168995038727652 0.2535433127958047 0.2748929166372108 0.197977787566185 0.05355708907269341 0.01254366264073101 0.0009425873660664928 6.617743668558239e-19 0 0 0.01664116217452712 0.08694139557591855 0.1743859617075583 0.2786078615832602 0.20695504594545 0.196371857986338 0.03943246346824006 0.0006642515587077983 6.360396564527563e-20 0 0 0.005384086380495051 0.0259682244858374 0.04006912320505963 0.3969588140903185 0.1611522885306028 0.2001340143771564 0.1101445356813279 0.0590133485373036 0.0011755647118985 0 0 8.062988929234459e-16 8.062988929234459e-16 8.062988929234459e-16 0.8993436719521346 0.01510135331358611 0.008596154963118594 0.07695881977115666 8.062988929234459e-16 8.062988929234459e-16 0 0 2.131937822755287e-16 2.131937822755287e-16 0.002348584636031722 0.246750503268136 0.0245420881278427 0.2051221512538209 0.05457663344682765 0.1410766210204538 0.2152993513432908 0.09424161841091515 0.01604244849268083 1.330683241183233e-15 1.330683241183233e-15 1.330683241183233e-15 0.003660740842429273 0.7593978081314129 0.2369414510261499 1.330683241183233e-15 1.330683241183233e-15 1.330683241183233e-15 0 0 0.005022417130117377 0.02378298258078744 0.03732513413528678 0.3950621064752431 0.1650476517137467 0.2121236249601881 0.1151052257637749 0.04628586128328884 0.0002449959575667256 0 0 2.404557601416468e-20 2.404557601416468e-20 0.004891895591530321 0.1929080722281059 0.07763212560908543 0.08729944308758582 0.07128971212983576 0.07863836235569868 0.09606078726618204 0.391279601731976 0 4.223883972392922e-16 4.223883972392922e-16 4.223883972392922e-16 0.003168261202066803 0.2842851122937892 0.5001326611833362 0.1861002294258109 0.02631373589499509 4.223883972392922e-16 0 0 7.300512099528333e-16 7.300512099528333e-16 7.300512099528333e-16 0.2340513204719977 0.3702753324592603 0.2117437722419922 0.08859336954485873 0.0503277767372171 0.006012361865518578 0.01086345757632508 0.02813260910282806 6.765806731802558e-16 6.765806731802558e-16 6.765806731802558e-16 0.0314092145870241 0.3544128120377627 0.6073665564909303 0.006811416884279594 6.765806731802558e-16 6.765806731802558e-16 0 0 2.028593310163979e-16 2.028593310163979e-16 2.028593310163979e-16 0.2616294702877114 0.03082451294336224 0.202681561514581 0.04822899606443581 0.1508347796328436 0.2042704539343419 0.08878241951648766 0.01274780610623577 8.089271061088142e-16 8.089271061088142e-16 8.089271061088142e-16 0.2268243046806853 0.3810059114255238 0.2035468553154369 0.07403818199437957 0.06543269696676068 0.01062118422327818 0.01093129179184022 0.02759957360209303 1.513135794383843e-16 1.513135794383843e-16 1.513135794383843e-16 0.2315306427835107 0.05017901282463402 0.2494762627886095 0.2601505259540883 0.1390868683285855 0.06954343416429282 3.325315627875008e-05 0 1.253985493665074e-16 1.253985493665074e-16 1.253985493665074e-16 0.253979822378627 0.08343831665746981 0.5202348850042162 0.09062229949920354 0.05172467646048295 1.253985493665074e-16 0 0 4.914482654384786e-13 4.914482654384786e-13 4.914482654384786e-13 4.914482654384786e-13 0.7097356755842837 0.2902643244122761 4.914482654384786e-13 4.914482654384786e-13 4.914482654384786e-13 0 0 5.863535551248863e-16 5.863535551248863e-16 0.0006964152027444585 0.8949979978062879 0.008304751292721261 0.00477044413879611 0.09123039155944784 5.863535551248863e-16 5.863535551248863e-16 0 0 3.618122718547115e-16 3.618122718547115e-16 3.618122718547115e-16 0.004061304953606609 0.2593306257966971 0.5083745886817049 0.2199774701331037 0.008256010434886054 3.618122718547115e-16 0 0 2.498173414563197e-20 2.498173414563197e-20 2.498173414563197e-20 0.2778866565199651 0.3291398633418078 0.1365250243076943 0.06358369903821186 0.05066459273438605 0.09763818597408028 0.04456197808385438 0 1.19786979376165e-16 1.19786979376165e-16 1.19786979376165e-16 0.2203457610434353 0.05834461260817856 0.2535580985193387 0.252686518190394 0.1417189614864033 0.07251548336819659 0.0008305647840531553 0</probabilities>
		</cpt>
		<cpt id="p1_gesture" dynamic="plate">
			<state id="wave_slow_shoulder" />
			<state id="wave_fast_shoulder" />
			<state id="wave_small_head" />
			<state id="wave_wide_head" />
			<state id="arm_raise_high" />
			<state id="arm_raise_low" />
			<state id="come_here" />
			<state id="i_am_coming" />
			<state id="None" />
			<parents>p1_wti</parents>
			<probabilities>0.02116071470004532 4.112332047786156e-19 0.02671540230880722 0.09023621730569034 0.02195578833716691 4.112332047786156e-19 0.01194466658726243 0.009885828044443688 0.8181013827165841 1.274195006948637e-20 0.02335382929147079 0.06431206067943712 0.003364440030860539 0.1439640245407357 0.0760509198889176 0.03281993031115119 1.274194995480882e-20 0.656134795257427 1.409823907095003e-20 1.409823894406588e-20 1.409823894406588e-20 1.409823894406588e-20 0.01669304791336901 0.02081455239818095 1.409823894406588e-20 1.409823894406588e-20 0.96249239968845 2.116480443833429e-18 2.116480424785105e-18 0.01239190466779547 2.116480424785105e-18 2.116480424785105e-18 2.116480424785105e-18 2.116480424785105e-18 2.116480424785105e-18 0.9876080953322045 1.690839643951394e-20 1.690839628733837e-20 1.690839628733837e-20 1.690839628733837e-20 1.690839628733837e-20 1.690839628733837e-20 1.690839628733837e-20 1.690839628733837e-20 1</probabilities>
		</cpt>
		<cpt id="p2_gesture" dynamic="plate">
			<state id="wave_slow_shoulder" />
			<state id="wave_fast_shoulder" />
			<state id="wave_small_head" />
			<state id="wave_wide_head" />
			<state id="arm_raise_high" />
			<state id="arm_raise_low" />
			<state id="come_here" />
			<state id="i_am_coming" />
			<state id="None" />
			<parents>p2_wti</parents>
			<probabilities>0.01859098611466677 3.931726436268593e-19 0.03781741823013812 0.09259073010764486 0.02057961208840776 3.931726436268593e-19 0.01424496214753319 0.01048257323629448 0.8056937180753148 1.286600917176657e-20 0.02383685366204357 0.06765464953903069 0.002943477339026298 0.1374431861107253 0.07769386178475426 0.03312593979007192 1.286600917176657e-20 0.657302031774348 1.390089580420808e-20 1.390089580420808e-20 1.390089580420808e-20 1.390089580420808e-20 0.01836429810000185 0.02188881492310532 1.390089580420808e-20 1.390089580420808e-20 0.9597468869768928 1.731299287001598e-20 1.731299287001598e-20 1.731299287001598e-20 1.731299287001598e-20 1.731299287001598e-20 1.731299287001598e-20 1.731299287001598e-20 1.731299287001598e-20 1 2.079294010019919e-18 2.079294010019919e-18 0.01402602367671383 2.079294010019919e-18 2.079294010019919e-18 2.079294010019919e-18 2.079294010019919e-18 2.079294010019919e-18 0.9859739763232862</probabilities>
		</cpt>
		<cpt id="p1_head" dynamic="plate">
			<state id="central" />
			<state id="mid_peripheral" />
			<state id="outside" />
			<parents>p1_wti</parents>
			<probabilities>1 1.233699626672842e-18 1.233699626672842e-18 0.999460717915631 0.0004785521199130153 6.072996445596644e-05 0.9987924926509384 0.001058264867716892 0.0001492424813446899 0.3043921824173829 0.4249301620027882 0.270677655579829 0.01464182388275009 0.2055962999563815 0.7797618761608685</probabilities>
		</cpt>
	</nodes>
	<dynamic numslices="40">
		<cpt id="p1_imas" order="1">
			<parents>p1_imas</parents>
			<probabilities>1 6.864106204496593e-18 6.864106204496593e-18 6.864106204496593e-18 6.864106204496593e-18 0.001404061427687464 0.9985959385723125 2.278408650105133e-18 2.278408650105133e-18 2.278408650105133e-18 0.005964830075877154 0.008788205779797218 0.9827519277106374 0.002495036433688294 1.000213166696663e-18 0.0004889120112233228 0.000910584375215466 0.003204709966340289 0.9948422062126014 0.000553587434619415 2.816762221455333e-20 2.816762221455333e-20 2.816762221455333e-20 0.008442124672481358 0.9915578753275187</probabilities>
		</cpt>
		<cpt id="p2_imas" order="1">
			<parents>p2_imas</parents>
			<probabilities>1 6.304961846166095e-18 6.304961846166095e-18 6.304961846166095e-18 6.304961846166095e-18 0.001364244549580672 0.9986357554504193 2.090018162735033e-18 2.090018162735033e-18 2.090018162735033e-18 0.005927789049310363 0.008518331114506218 0.9831762141733108 0.002377665662872555 8.781735876882251e-19 0.000493402892790107 0.000907734809171543 0.003325293971513746 0.9947143208751977 0.0005592474513267822 2.88732647736635e-20 2.88732647736635e-20 2.88732647736635e-20 0.008550335450764095 0.9914496645492359</probabilities>
		</cpt>
		<cpt id="p1_wti" order="1">
			<parents>p2_imas p1_wti</parents>
			<probabilities>0.2 0.2 0.2 0.2 0.2 0.2 0.2 0.2 0.2 0.2 0.2 0.2 0.2 0.2 0.2 0.2 0.2 0.2 0.2 0.2 0.2 0.2 0.2 0.2 0.2 0.2 0.2 0.2 0.2 0.2 0.2 0.2 0.2 0.2 0.2 0.2 0.2 0.2 0.2 0.2 0.2 0.2 0.2 0.2 0.2 0.2 0.2 0.2 0.2 0.2 0.2 0.2 0.2 0.2 0.2 0.2 0.2 0.2 0.2 0.2 0.2 0.2 0.2 0.2 0.2 0.2 0.2 0.2 0.2 0.2 0.2 0.2 0.2 0.2 0.2 1 6.845869385573237e-18 6.845869385573237e-18 6.845869385573237e-18 6.845869385573237e-18 0.9999999999250728 1.873173701065923e-11 1.873173701065923e-11 1.873173701065923e-11 1.873173701065923e-11 0.9999999997115562 7.211091776872052e-11 7.211091776872052e-11 7.211091776872052e-11 7.211091776872052e-11 0.9999999739110276 6.52224311550335e-09 6.52224311550335e-09 6.52224311550335e-09 6.52224311550335e-09 0.2 0.2 0.2 0.2 0.2 0.9999999998046877 4.882812500000002e-11 4.882812500000002e-11 4.882812500000002e-11 4.882812500000002e-11 0.9999875000000003 3.125e-06 3.125e-06 3.125e-06 3.125e-06 0.2 0.2 0.2 0.2 0.2 0.2 0.2 0.2 0.2 0.2 0.2 0.2 0.2 0.2 0.2 0.2 0.2 0.2 0.2 0.2 0.2 0.2 0.2 0.2 0.2 0.2 0.2 0.2 0.2 0.2 0.2 0.2 0.2 0.2 0.2 0.2 0.2 0.2 0.2 0.2 0.2 0.2 0.2 0.2 0.2 0.2 0.2 0.2 0.2 0.2 0.2 0.2 0.2 0.2 0.2 0.2 0.2 0.2 0.2 0.2 0.2 0.2 0.2 0.2 0.2 0.2 0.2 0.2 0.2 0.2 1.172610427546164e-14 0.999999999999953 1.172610427546164e-14 1.172610427546164e-14 1.172610427546164e-14 3.345798048198595e-09 0.9999999866168076 3.345798048198595e-09 3.345798048198595e-09 3.345798048198595e-09 0.2 0.2 0.2 0.2 0.2 0.2 0.2 0.2 0.2 0.2 0.9999999999999987 2.739738210078865e-16 2.739738210078865e-16 2.739738210078865e-16 2.739738210078865e-16 0.003029612115949821 0.9969703878840501 6.093570082873606e-18 6.093570082873606e-18 6.093570082873606e-18 0.2273228057276236 0.7726771942426921 9.894837947267776e-12 9.894837947267776e-12 9.894837947267776e-12 1.446759259259259e-08 0.9999999421296295 1.446759259259259e-08 1.446759259259259e-08 1.446759259259259e-08 0.2 0.2 0.2 0.2 0.2 0.9999999999995601 1.099249897590572e-13 1.099249897590572e-13 1.099249897590572e-13 1.099249897590572e-13 0.2 0.2 0.2 0.2 0.2 0.9999999967231997 8.191999999999996e-10 8.191999999999996e-10 8.191999999999996e-10 8.191999999999996e-10 0.2 0.2 0.2 0.2 0.2 0.2 0.2 0.2 0.2 0.2 0.2 0.2 0.2 0.2 0.2 0.2 0.2 0.2 0.2 0.2 0.2 0.2 0.2 0.2 0.2 0.2 0.2 0.2 0.2 0.2 0.2 0.2 0.2 0.2 0.2 0.2 0.2 0.2 0.2 0.2 1.354662558831608e-14 0.999999999999946 1.354662558831608e-14 1.354662558831608e-14 1.354662558831608e-14 0.2 0.2 0.2 0.2 0.2 0.2 0.2 0.2 0.2 0.2 0.2 0.2 0.2 0.2 0.2 0.2 0.2 0.2 0.2 0.2 1.244995219998894e-15 0.9999999999999952 1.244995219998894e-15 1.244995219998894e-15 1.244995219998894e-15 1.016105268505817e-08 0.7100371488086166 0.2899628207082254 1.016105268505817e-08 1.016105268505817e-08 3.371601004737097e-06 3.371601004737097e-06 0.9999865135959809 3.371601004737097e-06 3.371601004737097e-06 0.2 0.2 0.2 0.2 0.2 0.9999999999999865 3.434619968461311e-15 3.434619968461311e-15 3.434619968461311e-15 3.434619968461311e-15 2.741022826195842e-18 1 2.741022826195842e-18 2.741022826195842e-18 2.741022826195842e-18 0.004342867169695406 0.1470872082821592 0.8485699245481115 1.688095056142454e-14 1.688095056142454e-14 0.1331635016219505 0.4784622510386927 0.3883742473343917 2.482449277271763e-12 2.482449277271763e-12 0.2 0.2 0.2 0.2 0.2 0.9999999999753558 6.161095583267684e-12 6.161095583267684e-12 6.161095583267684e-12 6.161095583267684e-12 3.985131107165915e-14 0.9999999999998402 3.985131107165915e-14 3.985131107165915e-14 3.985131107165915e-14 0.3177124701556107 0.6822875295444456 9.99812035337356e-11 9.99812035337356e-11 9.99812035337356e-11 7.014574031756813e-11 0.999999999719417 7.014574031756813e-11 7.014574031756813e-11 7.014574031756813e-11 0.2 0.2 0.2 0.2 0.2 0.2 0.2 0.2 0.2 0.2 6.543857908951728e-18 1 6.543857908951728e-18 6.543857908951728e-18 6.543857908951728e-18 5.756573055875685e-10 0.722222220719117 0.277777777553911 5.756573055875685e-10 5.756573055875685e-10 4.233057094581764e-11 0.1395348837337279 4.233057094581764e-11 0.8604651161392805 4.233057094581764e-11 0.2 0.2 0.2 0.2 0.2 0.9999999999999994 1.342827650077517e-16 1.342827650077517e-16 1.342827650077517e-16 1.342827650077517e-16 9.432888695957393e-18 1 9.432888695957393e-18 9.432888695957393e-18 9.432888695957393e-18 0.009522545539009577 0.03102292710442237 0.9594545273565533 7.304664129172246e-15 7.304664129172246e-15 4.556057734363609e-07 4.556057734363609e-07 0.9999981775769061 4.556057734363609e-07 4.556057734363609e-07 0.2 0.2 0.2 0.2 0.2 0.9999999999999453 1.36448374105228e-14 1.36448374105228e-14 1.36448374105228e-14 1.36448374105228e-14 3.929859584693347e-18 1 3.929859584693347e-18 3.929859584693347e-18 3.929859584693347e-18 5.464687359215994e-16 0.09352849893050399 0.9064715010694944 5.464687359215994e-16 5.464687359215994e-16 2.373659168927799e-15 0.02283355003535875 0.04507402084901756 0.9320924291156191 2.373659168927799e-15 1.211093200980418e-10 1.211093200980418e-10 0.9999999995155627 1.211093200980418e-10 1.211093200980418e-10 0.9999999999999805 4.940613660140372e-15 4.940613660140372e-15 4.940613660140372e-15 4.940613660140372e-15 9.736404139902153e-17 0.97240359351154 0.02759640648845962 9.736404139902153e-17 9.736404139902153e-17 3.877473448312226e-20 0.002082416946405834 0.9979175830535941 3.877473448312226e-20 3.877473448312226e-20 9.134484988295035e-17 0.01770490793293861 0.03537901132836874 0.9469160807386925 9.134484988295035e-17 2.837033151893195e-12 2.837033151893195e-12 0.9999999999886519 2.837033151893195e-12 2.837033151893195e-12 0.2 0.2 0.2 0.2 0.2 1.683735560140858e-15 0.9999999999999934 1.683735560140858e-15 1.683735560140858e-15 1.683735560140858e-15 5.202280991890371e-16 0.01219881175046809 0.9878011882495302 5.202280991890371e-16 5.202280991890371e-16 1.421046807179484e-16 0.004881095792620493 0.005443269531075854 0.9896756346763034 1.421046807179484e-16 2.30672470474479e-12 2.30672470474479e-12 0.839774011292056 0.1602259887010237 2.30672470474479e-12 0.2 0.2 0.2 0.2 0.2 0.2 0.2 0.2 0.2 0.2 5.672650649780236e-11 5.672650649780236e-11 0.9999999997730941 5.672650649780236e-11 5.672650649780236e-11 0.2 0.2 0.2 0.2 0.2 0.2 0.2 0.2 0.2 0.2 0.2 0.2 0.2 0.2 0.2 0.2 0.2 0.2 0.2 0.2 3.74529100654706e-13 3.74529100654706e-13 0.9999999999985019 3.74529100654706e-13 3.74529100654706e-13 1.28e-08 1.28e-08 1.28e-08 0.9999999488 1.28e-08 5.485123748490251e-12 5.485123748490251e-12 0.1764705882359394 5.485123748490251e-12 0.8235294117476052 0.2 0.2 0.2 0.2 0.2 0.2 0.2 0.2 0.2 0.2 0.2 0.2 0.2 0.2 0.2 1.344981748668497e-13 1.344981748668497e-13 1.344981748668497e-13 0.999999999999462 1.344981748668497e-13 6.162835040367512e-13 6.162835040367512e-13 6.162835040367512e-13 6.162835040367512e-13 0.9999999999975349 0.2 0.2 0.2 0.2 0.2 0.2 0.2 0.2 0.2 0.2 0.2 0.2 0.2 0.2 0.2 1.502760029364992e-15 1.502760029364992e-15 1.502760029364992e-15 0.9999999999999939 1.502760029364992e-15 2.706389016049959e-17 2.706389016049959e-17 0.0002002258958825612 2.706389016049959e-17 0.9997997741041174 0.2 0.2 0.2 0.2 0.2 0.2 0.2 0.2 0.2 0.2 0.2 0.2 0.2 0.2 0.2 4.952125845681397e-14 4.952125845681397e-14 4.952125845681397e-14 0.8779829188644389 0.1220170811354124 4.752378316566766e-20 4.752378316566766e-20 4.752378316566766e-20 4.752378316566766e-20 1</probabilities>
		</cpt>
		<cpt id="p2_wti" order="1">
			<parents>p1_imas p2_wti</parents>
			<probabilities>0.2 0.2 0.2 0.2 0.2 0.2 0.2 0.2 0.2 0.2 0.2 0.2 0.2 0.2 0.2 0.2 0.2 0.2 0.2 0.2 0.2 0.2 0.2 0.2 0.2 0.2 0.2 0.2 0.2 0.2 0.2 0.2 0.2 0.2 0.2 0.2 0.2 0.2 0.2 0.2 0.2 0.2 0.2 0.2 0.2 0.2 0.2 0.2 0.2 0.2 0.2 0.2 0.2 0.2 0.2 0.2 0.2 0.2 0.2 0.2 0.2 0.2 0.2 0.2 0.2 0.2 0.2 0.2 0.2 0.2 0.2 0.2 0.2 0.2 0.2 1 6.328322776804516e-18 6.328322776804516e-18 6.328322776804516e-18 6.328322776804516e-18 0.9999999999303253 1.741857848524965e-11 1.741857848524965e-11 1.741857848524965e-11 1.741857848524965e-11 0.9999999997115562 7.211091776872052e-11 7.211091776872052e-11 7.211091776872052e-11 7.211091776872052e-11 0.2 0.2 0.2 0.2 0.2 0.9999999739110276 6.52224311550335e-09 6.52224311550335e-09 6.52224311550335e-09 6.52224311550335e-09 0.9999999999406581 1.483539535438496e-11 1.483539535438496e-11 1.483539535438496e-11 1.483539535438496e-11 0.2 0.2 0.2 0.2 0.2 0.2 0.2 0.2 0.2 0.2 0.2 0.2 0.2 0.2 0.2 0.2 0.2 0.2 0.2 0.2 0.2 0.2 0.2 0.2 0.2 0.2 0.2 0.2 0.2 0.2 0.2 0.2 0.2 0.2 0.2 0.2 0.2 0.2 0.2 0.2 0.2 0.2 0.2 0.2 0.2 0.2 0.2 0.2 0.2 0.2 0.2 0.2 0.2 0.2 0.2 0.2 0.2 0.2 0.2 0.2 0.2 0.2 0.2 0.2 0.2 0.2 0.2 0.2 0.2 0.2 0.2 0.2 0.2 0.2 0.2 1.354662558831608e-14 0.999999999999946 1.354662558831608e-14 1.354662558831608e-14 1.354662558831608e-14 3.345798048198595e-09 0.9999999866168076 3.345798048198595e-09 3.345798048198595e-09 3.345798048198595e-09 0.2 0.2 0.2 0.2 0.2 0.2 0.2 0.2 0.2 0.2 0.9999999999999988 2.318688073068651e-16 2.318688073068651e-16 2.318688073068651e-16 2.318688073068651e-16 0.002855263596601575 0.9971447364033984 5.569445558434244e-18 5.569445558434244e-18 5.569445558434244e-18 0.228288750456653 0.7717112495138581 9.829740538592131e-12 9.829740538592131e-12 9.829740538592131e-12 0.2 0.2 0.2 0.2 0.2 3.862706285414983e-08 0.9999998454917484 3.862706285414983e-08 3.862706285414983e-08 3.862706285414983e-08 0.99999999999943 1.425850814183503e-13 1.425850814183503e-13 1.425850814183503e-13 1.425850814183503e-13 4.395672697595543e-09 0.9999999824173089 4.395672697595543e-09 4.395672697595543e-09 4.395672697595543e-09 0.9999999967231997 8.191999999999996e-10 8.191999999999996e-10 8.191999999999996e-10 8.191999999999996e-10 0.2 0.2 0.2 0.2 0.2 7.407407407407406e-06 0.9999703703703702 7.407407407407406e-06 7.407407407407406e-06 7.407407407407406e-06 0.2 0.2 0.2 0.2 0.2 0.2 0.2 0.2 0.2 0.2 0.2 0.2 0.2 0.2 0.2 0.2 0.2 0.2 0.2 0.2 0.2 0.2 0.2 0.2 0.2 0.2 0.2 0.2 0.2 0.2 1.172610427546164e-14 0.999999999999953 1.172610427546164e-14 1.172610427546164e-14 1.172610427546164e-14 0.2 0.2 0.2 0.2 0.2 0.2 0.2 0.2 0.2 0.2 0.2 0.2 0.2 0.2 0.2 0.9999875000000003 3.125e-06 3.125e-06 3.125e-06 3.125e-06 1.244995219998894e-15 0.9999999999999952 1.244995219998894e-15 1.244995219998894e-15 1.244995219998894e-15 1.164584157276625e-08 0.9999999534166341 1.164584157276625e-08 1.164584157276625e-08 1.164584157276625e-08 0.2 0.2 0.2 0.2 0.2 1.6e-06 0.9999936000000003 1.6e-06 1.6e-06 1.6e-06 0.9999999999999917 2.111229945077019e-15 2.111229945077019e-15 2.111229945077019e-15 2.111229945077019e-15 2.491454713970012e-18 1 2.491454713970012e-18 2.491454713970012e-18 2.491454713970012e-18 0.00565384615385721 0.1191153846153892 0.8752307692307308 1.137784051274222e-14 1.137784051274222e-14 0.2 0.2 0.2 0.2 0.2 0.1144767077509359 0.5299770210958031 0.355546271149617 1.822080542603435e-12 1.822080542603435e-12 0.9999999999580645 1.048384603377418e-11 1.048384603377418e-11 1.048384603377418e-11 1.048384603377418e-11 3.165928843523513e-14 0.9999999999998732 3.165928843523513e-14 3.165928843523513e-14 3.165928843523513e-14 0.2971887549909937 0.7028112448294387 5.985582452726337e-11 5.985582452726337e-11 5.985582452726337e-11 0.2 0.2 0.2 0.2 0.2 1.38610032455539e-10 0.99999999944556 1.38610032455539e-10 1.38610032455539e-10 1.38610032455539e-10 0.2 0.2 0.2 0.2 0.2 7.061960194849362e-18 1 7.061960194849362e-18 7.061960194849362e-18 7.061960194849362e-18 1.26310135300196e-09 0.6499999971580219 0.349999999052674 1.26310135300196e-09 1.26310135300196e-09 0.2 0.2 0.2 0.2 0.2 5.878770238771756e-11 0.1297405189827278 5.878770238771756e-11 5.878770238771756e-11 0.8702594808409091 0.9999999999999994 1.797989910981125e-16 1.797989910981125e-16 1.797989910981125e-16 1.797989910981125e-16 1.018049635315655e-17 1 1.018049635315655e-17 1.018049635315655e-17 1.018049635315655e-17 0.008585904553872039 0.02721398015837381 0.9642001152877432 5.584564747601469e-15 5.584564747601469e-15 0.2 0.2 0.2 0.2 0.2 0.2 0.2 0.2 0.2 0.2 0.9999999999999152 2.129034160459556e-14 2.129034160459556e-14 2.129034160459556e-14 2.129034160459556e-14 4.678825524488709e-18 1 4.678825524488709e-18 4.678825524488709e-18 4.678825524488709e-18 5.168302542109595e-16 0.09423501804558766 0.9057649819544107 5.168302542109595e-16 5.168302542109595e-16 1.60096886409097e-10 1.60096886409097e-10 0.9999999993596125 1.60096886409097e-10 1.60096886409097e-10 2.504477591096002e-15 0.02449955877572093 0.04419209511866806 2.504477591096002e-15 0.931308346105606 0.9999999999999856 3.56042392924971e-15 3.56042392924971e-15 3.56042392924971e-15 3.56042392924971e-15 1.018929570524632e-16 0.9719741865405807 0.02802581345941896 1.018929570524632e-16 1.018929570524632e-16 1.564045943559958e-05 0.001806183426674051 0.9981781761138904 3.887643806329245e-20 3.887643806329245e-20 2.720814382030352e-12 2.720814382030352e-12 0.9999999999891167 2.720814382030352e-12 2.720814382030352e-12 9.332290699428425e-17 0.01804121712286806 0.03568686155731546 9.332290699428425e-17 0.9462719213198163 0.2 0.2 0.2 0.2 0.2 1.181107093243875e-15 0.9999999999999952 1.181107093243875e-15 1.181107093243875e-15 1.181107093243875e-15 4.406718754453973e-16 0.01470435144701269 0.985295648552986 4.406718754453973e-16 4.406718754453973e-16 2.245297224222917e-12 2.245297224222917e-12 0.8351623740130261 2.245297224222917e-12 0.164837625980238 1.258396285063662e-16 0.004747255760546486 0.00568985166968024 1.258396285063662e-16 0.989562892569773 0.2 0.2 0.2 0.2 0.2 0.2 0.2 0.2 0.2 0.2 3.155371540668166e-10 3.155371540668166e-10 0.9999999987378515 3.155371540668166e-10 3.155371540668166e-10 0.2 0.2 0.2 0.2 0.2 0.2 0.2 0.2 0.2 0.2 0.2 0.2 0.2 0.2 0.2 0.2 0.2 0.2 0.2 0.2 4.341820763006959e-13 4.341820763006959e-13 0.9999999999982632 4.341820763006959e-13 4.341820763006959e-13 2.103744959475043e-12 2.103744959475043e-12 0.1111111111120461 0.8888888888816426 2.103744959475043e-12 0.2 0.2 0.2 0.2 0.2 0.2 0.2 0.2 0.2 0.2 0.2 0.2 0.2 0.2 0.2 0.2 0.2 0.2 0.2 0.2 7.523104195892123e-13 7.523104195892123e-13 7.523104195892123e-13 0.9999999999969907 7.523104195892123e-13 1.522473318393473e-13 1.522473318393473e-13 1.522473318393473e-13 1.522473318393473e-13 0.9999999999993909 0.2 0.2 0.2 0.2 0.2 0.2 0.2 0.2 0.2 0.2 5.168101546993678e-08 5.168101546993678e-08 0.9999997932759381 5.168101546993678e-08 5.168101546993678e-08 3.355113648280953e-17 3.355113648280953e-17 0.0006452787107662606 0.9993547212892337 3.355113648280953e-17 1.643093932158021e-15 1.643093932158021e-15 1.643093932158021e-15 1.643093932158021e-15 0.9999999999999933 0.2 0.2 0.2 0.2 0.2 0.2 0.2 0.2 0.2 0.2 0.2 0.2 0.2 0.2 0.2 4.767360013603052e-20 4.767360013603052e-20 4.767360013603052e-20 1 4.767360013603052e-20 3.717739602274378e-14 3.717739602274378e-14 3.717739602274378e-14 0.1110096455681919 0.8889903544316966</probabilities>
		</cpt>
	</dynamic>
	<extensions>
		<genie version="1.0" app="SMILE_ACADEMIC 1.5.0@a121f1f76773" name="emidas dbn v9" faultnameformat="user">
			<plate leftwidth="120" rightwidth="120">120 50 1164 561</plate>
			<node id="p1_imas">
				<name>p1_imas</name>
				<interior color="e5f6f7" />
				<outline color="000080" />
				<font color="000000" name="MS Sans Serif" size="8" />
				<position>491 462 547 497</position>
			</node>
			<node id="p2_imas">
				<name>p2_imas</name>
				<interior color="e5f6f7" />
				<outline color="000080" />
				<font color="000000" name="MS Sans Serif" size="8" />
				<position>651 472 707 507</position>
			</node>
			<node id="p1_wti">
				<name>p1_wti</name>
				<interior color="e5f6f7" />
				<outline color="000080" />
				<font color="000000" name="MS Sans Serif" size="8" />
				<position>487 311 571 363</position>
			</node>
			<node id="p2_wti">
				<name>p2_wti</name>
				<interior color="e5f6f7" />
				<outline color="000080" />
				<font color="000000" name="MS Sans Serif" size="8" />
				<position>650 301 734 353</position>
			</node>
			<node id="p1_approach">
				<name>p1_approach</name>
				<interior color="e5f6f7" />
				<outline color="000080" />
				<font color="000000" name="MS Sans Serif" size="8" />
				<position>268 135 344 182</position>
			</node>
			<node id="p2_head">
				<name>p2_head</name>
				<interior color="e5f6f7" />
				<outline color="000080" />
				<font color="000000" name="MS Sans Serif" size="8" />
				<position>676 84 733 119</position>
			</node>
			<node id="p1_body">
				<name>p1_body</name>
				<interior color="e5f6f7" />
				<outline color="000080" />
				<font color="000000" name="MS Sans Serif" size="8" />
				<position>404 76 461 111</position>
			</node>
			<node id="p2_approach">
				<name>p2_approach</name>
				<interior color="e5f6f7" />
				<outline color="000080" />
				<font color="000000" name="MS Sans Serif" size="8" />
				<position>924 160 1000 207</position>
			</node>
			<node id="p2_body">
				<name>p2_body</name>
				<interior color="e5f6f7" />
				<outline color="000080" />
				<font color="000000" name="MS Sans Serif" size="8" />
				<position>827 91 884 126</position>
			</node>
			<node id="dist">
				<name>dist</name>
				<interior color="e5f6f7" />
				<outline color="000080" />
				<font color="000000" name="MS Sans Serif" size="8" />
				<position>599 137 637 160</position>
			</node>
			<node id="p1_gesture">
				<name>p1_gesture</name>
				<interior color="e5f6f7" />
				<outline color="000080" />
				<font color="000000" name="MS Sans Serif" size="8" />
				<position>248 271 316 313</position>
			</node>
			<node id="p2_gesture">
				<name>p2_gesture</name>
				<interior color="e5f6f7" />
				<outline color="000080" />
				<font color="000000" name="MS Sans Serif" size="8" />
				<position>964 312 1032 354</position>
			</node>
			<node id="p1_head">
				<name>p1_head</name>
				<interior color="e5f6f7" />
				<outline color="000080" />
				<font color="000000" name="MS Sans Serif" size="8" />
				<position>528 80 585 115</position>
			</node>
		</genie>
	</extensions>
</smile>
