<?xml version="1.0" encoding="ISO-8859-1"?>
<!-- This file was created by ACADEMIC version of SMILE -->
<smile version="1.0" id="Network2" numsamples="10000" discsamples="10000">
	<nodes>
		<cpt id="p1_imas" target="true" dynamic="plate">
			<state id="very_high" />
			<state id="high" />
			<state id="medium" />
			<state id="low" />
			<state id="very_low" />
			<probabilities>0.0221547932607186 0.03472369071378074 0.07558355595317789 0.5141561195953428 0.35338184047698</probabilities>
		</cpt>
		<cpt id="p2_imas" target="true" dynamic="plate">
			<state id="very_high" />
			<state id="high" />
			<state id="medium" />
			<state id="low" />
			<state id="very_low" />
			<probabilities>0.02302441832093544 0.03636909640325577 0.07964389166598891 0.5095827676599578 0.3513798259498621</probabilities>
		</cpt>
		<cpt id="p1_wti" dynamic="plate">
			<state id="very_high" />
			<state id="high" />
			<state id="medium" />
			<state id="low" />
			<state id="very_low" />
			<parents>p1_imas</parents>
			<probabilities>0.9997741389045739 5.646527385657822e-05 5.646527385657822e-05 5.646527385657822e-05 5.646527385657822e-05 0.2565663844352369 0.7433255269320844 3.602954422626554e-05 3.602954422626554e-05 3.602954422626554e-05 0.1384042377089885 0.8171825856646249 0.04438006952491309 1.6553550736633e-05 1.6553550736633e-05 0.03730941922295365 0.2210092111507246 0.5599114172030711 0.1817675188299283 2.433593322219924e-06 3.540763034433921e-06 3.540763034433921e-06 0.00465964415331504 0.1046684960609011 0.8906647782597149</probabilities>
		</cpt>
		<cpt id="p2_wti" dynamic="plate">
			<state id="very_high" />
			<state id="high" />
			<state id="medium" />
			<state id="very_low" />
			<state id="low" />
			<parents>p2_imas</parents>
			<probabilities>0.9997826677533281 5.433306166802501e-05 5.433306166802501e-05 5.433306166802501e-05 5.433306166802501e-05 0.2642242862057104 0.7356725146198831 3.439972480220159e-05 3.439972480220159e-05 3.439972480220159e-05 0.1480009425811012 0.802623517398476 0.04934412065038095 1.570968502081533e-05 1.570968502081533e-05 0.03442763836369887 0.2151966802534008 0.5667411481608799 2.455433875165742e-06 0.1836320777881452 3.560936526306419e-06 3.560936526306419e-06 0.004169856672304816 0.889365263064186 0.1064577583904567</probabilities>
		</cpt>
		<cpt id="p1_approach" dynamic="plate">
			<state id="y" />
			<state id="m" />
			<state id="n" />
			<parents>p1_wti</parents>
			<probabilities>0.5716076713392962 0.2148159141493052 0.2135764145113985 0.4061208509408748 0.2177164734351862 0.3761626756239391 0.0665629709267556 0.1179792698960725 0.8154577591771719 0.1632861265046422 0.1267995770875267 0.7099142964078311 0.0002036240560344464 0.005531912456426562 0.9942644634875391</probabilities>
		</cpt>
		<cpt id="p2_head" dynamic="plate">
			<state id="central" />
			<state id="mid_peripheral" />
			<state id="outside" />
			<parents>p2_wti</parents>
			<probabilities>0.9999990981338585 4.509330707099129e-07 4.509330707099129e-07 0.9995124725177207 0.0004717353587818331 1.579212349730338e-05 0.9989521385630734 0.0009616182762341704 8.624316069225259e-05 0.01462595374846945 0.2195166271561564 0.7658574190953741 0.3183167811728069 0.4245695623730508 0.2571136564541422</probabilities>
		</cpt>
		<cpt id="p1_body" dynamic="plate">
			<state id="strongly_facing" />
			<state id="slightly_facing" />
			<state id="turned_away" />
			<parents>p1_wti</parents>
			<probabilities>0.4538167290309962 0.4886244073327443 0.05755886363625953 0.2727434536063857 0.5020614728934156 0.2251950735001986 0.01032816917808761 0.1935279331282594 0.796143897693653 0.02859143584993852 0.8174930880027045 0.1539154761473571 0.001763586291383462 0.3778962545231369 0.6203401591854796</probabilities>
		</cpt>
		<cpt id="p2_approach" dynamic="plate">
			<state id="y" />
			<state id="m" />
			<state id="n" />
			<parents>p2_wti</parents>
			<probabilities>0.5865931285014953 0.2210654285848278 0.192341442913677 0.4076116586438333 0.2281347546244481 0.3642535867317186 0.06841657275588403 0.1188194394616626 0.8127639877824534 1.519342829529886e-07 0.004229546568845298 0.9957703014968718 0.16063012244569 0.1323229699060201 0.7070469076482899</probabilities>
		</cpt>
		<cpt id="p2_body" dynamic="plate">
			<state id="strongly_facing" />
			<state id="slightly_facing" />
			<state id="turned_away" />
			<parents>p2_wti</parents>
			<probabilities>0.4367854965494601 0.5027642197234518 0.06045028372708809 0.2713133179034145 0.5125446688906032 0.2161420132059822 0.01210977783592977 0.1950230802455327 0.7928671419185375 0.001829744569602842 0.4037366413680892 0.5944336140623079 0.03851710475661337 0.8054081537288876 0.1560747415144991</probabilities>
		</cpt>
		<cpt id="dist" dynamic="plate">
			<state id="range_0_3" />
			<state id="range_3_6" />
			<state id="range_6_9" />
			<state id="range_9_12" />
			<state id="range_12_15" />
			<state id="range_15_18" />
			<state id="range_18_21" />
			<state id="range_21_24" />
			<state id="range_24_27" />
			<state id="range_27_30" />
			<state id="range_30_inf" />
			<parents>p1_wti p2_wti</parents>
			<probabilities>0.1111111111111111 0.1111111111111111 0.1111111111111111 0.1111111111111111 0.1111111111111111 0.1111111111111111 0.1111111111111111 0.1111111111111111 0.1111111111111111 0 0 0.0325227966275738 0.1484974898603749 0.2410170114093965 0.2975924553770547 0.2101782565544545 0.05577929227542867 0.0134352407499387 0.000977276202211673 1.809435664157884e-07 0 0 2.09256678426892e-06 2.09256678426892e-06 2.09256678426892e-06 0.005652022884310353 0.829167032865854 0.1651683888491302 2.09256678426892e-06 2.09256678426892e-06 2.09256678426892e-06 0 0 1.233745404298369e-05 1.233745404298369e-05 1.233745404298369e-05 1.233745404298369e-05 0.7759394971253732 0.2239741406963259 1.233745404298369e-05 1.233745404298369e-05 1.233745404298369e-05 0 0 2.155530120300136e-06 2.155530120300136e-06 2.155530120300136e-06 0.0221178945643997 0.4279223060723439 0.5434673426409125 0.006481679071742509 2.155530120300136e-06 2.155530120300136e-06 0 0 0.03331635589010053 0.1509619955465485 0.2429618668753998 0.2895440394877458 0.2123976438882991 0.05590618443579487 0.01391113827502028 0.001000596891162079 1.787099287662223e-07 0 0 0.01483259297414051 0.07774236125038844 0.1627106972960835 0.2835932176239943 0.2097592556000175 0.2075701244364254 0.04305151497135636 0.0007401536174401606 8.223015414289085e-08 0 0 0.004795163079163518 0.02320405294511414 0.0395715816942832 0.3889008113683459 0.1524588514523034 0.2061728201200274 0.1186088967286461 0.06513046972824307 0.001157352883873305 0 0 1.876084611415975e-06 1.876084611415975e-06 1.876084611415975e-06 0.8961605928427373 0.01317199005675156 0.007549364476337883 0.08310867220111628 1.876084611415975e-06 1.876084611415975e-06 0 0 1.322452196659221e-06 1.322452196659221e-06 0.002250813638713995 0.239732811758187 0.02416252408516064 0.1999203883777611 0.05620289590582025 0.1590367787180413 0.2130602734037672 0.09026529713517183 0.0153655720729835 2.113945912579881e-06 2.113945912579881e-06 2.113945912579881e-06 0.003426706324291987 0.7740931700521512 0.2224674399480815 2.113945912579881e-06 2.113945912579881e-06 2.113945912579881e-06 0 0 0.004479058384322749 0.02132240542608704 0.03616137232377627 0.3870644356938657 0.1559490281820824 0.2199799622669218 0.1244250985046948 0.05039957133087079 0.0002190678873784735 0 0 5.548303922329071e-08 5.548303922329071e-08 0.004963068824601801 0.1910843083645231 0.07936332768626961 0.0874477613314953 0.07323733435954763 0.08170926155070879 0.0998690267376095 0.3823258001791658 0 1.655015358542527e-06 1.655015358542527e-06 1.655015358542527e-06 0.00302536807541574 0.2802834710306111 0.4944010830420506 0.1928490096388094 0.02943444815167885 1.655015358542527e-06 0 0 2.080031283670507e-06 2.080031283670507e-06 2.080031283670507e-06 0.2340430400073217 0.370195647742542 0.2116348629883394 0.08882981600043266 0.05030347656428754 0.006011290409807764 0.01085776330076004 0.02811786289265791 1.916601023081626e-06 1.916601023081626e-06 1.916601023081626e-06 0.03558744779657964 0.3788161922120834 0.5791508307507135 0.006435946235508101 1.916601023081626e-06 1.916601023081626e-06 0 0 1.295363634479471e-06 1.295363634479471e-06 1.295363634479471e-06 0.2557604820825302 0.03020787995606127 0.2001738377997471 0.04821991129349831 0.1683467533005865 0.2004419780720844 0.0846856929677299 0.01215957843685879 2.15073189406355e-06 2.15073189406355e-06 2.15073189406355e-06 0.2266097152861119 0.3805139388934055 0.2033237410690859 0.07510570847259324 0.06534998860112097 0.01060956043341549 0.01091711509426658 0.02756377995431846 1.168790944207764e-06 1.168790944207764e-06 1.168790944207764e-06 0.2205660454542798 0.05897134709000275 0.2678284448652092 0.2546059129133867 0.1319950677022154 0.06599811824657983 3.155735549360964e-05 0 1.156756731745801e-06 1.156756731745801e-06 1.156756731745801e-06 0.2539624701845953 0.08349585765414363 0.5201981292930135 0.09061685209477079 0.05172206374654998 1.156756731745801e-06 0 0 1.601717040667596e-05 1.601717040667596e-05 1.601717040667596e-05 1.601717040667596e-05 0.7202120673361844 0.2796758124709688 1.601717040667596e-05 1.601717040667596e-05 1.601717040667596e-05 0 0 1.669136989410995e-06 1.669136989410995e-06 0.0007527807822243587 0.8895582128216427 0.007167274232530812 0.00431304998063801 0.09820200563500647 1.669136989410995e-06 1.669136989410995e-06 0 0 1.568236314393743e-06 1.568236314393743e-06 1.568236314393743e-06 0.003868838987609364 0.2586147141340434 0.4986395549972634 0.2300900638115356 0.008780555124290568 1.568236314393743e-06 0 0 5.658820542220263e-08 5.658820542220263e-08 5.658820542220263e-08 0.2793482419487575 0.330079002227708 0.1369573212320588 0.06451281770952789 0.05155536360836278 0.09488150061961259 0.04266558288935643 0 1.071084676741289e-06 1.071084676741289e-06 1.071084676741289e-06 0.2079210996183725 0.06840482288008243 0.2743968989956439 0.2470778132306806 0.1332418627019396 0.06817346858990632 0.0007808207293443998 0</probabilities>
		</cpt>
		<cpt id="p1_gesture" dynamic="plate">
			<state id="wave_slow_shoulder" />
			<state id="wave_fast_shoulder" />
			<state id="wave_small_head" />
			<state id="wave_wide_head" />
			<state id="arm_raise_high" />
			<state id="arm_raise_low" />
			<state id="come_here" />
			<state id="i_am_coming" />
			<state id="None" />
			<parents>p1_wti</parents>
			<probabilities>0.02344758319709968 1.526853443596583e-07 0.02626325366059147 0.09027750103558684 0.02082017376508321 1.526853443596583e-07 0.01142223804042253 0.01064308472036366 0.817125860210164 4.81573782641673e-08 0.02388215889526926 0.06513516572157763 0.003036563489483151 0.1462109052383183 0.07446662091715678 0.03341688638470473 4.815737783075089e-08 0.6538516030387339 4.710445162504706e-08 4.710445120110699e-08 4.710445120110699e-08 4.710445120110699e-08 0.01727602869527782 0.01977981871945936 4.710445120110699e-08 4.710445120110699e-08 0.9629438699585552 2.874608978438708e-07 2.874608952567227e-07 0.01477290301586439 2.874608952567227e-07 2.874608952567227e-07 2.874608952567227e-07 2.874608952567227e-07 2.874608952567227e-07 0.9852250847578662 5.024032959062974e-08 5.024032913846677e-08 5.024032913846677e-08 5.024032913846677e-08 5.024032913846677e-08 5.024032913846677e-08 5.024032913846677e-08 5.024032913846677e-08 0.9999995980773664</probabilities>
		</cpt>
		<cpt id="p2_gesture" dynamic="plate">
			<state id="wave_slow_shoulder" />
			<state id="wave_fast_shoulder" />
			<state id="wave_small_head" />
			<state id="wave_wide_head" />
			<state id="arm_raise_high" />
			<state id="arm_raise_low" />
			<state id="come_here" />
			<state id="i_am_coming" />
			<state id="None" />
			<parents>p2_wti</parents>
			<probabilities>0.02056405113460773 1.50311023569971e-07 0.03728194379810704 0.09223129499560491 0.02039359843387938 1.50311023569971e-07 0.01415989966438555 0.01133660770867078 0.8040323036426975 4.829395564924583e-08 0.02465010425457676 0.06849237136603076 0.002653559687103462 0.1394473964124835 0.07613778748486287 0.0333469280818486 4.829395564924583e-08 0.6552717561251827 4.689677036011561e-08 4.689677036011561e-08 4.689677036011561e-08 4.689677036011561e-08 0.01897635605528754 0.02091957063192929 4.689677036011561e-08 4.689677036011561e-08 0.960103791932161 5.064476098432955e-08 5.064476098432955e-08 5.064476098432955e-08 5.064476098432955e-08 5.064476098432955e-08 5.064476098432955e-08 5.064476098432955e-08 5.064476098432955e-08 0.999999594841912 2.858009242230287e-07 2.858009242230287e-07 0.0165061465775768 2.858009242230287e-07 2.858009242230287e-07 2.858009242230287e-07 2.858009242230287e-07 2.858009242230287e-07 0.9834918528159536</probabilities>
		</cpt>
		<cpt id="p1_head" dynamic="plate">
			<state id="central" />
			<state id="mid_peripheral" />
			<state id="outside" />
			<parents>p1_wti</parents>
			<probabilities>0.9999990838879246 4.580560376595351e-07 4.580560376595351e-07 0.9995186188463898 0.0004270596308736952 5.432152273630223e-05 0.9989809893969762 0.000892959090348976 0.0001260515126746774 0.3117418578137909 0.4237446726309054 0.2645134695553037 0.01537007428736102 0.2022350114005356 0.7823949143121034</probabilities>
		</cpt>
	</nodes>
	<dynamic numslices="50">
		<cpt id="p1_imas" order="1">
			<parents>p1_imas</parents>
			<probabilities>0.9999977075984513 5.731003871293114e-07 5.731003871293114e-07 5.731003871293114e-07 5.731003871293114e-07 0.001551301554268849 0.998447511527939 3.95639264031841e-07 3.95639264031841e-07 3.95639264031841e-07 0.006407187461736257 0.009639708583323131 0.981681155871189 0.002271641973796988 3.061099546957268e-07 0.0005312665466417877 0.0009466804218101646 0.003015865311290609 0.9949382090339951 0.0005679786862622433 8.827629066557675e-08 8.827629066557675e-08 8.827629066557675e-08 0.007497393642518099 0.9925023415286099</probabilities>
		</cpt>
		<cpt id="p2_imas" order="1">
			<parents>p2_imas</parents>
			<probabilities>0.9999977752192798 5.561951800125699e-07 5.561951800125699e-07 5.561951800125699e-07 5.561951800125699e-07 0.001507500014417559 0.9984913465808276 3.844682515729557e-07 3.844682515729557e-07 3.844682515729557e-07 0.006335908527249123 0.009262838612771954 0.9822684217573807 0.002132540010595749 2.910920025383223e-07 0.0005347978147243583 0.0009423907890955192 0.003130901295563383 0.9948075939697141 0.0005843161309025397 8.902741554748077e-08 8.902741554748077e-08 8.902741554748077e-08 0.007561632566940827 0.9924381003508126</probabilities>
		</cpt>
		<cpt id="p1_wti" order="1">
			<parents>p2_imas p1_wti</parents>
			<probabilities>0.2 0.2 0.2 0.2 0.2 0.2 0.2 0.2 0.2 0.2 0.2 0.2 0.2 0.2 0.2 0.2 0.2 0.2 0.2 0.2 0.2 0.2 0.2 0.2 0.2 0.2 0.2 0.2 0.2 0.2 0.2 0.2 0.2 0.2 0.2 0.2 0.2 0.2 0.2 0.2 0.2 0.2 0.2 0.2 0.2 0.2 0.2 0.2 0.2 0.2 0.2 0.2 0.2 0.2 0.2 0.2 0.2 0.2 0.2 0.2 0.2 0.2 0.2 0.2 0.2 0.2 0.2 0.2 0.2 0.2 0.2 0.2 0.2 0.2 0.2 0.9999977098165848 5.725458537660634e-07 5.725458537660634e-07 5.725458537660634e-07 5.725458537660634e-07 0.9996931338703493 7.671653241273498e-05 7.671653241273498e-05 7.671653241273498e-05 7.671653241273498e-05 0.9995467422096316 0.000113314447592068 0.000113314447592068 0.000113314447592068 0.000113314447592068 0.9979643765903309 0.0005089058524173029 0.0005089058524173029 0.0005089058524173029 0.0005089058524173029 0.2 0.2 0.2 0.2 0.2 0.9995967741935483 0.0001008064516129032 0.0001008064516129032 0.0001008064516129032 0.0001008064516129032 0.9818181818181816 0.004545454545454544 0.004545454545454544 0.004545454545454544 0.004545454545454544 0.2 0.2 0.2 0.2 0.2 0.2 0.2 0.2 0.2 0.2 0.2 0.2 0.2 0.2 0.2 0.2 0.2 0.2 0.2 0.2 0.2 0.2 0.2 0.2 0.2 0.2 0.2 0.2 0.2 0.2 0.2 0.2 0.2 0.2 0.2 0.2 0.2 0.2 0.2 0.2 0.2 0.2 0.2 0.2 0.2 0.2 0.2 0.2 0.2 0.2 0.2 0.2 0.2 0.2 0.2 0.2 0.2 0.2 0.2 0.2 0.2 0.2 0.2 0.2 0.2 0.2 0.2 0.2 0.2 0.2 6.690977217222575e-06 0.999973236091131 6.690977217222575e-06 6.690977217222575e-06 6.690977217222575e-06 0.0004073319755600815 0.9983706720977598 0.0004073319755600815 0.0004073319755600815 0.0004073319755600815 0.2 0.2 0.2 0.2 0.2 0.2 0.2 0.2 0.2 0.2 0.9999921455430867 1.963614228348699e-06 1.963614228348699e-06 1.963614228348699e-06 1.963614228348699e-06 0.003141384336058144 0.9968569625937772 5.510233881877115e-07 5.510233881877115e-07 5.510233881877115e-07 0.2190334128878282 0.7807875894988069 5.96658711217184e-05 5.96658711217184e-05 5.96658711217184e-05 0.0008333333333333336 0.9966666666666668 0.0008333333333333336 0.0008333333333333336 0.0008333333333333336 0.2 0.2 0.2 0.2 0.2 0.9999477602194069 1.305994514823037e-05 1.305994514823037e-05 1.305994514823037e-05 1.305994514823037e-05 0.2 0.2 0.2 0.2 0.2 0.9989637305699479 0.0002590673575129533 0.0002590673575129533 0.0002590673575129533 0.0002590673575129533 0.2 0.2 0.2 0.2 0.2 0.2 0.2 0.2 0.2 0.2 0.2 0.2 0.2 0.2 0.2 0.2 0.2 0.2 0.2 0.2 0.2 0.2 0.2 0.2 0.2 0.2 0.2 0.2 0.2 0.2 0.2 0.2 0.2 0.2 0.2 0.2 0.2 0.2 0.2 0.2 7.049203440011278e-06 0.9999718031862399 7.049203440011278e-06 7.049203440011278e-06 7.049203440011278e-06 0.2 0.2 0.2 0.2 0.2 0.2 0.2 0.2 0.2 0.2 0.2 0.2 0.2 0.2 0.2 0.2 0.2 0.2 0.2 0.2 3.322755893738267e-06 0.9999867089764253 3.322755893738267e-06 3.322755893738267e-06 3.322755893738267e-06 0.0007380073800738009 0.7055350553505536 0.2922509225092252 0.0007380073800738009 0.0007380073800738009 0.005128205128205127 0.005128205128205127 0.9794871794871793 0.005128205128205127 0.005128205128205127 0.2 0.2 0.2 0.2 0.2 0.999980774776507 4.806305873305779e-06 4.806305873305779e-06 4.806305873305779e-06 4.806305873305779e-06 4.288440508609044e-07 0.9999982846237965 4.288440508609044e-07 4.288440508609044e-07 4.288440508609044e-07 0.003557213038333274 0.1336536737547961 0.8627747696059096 7.171800480510633e-06 7.171800480510633e-06 0.1204683253188376 0.456449926824169 0.4229981183357726 4.181476061049552e-05 4.181476061049552e-05 0.2 0.2 0.2 0.2 0.2 0.9997494519260886 6.263701847792048e-05 6.263701847792048e-05 6.263701847792048e-05 6.263701847792048e-05 1.103083117312889e-05 0.9999558766753073 1.103083117312889e-05 1.103083117312889e-05 1.103083117312889e-05 0.2908430232558139 0.7087209302325581 0.0001453488372093023 0.0001453488372093023 0.0001453488372093023 0.0001410437235543018 0.9994358251057827 0.0001410437235543018 0.0001410437235543018 0.0001410437235543018 0.2 0.2 0.2 0.2 0.2 0.2 0.2 0.2 0.2 0.2 5.637328131958576e-07 0.9999977450687471 5.637328131958576e-07 5.637328131958576e-07 5.637328131958576e-07 0.0002306805074971164 0.726874279123414 0.2724336793540945 0.0002306805074971164 0.0002306805074971164 9.842519685039371e-05 0.1378937007874016 9.842519685039371e-05 0.8618110236220473 9.842519685039371e-05 0.2 0.2 0.2 0.2 0.2 0.9999937936866278 1.551578343069488e-06 1.551578343069488e-06 1.551578343069488e-06 1.551578343069488e-06 6.378445955427419e-07 0.9999974486216177 6.378445955427419e-07 6.378445955427419e-07 6.378445955427419e-07 0.008270698344132471 0.03295032397408208 0.9587674586033118 5.759539236861052e-06 5.759539236861052e-06 0.002631578947368421 0.002631578947368421 0.9894736842105262 0.002631578947368421 0.002631578947368421 0.2 0.2 0.2 0.2 0.2 0.9999735458483515 6.61353791210608e-06 6.61353791210608e-06 6.61353791210608e-06 6.61353791210608e-06 4.77401028799217e-07 0.9999980903958847 4.77401028799217e-07 4.77401028799217e-07 4.77401028799217e-07 2.470599861646408e-06 0.0928599663998419 0.9071326218005733 2.470599861646408e-06 2.470599861646408e-06 4.426149692382597e-06 0.02364006550701545 0.0455495064843093 0.9308015757092906 4.426149692382597e-06 0.0001468428781204111 0.0001468428781204111 0.9994126284875182 0.0001468428781204111 0.0001468428781204111 0.9999782555516298 5.436112092631353e-06 5.436112092631353e-06 5.436112092631353e-06 5.436112092631353e-06 1.421484313920595e-06 0.9737537136277697 0.02624202191928811 1.421484313920595e-06 1.421484313920595e-06 9.643396828672521e-08 0.001814019377441588 0.9981856913206536 9.643396828672521e-08 9.643396828672521e-08 1.474306523069211e-06 0.01697074238704969 0.03480985131618715 0.948216457683717 1.474306523069211e-06 4.4404973357016e-05 4.4404973357016e-05 0.9998223801065721 4.4404973357016e-05 4.4404973357016e-05 0.2 0.2 0.2 0.2 0.2 3.566906243869381e-06 0.9999857323750247 3.566906243869381e-06 3.566906243869381e-06 3.566906243869381e-06 2.634351949420443e-06 0.01168598524762909 0.9883061116965228 2.634351949420443e-06 2.634351949420443e-06 1.710673748855987e-06 0.004680403376869981 0.005219265607759617 0.9900969096678727 1.710673748855987e-06 4.51773209848656e-05 4.51773209848656e-05 0.839665687824712 0.1601987802123334 4.51773209848656e-05 0.2 0.2 0.2 0.2 0.2 0.2 0.2 0.2 0.2 0.2 0.000104602510460251 0.000104602510460251 0.9995815899581589 0.000104602510460251 0.000104602510460251 0.2 0.2 0.2 0.2 0.2 0.2 0.2 0.2 0.2 0.2 0.2 0.2 0.2 0.2 0.2 0.2 0.2 0.2 0.2 0.2 1.962708537782139e-05 1.962708537782139e-05 0.9999214916584886 1.962708537782139e-05 1.962708537782139e-05 0.0008000000000000001 0.0008000000000000001 0.0008000000000000001 0.9968 0.0008000000000000001 4.835589941972921e-05 4.835589941972921e-05 0.1770309477756286 4.835589941972921e-05 0.8228239845261122 0.2 0.2 0.2 0.2 0.2 0.2 0.2 0.2 0.2 0.2 0.2 0.2 0.2 0.2 0.2 1.746572351759672e-05 1.746572351759672e-05 1.746572351759672e-05 0.9999301371059295 1.746572351759672e-05 2.478621886231256e-05 2.478621886231256e-05 2.478621886231256e-05 2.478621886231256e-05 0.9999008551245507 0.2 0.2 0.2 0.2 0.2 0.2 0.2 0.2 0.2 0.2 0.2 0.2 0.2 0.2 0.2 3.914660403210022e-06 3.914660403210022e-06 3.914660403210022e-06 0.9999843413583872 3.914660403210022e-06 9.394302355621317e-07 9.394302355621317e-07 0.0002310998379482844 9.394302355621317e-07 0.9997660818713451 0.2 0.2 0.2 0.2 0.2 0.2 0.2 0.2 0.2 0.2 0.2 0.2 0.2 0.2 0.2 1.227973230183582e-05 1.227973230183582e-05 1.227973230183582e-05 0.8584269662921349 0.1415361945109596 1.033772307514181e-07 1.033772307514181e-07 1.033772307514181e-07 1.033772307514181e-07 0.999999586491077</probabilities>
		</cpt>
		<cpt id="p2_wti" order="1">
			<parents>p1_imas p2_wti</parents>
			<probabilities>0.2 0.2 0.2 0.2 0.2 0.2 0.2 0.2 0.2 0.2 0.2 0.2 0.2 0.2 0.2 0.2 0.2 0.2 0.2 0.2 0.2 0.2 0.2 0.2 0.2 0.2 0.2 0.2 0.2 0.2 0.2 0.2 0.2 0.2 0.2 0.2 0.2 0.2 0.2 0.2 0.2 0.2 0.2 0.2 0.2 0.2 0.2 0.2 0.2 0.2 0.2 0.2 0.2 0.2 0.2 0.2 0.2 0.2 0.2 0.2 0.2 0.2 0.2 0.2 0.2 0.2 0.2 0.2 0.2 0.2 0.2 0.2 0.2 0.2 0.2 0.9999977719973485 5.570006628307888e-07 5.570006628307888e-07 5.570006628307888e-07 5.570006628307888e-07 0.9997002622705136 7.493443237167481e-05 7.493443237167481e-05 7.493443237167481e-05 7.493443237167481e-05 0.9995467422096316 0.000113314447592068 0.000113314447592068 0.000113314447592068 0.000113314447592068 0.2 0.2 0.2 0.2 0.2 0.9979274611398965 0.0005181347150259068 0.0005181347150259068 0.0005181347150259068 0.0005181347150259068 0.9997324414715721 6.688963210702344e-05 6.688963210702344e-05 6.688963210702344e-05 6.688963210702344e-05 0.2 0.2 0.2 0.2 0.2 0.2 0.2 0.2 0.2 0.2 0.2 0.2 0.2 0.2 0.2 0.2 0.2 0.2 0.2 0.2 0.2 0.2 0.2 0.2 0.2 0.2 0.2 0.2 0.2 0.2 0.2 0.2 0.2 0.2 0.2 0.2 0.2 0.2 0.2 0.2 0.2 0.2 0.2 0.2 0.2 0.2 0.2 0.2 0.2 0.2 0.2 0.2 0.2 0.2 0.2 0.2 0.2 0.2 0.2 0.2 0.2 0.2 0.2 0.2 0.2 0.2 0.2 0.2 0.2 0.2 0.2 0.2 0.2 0.2 0.2 7.049203440011278e-06 0.9999718031862399 7.049203440011278e-06 7.049203440011278e-06 7.049203440011278e-06 0.0004073319755600815 0.9983706720977598 0.0004073319755600815 0.0004073319755600815 0.0004073319755600815 0.2 0.2 0.2 0.2 0.2 0.2 0.2 0.2 0.2 0.2 0.9999926021823563 1.849454410948771e-06 1.849454410948771e-06 1.849454410948771e-06 1.849454410948771e-06 0.002961702765094064 0.9970366922659218 5.349896613247948e-07 5.349896613247948e-07 5.349896613247948e-07 0.2173732582270976 0.7824488585828641 5.929439667951381e-05 5.929439667951381e-05 5.929439667951381e-05 0.2 0.2 0.2 0.2 0.2 0.00115606936416185 0.9953757225433528 0.00115606936416185 0.00115606936416185 0.00115606936416185 0.9999429833939133 1.425415152163067e-05 1.425415152163067e-05 1.425415152163067e-05 1.425415152163067e-05 0.0005602240896358544 0.9977591036414567 0.0005602240896358544 0.0005602240896358544 0.0005602240896358544 0.9989596879063717 0.000260078023407022 0.000260078023407022 0.000260078023407022 0.000260078023407022 0.2 0.2 0.2 0.2 0.2 0.006666666666666668 0.9733333333333334 0.006666666666666668 0.006666666666666668 0.006666666666666668 0.2 0.2 0.2 0.2 0.2 0.2 0.2 0.2 0.2 0.2 0.2 0.2 0.2 0.2 0.2 0.2 0.2 0.2 0.2 0.2 0.2 0.2 0.2 0.2 0.2 0.2 0.2 0.2 0.2 0.2 6.690977217222575e-06 0.999973236091131 6.690977217222575e-06 6.690977217222575e-06 6.690977217222575e-06 0.2 0.2 0.2 0.2 0.2 0.2 0.2 0.2 0.2 0.2 0.2 0.2 0.2 0.2 0.2 0.9799999999999998 0.004999999999999998 0.004999999999999998 0.004999999999999998 0.004999999999999998 3.322755893738267e-06 0.9999867089764253 3.322755893738267e-06 3.322755893738267e-06 3.322755893738267e-06 0.0007751937984496126 0.9968992248062017 0.0007751937984496126 0.0007751937984496126 0.0007751937984496126 0.2 0.2 0.2 0.2 0.2 0.003999999999999999 0.9839999999999998 0.003999999999999999 0.003999999999999999 0.003999999999999999 0.999983957004773 4.010748806802231e-06 4.010748806802231e-06 4.010748806802231e-06 4.010748806802231e-06 4.124714879083983e-07 0.9999983501140483 4.124714879083983e-07 4.124714879083983e-07 4.124714879083983e-07 0.004893737781421454 0.1093901746862584 0.8857034748060794 6.306363120388473e-06 6.306363120388473e-06 0.2 0.2 0.2 0.2 0.2 0.1051198465963567 0.507804410354746 0.3869990412272292 3.835091083413232e-05 3.835091083413232e-05 0.99970695970696 7.326007326007329e-05 7.326007326007329e-05 7.326007326007329e-05 7.326007326007329e-05 1.006694518548346e-05 0.9999597322192579 1.006694518548346e-05 1.006694518548346e-05 1.006694518548346e-05 0.2710814094775212 0.728554070473876 0.0001215066828675577 0.0001215066828675577 0.0001215066828675577 0.2 0.2 0.2 0.2 0.2 0.0001769911504424779 0.99929203539823 0.0001769911504424779 0.0001769911504424779 0.0001769911504424779 0.2 0.2 0.2 0.2 0.2 5.786434283465842e-07 0.9999976854262865 5.786434283465842e-07 5.786434283465842e-07 5.786434283465842e-07 0.0003194888178913738 0.6728434504792332 0.3261980830670926 0.0003194888178913738 0.0003194888178913738 0.2 0.2 0.2 0.2 0.2 0.0001207729468599034 0.1335748792270531 0.0001207729468599034 0.0001207729468599034 0.8660628019323672 0.9999930932667985 1.726683300382461e-06 1.726683300382461e-06 1.726683300382461e-06 1.726683300382461e-06 6.531721304515378e-07 0.999997387311478 6.531721304515378e-07 6.531721304515378e-07 6.531721304515378e-07 0.007416524813408407 0.02941469163284013 0.9631583082362185 5.237658766531362e-06 5.237658766531362e-06 0.2 0.2 0.2 0.2 0.2 0.2 0.2 0.2 0.2 0.2 0.9999695238095238 7.619047619047619e-06 7.619047619047619e-06 7.619047619047619e-06 7.619047619047619e-06 5.101455190092974e-07 0.9999979594179238 5.101455190092974e-07 5.101455190092974e-07 5.101455190092974e-07 2.437330148555273e-06 0.09409556771512487 0.9058971202944296 2.437330148555273e-06 2.437330148555273e-06 0.0001662510390689942 0.0001662510390689942 0.9993349958437239 0.0001662510390689942 0.0001662510390689942 4.529395778603135e-06 0.02525591086149108 0.04520789926623788 4.529395778603135e-06 0.9295271310807137 0.999980716851062 4.820787234555405e-06 4.820787234555405e-06 4.820787234555405e-06 4.820787234555405e-06 1.440963716533617e-06 0.9733652266635923 0.02663045044525778 1.440963716533617e-06 1.440963716533617e-06 1.312346722003954e-05 0.001587939533624784 0.9983987440069902 9.649608250029071e-08 9.649608250029071e-08 4.382120946538126e-05 4.382120946538126e-05 0.9998247151621387 4.382120946538126e-05 4.382120946538126e-05 1.494477904144187e-06 0.01741963445070464 0.03513667000433399 1.494477904144187e-06 0.947440706589153 0.2 0.2 0.2 0.2 0.2 3.152088258471238e-06 0.9999873916469663 3.152088258471238e-06 3.152088258471238e-06 3.152088258471238e-06 2.488986235906116e-06 0.01411504094382358 0.9858774920974689 2.488986235906116e-06 2.488986235906116e-06 4.478280340349306e-05 4.478280340349306e-05 0.8350201522615315 4.478280340349306e-05 0.164845499328258 1.627167183292247e-06 0.004508880264902817 0.005411958051630015 1.627167183292247e-06 0.9900759073491006 0.2 0.2 0.2 0.2 0.2 0.2 0.2 0.2 0.2 0.2 0.00018796992481203 0.00018796992481203 0.9992481203007517 0.00018796992481203 0.00018796992481203 0.2 0.2 0.2 0.2 0.2 0.2 0.2 0.2 0.2 0.2 0.2 0.2 0.2 0.2 0.2 0.2 0.2 0.2 0.2 0.2 2.061218179944347e-05 2.061218179944347e-05 0.9999175512728021 2.061218179944347e-05 2.061218179944347e-05 3.502626970227671e-05 3.502626970227671e-05 0.1115936952714536 0.8883012259194395 3.502626970227671e-05 0.2 0.2 0.2 0.2 0.2 0.2 0.2 0.2 0.2 0.2 0.2 0.2 0.2 0.2 0.2 0.2 0.2 0.2 0.2 0.2 2.748763056624519e-05 2.748763056624519e-05 2.748763056624519e-05 0.999890049477735 2.748763056624519e-05 1.820996084858418e-05 1.820996084858418e-05 1.820996084858418e-05 1.820996084858418e-05 0.9999271601566058 0.2 0.2 0.2 0.2 0.2 0.2 0.2 0.2 0.2 0.2 0.001015228426395939 0.001015228426395939 0.9959390862944163 0.001015228426395939 0.001015228426395939 1.018003389951288e-06 1.018003389951288e-06 0.0007492504950041482 0.9992476954948259 1.018003389951288e-06 4.034047359716003e-06 4.034047359716003e-06 4.034047359716003e-06 4.034047359716003e-06 0.999983863810561 0.2 0.2 0.2 0.2 0.2 0.2 0.2 0.2 0.2 0.2 0.2 0.2 0.2 0.2 0.2 1.034677206578478e-07 1.034677206578478e-07 1.034677206578478e-07 0.9999995861291173 1.034677206578478e-07 1.115760111576011e-05 1.115760111576011e-05 1.115760111576011e-05 0.1310013947001395 0.8689651324965133</probabilities>
		</cpt>
	</dynamic>
	<extensions>
		<genie version="1.0" app="SMILE_ACADEMIC 1.5.0@a121f1f76773" name="emidas dbn v9" faultnameformat="user">
			<plate leftwidth="120" rightwidth="120">120 50 1164 561</plate>
			<node id="p1_imas">
				<name>p1_imas</name>
				<interior color="e5f6f7" />
				<outline color="000080" />
				<font color="000000" name="MS Sans Serif" size="8" />
				<position>491 462 547 497</position>
			</node>
			<node id="p2_imas">
				<name>p2_imas</name>
				<interior color="e5f6f7" />
				<outline color="000080" />
				<font color="000000" name="MS Sans Serif" size="8" />
				<position>651 472 707 507</position>
			</node>
			<node id="p1_wti">
				<name>p1_wti</name>
				<interior color="e5f6f7" />
				<outline color="000080" />
				<font color="000000" name="MS Sans Serif" size="8" />
				<position>487 311 571 363</position>
			</node>
			<node id="p2_wti">
				<name>p2_wti</name>
				<interior color="e5f6f7" />
				<outline color="000080" />
				<font color="000000" name="MS Sans Serif" size="8" />
				<position>650 301 734 353</position>
			</node>
			<node id="p1_approach">
				<name>p1_approach</name>
				<interior color="e5f6f7" />
				<outline color="000080" />
				<font color="000000" name="MS Sans Serif" size="8" />
				<position>268 135 344 182</position>
			</node>
			<node id="p2_head">
				<name>p2_head</name>
				<interior color="e5f6f7" />
				<outline color="000080" />
				<font color="000000" name="MS Sans Serif" size="8" />
				<position>676 84 733 119</position>
			</node>
			<node id="p1_body">
				<name>p1_body</name>
				<interior color="e5f6f7" />
				<outline color="000080" />
				<font color="000000" name="MS Sans Serif" size="8" />
				<position>404 76 461 111</position>
			</node>
			<node id="p2_approach">
				<name>p2_approach</name>
				<interior color="e5f6f7" />
				<outline color="000080" />
				<font color="000000" name="MS Sans Serif" size="8" />
				<position>924 160 1000 207</position>
			</node>
			<node id="p2_body">
				<name>p2_body</name>
				<interior color="e5f6f7" />
				<outline color="000080" />
				<font color="000000" name="MS Sans Serif" size="8" />
				<position>827 91 884 126</position>
			</node>
			<node id="dist">
				<name>dist</name>
				<interior color="e5f6f7" />
				<outline color="000080" />
				<font color="000000" name="MS Sans Serif" size="8" />
				<position>599 137 637 160</position>
			</node>
			<node id="p1_gesture">
				<name>p1_gesture</name>
				<interior color="e5f6f7" />
				<outline color="000080" />
				<font color="000000" name="MS Sans Serif" size="8" />
				<position>248 271 316 313</position>
			</node>
			<node id="p2_gesture">
				<name>p2_gesture</name>
				<interior color="e5f6f7" />
				<outline color="000080" />
				<font color="000000" name="MS Sans Serif" size="8" />
				<position>964 312 1032 354</position>
			</node>
			<node id="p1_head">
				<name>p1_head</name>
				<interior color="e5f6f7" />
				<outline color="000080" />
				<font color="000000" name="MS Sans Serif" size="8" />
				<position>528 80 585 115</position>
			</node>
		</genie>
	</extensions>
</smile>
