<?xml version="1.0" encoding="ISO-8859-1"?>
<!-- This file was created by ACADEMIC version of SMILE -->
<smile version="1.0" id="Network2" numsamples="10000" discsamples="10000">
	<nodes>
		<cpt id="p1_imas" target="true" dynamic="plate">
			<state id="very_high" />
			<state id="high" />
			<state id="medium" />
			<state id="low" />
			<state id="very_low" />
			<probabilities>0.01490576109719548 0.02497981083781607 0.07092897521181515 0.5161581735309817 0.3730272793221916</probabilities>
		</cpt>
		<cpt id="p2_imas" target="true" dynamic="plate">
			<state id="very_high" />
			<state id="high" />
			<state id="medium" />
			<state id="low" />
			<state id="very_low" />
			<probabilities>0.01545326380049007 0.02638963029879966 0.0757880617035547 0.5115249319043512 0.3708441122928044</probabilities>
		</cpt>
		<cpt id="p1_wti" target="true" dynamic="plate">
			<state id="very_high" />
			<state id="high" />
			<state id="medium" />
			<state id="low" />
			<state id="very_low" />
			<parents>p1_imas</parents>
			<probabilities>0.999999999922675 1.933117733801472e-11 1.933117733801472e-11 1.933117733801472e-11 1.933117733801472e-11 0.2764383561628129 0.7235616438248584 4.109552157780832e-12 4.109552157780832e-12 4.109552157780832e-12 0.1597838672327649 0.7951563103043673 0.0450598224625089 1.796065109770099e-13 1.796065109770099e-13 0.03349244232299164 0.1877618668788121 0.5812649164677797 0.1974807743304164 4.661794622148022e-16 1.235017628620783e-15 1.235017628620783e-15 0.004641690823029863 0.108318350273365 0.8870399589036028</probabilities>
		</cpt>
		<cpt id="p2_wti" target="true" dynamic="plate">
			<state id="very_high" />
			<state id="high" />
			<state id="medium" />
			<state id="very_low" />
			<state id="low" />
			<parents>p2_imas</parents>
			<probabilities>0.9999999999306031 1.73492738777479e-11 1.73492738777479e-11 1.73492738777479e-11 1.73492738777479e-11 0.289419087135371 0.710580912854172 3.485628348669723e-12 3.485628348669723e-12 3.485628348669723e-12 0.1692252122088 0.7758714105106833 0.05490337728022241 1.47230840370517e-13 1.47230840370517e-13 0.03037073705898921 0.1819702179468312 0.5878008642949832 4.789619222730576e-16 0.1998581806991959 1.25695760306862e-15 1.25695760306862e-15 0.004133832838135839 0.8856367763485664 0.1102293908132953</probabilities>
		</cpt>
		<cpt id="p1_approach" dynamic="plate">
			<state id="y" />
			<state id="m" />
			<state id="n" />
			<parents>p1_wti</parents>
			<probabilities>0.5651066733432097 0.2187549457876807 0.2161383808691095 0.4046040814577765 0.2200630477125842 0.3753328708296393 0.06091066321259041 0.1088752788966922 0.8302140578907174 0.1645029968365301 0.1261337476094525 0.7093632555540174 0.0002093688784527919 0.005650168133179345 0.9941404629883679</probabilities>
		</cpt>
		<cpt id="p2_head" dynamic="plate">
			<state id="central" />
			<state id="mid_peripheral" />
			<state id="outside" />
			<parents>p2_wti</parents>
			<probabilities>1 6.959994115792414e-19 6.959994115792414e-19 0.9995370999331457 0.0004480344090426144 1.486565781155221e-05 0.9990745932982957 0.0008493458769067405 7.606082479761858e-05 0.0145409585472547 0.2159277679009626 0.7695312735517826 0.3183054374677219 0.425785294693807 0.2559092678384711</probabilities>
		</cpt>
		<cpt id="p1_body" dynamic="plate">
			<state id="strongly_facing" />
			<state id="slightly_facing" />
			<state id="turned_away" />
			<parents>p1_wti</parents>
			<probabilities>0.4526099489140672 0.4888799234100185 0.05851012767591437 0.2710874494514223 0.5030292069434877 0.22588334360509 0.009600410296341774 0.1790333328341894 0.8113662568694688 0.02879936833146192 0.8187054896712964 0.1524951419972416 0.001629089273294581 0.3765804359339208 0.6217904747927846</probabilities>
		</cpt>
		<cpt id="p2_approach" dynamic="plate">
			<state id="y" />
			<state id="m" />
			<state id="n" />
			<parents>p2_wti</parents>
			<probabilities>0.5819355844726856 0.2248446744522226 0.1932197410750918 0.4058072692240829 0.2316123168581928 0.3625804139177244 0.06296494043393447 0.1098363051739258 0.8271987543921399 2.164689924367657e-20 0.004286801274504405 0.9957131987254956 0.1619562977492501 0.1312085155532489 0.7068351866975009</probabilities>
		</cpt>
		<cpt id="p2_body" dynamic="plate">
			<state id="strongly_facing" />
			<state id="slightly_facing" />
			<state id="turned_away" />
			<parents>p2_wti</parents>
			<probabilities>0.4346776347826976 0.5042402181012259 0.06108214711607653 0.269964888142119 0.514070964521043 0.2159641473368381 0.01121524318584493 0.1808405765112242 0.8079441803029309 0.001677741070771813 0.403166324271897 0.5951559346573312 0.03859373290694509 0.8069372044094039 0.154469062683651</probabilities>
		</cpt>
		<cpt id="dist" dynamic="plate">
			<state id="range_0_3" />
			<state id="range_3_6" />
			<state id="range_6_9" />
			<state id="range_9_12" />
			<state id="range_12_15" />
			<state id="range_15_18" />
			<state id="range_18_21" />
			<state id="range_21_24" />
			<state id="range_24_27" />
			<state id="range_27_30" />
			<state id="range_30_inf" />
			<parents>p1_wti p2_wti</parents>
			<probabilities>0.1111111111111111 0.1111111111111111 0.1111111111111111 0.1111111111111111 0.1111111111111111 0.1111111111111111 0.1111111111111111 0.1111111111111111 0.1111111111111111 0 0 0.03069028947623197 0.1401417184164788 0.2330685525573705 0.3037233740109139 0.2172831310211502 0.05883880644264031 0.01516304072214615 0.001091087353068184 4.032357304907845e-19 0 0 5.530368415239464e-16 5.530368415239464e-16 5.530368415239464e-16 0.004644174293129885 0.8308461958748771 0.1645096298319899 5.530368415239464e-16 5.530368415239464e-16 5.530368415239464e-16 0 0 1.185973542438203e-13 1.185973542438203e-13 1.185973542438203e-13 1.185973542438203e-13 0.7740188062135197 0.2259811937856501 1.185973542438203e-13 1.185973542438203e-13 1.185973542438203e-13 0 0 8.003341569462848e-16 8.003341569462848e-16 8.003341569462848e-16 0.02006604994302775 0.432453311187931 0.5410301473570336 0.006450491512003689 8.003341569462848e-16 8.003341569462848e-16 0 0 0.03145763000153385 0.1425479860222059 0.236451608494198 0.2944600613844455 0.2200333195134804 0.05846253377131636 0.01559365380205415 0.0009932070107658176 3.891720090007919e-19 0 0 0.01415763418741594 0.07420713857838759 0.1567349424144127 0.2765542174802491 0.2098850548730178 0.2191275698769171 0.04849636063609752 0.00083708195350204 3.916566064723264e-20 0 0 0.004484282979796262 0.02170177559982182 0.03838565812727337 0.3856385452516045 0.1471442069036418 0.2044607845537013 0.1287126289353744 0.06839021094732928 0.001081906701457405 0 0 4.265287801145214e-16 4.265287801145214e-16 4.265287801145214e-16 0.8953573945040288 0.01219760432161629 0.006999138808424419 0.08544586236592823 4.265287801145214e-16 4.265287801145214e-16 0 0 1.80098290452157e-16 1.80098290452157e-16 0.002220159992482174 0.2360065312643163 0.02386965663874839 0.197394542400357 0.05887535387470789 0.1668056713928273 0.2105745398160437 0.08908832477769019 0.01516521984282674 5.677391412977844e-16 5.677391412977844e-16 5.677391412977844e-16 0.002790313135141274 0.785249233525092 0.2119604533397631 5.677391412977844e-16 5.677391412977844e-16 5.677391412977844e-16 0 0 0.004182585143661612 0.01991318585470108 0.03467465098367262 0.3840276254648025 0.1506699787300243 0.2186981958776033 0.1352811258295036 0.0523486235724378 0.0002040285435932634 0 0 9.180869874625111e-21 9.180869874625111e-21 0.004779337304136677 0.1860509380750678 0.08174831494931237 0.0873573831897819 0.07549114191447891 0.08547186863682393 0.1044206583403204 0.3746803575900781 0 3.566650782529661e-16 3.566650782529661e-16 3.566650782529661e-16 0.00299458614229482 0.2783932496422718 0.49407721016684 0.1938220065202316 0.03071294752836032 3.566650782529661e-16 0 0 7.289447614929758e-16 7.289447614929758e-16 7.289447614929758e-16 0.2340453413707239 0.3702004979688098 0.2116367448565057 0.08882939888050637 0.05030233820693827 0.006009322874740941 0.01085796656495116 0.0281183892768218 5.570217200319931e-16 5.570217200319931e-16 5.570217200319931e-16 0.03464092558362468 0.384456082700074 0.5745190662011342 0.006383925515164488 5.570217200319931e-16 5.570217200319931e-16 0 0 1.714735553888187e-16 1.714735553888187e-16 1.714735553888187e-16 0.2524008181849697 0.02994233413842131 0.1987796563160874 0.04948401187986096 0.1746270209053193 0.1987681000312018 0.08394485340852609 0.01205320513561298 8.058307677070123e-16 8.058307677070123e-16 8.058307677070123e-16 0.2266119509881721 0.3805191537136312 0.2033255260254344 0.07510501151739249 0.06534910280482409 0.01060761502874582 0.0109173264164456 0.027564313505352 1.202339498514927e-16 1.202339498514927e-16 1.202339498514927e-16 0.2160919068201184 0.06728745521185184 0.2736158023880166 0.2497356344260442 0.1288256008541831 0.06441280042709162 3.07998726938595e-05 0 1.253750518245261e-16 1.253750518245261e-16 1.253750518245261e-16 0.2539639573985194 0.08349557015397752 0.5202023882648117 0.09061663873070078 0.05172144545199012 1.253750518245261e-16 0 0 2.707794530344549e-13 2.707794530344549e-13 2.707794530344549e-13 2.707794530344549e-13 0.7266487213982308 0.2733512785998738 2.707794530344549e-13 2.707794530344549e-13 2.707794530344549e-13 0 0 2.886105655527127e-16 2.886105655527127e-16 0.0008247876171888606 0.8856706897973753 0.006557061556649436 0.003945234102218958 0.1030022269265665 2.886105655527127e-16 2.886105655527127e-16 0 0 3.021721164672362e-16 3.021721164672362e-16 3.021721164672362e-16 0.003824625563574223 0.2583716028531144 0.496224229142529 0.2328834047542605 0.008696137686520567 3.021721164672362e-16 0 0 9.76725045486581e-21 9.76725045486581e-21 9.76725045486581e-21 0.2808724480086509 0.3303925073409492 0.1378266522248723 0.06597027693741477 0.0520491519002876 0.09210245492719522 0.04078650866063029 0 9.148753402437588e-17 9.148753402437588e-17 9.148753402437588e-17 0.2029130854523811 0.07795409172282576 0.2812327187860268 0.2413043274503003 0.1295516960193456 0.06628487876203244 0.0007592018070877574 0</probabilities>
		</cpt>
		<cpt id="p1_gesture" dynamic="plate">
			<state id="wave_slow_shoulder" />
			<state id="wave_fast_shoulder" />
			<state id="wave_small_head" />
			<state id="wave_wide_head" />
			<state id="arm_raise_high" />
			<state id="arm_raise_low" />
			<state id="come_here" />
			<state id="i_am_coming" />
			<state id="None" />
			<parents>p1_wti</parents>
			<probabilities>0.02597495258530106 2.425675179614858e-19 0.02573625752084041 0.08936535652480743 0.01974034128205195 2.425675179614858e-19 0.01076981752800127 0.01084246385196755 0.8175708107070303 7.768731045369662e-21 0.02388718974626015 0.06546638169408182 0.00288625375303621 0.1466205371414635 0.0721851816453047 0.03354538743198394 7.768730975451082e-21 0.6554090685878696 5.829325070671476e-21 5.82932501820755e-21 5.82932501820755e-21 5.82932501820755e-21 0.01751209176262709 0.01855580179991315 5.82932501820755e-21 5.82932501820755e-21 0.9639321064374597 1.871973852865426e-18 1.871973836017661e-18 0.01607883551494829 1.871973836017661e-18 1.871973836017661e-18 1.871973836017661e-18 1.871973836017661e-18 1.871973836017661e-18 0.9839211644850516 7.047181229094605e-21 7.047181165669975e-21 7.047181165669975e-21 7.047181165669975e-21 7.047181165669975e-21 7.047181165669975e-21 7.047181165669975e-21 7.047181165669975e-21 1</probabilities>
		</cpt>
		<cpt id="p2_gesture" dynamic="plate">
			<state id="wave_slow_shoulder" />
			<state id="wave_fast_shoulder" />
			<state id="wave_small_head" />
			<state id="wave_wide_head" />
			<state id="arm_raise_high" />
			<state id="arm_raise_low" />
			<state id="come_here" />
			<state id="i_am_coming" />
			<state id="None" />
			<parents>p2_wti</parents>
			<probabilities>0.0225948984456581 2.319998038597472e-19 0.03696626614126732 0.09090235164349192 0.01979961374712579 2.319998038597472e-19 0.01355847283128981 0.01140353455889589 0.8047748626322712 7.823513661802477e-21 0.02505689211124963 0.06875738379288175 0.002521380738814934 0.1400080687487122 0.07395004065344477 0.03275441231305919 7.823513661802477e-21 0.6569518216418376 5.759033359039813e-21 5.759033359039813e-21 5.759033359039813e-21 5.759033359039813e-21 0.01914048285201248 0.01972510723084908 5.759033359039813e-21 5.759033359039813e-21 0.9611344099171385 7.215633081225522e-21 7.215633081225522e-21 7.215633081225522e-21 7.215633081225522e-21 7.215633081225522e-21 7.215633081225522e-21 7.215633081225522e-21 7.215633081225522e-21 1 1.829564792822338e-18 1.829564792822338e-18 0.01835555589476657 1.829564792822338e-18 1.829564792822338e-18 1.829564792822338e-18 1.829564792822338e-18 1.829564792822338e-18 0.9816444441052334</probabilities>
		</cpt>
		<cpt id="p1_head" dynamic="plate">
			<state id="central" />
			<state id="mid_peripheral" />
			<state id="outside" />
			<parents>p1_wti</parents>
			<probabilities>1 7.27702561161483e-19 7.27702561161483e-19 0.9995427145780944 0.0004057893158350939 5.14961060704434e-05 0.9991004177835011 0.0007883978976056063 0.0001111843188930983 0.3120914278682725 0.4244330621055276 0.2634755100261999 0.01558103253552491 0.1985435104421233 0.7858754570223518</probabilities>
		</cpt>
	</nodes>
	<dynamic numslices="60">
		<cpt id="p1_imas" order="1">
			<parents>p1_imas</parents>
			<probabilities>1 3.888194282177042e-18 3.888194282177042e-18 3.888194282177042e-18 3.888194282177042e-18 0.001741162031577509 0.9982588379684225 1.262968281430164e-18 1.262968281430164e-18 1.262968281430164e-18 0.006401392717590107 0.01038226340094355 0.9810380208379206 0.002178323043545912 6.325476367569285e-19 0.0005719035937785138 0.0009373300374707824 0.002808851480380635 0.9951259286427522 0.0005559862456176849 1.183411123244172e-20 1.183411123244172e-20 1.183411123244172e-20 0.006828656978837554 0.9931713430211625</probabilities>
		</cpt>
		<cpt id="p2_imas" order="1">
			<parents>p2_imas</parents>
			<probabilities>1 3.541165968701487e-18 3.541165968701487e-18 3.541165968701487e-18 3.541165968701487e-18 0.001697976098827966 0.998302023901172 1.163875127903746e-18 1.163875127903746e-18 1.163875127903746e-18 0.006353544168472646 0.009878834565825013 0.9817498108734948 0.002017810392207573 5.290581163702173e-19 0.000575742806783569 0.0009239980976243189 0.002914513862123986 0.9949955012304491 0.0005902440030189677 1.213517346044133e-20 1.213517346044133e-20 1.213517346044133e-20 0.006870755142554907 0.9931292448574451</probabilities>
		</cpt>
		<cpt id="p1_wti" order="1">
			<parents>p2_imas p1_wti</parents>
			<probabilities>0.2 0.2 0.2 0.2 0.2 0.2 0.2 0.2 0.2 0.2 0.2 0.2 0.2 0.2 0.2 0.2 0.2 0.2 0.2 0.2 0.2 0.2 0.2 0.2 0.2 0.2 0.2 0.2 0.2 0.2 0.2 0.2 0.2 0.2 0.2 0.2 0.2 0.2 0.2 0.2 0.2 0.2 0.2 0.2 0.2 0.2 0.2 0.2 0.2 0.2 0.2 0.2 0.2 0.2 0.2 0.2 0.2 0.2 0.2 0.2 0.2 0.2 0.2 0.2 0.2 0.2 0.2 0.2 0.2 0.2 0.2 0.2 0.2 0.2 0.2 1 3.878393616156832e-18 3.878393616156832e-18 3.878393616156832e-18 3.878393616156832e-18 0.9999999999583927 1.040188037258822e-11 1.040188037258822e-11 1.040188037258822e-11 1.040188037258822e-11 0.9999999999124962 2.187599911892271e-11 2.187599911892271e-11 2.187599911892271e-11 2.187599911892271e-11 0.9999999918873255 2.028168666724917e-09 2.028168666724917e-09 2.028168666724917e-09 2.028168666724917e-09 0.2 0.2 0.2 0.2 0.2 0.9999999999316068 1.709827997287872e-11 1.709827997287872e-11 1.709827997287872e-11 1.709827997287872e-11 0.9999906085649887 2.347858752817429e-06 2.347858752817429e-06 2.347858752817429e-06 2.347858752817429e-06 0.2 0.2 0.2 0.2 0.2 0.2 0.2 0.2 0.2 0.2 0.2 0.2 0.2 0.2 0.2 0.2 0.2 0.2 0.2 0.2 0.2 0.2 0.2 0.2 0.2 0.2 0.2 0.2 0.2 0.2 0.2 0.2 0.2 0.2 0.2 0.2 0.2 0.2 0.2 0.2 0.2 0.2 0.2 0.2 0.2 0.2 0.2 0.2 0.2 0.2 0.2 0.2 0.2 0.2 0.2 0.2 0.2 0.2 0.2 0.2 0.2 0.2 0.2 0.2 0.2 0.2 0.2 0.2 0.2 0.2 5.571370470325535e-15 0.9999999999999779 5.571370470325535e-15 5.571370470325535e-15 5.571370470325535e-15 1.108880259644312e-09 0.9999999955644788 1.108880259644312e-09 1.108880259644312e-09 1.108880259644312e-09 0.2 0.2 0.2 0.2 0.2 0.2 0.2 0.2 0.2 0.2 0.9999999999999994 1.601191860960938e-16 1.601191860960938e-16 1.601191860960938e-16 1.601191860960938e-16 0.003262006534344051 0.9967379934656558 3.44564919174451e-18 3.44564919174451e-18 3.44564919174451e-18 0.2077436582108006 0.792256341777785 3.804754825756104e-12 3.804754825756104e-12 3.804754825756104e-12 1.446759259259259e-08 0.9999999421296295 1.446759259259259e-08 1.446759259259259e-08 1.446759259259259e-08 0.2 0.2 0.2 0.2 0.2 0.9999999999998639 3.394161335039134e-14 3.394161335039134e-14 3.394161335039134e-14 3.394161335039134e-14 0.2 0.2 0.2 0.2 0.2 0.9999999987245346 3.18866358160489e-10 3.18866358160489e-10 3.18866358160489e-10 3.18866358160489e-10 0.2 0.2 0.2 0.2 0.2 0.2 0.2 0.2 0.2 0.2 0.2 0.2 0.2 0.2 0.2 0.2 0.2 0.2 0.2 0.2 0.2 0.2 0.2 0.2 0.2 0.2 0.2 0.2 0.2 0.2 0.2 0.2 0.2 0.2 0.2 0.2 0.2 0.2 0.2 0.2 6.577565793971796e-15 0.9999999999999739 6.577565793971796e-15 6.577565793971796e-15 6.577565793971796e-15 0.2 0.2 0.2 0.2 0.2 0.2 0.2 0.2 0.2 0.2 0.2 0.2 0.2 0.2 0.2 0.2 0.2 0.2 0.2 0.2 8.383274805518706e-16 0.9999999999999967 8.383274805518706e-16 8.383274805518706e-16 8.383274805518706e-16 1.004898326648331e-08 0.7074073819127646 0.2925925879402855 1.004898326648331e-08 1.004898326648331e-08 3.371601004737097e-06 3.371601004737097e-06 0.9999865135959809 3.371601004737097e-06 3.371601004737097e-06 0.2 0.2 0.2 0.2 0.2 0.9999999999999897 2.619915532098635e-15 2.619915532098635e-15 2.619915532098635e-15 2.619915532098635e-15 1.759614743720381e-18 1 1.759614743720381e-18 1.759614743720381e-18 1.759614743720381e-18 0.003208036292942534 0.1250810110175009 0.8717109526895429 6.804559437981698e-15 6.804559437981698e-15 0.1167883211685764 0.446472019462667 0.4367396593654244 1.666083062247499e-12 1.666083062247499e-12 0.2 0.2 0.2 0.2 0.2 0.9999999999754251 6.14374582493478e-12 6.14374582493478e-12 6.14374582493478e-12 6.14374582493478e-12 3.06093133423147e-14 0.9999999999998778 3.06093133423147e-14 3.06093133423147e-14 3.06093133423147e-14 0.2824858756772232 0.7175141241118936 7.029435412481238e-11 7.029435412481238e-11 7.029435412481238e-11 7.014574031756813e-11 0.999999999719417 7.014574031756813e-11 7.014574031756813e-11 7.014574031756813e-11 0.2 0.2 0.2 0.2 0.2 0.2 0.2 0.2 0.2 0.2 3.69066230026128e-18 1 3.69066230026128e-18 3.69066230026128e-18 3.69066230026128e-18 2.325350615115872e-10 0.7505263151493904 0.2494736841530045 2.325350615115872e-10 2.325350615115872e-10 2.412117564742162e-11 0.1453287197297771 2.412117564742162e-11 0.8546712801978594 2.412117564742162e-11 0.2 0.2 0.2 0.2 0.2 1 7.771027368770977e-17 7.771027368770977e-17 7.771027368770977e-17 7.771027368770977e-17 5.414866426974565e-18 1 5.414866426974565e-18 5.414866426974565e-18 5.414866426974565e-18 0.007629326386308044 0.03288319421553827 0.9594874793981464 3.756715054364246e-15 3.756715054364246e-15 6.36067575819255e-07 6.36067575819255e-07 0.9999974557296966 6.36067575819255e-07 6.36067575819255e-07 0.2 0.2 0.2 0.2 0.2 0.9999999999999793 5.153746556181389e-15 5.153746556181389e-15 5.153746556181389e-15 5.153746556181389e-15 2.350005149168455e-18 1 2.350005149168455e-18 2.350005149168455e-18 2.350005149168455e-18 3.110293411749462e-16 0.09299981462600813 0.907000185373991 3.110293411749462e-16 3.110293411749462e-16 2.157465806605957e-15 0.02346598316282755 0.04620279735731655 0.9303312194798516 2.157465806605957e-15 6.04604242689352e-11 6.04604242689352e-11 0.9999999997581582 6.04604242689352e-11 6.04604242689352e-11 0.9999999999999843 3.880082112867444e-15 3.880082112867444e-15 3.880082112867444e-15 3.880082112867444e-15 6.194883439765679e-17 0.9747760426533871 0.02522395734661296 6.194883439765679e-17 6.194883439765679e-17 1.494030850380608e-20 0.001586496042183022 0.998413503957817 1.494030850380608e-20 1.494030850380608e-20 7.783288715640211e-17 0.01680684539454478 0.03477454587932954 0.9484186087261256 7.783288715640211e-17 1.840469779245639e-12 1.840469779245639e-12 0.9999999999926381 1.840469779245639e-12 1.840469779245639e-12 0.2 0.2 0.2 0.2 0.2 9.067055399200526e-16 0.9999999999999961 9.067055399200526e-16 9.067055399200526e-16 9.067055399200526e-16 4.44547869355213e-16 0.0115760075172274 0.9884239924827714 4.44547869355213e-16 4.44547869355213e-16 1.179323578053232e-16 0.004586963631332348 0.005115261087957449 0.9902977752807099 1.179323578053232e-16 2.305161883182265e-12 2.305161883182265e-12 0.8398102123740084 0.1601897876190761 2.305161883182265e-12 0.2 0.2 0.2 0.2 0.2 0.2 0.2 0.2 0.2 0.2 1.687428790505041e-11 1.687428790505041e-11 0.9999999999325028 1.687428790505041e-11 1.687428790505041e-11 0.2 0.2 0.2 0.2 0.2 0.2 0.2 0.2 0.2 0.2 0.2 0.2 0.2 0.2 0.2 0.2 0.2 0.2 0.2 0.2 1.12978798995081e-13 1.12978798995081e-13 0.9999999999995481 1.12978798995081e-13 1.12978798995081e-13 1.687428790505041e-08 1.687428790505041e-08 1.687428790505041e-08 0.9999999325028485 1.687428790505041e-08 1.962458103650349e-12 1.962458103650349e-12 0.1796573875804994 1.962458103650349e-12 0.8203426124136133 0.2 0.2 0.2 0.2 0.2 0.2 0.2 0.2 0.2 0.2 0.2 0.2 0.2 0.2 0.2 1.331986280644184e-13 1.331986280644184e-13 1.331986280644184e-13 0.9999999999994671 1.331986280644184e-13 2.785051466230632e-13 2.785051466230632e-13 2.785051466230632e-13 2.785051466230632e-13 0.9999999999988861 0.2 0.2 0.2 0.2 0.2 0.2 0.2 0.2 0.2 0.2 0.2 0.2 0.2 0.2 0.2 1.500290319371432e-15 1.500290319371432e-15 1.500290319371432e-15 0.9999999999999939 1.500290319371432e-15 1.821423326737119e-17 1.821423326737119e-17 0.000260949767169838 1.821423326737119e-17 0.9997390502328302 0.2 0.2 0.2 0.2 0.2 0.2 0.2 0.2 0.2 0.2 0.2 0.2 0.2 0.2 0.2 4.483138991793135e-14 4.483138991793135e-14 4.483138991793135e-14 0.8493408662898733 0.1506591337099922 1.82374606416372e-20 1.82374606416372e-20 1.82374606416372e-20 1.82374606416372e-20 1</probabilities>
		</cpt>
		<cpt id="p2_wti" order="1">
			<parents>p1_imas p2_wti</parents>
			<probabilities>0.2 0.2 0.2 0.2 0.2 0.2 0.2 0.2 0.2 0.2 0.2 0.2 0.2 0.2 0.2 0.2 0.2 0.2 0.2 0.2 0.2 0.2 0.2 0.2 0.2 0.2 0.2 0.2 0.2 0.2 0.2 0.2 0.2 0.2 0.2 0.2 0.2 0.2 0.2 0.2 0.2 0.2 0.2 0.2 0.2 0.2 0.2 0.2 0.2 0.2 0.2 0.2 0.2 0.2 0.2 0.2 0.2 0.2 0.2 0.2 0.2 0.2 0.2 0.2 0.2 0.2 0.2 0.2 0.2 0.2 0.2 0.2 0.2 0.2 0.2 1 3.561874597680569e-18 3.561874597680569e-18 3.561874597680569e-18 3.561874597680569e-18 0.9999999999601141 9.971513473542441e-12 9.971513473542441e-12 9.971513473542441e-12 9.971513473542441e-12 0.9999999999119921 2.200202472906504e-11 2.200202472906504e-11 2.200202472906504e-11 2.200202472906504e-11 0.2 0.2 0.2 0.2 0.2 0.999999991562856 2.109285988131301e-09 2.109285988131301e-09 2.109285988131301e-09 2.109285988131301e-09 0.9999999999823878 4.403068668055302e-12 4.403068668055302e-12 4.403068668055302e-12 4.403068668055302e-12 0.2 0.2 0.2 0.2 0.2 0.2 0.2 0.2 0.2 0.2 0.2 0.2 0.2 0.2 0.2 0.2 0.2 0.2 0.2 0.2 0.2 0.2 0.2 0.2 0.2 0.2 0.2 0.2 0.2 0.2 0.2 0.2 0.2 0.2 0.2 0.2 0.2 0.2 0.2 0.2 0.2 0.2 0.2 0.2 0.2 0.2 0.2 0.2 0.2 0.2 0.2 0.2 0.2 0.2 0.2 0.2 0.2 0.2 0.2 0.2 0.2 0.2 0.2 0.2 0.2 0.2 0.2 0.2 0.2 0.2 0.2 0.2 0.2 0.2 0.2 6.577565793971796e-15 0.9999999999999739 6.577565793971796e-15 6.577565793971796e-15 6.577565793971796e-15 9.738093962868644e-10 0.9999999961047621 9.738093962868644e-10 9.738093962868644e-10 9.738093962868644e-10 0.2 0.2 0.2 0.2 0.2 0.2 0.2 0.2 0.2 0.2 0.9999999999999994 1.325447286181312e-16 1.325447286181312e-16 1.325447286181312e-16 1.325447286181312e-16 0.002986251689027977 0.9970137483109721 3.168548686749364e-18 3.168548686749364e-18 3.168548686749364e-18 0.2003158725980464 0.7996841273910192 3.644846187490889e-12 3.644846187490889e-12 3.644846187490889e-12 0.2 0.2 0.2 0.2 0.2 3.862706285414983e-08 0.9999998454917484 3.862706285414983e-08 3.862706285414983e-08 3.862706285414983e-08 0.9999999999998191 4.523411389135613e-14 4.523411389135613e-14 4.523411389135613e-14 4.523411389135613e-14 5.880238822371629e-09 0.9999999764790445 5.880238822371629e-09 5.880238822371629e-09 5.880238822371629e-09 0.9999999986693537 3.326615875718056e-10 3.326615875718056e-10 3.326615875718056e-10 3.326615875718056e-10 0.2 0.2 0.2 0.2 0.2 7.407407407407406e-06 0.9999703703703702 7.407407407407406e-06 7.407407407407406e-06 7.407407407407406e-06 0.2 0.2 0.2 0.2 0.2 0.2 0.2 0.2 0.2 0.2 0.2 0.2 0.2 0.2 0.2 0.2 0.2 0.2 0.2 0.2 0.2 0.2 0.2 0.2 0.2 0.2 0.2 0.2 0.2 0.2 5.571370470325535e-15 0.9999999999999779 5.571370470325535e-15 5.571370470325535e-15 5.571370470325535e-15 0.2 0.2 0.2 0.2 0.2 0.2 0.2 0.2 0.2 0.2 0.2 0.2 0.2 0.2 0.2 0.9999875000000003 3.125e-06 3.125e-06 3.125e-06 3.125e-06 8.383274805518706e-16 0.9999999999999967 8.383274805518706e-16 8.383274805518706e-16 8.383274805518706e-16 1.164584157276625e-08 0.9999999534166341 1.164584157276625e-08 1.164584157276625e-08 1.164584157276625e-08 0.2 0.2 0.2 0.2 0.2 1.6e-06 0.9999936000000003 1.6e-06 1.6e-06 1.6e-06 0.9999999999999943 1.452434396288883e-15 1.452434396288883e-15 1.452434396288883e-15 1.452434396288883e-15 1.517988007268e-18 1 1.517988007268e-18 1.517988007268e-18 1.517988007268e-18 0.004412560138928987 0.1030546303413351 0.8925328095197268 4.613916422762636e-15 4.613916422762636e-15 0.2 0.2 0.2 0.2 0.2 0.1031626506030553 0.4998117469859528 0.3970256024083249 1.333553820481576e-12 1.333553820481576e-12 0.9999999999606812 9.829740538592131e-12 9.829740538592131e-12 9.829740538592131e-12 9.829740538592131e-12 2.196727139373255e-14 0.9999999999999122 2.196727139373255e-14 2.196727139373255e-14 2.196727139373255e-14 0.2600583090260153 0.7399416908552441 3.958021464990021e-11 3.958021464990021e-11 3.958021464990021e-11 0.2 0.2 0.2 0.2 0.2 1.38610032455539e-10 0.99999999944556 1.38610032455539e-10 1.38610032455539e-10 1.38610032455539e-10 0.2 0.2 0.2 0.2 0.2 3.99613118966025e-18 1 3.99613118966025e-18 3.99613118966025e-18 3.99613118966025e-18 7.629394531250001e-10 0.716744911956787 0.2832550857543946 7.629394531250001e-10 7.629394531250001e-10 0.2 0.2 0.2 0.2 0.2 5.268126569901718e-11 0.1340602950783054 5.268126569901718e-11 5.268126569901718e-11 0.8659397047636508 0.9999999999999996 1.10581305200842e-16 1.10581305200842e-16 1.10581305200842e-16 1.10581305200842e-16 5.7581449587455e-18 1 5.7581449587455e-18 5.7581449587455e-18 5.7581449587455e-18 0.006779417401305837 0.03025584515140134 0.9629647374472873 2.749264976259537e-15 2.749264976259537e-15 0.2 0.2 0.2 0.2 0.2 0.2 0.2 0.2 0.2 0.2 0.9999999999999684 7.883908773217754e-15 7.883908773217754e-15 7.883908773217754e-15 7.883908773217754e-15 2.977344683315544e-18 1 2.977344683315544e-18 2.977344683315544e-18 2.977344683315544e-18 3.046111471417084e-16 0.09317256138251621 0.9068274386174828 3.046111471417084e-16 3.046111471417084e-16 9.360141337235619e-11 9.360141337235619e-11 0.9999999996255945 9.360141337235619e-11 9.360141337235619e-11 2.306099406644442e-15 0.02512256286288976 0.04563631023654246 2.306099406644442e-15 0.9292411269005632 0.9999999999999897 2.673628123741591e-15 2.673628123741591e-15 2.673628123741591e-15 2.673628123741591e-15 6.459713319913785e-17 0.9743529928369514 0.02564700716304861 6.459713319913785e-17 6.459713319913785e-17 1.137806965569963e-05 0.001398238337689308 0.9985903835926551 1.496731568097261e-20 1.496731568097261e-20 1.771656860223637e-12 1.771656860223637e-12 0.9999999999929136 1.771656860223637e-12 1.771656860223637e-12 8.083848659212545e-17 0.01723487789188837 0.03508343869455603 8.083848659212545e-17 0.9476816834135555 0.2 0.2 0.2 0.2 0.2 6.107211548198587e-16 0.9999999999999974 6.107211548198587e-16 6.107211548198587e-16 6.107211548198587e-16 3.741830833995656e-16 0.01397343322571935 0.9860265667742795 3.741830833995656e-16 3.741830833995656e-16 2.245297224222917e-12 2.245297224222917e-12 0.8351623740130261 2.245297224222917e-12 0.164837625980238 1.002960897043999e-16 0.004401471394408481 0.005283354652132905 1.002960897043999e-16 0.9903151739534584 0.2 0.2 0.2 0.2 0.2 0.2 0.2 0.2 0.2 0.2 1.211093200980418e-10 1.211093200980418e-10 0.9999999995155627 1.211093200980418e-10 1.211093200980418e-10 0.2 0.2 0.2 0.2 0.2 0.2 0.2 0.2 0.2 0.2 0.2 0.2 0.2 0.2 0.2 0.2 0.2 0.2 0.2 0.2 1.27109739444201e-13 1.27109739444201e-13 0.9999999999994914 1.27109739444201e-13 1.27109739444201e-13 7.12367312694817e-13 7.12367312694817e-13 0.1147090270355871 0.8852909729622758 7.12367312694817e-13 0.2 0.2 0.2 0.2 0.2 0.2 0.2 0.2 0.2 0.2 0.2 0.2 0.2 0.2 0.2 0.2 0.2 0.2 0.2 0.2 4.253644981460958e-13 4.253644981460958e-13 4.253644981460958e-13 0.9999999999982986 4.253644981460958e-13 1.515820130512833e-13 1.515820130512833e-13 1.515820130512833e-13 1.515820130512833e-13 0.9999999999993937 0.2 0.2 0.2 0.2 0.2 0.2 0.2 0.2 0.2 0.2 1.622534933379933e-08 1.622534933379933e-08 0.9999999350986027 1.622534933379933e-08 1.622534933379933e-08 2.360871138679514e-17 2.360871138679514e-17 0.0008486507434278857 0.9991513492565721 2.360871138679514e-17 1.641205585182103e-15 1.641205585182103e-15 1.641205585182103e-15 1.641205585182103e-15 0.9999999999999934 0.2 0.2 0.2 0.2 0.2 0.2 0.2 0.2 0.2 0.2 0.2 0.2 0.2 0.2 0.2 1.827919168746535e-20 1.827919168746535e-20 1.827919168746535e-20 1 1.827919168746535e-20 3.327400176996467e-14 3.327400176996467e-14 3.327400176996467e-14 0.1432814476651544 0.8567185523347458</probabilities>
		</cpt>
	</dynamic>
	<extensions>
		<genie version="1.0" app="SMILE_ACADEMIC 1.5.0@a121f1f76773" name="emidas dbn v9" faultnameformat="user">
			<plate leftwidth="120" rightwidth="120">120 50 1164 561</plate>
			<node id="p1_imas">
				<name>p1_imas</name>
				<interior color="e5f6f7" />
				<outline color="000080" />
				<font color="000000" name="MS Sans Serif" size="8" />
				<position>491 462 547 497</position>
			</node>
			<node id="p2_imas">
				<name>p2_imas</name>
				<interior color="e5f6f7" />
				<outline color="000080" />
				<font color="000000" name="MS Sans Serif" size="8" />
				<position>651 472 707 507</position>
			</node>
			<node id="p1_wti">
				<name>p1_wti</name>
				<interior color="e5f6f7" />
				<outline color="000080" />
				<font color="000000" name="MS Sans Serif" size="8" />
				<position>487 311 571 363</position>
			</node>
			<node id="p2_wti">
				<name>p2_wti</name>
				<interior color="e5f6f7" />
				<outline color="000080" />
				<font color="000000" name="MS Sans Serif" size="8" />
				<position>650 301 734 353</position>
			</node>
			<node id="p1_approach">
				<name>p1_approach</name>
				<interior color="e5f6f7" />
				<outline color="000080" />
				<font color="000000" name="MS Sans Serif" size="8" />
				<position>268 135 344 182</position>
			</node>
			<node id="p2_head">
				<name>p2_head</name>
				<interior color="e5f6f7" />
				<outline color="000080" />
				<font color="000000" name="MS Sans Serif" size="8" />
				<position>676 84 733 119</position>
			</node>
			<node id="p1_body">
				<name>p1_body</name>
				<interior color="e5f6f7" />
				<outline color="000080" />
				<font color="000000" name="MS Sans Serif" size="8" />
				<position>404 76 461 111</position>
			</node>
			<node id="p2_approach">
				<name>p2_approach</name>
				<interior color="e5f6f7" />
				<outline color="000080" />
				<font color="000000" name="MS Sans Serif" size="8" />
				<position>924 160 1000 207</position>
			</node>
			<node id="p2_body">
				<name>p2_body</name>
				<interior color="e5f6f7" />
				<outline color="000080" />
				<font color="000000" name="MS Sans Serif" size="8" />
				<position>827 91 884 126</position>
			</node>
			<node id="dist">
				<name>dist</name>
				<interior color="e5f6f7" />
				<outline color="000080" />
				<font color="000000" name="MS Sans Serif" size="8" />
				<position>599 137 637 160</position>
			</node>
			<node id="p1_gesture">
				<name>p1_gesture</name>
				<interior color="e5f6f7" />
				<outline color="000080" />
				<font color="000000" name="MS Sans Serif" size="8" />
				<position>248 271 316 313</position>
			</node>
			<node id="p2_gesture">
				<name>p2_gesture</name>
				<interior color="e5f6f7" />
				<outline color="000080" />
				<font color="000000" name="MS Sans Serif" size="8" />
				<position>964 312 1032 354</position>
			</node>
			<node id="p1_head">
				<name>p1_head</name>
				<interior color="e5f6f7" />
				<outline color="000080" />
				<font color="000000" name="MS Sans Serif" size="8" />
				<position>528 80 585 115</position>
			</node>
		</genie>
	</extensions>
</smile>
