<?xml version="1.0" encoding="ISO-8859-1"?>
<!-- This file was created by ACADEMIC version of SMILE -->
<smile version="1.0" id="Network2" numsamples="10000" discsamples="10000">
	<nodes>
		<cpt id="p1_imas" target="true" dynamic="plate">
			<state id="very_high" />
			<state id="high" />
			<state id="medium" />
			<state id="low" />
			<state id="very_low" />
			<probabilities>0.02215368060160913 0.03472265668989852 0.07558277756228181 0.5141580850611244 0.3533828000850862</probabilities>
		</cpt>
		<cpt id="p2_imas" target="true" dynamic="plate">
			<state id="very_high" />
			<state id="high" />
			<state id="medium" />
			<state id="low" />
			<state id="very_low" />
			<probabilities>0.02302331110249127 0.036368072673582 0.07964313867791138 0.5095847045133197 0.3513807730326956</probabilities>
		</cpt>
		<cpt id="p1_wti" target="true" dynamic="plate">
			<state id="very_high" />
			<state id="high" />
			<state id="medium" />
			<state id="low" />
			<state id="very_low" />
			<parents>p1_imas</parents>
			<probabilities>0.9999999999999949 1.270678753282134e-15 1.270678753282134e-15 1.270678753282134e-15 1.270678753282134e-15 0.2565765765765766 0.743423423423423 2.10642056595791e-16 2.10642056595791e-16 2.10642056595791e-16 0.1383991391441106 0.8172336727092127 0.0443671881466766 9.385872926544568e-18 9.385872926544568e-18 0.03730743958531065 0.2210094667932151 0.5599157966464676 0.1817672969750067 4.384317863715091e-21 1.964705510780448e-20 1.964705510780448e-20 0.004656185822533815 0.1046668082996955 0.8906770058777707</probabilities>
		</cpt>
		<cpt id="p2_wti" target="true" dynamic="plate">
			<state id="very_high" />
			<state id="high" />
			<state id="medium" />
			<state id="very_low" />
			<state id="low" />
			<parents>p2_imas</parents>
			<probabilities>0.9999999999999956 1.08934821441552e-15 1.08934821441552e-15 1.08934821441552e-15 1.08934821441552e-15 0.2642353345948735 0.735764665405126 1.750370099484672e-16 1.750370099484672e-16 1.750370099484672e-16 0.1479968578161822 0.8026708562450903 0.04933228593872743 7.61342235726426e-18 7.61342235726426e-18 0.03442560557881425 0.2151968668279088 0.5667456507593522 4.543839528476312e-21 0.1836318768339247 2.00986525627362e-20 2.00986525627362e-20 0.004166369916672602 0.8893775372124493 0.1064560928708781</probabilities>
		</cpt>
		<cpt id="p1_approach" dynamic="plate">
			<state id="y" />
			<state id="m" />
			<state id="n" />
			<parents>p1_wti</parents>
			<probabilities>0.5716079987687437 0.2148157512862231 0.2135762499450332 0.4061208824881927 0.2177164233249207 0.3761626941868866 0.06656285783206285 0.1179791785988182 0.815457963569119 0.1632856865661988 0.1267990427527327 0.7099152706810685 0.0002034734270486722 0.005531764236696568 0.9942647623362548</probabilities>
		</cpt>
		<cpt id="p2_head" dynamic="plate">
			<state id="central" />
			<state id="mid_peripheral" />
			<state id="outside" />
			<parents>p2_wti</parents>
			<probabilities>1 1.116380165612583e-24 1.116380165612583e-24 0.999512762069679 0.0004715906818897008 1.564724843136335e-05 0.9989524195015425 0.0009614779917350036 8.610250672253762e-05 0.01462580848067167 0.2195165752781538 0.7658576162411745 0.3183167425470072 0.4245697970522417 0.2571134604007511</probabilities>
		</cpt>
		<cpt id="p1_body" dynamic="plate">
			<state id="strongly_facing" />
			<state id="slightly_facing" />
			<state id="turned_away" />
			<parents>p1_wti</parents>
			<probabilities>0.4538168945956642 0.4886246207290795 0.05755848467525614 0.2727434273457264 0.502061546022991 0.2251950266312825 0.01032803224319926 0.1935278738591238 0.7961440938976769 0.02859064743548283 0.8174943405989263 0.1539150119655908 0.001763436367755159 0.3778962746728486 0.6203402889593962</probabilities>
		</cpt>
		<cpt id="p2_approach" dynamic="plate">
			<state id="y" />
			<state id="m" />
			<state id="n" />
			<parents>p2_wti</parents>
			<probabilities>0.5865934711116102 0.2210652767086892 0.1923412521797007 0.4076116909285947 0.2281347089003288 0.3642536001710766 0.06841646094217246 0.118819348921545 0.8127641901362825 1.438755134133782e-26 0.004229396562333346 0.9957706034376667 0.1606296782159117 0.1323224528641613 0.707047868919927</probabilities>
		</cpt>
		<cpt id="p2_body" dynamic="plate">
			<state id="strongly_facing" />
			<state id="slightly_facing" />
			<state id="turned_away" />
			<parents>p2_wti</parents>
			<probabilities>0.4367856364996544 0.5027644489297315 0.06044991457061418 0.2713132909466759 0.5125447467840558 0.2161419622692683 0.0121096422567467 0.1950230218687705 0.7928673358744829 0.001829593469253805 0.4037366734581322 0.5944337330726139 0.03851634642590734 0.8054093680067906 0.156074285567302</probabilities>
		</cpt>
		<cpt id="dist" dynamic="plate">
			<state id="range_0_3" />
			<state id="range_3_6" />
			<state id="range_6_9" />
			<state id="range_9_12" />
			<state id="range_12_15" />
			<state id="range_15_18" />
			<state id="range_18_21" />
			<state id="range_21_24" />
			<state id="range_24_27" />
			<state id="range_27_30" />
			<state id="range_30_inf" />
			<parents>p1_wti p2_wti</parents>
			<probabilities>0.1111111111111111 0.1111111111111111 0.1111111111111111 0.1111111111111111 0.1111111111111111 0.1111111111111111 0.1111111111111111 0.1111111111111111 0.1111111111111111 0 0 0.03252266864691628 0.1484975507438964 0.2410172229604732 0.2975927590609448 0.2101784178847807 0.0557792021678522 0.01343508168529665 0.0009770968498397561 7.814480513329266e-25 0 0 1.397799361952998e-20 1.397799361952998e-20 1.397799361952998e-20 0.005650036725238713 0.8291805563402828 0.1651694069344784 1.397799361952998e-20 1.397799361952998e-20 1.397799361952998e-20 0 0 1.689000274109228e-17 1.689000274109228e-17 1.689000274109228e-17 1.689000274109228e-17 0.7760133259300388 0.2239866740699611 1.689000274109228e-17 1.689000274109228e-17 1.689000274109228e-17 0 0 1.573779600732481e-20 1.573779600732481e-20 1.573779600732481e-20 0.02211616808287743 0.4279284522562372 0.5434757304155512 0.006479649245334265 1.573779600732481e-20 1.573779600732481e-20 0 0 0.03331623076564281 0.1509620596423901 0.2429620789430934 0.2895443264778307 0.2123978067967426 0.05590609564463544 0.01391098193936684 0.001000419790297858 7.435706774930078e-25 0 0 0.01483252172111129 0.07774233655511315 0.162710735483489 0.2835933452731605 0.2097593286067406 0.207570195823034 0.04305146460235934 0.0007400719349920811 3.333127645681403e-26 0 0 0.004794606591013776 0.02320359281437126 0.0395712072358779 0.3889022653992714 0.1524590678782295 0.2061733177002638 0.1186089359742054 0.06513022905238473 0.001156777354382145 0 0 9.031028503345209e-21 9.031028503345209e-21 9.031028503345209e-21 0.8961738484398217 0.01317033635012833 0.007547615831419695 0.08310819937863027 9.031028503345209e-21 9.031028503345209e-21 0 0 2.229705256227002e-21 2.229705256227002e-21 0.002249517960437049 0.2397343426408627 0.02416148920469423 0.1999214454045562 0.05620224237663358 0.1590373491394701 0.213061486824252 0.09026637149182318 0.01536575495727106 1.455804352021469e-20 1.455804352021469e-20 1.455804352021469e-20 0.003424657534246576 0.7741057838660578 0.2224695585996956 1.455804352021469e-20 1.455804352021469e-20 1.455804352021469e-20 0 0 0.004478476007384024 0.02132191504003321 0.03616096298157271 0.3870659428284307 0.1559492730668822 0.2199805568602606 0.1244251712197839 0.05039923975138997 0.0002184622442626353 0 0 6.908257207904804e-27 6.908257207904804e-27 0.00496301581983139 0.1910843482989474 0.07936331183309006 0.0874477495152583 0.07323731544736801 0.08170924686896569 0.09986902112390161 0.3823259910926374 0 5.469349065416881e-21 5.469349065416881e-21 5.469349065416881e-21 0.003023758099352052 0.2802859909138303 0.4944067922842035 0.1928502271542415 0.02943323154837268 5.469349065416881e-21 0 0 1.364605117175813e-20 1.364605117175813e-20 1.364605117175813e-20 0.2340453413707246 0.3702004979688114 0.2116367448565063 0.08882939888050619 0.05030233820693786 0.00600932287474025 0.01085796656495123 0.02811838927682198 9.836812443708453e-21 9.836812443708453e-21 9.836812443708453e-21 0.0355861450355344 0.3788208100462292 0.5791589042986269 0.006434140619609467 9.836812443708453e-21 9.836812443708453e-21 0 0 2.052552768246904e-21 2.052552768246904e-21 2.052552768246904e-21 0.2557621684640047 0.0302069367531332 0.2001748761294083 0.04821917808219178 0.1683474205770912 0.2004430195278344 0.0846866802681434 0.01215972019819295 1.559813339992669e-20 1.559813339992669e-20 1.559813339992669e-20 0.2266119509881729 0.3805191537136332 0.2033255260254351 0.07510501151739224 0.06534910280482376 0.01060761502874509 0.01091732641644568 0.0275643135053522 1.360425865276814e-21 1.360425865276814e-21 1.360425865276814e-21 0.2205671968358159 0.05897079861987714 0.2678300934107549 0.2546074223680889 0.1319952873853404 0.06599764369267021 3.155768745266347e-05 0 1.305255916718993e-21 1.305255916718993e-21 1.305255916718993e-21 0.2539639573985196 0.08349557015397749 0.5202023882648121 0.09061663873070075 0.05172144545199005 1.305255916718993e-21 0 0 4.798115660081292e-17 4.798115660081292e-17 4.798115660081292e-17 4.798115660081292e-17 0.7202998846597461 0.2797001153402537 4.798115660081292e-17 4.798115660081292e-17 4.798115660081292e-17 0 0 5.658423575648417e-21 5.658423575648417e-21 0.0007511229287785238 0.8895699070109815 0.007165712740547119 0.004311445611188727 0.09820181170850421 5.658423575648417e-21 5.658423575648417e-21 0 0 4.40933964620798e-21 4.40933964620798e-21 4.40933964620798e-21 0.003867325335215243 0.2586167960479887 0.4986450247000706 0.2300917431192661 0.008779110797459421 4.40933964620798e-21 0 0 7.475344535882056e-27 7.475344535882056e-27 7.475344535882056e-27 0.279348327630937 0.3300791137467647 0.1369573343953813 0.06451279397729159 0.05155533327697145 0.09488149235396755 0.04266560461868641 0 9.594508968520931e-22 9.594508968520931e-22 9.594508968520931e-22 0.2079220328526259 0.06840441119765558 0.2743984730469654 0.2470791239299761 0.1332420760391764 0.06817305467725766 0.0007808282563430245 0</probabilities>
		</cpt>
		<cpt id="p1_gesture" dynamic="plate">
			<state id="wave_slow_shoulder" />
			<state id="wave_fast_shoulder" />
			<state id="wave_small_head" />
			<state id="wave_wide_head" />
			<state id="arm_raise_high" />
			<state id="arm_raise_low" />
			<state id="come_here" />
			<state id="i_am_coming" />
			<state id="None" />
			<parents>p1_wti</parents>
			<probabilities>0.02344746273250956 3.962022640983864e-25 0.02626313706521261 0.09027747240666638 0.02082004968998725 3.962022640983864e-25 0.01142210105096522 0.01064294666021723 0.8171268303944417 3.920837755049083e-27 0.02388212108879449 0.06513514579484052 0.003036516648181449 0.146210920451152 0.07446660503482719 0.03341685271073906 3.920837719761543e-27 0.6538518382714653 3.589015538430798e-27 3.589015506129659e-27 3.589015506129659e-27 3.589015506129659e-27 0.01727598891481048 0.01977978000044938 3.589015506129659e-27 3.589015506129659e-27 0.9629442310847401 4.977859568053842e-24 4.977859523253105e-24 0.01477265377401203 4.977859523253105e-24 4.977859523253105e-24 4.977859523253105e-24 4.977859523253105e-24 4.977859523253105e-24 0.9852273462259881 4.644483763147511e-27 4.644483721347156e-27 4.644483721347156e-27 4.644483721347156e-27 4.644483721347156e-27 4.644483721347156e-27 4.644483721347156e-27 4.644483721347156e-27 1</probabilities>
		</cpt>
		<cpt id="p2_gesture" dynamic="plate">
			<state id="wave_slow_shoulder" />
			<state id="wave_fast_shoulder" />
			<state id="wave_small_head" />
			<state id="wave_wide_head" />
			<state id="arm_raise_high" />
			<state id="arm_raise_low" />
			<state id="come_here" />
			<state id="i_am_coming" />
			<state id="None" />
			<parents>p2_wti</parents>
			<probabilities>0.02056392864245063 3.721267218708609e-25 0.03728184392193255 0.09223126945497 0.02039347571113369 3.721267218708609e-25 0.01415976850868566 0.01133647273361859 0.8040332410272089 3.965506299127612e-27 0.02465006667466415 0.06849235284197497 0.002653512546485367 0.1394474087287306 0.076137772283855 0.03334689428197385 3.965506299127612e-27 0.6552719926423161 3.526137708434315e-27 3.526137708434315e-27 3.526137708434315e-27 3.526137708434315e-27 0.01897631716786908 0.02091953256468556 3.526137708434315e-27 3.526137708434315e-27 0.9601041502674453 4.795850447112608e-27 4.795850447112608e-27 4.795850447112608e-27 4.795850447112608e-27 4.795850447112608e-27 4.795850447112608e-27 4.795850447112608e-27 4.795850447112608e-27 1 4.863870953080688e-24 4.863870953080688e-24 0.01650590323327417 4.863870953080688e-24 4.863870953080688e-24 4.863870953080688e-24 4.863870953080688e-24 4.863870953080688e-24 0.9834940967667258</probabilities>
		</cpt>
		<cpt id="p1_head" dynamic="plate">
			<state id="central" />
			<state id="mid_peripheral" />
			<state id="outside" />
			<parents>p1_wti</parents>
			<probabilities>1 1.188606804181227e-24 1.188606804181227e-24 0.9995189075821466 0.0004269153437708717 5.417707408259793e-05 0.9989812715918067 0.0008928181554953468 0.0001259102526980617 0.3117418019533019 0.4237449065390337 0.2645132915076644 0.01536993051608548 0.2022349521227026 0.7823951173612119</probabilities>
		</cpt>
	</nodes>
	<dynamic numslices="50">
		<cpt id="p1_imas" order="1">
			<parents>p1_imas</parents>
			<probabilities>1 1.348443705364101e-23 1.348443705364101e-23 1.348443705364101e-23 1.348443705364101e-23 0.00155090898300726 0.9984490910169928 3.062721831635218e-24 3.062721831635218e-24 3.062721831635218e-24 0.006406891157847371 0.009639417226976289 0.9816823522749363 0.002271339340240205 1.097538656087334e-24 0.0005312173994887895 0.000946631377011099 0.003015816776318545 0.9949384048990269 0.0005679295481547588 7.590778467538689e-27 7.590778467538689e-27 7.590778467538689e-27 0.007497308675400432 0.9925026913245996</probabilities>
		</cpt>
		<cpt id="p2_imas" order="1">
			<parents>p2_imas</parents>
			<probabilities>1 1.196241587932989e-23 1.196241587932989e-23 1.196241587932989e-23 1.196241587932989e-23 0.001507118443361951 0.9984928815566381 2.731190188825761e-24 2.731190188825761e-24 2.731190188825761e-24 0.006335626656497837 0.009262561002056567 0.9822695603194449 0.002132252022000766 8.974930789638545e-25 0.0005347481806368902 0.0009423412564317839 0.003130852307479457 0.9948077917463148 0.0005842665091370025 7.852448146603452e-27 7.852448146603452e-27 7.852448146603452e-27 0.007561546905450172 0.9924384530945499</probabilities>
		</cpt>
		<cpt id="p1_wti" order="1">
			<parents>p2_imas p1_wti</parents>
			<probabilities>0.2 0.2 0.2 0.2 0.2 0.2 0.2 0.2 0.2 0.2 0.2 0.2 0.2 0.2 0.2 0.2 0.2 0.2 0.2 0.2 0.2 0.2 0.2 0.2 0.2 0.2 0.2 0.2 0.2 0.2 0.2 0.2 0.2 0.2 0.2 0.2 0.2 0.2 0.2 0.2 0.2 0.2 0.2 0.2 0.2 0.2 0.2 0.2 0.2 0.2 0.2 0.2 0.2 0.2 0.2 0.2 0.2 0.2 0.2 0.2 0.2 0.2 0.2 0.2 0.2 0.2 0.2 0.2 0.2 0.2 0.2 0.2 0.2 0.2 0.2 1 1.343232245435355e-23 1.343232245435355e-23 1.343232245435355e-23 1.343232245435355e-23 0.9999999999999826 4.329780408441388e-15 4.329780408441388e-15 4.329780408441388e-15 4.329780408441388e-15 0.9999999999999175 2.060872654959998e-14 2.060872654959998e-14 2.060872654959998e-14 2.060872654959998e-14 0.9999999999664633 8.384164566445285e-12 8.384164566445285e-12 8.384164566445285e-12 8.384164566445285e-12 0.2 0.2 0.2 0.2 0.2 0.9999999999999482 1.290812981521603e-14 1.290812981521603e-14 1.290812981521603e-14 1.290812981521603e-14 0.9999997865582951 5.336042620039612e-08 5.336042620039612e-08 5.336042620039612e-08 5.336042620039612e-08 0.2 0.2 0.2 0.2 0.2 0.2 0.2 0.2 0.2 0.2 0.2 0.2 0.2 0.2 0.2 0.2 0.2 0.2 0.2 0.2 0.2 0.2 0.2 0.2 0.2 0.2 0.2 0.2 0.2 0.2 0.2 0.2 0.2 0.2 0.2 0.2 0.2 0.2 0.2 0.2 0.2 0.2 0.2 0.2 0.2 0.2 0.2 0.2 0.2 0.2 0.2 0.2 0.2 0.2 0.2 0.2 0.2 0.2 0.2 0.2 0.2 0.2 0.2 0.2 0.2 0.2 0.2 0.2 0.2 0.2 2.505348913235219e-19 1 2.505348913235219e-19 2.505348913235219e-19 2.505348913235219e-19 3.441153353306126e-12 0.9999999999862353 3.441153353306126e-12 3.441153353306126e-12 3.441153353306126e-12 0.2 0.2 0.2 0.2 0.2 0.2 0.2 0.2 0.2 0.2 1 1.858380733617621e-21 1.858380733617621e-21 1.858380733617621e-21 1.858380733617621e-21 0.003140841966056866 0.9968591580339432 1.152365226124488e-23 1.152365226124488e-23 1.152365226124488e-23 0.2190390928081168 0.7809609071918783 1.584214397307732e-15 1.584214397307732e-15 1.584214397307732e-15 6.028163580246915e-11 0.9999999997588735 6.028163580246915e-11 6.028163580246915e-11 6.028163580246915e-11 0.2 0.2 0.2 0.2 0.2 1 3.636431613184016e-18 3.636431613184016e-18 3.636431613184016e-18 3.636431613184016e-18 0.2 0.2 0.2 0.2 0.2 0.9999999999977475 5.63067932433961e-13 5.63067932433961e-13 5.63067932433961e-13 5.63067932433961e-13 0.2 0.2 0.2 0.2 0.2 0.2 0.2 0.2 0.2 0.2 0.2 0.2 0.2 0.2 0.2 0.2 0.2 0.2 0.2 0.2 0.2 0.2 0.2 0.2 0.2 0.2 0.2 0.2 0.2 0.2 0.2 0.2 0.2 0.2 0.2 0.2 0.2 0.2 0.2 0.2 3.086527785764281e-19 1 3.086527785764281e-19 3.086527785764281e-19 3.086527785764281e-19 0.2 0.2 0.2 0.2 0.2 0.2 0.2 0.2 0.2 0.2 0.2 0.2 0.2 0.2 0.2 0.2 0.2 0.2 0.2 0.2 1.523715063550109e-20 1 1.523715063550109e-20 1.523715063550109e-20 1.523715063550109e-20 3.708111906451406e-11 0.7074074073133311 0.2925925925754254 3.708111906451406e-11 3.708111906451406e-11 8.645130781377174e-08 8.645130781377174e-08 0.9999996541947689 8.645130781377174e-08 8.645130781377174e-08 0.2 0.2 0.2 0.2 0.2 1 6.670457729488588e-20 6.670457729488588e-20 6.670457729488588e-20 6.670457729488588e-20 4.227733194121347e-24 1 4.227733194121347e-24 4.227733194121347e-24 4.227733194121347e-24 0.003550168543355089 0.1336512945564082 0.8627985369002367 3.306913301027536e-19 3.306913301027536e-19 0.120451693851945 0.4565035549979083 0.4230447511501459 3.821452556557889e-16 3.821452556557889e-16 0.2 0.2 0.2 0.2 0.2 0.999999999999992 1.924129603800432e-15 1.924129603800432e-15 1.924129603800432e-15 1.924129603800432e-15 1.850729570450487e-18 1 1.850729570450487e-18 1.850729570450487e-18 1.850729570450487e-18 0.2909090909090655 0.709090909090767 5.57899869811814e-14 5.57899869811814e-14 5.57899869811814e-14 4.94680820293146e-14 0.9999999999998018 4.94680820293146e-14 4.94680820293146e-14 4.94680820293146e-14 0.2 0.2 0.2 0.2 0.2 0.2 0.2 0.2 0.2 0.2 1.26241827008583e-23 1 1.26241827008583e-23 1.26241827008583e-23 1.26241827008583e-23 3.539595267399631e-13 0.7274826789829003 0.272517321016038 3.539595267399631e-13 3.539595267399631e-13 1.17310039552189e-14 0.1378631216149716 1.17310039552189e-14 0.8621368783849931 1.17310039552189e-14 0.2 0.2 0.2 0.2 0.2 1 7.244440492182131e-22 7.244440492182131e-22 7.244440492182131e-22 7.244440492182131e-22 2.069043080539762e-23 1 2.069043080539762e-23 2.069043080539762e-23 2.069043080539762e-23 0.008265176822946665 0.03294551318972469 0.9587893099873287 1.37550121398946e-19 1.37550121398946e-19 5.99481280837317e-09 5.99481280837317e-09 0.9999999760207489 5.99481280837317e-09 5.99481280837317e-09 0.2 0.2 0.2 0.2 0.2 1 2.391362435778045e-19 2.391362435778045e-19 2.391362435778045e-19 2.391362435778045e-19 6.492970284695131e-24 1 6.492970284695131e-24 6.492970284695131e-24 6.492970284695131e-24 4.657143972459441e-21 0.09285864288273153 0.9071413571172685 4.657143972459441e-21 4.657143972459441e-21 4.79749359644265e-20 0.0236361624432887 0.04554608830364059 0.9308177492530708 4.79749359644265e-20 5.811945930847441e-14 5.811945930847441e-14 0.9999999999997676 5.811945930847441e-14 5.811945930847441e-14 1 1.091600249415342e-19 1.091600249415342e-19 1.091600249415342e-19 1.091600249415342e-19 5.103619633219346e-22 0.9737592130606907 0.0262407869393093 5.103619633219346e-22 5.103619633219346e-22 1.081011133687907e-26 0.001813923818092661 0.9981860761819074 1.081011133687907e-26 1.081011133687907e-26 5.905561020536594e-22 0.01696939317096184 0.03480863360264198 0.9482219732263962 5.905561020536594e-22 4.860002227241909e-16 4.860002227241909e-16 0.9999999999999982 4.860002227241909e-16 4.860002227241909e-16 0.2 0.2 0.2 0.2 0.2 2.023376907928044e-20 1 2.023376907928044e-20 2.023376907928044e-20 2.023376907928044e-20 6.020120690078841e-21 0.01168350478799774 0.9883164952120024 6.020120690078841e-21 6.020120690078841e-21 1.070480540251019e-21 0.004678732722047351 0.005217599562063775 0.9901036677158889 1.070480540251019e-21 5.207051915930121e-16 5.207051915930121e-16 0.839810212381381 0.1601897876186173 5.207051915930121e-16 0.2 0.2 0.2 0.2 0.2 0.2 0.2 0.2 0.2 0.2 1.496505936218035e-14 1.496505936218035e-14 0.99999999999994 1.496505936218035e-14 1.496505936218035e-14 0.2 0.2 0.2 0.2 0.2 0.2 0.2 0.2 0.2 0.2 0.2 0.2 0.2 0.2 0.2 0.2 0.2 0.2 0.2 0.2 1.854954492841557e-17 1.854954492841557e-17 1 1.854954492841557e-17 1.854954492841557e-17 5.120000000000001e-11 5.120000000000001e-11 5.120000000000001e-11 0.9999999997951999 5.120000000000001e-11 6.834517743116322e-16 6.834517743116322e-16 0.177025392986699 6.834517743116322e-16 0.8229746070132989 0.2 0.2 0.2 0.2 0.2 0.2 0.2 0.2 0.2 0.2 0.2 0.2 0.2 0.2 0.2 1.163205205348165e-17 1.163205205348165e-17 1.163205205348165e-17 1 1.163205205348165e-17 4.717926098228614e-17 4.717926098228614e-17 4.717926098228614e-17 4.717926098228614e-17 0.9999999999999998 0.2 0.2 0.2 0.2 0.2 0.2 0.2 0.2 0.2 0.2 0.2 0.2 0.2 0.2 0.2 2.935529066365074e-20 2.935529066365074e-20 2.935529066365074e-20 1 2.935529066365074e-20 9.735721643345384e-23 9.735721643345384e-23 0.0002301614888160305 9.735721643345384e-23 0.999769838511184 0.2 0.2 0.2 0.2 0.2 0.2 0.2 0.2 0.2 0.2 0.2 0.2 0.2 0.2 0.2 2.842271826112078e-18 2.842271826112078e-18 2.842271826112078e-18 0.8584673953088542 0.1415326046911458 1.427610027547149e-26 1.427610027547149e-26 1.427610027547149e-26 1.427610027547149e-26 1</probabilities>
		</cpt>
		<cpt id="p2_wti" order="1">
			<parents>p1_imas p2_wti</parents>
			<probabilities>0.2 0.2 0.2 0.2 0.2 0.2 0.2 0.2 0.2 0.2 0.2 0.2 0.2 0.2 0.2 0.2 0.2 0.2 0.2 0.2 0.2 0.2 0.2 0.2 0.2 0.2 0.2 0.2 0.2 0.2 0.2 0.2 0.2 0.2 0.2 0.2 0.2 0.2 0.2 0.2 0.2 0.2 0.2 0.2 0.2 0.2 0.2 0.2 0.2 0.2 0.2 0.2 0.2 0.2 0.2 0.2 0.2 0.2 0.2 0.2 0.2 0.2 0.2 0.2 0.2 0.2 0.2 0.2 0.2 0.2 0.2 0.2 0.2 0.2 0.2 1 1.203186252168837e-23 1.203186252168837e-23 1.203186252168837e-23 1.203186252168837e-23 0.9999999999999843 3.941265579718562e-15 3.941265579718562e-15 3.941265579718562e-15 3.941265579718562e-15 0.9999999999999175 2.060872654959998e-14 2.060872654959998e-14 2.060872654959998e-14 2.060872654959998e-14 0.2 0.2 0.2 0.2 0.2 0.9999999999639636 9.009086918943382e-12 9.009086918943382e-12 9.009086918943382e-12 9.009086918943382e-12 0.9999999999999902 2.502333801306997e-15 2.502333801306997e-15 2.502333801306997e-15 2.502333801306997e-15 0.2 0.2 0.2 0.2 0.2 0.2 0.2 0.2 0.2 0.2 0.2 0.2 0.2 0.2 0.2 0.2 0.2 0.2 0.2 0.2 0.2 0.2 0.2 0.2 0.2 0.2 0.2 0.2 0.2 0.2 0.2 0.2 0.2 0.2 0.2 0.2 0.2 0.2 0.2 0.2 0.2 0.2 0.2 0.2 0.2 0.2 0.2 0.2 0.2 0.2 0.2 0.2 0.2 0.2 0.2 0.2 0.2 0.2 0.2 0.2 0.2 0.2 0.2 0.2 0.2 0.2 0.2 0.2 0.2 0.2 0.2 0.2 0.2 0.2 0.2 3.086527785764281e-19 1 3.086527785764281e-19 3.086527785764281e-19 3.086527785764281e-19 3.441153353306126e-12 0.9999999999862353 3.441153353306126e-12 3.441153353306126e-12 3.441153353306126e-12 0.2 0.2 0.2 0.2 0.2 0.2 0.2 0.2 0.2 0.2 1 1.462461812536581e-21 1.462461812536581e-21 1.462461812536581e-21 1.462461812536581e-21 0.002961175696424654 0.9970388243035754 1.023980226846468e-23 1.023980226846468e-23 1.023980226846468e-23 0.2173784104389085 0.782621589561087 1.545128598606704e-15 1.545128598606704e-15 1.545128598606704e-15 0.2 0.2 0.2 0.2 0.2 2.23277819966184e-10 0.9999999991068886 2.23277819966184e-10 2.23277819966184e-10 2.23277819966184e-10 1 5.16030649447086e-18 5.16030649447086e-18 5.16030649447086e-18 5.16030649447086e-18 1.231280867673822e-11 0.9999999999507491 1.231280867673822e-11 1.231280867673822e-11 1.231280867673822e-11 0.9999999999977126 5.719059784066208e-13 5.719059784066208e-13 5.719059784066208e-13 5.719059784066208e-13 0.2 0.2 0.2 0.2 0.2 2.469135802469136e-07 0.9999990123456792 2.469135802469136e-07 2.469135802469136e-07 2.469135802469136e-07 0.2 0.2 0.2 0.2 0.2 0.2 0.2 0.2 0.2 0.2 0.2 0.2 0.2 0.2 0.2 0.2 0.2 0.2 0.2 0.2 0.2 0.2 0.2 0.2 0.2 0.2 0.2 0.2 0.2 0.2 2.505348913235219e-19 1 2.505348913235219e-19 2.505348913235219e-19 2.505348913235219e-19 0.2 0.2 0.2 0.2 0.2 0.2 0.2 0.2 0.2 0.2 0.2 0.2 0.2 0.2 0.2 0.9999996875000001 7.812499999999999e-08 7.812499999999999e-08 7.812499999999999e-08 7.812499999999999e-08 1.523715063550109e-20 1 1.523715063550109e-20 1.523715063550109e-20 1.523715063550109e-20 4.513892082467539e-11 0.9999999998194441 4.513892082467539e-11 4.513892082467539e-11 4.513892082467539e-11 0.2 0.2 0.2 0.2 0.2 3.200000000000001e-08 0.9999998720000002 3.200000000000001e-08 3.200000000000001e-08 3.200000000000001e-08 1 3.234535074527853e-20 3.234535074527853e-20 3.234535074527853e-20 3.234535074527853e-20 3.618143156439583e-24 1 3.618143156439583e-24 3.618143156439583e-24 3.618143156439583e-24 0.004887585532746823 0.1093873175038628 0.8857250969633904 1.977087581589235e-19 1.977087581589235e-19 0.2 0.2 0.2 0.2 0.2 0.105101649405447 0.5078634445723048 0.3870349060222475 2.704037714439351e-16 2.704037714439351e-16 0.9999999999999853 3.600637559923856e-15 3.600637559923856e-15 3.600637559923856e-15 3.600637559923856e-15 1.283810219718929e-18 1 1.283810219718929e-18 1.283810219718929e-18 1.283810219718929e-18 0.2711246200607806 0.7288753799391379 2.724649686761759e-14 2.724649686761759e-14 2.724649686761759e-14 0.2 0.2 0.2 0.2 0.2 1.226637455358752e-13 0.9999999999995091 1.226637455358752e-13 1.226637455358752e-13 1.226637455358752e-13 0.2 0.2 0.2 0.2 0.2 1.401374187654531e-23 1 1.401374187654531e-23 1.401374187654531e-23 1.401374187654531e-23 1.302364839357697e-12 0.673599999996916 0.3263999999991769 1.302364839357697e-12 1.302364839357697e-12 0.2 0.2 0.2 0.2 0.2 2.659430626521521e-14 0.1335347432024258 2.659430626521521e-14 2.659430626521521e-14 0.8664652567974944 1 1.111119496247643e-21 1.111119496247643e-21 1.111119496247643e-21 1.111119496247643e-21 2.27520533257263e-23 1 2.27520533257263e-23 2.27520533257263e-23 2.27520533257263e-23 0.007411481248690552 0.02941022417766604 0.9631782945736433 9.40716617769432e-20 9.40716617769432e-20 0.2 0.2 0.2 0.2 0.2 0.2 0.2 0.2 0.2 0.2 1 4.212236670934434e-19 4.212236670934434e-19 4.212236670934434e-19 4.212236670934434e-19 8.466157002702676e-24 1 8.466157002702676e-24 8.466157002702676e-24 8.466157002702676e-24 4.411308747585929e-21 0.09409427707906796 0.905905722920932 4.411308747585929e-21 4.411308747585929e-21 9.549210926521405e-14 9.549210926521405e-14 0.9999999999996182 9.549210926521405e-14 9.549210926521405e-14 5.261033860668726e-20 0.02525195334616692 0.04520439361340731 5.261033860668726e-20 0.9295436530404257 1 6.751213934856568e-20 6.751213934856568e-20 6.751213934856568e-20 6.751213934856568e-20 5.389173861108149e-22 0.9733707986598941 0.02662920134010591 5.389173861108149e-22 5.389173861108149e-22 1.302697742280068e-05 0.001587843803645817 0.9983991292189314 1.083798991945033e-26 1.083798991945033e-26 4.609432426544792e-16 4.609432426544792e-16 0.9999999999999982 4.609432426544792e-16 4.609432426544792e-16 6.235452949215553e-22 0.01741827012889968 0.03513543807210909 6.235452949215553e-22 0.9474462917989912 0.2 0.2 0.2 0.2 0.2 1.233966842117045e-20 1 1.233966842117045e-20 1.233966842117045e-20 1.233966842117045e-20 4.797334407662784e-21 0.01411272758951128 0.9858872724104888 4.797334407662784e-21 4.797334407662784e-21 5.027535208739179e-16 5.027535208739179e-16 0.8351623740201553 5.027535208739179e-16 0.1648376259798433 8.762715674203561e-22 0.004507289768289508 0.005410374902369174 8.762715674203561e-22 0.9900823353293413 0.2 0.2 0.2 0.2 0.2 0.2 0.2 0.2 0.2 0.2 1.560498960946786e-13 1.560498960946786e-13 0.9999999999993761 1.560498960946786e-13 1.560498960946786e-13 0.2 0.2 0.2 0.2 0.2 0.2 0.2 0.2 0.2 0.2 0.2 0.2 0.2 0.2 0.2 0.2 0.2 0.2 0.2 0.2 2.256346897333482e-17 2.256346897333482e-17 1 2.256346897333482e-17 2.256346897333482e-17 1.881419160867233e-16 1.881419160867233e-16 0.1115782098441059 0.8884217901558936 1.881419160867233e-16 0.2 0.2 0.2 0.2 0.2 0.2 0.2 0.2 0.2 0.2 0.2 0.2 0.2 0.2 0.2 0.2 0.2 0.2 0.2 0.2 7.136072178399793e-17 7.136072178399793e-17 7.136072178399793e-17 0.9999999999999997 7.136072178399793e-17 1.374504168436155e-17 1.374504168436155e-17 1.374504168436155e-17 1.374504168436155e-17 1 0.2 0.2 0.2 0.2 0.2 0.2 0.2 0.2 0.2 0.2 1.327899144222184e-10 1.327899144222184e-10 0.9999999994688402 1.327899144222184e-10 1.327899144222184e-10 1.342477172926624e-22 1.342477172926624e-22 0.0007482363001496473 0.9992517636998502 1.342477172926624e-22 3.310350528827509e-20 3.310350528827509e-20 3.310350528827509e-20 3.310350528827509e-20 1 0.2 0.2 0.2 0.2 0.2 0.2 0.2 0.2 0.2 0.2 0.2 0.2 0.2 0.2 0.2 1.432615153552269e-26 1.432615153552269e-26 1.432615153552269e-26 1 1.432615153552269e-26 1.937284208118225e-18 1.937284208118225e-18 1.937284208118225e-18 0.1309975451908056 0.8690024548091944</probabilities>
		</cpt>
	</dynamic>
	<extensions>
		<genie version="1.0" app="SMILE_ACADEMIC 1.5.0@a121f1f76773" name="emidas dbn v9" faultnameformat="user">
			<plate leftwidth="120" rightwidth="120">120 50 1164 561</plate>
			<node id="p1_imas">
				<name>p1_imas</name>
				<interior color="e5f6f7" />
				<outline color="000080" />
				<font color="000000" name="MS Sans Serif" size="8" />
				<position>491 462 547 497</position>
			</node>
			<node id="p2_imas">
				<name>p2_imas</name>
				<interior color="e5f6f7" />
				<outline color="000080" />
				<font color="000000" name="MS Sans Serif" size="8" />
				<position>651 472 707 507</position>
			</node>
			<node id="p1_wti">
				<name>p1_wti</name>
				<interior color="e5f6f7" />
				<outline color="000080" />
				<font color="000000" name="MS Sans Serif" size="8" />
				<position>487 311 571 363</position>
			</node>
			<node id="p2_wti">
				<name>p2_wti</name>
				<interior color="e5f6f7" />
				<outline color="000080" />
				<font color="000000" name="MS Sans Serif" size="8" />
				<position>650 301 734 353</position>
			</node>
			<node id="p1_approach">
				<name>p1_approach</name>
				<interior color="e5f6f7" />
				<outline color="000080" />
				<font color="000000" name="MS Sans Serif" size="8" />
				<position>268 135 344 182</position>
			</node>
			<node id="p2_head">
				<name>p2_head</name>
				<interior color="e5f6f7" />
				<outline color="000080" />
				<font color="000000" name="MS Sans Serif" size="8" />
				<position>676 84 733 119</position>
			</node>
			<node id="p1_body">
				<name>p1_body</name>
				<interior color="e5f6f7" />
				<outline color="000080" />
				<font color="000000" name="MS Sans Serif" size="8" />
				<position>404 76 461 111</position>
			</node>
			<node id="p2_approach">
				<name>p2_approach</name>
				<interior color="e5f6f7" />
				<outline color="000080" />
				<font color="000000" name="MS Sans Serif" size="8" />
				<position>924 160 1000 207</position>
			</node>
			<node id="p2_body">
				<name>p2_body</name>
				<interior color="e5f6f7" />
				<outline color="000080" />
				<font color="000000" name="MS Sans Serif" size="8" />
				<position>827 91 884 126</position>
			</node>
			<node id="dist">
				<name>dist</name>
				<interior color="e5f6f7" />
				<outline color="000080" />
				<font color="000000" name="MS Sans Serif" size="8" />
				<position>599 137 637 160</position>
			</node>
			<node id="p1_gesture">
				<name>p1_gesture</name>
				<interior color="e5f6f7" />
				<outline color="000080" />
				<font color="000000" name="MS Sans Serif" size="8" />
				<position>248 271 316 313</position>
			</node>
			<node id="p2_gesture">
				<name>p2_gesture</name>
				<interior color="e5f6f7" />
				<outline color="000080" />
				<font color="000000" name="MS Sans Serif" size="8" />
				<position>964 312 1032 354</position>
			</node>
			<node id="p1_head">
				<name>p1_head</name>
				<interior color="e5f6f7" />
				<outline color="000080" />
				<font color="000000" name="MS Sans Serif" size="8" />
				<position>528 80 585 115</position>
			</node>
		</genie>
	</extensions>
</smile>
