<?xml version="1.0" encoding="ISO-8859-1"?>
<!-- This file was created by ACADEMIC version of SMILE -->
<smile version="1.0" id="Network2" numsamples="10000" discsamples="10000">
	<nodes>
		<cpt id="p1_imas" target="true" dynamic="plate">
			<state id="very_high" />
			<state id="high" />
			<state id="medium" />
			<state id="low" />
			<state id="very_low" />
			<probabilities>0.04443502640672884 0.06362764183720043 0.08498588846766457 0.5073771178941682 0.299574325394238</probabilities>
		</cpt>
		<cpt id="p2_imas" target="true" dynamic="plate">
			<state id="very_high" />
			<state id="high" />
			<state id="medium" />
			<state id="low" />
			<state id="very_low" />
			<probabilities>0.0456412596987677 0.0654486349537533 0.08797585670507364 0.502822306467087 0.2981119421753183</probabilities>
		</cpt>
		<cpt id="p1_wti" target="true" dynamic="plate">
			<state id="very_high" />
			<state id="high" />
			<state id="medium" />
			<state id="low" />
			<state id="very_low" />
			<parents>p1_imas</parents>
			<probabilities>0.9999999999990788 2.302034134218476e-13 2.302034134218476e-13 2.302034134218476e-13 2.302034134218476e-13 0.227199531547347 0.7728004684524178 7.841367180815577e-14 7.841367180815577e-14 7.841367180815577e-14 0.09162647961422213 0.8786716352475867 0.02970188513812535 3.290885575745391e-14 3.290885575745391e-14 0.04797003937839065 0.3167344391103604 0.498086155145351 0.1372093663658978 1.546749716748997e-16 7.51433601006641e-16 7.51433601006641e-16 0.004088676077359109 0.09190970710776733 0.9040016168148721</probabilities>
		</cpt>
		<cpt id="p2_wti" target="true" dynamic="plate">
			<state id="very_high" />
			<state id="high" />
			<state id="medium" />
			<state id="very_low" />
			<state id="low" />
			<parents>p2_imas</parents>
			<probabilities>0.99999999999915 2.1243145713401e-13 2.1243145713401e-13 2.1243145713401e-13 2.1243145713401e-13 0.2288479328257207 0.7711520671740629 7.204936342482385e-14 7.204936342482385e-14 7.204936342482385e-14 0.0997353096876803 0.8670195870830139 0.03324510322924654 2.966642072929867e-14 2.966642072929867e-14 0.04597786319640637 0.3114805724077246 0.503941092020562 1.589164887540654e-16 0.1386004723753069 7.625461976587931e-16 7.625461976587931e-16 0.00374941415403918 0.9028433057334765 0.09340728011248282</probabilities>
		</cpt>
		<cpt id="p1_approach" dynamic="plate">
			<state id="y" />
			<state id="m" />
			<state id="n" />
			<parents>p1_wti</parents>
			<probabilities>0.5845616738262298 0.1965019723336925 0.2189363538400776 0.4016677449053224 0.1997421558137799 0.3985900992808977 0.08506541284568311 0.1308400480950415 0.7840945390592754 0.1224350864851679 0.08761409858571652 0.7899508149291156 0.0001591326211264486 0.004349624977456214 0.9954912424014173</probabilities>
		</cpt>
		<cpt id="p2_head" dynamic="plate">
			<state id="central" />
			<state id="mid_peripheral" />
			<state id="outside" />
			<parents>p2_wti</parents>
			<probabilities>1 3.689232605370175e-17 3.689232605370175e-17 0.9985789376700198 0.001364844479563251 5.621785041679415e-05 0.9961142374839287 0.003520969348432912 0.0003647931676385563 0.01170666443682582 0.2355316836069336 0.7527616519562406 0.2416596611393527 0.4471877274445529 0.3111526114160945</probabilities>
		</cpt>
		<cpt id="p1_body" dynamic="plate">
			<state id="strongly_facing" />
			<state id="slightly_facing" />
			<state id="turned_away" />
			<parents>p1_wti</parents>
			<probabilities>0.4688498052046204 0.4763783174945267 0.05477187730085284 0.3039606608773545 0.4863224389758392 0.2097169001468063 0.01456131220501409 0.2266981318306624 0.7587405559643235 0.03394734304175914 0.7749967380143299 0.1910559189439109 0.003787356382809435 0.3865066146126182 0.6097060290045724</probabilities>
		</cpt>
		<cpt id="p2_approach" dynamic="plate">
			<state id="y" />
			<state id="m" />
			<state id="n" />
			<parents>p2_wti</parents>
			<probabilities>0.5935980103611022 0.201638187239232 0.2047638023996659 0.40130175555854 0.2093068651365001 0.38939137930496 0.08562446689233773 0.1305977422164046 0.7837777908912577 1.877146879501476e-18 0.003326969984325881 0.996673030015674 0.1224378106645754 0.09129941717774108 0.7862627721576835</probabilities>
		</cpt>
		<cpt id="p2_body" dynamic="plate">
			<state id="strongly_facing" />
			<state id="slightly_facing" />
			<state id="turned_away" />
			<parents>p2_wti</parents>
			<probabilities>0.4525660292204207 0.4892668007816439 0.05816716999793549 0.3020866192146366 0.4951886889684962 0.2027246918168672 0.01685559018706379 0.2266080851756282 0.7565363246373079 0.003844696329480336 0.409350742697123 0.5868045609733967 0.04224191919476875 0.7641572773793872 0.1936008034258439</probabilities>
		</cpt>
		<cpt id="dist" dynamic="plate">
			<state id="range_0_3" />
			<state id="range_3_6" />
			<state id="range_6_9" />
			<state id="range_9_12" />
			<state id="range_12_15" />
			<state id="range_15_18" />
			<state id="range_18_21" />
			<state id="range_21_24" />
			<state id="range_24_27" />
			<state id="range_27_30" />
			<state id="range_30_inf" />
			<parents>p1_wti p2_wti</parents>
			<probabilities>0.1111111111111111 0.1111111111111111 0.1111111111111111 0.1111111111111111 0.1111111111111111 0.1111111111111111 0.1111111111111111 0.1111111111111111 0.1111111111111111 0 0 0.1016424619640387 0.241084601198709 0.2252766251728907 0.2240087597971415 0.1545066851083448 0.04328031350852928 0.009508990318118967 0.0006915629322268537 2.126676171501772e-17 0 0 7.342066938966264e-14 7.342066938966264e-14 7.342066938966264e-14 0.006097560975679149 0.8013937282225405 0.19250871080134 7.342066938966264e-14 7.342066938966264e-14 7.342066938966264e-14 0 0 1.027995616610119e-11 1.027995616610119e-11 1.027995616610119e-11 1.027995616610119e-11 0.7647058822924707 0.2352941176355694 1.027995616610119e-11 1.027995616610119e-11 1.027995616610119e-11 0 0 1.944467513555302e-14 1.944467513555302e-14 1.944467513555302e-14 0.01454382726409924 0.2931140571683968 0.6741623314872873 0.01817978408011918 1.944467513555302e-14 1.944467513555302e-14 0 0 0.1023926711997497 0.2421861219380352 0.2260491052377024 0.2185552931804604 0.1567612165353211 0.04347207601923243 0.009843807789695317 0.0007397080998037132 2.046921289136931e-17 0 0 0.04744864677769347 0.143698497011329 0.1768787358387582 0.2357974892501032 0.1986447808086052 0.1636380579629112 0.033361289721368 0.0005325026292317339 2.097149078634899e-18 0 0 0.0163281561131031 0.03743528474711328 0.03643966547192412 0.3906810035842271 0.1776184786937469 0.1837913181999198 0.1067303863002788 0.04998008761449669 0.0009956192751900369 0 0 3.736636333797814e-14 3.736636333797814e-14 3.736636333797814e-14 0.8950552889628076 0.02155921830450192 0.01383962723419364 0.06954586549831011 3.736636333797814e-14 3.736636333797814e-14 0 0 5.585241285927202e-15 5.585241285927202e-15 0.002214430706777941 0.2392692378667587 0.02288245063665326 0.1841668204465732 0.0679092083410245 0.1129359660453957 0.2023251522421065 0.1284369809927966 0.0398597527219024 7.637527234922995e-14 7.637527234922995e-14 7.637527234922995e-14 0.003530450132465828 0.7352162400701799 0.2612533097968959 7.637527234922995e-14 7.637527234922995e-14 7.637527234922995e-14 0 0 0.01536706760680301 0.0362712567399426 0.03525508087930387 0.3886354209871398 0.182289506428867 0.1930734135213597 0.1097055163832435 0.03919535462463772 0.0002073828287027726 0 0 1.216250673246513e-18 1.216250673246513e-18 0.004529528529368665 0.1858838575596499 0.07302754575045851 0.08179795638330468 0.06614443867151593 0.07276110289578976 0.08881428488958165 0.4270412853203309 0 1.265493173128684e-14 1.265493173128684e-14 1.265493173128684e-14 0.005332299190472079 0.312133404430633 0.5055989141499381 0.1560909399389158 0.02084444228999041 1.265493173128684e-14 0 0 5.854543673098344e-15 5.854543673098344e-15 5.854543673098344e-15 0.2271960409402706 0.358302403179232 0.2143740861545329 0.07948112323323378 0.04124020545120903 0.01192216848499004 0.01563378697559248 0.05185018558092181 1.476800011685585e-14 1.476800011685585e-14 1.476800011685585e-14 0.02194549351843585 0.2526283556190482 0.7111360620597343 0.01429008880270757 1.476800011685585e-14 1.476800011685585e-14 0 0 5.480215473268584e-15 5.480215473268584e-15 5.480215473268584e-15 0.2516228407965604 0.02860600726152899 0.1804378919573076 0.06047603330032891 0.1210254153372203 0.1954010342171815 0.1294605200425359 0.03297025708732005 6.340755133357491e-15 6.340755133357491e-15 6.340755133357491e-15 0.225965425634306 0.3727332229622921 0.2062911485003603 0.05994686790128502 0.05024448465714743 0.01932776344666138 0.01413005813729562 0.05136102876063312 1.515358717697366e-15 1.515358717697366e-15 1.515358717697366e-15 0.3656042433220207 0.03036746786448239 0.1620633631194144 0.1779519281311216 0.1366655516796479 0.1272757681464135 7.167773689491946e-05 0 4.756762822969982e-16 4.756762822969982e-16 4.756762822969982e-16 0.1808394901355846 0.06352196151660328 0.5770723390435963 0.1031257611431355 0.07544044816107834 4.756762822969982e-16 0 0 2.657485290335455e-11 2.657485290335455e-11 2.657485290335455e-11 2.657485290335455e-11 0.7018633538959745 0.2981366459180013 2.657485290335455e-11 2.657485290335455e-11 2.657485290335455e-11 0 0 2.830410240204185e-14 2.830410240204185e-14 0.0006339546088781491 0.8938759984783097 0.01141118295932551 0.01103081019401561 0.08304805375935799 2.830410240204185e-14 2.830410240204185e-14 0 0 1.1709365814792e-14 1.1709365814792e-14 1.1709365814792e-14 0.008974964572519031 0.2810581010864251 0.51346244685872 0.1898913556920087 0.006613131790280261 1.1709365814792e-14 0 0 9.860767144718625e-19 9.860767144718625e-19 9.860767144718625e-19 0.2661485172908545 0.3246929095384896 0.1495856116239925 0.0639750228260397 0.04465622224384629 0.1011902666868185 0.04975144978995903 0 1.303299347112705e-15 1.303299347112705e-15 1.303299347112705e-15 0.35579741428279 0.03249187703074323 0.1770693690213802 0.1667537661039279 0.1349662584353909 0.1311035877394285 0.001817727386335213 0</probabilities>
		</cpt>
		<cpt id="p1_gesture" dynamic="plate">
			<state id="wave_slow_shoulder" />
			<state id="wave_fast_shoulder" />
			<state id="wave_small_head" />
			<state id="wave_wide_head" />
			<state id="arm_raise_high" />
			<state id="arm_raise_low" />
			<state id="come_here" />
			<state id="i_am_coming" />
			<state id="None" />
			<parents>p1_wti</parents>
			<probabilities>0.01667584976132081 1.288061906591169e-17 0.0242336179280013 0.0809168791781049 0.01901631990326058 1.288061906591169e-17 0.01019079707636273 0.007801567139799219 0.8411649690131504 4.179014864506077e-19 0.01959491403120257 0.05674438279131105 0.003872328249023365 0.1262130184876459 0.07083561422279729 0.02765060091069696 4.179014826894944e-19 0.6950891413073229 6.421724687725318e-19 6.421724629929796e-19 6.421724629929796e-19 6.421724629929796e-19 0.01498483570518457 0.02376038619600524 6.421724629929796e-19 6.421724629929796e-19 0.9612547780988102 2.028582671269561e-17 2.028582653012317e-17 0.006580701525474709 2.028582653012317e-17 2.028582653012317e-17 2.028582653012317e-17 2.028582653012317e-17 2.028582653012317e-17 0.9934192984745251 6.141936285099628e-19 6.141936229822202e-19 6.141936229822202e-19 6.141936229822202e-19 6.141936229822202e-19 6.141936229822202e-19 6.141936229822202e-19 6.141936229822202e-19 1</probabilities>
		</cpt>
		<cpt id="p2_gesture" dynamic="plate">
			<state id="wave_slow_shoulder" />
			<state id="wave_fast_shoulder" />
			<state id="wave_small_head" />
			<state id="wave_wide_head" />
			<state id="arm_raise_high" />
			<state id="arm_raise_low" />
			<state id="come_here" />
			<state id="i_am_coming" />
			<state id="None" />
			<parents>p2_wti</parents>
			<probabilities>0.01464381910802338 1.229744201790058e-17 0.03534681845025184 0.08263915229091748 0.01690040762630895 1.229744201790058e-17 0.01181108032975001 0.00825815372649188 0.8304005684682565 4.231269237091833e-19 0.01970747978499796 0.05985014819650012 0.003357454955447354 0.1204561141597149 0.07166370481880674 0.02890534475596768 4.231269237091833e-19 0.6960597533285652 6.353378739866975e-19 6.353378739866975e-19 6.353378739866975e-19 6.353378739866975e-19 0.01650510263384243 0.02435352034347781 6.353378739866975e-19 6.353378739866975e-19 0.9591413770226798 6.25715626500492e-19 6.25715626500492e-19 6.25715626500492e-19 6.25715626500492e-19 6.25715626500492e-19 6.25715626500492e-19 6.25715626500492e-19 6.25715626500492e-19 1 1.995526799551601e-17 1.995526799551601e-17 0.007503907109528852 1.995526799551601e-17 1.995526799551601e-17 1.995526799551601e-17 1.995526799551601e-17 1.995526799551601e-17 0.992496092890471</probabilities>
		</cpt>
		<cpt id="p1_head" dynamic="plate">
			<state id="central" />
			<state id="mid_peripheral" />
			<state id="outside" />
			<parents>p1_wti</parents>
			<probabilities>1 3.864185758415363e-17 3.864185758415363e-17 0.998629911169723 0.001175694841872155 0.0001943939884047886 0.9961990560450801 0.003267950397501931 0.0005329935574179442 0.2352033493501557 0.4506192099754358 0.3141774406744084 0.01212944201030472 0.2181955775276449 0.7696749804620504</probabilities>
		</cpt>
	</nodes>
	<dynamic numslices="10">
		<cpt id="p1_imas" order="1">
			<parents>p1_imas</parents>
			<probabilities>0.9999999999999988 2.630545657324835e-16 2.630545657324835e-16 2.630545657324835e-16 2.630545657324835e-16 0.001105430426972592 0.9988945695730271 9.047461855909721e-17 9.047461855909721e-17 9.047461855909721e-17 0.004807007548782266 0.00710368893320044 0.9850745382898921 0.003014765228125189 4.180147624128766e-17 0.0004016104986663695 0.0007849659746660855 0.003628692838960276 0.9947283551210411 0.0004563755666663289 1.161134907503974e-18 1.161134907503974e-18 1.161134907503974e-18 0.01085024434167936 0.9891497556583206</probabilities>
		</cpt>
		<cpt id="p2_imas" order="1">
			<parents>p2_imas</parents>
			<probabilities>0.9999999999999988 2.430446610871118e-16 2.430446610871118e-16 2.430446610871118e-16 2.430446610871118e-16 0.001075485648988454 0.9989245143510115 8.331949855827032e-17 8.331949855827032e-17 8.331949855827032e-17 0.004804711717296999 0.007026245091961186 0.9853332874101627 0.002835755780579128 3.783102845755937e-17 0.0004052908883239382 0.0007921594635422426 0.003680368773769901 0.994661623046723 0.0004605578276408388 1.178919400402581e-18 1.178919400402581e-18 1.178919400402581e-18 0.01089090846687296 0.9891090915331271</probabilities>
		</cpt>
		<cpt id="p1_wti" order="1">
			<parents>p2_imas p1_wti</parents>
			<probabilities>0.2 0.2 0.2 0.2 0.2 0.2 0.2 0.2 0.2 0.2 0.2 0.2 0.2 0.2 0.2 0.2 0.2 0.2 0.2 0.2 0.2 0.2 0.2 0.2 0.2 0.2 0.2 0.2 0.2 0.2 0.2 0.2 0.2 0.2 0.2 0.2 0.2 0.2 0.2 0.2 0.2 0.2 0.2 0.2 0.2 0.2 0.2 0.2 0.2 0.2 0.2 0.2 0.2 0.2 0.2 0.2 0.2 0.2 0.2 0.2 0.2 0.2 0.2 0.2 0.2 0.2 0.2 0.2 0.2 0.2 0.2 0.2 0.2 0.2 0.2 0.9999999999999988 2.625105890031026e-16 2.625105890031026e-16 2.625105890031026e-16 2.625105890031026e-16 0.9999999941088428 1.472789362313429e-09 1.472789362313429e-09 1.472789362313429e-09 1.472789362313429e-09 0.9999999766954939 5.826126536185708e-09 5.826126536185708e-09 5.826126536185708e-09 5.826126536185708e-09 0.9999979435346011 5.141163496710937e-07 5.141163496710937e-07 5.141163496710937e-07 5.141163496710937e-07 0.2 0.2 0.2 0.2 0.2 0.9999999842062662 3.948433459025132e-09 3.948433459025132e-09 3.948433459025132e-09 3.948433459025132e-09 0.9991999999999998 0.0002 0.0002 0.0002 0.0002 0.2 0.2 0.2 0.2 0.2 0.2 0.2 0.2 0.2 0.2 0.2 0.2 0.2 0.2 0.2 0.2 0.2 0.2 0.2 0.2 0.2 0.2 0.2 0.2 0.2 0.2 0.2 0.2 0.2 0.2 0.2 0.2 0.2 0.2 0.2 0.2 0.2 0.2 0.2 0.2 0.2 0.2 0.2 0.2 0.2 0.2 0.2 0.2 0.2 0.2 0.2 0.2 0.2 0.2 0.2 0.2 0.2 0.2 0.2 0.2 0.2 0.2 0.2 0.2 0.2 0.2 0.2 0.2 0.2 0.2 5.160225742428579e-13 0.9999999999979358 5.160225742428579e-13 5.160225742428579e-13 5.160225742428579e-13 2.654029945419874e-07 0.9999989383880218 2.654029945419874e-07 2.654029945419874e-07 2.654029945419874e-07 0.2 0.2 0.2 0.2 0.2 0.2 0.2 0.2 0.2 0.2 0.9999999999999571 1.076173992572445e-14 1.076173992572445e-14 1.076173992572445e-14 1.076173992572445e-14 0.002475011899095902 0.9975249881009032 2.366467348456956e-16 2.366467348456956e-16 2.366467348456956e-16 0.2285714284577067 0.7714285691541347 7.960528800574268e-10 7.960528800574268e-10 7.960528800574268e-10 2.654029945419874e-07 0.9999989383880218 2.654029945419874e-07 2.654029945419874e-07 2.654029945419874e-07 0.2 0.2 0.2 0.2 0.2 0.9999999999642508 8.937314263684843e-12 8.937314263684843e-12 8.937314263684843e-12 8.937314263684843e-12 0.2 0.2 0.2 0.2 0.2 0.9999997375866165 6.560334577063434e-08 6.560334577063434e-08 6.560334577063434e-08 6.560334577063434e-08 0.2 0.2 0.2 0.2 0.2 0.2 0.2 0.2 0.2 0.2 0.2 0.2 0.2 0.2 0.2 0.2 0.2 0.2 0.2 0.2 0.2 0.2 0.2 0.2 0.2 0.2 0.2 0.2 0.2 0.2 0.2 0.2 0.2 0.2 0.2 0.2 0.2 0.2 0.2 0.2 5.801018806183276e-13 0.9999999999976799 5.801018806183276e-13 5.801018806183276e-13 5.801018806183276e-13 0.2 0.2 0.2 0.2 0.2 0.2 0.2 0.2 0.2 0.2 0.2 0.2 0.2 0.2 0.2 0.2 0.2 0.2 0.2 0.2 5.153316777227218e-14 0.9999999999997939 5.153316777227218e-14 5.153316777227218e-14 5.153316777227218e-14 2.654029945419874e-07 0.7999992037910163 0.2 2.654029945419874e-07 2.654029945419874e-07 0.0002000000000000001 0.0002000000000000001 0.9991999999999999 0.0002000000000000001 0.0002000000000000001 0.2 0.2 0.2 0.2 0.2 0.9999999999995928 1.017636729539411e-13 1.017636729539411e-13 1.017636729539411e-13 1.017636729539411e-13 1.153164334954935e-16 0.9999999999999996 1.153164334954935e-16 1.153164334954935e-16 1.153164334954935e-16 0.004797441365699984 0.2020255863539332 0.7931769722781241 1.121337250897339e-12 1.121337250897339e-12 0.1945812807911688 0.4876847289052193 0.3177339900827867 1.104126615313292e-10 1.104126615313292e-10 0.2 0.2 0.2 0.2 0.2 0.999999999027541 2.431147020281732e-10 2.431147020281732e-10 2.431147020281732e-10 2.431147020281732e-10 1.328296715557903e-12 0.9999999999946866 1.328296715557903e-12 1.328296715557903e-12 1.328296715557903e-12 0.3846153803824662 0.6153846058605489 4.585661626596544e-09 4.585661626596544e-09 4.585661626596544e-09 8.351321348777982e-10 0.9999999966594714 8.351321348777982e-10 8.351321348777982e-10 8.351321348777982e-10 0.2 0.2 0.2 0.2 0.2 0.2 0.2 0.2 0.2 0.2 2.501841060331269e-16 0.9999999999999988 2.501841060331269e-16 2.501841060331269e-16 2.501841060331269e-16 4.618140935039613e-08 0.7222221016374312 0.2777777598183409 4.618140935039613e-08 4.618140935039613e-08 3.424008379781148e-09 0.1395348847560956 3.424008379781148e-09 0.8604651049718793 3.424008379781148e-09 0.2 0.2 0.2 0.2 0.2 0.9999999999999793 5.193682483125706e-15 5.193682483125706e-15 5.193682483125706e-15 5.193682483125706e-15 3.653744963375688e-16 0.9999999999999986 3.653744963375688e-16 3.653744963375688e-16 3.653744963375688e-16 0.01052631578977672 0.02526315789501631 0.9642105263145672 3.198742468644006e-13 3.198742468644006e-13 9.110787172011663e-06 9.110787172011663e-06 0.9999635568513119 9.110787172011663e-06 9.110787172011663e-06 0.2 0.2 0.2 0.2 0.2 0.9999999999955718 1.107115775828276e-12 1.107115775828276e-12 1.107115775828276e-12 1.107115775828276e-12 1.781433462505254e-16 0.9999999999999994 1.781433462505254e-16 1.781433462505254e-16 1.781433462505254e-16 2.862666628155383e-14 0.09180790960453528 0.908192090395379 2.862666628155383e-14 2.862666628155383e-14 4.253556737679394e-14 0.01504297994273275 0.03975644699143809 0.9452005730657441 4.253556737679394e-14 6.912177296794687e-09 6.912177296794687e-09 0.9999999723512907 6.912177296794687e-09 6.912177296794687e-09 0.9999999999991318 2.171158228359073e-13 2.171158228359073e-13 2.171158228359073e-13 2.171158228359073e-13 5.176647991635829e-15 0.9712468569738005 0.02875314302618399 5.176647991635829e-15 5.176647991635829e-15 2.321437210174463e-18 0.002293609140021104 0.9977063908599789 2.321437210174463e-18 2.321437210174463e-18 1.666083062247499e-15 0.01769750045612267 0.04127389568002728 0.9410286038638468 1.666083062247499e-15 1.145910067291139e-10 1.145910067291139e-10 0.9999999995416359 1.145910067291139e-10 1.145910067291139e-10 0.2 0.2 0.2 0.2 0.2 9.910556440959522e-14 0.9999999999996033 9.910556440959522e-14 9.910556440959522e-14 9.910556440959522e-14 1.902309912500385e-14 0.01355792933444666 0.9864420706654962 1.902309912500385e-14 1.902309912500385e-14 1.433198583209483e-15 0.004684969538059548 0.004858486928357997 0.9904565435335797 1.433198583209483e-15 2.580433153235412e-11 2.580433153235412e-11 0.7821031344041681 0.2178968655184189 2.580433153235412e-11 0.2 0.2 0.2 0.2 0.2 0.2 0.2 0.2 0.2 0.2 4.585661626596544e-09 4.585661626596544e-09 0.9999999816573535 4.585661626596544e-09 4.585661626596544e-09 0.2 0.2 0.2 0.2 0.2 0.2 0.2 0.2 0.2 0.2 0.2 0.2 0.2 0.2 0.2 0.2 0.2 0.2 0.2 0.2 3.043803860604882e-11 3.043803860604882e-11 0.9999999998782477 3.043803860604882e-11 3.043803860604882e-11 2e-07 2e-07 2e-07 0.9999991999999999 2e-07 4.449832737017182e-10 4.449832737017182e-10 0.1764705882876451 4.449832737017182e-10 0.823529410377405 0.2 0.2 0.2 0.2 0.2 0.2 0.2 0.2 0.2 0.2 0.2 0.2 0.2 0.2 0.2 4.516026793723533e-12 4.516026793723533e-12 4.516026793723533e-12 0.9999999999819359 4.516026793723533e-12 3.95110990404089e-11 3.95110990404089e-11 3.95110990404089e-11 3.95110990404089e-11 0.9999999998419555 0.2 0.2 0.2 0.2 0.2 0.2 0.2 0.2 0.2 0.2 0.2 0.2 0.2 0.2 0.2 9.706557800232954e-15 9.706557800232954e-15 9.706557800232954e-15 0.9999999999999613 9.706557800232954e-15 9.065254861967203e-16 9.065254861967203e-16 0.0001489474381049705 9.065254861967203e-16 0.9998510525618923 0.2 0.2 0.2 0.2 0.2 0.2 0.2 0.2 0.2 0.2 0.2 0.2 0.2 0.2 0.2 1.766248403759218e-13 1.766248403759218e-13 1.766248403759218e-13 0.9568221070805062 0.04317789291896405 2.281780169696872e-18 2.281780169696872e-18 2.281780169696872e-18 2.281780169696872e-18 1</probabilities>
		</cpt>
		<cpt id="p2_wti" order="1">
			<parents>p1_imas p2_wti</parents>
			<probabilities>0.2 0.2 0.2 0.2 0.2 0.2 0.2 0.2 0.2 0.2 0.2 0.2 0.2 0.2 0.2 0.2 0.2 0.2 0.2 0.2 0.2 0.2 0.2 0.2 0.2 0.2 0.2 0.2 0.2 0.2 0.2 0.2 0.2 0.2 0.2 0.2 0.2 0.2 0.2 0.2 0.2 0.2 0.2 0.2 0.2 0.2 0.2 0.2 0.2 0.2 0.2 0.2 0.2 0.2 0.2 0.2 0.2 0.2 0.2 0.2 0.2 0.2 0.2 0.2 0.2 0.2 0.2 0.2 0.2 0.2 0.2 0.2 0.2 0.2 0.2 0.9999999999999988 2.437462832368513e-16 2.437462832368513e-16 2.437462832368513e-16 2.437462832368513e-16 0.999999994407771 1.398057163299933e-09 1.398057163299933e-09 1.398057163299933e-09 1.398057163299933e-09 0.9999999766954939 5.826126536185708e-09 5.826126536185708e-09 5.826126536185708e-09 5.826126536185708e-09 0.2 0.2 0.2 0.2 0.2 0.9999979435346011 5.141163496710937e-07 5.141163496710937e-07 5.141163496710937e-07 5.141163496710937e-07 0.999999995191585 1.202103681442524e-09 1.202103681442524e-09 1.202103681442524e-09 1.202103681442524e-09 0.2 0.2 0.2 0.2 0.2 0.2 0.2 0.2 0.2 0.2 0.2 0.2 0.2 0.2 0.2 0.2 0.2 0.2 0.2 0.2 0.2 0.2 0.2 0.2 0.2 0.2 0.2 0.2 0.2 0.2 0.2 0.2 0.2 0.2 0.2 0.2 0.2 0.2 0.2 0.2 0.2 0.2 0.2 0.2 0.2 0.2 0.2 0.2 0.2 0.2 0.2 0.2 0.2 0.2 0.2 0.2 0.2 0.2 0.2 0.2 0.2 0.2 0.2 0.2 0.2 0.2 0.2 0.2 0.2 0.2 0.2 0.2 0.2 0.2 0.2 5.801018806183276e-13 0.9999999999976799 5.801018806183276e-13 5.801018806183276e-13 5.801018806183276e-13 2.654029945419874e-07 0.9999989383880218 2.654029945419874e-07 2.654029945419874e-07 2.654029945419874e-07 0.2 0.2 0.2 0.2 0.2 0.2 0.2 0.2 0.2 0.2 0.9999999999999627 9.379515100573717e-15 9.379515100573717e-15 9.379515100573717e-15 9.379515100573717e-15 0.002404068423486114 0.9975959315765134 2.168750091859021e-16 2.168750091859021e-16 2.168750091859021e-16 0.2285714284577067 0.7714285691541347 7.960528800574268e-10 7.960528800574268e-10 7.960528800574268e-10 0.2 0.2 0.2 0.2 0.2 5.141163496710937e-07 0.9999979435346011 5.141163496710937e-07 5.141163496710937e-07 5.141163496710937e-07 0.9999999999536326 1.159184239355692e-11 1.159184239355692e-11 1.159184239355692e-11 1.159184239355692e-11 7.950844697740695e-08 0.9999996819662125 7.950844697740695e-08 7.950844697740695e-08 7.950844697740695e-08 0.9999997375866165 6.560334577063434e-08 6.560334577063434e-08 6.560334577063434e-08 6.560334577063434e-08 0.2 0.2 0.2 0.2 0.2 2.915876949992712e-05 0.9998833649220004 2.915876949992712e-05 2.915876949992712e-05 2.915876949992712e-05 0.2 0.2 0.2 0.2 0.2 0.2 0.2 0.2 0.2 0.2 0.2 0.2 0.2 0.2 0.2 0.2 0.2 0.2 0.2 0.2 0.2 0.2 0.2 0.2 0.2 0.2 0.2 0.2 0.2 0.2 5.160225742428579e-13 0.9999999999979358 5.160225742428579e-13 5.160225742428579e-13 5.160225742428579e-13 0.2 0.2 0.2 0.2 0.2 0.2 0.2 0.2 0.2 0.2 0.2 0.2 0.2 0.2 0.2 0.9991999999999998 0.0002 0.0002 0.0002 0.0002 5.153316777227218e-14 0.9999999999997939 5.153316777227218e-14 5.153316777227218e-14 5.153316777227218e-14 2.654029945419874e-07 0.9999989383880218 2.654029945419874e-07 2.654029945419874e-07 2.654029945419874e-07 0.2 0.2 0.2 0.2 0.2 2.915876949992712e-05 0.9998833649220004 2.915876949992712e-05 2.915876949992712e-05 2.915876949992712e-05 0.9999999999997428 6.435706771895255e-14 6.435706771895255e-14 6.435706771895255e-14 6.435706771895255e-14 1.077945963371646e-16 0.9999999999999996 1.077945963371646e-16 1.077945963371646e-16 1.077945963371646e-16 0.005671077505485212 0.1663516068054245 0.8279773156875274 7.814730661476836e-13 7.814730661476836e-13 0.2 0.2 0.2 0.2 0.2 0.1681222707546206 0.5436681221385424 0.2882096069529677 7.693463561232155e-11 7.693463561232155e-11 0.9999999975110383 6.222405091794088e-10 6.222405091794088e-10 6.222405091794088e-10 6.222405091794088e-10 1.290816590219976e-12 0.9999999999948367 1.290816590219976e-12 1.290816590219976e-12 1.290816590219976e-12 0.3111111094508385 0.6888888815836895 2.988490605440703e-09 2.988490605440703e-09 2.988490605440703e-09 0.2 0.2 0.2 0.2 0.2 1.877997330689715e-09 0.9999999924880107 1.877997330689715e-09 1.877997330689715e-09 1.877997330689715e-09 0.2 0.2 0.2 0.2 0.2 2.689783391753934e-16 0.9999999999999987 2.689783391753934e-16 2.689783391753934e-16 2.689783391753934e-16 9.763799055157166e-08 0.6428569266587352 0.3571427804272931 9.763799055157166e-08 9.763799055157166e-08 0.2 0.2 0.2 0.2 0.2 4.585661626596544e-09 0.1282051298512631 4.585661626596544e-09 4.585661626596544e-09 0.871794856391752 0.9999999999999739 6.525995364710766e-15 6.525995364710766e-15 6.525995364710766e-15 6.525995364710766e-15 3.947108791874558e-16 0.9999999999999986 3.947108791874558e-16 3.947108791874558e-16 3.947108791874558e-16 0.008875739645221795 0.02268244575960206 0.9684418145946501 2.630545657324834e-13 2.630545657324834e-13 0.2 0.2 0.2 0.2 0.2 0.2 0.2 0.2 0.2 0.2 0.9999999999930737 1.731582196955821e-12 1.731582196955821e-12 1.731582196955821e-12 1.731582196955821e-12 2.040498234943755e-16 0.9999999999999994 2.040498234943755e-16 2.040498234943755e-16 2.040498234943755e-16 2.651333394451283e-14 0.09132629646628333 0.9086737035336371 2.651333394451283e-14 2.651333394451283e-14 8.285838561455799e-09 8.285838561455799e-09 0.9999999668566457 8.285838561455799e-09 8.285838561455799e-09 4.801333392892594e-14 0.01622226365844427 0.03915718814100449 4.801333392892594e-14 0.9446205482004552 0.9999999999993218 1.695020181354555e-13 1.695020181354555e-13 1.695020181354555e-13 1.695020181354555e-13 5.494065803319237e-15 0.9706707703448688 0.02932922965511467 5.494065803319237e-15 5.494065803319237e-15 2.041890518368173e-05 0.002069115725279514 0.9979104653695368 2.3355914074003e-18 2.3355914074003e-18 1.09065085017019e-10 1.09065085017019e-10 0.9999999995637397 1.09065085017019e-10 1.09065085017019e-10 1.611575517982947e-15 0.01732191904408816 0.0406182962769916 1.611575517982947e-15 0.9420597846789169 0.2 0.2 0.2 0.2 0.2 7.128581148722101e-14 0.9999999999997147 7.128581148722101e-14 7.128581148722101e-14 7.128581148722101e-14 1.64271900967885e-14 0.01564945226918572 0.984350547730765 1.64271900967885e-14 1.64271900967885e-14 2.652144695973946e-11 2.652144695973946e-11 0.7806122448209658 2.652144695973946e-11 0.2193877550994698 1.395014195898343e-15 0.004814949271071541 0.005158874219005123 1.395014195898343e-15 0.9900261765099205 0.2 0.2 0.2 0.2 0.2 0.2 0.2 0.2 0.2 0.2 2.537878148602663e-08 2.537878148602663e-08 0.999999898484874 2.537878148602663e-08 2.537878148602663e-08 0.2 0.2 0.2 0.2 0.2 0.2 0.2 0.2 0.2 0.2 0.2 0.2 0.2 0.2 0.2 0.2 0.2 0.2 0.2 0.2 3.528384992012531e-11 3.528384992012531e-11 0.9999999998588646 3.528384992012531e-11 3.528384992012531e-11 1.708079824965272e-10 1.708079824965272e-10 0.1111111111870258 0.8888888883005505 1.708079824965272e-10 0.2 0.2 0.2 0.2 0.2 0.2 0.2 0.2 0.2 0.2 0.2 0.2 0.2 0.2 0.2 0.2 0.2 0.2 0.2 0.2 3.86941237122011e-11 3.86941237122011e-11 3.86941237122011e-11 0.9999999998452235 3.86941237122011e-11 4.096074544624481e-12 4.096074544624481e-12 4.096074544624481e-12 4.096074544624481e-12 0.9999999999836157 0.2 0.2 0.2 0.2 0.2 0.2 0.2 0.2 0.2 0.2 3.948433459025131e-06 3.948433459025131e-06 0.9999842062661638 3.948433459025131e-06 3.948433459025131e-06 1.037667507120824e-15 1.037667507120824e-15 0.0004674272458158302 0.9995325727541811 1.037667507120824e-15 9.981429164617681e-15 9.981429164617681e-15 9.981429164617681e-15 9.981429164617681e-15 0.99999999999996 0.2 0.2 0.2 0.2 0.2 0.2 0.2 0.2 0.2 0.2 0.2 0.2 0.2 0.2 0.2 2.293749389306544e-18 2.293749389306544e-18 2.293749389306544e-18 1 2.293749389306544e-18 1.424705041262646e-13 1.424705041262646e-13 1.424705041262646e-13 0.04019292604512992 0.9598070739544426</probabilities>
		</cpt>
	</dynamic>
	<extensions>
		<genie version="1.0" app="SMILE_ACADEMIC 1.5.0@a121f1f76773" name="emidas dbn v9" faultnameformat="user">
			<plate leftwidth="120" rightwidth="120">120 50 1164 561</plate>
			<node id="p1_imas">
				<name>p1_imas</name>
				<interior color="e5f6f7" />
				<outline color="000080" />
				<font color="000000" name="MS Sans Serif" size="8" />
				<position>491 462 547 497</position>
			</node>
			<node id="p2_imas">
				<name>p2_imas</name>
				<interior color="e5f6f7" />
				<outline color="000080" />
				<font color="000000" name="MS Sans Serif" size="8" />
				<position>651 472 707 507</position>
			</node>
			<node id="p1_wti">
				<name>p1_wti</name>
				<interior color="e5f6f7" />
				<outline color="000080" />
				<font color="000000" name="MS Sans Serif" size="8" />
				<position>487 311 571 363</position>
			</node>
			<node id="p2_wti">
				<name>p2_wti</name>
				<interior color="e5f6f7" />
				<outline color="000080" />
				<font color="000000" name="MS Sans Serif" size="8" />
				<position>650 301 734 353</position>
			</node>
			<node id="p1_approach">
				<name>p1_approach</name>
				<interior color="e5f6f7" />
				<outline color="000080" />
				<font color="000000" name="MS Sans Serif" size="8" />
				<position>268 135 344 182</position>
			</node>
			<node id="p2_head">
				<name>p2_head</name>
				<interior color="e5f6f7" />
				<outline color="000080" />
				<font color="000000" name="MS Sans Serif" size="8" />
				<position>676 84 733 119</position>
			</node>
			<node id="p1_body">
				<name>p1_body</name>
				<interior color="e5f6f7" />
				<outline color="000080" />
				<font color="000000" name="MS Sans Serif" size="8" />
				<position>404 76 461 111</position>
			</node>
			<node id="p2_approach">
				<name>p2_approach</name>
				<interior color="e5f6f7" />
				<outline color="000080" />
				<font color="000000" name="MS Sans Serif" size="8" />
				<position>924 160 1000 207</position>
			</node>
			<node id="p2_body">
				<name>p2_body</name>
				<interior color="e5f6f7" />
				<outline color="000080" />
				<font color="000000" name="MS Sans Serif" size="8" />
				<position>827 91 884 126</position>
			</node>
			<node id="dist">
				<name>dist</name>
				<interior color="e5f6f7" />
				<outline color="000080" />
				<font color="000000" name="MS Sans Serif" size="8" />
				<position>599 137 637 160</position>
			</node>
			<node id="p1_gesture">
				<name>p1_gesture</name>
				<interior color="e5f6f7" />
				<outline color="000080" />
				<font color="000000" name="MS Sans Serif" size="8" />
				<position>248 271 316 313</position>
			</node>
			<node id="p2_gesture">
				<name>p2_gesture</name>
				<interior color="e5f6f7" />
				<outline color="000080" />
				<font color="000000" name="MS Sans Serif" size="8" />
				<position>964 312 1032 354</position>
			</node>
			<node id="p1_head">
				<name>p1_head</name>
				<interior color="e5f6f7" />
				<outline color="000080" />
				<font color="000000" name="MS Sans Serif" size="8" />
				<position>528 80 585 115</position>
			</node>
		</genie>
	</extensions>
</smile>
