<?xml version="1.0" encoding="ISO-8859-1"?>
<!-- This file was created by ACADEMIC version of SMILE -->
<smile version="1.0" id="Network2" numsamples="10000" discsamples="10000">
	<nodes>
		<cpt id="p1_imas" target="true" dynamic="plate">
			<state id="very_high" />
			<state id="high" />
			<state id="medium" />
			<state id="low" />
			<state id="very_low" />
			<probabilities>0.02215368060160913 0.03472265668989852 0.07558277756228181 0.5141580850611244 0.3533828000850862</probabilities>
		</cpt>
		<cpt id="p2_imas" target="true" dynamic="plate">
			<state id="very_high" />
			<state id="high" />
			<state id="medium" />
			<state id="low" />
			<state id="very_low" />
			<probabilities>0.02302331110249127 0.036368072673582 0.07964313867791138 0.5095847045133197 0.3513807730326956</probabilities>
		</cpt>
		<cpt id="p1_wti" target="true" dynamic="plate">
			<state id="very_high" />
			<state id="high" />
			<state id="medium" />
			<state id="low" />
			<state id="very_low" />
			<parents>p1_imas</parents>
			<probabilities>1 3.587461189390553e-19 3.587461189390553e-19 3.587461189390553e-19 3.587461189390553e-19 0.2565765765765766 0.7434234234234234 3.79466864701479e-20 3.79466864701479e-20 3.79466864701479e-20 0.1383991391441106 0.8172336727092129 0.0443671881466766 7.768476184857281e-22 7.768476184857281e-22 0.03730743958531065 0.2210094667932151 0.5599157966464676 0.1817672969750067 5.334823337813284e-26 3.478278323060013e-25 3.478278323060013e-25 0.004656185822533815 0.1046668082996955 0.8906770058777707</probabilities>
		</cpt>
		<cpt id="p2_wti" target="true" dynamic="plate">
			<state id="very_high" />
			<state id="high" />
			<state id="medium" />
			<state id="very_low" />
			<state id="low" />
			<parents>p2_imas</parents>
			<probabilities>1 2.959381185589567e-19 2.959381185589567e-19 2.959381185589567e-19 2.959381185589567e-19 0.2642353345948735 0.7357646654051265 3.010612486213746e-20 3.010612486213746e-20 3.010612486213746e-20 0.1479968578161822 0.8026708562450903 0.04933228593872741 5.980223358152745e-22 5.980223358152745e-22 0.03442560557881425 0.2151968668279088 0.5667456507593522 5.578548750768934e-26 0.1836318768339247 3.578501302009473e-25 3.578501302009473e-25 0.004166369916672602 0.8893775372124493 0.1064560928708781</probabilities>
		</cpt>
		<cpt id="p1_approach" dynamic="plate">
			<state id="y" />
			<state id="m" />
			<state id="n" />
			<parents>p1_wti</parents>
			<probabilities>0.5716079987687437 0.2148157512862231 0.2135762499450332 0.4061208824881927 0.2177164233249207 0.3761626941868866 0.06656285783206285 0.1179791785988182 0.815457963569119 0.1632856865661988 0.1267990427527327 0.7099152706810685 0.0002034734270486722 0.005531764236696568 0.9942647623362548</probabilities>
		</cpt>
		<cpt id="p2_head" dynamic="plate">
			<state id="central" />
			<state id="mid_peripheral" />
			<state id="outside" />
			<parents>p2_wti</parents>
			<probabilities>1 1.510238208477969e-30 1.510238208477969e-30 0.999512762069679 0.0004715906818897008 1.564724843136335e-05 0.9989524195015425 0.0009614779917350036 8.610250672253762e-05 0.01462580848067167 0.2195165752781538 0.7658576162411745 0.3183167425470072 0.4245697970522417 0.2571134604007511</probabilities>
		</cpt>
		<cpt id="p1_body" dynamic="plate">
			<state id="strongly_facing" />
			<state id="slightly_facing" />
			<state id="turned_away" />
			<parents>p1_wti</parents>
			<probabilities>0.4538168945956642 0.4886246207290795 0.05755848467525614 0.2727434273457264 0.502061546022991 0.2251950266312825 0.01032803224319926 0.1935278738591238 0.7961440938976769 0.02859064743548283 0.8174943405989263 0.1539150119655908 0.001763436367755159 0.3778962746728486 0.6203402889593962</probabilities>
		</cpt>
		<cpt id="p2_approach" dynamic="plate">
			<state id="y" />
			<state id="m" />
			<state id="n" />
			<parents>p2_wti</parents>
			<probabilities>0.5865934711116102 0.2210652767086892 0.1923412521797007 0.4076116909285947 0.2281347089003288 0.3642536001710766 0.06841646094217246 0.118819348921545 0.8127641901362825 6.557886889486417e-33 0.004229396562333346 0.9957706034376667 0.1606296782159117 0.1323224528641613 0.707047868919927</probabilities>
		</cpt>
		<cpt id="p2_body" dynamic="plate">
			<state id="strongly_facing" />
			<state id="slightly_facing" />
			<state id="turned_away" />
			<parents>p2_wti</parents>
			<probabilities>0.4367856364996544 0.5027644489297315 0.06044991457061418 0.2713132909466759 0.5125447467840558 0.2161419622692683 0.0121096422567467 0.1950230218687705 0.7928673358744829 0.001829593469253805 0.4037366734581322 0.5944337330726139 0.03851634642590734 0.8054093680067906 0.156074285567302</probabilities>
		</cpt>
		<cpt id="dist" dynamic="plate">
			<state id="range_0_3" />
			<state id="range_3_6" />
			<state id="range_6_9" />
			<state id="range_9_12" />
			<state id="range_12_15" />
			<state id="range_15_18" />
			<state id="range_18_21" />
			<state id="range_21_24" />
			<state id="range_24_27" />
			<state id="range_27_30" />
			<state id="range_30_inf" />
			<parents>p1_wti p2_wti</parents>
			<probabilities>0.1111111111111111 0.1111111111111111 0.1111111111111111 0.1111111111111111 0.1111111111111111 0.1111111111111111 0.1111111111111111 0.1111111111111111 0.1111111111111111 0 0 0.03252266864691628 0.1484975507438964 0.2410172229604732 0.2975927590609448 0.2101784178847807 0.0557792021678522 0.01343508168529665 0.0009770968498397561 1.272581976391631e-30 0 0 2.63248966430562e-25 2.63248966430562e-25 2.63248966430562e-25 0.005650036725238713 0.8291805563402828 0.1651694069344784 2.63248966430562e-25 2.63248966430562e-25 2.63248966430562e-25 0 0 1.875416693436851e-21 1.875416693436851e-21 1.875416693436851e-21 1.875416693436851e-21 0.7760133259300388 0.2239866740699611 1.875416693436851e-21 1.875416693436851e-21 1.875416693436851e-21 0 0 3.053096398883507e-25 3.053096398883507e-25 3.053096398883507e-25 0.02211616808287743 0.4279284522562372 0.5434757304155512 0.006479649245334265 3.053096398883507e-25 3.053096398883507e-25 0 0 0.03331623076564281 0.1509620596423901 0.2429620789430934 0.2895443264778307 0.2123978067967426 0.05590609564463544 0.01391098193936684 0.001000419790297858 1.195951165266844e-30 0 0 0.01483252172111129 0.07774233655511315 0.162710735483489 0.2835933452731605 0.2097593286067406 0.207570195823034 0.04305146460235934 0.0007400719349920811 2.466752400740813e-32 0 0 0.004794606591013776 0.02320359281437126 0.0395712072358779 0.3889022653992714 0.1524590678782295 0.2061733177002638 0.1186089359742054 0.06513022905238473 0.001156777354382145 0 0 1.524867624034649e-25 1.524867624034649e-25 1.524867624034649e-25 0.8961738484398217 0.01317033635012833 0.007547615831419695 0.08310819937863027 1.524867624034649e-25 1.524867624034649e-25 0 0 2.653810752600009e-26 2.653810752600009e-26 0.002249517960437049 0.2397343426408627 0.02416148920469423 0.1999214454045562 0.05620224237663358 0.1590373491394701 0.213061486824252 0.09026637149182318 0.01536575495727106 2.769742493524607e-25 2.769742493524607e-25 2.769742493524607e-25 0.003424657534246576 0.7741057838660578 0.2224695585996956 2.769742493524607e-25 2.769742493524607e-25 2.769742493524607e-25 0 0 0.004478476007384024 0.02132191504003321 0.03616096298157271 0.3870659428284307 0.1559492730668822 0.2199805568602606 0.1244251712197839 0.05039923975138997 0.0002184622442626353 0 0 3.449619950676867e-33 3.449619950676867e-33 0.00496301581983139 0.1910843482989474 0.07936331183309006 0.0874477495152583 0.07323731544736801 0.08170924686896569 0.09986902112390161 0.3823259910926374 0 8.146671034045641e-26 8.146671034045641e-26 8.146671034045641e-26 0.003023758099352052 0.2802859909138303 0.4944067922842035 0.1928502271542415 0.02943323154837268 8.146671034045641e-26 0 0 2.554579200224293e-25 2.554579200224293e-25 2.554579200224293e-25 0.2340453413707246 0.3702004979688114 0.2116367448565063 0.08882939888050619 0.05030233820693786 0.00600932287474025 0.01085796656495123 0.02811838927682198 1.696792031412632e-25 1.696792031412632e-25 1.696792031412632e-25 0.0355861450355344 0.3788208100462292 0.5791589042986269 0.006434140619609467 1.696792031412632e-25 1.696792031412632e-25 0 0 2.392921992453488e-26 2.392921992453488e-26 2.392921992453488e-26 0.2557621684640047 0.0302069367531332 0.2001748761294083 0.04821917808219178 0.1683474205770912 0.2004430195278344 0.0846866802681434 0.01215972019819295 3.019266269197222e-25 3.019266269197222e-25 3.019266269197222e-25 0.2266119509881729 0.3805191537136332 0.2033255260254351 0.07510501151739224 0.06534910280482376 0.01060761502874509 0.01091732641644568 0.0275643135053522 1.431048088441397e-26 1.431048088441397e-26 1.431048088441397e-26 0.2205671968358159 0.05897079861987714 0.2678300934107549 0.2546074223680889 0.1319952873853404 0.06599764369267021 3.155768745266347e-05 0 1.358877211484158e-26 1.358877211484158e-26 1.358877211484158e-26 0.2539639573985196 0.08349557015397749 0.5202023882648121 0.09061663873070075 0.05172144545199005 1.358877211484158e-26 0 0 6.916701254261628e-21 6.916701254261628e-21 6.916701254261628e-21 6.916701254261628e-21 0.7202998846597463 0.2797001153402537 6.916701254261628e-21 6.916701254261628e-21 6.916701254261628e-21 0 0 8.500215682682996e-26 8.500215682682996e-26 0.0007511229287785238 0.8895699070109815 0.007165712740547119 0.004311445611188727 0.09820181170850421 8.500215682682996e-26 8.500215682682996e-26 0 0 6.223397900111473e-26 6.223397900111473e-26 6.223397900111473e-26 0.003867325335215243 0.2586167960479887 0.4986450247000706 0.2300917431192661 0.008779110797459421 6.223397900111473e-26 0 0 3.807146989784103e-33 3.807146989784103e-33 3.807146989784103e-33 0.279348327630937 0.3300791137467647 0.1369573343953813 0.06451279397729159 0.05155533327697145 0.09488149235396755 0.04266560461868641 0 9.248878383335676e-27 9.248878383335676e-27 9.248878383335676e-27 0.2079220328526259 0.06840441119765558 0.2743984730469654 0.2470791239299761 0.1332420760391764 0.06817305467725766 0.0007808282563430245 0</probabilities>
		</cpt>
		<cpt id="p1_gesture" dynamic="plate">
			<state id="wave_slow_shoulder" />
			<state id="wave_fast_shoulder" />
			<state id="wave_small_head" />
			<state id="wave_wide_head" />
			<state id="arm_raise_high" />
			<state id="arm_raise_low" />
			<state id="come_here" />
			<state id="i_am_coming" />
			<state id="None" />
			<parents>p1_wti</parents>
			<probabilities>0.02344746273250956 5.444485176139307e-31 0.02626313706521261 0.09027747240666638 0.02082004968998725 5.444485176139307e-31 0.01142210105096522 0.01064294666021723 0.8171268303944417 1.6993554036403e-33 0.02388212108879449 0.06513514579484052 0.003036516648181449 0.146210920451152 0.07446660503482719 0.03341685271073906 1.699355388346102e-33 0.6538518382714653 1.521527480825529e-33 1.521527467131782e-33 1.521527467131782e-33 1.521527467131782e-33 0.01727598891481048 0.01977978000044938 1.521527467131782e-33 1.521527467131782e-33 0.9629442310847401 1.28784598398396e-29 1.287845972393346e-29 0.01477265377401203 1.287845972393346e-29 1.287845972393346e-29 1.287845972393346e-29 1.287845972393346e-29 1.287845972393346e-29 0.9852273462259881 2.100063557449797e-33 2.100063538549225e-33 2.100063538549225e-33 2.100063538549225e-33 2.100063538549225e-33 2.100063538549225e-33 2.100063538549225e-33 2.100063538549225e-33 1</probabilities>
		</cpt>
		<cpt id="p2_gesture" dynamic="plate">
			<state id="wave_slow_shoulder" />
			<state id="wave_fast_shoulder" />
			<state id="wave_small_head" />
			<state id="wave_wide_head" />
			<state id="arm_raise_high" />
			<state id="arm_raise_low" />
			<state id="come_here" />
			<state id="i_am_coming" />
			<state id="None" />
			<parents>p2_wti</parents>
			<probabilities>0.02056392864245063 5.034127361593231e-31 0.03728184392193255 0.09223126945497 0.02039347571113369 5.034127361593231e-31 0.01415976850868566 0.01133647273361859 0.8040332410272089 1.723589868031865e-33 0.02465006667466415 0.06849235284197497 0.002653512546485367 0.1394474087287306 0.076137772283855 0.03334689428197385 1.723589868031865e-33 0.6552719926423161 1.488280233335295e-33 1.488280233335295e-33 1.488280233335295e-33 1.488280233335295e-33 0.01897631716786908 0.02091953256468556 1.488280233335295e-33 1.488280233335295e-33 0.9601041502674453 2.185962296495472e-33 2.185962296495472e-33 2.185962296495472e-33 2.185962296495472e-33 2.185962296495472e-33 2.185962296495472e-33 2.185962296495472e-33 2.185962296495472e-33 1 1.251088932322804e-29 1.251088932322804e-29 0.01650590323327417 1.251088932322804e-29 1.251088932322804e-29 1.251088932322804e-29 1.251088932322804e-29 1.251088932322804e-29 0.9834940967667258</probabilities>
		</cpt>
		<cpt id="p1_head" dynamic="plate">
			<state id="central" />
			<state id="mid_peripheral" />
			<state id="outside" />
			<parents>p1_wti</parents>
			<probabilities>1 1.633345569175247e-30 1.633345569175247e-30 0.9995189075821466 0.0004269153437708717 5.417707408259793e-05 0.9989812715918067 0.0008928181554953468 0.0001259102526980617 0.3117418019533019 0.4237449065390337 0.2645132915076644 0.01536993051608548 0.2022349521227026 0.7823951173612119</probabilities>
		</cpt>
	</nodes>
	<dynamic numslices="50">
		<cpt id="p1_imas" order="1">
			<parents>p1_imas</parents>
			<probabilities>1 3.863968047831247e-29 3.863968047831247e-29 3.863968047831247e-29 3.863968047831247e-29 0.00155090898300726 0.9984490910169928 6.058665057012049e-30 6.058665057012049e-30 6.058665057012049e-30 0.006406891157847371 0.009639417226976289 0.9816823522749363 0.002271339340240205 1.679837541458513e-30 0.0005312173994887895 0.000946631377011099 0.003015816776318545 0.9949384048990269 0.0005679295481547588 3.350428831892233e-33 3.350428831892233e-33 3.350428831892233e-33 0.007497308675400432 0.9925026913245996</probabilities>
		</cpt>
		<cpt id="p2_imas" order="1">
			<parents>p2_imas</parents>
			<probabilities>1 3.326719026694558e-29 3.326719026694558e-29 3.326719026694558e-29 3.326719026694558e-29 0.001507118443361951 0.9984928815566381 5.250279583055256e-30 5.250279583055256e-30 5.250279583055256e-30 0.006335626656497837 0.009262561002056567 0.9822695603194449 0.002132252022000766 1.306265288099365e-30 0.0005347481806368902 0.0009423412564317839 0.003130852307479457 0.9948077917463148 0.0005842665091370025 3.495415821063554e-33 3.495415821063554e-33 3.495415821063554e-33 0.007561546905450172 0.9924384530945499</probabilities>
		</cpt>
		<cpt id="p1_wti" order="1">
			<parents>p2_imas p1_wti</parents>
			<probabilities>0.2 0.2 0.2 0.2 0.2 0.2 0.2 0.2 0.2 0.2 0.2 0.2 0.2 0.2 0.2 0.2 0.2 0.2 0.2 0.2 0.2 0.2 0.2 0.2 0.2 0.2 0.2 0.2 0.2 0.2 0.2 0.2 0.2 0.2 0.2 0.2 0.2 0.2 0.2 0.2 0.2 0.2 0.2 0.2 0.2 0.2 0.2 0.2 0.2 0.2 0.2 0.2 0.2 0.2 0.2 0.2 0.2 0.2 0.2 0.2 0.2 0.2 0.2 0.2 0.2 0.2 0.2 0.2 0.2 0.2 0.2 0.2 0.2 0.2 0.2 1 3.845310263844459e-29 3.845310263844459e-29 3.845310263844459e-29 3.845310263844459e-29 1 1.660828695221092e-18 1.660828695221092e-18 1.660828695221092e-18 1.660828695221092e-18 1 1.167633232271954e-17 1.167633232271954e-17 1.167633232271954e-17 1.167633232271954e-17 0.999999999999915 2.133375207746893e-14 2.133375207746893e-14 2.133375207746893e-14 2.133375207746893e-14 0.2 0.2 0.2 0.2 0.2 1 6.506113818153241e-18 6.506113818153241e-18 6.506113818153241e-18 6.506113818153241e-18 0.9999999951490524 1.212736959099912e-09 1.212736959099912e-09 1.212736959099912e-09 1.212736959099912e-09 0.2 0.2 0.2 0.2 0.2 0.2 0.2 0.2 0.2 0.2 0.2 0.2 0.2 0.2 0.2 0.2 0.2 0.2 0.2 0.2 0.2 0.2 0.2 0.2 0.2 0.2 0.2 0.2 0.2 0.2 0.2 0.2 0.2 0.2 0.2 0.2 0.2 0.2 0.2 0.2 0.2 0.2 0.2 0.2 0.2 0.2 0.2 0.2 0.2 0.2 0.2 0.2 0.2 0.2 0.2 0.2 0.2 0.2 0.2 0.2 0.2 0.2 0.2 0.2 0.2 0.2 0.2 0.2 0.2 0.2 8.381616249825094e-24 1 8.381616249825094e-24 8.381616249825094e-24 8.381616249825094e-24 7.008458968036915e-15 0.9999999999999718 7.008458968036915e-15 7.008458968036915e-15 7.008458968036915e-15 0.2 0.2 0.2 0.2 0.2 0.2 0.2 0.2 0.2 0.2 1 1.824571425110327e-26 1.824571425110327e-26 1.824571425110327e-26 1.824571425110327e-26 0.003140841966056866 0.9968591580339432 3.174900956644069e-29 3.174900956644069e-29 3.174900956644069e-29 0.219039092808117 0.780960907191883 4.726176602946695e-19 4.726176602946695e-19 4.726176602946695e-19 2.511734825102881e-13 0.9999999999989952 2.511734825102881e-13 2.511734825102881e-13 2.511734825102881e-13 0.2 0.2 0.2 0.2 0.2 1 2.374579870173708e-22 2.374579870173708e-22 2.374579870173708e-22 2.374579870173708e-22 0.2 0.2 0.2 0.2 0.2 0.999999999999997 7.293626067797422e-16 7.293626067797422e-16 7.293626067797422e-16 7.293626067797422e-16 0.2 0.2 0.2 0.2 0.2 0.2 0.2 0.2 0.2 0.2 0.2 0.2 0.2 0.2 0.2 0.2 0.2 0.2 0.2 0.2 0.2 0.2 0.2 0.2 0.2 0.2 0.2 0.2 0.2 0.2 0.2 0.2 0.2 0.2 0.2 0.2 0.2 0.2 0.2 0.2 1.087878114254998e-23 1 1.087878114254998e-23 1.087878114254998e-23 1.087878114254998e-23 0.2 0.2 0.2 0.2 0.2 0.2 0.2 0.2 0.2 0.2 0.2 0.2 0.2 0.2 0.2 0.2 0.2 0.2 0.2 0.2 2.531466603894451e-25 1 2.531466603894451e-25 2.531466603894451e-25 2.531466603894451e-25 1.368306976550334e-13 0.7074074074070602 0.2925925925925293 1.368306976550334e-13 1.368306976550334e-13 2.216700200353121e-09 2.216700200353121e-09 0.9999999911331992 2.216700200353121e-09 2.216700200353121e-09 0.2 0.2 0.2 0.2 0.2 1 1.603013008143946e-24 1.603013008143946e-24 1.603013008143946e-24 1.603013008143946e-24 9.065191144630543e-30 1 9.065191144630543e-30 9.065191144630543e-30 9.065191144630543e-30 0.003550168543355089 0.1336512945564082 0.8627985369002367 1.185826120065814e-23 1.185826120065814e-23 0.1204516938519448 0.4565035549979088 0.4230447511501464 7.989656191841709e-20 7.989656191841709e-20 0.2 0.2 0.2 0.2 0.2 1 6.026087077358069e-19 6.026087077358069e-19 6.026087077358069e-19 6.026087077358069e-19 1.020754271937834e-22 1 1.020754271937834e-22 1.020754271937834e-22 1.020754271937834e-22 0.290909090909091 0.7090909090909091 4.054504867818416e-17 4.054504867818416e-17 4.054504867818416e-17 3.488581243252088e-17 1 3.488581243252088e-17 3.488581243252088e-17 3.488581243252088e-17 0.2 0.2 0.2 0.2 0.2 0.2 0.2 0.2 0.2 0.2 3.558333014126666e-29 1 3.558333014126666e-29 3.558333014126666e-29 3.558333014126666e-29 4.082578163090693e-16 0.7274826789838327 0.2725173210161662 4.082578163090693e-16 4.082578163090693e-16 5.773131867725836e-18 0.137863121614968 5.773131867725836e-18 0.8621368783850319 5.773131867725836e-18 0.2 0.2 0.2 0.2 0.2 1 5.620158487662727e-27 5.620158487662727e-27 5.620158487662727e-27 5.620158487662727e-27 6.598639734336966e-29 1 6.598639734336966e-29 6.598639734336966e-29 6.598639734336966e-29 0.008265176822946665 0.03294551318972469 0.9587893099873287 3.961126606161152e-24 3.961126606161152e-24 7.8879115899647e-11 7.8879115899647e-11 0.9999999996844837 7.8879115899647e-11 7.8879115899647e-11 0.2 0.2 0.2 0.2 0.2 1 7.907683065302223e-24 7.907683065302223e-24 7.907683065302223e-24 7.907683065302223e-24 1.549875346938101e-29 1 1.549875346938101e-29 1.549875346938101e-29 1.549875346938101e-29 5.752969627012848e-26 0.09285864288273153 0.9071413571172685 5.752969627012848e-26 5.752969627012848e-26 1.061721240305106e-24 0.0236361624432887 0.04554608830364059 0.9308177492530708 1.061721240305106e-24 4.267214339829252e-17 4.267214339829252e-17 0.9999999999999998 4.267214339829252e-17 4.267214339829252e-17 1 2.967030658083069e-24 2.967030658083069e-24 2.967030658083069e-24 2.967030658083069e-24 3.627357626419243e-27 0.9737592130606907 0.0262407869393093 3.627357626419243e-27 3.627357626419243e-27 5.212309669182824e-33 0.001813923818092661 0.9981860761819074 5.212309669182824e-33 5.212309669182824e-33 4.353303567480184e-27 0.01696939317096184 0.03480863360264198 0.9482219732263962 4.353303567480184e-27 1.079041347078577e-19 1.079041347078577e-19 1 1.079041347078577e-19 1.079041347078577e-19 0.2 0.2 0.2 0.2 0.2 3.608597863294831e-25 1 3.608597863294831e-25 3.608597863294831e-25 3.608597863294831e-25 7.929558337827768e-26 0.01168350478799774 0.9883164952120024 7.929558337827768e-26 7.929558337827768e-26 9.156214794342968e-27 0.004678732722047351 0.005217599562063775 0.9901036677158889 9.156214794342968e-27 1.176203278954172e-19 1.176203278954172e-19 0.8398102123813828 0.1601897876186173 1.176203278954172e-19 0.2 0.2 0.2 0.2 0.2 0.2 0.2 0.2 0.2 0.2 7.826913892353741e-18 7.826913892353741e-18 1 7.826913892353741e-18 7.826913892353741e-18 0.2 0.2 0.2 0.2 0.2 0.2 0.2 0.2 0.2 0.2 0.2 0.2 0.2 0.2 0.2 0.2 0.2 0.2 0.2 0.2 1.820367510148731e-21 1.820367510148731e-21 1 1.820367510148731e-21 1.820367510148731e-21 2.048e-13 2.048e-13 2.048e-13 0.9999999999991809 2.048e-13 1.652446262842437e-19 1.652446262842437e-19 0.1770253929866989 1.652446262842437e-19 0.8229746070133011 0.2 0.2 0.2 0.2 0.2 0.2 0.2 0.2 0.2 0.2 0.2 0.2 0.2 0.2 0.2 1.015811025542018e-21 1.015811025542018e-21 1.015811025542018e-21 1 1.015811025542018e-21 5.846977442345537e-21 5.846977442345537e-21 5.846977442345537e-21 5.846977442345537e-21 1 0.2 0.2 0.2 0.2 0.2 0.2 0.2 0.2 0.2 0.2 0.2 0.2 0.2 0.2 0.2 5.745799699285718e-25 5.745799699285718e-25 5.745799699285718e-25 1 5.745799699285718e-25 4.573015638387648e-28 4.573015638387648e-28 0.0002301614888160305 4.573015638387648e-28 0.999769838511184 0.2 0.2 0.2 0.2 0.2 0.2 0.2 0.2 0.2 0.2 0.2 0.2 0.2 0.2 0.2 1.745116857685318e-22 1.745116857685318e-22 1.745116857685318e-22 0.8584673953088542 0.1415326046911458 7.379118562038996e-33 7.379118562038996e-33 7.379118562038996e-33 7.379118562038996e-33 1</probabilities>
		</cpt>
		<cpt id="p2_wti" order="1">
			<parents>p1_imas p2_wti</parents>
			<probabilities>0.2 0.2 0.2 0.2 0.2 0.2 0.2 0.2 0.2 0.2 0.2 0.2 0.2 0.2 0.2 0.2 0.2 0.2 0.2 0.2 0.2 0.2 0.2 0.2 0.2 0.2 0.2 0.2 0.2 0.2 0.2 0.2 0.2 0.2 0.2 0.2 0.2 0.2 0.2 0.2 0.2 0.2 0.2 0.2 0.2 0.2 0.2 0.2 0.2 0.2 0.2 0.2 0.2 0.2 0.2 0.2 0.2 0.2 0.2 0.2 0.2 0.2 0.2 0.2 0.2 0.2 0.2 0.2 0.2 0.2 0.2 0.2 0.2 0.2 0.2 1 3.350877699834675e-29 3.350877699834675e-29 3.350877699834675e-29 3.350877699834675e-29 1 1.476682495211151e-18 1.476682495211151e-18 1.476682495211151e-18 1.476682495211151e-18 1 1.167633232271954e-17 1.167633232271954e-17 1.167633232271954e-17 1.167633232271954e-17 0.2 0.2 0.2 0.2 0.2 0.999999999999907 2.333960341695178e-14 2.333960341695178e-14 2.333960341695178e-14 2.333960341695178e-14 1 8.369009368919723e-19 8.369009368919723e-19 8.369009368919723e-19 8.369009368919723e-19 0.2 0.2 0.2 0.2 0.2 0.2 0.2 0.2 0.2 0.2 0.2 0.2 0.2 0.2 0.2 0.2 0.2 0.2 0.2 0.2 0.2 0.2 0.2 0.2 0.2 0.2 0.2 0.2 0.2 0.2 0.2 0.2 0.2 0.2 0.2 0.2 0.2 0.2 0.2 0.2 0.2 0.2 0.2 0.2 0.2 0.2 0.2 0.2 0.2 0.2 0.2 0.2 0.2 0.2 0.2 0.2 0.2 0.2 0.2 0.2 0.2 0.2 0.2 0.2 0.2 0.2 0.2 0.2 0.2 0.2 0.2 0.2 0.2 0.2 0.2 1.087878114254998e-23 1 1.087878114254998e-23 1.087878114254998e-23 1.087878114254998e-23 7.008458968036915e-15 0.9999999999999718 7.008458968036915e-15 7.008458968036915e-15 7.008458968036915e-15 0.2 0.2 0.2 0.2 0.2 0.2 0.2 0.2 0.2 0.2 1 1.352378225019957e-26 1.352378225019957e-26 1.352378225019957e-26 1.352378225019957e-26 0.002961175696424654 0.9970388243035754 2.739094173819393e-29 2.739094173819393e-29 2.739094173819393e-29 0.2173784104389087 0.7826215895610914 4.580873402332357e-19 4.580873402332357e-19 4.580873402332357e-19 0.2 0.2 0.2 0.2 0.2 1.290623236798751e-12 0.9999999999948375 1.290623236798751e-12 1.290623236798751e-12 1.290623236798751e-12 1 3.677789533512123e-22 3.677789533512123e-22 3.677789533512123e-22 3.677789533512123e-22 3.448966015893058e-14 0.9999999999998618 3.448966015893058e-14 3.448966015893058e-14 3.448966015893058e-14 0.999999999999997 7.43700882193265e-16 7.43700882193265e-16 7.43700882193265e-16 7.43700882193265e-16 0.2 0.2 0.2 0.2 0.2 8.23045267489712e-09 0.9999999670781894 8.23045267489712e-09 8.23045267489712e-09 8.23045267489712e-09 0.2 0.2 0.2 0.2 0.2 0.2 0.2 0.2 0.2 0.2 0.2 0.2 0.2 0.2 0.2 0.2 0.2 0.2 0.2 0.2 0.2 0.2 0.2 0.2 0.2 0.2 0.2 0.2 0.2 0.2 8.381616249825094e-24 1 8.381616249825094e-24 8.381616249825094e-24 8.381616249825094e-24 0.2 0.2 0.2 0.2 0.2 0.2 0.2 0.2 0.2 0.2 0.2 0.2 0.2 0.2 0.2 0.9999999921875002 1.953125e-09 1.953125e-09 1.953125e-09 1.953125e-09 2.531466603894451e-25 1 2.531466603894451e-25 2.531466603894451e-25 2.531466603894451e-25 1.749570574599821e-13 0.9999999999993002 1.749570574599821e-13 1.749570574599821e-13 1.749570574599821e-13 0.2 0.2 0.2 0.2 0.2 6.4e-10 0.9999999974399998 6.4e-10 6.4e-10 6.4e-10 1 6.486453845361275e-25 6.486453845361275e-25 6.486453845361275e-25 6.486453845361275e-25 7.461904456011117e-30 1 7.461904456011117e-30 7.461904456011117e-30 7.461904456011117e-30 0.004887585532746823 0.1093873175038628 0.8857250969633904 6.234116105156194e-24 6.234116105156194e-24 0.2 0.2 0.2 0.2 0.2 0.1051016494054469 0.5078634445723053 0.3870349060222478 5.185115463929724e-20 5.185115463929724e-20 1 1.318914857114966e-18 1.318914857114966e-18 1.318914857114966e-18 1.318914857114966e-18 6.462023555236972e-23 1 6.462023555236972e-23 6.462023555236972e-23 6.462023555236972e-23 0.2711246200607903 0.7288753799392097 1.655315727072757e-17 1.655315727072757e-17 1.655315727072757e-17 0.2 0.2 0.2 0.2 0.2 1.085519871998895e-16 0.9999999999999992 1.085519871998895e-16 1.085519871998895e-16 1.085519871998895e-16 0.2 0.2 0.2 0.2 0.2 4.054479821704137e-29 1 4.054479821704137e-29 4.054479821704137e-29 4.054479821704137e-29 2.080455014948399e-15 0.6735999999999952 0.3263999999999987 2.080455014948399e-15 2.080455014948399e-15 0.2 0.2 0.2 0.2 0.2 1.605936368672416e-17 0.1335347432024169 1.605936368672416e-17 1.605936368672416e-17 0.866465256797583 1 9.59275739450088e-27 9.59275739450088e-27 9.59275739450088e-27 9.59275739450088e-27 7.430503571455821e-29 1 7.430503571455821e-29 7.430503571455821e-29 7.430503571455821e-29 0.007411481248690552 0.02941022417766604 0.9631782945736433 2.463576319940898e-24 2.463576319940898e-24 0.2 0.2 0.2 0.2 0.2 0.2 0.2 0.2 0.2 0.2 1 1.604661588927403e-23 1.604661588927403e-23 1.604661588927403e-23 1.604661588927403e-23 2.159486029078977e-29 1 2.159486029078977e-29 2.159486029078977e-29 2.159486029078977e-29 5.375907902538393e-26 0.09409427707906796 0.905905722920932 5.375907902538393e-26 5.375907902538393e-26 7.937831194115882e-17 7.937831194115882e-17 0.9999999999999998 7.937831194115882e-17 7.937831194115882e-17 1.191465227980054e-24 0.02525195334616692 0.04520439361340731 1.191465227980054e-24 0.9295436530404257 1 1.627308297745455e-24 1.627308297745455e-24 1.627308297745455e-24 1.627308297745455e-24 3.882801997974112e-27 0.9733707986598941 0.02662920134010591 3.882801997974112e-27 3.882801997974112e-27 1.302697742280068e-05 0.001587843803645817 0.9983991292189314 5.229117847022989e-33 5.229117847022989e-33 1.0099545194007e-19 1.0099545194007e-19 1 1.0099545194007e-19 1.0099545194007e-19 4.659373327466675e-27 0.01741827012889968 0.03513543807210909 4.659373327466675e-27 0.9474462917989912 0.2 0.2 0.2 0.2 0.2 1.944786197189985e-25 1 1.944786197189985e-25 1.944786197189985e-25 1.944786197189985e-25 5.970249654855743e-26 0.01411272758951128 0.9858872724104888 5.970249654855743e-26 5.970249654855743e-26 1.12573560428553e-19 1.12573560428553e-19 0.8351623740201567 1.12573560428553e-19 0.1648376259798432 7.129201690792318e-27 0.004507289768289508 0.005410374902369174 7.129201690792318e-27 0.9900823353293413 0.2 0.2 0.2 0.2 0.2 0.2 0.2 0.2 0.2 0.2 1.466634361792092e-16 1.466634361792092e-16 0.9999999999999993 1.466634361792092e-16 1.466634361792092e-16 0.2 0.2 0.2 0.2 0.2 0.2 0.2 0.2 0.2 0.2 0.2 0.2 0.2 0.2 0.2 0.2 0.2 0.2 0.2 0.2 2.325411622522397e-21 2.325411622522397e-21 1 2.325411622522397e-21 2.325411622522397e-21 3.294954747578342e-20 3.294954747578342e-20 0.1115782098441058 0.8884217901558942 3.294954747578342e-20 0.2 0.2 0.2 0.2 0.2 0.2 0.2 0.2 0.2 0.2 0.2 0.2 0.2 0.2 0.2 0.2 0.2 0.2 0.2 0.2 9.807685786695702e-21 9.807685786695702e-21 9.807685786695702e-21 1 9.807685786695702e-21 1.251483354671906e-21 1.251483354671906e-21 1.251483354671906e-21 1.251483354671906e-21 1 0.2 0.2 0.2 0.2 0.2 0.2 0.2 0.2 0.2 0.2 6.740604793006011e-13 6.740604793006011e-13 0.9999999999973038 6.740604793006011e-13 6.740604793006011e-13 6.833231564857627e-28 6.833231564857627e-28 0.0007482363001496473 0.9992517636998502 6.833231564857627e-28 6.677055405275544e-25 6.677055405275544e-25 6.677055405275544e-25 6.677055405275544e-25 1 0.2 0.2 0.2 0.2 0.2 0.2 0.2 0.2 0.2 0.2 0.2 0.2 0.2 0.2 0.2 7.411471225897293e-33 7.411471225897293e-33 7.411471225897293e-33 1 7.411471225897293e-33 1.080772222102218e-22 1.080772222102218e-22 1.080772222102218e-22 0.1309975451908056 0.8690024548091944</probabilities>
		</cpt>
	</dynamic>
	<extensions>
		<genie version="1.0" app="SMILE_ACADEMIC 1.5.0@a121f1f76773" name="emidas dbn v9" faultnameformat="user">
			<plate leftwidth="120" rightwidth="120">120 50 1164 561</plate>
			<node id="p1_imas">
				<name>p1_imas</name>
				<interior color="e5f6f7" />
				<outline color="000080" />
				<font color="000000" name="MS Sans Serif" size="8" />
				<position>491 462 547 497</position>
			</node>
			<node id="p2_imas">
				<name>p2_imas</name>
				<interior color="e5f6f7" />
				<outline color="000080" />
				<font color="000000" name="MS Sans Serif" size="8" />
				<position>651 472 707 507</position>
			</node>
			<node id="p1_wti">
				<name>p1_wti</name>
				<interior color="e5f6f7" />
				<outline color="000080" />
				<font color="000000" name="MS Sans Serif" size="8" />
				<position>487 311 571 363</position>
			</node>
			<node id="p2_wti">
				<name>p2_wti</name>
				<interior color="e5f6f7" />
				<outline color="000080" />
				<font color="000000" name="MS Sans Serif" size="8" />
				<position>650 301 734 353</position>
			</node>
			<node id="p1_approach">
				<name>p1_approach</name>
				<interior color="e5f6f7" />
				<outline color="000080" />
				<font color="000000" name="MS Sans Serif" size="8" />
				<position>268 135 344 182</position>
			</node>
			<node id="p2_head">
				<name>p2_head</name>
				<interior color="e5f6f7" />
				<outline color="000080" />
				<font color="000000" name="MS Sans Serif" size="8" />
				<position>676 84 733 119</position>
			</node>
			<node id="p1_body">
				<name>p1_body</name>
				<interior color="e5f6f7" />
				<outline color="000080" />
				<font color="000000" name="MS Sans Serif" size="8" />
				<position>404 76 461 111</position>
			</node>
			<node id="p2_approach">
				<name>p2_approach</name>
				<interior color="e5f6f7" />
				<outline color="000080" />
				<font color="000000" name="MS Sans Serif" size="8" />
				<position>924 160 1000 207</position>
			</node>
			<node id="p2_body">
				<name>p2_body</name>
				<interior color="e5f6f7" />
				<outline color="000080" />
				<font color="000000" name="MS Sans Serif" size="8" />
				<position>827 91 884 126</position>
			</node>
			<node id="dist">
				<name>dist</name>
				<interior color="e5f6f7" />
				<outline color="000080" />
				<font color="000000" name="MS Sans Serif" size="8" />
				<position>599 137 637 160</position>
			</node>
			<node id="p1_gesture">
				<name>p1_gesture</name>
				<interior color="e5f6f7" />
				<outline color="000080" />
				<font color="000000" name="MS Sans Serif" size="8" />
				<position>248 271 316 313</position>
			</node>
			<node id="p2_gesture">
				<name>p2_gesture</name>
				<interior color="e5f6f7" />
				<outline color="000080" />
				<font color="000000" name="MS Sans Serif" size="8" />
				<position>964 312 1032 354</position>
			</node>
			<node id="p1_head">
				<name>p1_head</name>
				<interior color="e5f6f7" />
				<outline color="000080" />
				<font color="000000" name="MS Sans Serif" size="8" />
				<position>528 80 585 115</position>
			</node>
		</genie>
	</extensions>
</smile>
