<?xml version="1.0" encoding="ISO-8859-1"?>
<!-- This file was created by ACADEMIC version of SMILE -->
<smile version="1.0" id="Network2" numsamples="10000" discsamples="10000">
	<nodes>
		<cpt id="p1_imas" target="true" dynamic="plate">
			<state id="very_high" />
			<state id="high" />
			<state id="medium" />
			<state id="low" />
			<state id="very_low" />
			<probabilities>0.0400053731877929 0.05787122259922984 0.08312520522592264 0.5087264549896018 0.3102717439974527</probabilities>
		</cpt>
		<cpt id="p2_imas" target="true" dynamic="plate">
			<state id="very_high" />
			<state id="high" />
			<state id="medium" />
			<state id="low" />
			<state id="very_low" />
			<probabilities>0.04114468800684584 0.05966726037074996 0.08631926685837669 0.5041592453656255 0.308709539398402</probabilities>
		</cpt>
		<cpt id="p1_wti" target="true" dynamic="plate">
			<state id="very_high" />
			<state id="high" />
			<state id="medium" />
			<state id="low" />
			<state id="very_low" />
			<parents>p1_imas</parents>
			<probabilities>1 5.94579117169708e-21 5.94579117169708e-21 5.94579117169708e-21 5.94579117169708e-21 0.2307427785419532 0.7692572214580468 9.38796269556335e-22 9.38796269556335e-22 9.38796269556335e-22 0.1000718218817333 0.867488628202059 0.03243954991620781 1.535598575454764e-22 1.535598575454764e-22 0.04582750628343423 0.2974582652831702 0.510527808475057 0.1461864199583386 1.789074667553868e-26 2.119948751599679e-25 2.119948751599679e-25 0.004217176576229876 0.09479828105958565 0.9009845423641845</probabilities>
		</cpt>
		<cpt id="p2_wti" target="true" dynamic="plate">
			<state id="very_high" />
			<state id="high" />
			<state id="medium" />
			<state id="very_low" />
			<state id="low" />
			<parents>p2_imas</parents>
			<probabilities>1 5.167017013286347e-21 5.167017013286347e-21 5.167017013286347e-21 5.167017013286347e-21 0.2331359959976653 0.7668640040023348 8.057675494947425e-22 8.057675494947425e-22 8.057675494947425e-22 0.1085878962536023 0.8552161383285303 0.03619596541786743 1.271766692725913e-22 1.271766692725913e-22 0.04365717669117285 0.2920905906152859 0.5165836088222233 1.871592119801669e-26 0.1476686238713179 2.174132815948047e-25 2.174132815948047e-25 0.00386784850926672 0.899774375503626 0.09635777598710717</probabilities>
		</cpt>
		<cpt id="p1_approach" dynamic="plate">
			<state id="y" />
			<state id="m" />
			<state id="n" />
			<parents>p1_wti</parents>
			<probabilities>0.5872968532529641 0.1993925218974665 0.2133106248495694 0.4067469154726717 0.2037866286329084 0.38946645589442 0.08383946647612242 0.1323285448014379 0.7838319887224396 0.1396214000986921 0.1047151751435761 0.7556634247577317 0.0001700325234432342 0.004647555640781734 0.9951824118357749</probabilities>
		</cpt>
		<cpt id="p2_head" dynamic="plate">
			<state id="central" />
			<state id="mid_peripheral" />
			<state id="outside" />
			<parents>p2_wti</parents>
			<probabilities>1 3.790559583237663e-29 3.790559583237663e-29 0.9990749037568032 0.0008952276649409263 2.986857825567502e-05 0.9977230634544327 0.002089337573315333 0.000187598972251905 0.01251257437660567 0.2319836994243835 0.7555037261990107 0.2763695175819971 0.4316545511460471 0.2919759312719558</probabilities>
		</cpt>
		<cpt id="p1_body" dynamic="plate">
			<state id="strongly_facing" />
			<state id="slightly_facing" />
			<state id="turned_away" />
			<parents>p1_wti</parents>
			<probabilities>0.4689615839429043 0.4778069046348329 0.05323151142226268 0.2944338443155535 0.4917997972157239 0.2137663584687226 0.01333625058044909 0.2253444151796553 0.7613193342398956 0.03069955938502889 0.7895477309553891 0.1797527096595821 0.002910390026270024 0.3827488780215016 0.6143407319522285</probabilities>
		</cpt>
		<cpt id="p2_approach" dynamic="plate">
			<state id="y" />
			<state id="m" />
			<state id="n" />
			<parents>p2_wti</parents>
			<probabilities>0.5981000097937639 0.2040427626661718 0.1978572275400642 0.4069817801672641 0.2134781959378734 0.3795400238948626 0.0848103687055487 0.1323244064423694 0.7828652248520819 2.590183868432478e-31 0.003556005179977599 0.9964439948200224 0.1391186393516747 0.1092379395499287 0.7516434210983965</probabilities>
		</cpt>
		<cpt id="p2_body" dynamic="plate">
			<state id="strongly_facing" />
			<state id="slightly_facing" />
			<state id="turned_away" />
			<parents>p2_wti</parents>
			<probabilities>0.452605914402503 0.4894691264478018 0.05792495914969509 0.2927435948493296 0.5010578454798884 0.2061985596707819 0.01567554941669594 0.2254645373570248 0.7588599132262793 0.003168077342161861 0.4064685065348727 0.5903634161229655 0.04016208131891065 0.7778964209940524 0.181941497687037</probabilities>
		</cpt>
		<cpt id="dist" dynamic="plate">
			<state id="range_0_3" />
			<state id="range_3_6" />
			<state id="range_6_9" />
			<state id="range_9_12" />
			<state id="range_12_15" />
			<state id="range_15_18" />
			<state id="range_18_21" />
			<state id="range_21_24" />
			<state id="range_24_27" />
			<state id="range_27_30" />
			<state id="range_30_inf" />
			<parents>p1_wti p2_wti</parents>
			<probabilities>0.1111111111111111 0.1111111111111111 0.1111111111111111 0.1111111111111111 0.1111111111111111 0.1111111111111111 0.1111111111111111 0.1111111111111111 0.1111111111111111 0 0 0.06181305049001365 0.2309980151345987 0.2422342141173552 0.2410991192159782 0.1662945044039201 0.04658230988711078 0.01023446222553033 0.000744324525493115 3.187911039586527e-29 0 0 1.741018947894743e-23 1.741018947894743e-23 1.741018947894743e-23 0.006097560975609755 0.8013937282229965 0.1925087108013937 1.741018947894743e-23 1.741018947894743e-23 1.741018947894743e-23 0 0 6.586370296614191e-20 6.586370296614191e-20 6.586370296614191e-20 6.586370296614191e-20 0.7646526363430641 0.235347363656936 6.586370296614191e-20 6.586370296614191e-20 6.586370296614191e-20 0 0 3.103318861094372e-24 3.103318861094372e-24 3.103318861094372e-24 0.01604096615973101 0.323287164142271 0.6503686337415554 0.01030323595644261 3.103318861094372e-24 3.103318861094372e-24 0 0 0.06317094828378089 0.2319085091399002 0.242821274380722 0.2352092838115068 0.1687130653112465 0.04678649070700266 0.01059432315747573 0.0007961052083652285 2.990449190388174e-29 0 0 0.02838159879978596 0.1285276513361182 0.1830993512088012 0.2477272436948312 0.2018278567180619 0.1744057478556962 0.03546280486160494 0.0005677455251007394 6.400634838824116e-31 0 0 0.009261693393460195 0.03522679015591192 0.0370063294978868 0.3955835069058261 0.1792885887039696 0.1852540899071809 0.1066105842146772 0.05075731532223818 0.001011101898849366 0 0 5.839266608100256e-24 5.839266608100256e-24 5.839266608100256e-24 0.8966639829173522 0.02149333146637729 0.01200686106346484 0.06983582455280569 5.839266608100256e-24 5.839266608100256e-24 0 0 3.051024215164502e-25 3.051024215164502e-25 0.002327701588656334 0.2453785424708552 0.02385894128372743 0.1926173064613116 0.06519504199561615 0.1174907376874284 0.2010940197466685 0.1269955191744418 0.02504218959129439 1.87958775313845e-23 1.87958775313845e-23 1.87958775313845e-23 0.003538100924328867 0.7368095174914864 0.2596523815841847 1.87958775313845e-23 1.87958775313845e-23 1.87958775313845e-23 0 0 0.008641129669634859 0.03329996311712946 0.03582907423994942 0.3931713999683861 0.183992834185152 0.1955319036830181 0.1094894356920807 0.03983350018441435 0.0002107592602349966 0 0 2.103067134075102e-31 2.103067134075102e-31 0.004635320689208564 0.1891563034680833 0.07471387119716247 0.08370843832864877 0.06768931535858977 0.07446051911047287 0.09088864096487381 0.4147475908829604 0 9.888249709311531e-25 9.888249709311531e-25 9.888249709311531e-25 0.004957176863235908 0.3072468036025424 0.5086505190311419 0.1580406881150458 0.02110481238803406 9.888249709311531e-25 0 0 6.183844897746114e-25 6.183844897746114e-25 6.183844897746114e-25 0.215236818588025 0.3888963360142985 0.2127792672028597 0.08290884718498659 0.0464924039320822 0.007171581769436997 0.0129579982126899 0.03355674709562109 1.948075183199673e-24 1.948075183199673e-24 1.948075183199673e-24 0.0241702031983362 0.2782383856552655 0.6871926027936259 0.01039880835277255 1.948075183199673e-24 1.948075183199673e-24 0 0 2.913712026054829e-25 2.913712026054829e-25 2.913712026054829e-25 0.2573323082836825 0.02954064962521622 0.1890640015375745 0.05915817797424562 0.1257928118393235 0.1953872765712089 0.1236786469344609 0.02004612723428791 7.128722561694179e-25 7.128722561694179e-25 7.128722561694179e-25 0.2143891506723366 0.3992184806344099 0.2065049994253534 0.06498103666245261 0.05675209746006207 0.01259625330421791 0.01282611194115619 0.0327318699000115 8.653812955402331e-26 8.653812955402331e-26 8.653812955402331e-26 0.3056581585731731 0.03568574831521657 0.185710624312141 0.2151396824918211 0.1632769979948439 0.09448355922748722 4.522908531713127e-05 0 2.070742625566369e-26 2.070742625566369e-26 2.070742625566369e-26 0.2356385629502107 0.07855751370452589 0.5325737326145064 0.09696235219498935 0.05626783853576768 2.070742625566369e-26 0 0 3.204821654795353e-19 3.204821654795353e-19 3.204821654795353e-19 3.204821654795353e-19 0.7018633540372671 0.2981366459627329 3.204821654795353e-19 3.204821654795353e-19 3.204821654795353e-19 0 0 3.654591317638568e-24 3.654591317638568e-24 0.0006374705169885893 0.8969210174029452 0.01147446930579461 0.007458405048766495 0.08350863772550519 3.654591317638568e-24 3.654591317638568e-24 0 0 8.642862896382982e-25 8.642862896382982e-25 8.642862896382982e-25 0.006258808915219418 0.27854088531091 0.5164472898401854 0.1920642125128402 0.006688803420845179 8.642862896382982e-25 0 0 1.764199662264683e-31 1.764199662264683e-31 1.764199662264683e-31 0.2712964445780198 0.3259275753061936 0.1426227242513255 0.06391401350038062 0.0471493224581486 0.1009183066828419 0.04817161322308972 0 6.384850654905222e-26 6.384850654905222e-26 6.384850654905222e-26 0.2952559300873908 0.04043241402791965 0.1973527408920667 0.203367949154466 0.1623822494609011 0.1000595846101464 0.001149131767109295 0</probabilities>
		</cpt>
		<cpt id="p1_gesture" dynamic="plate">
			<state id="wave_slow_shoulder" />
			<state id="wave_fast_shoulder" />
			<state id="wave_small_head" />
			<state id="wave_wide_head" />
			<state id="arm_raise_high" />
			<state id="arm_raise_low" />
			<state id="come_here" />
			<state id="i_am_coming" />
			<state id="None" />
			<parents>p1_wti</parents>
			<probabilities>0.01789470379556086 1.361738972492509e-29 0.02570663150514342 0.08507048001758076 0.02040362498561098 1.361738972492509e-29 0.01093565231950941 0.008371791249385196 0.8316171161272093 4.28108929960272e-32 0.02082298684546499 0.05992465415530102 0.003956524505579046 0.1329765740365061 0.07482607571108776 0.02937397172093116 4.281089261072917e-32 0.6781192130251298 7.450512849281093e-32 7.450512782226477e-32 7.450512782226477e-32 7.450512782226477e-32 0.01541709709909316 0.02391127137506658 7.450512782226477e-32 7.450512782226477e-32 0.9606716315258402 5.83334264396355e-29 5.833342591463466e-29 0.008119354511316349 5.833342591463466e-29 5.833342591463466e-29 5.833342591463466e-29 5.833342591463466e-29 5.833342591463466e-29 0.9918806454886837 8.357048342693321e-32 8.357048267479888e-32 8.357048267479888e-32 8.357048267479888e-32 8.357048267479888e-32 8.357048267479888e-32 8.357048267479888e-32 8.357048267479888e-32 1</probabilities>
		</cpt>
		<cpt id="p2_gesture" dynamic="plate">
			<state id="wave_slow_shoulder" />
			<state id="wave_fast_shoulder" />
			<state id="wave_small_head" />
			<state id="wave_wide_head" />
			<state id="arm_raise_high" />
			<state id="arm_raise_low" />
			<state id="come_here" />
			<state id="i_am_coming" />
			<state id="None" />
			<parents>p2_wti</parents>
			<probabilities>0.01572156844552348 1.26351986107922e-29 0.03714156112597358 0.08667738826088525 0.01814423636991562 1.26351986107922e-29 0.01268034700852057 0.008865933680754223 0.8207689651084273 4.368335022377914e-32 0.02094119208814549 0.0631073277578654 0.003471392539492898 0.1270385304659498 0.07557828886233904 0.03057795698924731 4.368335022377914e-32 0.67928531129696 7.307299880965845e-32 7.307299880965845e-32 7.307299880965845e-32 7.307299880965845e-32 0.01697586778318709 0.02450833436022313 7.307299880965845e-32 7.307299880965845e-32 0.9585157978565898 8.633946228108261e-32 8.633946228108261e-32 8.633946228108261e-32 8.633946228108261e-32 8.633946228108261e-32 8.633946228108261e-32 8.633946228108261e-32 8.633946228108261e-32 1 5.655684370698539e-29 5.655684370698539e-29 0.009251852109491844 5.655684370698539e-29 5.655684370698539e-29 5.655684370698539e-29 5.655684370698539e-29 5.655684370698539e-29 0.9907481478905081</probabilities>
		</cpt>
		<cpt id="p1_head" dynamic="plate">
			<state id="central" />
			<state id="mid_peripheral" />
			<state id="outside" />
			<parents>p1_wti</parents>
			<probabilities>1 4.085216958329697e-29 4.085216958329697e-29 0.9990877186603676 0.0008089886154891159 0.0001032927241431455 0.9977815997407711 0.001944215957526359 0.0002741843017024352 0.2690446109534292 0.4322996321792418 0.298655756867329 0.0129602567868954 0.2139934877543521 0.7730462554587525</probabilities>
		</cpt>
	</nodes>
	<dynamic numslices="20">
		<cpt id="p1_imas" order="1">
			<parents>p1_imas</parents>
			<probabilities>1 1.105835730474784e-27 1.105835730474784e-27 1.105835730474784e-27 1.105835730474784e-27 0.001188795601456275 0.9988112043985438 1.828898205208038e-28 1.828898205208038e-28 1.828898205208038e-28 0.00507912745936698 0.007505821689953426 0.9844150983746792 0.00299995247600038 4.623688324028853e-29 0.0004253571906480439 0.0008308711630720762 0.003618588923312067 0.9946418222790496 0.0004833604439182317 1.344067630948943e-31 1.344067630948943e-31 1.344067630948943e-31 0.0104836557119807 0.9895163442880194</probabilities>
		</cpt>
		<cpt id="p2_imas" order="1">
			<parents>p2_imas</parents>
			<probabilities>1 9.666933951197909e-28 9.666933951197909e-28 9.666933951197909e-28 9.666933951197909e-28 0.001155585965712548 0.9988444140342874 1.58732229899714e-28 1.58732229899714e-28 1.58732229899714e-28 0.005071494584091522 0.007416379176735989 0.9846305299955799 0.002881596243592466 3.895120036467359e-29 0.0004292184835033264 0.0008322525858359953 0.003691997745062703 0.9945587829088895 0.0004877482767083254 1.383721158225658e-31 1.383721158225658e-31 1.383721158225658e-31 0.0106692801835655 0.9893307198164346</probabilities>
		</cpt>
		<cpt id="p1_wti" order="1">
			<parents>p2_imas p1_wti</parents>
			<probabilities>0.2 0.2 0.2 0.2 0.2 0.2 0.2 0.2 0.2 0.2 0.2 0.2 0.2 0.2 0.2 0.2 0.2 0.2 0.2 0.2 0.2 0.2 0.2 0.2 0.2 0.2 0.2 0.2 0.2 0.2 0.2 0.2 0.2 0.2 0.2 0.2 0.2 0.2 0.2 0.2 0.2 0.2 0.2 0.2 0.2 0.2 0.2 0.2 0.2 0.2 0.2 0.2 0.2 0.2 0.2 0.2 0.2 0.2 0.2 0.2 0.2 0.2 0.2 0.2 0.2 0.2 0.2 0.2 0.2 0.2 0.2 0.2 0.2 0.2 0.2 1 1.101723534210594e-27 1.101723534210594e-27 1.101723534210594e-27 1.101723534210594e-27 0.9999999999999991 1.336237281787435e-16 1.336237281787435e-16 1.336237281787435e-16 1.336237281787435e-16 0.9999999999999947 1.326102635578686e-15 1.326102635578686e-15 1.326102635578686e-15 1.326102635578686e-15 0.9999999999904585 2.38546386128044e-12 2.38546386128044e-12 2.38546386128044e-12 2.38546386128044e-12 0.2 0.2 0.2 0.2 0.2 0.9999999999999971 6.927188126103507e-16 6.927188126103507e-16 6.927188126103507e-16 6.927188126103507e-16 0.99999975 6.25e-08 6.25e-08 6.25e-08 6.25e-08 0.2 0.2 0.2 0.2 0.2 0.2 0.2 0.2 0.2 0.2 0.2 0.2 0.2 0.2 0.2 0.2 0.2 0.2 0.2 0.2 0.2 0.2 0.2 0.2 0.2 0.2 0.2 0.2 0.2 0.2 0.2 0.2 0.2 0.2 0.2 0.2 0.2 0.2 0.2 0.2 0.2 0.2 0.2 0.2 0.2 0.2 0.2 0.2 0.2 0.2 0.2 0.2 0.2 0.2 0.2 0.2 0.2 0.2 0.2 0.2 0.2 0.2 0.2 0.2 0.2 0.2 0.2 0.2 0.2 0.2 3.184517616616095e-22 1 3.184517616616095e-22 3.184517616616095e-22 3.184517616616095e-22 7.867978408101717e-13 0.9999999999968531 7.867978408101717e-13 7.867978408101717e-13 7.867978408101717e-13 0.2 0.2 0.2 0.2 0.2 0.2 0.2 0.2 0.2 0.2 1 5.296902940187476e-25 5.296902940187476e-25 5.296902940187476e-25 5.296902940187476e-25 0.002666666666666667 0.9973333333333333 9.166999139653404e-28 9.166999139653404e-28 9.166999139653404e-28 0.2285714285714285 0.7714285714285714 4.78784098738327e-17 4.78784098738327e-17 4.78784098738327e-17 8.077221468123855e-13 0.9999999999967689 8.077221468123855e-13 8.077221468123855e-13 8.077221468123855e-13 0.2 0.2 0.2 0.2 0.2 1 2.686427944630052e-20 2.686427944630052e-20 2.686427944630052e-20 2.686427944630052e-20 0.2 0.2 0.2 0.2 0.2 0.9999999999996966 7.577584690369132e-14 7.577584690369132e-14 7.577584690369132e-14 7.577584690369132e-14 0.2 0.2 0.2 0.2 0.2 0.2 0.2 0.2 0.2 0.2 0.2 0.2 0.2 0.2 0.2 0.2 0.2 0.2 0.2 0.2 0.2 0.2 0.2 0.2 0.2 0.2 0.2 0.2 0.2 0.2 0.2 0.2 0.2 0.2 0.2 0.2 0.2 0.2 0.2 0.2 3.921638714350336e-22 1 3.921638714350336e-22 3.921638714350336e-22 3.921638714350336e-22 0.2 0.2 0.2 0.2 0.2 0.2 0.2 0.2 0.2 0.2 0.2 0.2 0.2 0.2 0.2 0.2 0.2 0.2 0.2 0.2 6.686244773446146e-24 1 6.686244773446146e-24 6.686244773446146e-24 6.686244773446146e-24 8.74625153179729e-13 0.7956989247285775 0.2043010752687984 8.74625153179729e-13 8.74625153179729e-13 6.25e-08 6.25e-08 0.99999975 6.25e-08 6.25e-08 0.2 0.2 0.2 0.2 0.2 1 2.534357232984393e-23 2.534357232984393e-23 2.534357232984393e-23 2.534357232984393e-23 2.496250996979176e-28 1 2.496250996979176e-28 2.496250996979176e-28 2.496250996979176e-28 0.004880554842024146 0.1882010446099837 0.806918400547992 9.200592199772137e-22 9.200592199772137e-22 0.1821829855537721 0.489967897271268 0.3278491171749599 2.076914427175689e-18 2.076914427175689e-18 0.2 0.2 0.2 0.2 0.2 1 6.62211394229469e-18 6.62211394229469e-18 6.62211394229469e-18 6.62211394229469e-18 1.289773483848807e-21 1 1.289773483848807e-21 1.289773483848807e-21 1.289773483848807e-21 0.383783783783783 0.6162162162162144 8.952389223343342e-16 8.952389223343342e-16 8.952389223343342e-16 9.730162078701275e-17 1 9.730162078701275e-17 9.730162078701275e-17 9.730162078701275e-17 0.2 0.2 0.2 0.2 0.2 0.2 0.2 0.2 0.2 0.2 1.018393003553092e-27 1 1.018393003553092e-27 1.018393003553092e-27 1.018393003553092e-27 4.212688968455331e-14 0.7222222222221123 0.2777777777777614 4.212688968455331e-14 4.212688968455331e-14 5.460890613371194e-16 0.1395348837209304 5.460890613371194e-16 0.860465116279068 5.460890613371194e-16 0.2 0.2 0.2 0.2 0.2 1 1.577921285708491e-25 1.577921285708491e-25 1.577921285708491e-25 1.577921285708491e-25 1.898314490411363e-27 1 1.898314490411363e-27 1.898314490411363e-27 1.898314490411363e-27 0.01111176092169133 0.02666822621205919 0.9622200128662495 1.367884548108156e-22 1.367884548108156e-22 3.047123298650894e-10 3.047123298650894e-10 0.9999999987811506 3.047123298650894e-10 3.047123298650894e-10 0.2 0.2 0.2 0.2 0.2 1 8.265740993056854e-22 8.265740993056854e-22 8.265740993056854e-22 8.265740993056854e-22 5.187849764336821e-28 1 5.187849764336821e-28 5.187849764336821e-28 5.187849764336821e-28 1.945574205289579e-24 0.09198101423932052 0.9080189857606795 1.945574205289579e-24 1.945574205289579e-24 6.732402529817596e-24 0.01703544782093567 0.04233244740465593 0.9406321047744084 6.732402529817596e-24 2.047537087502947e-15 2.047537087502947e-15 0.9999999999999919 2.047537087502947e-15 2.047537087502947e-15 1 6.421518570907445e-23 6.421518570907445e-23 6.421518570907445e-23 6.421518570907445e-23 1.145043367918217e-25 0.9710802381627445 0.02891976183725546 1.145043367918217e-25 1.145043367918217e-25 3.284162654645587e-31 0.002277026437579991 0.99772297356242 3.284162654645587e-31 3.284162654645587e-31 3.366394799402372e-26 0.0199203187250996 0.03817598686035802 0.9419036944145424 3.366394799402372e-26 2.511734825102881e-18 2.511734825102881e-18 1 2.511734825102881e-18 2.511734825102881e-18 0.2 0.2 0.2 0.2 0.2 1.509478939425974e-23 1 1.509478939425974e-23 1.509478939425974e-23 1.509478939425974e-23 1.004440476463354e-24 0.01350434459060168 0.9864956554093983 1.004440476463354e-24 1.004440476463354e-24 4.432683536204982e-26 0.005522724074855776 0.005792411237746822 0.9886848646873974 4.432683536204982e-26 2.654214635635909e-19 2.654214635635909e-19 0.8130816272268014 0.1869183727731986 2.654214635635909e-19 0.2 0.2 0.2 0.2 0.2 0.2 0.2 0.2 0.2 0.2 8.892225535384745e-16 8.892225535384745e-16 0.9999999999999963 8.892225535384745e-16 8.892225535384745e-16 0.2 0.2 0.2 0.2 0.2 0.2 0.2 0.2 0.2 0.2 0.2 0.2 0.2 0.2 0.2 0.2 0.2 0.2 0.2 0.2 2.072029450730698e-19 2.072029450730698e-19 1 2.072029450730698e-19 2.072029450730698e-19 8.516099938465201e-13 8.516099938465201e-13 8.516099938465201e-13 0.9999999999965936 8.516099938465201e-13 1.814776778424737e-17 1.814776778424737e-17 0.1764705882352941 1.814776778424737e-17 0.8235294117647058 0.2 0.2 0.2 0.2 0.2 0.2 0.2 0.2 0.2 0.2 0.2 0.2 0.2 0.2 0.2 9.222983317104281e-21 9.222983317104281e-21 9.222983317104281e-21 1 9.222983317104281e-21 3.602692392448865e-19 3.602692392448865e-19 3.602692392448865e-19 3.602692392448865e-19 1 0.2 0.2 0.2 0.2 0.2 0.2 0.2 0.2 0.2 0.2 0.2 0.2 0.2 0.2 0.2 1.251499174591812e-24 1.251499174591812e-24 1.251499174591812e-24 1 1.251499174591812e-24 8.780066521854196e-27 8.780066521854196e-27 0.000161157620634961 8.780066521854196e-27 0.999838842379365 0.2 0.2 0.2 0.2 0.2 0.2 0.2 0.2 0.2 0.2 0.2 0.2 0.2 0.2 0.2 3.036626067637104e-22 3.036626067637104e-22 3.036626067637104e-22 0.9348333104678282 0.06516668953217176 3.817116631498805e-31 3.817116631498805e-31 3.817116631498805e-31 3.817116631498805e-31 1</probabilities>
		</cpt>
		<cpt id="p2_wti" order="1">
			<parents>p1_imas p2_wti</parents>
			<probabilities>0.2 0.2 0.2 0.2 0.2 0.2 0.2 0.2 0.2 0.2 0.2 0.2 0.2 0.2 0.2 0.2 0.2 0.2 0.2 0.2 0.2 0.2 0.2 0.2 0.2 0.2 0.2 0.2 0.2 0.2 0.2 0.2 0.2 0.2 0.2 0.2 0.2 0.2 0.2 0.2 0.2 0.2 0.2 0.2 0.2 0.2 0.2 0.2 0.2 0.2 0.2 0.2 0.2 0.2 0.2 0.2 0.2 0.2 0.2 0.2 0.2 0.2 0.2 0.2 0.2 0.2 0.2 0.2 0.2 0.2 0.2 0.2 0.2 0.2 0.2 1 9.71719318067041e-28 9.71719318067041e-28 9.71719318067041e-28 9.71719318067041e-28 0.9999999999999992 1.225046103995435e-16 1.225046103995435e-16 1.225046103995435e-16 1.225046103995435e-16 0.9999999999999947 1.326102635578686e-15 1.326102635578686e-15 1.326102635578686e-15 1.326102635578686e-15 0.2 0.2 0.2 0.2 0.2 0.9999999999904585 2.38546386128044e-12 2.38546386128044e-12 2.38546386128044e-12 2.38546386128044e-12 1 9.522260308284047e-17 9.522260308284047e-17 9.522260308284047e-17 9.522260308284047e-17 0.2 0.2 0.2 0.2 0.2 0.2 0.2 0.2 0.2 0.2 0.2 0.2 0.2 0.2 0.2 0.2 0.2 0.2 0.2 0.2 0.2 0.2 0.2 0.2 0.2 0.2 0.2 0.2 0.2 0.2 0.2 0.2 0.2 0.2 0.2 0.2 0.2 0.2 0.2 0.2 0.2 0.2 0.2 0.2 0.2 0.2 0.2 0.2 0.2 0.2 0.2 0.2 0.2 0.2 0.2 0.2 0.2 0.2 0.2 0.2 0.2 0.2 0.2 0.2 0.2 0.2 0.2 0.2 0.2 0.2 0.2 0.2 0.2 0.2 0.2 3.921638714350336e-22 1 3.921638714350336e-22 3.921638714350336e-22 3.921638714350336e-22 7.867978408101717e-13 0.9999999999968531 7.867978408101717e-13 7.867978408101717e-13 7.867978408101717e-13 0.2 0.2 0.2 0.2 0.2 0.2 0.2 0.2 0.2 0.2 1 4.140532720924668e-25 4.140532720924668e-25 4.140532720924668e-25 4.140532720924668e-25 0.002588365976086433 0.9974116340239135 7.897911909811368e-28 7.897911909811368e-28 7.897911909811368e-28 0.2285714285714285 0.7714285714285714 4.78784098738327e-17 4.78784098738327e-17 4.78784098738327e-17 0.2 0.2 0.2 0.2 0.2 2.72331986257084e-12 0.9999999999891067 2.72331986257084e-12 2.72331986257084e-12 2.72331986257084e-12 1 4.144329981051646e-20 4.144329981051646e-20 4.144329981051646e-20 4.144329981051646e-20 1.559589710776636e-13 0.9999999999993765 1.559589710776636e-13 1.559589710776636e-13 1.559589710776636e-13 0.9999999999996966 7.577584690369132e-14 7.577584690369132e-14 7.577584690369132e-14 7.577584690369132e-14 0.2 0.2 0.2 0.2 0.2 8.23045267489712e-09 0.9999999670781894 8.23045267489712e-09 8.23045267489712e-09 8.23045267489712e-09 0.2 0.2 0.2 0.2 0.2 0.2 0.2 0.2 0.2 0.2 0.2 0.2 0.2 0.2 0.2 0.2 0.2 0.2 0.2 0.2 0.2 0.2 0.2 0.2 0.2 0.2 0.2 0.2 0.2 0.2 3.184517616616095e-22 1 3.184517616616095e-22 3.184517616616095e-22 3.184517616616095e-22 0.2 0.2 0.2 0.2 0.2 0.2 0.2 0.2 0.2 0.2 0.2 0.2 0.2 0.2 0.2 0.99999975 6.25e-08 6.25e-08 6.25e-08 6.25e-08 6.686244773446146e-24 1 6.686244773446146e-24 6.686244773446146e-24 6.686244773446146e-24 7.867978408101717e-13 0.9999999999968531 7.867978408101717e-13 7.867978408101717e-13 7.867978408101717e-13 0.2 0.2 0.2 0.2 0.2 2.216700200353121e-09 0.9999999911331992 2.216700200353121e-09 2.216700200353121e-09 2.216700200353121e-09 1 1.137909865463784e-23 1.137909865463784e-23 1.137909865463784e-23 1.137909865463784e-23 2.225475435032867e-28 1 2.225475435032867e-28 2.225475435032867e-28 2.225475435032867e-28 0.005764125900644672 0.1526734926052332 0.8415623814941221 5.017237257365306e-22 5.017237257365306e-22 0.2 0.2 0.2 0.2 0.2 0.161176053843429 0.5426850867871059 0.2961388593694651 1.113541824600176e-18 1.113541824600176e-18 1 3.174612779619321e-17 3.174612779619321e-17 3.174612779619321e-17 3.174612779619321e-17 1.185833952192121e-21 1 1.185833952192121e-21 1.185833952192121e-21 1.185833952192121e-21 0.3111111111111109 0.6888888888888879 4.351722286887624e-16 4.351722286887624e-16 4.351722286887624e-16 0.2 0.2 0.2 0.2 0.2 3.521864972680157e-16 0.9999999999999984 3.521864972680157e-16 3.521864972680157e-16 3.521864972680157e-16 0.2 0.2 0.2 0.2 0.2 1.151071559828371e-27 1 1.151071559828371e-27 1.151071559828371e-27 1.151071559828371e-27 1.473919242813763e-13 0.6428571428568165 0.3571428571427414 1.473919242813763e-13 1.473919242813763e-13 0.2 0.2 0.2 0.2 0.2 8.892225535384749e-16 0.1282051282051285 8.892225535384749e-16 8.892225535384749e-16 0.8717948717948688 1 2.38084736837779e-25 2.38084736837779e-25 2.38084736837779e-25 2.38084736837779e-25 2.161418982490723e-27 1 2.161418982490723e-27 2.161418982490723e-27 2.161418982490723e-27 0.00933609958506224 0.02385892116182573 0.966804979253112 9.699699247612296e-23 9.699699247612296e-23 0.2 0.2 0.2 0.2 0.2 0.2 0.2 0.2 0.2 0.2 1 1.742065268675327e-21 1.742065268675327e-21 1.742065268675327e-21 1.742065268675327e-21 6.589385492007619e-28 1 6.589385492007619e-28 6.589385492007619e-28 6.589385492007619e-28 1.702270302885897e-24 0.09164761395145206 0.9083523860485478 1.702270302885897e-24 1.702270302885897e-24 2.944189503927083e-15 2.944189503927083e-15 0.9999999999999883 2.944189503927083e-15 2.944189503927083e-15 8.05174851514725e-24 0.01828681424446583 0.0424479771663735 8.05174851514725e-24 0.9392652085891606 1 4.30721666084195e-23 4.30721666084195e-23 4.30721666084195e-23 4.30721666084195e-23 1.250584846712041e-25 0.9704791723779704 0.02952082762202952 1.250584846712041e-25 1.250584846712041e-25 2.101809436681884e-05 0.00204318001555339 0.9979358018900798 3.313036928727179e-31 3.313036928727179e-31 2.171032219224048e-18 2.171032219224048e-18 1 2.171032219224048e-18 2.171032219224048e-18 3.192489436535029e-26 0.01958932689140222 0.03832216975952564 3.192489436535029e-26 0.9420885033490721 0.2 0.2 0.2 0.2 0.2 8.619731390853502e-24 1 8.619731390853502e-24 8.619731390853502e-24 8.619731390853502e-24 8.006381444916454e-25 0.01587567194461294 0.984124328055387 8.006381444916454e-25 8.006381444916454e-25 2.740523373471178e-19 2.740523373471178e-19 0.8078672732138079 2.740523373471178e-19 0.1921327267861921 4.090828650363036e-26 0.005677097756854057 0.005942490538170405 4.090828650363036e-26 0.9883804117049755 0.2 0.2 0.2 0.2 0.2 0.2 0.2 0.2 0.2 0.2 1.548673549253573e-14 1.548673549253573e-14 0.9999999999999382 1.548673549253573e-14 1.548673549253573e-14 0.2 0.2 0.2 0.2 0.2 0.2 0.2 0.2 0.2 0.2 0.2 0.2 0.2 0.2 0.2 0.2 0.2 0.2 0.2 0.2 2.650689782699786e-19 2.650689782699786e-19 1 2.650689782699786e-19 2.650689782699786e-19 3.675835613370784e-18 3.675835613370784e-18 0.1111111111111111 0.888888888888889 3.675835613370784e-18 0.2 0.2 0.2 0.2 0.2 0.2 0.2 0.2 0.2 0.2 0.2 0.2 0.2 0.2 0.2 0.2 0.2 0.2 0.2 0.2 3.208394519176268e-19 3.208394519176268e-19 3.208394519176268e-19 1 3.208394519176268e-19 8.48439554332919e-21 8.48439554332919e-21 8.48439554332919e-21 8.48439554332919e-21 1 0.2 0.2 0.2 0.2 0.2 0.2 0.2 0.2 0.2 0.2 7.388841828513773e-11 7.388841828513773e-11 0.9999999997044462 7.388841828513773e-11 7.388841828513773e-11 1.126581335862185e-26 1.126581335862185e-26 0.0005081889749739219 0.9994918110250262 1.126581335862185e-26 1.381380214111381e-24 1.381380214111381e-24 1.381380214111381e-24 1.381380214111381e-24 1 0.2 0.2 0.2 0.2 0.2 0.2 0.2 0.2 0.2 0.2 0.2 0.2 0.2 0.2 0.2 3.849380424898192e-31 3.849380424898192e-31 3.849380424898192e-31 1 3.849380424898192e-31 1.88192398852679e-22 1.88192398852679e-22 1.88192398852679e-22 0.05921954868470266 0.9407804513152974</probabilities>
		</cpt>
	</dynamic>
	<extensions>
		<genie version="1.0" app="SMILE_ACADEMIC 1.5.0@a121f1f76773" name="emidas dbn v9" faultnameformat="user">
			<plate leftwidth="120" rightwidth="120">120 50 1164 561</plate>
			<node id="p1_imas">
				<name>p1_imas</name>
				<interior color="e5f6f7" />
				<outline color="000080" />
				<font color="000000" name="MS Sans Serif" size="8" />
				<position>491 462 547 497</position>
			</node>
			<node id="p2_imas">
				<name>p2_imas</name>
				<interior color="e5f6f7" />
				<outline color="000080" />
				<font color="000000" name="MS Sans Serif" size="8" />
				<position>651 472 707 507</position>
			</node>
			<node id="p1_wti">
				<name>p1_wti</name>
				<interior color="e5f6f7" />
				<outline color="000080" />
				<font color="000000" name="MS Sans Serif" size="8" />
				<position>487 311 571 363</position>
			</node>
			<node id="p2_wti">
				<name>p2_wti</name>
				<interior color="e5f6f7" />
				<outline color="000080" />
				<font color="000000" name="MS Sans Serif" size="8" />
				<position>650 301 734 353</position>
			</node>
			<node id="p1_approach">
				<name>p1_approach</name>
				<interior color="e5f6f7" />
				<outline color="000080" />
				<font color="000000" name="MS Sans Serif" size="8" />
				<position>268 135 344 182</position>
			</node>
			<node id="p2_head">
				<name>p2_head</name>
				<interior color="e5f6f7" />
				<outline color="000080" />
				<font color="000000" name="MS Sans Serif" size="8" />
				<position>676 84 733 119</position>
			</node>
			<node id="p1_body">
				<name>p1_body</name>
				<interior color="e5f6f7" />
				<outline color="000080" />
				<font color="000000" name="MS Sans Serif" size="8" />
				<position>404 76 461 111</position>
			</node>
			<node id="p2_approach">
				<name>p2_approach</name>
				<interior color="e5f6f7" />
				<outline color="000080" />
				<font color="000000" name="MS Sans Serif" size="8" />
				<position>924 160 1000 207</position>
			</node>
			<node id="p2_body">
				<name>p2_body</name>
				<interior color="e5f6f7" />
				<outline color="000080" />
				<font color="000000" name="MS Sans Serif" size="8" />
				<position>827 91 884 126</position>
			</node>
			<node id="dist">
				<name>dist</name>
				<interior color="e5f6f7" />
				<outline color="000080" />
				<font color="000000" name="MS Sans Serif" size="8" />
				<position>599 137 637 160</position>
			</node>
			<node id="p1_gesture">
				<name>p1_gesture</name>
				<interior color="e5f6f7" />
				<outline color="000080" />
				<font color="000000" name="MS Sans Serif" size="8" />
				<position>248 271 316 313</position>
			</node>
			<node id="p2_gesture">
				<name>p2_gesture</name>
				<interior color="e5f6f7" />
				<outline color="000080" />
				<font color="000000" name="MS Sans Serif" size="8" />
				<position>964 312 1032 354</position>
			</node>
			<node id="p1_head">
				<name>p1_head</name>
				<interior color="e5f6f7" />
				<outline color="000080" />
				<font color="000000" name="MS Sans Serif" size="8" />
				<position>528 80 585 115</position>
			</node>
		</genie>
	</extensions>
</smile>
