<?xml version="1.0" encoding="ISO-8859-1"?>
<!-- This file was created by ACADEMIC version of SMILE -->
<smile version="1.0" id="Network2" numsamples="10000" discsamples="10000">
	<nodes>
		<cpt id="p1_imas" target="true" dynamic="plate">
			<state id="very_high" />
			<state id="high" />
			<state id="medium" />
			<state id="low" />
			<state id="very_low" />
			<probabilities>0.02215368060160913 0.03472265668989852 0.07558277756228181 0.5141580850611244 0.3533828000850862</probabilities>
		</cpt>
		<cpt id="p2_imas" target="true" dynamic="plate">
			<state id="very_high" />
			<state id="high" />
			<state id="medium" />
			<state id="low" />
			<state id="very_low" />
			<probabilities>0.02302331110249127 0.036368072673582 0.07964313867791138 0.5095847045133197 0.3513807730326956</probabilities>
		</cpt>
		<cpt id="p1_wti" target="true" dynamic="plate">
			<state id="very_high" />
			<state id="high" />
			<state id="medium" />
			<state id="low" />
			<state id="very_low" />
			<parents>p1_imas</parents>
			<probabilities>1 1.012834892543917e-22 1.012834892543917e-22 1.012834892543917e-22 1.012834892543917e-22 0.2565765765765766 0.7434234234234234 6.836009092082129e-24 6.836009092082129e-24 6.836009092082129e-24 0.1383991391441106 0.8172336727092129 0.0443671881466766 6.429793233618011e-26 6.429793233618011e-26 0.03730743958531065 0.2210094667932151 0.5599157966464676 0.1817672969750067 6.491395225062707e-31 6.157879654881849e-30 6.157879654881849e-30 0.004656185822533815 0.1046668082996955 0.8906770058777707</probabilities>
		</cpt>
		<cpt id="p2_wti" target="true" dynamic="plate">
			<state id="very_high" />
			<state id="high" />
			<state id="medium" />
			<state id="very_low" />
			<state id="low" />
			<parents>p2_imas</parents>
			<probabilities>1 8.039612022791541e-23 8.039612022791541e-23 8.039612022791541e-23 8.039612022791541e-23 0.2642353345948735 0.7357646654051265 5.178212050591238e-24 5.178212050591238e-24 5.178212050591238e-24 0.1479968578161822 0.8026708562450903 0.04933228593872741 4.697371265535107e-26 4.697371265535107e-26 0.03442560557881425 0.2151968668279088 0.5667456507593522 6.848878788450786e-31 0.1836318768339247 6.371407997880305e-30 6.371407997880305e-30 0.004166369916672602 0.8893775372124493 0.1064560928708781</probabilities>
		</cpt>
		<cpt id="p1_approach" dynamic="plate">
			<state id="y" />
			<state id="m" />
			<state id="n" />
			<parents>p1_wti</parents>
			<probabilities>0.5716079987687437 0.2148157512862231 0.2135762499450332 0.4061208824881927 0.2177164233249207 0.3761626941868866 0.06656285783206285 0.1179791785988182 0.815457963569119 0.1632856865661988 0.1267990427527327 0.7099152706810685 0.0002034734270486722 0.005531764236696568 0.9942647623362548</probabilities>
		</cpt>
		<cpt id="p2_head" dynamic="plate">
			<state id="central" />
			<state id="mid_peripheral" />
			<state id="outside" />
			<parents>p2_wti</parents>
			<probabilities>1 2.043049058557225e-36 2.043049058557225e-36 0.999512762069679 0.0004715906818897008 1.564724843136335e-05 0.9989524195015425 0.0009614779917350036 8.610250672253762e-05 0.01462580848067167 0.2195165752781538 0.7658576162411745 0.3183167425470072 0.4245697970522417 0.2571134604007511</probabilities>
		</cpt>
		<cpt id="p1_body" dynamic="plate">
			<state id="strongly_facing" />
			<state id="slightly_facing" />
			<state id="turned_away" />
			<parents>p1_wti</parents>
			<probabilities>0.4538168945956642 0.4886246207290795 0.05755848467525614 0.2727434273457264 0.502061546022991 0.2251950266312825 0.01032803224319926 0.1935278738591238 0.7961440938976769 0.02859064743548283 0.8174943405989263 0.1539150119655908 0.001763436367755159 0.3778962746728486 0.6203402889593962</probabilities>
		</cpt>
		<cpt id="p2_approach" dynamic="plate">
			<state id="y" />
			<state id="m" />
			<state id="n" />
			<parents>p2_wti</parents>
			<probabilities>0.5865934711116102 0.2210652767086892 0.1923412521797007 0.4076116909285947 0.2281347089003288 0.3642536001710766 0.06841646094217246 0.118819348921545 0.8127641901362825 2.989103526722772e-39 0.004229396562333346 0.9957706034376667 0.1606296782159117 0.1323224528641613 0.707047868919927</probabilities>
		</cpt>
		<cpt id="p2_body" dynamic="plate">
			<state id="strongly_facing" />
			<state id="slightly_facing" />
			<state id="turned_away" />
			<parents>p2_wti</parents>
			<probabilities>0.4367856364996544 0.5027644489297315 0.06044991457061418 0.2713132909466759 0.5125447467840558 0.2161419622692683 0.0121096422567467 0.1950230218687705 0.7928673358744829 0.001829593469253805 0.4037366734581322 0.5944337330726139 0.03851634642590734 0.8054093680067906 0.156074285567302</probabilities>
		</cpt>
		<cpt id="dist" dynamic="plate">
			<state id="range_0_3" />
			<state id="range_3_6" />
			<state id="range_6_9" />
			<state id="range_9_12" />
			<state id="range_12_15" />
			<state id="range_15_18" />
			<state id="range_18_21" />
			<state id="range_21_24" />
			<state id="range_24_27" />
			<state id="range_27_30" />
			<state id="range_30_inf" />
			<parents>p1_wti p2_wti</parents>
			<probabilities>0.1111111111111111 0.1111111111111111 0.1111111111111111 0.1111111111111111 0.1111111111111111 0.1111111111111111 0.1111111111111111 0.1111111111111111 0.1111111111111111 0 0 0.03252266864691628 0.1484975507438964 0.2410172229604732 0.2975927590609448 0.2101784178847807 0.0557792021678522 0.01343508168529665 0.0009770968498397561 2.072389692282788e-36 0 0 4.957794388311461e-30 4.957794388311461e-30 4.957794388311461e-30 0.005650036725238713 0.8291805563402828 0.1651694069344784 4.957794388311461e-30 4.957794388311461e-30 4.957794388311461e-30 0 0 2.082408054004942e-25 2.082408054004942e-25 2.082408054004942e-25 2.082408054004942e-25 0.7760133259300388 0.2239866740699611 2.082408054004942e-25 2.082408054004942e-25 2.082408054004942e-25 0 0 5.922937123175952e-30 5.922937123175952e-30 5.922937123175952e-30 0.02211616808287743 0.4279284522562372 0.5434757304155512 0.006479649245334265 5.922937123175952e-30 5.922937123175952e-30 0 0 0.03331623076564281 0.1509620596423901 0.2429620789430934 0.2895443264778307 0.2123978067967426 0.05590609564463544 0.01391098193936684 0.001000419790297858 1.923555127974465e-36 0 0 0.01483252172111129 0.07774233655511315 0.162710735483489 0.2835933452731605 0.2097593286067406 0.207570195823034 0.04305146460235934 0.0007400719349920811 1.825572871307368e-38 0 0 0.004794606591013776 0.02320359281437126 0.0395712072358779 0.3889022653992714 0.1524590678782295 0.2061733177002638 0.1186089359742054 0.06513022905238473 0.001156777354382145 0 0 2.57470261550806e-30 2.57470261550806e-30 2.57470261550806e-30 0.8961738484398217 0.01317033635012833 0.007547615831419695 0.08310819937863027 2.57470261550806e-30 2.57470261550806e-30 0 0 3.158584073364369e-31 3.158584073364369e-31 0.002249517960437049 0.2397343426408627 0.02416148920469423 0.1999214454045562 0.05620224237663358 0.1590373491394701 0.213061486824252 0.09026637149182318 0.01536575495727106 5.269577240776635e-30 5.269577240776635e-30 5.269577240776635e-30 0.003424657534246576 0.7741057838660578 0.2224695585996956 5.269577240776635e-30 5.269577240776635e-30 5.269577240776635e-30 0 0 0.004478476007384024 0.02132191504003321 0.03616096298157271 0.3870659428284307 0.1559492730668822 0.2199805568602606 0.1244251712197839 0.05039923975138997 0.0002184622442626353 0 0 1.722558591259657e-39 1.722558591259657e-39 0.00496301581983139 0.1910843482989474 0.07936331183309006 0.0874477495152583 0.07323731544736801 0.08170924686896569 0.09986902112390161 0.3823259910926374 0 1.213457911410516e-30 1.213457911410516e-30 1.213457911410516e-30 0.003023758099352052 0.2802859909138303 0.4944067922842035 0.1928502271542415 0.02943323154837268 1.213457911410516e-30 0 0 4.78224418777246e-30 4.78224418777246e-30 4.78224418777246e-30 0.2340453413707246 0.3702004979688114 0.2116367448565063 0.08882939888050619 0.05030233820693786 0.00600932287474025 0.01085796656495123 0.02811838927682198 2.926866009025982e-30 2.926866009025982e-30 2.926866009025982e-30 0.0355861450355344 0.3788208100462292 0.5791589042986269 0.006434140619609467 2.926866009025982e-30 2.926866009025982e-30 0 0 2.789733716253367e-31 2.789733716253367e-31 2.789733716253367e-31 0.2557621684640047 0.0302069367531332 0.2001748761294083 0.04821917808219178 0.1683474205770912 0.2004430195278344 0.0846866802681434 0.01215972019819295 5.844269035649457e-30 5.844269035649457e-30 5.844269035649457e-30 0.2266119509881729 0.3805191537136332 0.2033255260254351 0.07510501151739224 0.06534910280482376 0.01060761502874509 0.01091732641644568 0.0275643135053522 1.505336441846523e-31 1.505336441846523e-31 1.505336441846523e-31 0.2205671968358159 0.05897079861987714 0.2678300934107549 0.2546074223680889 0.1319952873853404 0.06599764369267021 3.155768745266347e-05 0 1.414701325800235e-31 1.414701325800235e-31 1.414701325800235e-31 0.2539639573985196 0.08349557015397749 0.5202023882648121 0.09061663873070075 0.05172144545199005 1.414701325800235e-31 0 0 9.970738437742004e-25 9.970738437742004e-25 9.970738437742004e-25 9.970738437742004e-25 0.7202998846597463 0.2797001153402537 9.970738437742004e-25 9.970738437742004e-25 9.970738437742004e-25 0 0 1.276922197254386e-30 1.276922197254386e-30 0.0007511229287785238 0.8895699070109815 0.007165712740547119 0.004311445611188727 0.09820181170850421 1.276922197254386e-30 1.276922197254386e-30 0 0 8.78378272728892e-31 8.78378272728892e-31 8.78378272728892e-31 0.003867325335215243 0.2586167960479887 0.4986450247000706 0.2300917431192661 0.008779110797459421 8.78378272728892e-31 0 0 1.938956543373809e-39 1.938956543373809e-39 1.938956543373809e-39 0.279348327630937 0.3300791137467647 0.1369573343953813 0.06451279397729159 0.05155533327697145 0.09488149235396755 0.04266560461868641 0 8.91569872209113e-32 8.91569872209113e-32 8.91569872209113e-32 0.2079220328526259 0.06840441119765558 0.2743984730469654 0.2470791239299761 0.1332420760391764 0.06817305467725766 0.0007808282563430245 0</probabilities>
		</cpt>
		<cpt id="p1_gesture" dynamic="plate">
			<state id="wave_slow_shoulder" />
			<state id="wave_fast_shoulder" />
			<state id="wave_small_head" />
			<state id="wave_wide_head" />
			<state id="arm_raise_high" />
			<state id="arm_raise_low" />
			<state id="come_here" />
			<state id="i_am_coming" />
			<state id="None" />
			<parents>p1_wti</parents>
			<probabilities>0.02344746273250956 7.481637920635342e-37 0.02626313706521261 0.09027747240666638 0.02082004968998725 7.481637920635342e-37 0.01142210105096522 0.01064294666021723 0.8171268303944417 7.365285095417922e-40 0.02388212108879449 0.06513514579484052 0.003036516648181449 0.146210920451152 0.07446660503482719 0.03341685271073906 7.365285029130357e-40 0.6538518382714653 6.450364591955691e-40 6.450364533902412e-40 6.450364533902412e-40 6.450364533902412e-40 0.01727598891481048 0.01977978000044938 6.450364533902412e-40 6.450364533902412e-40 0.9629442310847401 3.33184826889772e-35 3.331848238911085e-35 0.01477265377401203 3.331848238911085e-35 3.331848238911085e-35 3.331848238911085e-35 3.331848238911085e-35 3.331848238911085e-35 0.9852273462259881 9.495709685375046e-40 9.495709599913658e-40 9.495709599913658e-40 9.495709599913658e-40 9.495709599913658e-40 9.495709599913658e-40 9.495709599913658e-40 9.495709599913658e-40 1</probabilities>
		</cpt>
		<cpt id="p2_gesture" dynamic="plate">
			<state id="wave_slow_shoulder" />
			<state id="wave_fast_shoulder" />
			<state id="wave_small_head" />
			<state id="wave_wide_head" />
			<state id="arm_raise_high" />
			<state id="arm_raise_low" />
			<state id="come_here" />
			<state id="i_am_coming" />
			<state id="None" />
			<parents>p2_wti</parents>
			<probabilities>0.02056392864245063 6.810163528524083e-37 0.03728184392193255 0.09223126945497 0.02039347571113369 6.810163528524083e-37 0.01415976850868566 0.01133647273361859 0.8040332410272089 7.491507537979833e-40 0.02465006667466415 0.06849235284197497 0.002653512546485367 0.1394474087287306 0.076137772283855 0.03334689428197385 7.491507537979833e-40 0.6552719926423161 6.281598270080215e-40 6.281598270080215e-40 6.281598270080215e-40 6.281598270080215e-40 0.01897631716786908 0.02091953256468556 6.281598270080215e-40 6.281598270080215e-40 0.9601041502674453 9.963678422409237e-40 9.963678422409237e-40 9.963678422409237e-40 9.963678422409237e-40 9.963678422409237e-40 9.963678422409237e-40 9.963678422409237e-40 9.963678422409237e-40 1 3.218061358287537e-35 3.218061358287537e-35 0.01650590323327417 3.218061358287537e-35 3.218061358287537e-35 3.218061358287537e-35 3.218061358287537e-35 3.218061358287537e-35 0.9834940967667258</probabilities>
		</cpt>
		<cpt id="p1_head" dynamic="plate">
			<state id="central" />
			<state id="mid_peripheral" />
			<state id="outside" />
			<parents>p1_wti</parents>
			<probabilities>1 2.244491398635516e-36 2.244491398635516e-36 0.9995189075821466 0.0004269153437708717 5.417707408259793e-05 0.9989812715918067 0.0008928181554953468 0.0001259102526980617 0.3117418019533019 0.4237449065390337 0.2645132915076644 0.01536993051608548 0.2022349521227026 0.7823951173612119</probabilities>
		</cpt>
	</nodes>
	<dynamic numslices="50">
		<cpt id="p1_imas" order="1">
			<parents>p1_imas</parents>
			<probabilities>1 1.107220792033689e-34 1.107220792033689e-34 1.107220792033689e-34 1.107220792033689e-34 0.00155090898300726 0.9984490910169928 1.19852289208584e-35 1.19852289208584e-35 1.19852289208584e-35 0.006406891157847371 0.009639417226976289 0.9816823522749363 0.002271339340240205 2.571074968560232e-36 0.0005312173994887895 0.000946631377011099 0.003015816776318545 0.9949384048990269 0.0005679295481547588 1.478817147092238e-39 1.478817147092238e-39 1.478817147092238e-39 0.007497308675400432 0.9925026913245996</probabilities>
		</cpt>
		<cpt id="p2_imas" order="1">
			<parents>p2_imas</parents>
			<probabilities>1 9.251525439518108e-35 9.251525439518108e-35 9.251525439518108e-35 9.251525439518108e-35 0.001507118443361951 0.9984928815566381 1.009282905783221e-35 1.009282905783221e-35 1.009282905783221e-35 0.006335626656497837 0.009262561002056567 0.9822695603194449 0.002132252022000766 1.901216892795713e-36 0.0005347481806368902 0.0009423412564317839 0.003130852307479457 0.9948077917463148 0.0005842665091370025 1.555939184065318e-39 1.555939184065318e-39 1.555939184065318e-39 0.007561546905450172 0.9924384530945499</probabilities>
		</cpt>
		<cpt id="p1_wti" order="1">
			<parents>p2_imas p1_wti</parents>
			<probabilities>0.2 0.2 0.2 0.2 0.2 0.2 0.2 0.2 0.2 0.2 0.2 0.2 0.2 0.2 0.2 0.2 0.2 0.2 0.2 0.2 0.2 0.2 0.2 0.2 0.2 0.2 0.2 0.2 0.2 0.2 0.2 0.2 0.2 0.2 0.2 0.2 0.2 0.2 0.2 0.2 0.2 0.2 0.2 0.2 0.2 0.2 0.2 0.2 0.2 0.2 0.2 0.2 0.2 0.2 0.2 0.2 0.2 0.2 0.2 0.2 0.2 0.2 0.2 0.2 0.2 0.2 0.2 0.2 0.2 0.2 0.2 0.2 0.2 0.2 0.2 1 1.100808224004116e-34 1.100808224004116e-34 1.100808224004116e-34 1.100808224004116e-34 1 6.370650921446461e-22 6.370650921446461e-22 6.370650921446461e-22 6.370650921446461e-22 1 6.615485735251863e-21 6.615485735251863e-21 6.615485735251863e-21 6.615485735251863e-21 1 5.428435643121865e-17 5.428435643121865e-17 5.428435643121865e-17 5.428435643121865e-17 0.2 0.2 0.2 0.2 0.2 1 3.279291238988529e-21 3.279291238988529e-21 3.279291238988529e-21 3.279291238988529e-21 0.9999999998897509 2.756220361590708e-11 2.756220361590708e-11 2.756220361590708e-11 2.756220361590708e-11 0.2 0.2 0.2 0.2 0.2 0.2 0.2 0.2 0.2 0.2 0.2 0.2 0.2 0.2 0.2 0.2 0.2 0.2 0.2 0.2 0.2 0.2 0.2 0.2 0.2 0.2 0.2 0.2 0.2 0.2 0.2 0.2 0.2 0.2 0.2 0.2 0.2 0.2 0.2 0.2 0.2 0.2 0.2 0.2 0.2 0.2 0.2 0.2 0.2 0.2 0.2 0.2 0.2 0.2 0.2 0.2 0.2 0.2 0.2 0.2 0.2 0.2 0.2 0.2 0.2 0.2 0.2 0.2 0.2 0.2 2.804060168554111e-28 1 2.804060168554111e-28 2.804060168554111e-28 2.804060168554111e-28 1.427384718541123e-17 1 1.427384718541123e-17 1.427384718541123e-17 1.427384718541123e-17 0.2 0.2 0.2 0.2 0.2 0.2 0.2 0.2 0.2 0.2 1 1.79137720549255e-31 1.79137720549255e-31 1.79137720549255e-31 1.79137720549255e-31 0.003140841966056866 0.9968591580339432 8.74722341145211e-35 8.74722341145211e-35 8.74722341145211e-35 0.219039092808117 0.780960907191883 1.409957220449492e-22 1.409957220449492e-22 1.409957220449492e-22 1.046556177126201e-15 0.9999999999999958 1.046556177126201e-15 1.046556177126201e-15 1.046556177126201e-15 0.2 0.2 0.2 0.2 0.2 1 1.550594142728032e-26 1.550594142728032e-26 1.550594142728032e-26 1.550594142728032e-26 0.2 0.2 0.2 0.2 0.2 1 9.447702160359354e-19 9.447702160359354e-19 9.447702160359354e-19 9.447702160359354e-19 0.2 0.2 0.2 0.2 0.2 0.2 0.2 0.2 0.2 0.2 0.2 0.2 0.2 0.2 0.2 0.2 0.2 0.2 0.2 0.2 0.2 0.2 0.2 0.2 0.2 0.2 0.2 0.2 0.2 0.2 0.2 0.2 0.2 0.2 0.2 0.2 0.2 0.2 0.2 0.2 3.834337072659658e-28 1 3.834337072659658e-28 3.834337072659658e-28 3.834337072659658e-28 0.2 0.2 0.2 0.2 0.2 0.2 0.2 0.2 0.2 0.2 0.2 0.2 0.2 0.2 0.2 0.2 0.2 0.2 0.2 0.2 4.20572278894594e-30 1 4.20572278894594e-30 4.20572278894594e-30 4.20572278894594e-30 5.04910323450308e-16 0.7074074074074063 0.2925925925925924 5.04910323450308e-16 5.04910323450308e-16 5.683846667572105e-11 5.683846667572105e-11 0.999999999772646 5.683846667572105e-11 5.683846667572105e-11 0.2 0.2 0.2 0.2 0.2 1 3.852285418013905e-29 3.852285418013905e-29 3.852285418013905e-29 3.852285418013905e-29 1.94377664614588e-35 1 1.94377664614588e-35 1.94377664614588e-35 1.94377664614588e-35 0.003550168543355089 0.1336512945564082 0.8627985369002367 4.252254168845032e-28 4.252254168845032e-28 0.1204516938519448 0.4565035549979088 0.4230447511501464 1.670427805110121e-23 1.670427805110121e-23 0.2 0.2 0.2 0.2 0.2 1 1.887280638070175e-22 1.887280638070175e-22 1.887280638070175e-22 1.887280638070175e-22 5.629884021498176e-27 1 5.629884021498176e-27 5.629884021498176e-27 5.629884021498176e-27 0.290909090909091 0.7090909090909091 2.946587839984314e-20 2.946587839984314e-20 2.946587839984314e-20 2.460212442349851e-20 1 2.460212442349851e-20 2.460212442349851e-20 2.460212442349851e-20 0.2 0.2 0.2 0.2 0.2 0.2 0.2 0.2 0.2 0.2 1.00297454017066e-34 1 1.00297454017066e-34 1.00297454017066e-34 1.00297454017066e-34 4.708856012792034e-19 0.7274826789838338 0.2725173210161663 4.708856012792034e-19 4.708856012792034e-19 2.841108202620982e-21 0.137863121614968 2.841108202620982e-21 0.8621368783850319 2.841108202620982e-21 0.2 0.2 0.2 0.2 0.2 1 4.360058097037825e-32 4.360058097037825e-32 4.360058097037825e-32 4.360058097037825e-32 2.104453346240214e-34 1 2.104453346240214e-34 2.104453346240214e-34 2.104453346240214e-34 0.008265176822946665 0.03294551318972469 0.9587893099873287 1.14071320551797e-28 1.14071320551797e-28 1.037883103942723e-12 1.037883103942723e-12 0.9999999999958483 1.037883103942723e-12 1.037883103942723e-12 0.2 0.2 0.2 0.2 0.2 1 2.614888087464774e-28 2.614888087464774e-28 2.614888087464774e-28 2.614888087464774e-28 3.699560425693963e-35 1 3.699560425693963e-35 3.699560425693963e-35 3.699560425693963e-35 7.106642982276964e-31 0.09285864288273153 0.9071413571172685 7.106642982276964e-31 7.106642982276964e-31 2.349668570586256e-29 0.0236361624432887 0.04554608830364059 0.9308177492530708 2.349668570586256e-29 3.133050176086088e-20 3.133050176086088e-20 1 3.133050176086088e-20 3.133050176086088e-20 1 8.064555619806663e-29 8.064555619806663e-29 8.064555619806663e-29 8.064555619806663e-29 2.578115983467599e-32 0.9737592130606907 0.0262407869393093 2.578115983467599e-32 2.578115983467599e-32 2.513218526692838e-39 0.001813923818092661 0.9981860761819074 2.513218526692838e-39 2.513218526692838e-39 3.209051923218252e-32 0.01696939317096184 0.03480863360264198 0.9482219732263962 3.209051923218252e-32 2.395740113407142e-23 2.395740113407142e-23 1 2.395740113407142e-23 2.395740113407142e-23 0.2 0.2 0.2 0.2 0.2 6.435765125100017e-30 1 6.435765125100017e-30 6.435765125100017e-30 6.435765125100017e-30 1.044462373264985e-30 0.01168350478799774 0.9883164952120024 1.044462373264985e-30 1.044462373264985e-30 7.831648143784667e-32 0.004678732722047351 0.005217599562063775 0.9901036677158889 7.831648143784667e-32 2.656885653838203e-23 2.656885653838203e-23 0.8398102123813828 0.1601897876186173 2.656885653838203e-23 0.2 0.2 0.2 0.2 0.2 0.2 0.2 0.2 0.2 0.2 4.093574211482082e-21 4.093574211482082e-21 1 4.093574211482082e-21 4.093574211482082e-21 0.2 0.2 0.2 0.2 0.2 0.2 0.2 0.2 0.2 0.2 0.2 0.2 0.2 0.2 0.2 0.2 0.2 0.2 0.2 0.2 1.786425427035065e-25 1.786425427035065e-25 1 1.786425427035065e-25 1.786425427035065e-25 8.192000000000002e-16 8.192000000000002e-16 8.192000000000002e-16 0.9999999999999967 8.192000000000002e-16 3.995276264125815e-23 3.995276264125815e-23 0.1770253929866989 3.995276264125815e-23 0.8229746070133011 0.2 0.2 0.2 0.2 0.2 0.2 0.2 0.2 0.2 0.2 0.2 0.2 0.2 0.2 0.2 8.870937259121634e-26 8.870937259121634e-26 8.870937259121634e-26 1 8.870937259121634e-26 7.246223128449048e-25 7.246223128449048e-25 7.246223128449048e-25 7.246223128449048e-25 1 0.2 0.2 0.2 0.2 0.2 0.2 0.2 0.2 0.2 0.2 0.2 0.2 0.2 0.2 0.2 1.124642728378493e-29 1.124642728378493e-29 1.124642728378493e-29 1 1.124642728378493e-29 2.14801457919991e-33 2.14801457919991e-33 0.0002301614888160305 2.14801457919991e-33 0.999769838511184 0.2 0.2 0.2 0.2 0.2 0.2 0.2 0.2 0.2 0.2 0.2 0.2 0.2 0.2 0.2 1.071478392389831e-26 1.071478392389831e-26 1.071478392389831e-26 0.8584673953088542 0.1415326046911458 3.814164211649888e-39 3.814164211649888e-39 3.814164211649888e-39 3.814164211649888e-39 1</probabilities>
		</cpt>
		<cpt id="p2_wti" order="1">
			<parents>p1_imas p2_wti</parents>
			<probabilities>0.2 0.2 0.2 0.2 0.2 0.2 0.2 0.2 0.2 0.2 0.2 0.2 0.2 0.2 0.2 0.2 0.2 0.2 0.2 0.2 0.2 0.2 0.2 0.2 0.2 0.2 0.2 0.2 0.2 0.2 0.2 0.2 0.2 0.2 0.2 0.2 0.2 0.2 0.2 0.2 0.2 0.2 0.2 0.2 0.2 0.2 0.2 0.2 0.2 0.2 0.2 0.2 0.2 0.2 0.2 0.2 0.2 0.2 0.2 0.2 0.2 0.2 0.2 0.2 0.2 0.2 0.2 0.2 0.2 0.2 0.2 0.2 0.2 0.2 0.2 1 9.332205499364113e-35 9.332205499364113e-35 9.332205499364113e-35 9.332205499364113e-35 1 5.532718228591799e-22 5.532718228591799e-22 5.532718228591799e-22 5.532718228591799e-22 1 6.615485735251863e-21 6.615485735251863e-21 6.615485735251863e-21 6.615485735251863e-21 0.2 0.2 0.2 0.2 0.2 1 6.046529382629995e-17 6.046529382629995e-17 6.046529382629995e-17 6.046529382629995e-17 1 2.798999788936363e-22 2.798999788936363e-22 2.798999788936363e-22 2.798999788936363e-22 0.2 0.2 0.2 0.2 0.2 0.2 0.2 0.2 0.2 0.2 0.2 0.2 0.2 0.2 0.2 0.2 0.2 0.2 0.2 0.2 0.2 0.2 0.2 0.2 0.2 0.2 0.2 0.2 0.2 0.2 0.2 0.2 0.2 0.2 0.2 0.2 0.2 0.2 0.2 0.2 0.2 0.2 0.2 0.2 0.2 0.2 0.2 0.2 0.2 0.2 0.2 0.2 0.2 0.2 0.2 0.2 0.2 0.2 0.2 0.2 0.2 0.2 0.2 0.2 0.2 0.2 0.2 0.2 0.2 0.2 0.2 0.2 0.2 0.2 0.2 3.834337072659658e-28 1 3.834337072659658e-28 3.834337072659658e-28 3.834337072659658e-28 1.427384718541123e-17 1 1.427384718541123e-17 1.427384718541123e-17 1.427384718541123e-17 0.2 0.2 0.2 0.2 0.2 0.2 0.2 0.2 0.2 0.2 1 1.250580936767113e-31 1.250580936767113e-31 1.250580936767113e-31 1.250580936767113e-31 0.002961175696424654 0.9970388243035754 7.32693532194178e-35 7.32693532194178e-35 7.32693532194178e-35 0.2173784104389087 0.7826215895610914 1.358100623282644e-22 1.358100623282644e-22 1.358100623282644e-22 0.2 0.2 0.2 0.2 0.2 7.460249923692208e-15 0.9999999999999705 7.460249923692208e-15 7.460249923692208e-15 7.460249923692208e-15 1 2.62118846376746e-26 2.62118846376746e-26 2.62118846376746e-26 2.62118846376746e-26 9.660969232193437e-17 0.9999999999999993 9.660969232193437e-17 9.660969232193437e-17 9.660969232193437e-17 1 9.671012772344149e-19 9.671012772344149e-19 9.671012772344149e-19 9.671012772344149e-19 0.2 0.2 0.2 0.2 0.2 2.743484224965708e-10 0.9999999989026065 2.743484224965708e-10 2.743484224965708e-10 2.743484224965708e-10 0.2 0.2 0.2 0.2 0.2 0.2 0.2 0.2 0.2 0.2 0.2 0.2 0.2 0.2 0.2 0.2 0.2 0.2 0.2 0.2 0.2 0.2 0.2 0.2 0.2 0.2 0.2 0.2 0.2 0.2 2.804060168554111e-28 1 2.804060168554111e-28 2.804060168554111e-28 2.804060168554111e-28 0.2 0.2 0.2 0.2 0.2 0.2 0.2 0.2 0.2 0.2 0.2 0.2 0.2 0.2 0.2 0.9999999998046875 4.882812500000001e-11 4.882812500000001e-11 4.882812500000001e-11 4.882812500000001e-11 4.20572278894594e-30 1 4.20572278894594e-30 4.20572278894594e-30 4.20572278894594e-30 6.781281296898532e-16 0.9999999999999973 6.781281296898532e-16 6.781281296898532e-16 6.781281296898532e-16 0.2 0.2 0.2 0.2 0.2 1.28e-11 0.9999999999488 1.28e-11 1.28e-11 1.28e-11 1 1.300776851033023e-29 1.300776851033023e-29 1.300776851033023e-29 1.300776851033023e-29 1.538911416800607e-35 1 1.538911416800607e-35 1.538911416800607e-35 1.538911416800607e-35 0.004887585532746823 0.1093873175038628 0.8857250969633904 1.965729994688842e-28 1.965729994688842e-28 0.2 0.2 0.2 0.2 0.2 0.1051016494054469 0.5078634445723053 0.3870349060222478 9.942695041092472e-24 9.942695041092472e-24 1 4.831189952802073e-22 4.831189952802073e-22 4.831189952802073e-22 4.831189952802073e-22 3.252641845893678e-27 1 3.252641845893678e-27 3.252641845893678e-27 3.252641845893678e-27 0.2711246200607903 0.7288753799392097 1.005659615475551e-20 1.005659615475551e-20 1.005659615475551e-20 0.2 0.2 0.2 0.2 0.2 9.60637054866279e-20 1 9.60637054866279e-20 9.60637054866279e-20 9.60637054866279e-20 0.2 0.2 0.2 0.2 0.2 1.173049052096465e-34 1 1.173049052096465e-34 1.173049052096465e-34 1.173049052096465e-34 3.323410567010222e-18 0.6736000000000001 0.3264 3.323410567010222e-18 3.323410567010222e-18 0.2 0.2 0.2 0.2 0.2 9.697683385702997e-21 0.1335347432024169 9.697683385702997e-21 9.697683385702997e-21 0.866465256797583 1 8.281826998852515e-32 8.281826998852515e-32 8.281826998852515e-32 8.281826998852515e-32 2.42669892404778e-34 1 2.42669892404778e-34 2.42669892404778e-34 2.42669892404778e-34 0.007411481248690552 0.02941022417766604 0.9631782945736433 6.451686054578756e-29 6.451686054578756e-29 0.2 0.2 0.2 0.2 0.2 0.2 0.2 0.2 0.2 0.2 1 6.112996529247251e-28 6.112996529247251e-28 6.112996529247251e-28 6.112996529247251e-28 5.508260605489108e-35 1 5.508260605489108e-35 5.508260605489108e-35 5.508260605489108e-35 6.551431203356683e-31 0.09409427707906796 0.905905722920932 6.551431203356683e-31 6.551431203356683e-31 6.598363419880202e-20 6.598363419880202e-20 1 6.598363419880202e-20 6.598363419880202e-20 2.698308786982639e-29 0.02525195334616692 0.04520439361340731 2.698308786982639e-29 0.9295436530404257 1 3.922453534228686e-29 3.922453534228686e-29 3.922453534228686e-29 3.922453534228686e-29 2.797488398782467e-32 0.9733707986598941 0.02662920134010591 2.797488398782467e-32 2.797488398782467e-32 1.302697742280068e-05 0.001587843803645817 0.9983991292189314 2.522946935850364e-39 2.522946935850364e-39 2.212871427258325e-23 2.212871427258325e-23 1 2.212871427258325e-23 2.212871427258325e-23 3.481665242528862e-32 0.01741827012889968 0.03513543807210909 3.481665242528862e-32 0.9474462917989912 0.2 0.2 0.2 0.2 0.2 3.06506886869974e-30 1 3.06506886869974e-30 3.06506886869974e-30 3.06506886869974e-30 7.429934607929591e-31 0.01411272758951128 0.9858872724104888 7.429934607929591e-31 7.429934607929591e-31 2.520679812551568e-23 2.520679812551568e-23 0.8351623740201567 2.520679812551568e-23 0.1648376259798432 5.800201517164432e-32 0.004507289768289508 0.005410374902369174 5.800201517164432e-32 0.9900823353293413 0.2 0.2 0.2 0.2 0.2 0.2 0.2 0.2 0.2 0.2 1.378415753563996e-19 1.378415753563996e-19 1 1.378415753563996e-19 1.378415753563996e-19 0.2 0.2 0.2 0.2 0.2 0.2 0.2 0.2 0.2 0.2 0.2 0.2 0.2 0.2 0.2 0.2 0.2 0.2 0.2 0.2 2.396590356098523e-25 2.396590356098523e-25 1 2.396590356098523e-25 2.396590356098523e-25 5.770498682273803e-24 5.770498682273803e-24 0.1115782098441058 0.8884217901558942 5.770498682273803e-24 0.2 0.2 0.2 0.2 0.2 0.2 0.2 0.2 0.2 0.2 0.2 0.2 0.2 0.2 0.2 0.2 0.2 0.2 0.2 0.2 1.347950218072526e-24 1.347950218072526e-24 1.347950218072526e-24 1 1.347950218072526e-24 1.13947314456151e-25 1.13947314456151e-25 1.13947314456151e-25 1.13947314456151e-25 1 0.2 0.2 0.2 0.2 0.2 0.2 0.2 0.2 0.2 0.2 3.421626798480209e-15 3.421626798480209e-15 0.9999999999999863 3.421626798480209e-15 3.421626798480209e-15 3.478126448673606e-33 3.478126448673606e-33 0.0007482363001496473 0.9992517636998502 3.478126448673606e-33 1.346777886416464e-29 1.346777886416464e-29 1.346777886416464e-29 1.346777886416464e-29 1 0.2 0.2 0.2 0.2 0.2 0.2 0.2 0.2 0.2 0.2 0.2 0.2 0.2 0.2 0.2 3.834240172324089e-39 3.834240172324089e-39 3.834240172324089e-39 1 3.834240172324089e-39 6.02941267560512e-27 6.02941267560512e-27 6.02941267560512e-27 0.1309975451908056 0.8690024548091944</probabilities>
		</cpt>
	</dynamic>
	<extensions>
		<genie version="1.0" app="SMILE_ACADEMIC 1.5.0@a121f1f76773" name="emidas dbn v9" faultnameformat="user">
			<plate leftwidth="120" rightwidth="120">120 50 1164 561</plate>
			<node id="p1_imas">
				<name>p1_imas</name>
				<interior color="e5f6f7" />
				<outline color="000080" />
				<font color="000000" name="MS Sans Serif" size="8" />
				<position>491 462 547 497</position>
			</node>
			<node id="p2_imas">
				<name>p2_imas</name>
				<interior color="e5f6f7" />
				<outline color="000080" />
				<font color="000000" name="MS Sans Serif" size="8" />
				<position>651 472 707 507</position>
			</node>
			<node id="p1_wti">
				<name>p1_wti</name>
				<interior color="e5f6f7" />
				<outline color="000080" />
				<font color="000000" name="MS Sans Serif" size="8" />
				<position>487 311 571 363</position>
			</node>
			<node id="p2_wti">
				<name>p2_wti</name>
				<interior color="e5f6f7" />
				<outline color="000080" />
				<font color="000000" name="MS Sans Serif" size="8" />
				<position>650 301 734 353</position>
			</node>
			<node id="p1_approach">
				<name>p1_approach</name>
				<interior color="e5f6f7" />
				<outline color="000080" />
				<font color="000000" name="MS Sans Serif" size="8" />
				<position>268 135 344 182</position>
			</node>
			<node id="p2_head">
				<name>p2_head</name>
				<interior color="e5f6f7" />
				<outline color="000080" />
				<font color="000000" name="MS Sans Serif" size="8" />
				<position>676 84 733 119</position>
			</node>
			<node id="p1_body">
				<name>p1_body</name>
				<interior color="e5f6f7" />
				<outline color="000080" />
				<font color="000000" name="MS Sans Serif" size="8" />
				<position>404 76 461 111</position>
			</node>
			<node id="p2_approach">
				<name>p2_approach</name>
				<interior color="e5f6f7" />
				<outline color="000080" />
				<font color="000000" name="MS Sans Serif" size="8" />
				<position>924 160 1000 207</position>
			</node>
			<node id="p2_body">
				<name>p2_body</name>
				<interior color="e5f6f7" />
				<outline color="000080" />
				<font color="000000" name="MS Sans Serif" size="8" />
				<position>827 91 884 126</position>
			</node>
			<node id="dist">
				<name>dist</name>
				<interior color="e5f6f7" />
				<outline color="000080" />
				<font color="000000" name="MS Sans Serif" size="8" />
				<position>599 137 637 160</position>
			</node>
			<node id="p1_gesture">
				<name>p1_gesture</name>
				<interior color="e5f6f7" />
				<outline color="000080" />
				<font color="000000" name="MS Sans Serif" size="8" />
				<position>248 271 316 313</position>
			</node>
			<node id="p2_gesture">
				<name>p2_gesture</name>
				<interior color="e5f6f7" />
				<outline color="000080" />
				<font color="000000" name="MS Sans Serif" size="8" />
				<position>964 312 1032 354</position>
			</node>
			<node id="p1_head">
				<name>p1_head</name>
				<interior color="e5f6f7" />
				<outline color="000080" />
				<font color="000000" name="MS Sans Serif" size="8" />
				<position>528 80 585 115</position>
			</node>
		</genie>
	</extensions>
</smile>
