<?xml version="1.0" encoding="ISO-8859-1"?>
<!-- This file was created by ACADEMIC version of SMILE -->
<smile version="1.0" id="Network2" numsamples="10000" discsamples="10000">
	<nodes>
		<cpt id="p1_imas" target="true" dynamic="plate">
			<state id="very_high" />
			<state id="high" />
			<state id="medium" />
			<state id="low" />
			<state id="very_low" />
			<probabilities>0.04000537318779293 0.05787122259922985 0.08312520522592265 0.5087264549896018 0.3102717439974527</probabilities>
		</cpt>
		<cpt id="p2_imas" target="true" dynamic="plate">
			<state id="very_high" />
			<state id="high" />
			<state id="medium" />
			<state id="low" />
			<state id="very_low" />
			<probabilities>0.04114468800684586 0.05966726037074997 0.08631926685837672 0.5041592453656255 0.308709539398402</probabilities>
		</cpt>
		<cpt id="p1_wti" target="true" dynamic="plate">
			<state id="very_high" />
			<state id="high" />
			<state id="medium" />
			<state id="low" />
			<state id="very_low" />
			<parents>p1_imas</parents>
			<probabilities>0.9999999999984619 3.845366950316203e-13 3.845366950316203e-13 3.845366950316203e-13 3.845366950316203e-13 0.2307427785419338 0.7692572214576854 1.270441908046103e-13 1.270441908046103e-13 1.270441908046103e-13 0.1000718218817547 0.8674886282019157 0.03243954991624372 4.287248120238455e-14 4.287248120238455e-14 0.04582750628343437 0.2974582652831701 0.5105278084750566 0.1461864199583387 1.870635095814566e-16 8.245314311818999e-16 8.245314311818999e-16 0.004217176576230683 0.0947982810595861 0.9009845423641816</probabilities>
		</cpt>
		<cpt id="p2_wti" target="true" dynamic="plate">
			<state id="very_high" />
			<state id="high" />
			<state id="medium" />
			<state id="very_low" />
			<state id="low" />
			<parents>p2_imas</parents>
			<probabilities>0.9999999999985864 3.534727455164085e-13 3.534727455164085e-13 3.534727455164085e-13 3.534727455164085e-13 0.2331359959976461 0.7668640040020062 1.159145256077475e-13 1.159145256077475e-13 1.159145256077475e-13 0.1085878962536198 0.8552161383284048 0.0361959654178988 3.828745208370906e-14 3.828745208370906e-14 0.043657176691173 0.2920905906152859 0.516583608822223 1.921935120971597e-16 0.147668623871318 8.371121415351802e-16 8.371121415351802e-16 0.003867848509267541 0.8997743755036232 0.09635777598710761</probabilities>
		</cpt>
		<cpt id="p1_approach" dynamic="plate">
			<state id="y" />
			<state id="m" />
			<state id="n" />
			<parents>p1_wti</parents>
			<probabilities>0.5872968532529641 0.1993925218974665 0.2133106248495694 0.4067469154726717 0.2037866286329084 0.38946645589442 0.08383946647612242 0.1323285448014379 0.7838319887224396 0.1396214000986921 0.1047151751435761 0.7556634247577317 0.0001700325234432345 0.004647555640781734 0.9951824118357749</probabilities>
		</cpt>
		<cpt id="p2_head" dynamic="plate">
			<state id="central" />
			<state id="mid_peripheral" />
			<state id="outside" />
			<parents>p2_wti</parents>
			<probabilities>1 5.706548263557555e-18 5.706548263557555e-18 0.9990749037568032 0.0008952276649409265 2.986857825567522e-05 0.9977230634544327 0.002089337573315334 0.0001875989722519052 0.01251257437660567 0.2319836994243835 0.7555037261990107 0.2763695175819971 0.4316545511460471 0.2919759312719558</probabilities>
		</cpt>
		<cpt id="p1_body" dynamic="plate">
			<state id="strongly_facing" />
			<state id="slightly_facing" />
			<state id="turned_away" />
			<parents>p1_wti</parents>
			<probabilities>0.4689615839429043 0.4778069046348329 0.05323151142226269 0.2944338443155535 0.4917997972157239 0.2137663584687226 0.01333625058044909 0.2253444151796553 0.7613193342398956 0.03069955938502891 0.789547730955389 0.1797527096595821 0.002910390026270025 0.3827488780215016 0.6143407319522285</probabilities>
		</cpt>
		<cpt id="p2_approach" dynamic="plate">
			<state id="y" />
			<state id="m" />
			<state id="n" />
			<parents>p2_wti</parents>
			<probabilities>0.5981000097937639 0.2040427626661718 0.1978572275400642 0.4069817801672641 0.2134781959378734 0.3795400238948626 0.0848103687055487 0.1323244064423694 0.7828652248520819 2.865166434065942e-19 0.003556005179977599 0.9964439948200224 0.1391186393516747 0.1092379395499287 0.7516434210983965</probabilities>
		</cpt>
		<cpt id="p2_body" dynamic="plate">
			<state id="strongly_facing" />
			<state id="slightly_facing" />
			<state id="turned_away" />
			<parents>p2_wti</parents>
			<probabilities>0.452605914402503 0.4894691264478018 0.05792495914969509 0.2927435948493296 0.5010578454798884 0.2061985596707819 0.01567554941669594 0.2254645373570248 0.7588599132262793 0.003168077342161861 0.4064685065348727 0.5903634161229655 0.04016208131891066 0.7778964209940524 0.181941497687037</probabilities>
		</cpt>
		<cpt id="dist" dynamic="plate">
			<state id="range_0_3" />
			<state id="range_3_6" />
			<state id="range_6_9" />
			<state id="range_9_12" />
			<state id="range_12_15" />
			<state id="range_15_18" />
			<state id="range_18_21" />
			<state id="range_21_24" />
			<state id="range_24_27" />
			<state id="range_27_30" />
			<state id="range_30_inf" />
			<parents>p1_wti p2_wti</parents>
			<probabilities>0.1111111111111111 0.1111111111111111 0.1111111111111111 0.1111111111111111 0.1111111111111111 0.1111111111111111 0.1111111111111111 0.1111111111111111 0.1111111111111111 0 0 0.06181305049001365 0.2309980151345987 0.2422342141173552 0.2410991192159782 0.1662945044039201 0.04658230988711078 0.01023446222553033 0.0007443245254931183 3.314413677035031e-18 0 0 9.178782835336158e-15 9.178782835336158e-15 9.178782835336158e-15 0.006097560975618432 0.8013937282229395 0.192508710801387 9.178782835336158e-15 9.178782835336158e-15 9.178782835336158e-15 0 0 1.286739646627735e-12 1.286739646627735e-12 1.286739646627735e-12 1.286739646627735e-12 0.7646526363354957 0.2353473636554973 1.286739646627735e-12 1.286739646627735e-12 1.286739646627735e-12 0 0 3.26136072421732e-15 3.26136072421732e-15 3.26136072421732e-15 0.0160409661597338 0.3232871641422648 0.6503686337415395 0.01030323595644557 3.26136072421732e-15 3.26136072421732e-15 0 0 0.06317094828378089 0.2319085091399002 0.242821274380722 0.2352092838115068 0.1687130653112465 0.04678649070700266 0.01059432315747574 0.0007961052083652318 3.189663384322079e-18 0 0 0.02838159879978596 0.1285276513361182 0.1830993512088012 0.2477272436948312 0.2018278567180619 0.1744057478556962 0.03546280486160494 0.0005677455251007397 3.177143471423105e-19 0 0 0.009261693393460299 0.03522679015591199 0.03700632949788688 0.3955835069058257 0.1792885887039695 0.1852540899071808 0.1066105842146772 0.05075731532223823 0.00101110189884948 0 0 4.765604300571226e-15 4.765604300571226e-15 4.765604300571226e-15 0.8966639829173186 0.02149333146638113 0.01200686106346909 0.06983582455280747 4.765604300571226e-15 4.765604300571226e-15 0 0 8.109057668141407e-16 8.109057668141407e-16 0.002327701588657128 0.2453785424708542 0.02385894128372806 0.1926173064613111 0.0651950419956165 0.1174907376874284 0.2010940197466678 0.1269955191744409 0.02504218959129421 9.610379998509336e-15 9.610379998509336e-15 9.610379998509336e-15 0.00353810092433817 0.7368095174914322 0.2596523815841718 9.610379998509336e-15 9.610379998509336e-15 9.610379998509336e-15 0 0 0.008641129669634979 0.03329996311712954 0.0358290742399495 0.3931713999683857 0.1839928341851519 0.195531903683018 0.1094894356920807 0.03983350018441443 0.0002107592602351263 0 0 1.629351850144359e-19 1.629351850144359e-19 0.004635320689208564 0.1891563034680833 0.07471387119716247 0.08370843832864877 0.06768931535858977 0.07446051911047287 0.09088864096487381 0.4147475908829604 0 1.642005665791863e-15 1.642005665791863e-15 1.642005665791863e-15 0.004957176863237476 0.3072468036025395 0.508650519031136 0.1580406881150451 0.02110481238803539 1.642005665791863e-15 0 0 1.238962464158977e-15 1.238962464158977e-15 1.238962464158977e-15 0.2152368185880239 0.3888963360142954 0.2127792672028586 0.08290884718498691 0.04649240393208293 0.007171581769438156 0.01295799821268976 0.03355674709562072 2.466416542201507e-15 2.466416542201507e-15 2.466416542201507e-15 0.02417020319833812 0.2782383856552617 0.687192602793613 0.01039880835277478 2.466416542201507e-15 2.466416542201507e-15 0 0 7.888073926101517e-16 7.888073926101517e-16 7.888073926101517e-16 0.2573323082836814 0.0295406496252168 0.1890640015375739 0.059158177974246 0.1257928118393234 0.1953872765712083 0.12367864693446 0.02004612723428777 1.349304671717702e-15 1.349304671717702e-15 1.349304671717702e-15 0.2143891506723353 0.3992184806344063 0.2065049994253522 0.06498103666245315 0.05675209746006272 0.0125962533042191 0.01282611194115603 0.0327318699000111 3.807391172630072e-16 3.807391172630072e-16 3.807391172630072e-16 0.3056581585731725 0.03568574831521684 0.1857106243121407 0.2151396824918207 0.1632769979948437 0.09448355922748727 4.522908531713112e-05 0 1.614279271928483e-16 1.614279271928483e-16 1.614279271928483e-16 0.2356385629502105 0.07855751370452593 0.5325737326145057 0.09696235219498935 0.05626783853576776 1.614279271928483e-16 0 0 3.324951510185867e-12 3.324951510185867e-12 3.324951510185867e-12 3.324951510185867e-12 0.701863354019589 0.2981366459571363 3.324951510185867e-12 3.324951510185867e-12 3.324951510185867e-12 0 0 3.597545431289803e-15 3.597545431289803e-15 0.0006374705169921662 0.8969210174029196 0.01147446930579783 0.007458405048769851 0.0835086377255061 3.597545431289803e-15 3.597545431289803e-15 0 0 1.51459866772057e-15 1.51459866772057e-15 1.51459866772057e-15 0.006258808915220846 0.2785408853109076 0.5164472898401798 0.192064212512839 0.006688803420846601 1.51459866772057e-15 0 0 1.466329719716519e-19 1.466329719716519e-19 1.466329719716519e-19 0.2712964445780198 0.3259275753061936 0.1426227242513255 0.06391401350038062 0.0471493224581486 0.1009183066828419 0.04817161322308972 0 3.172440183674385e-16 3.172440183674385e-16 3.172440183674385e-16 0.2952559300873903 0.04043241402791985 0.1973527408920665 0.2033679491544657 0.162382249460901 0.1000595846101464 0.001149131767109292 0</probabilities>
		</cpt>
		<cpt id="p1_gesture" dynamic="plate">
			<state id="wave_slow_shoulder" />
			<state id="wave_fast_shoulder" />
			<state id="wave_small_head" />
			<state id="wave_wide_head" />
			<state id="arm_raise_high" />
			<state id="arm_raise_low" />
			<state id="come_here" />
			<state id="i_am_coming" />
			<state id="None" />
			<parents>p1_wti</parents>
			<probabilities>0.01789470379556086 1.989570416617845e-18 0.02570663150514342 0.08507048001758076 0.02040362498561098 1.989570416617845e-18 0.01093565231950941 0.008371791249385198 0.8316171161272093 6.269538421438832e-20 0.02082298684546499 0.05992465415530102 0.003956524505579047 0.1329765740365061 0.07482607571108776 0.02937397172093116 6.269538365012987e-20 0.6781192130251298 8.742078398002088e-20 8.742078319323383e-20 8.742078319323383e-20 8.742078319323383e-20 0.01541709709909316 0.02391127137506658 8.742078319323383e-20 8.742078319323383e-20 0.9606716315258402 4.762702872676201e-18 4.762702829811874e-18 0.008119354511316354 4.762702829811874e-18 4.762702829811874e-18 4.762702829811874e-18 4.762702829811874e-18 4.762702829811874e-18 0.9918806454886835 9.365581440169191e-20 9.365581355878959e-20 9.365581355878959e-20 9.365581355878959e-20 9.365581355878959e-20 9.365581355878959e-20 9.365581355878959e-20 9.365581355878959e-20 1</probabilities>
		</cpt>
		<cpt id="p2_gesture" dynamic="plate">
			<state id="wave_slow_shoulder" />
			<state id="wave_fast_shoulder" />
			<state id="wave_small_head" />
			<state id="wave_wide_head" />
			<state id="arm_raise_high" />
			<state id="arm_raise_low" />
			<state id="come_here" />
			<state id="i_am_coming" />
			<state id="None" />
			<parents>p2_wti</parents>
			<probabilities>0.01572156844552348 1.902182754519184e-18 0.03714156112597358 0.08667738826088525 0.01814423636991562 1.902182754519184e-18 0.01268034700852058 0.008865933680754225 0.8207689651084273 6.345890285956896e-20 0.02094119208814549 0.0631073277578654 0.003471392539492898 0.1270385304659498 0.07557828886233904 0.03057795698924731 6.345890285956896e-20 0.67928531129696 8.640863697250513e-20 8.640863697250513e-20 8.640863697250513e-20 8.640863697250513e-20 0.01697586778318709 0.02450833436022313 8.640863697250513e-20 8.640863697250513e-20 0.9585157978565898 9.550554780219806e-20 9.550554780219806e-20 9.550554780219806e-20 9.550554780219806e-20 9.550554780219806e-20 9.550554780219806e-20 9.550554780219806e-20 9.550554780219806e-20 1 4.675134341535335e-18 4.675134341535335e-18 0.009251852109491848 4.675134341535335e-18 4.675134341535335e-18 4.675134341535335e-18 4.675134341535335e-18 4.675134341535335e-18 0.9907481478905081</probabilities>
		</cpt>
		<cpt id="p1_head" dynamic="plate">
			<state id="central" />
			<state id="mid_peripheral" />
			<state id="outside" />
			<parents>p1_wti</parents>
			<probabilities>1 5.96871130954065e-18 5.96871130954065e-18 0.9990877186603676 0.000808988615489116 0.0001032927241431457 0.9977815997407711 0.001944215957526359 0.0002741843017024355 0.2690446109534292 0.4322996321792417 0.298655756867329 0.0129602567868954 0.2139934877543521 0.7730462554587525</probabilities>
		</cpt>
	</nodes>
	<dynamic numslices="20">
		<cpt id="p1_imas" order="1">
			<parents>p1_imas</parents>
			<probabilities>1 3.520678508701071e-17 3.520678508701071e-17 3.520678508701071e-17 3.520678508701071e-17 0.001188795601456287 0.9988112043985438 1.195984960661464e-17 1.195984960661464e-17 1.195984960661464e-17 0.005079127459366986 0.007505821689953431 0.9844150983746792 0.002999952476000385 5.240891020187622e-18 0.0004253571906480439 0.0008308711630720762 0.003618588923312067 0.9946418222790496 0.0004833604439182317 1.575667842066947e-19 1.575667842066947e-19 1.575667842066947e-19 0.0104836557119807 0.9895163442880194</probabilities>
		</cpt>
		<cpt id="p2_imas" order="1">
			<parents>p2_imas</parents>
			<probabilities>1 3.247769874236545e-17 3.247769874236545e-17 3.247769874236545e-17 3.247769874236545e-17 0.001155585965712559 0.9988444140342874 1.098527842396032e-17 1.098527842396032e-17 1.098527842396032e-17 0.005071494584091526 0.007416379176735993 0.9846305299955799 0.002881596243592471 4.728512112130267e-18 0.0004292184835033264 0.0008322525858359954 0.003691997745062703 0.9945587829088895 0.0004877482767083255 1.603397297588533e-19 1.603397297588533e-19 1.603397297588533e-19 0.0106692801835655 0.9893307198164346</probabilities>
		</cpt>
		<cpt id="p1_wti" order="1">
			<parents>p2_imas p1_wti</parents>
			<probabilities>0.2 0.2 0.2 0.2 0.2 0.2 0.2 0.2 0.2 0.2 0.2 0.2 0.2 0.2 0.2 0.2 0.2 0.2 0.2 0.2 0.2 0.2 0.2 0.2 0.2 0.2 0.2 0.2 0.2 0.2 0.2 0.2 0.2 0.2 0.2 0.2 0.2 0.2 0.2 0.2 0.2 0.2 0.2 0.2 0.2 0.2 0.2 0.2 0.2 0.2 0.2 0.2 0.2 0.2 0.2 0.2 0.2 0.2 0.2 0.2 0.2 0.2 0.2 0.2 0.2 0.2 0.2 0.2 0.2 0.2 0.2 0.2 0.2 0.2 0.2 1 3.512817391465015e-17 3.512817391465015e-17 3.512817391465015e-17 3.512817391465015e-17 0.9999999993719385 1.570153635388017e-10 1.570153635388017e-10 1.570153635388017e-10 1.570153635388017e-10 0.9999999975110383 6.222405091794088e-10 6.222405091794088e-10 6.222405091794088e-10 6.222405091794088e-10 0.9999997766347062 5.58413235287138e-08 5.58413235287138e-08 5.58413235287138e-08 5.58413235287138e-08 0.2 0.2 0.2 0.2 0.2 0.9999999983141997 4.214501255921375e-10 4.214501255921375e-10 4.214501255921375e-10 4.214501255921375e-10 0.9999000000000002 2.5e-05 2.5e-05 2.5e-05 2.5e-05 0.2 0.2 0.2 0.2 0.2 0.2 0.2 0.2 0.2 0.2 0.2 0.2 0.2 0.2 0.2 0.2 0.2 0.2 0.2 0.2 0.2 0.2 0.2 0.2 0.2 0.2 0.2 0.2 0.2 0.2 0.2 0.2 0.2 0.2 0.2 0.2 0.2 0.2 0.2 0.2 0.2 0.2 0.2 0.2 0.2 0.2 0.2 0.2 0.2 0.2 0.2 0.2 0.2 0.2 0.2 0.2 0.2 0.2 0.2 0.2 0.2 0.2 0.2 0.2 0.2 0.2 0.2 0.2 0.2 0.2 6.641072045573272e-14 0.9999999999997344 6.641072045573272e-14 6.641072045573272e-14 6.641072045573272e-14 2.870317203059587e-08 0.999999885187312 2.870317203059587e-08 2.870317203059587e-08 2.870317203059587e-08 0.2 0.2 0.2 0.2 0.2 0.2 0.2 0.2 0.2 0.2 0.9999999999999944 1.428318980019565e-15 1.428318980019565e-15 1.428318980019565e-15 1.428318980019565e-15 0.002666666666666698 0.9973333333333333 3.145924622948502e-17 3.145924622948502e-17 3.145924622948502e-17 0.2285714285593114 0.7714285711862298 8.481952367449694e-11 8.481952367449694e-11 8.481952367449694e-11 2.915876949992712e-08 0.9999998833649221 2.915876949992712e-08 2.915876949992712e-08 2.915876949992712e-08 0.2 0.2 0.2 0.2 0.2 0.9999999999961982 9.5042339070395e-13 9.5042339070395e-13 9.5042339070395e-13 9.5042339070395e-13 0.2 0.2 0.2 0.2 0.2 0.9999999718038073 7.049048158215887e-09 7.049048158215887e-09 7.049048158215887e-09 7.049048158215887e-09 0.2 0.2 0.2 0.2 0.2 0.2 0.2 0.2 0.2 0.2 0.2 0.2 0.2 0.2 0.2 0.2 0.2 0.2 0.2 0.2 0.2 0.2 0.2 0.2 0.2 0.2 0.2 0.2 0.2 0.2 0.2 0.2 0.2 0.2 0.2 0.2 0.2 0.2 0.2 0.2 7.524758167547973e-14 0.999999999999699 7.524758167547973e-14 7.524758167547973e-14 7.524758167547973e-14 0.2 0.2 0.2 0.2 0.2 0.2 0.2 0.2 0.2 0.2 0.2 0.2 0.2 0.2 0.2 0.2 0.2 0.2 0.2 0.2 6.539150925453816e-15 0.9999999999999739 6.539150925453816e-15 6.539150925453816e-15 6.539150925453816e-15 3.058476698154195e-08 0.7956988336346187 0.2043010746110803 3.058476698154195e-08 3.058476698154195e-08 2.5e-05 2.5e-05 0.9999 2.5e-05 2.5e-05 0.2 0.2 0.2 0.2 0.2 0.9999999999999417 1.454563538896654e-14 1.454563538896654e-14 1.454563538896654e-14 1.454563538896654e-14 1.441401431599341e-17 1 1.441401431599341e-17 1.441401431599341e-17 1.441401431599341e-17 0.004880554842146599 0.1882010446099912 0.8069184005476113 1.255166869314194e-13 1.255166869314194e-13 0.182182985554922 0.4899678972525535 0.3278491171667084 1.290812493370383e-11 1.290812493370383e-11 0.2 0.2 0.2 0.2 0.2 0.9999999998964689 2.588272438476312e-11 2.588272438476312e-11 2.588272438476312e-11 2.588272438476312e-11 1.537163504137279e-13 0.9999999999993848 1.537163504137279e-13 1.537163504137279e-13 1.537163504137279e-13 0.3837837833320811 0.6162162151932427 4.915586827142585e-10 4.915586827142585e-10 4.915586827142585e-10 1.298027946703946e-10 0.9999999994807888 1.298027946703946e-10 1.298027946703946e-10 1.298027946703946e-10 0.2 0.2 0.2 0.2 0.2 0.2 0.2 0.2 0.2 0.2 3.350898263796992e-17 1 3.350898263796992e-17 3.350898263796992e-17 3.350898263796992e-17 4.95618644449801e-09 0.7222222092810687 0.2777777758503719 4.95618644449801e-09 4.95618644449801e-09 3.654012970781387e-10 0.1395348838314004 3.654012970781387e-10 0.8604651150723958 3.654012970781387e-10 0.2 0.2 0.2 0.2 0.2 0.9999999999999973 6.906582423918659e-16 6.906582423918659e-16 6.906582423918659e-16 6.906582423918659e-16 4.86892288300025e-17 1 4.86892288300025e-17 4.86892288300025e-17 4.86892288300025e-17 0.0111117609217291 0.02666822621209385 0.9622200128660972 3.999831207123059e-14 3.999831207123059e-14 1.025052277666161e-06 1.025052277666161e-06 0.9999958997908892 1.025052277666161e-06 1.025052277666161e-06 0.2 0.2 0.2 0.2 0.2 0.9999999999995293 1.177012496394669e-13 1.177012496394669e-13 1.177012496394669e-13 1.177012496394669e-13 2.235653185226613e-17 1 2.235653185226613e-17 2.235653185226613e-17 2.235653185226613e-17 3.117745622189255e-15 0.0919810142393222 0.9080189857606684 3.117745622189255e-15 3.117745622189255e-15 6.566199035323737e-15 0.01703544782094167 0.04233244740466111 0.9406321047743841 6.566199035323737e-15 8.075158667177621e-10 8.075158667177621e-10 0.9999999967699367 8.075158667177621e-10 8.075158667177621e-10 0.9999999999998983 2.540941368729269e-14 2.540941368729269e-14 2.540941368729269e-14 2.540941368729269e-14 5.697773219923356e-16 0.9710802381627422 0.02891976183725594 5.697773219923356e-16 5.697773219923356e-16 2.693188759712782e-19 0.002277026437579991 0.99772297356242 2.693188759712782e-19 2.693188759712782e-19 2.733449322556445e-16 0.01992031872509984 0.03817598686035822 0.9419036944145412 2.733449322556445e-16 1.44675925925926e-11 1.44675925925926e-11 0.9999999999421296 1.44675925925926e-11 1.44675925925926e-11 0.2 0.2 0.2 0.2 0.2 1.065879803241798e-14 0.9999999999999573 1.065879803241798e-14 1.065879803241798e-14 1.065879803241798e-14 2.09684593253751e-15 0.01350434459060364 0.9864956554093902 2.09684593253751e-15 2.09684593253751e-15 3.224126211113036e-16 0.00552272407485609 0.005792411237747135 0.9886848646873961 3.224126211113036e-16 3.756415483774474e-12 3.756415483774474e-12 0.8130816272152863 0.1869183727734443 3.756415483774474e-12 0.2 0.2 0.2 0.2 0.2 0.2 0.2 0.2 0.2 0.2 4.895739259663568e-10 4.895739259663568e-10 0.9999999980417043 4.895739259663568e-10 4.895739259663568e-10 0.2 0.2 0.2 0.2 0.2 0.2 0.2 0.2 0.2 0.2 0.2 0.2 0.2 0.2 0.2 0.2 0.2 0.2 0.2 0.2 3.237796525127309e-12 3.237796525127309e-12 0.9999999999870488 3.237796525127309e-12 3.237796525127309e-12 3.00993036225114e-08 3.00993036225114e-08 3.00993036225114e-08 0.9999998796027857 3.00993036225114e-08 4.739209706677951e-11 4.739209706677951e-11 0.1764705882408697 4.739209706677951e-11 0.823529411616954 0.2 0.2 0.2 0.2 0.2 0.2 0.2 0.2 0.2 0.2 0.2 0.2 0.2 0.2 0.2 5.004202230081782e-13 5.004202230081782e-13 5.004202230081782e-13 0.9999999999979983 5.004202230081782e-13 4.512199652576604e-12 4.512199652576604e-12 4.512199652576604e-12 4.512199652576604e-12 0.9999999999819512 0.2 0.2 0.2 0.2 0.2 0.2 0.2 0.2 0.2 0.2 0.2 0.2 0.2 0.2 0.2 2.392601324258386e-15 2.392601324258386e-15 2.392601324258386e-15 0.9999999999999906 2.392601324258386e-15 1.220423838367958e-16 1.220423838367958e-16 0.000161157620635083 1.220423838367958e-16 0.9998388423793646 0.2 0.2 0.2 0.2 0.2 0.2 0.2 0.2 0.2 0.2 0.2 0.2 0.2 0.2 0.2 6.454264926249458e-14 6.454264926249458e-14 6.454264926249458e-14 0.9348333104675911 0.06516668953221527 2.947496216160969e-19 2.947496216160969e-19 2.947496216160969e-19 2.947496216160969e-19 1</probabilities>
		</cpt>
		<cpt id="p2_wti" order="1">
			<parents>p1_imas p2_wti</parents>
			<probabilities>0.2 0.2 0.2 0.2 0.2 0.2 0.2 0.2 0.2 0.2 0.2 0.2 0.2 0.2 0.2 0.2 0.2 0.2 0.2 0.2 0.2 0.2 0.2 0.2 0.2 0.2 0.2 0.2 0.2 0.2 0.2 0.2 0.2 0.2 0.2 0.2 0.2 0.2 0.2 0.2 0.2 0.2 0.2 0.2 0.2 0.2 0.2 0.2 0.2 0.2 0.2 0.2 0.2 0.2 0.2 0.2 0.2 0.2 0.2 0.2 0.2 0.2 0.2 0.2 0.2 0.2 0.2 0.2 0.2 0.2 0.2 0.2 0.2 0.2 0.2 1 3.257890627698618e-17 3.257890627698618e-17 3.257890627698618e-17 3.257890627698618e-17 0.999999999403839 1.490402115535783e-10 1.490402115535783e-10 1.490402115535783e-10 1.490402115535783e-10 0.9999999975110383 6.222405091794088e-10 6.222405091794088e-10 6.222405091794088e-10 6.222405091794088e-10 0.2 0.2 0.2 0.2 0.2 0.9999997766347062 5.58413235287138e-08 5.58413235287138e-08 5.58413235287138e-08 5.58413235287138e-08 0.9999999994874739 1.281315347082701e-10 1.281315347082701e-10 1.281315347082701e-10 1.281315347082701e-10 0.2 0.2 0.2 0.2 0.2 0.2 0.2 0.2 0.2 0.2 0.2 0.2 0.2 0.2 0.2 0.2 0.2 0.2 0.2 0.2 0.2 0.2 0.2 0.2 0.2 0.2 0.2 0.2 0.2 0.2 0.2 0.2 0.2 0.2 0.2 0.2 0.2 0.2 0.2 0.2 0.2 0.2 0.2 0.2 0.2 0.2 0.2 0.2 0.2 0.2 0.2 0.2 0.2 0.2 0.2 0.2 0.2 0.2 0.2 0.2 0.2 0.2 0.2 0.2 0.2 0.2 0.2 0.2 0.2 0.2 0.2 0.2 0.2 0.2 0.2 7.524758167547973e-14 0.999999999999699 7.524758167547973e-14 7.524758167547973e-14 7.524758167547973e-14 2.870317203059587e-08 0.999999885187312 2.870317203059587e-08 2.870317203059587e-08 2.870317203059587e-08 0.2 0.2 0.2 0.2 0.2 0.2 0.2 0.2 0.2 0.2 0.9999999999999952 1.232099356898734e-15 1.232099356898734e-15 1.232099356898734e-15 1.232099356898734e-15 0.002588365976086461 0.9974116340239135 2.87686425094742e-17 2.87686425094742e-17 2.87686425094742e-17 0.2285714285593114 0.7714285711862298 8.481952367449694e-11 8.481952367449694e-11 8.481952367449694e-11 0.2 0.2 0.2 0.2 0.2 6.046042426893521e-08 0.9999997581583026 6.046042426893521e-08 6.046042426893521e-08 6.046042426893521e-08 0.9999999999950686 1.2327772035864e-12 1.2327772035864e-12 1.2327772035864e-12 1.2327772035864e-12 1.086971644822884e-08 0.9999999565211338 1.086971644822884e-08 1.086971644822884e-08 1.086971644822884e-08 0.9999999718038073 7.049048158215887e-09 7.049048158215887e-09 7.049048158215887e-09 7.049048158215887e-09 0.2 0.2 0.2 0.2 0.2 7.407407407407406e-06 0.9999703703703702 7.407407407407406e-06 7.407407407407406e-06 7.407407407407406e-06 0.2 0.2 0.2 0.2 0.2 0.2 0.2 0.2 0.2 0.2 0.2 0.2 0.2 0.2 0.2 0.2 0.2 0.2 0.2 0.2 0.2 0.2 0.2 0.2 0.2 0.2 0.2 0.2 0.2 0.2 6.641072045573272e-14 0.9999999999997344 6.641072045573272e-14 6.641072045573272e-14 6.641072045573272e-14 0.2 0.2 0.2 0.2 0.2 0.2 0.2 0.2 0.2 0.2 0.2 0.2 0.2 0.2 0.2 0.9999000000000002 2.5e-05 2.5e-05 2.5e-05 2.5e-05 6.539150925453816e-15 0.9999999999999739 6.539150925453816e-15 6.539150925453816e-15 6.539150925453816e-15 2.870317203059587e-08 0.999999885187312 2.870317203059587e-08 2.870317203059587e-08 2.870317203059587e-08 0.2 0.2 0.2 0.2 0.2 3.371601004737096e-06 0.9999865135959808 3.371601004737096e-06 3.371601004737096e-06 3.371601004737096e-06 0.9999999999999638 8.996564871715583e-15 8.996564871715583e-15 8.996564871715583e-15 8.996564871715583e-15 1.345444170060365e-17 1 1.345444170060365e-17 1.345444170060365e-17 1.345444170060365e-17 0.005764125900729393 0.1526734926052539 0.8415623814938423 8.723500322115112e-14 8.723500322115112e-14 0.2 0.2 0.2 0.2 0.2 0.1611760538451529 0.5426850867718899 0.2961388593651963 8.880469326182613e-12 8.880469326182613e-12 0.999999999734853 6.628670849164634e-11 6.628670849164634e-11 6.628670849164634e-11 6.628670849164634e-11 1.461592570204044e-13 0.9999999999994154 1.461592570204044e-13 1.461592570204044e-13 1.461592570204044e-13 0.3111111109339632 0.6888888881094378 3.18866358160489e-10 3.18866358160489e-10 3.18866358160489e-10 0.2 0.2 0.2 0.2 0.2 2.808507700598818e-10 0.9999999988765969 2.808507700598818e-10 2.808507700598818e-10 2.808507700598818e-10 0.2 0.2 0.2 0.2 0.2 3.606395832330073e-17 1 3.606395832330073e-17 3.606395832330073e-17 3.606395832330073e-17 1.050742289009504e-08 0.6428571195907065 0.3571428488870249 1.050742289009504e-08 1.050742289009504e-08 0.2 0.2 0.2 0.2 0.2 4.895739259663569e-10 0.1282051283808727 4.895739259663569e-10 4.895739259663569e-10 0.8717948701504056 0.9999999999999967 8.839972845694713e-16 8.839972845694713e-16 8.839972845694713e-16 8.839972845694713e-16 5.263266674848535e-17 1 5.263266674848535e-17 5.263266674848535e-17 5.263266674848535e-17 0.009336099585093266 0.02385892116185439 0.9668049792529873 3.254370237117829e-14 3.254370237117829e-14 0.2 0.2 0.2 0.2 0.2 0.2 0.2 0.2 0.2 0.2 0.9999999999992639 1.840986702891787e-13 1.840986702891787e-13 1.840986702891787e-13 1.840986702891787e-13 2.580589628473574e-17 1 2.580589628473574e-17 2.580589628473574e-17 2.580589628473574e-17 2.877591300632162e-15 0.09164761395145361 0.9083523860485379 2.877591300632162e-15 2.877591300632162e-15 1.004133495451355e-09 1.004133495451355e-09 0.9999999959834658 1.004133495451355e-09 1.004133495451355e-09 7.31048380553862e-15 0.01828681424447248 0.04244797716637926 7.31048380553862e-15 0.9392652085891335 0.9999999999999203 1.999539690099791e-14 1.999539690099791e-14 1.999539690099791e-14 1.999539690099791e-14 6.007307949001575e-16 0.9704791723779682 0.02952082762203003 6.007307949001575e-16 6.007307949001575e-16 2.101809436681912e-05 0.00204318001555339 0.9979358018900798 2.707370948062573e-19 2.707370948062573e-19 1.325597753645918e-11 1.325597753645918e-11 0.9999999999469762 1.325597753645918e-11 1.325597753645918e-11 2.647827446578473e-16 0.01958932689140246 0.03832216975952586 2.647827446578473e-16 0.9420885033490711 0.2 0.2 0.2 0.2 0.2 7.615672116594047e-15 0.9999999999999697 7.615672116594047e-15 7.615672116594047e-15 7.615672116594047e-15 1.830095548190239e-15 0.01587567194461462 0.9841243280553799 1.830095548190239e-15 1.830095548190239e-15 3.829235747119182e-12 3.829235747119182e-12 0.8078672732021696 3.829235747119182e-12 0.1921327267863427 3.072548674581344e-16 0.005677097756854356 0.005942490538170704 3.072548674581344e-16 0.9883804117049743 0.2 0.2 0.2 0.2 0.2 0.2 0.2 0.2 0.2 0.2 2.718866769805066e-09 2.718866769805066e-09 0.999999989124533 2.718866769805066e-09 2.718866769805066e-09 0.2 0.2 0.2 0.2 0.2 0.2 0.2 0.2 0.2 0.2 0.2 0.2 0.2 0.2 0.2 0.2 0.2 0.2 0.2 0.2 3.753421528960225e-12 3.753421528960225e-12 0.9999999999849863 3.753421528960225e-12 3.753421528960225e-12 1.818132989079985e-11 1.818132989079985e-11 0.1111111111191917 0.8888888888262643 1.818132989079985e-11 0.2 0.2 0.2 0.2 0.2 0.2 0.2 0.2 0.2 0.2 0.2 0.2 0.2 0.2 0.2 0.2 0.2 0.2 0.2 0.2 4.209055552330924e-12 4.209055552330924e-12 4.209055552330924e-12 0.9999999999831637 4.209055552330924e-12 4.759754384203219e-13 4.759754384203219e-13 4.759754384203219e-13 4.759754384203219e-13 0.9999999999980961 0.2 0.2 0.2 0.2 0.2 0.2 0.2 0.2 0.2 0.2 4.380844320125817e-07 4.380844320125817e-07 0.999998247662272 4.380844320125817e-07 4.380844320125817e-07 1.41732526695411e-16 1.41732526695411e-16 0.0005081889749740632 0.9994918110250255 1.41732526695411e-16 2.53863309226562e-15 2.53863309226562e-15 2.53863309226562e-15 2.53863309226562e-15 0.9999999999999898 0.2 0.2 0.2 0.2 0.2 0.2 0.2 0.2 0.2 0.2 0.2 0.2 0.2 0.2 0.2 2.962419094677515e-19 2.962419094677515e-19 2.962419094677515e-19 1 2.962419094677515e-19 4.843655481485259e-14 4.843655481485259e-14 4.843655481485259e-14 0.05921954868473675 0.9407804513151179</probabilities>
		</cpt>
	</dynamic>
	<extensions>
		<genie version="1.0" app="SMILE_ACADEMIC 1.5.0@a121f1f76773" name="emidas dbn v9" faultnameformat="user">
			<plate leftwidth="120" rightwidth="120">120 50 1164 561</plate>
			<node id="p1_imas">
				<name>p1_imas</name>
				<interior color="e5f6f7" />
				<outline color="000080" />
				<font color="000000" name="MS Sans Serif" size="8" />
				<position>491 462 547 497</position>
			</node>
			<node id="p2_imas">
				<name>p2_imas</name>
				<interior color="e5f6f7" />
				<outline color="000080" />
				<font color="000000" name="MS Sans Serif" size="8" />
				<position>651 472 707 507</position>
			</node>
			<node id="p1_wti">
				<name>p1_wti</name>
				<interior color="e5f6f7" />
				<outline color="000080" />
				<font color="000000" name="MS Sans Serif" size="8" />
				<position>487 311 571 363</position>
			</node>
			<node id="p2_wti">
				<name>p2_wti</name>
				<interior color="e5f6f7" />
				<outline color="000080" />
				<font color="000000" name="MS Sans Serif" size="8" />
				<position>650 301 734 353</position>
			</node>
			<node id="p1_approach">
				<name>p1_approach</name>
				<interior color="e5f6f7" />
				<outline color="000080" />
				<font color="000000" name="MS Sans Serif" size="8" />
				<position>268 135 344 182</position>
			</node>
			<node id="p2_head">
				<name>p2_head</name>
				<interior color="e5f6f7" />
				<outline color="000080" />
				<font color="000000" name="MS Sans Serif" size="8" />
				<position>676 84 733 119</position>
			</node>
			<node id="p1_body">
				<name>p1_body</name>
				<interior color="e5f6f7" />
				<outline color="000080" />
				<font color="000000" name="MS Sans Serif" size="8" />
				<position>404 76 461 111</position>
			</node>
			<node id="p2_approach">
				<name>p2_approach</name>
				<interior color="e5f6f7" />
				<outline color="000080" />
				<font color="000000" name="MS Sans Serif" size="8" />
				<position>924 160 1000 207</position>
			</node>
			<node id="p2_body">
				<name>p2_body</name>
				<interior color="e5f6f7" />
				<outline color="000080" />
				<font color="000000" name="MS Sans Serif" size="8" />
				<position>827 91 884 126</position>
			</node>
			<node id="dist">
				<name>dist</name>
				<interior color="e5f6f7" />
				<outline color="000080" />
				<font color="000000" name="MS Sans Serif" size="8" />
				<position>599 137 637 160</position>
			</node>
			<node id="p1_gesture">
				<name>p1_gesture</name>
				<interior color="e5f6f7" />
				<outline color="000080" />
				<font color="000000" name="MS Sans Serif" size="8" />
				<position>248 271 316 313</position>
			</node>
			<node id="p2_gesture">
				<name>p2_gesture</name>
				<interior color="e5f6f7" />
				<outline color="000080" />
				<font color="000000" name="MS Sans Serif" size="8" />
				<position>964 312 1032 354</position>
			</node>
			<node id="p1_head">
				<name>p1_head</name>
				<interior color="e5f6f7" />
				<outline color="000080" />
				<font color="000000" name="MS Sans Serif" size="8" />
				<position>528 80 585 115</position>
			</node>
		</genie>
	</extensions>
</smile>
