<?xml version="1.0" encoding="ISO-8859-1"?>
<!-- This file was created by ACADEMIC version of SMILE -->
<smile version="1.0" id="Network2" numsamples="10000" discsamples="10000">
	<nodes>
		<cpt id="p1_imas" target="true" dynamic="plate">
			<state id="very_high" />
			<state id="high" />
			<state id="medium" />
			<state id="low" />
			<state id="very_low" />
			<probabilities>0.01490576110586463 0.02497981084601339 0.07092897521786037 0.516158173516174 0.3730272793140876</probabilities>
		</cpt>
		<cpt id="p2_imas" target="true" dynamic="plate">
			<state id="very_high" />
			<state id="high" />
			<state id="medium" />
			<state id="low" />
			<state id="very_low" />
			<probabilities>0.01545326380913358 0.02638963030693094 0.07578806170937234 0.5115249318897604 0.3708441122848026</probabilities>
		</cpt>
		<cpt id="p1_wti" target="true" dynamic="plate">
			<state id="very_high" />
			<state id="high" />
			<state id="medium" />
			<state id="low" />
			<state id="very_low" />
			<parents>p1_imas</parents>
			<probabilities>0.9999998315094583 4.212263541953409e-08 4.212263541953409e-08 4.212263541953409e-08 4.212263541953409e-08 0.2764383504299877 0.7235616045580875 1.500397492805782e-08 1.500397492805782e-08 1.500397492805782e-08 0.1597838676070648 0.7951563047651227 0.04505982390456955 1.861621486276707e-09 1.861621486276707e-09 0.03349244235226304 0.1877618668809634 0.5812649164007546 0.1974807743308592 3.515972121970259e-11 6.731710588323303e-11 6.731710588323303e-11 0.004641690888783438 0.1083183503042231 0.8870399586723593</probabilities>
		</cpt>
		<cpt id="p2_wti" target="true" dynamic="plate">
			<state id="very_high" />
			<state id="high" />
			<state id="medium" />
			<state id="very_low" />
			<state id="low" />
			<parents>p2_imas</parents>
			<probabilities>0.9999998432319612 3.91920096898325e-08 3.91920096898325e-08 3.91920096898325e-08 3.91920096898325e-08 0.2894190811261478 0.7105808785416468 1.344406854081912e-08 1.344406854081912e-08 1.344406854081912e-08 0.1692252124596813 0.7758714058160806 0.05490337846307498 1.630581557103475e-09 1.630581557103475e-09 0.03037073708935204 0.1819702179500584 0.5878008642255687 3.579952991837742e-11 0.1998581806992213 6.811201859508238e-11 6.811201859508238e-11 0.004133832904838808 0.8856367761150701 0.110229390843867</probabilities>
		</cpt>
		<cpt id="p1_approach" dynamic="plate">
			<state id="y" />
			<state id="m" />
			<state id="n" />
			<parents>p1_wti</parents>
			<probabilities>0.5651066733428197 0.2187549457878736 0.2161383808693067 0.4046040814577644 0.2200630477126034 0.3753328708296322 0.06091066321262859 0.1088752788967236 0.8302140578906477 0.1645029968376397 0.1261337476108142 0.7093632555515461 0.0002093688785057718 0.005650168133231459 0.9941404629882628</probabilities>
		</cpt>
		<cpt id="p2_head" dynamic="plate">
			<state id="central" />
			<state id="mid_peripheral" />
			<state id="outside" />
			<parents>p2_wti</parents>
			<probabilities>0.9999999999989109 5.445429796254826e-13 5.445429796254826e-13 0.9995370999330323 0.0004480344090993765 1.486565786838802e-05 0.999074593298203 0.0008493458769529607 7.606082484394629e-05 0.0145409585473062 0.2159277679009816 0.7695312735517121 0.3183054374678192 0.4257852946932086 0.2559092678389722</probabilities>
		</cpt>
		<cpt id="p1_body" dynamic="plate">
			<state id="strongly_facing" />
			<state id="slightly_facing" />
			<state id="turned_away" />
			<parents>p1_wti</parents>
			<probabilities>0.4526099489138664 0.4888799234097567 0.05851012767637686 0.2710874494514329 0.5030292069434589 0.2258833436051082 0.009600410296387142 0.179033332834211 0.8113662568694019 0.0287993683334633 0.8187054896681066 0.1524951419984301 0.001629089273347335 0.3765804359339139 0.6217904747927387</probabilities>
		</cpt>
		<cpt id="p2_approach" dynamic="plate">
			<state id="y" />
			<state id="m" />
			<state id="n" />
			<parents>p2_wti</parents>
			<probabilities>0.5819355844722794 0.2248446744523998 0.1932197410753207 0.4058072692240705 0.2316123168582101 0.3625804139177194 0.06296494043397205 0.1098363051739568 0.8271987543920711 5.385467122136561e-14 0.004286801274557567 0.9957131987253887 0.1619562977503594 0.1312085155545571 0.7068351866950836</probabilities>
		</cpt>
		<cpt id="p2_body" dynamic="plate">
			<state id="strongly_facing" />
			<state id="slightly_facing" />
			<state id="turned_away" />
			<parents>p2_wti</parents>
			<probabilities>0.434677634782532 0.5042402181009467 0.06108214711652129 0.2699648881421298 0.5140709645210122 0.2159641473368581 0.01121524318588971 0.1808405765112454 0.807944180302865 0.001677741070825397 0.4031663242718856 0.5951559346572889 0.03859373290885274 0.8069372044063386 0.1544690626848086</probabilities>
		</cpt>
		<cpt id="dist" dynamic="plate">
			<state id="range_0_3" />
			<state id="range_3_6" />
			<state id="range_6_9" />
			<state id="range_9_12" />
			<state id="range_12_15" />
			<state id="range_15_18" />
			<state id="range_18_21" />
			<state id="range_21_24" />
			<state id="range_24_27" />
			<state id="range_27_30" />
			<state id="range_30_inf" />
			<parents>p1_wti p2_wti</parents>
			<probabilities>0.1111111111111111 0.1111111111111111 0.1111111111111111 0.1111111111111111 0.1111111111111111 0.1111111111111111 0.1111111111111111 0.1111111111111111 0.1111111111111111 0 0 0.03069028947642188 0.1401417184164102 0.2330685525570824 0.303723374010459 0.2172831310208994 0.05883880644276374 0.01516304072237274 0.001091087353328004 2.623967804308072e-13 0 0 3.239081477121601e-11 3.239081477121601e-11 3.239081477121601e-11 0.004644174324166312 0.8308461956650652 0.1645096298164236 3.239081477121601e-11 3.239081477121601e-11 3.239081477121601e-11 0 0 1.160475111275782e-09 1.160475111275782e-09 1.160475111275782e-09 1.160475111275782e-09 0.7740187992906364 0.2259811925860379 1.160475111275782e-09 1.160475111275782e-09 1.160475111275782e-09 0 0 4.144130264667863e-11 4.144130264667863e-11 4.144130264667863e-11 0.02006604997698433 0.4324533110680817 0.541030147196689 0.006450491551038386 4.144130264667863e-11 4.144130264667863e-11 0 0 0.03145763000171756 0.1425479860221334 0.2364516084939089 0.2944600613840228 0.2200333195132292 0.0584625337714378 0.01559365380227444 0.0009932070110197865 2.562596494547875e-13 0 0 0.01415763418746432 0.07420713857840602 0.15673494241439 0.2765542174801666 0.2098850548729686 0.2191275698768632 0.04849636063612876 0.0008370819535570666 5.544420167902389e-14 0 0 0.00448428298235164 0.02170177560196457 0.03838565812901627 0.3856385452450253 0.1471442069027782 0.2044607845514641 0.1287126289349526 0.0683902109483531 0.001081906704094323 0 0 2.724068707079403e-11 2.724068707079403e-11 2.724068707079403e-11 0.8953573943117612 0.01219760434586616 0.006999138833948754 0.08544586237222038 2.724068707079403e-11 2.724068707079403e-11 0 0 1.533176746619213e-11 1.533176746619213e-11 0.002220160007507414 0.2360065312470827 0.02386965665078634 0.1973945423884512 0.05887535388191559 0.1668056713851423 0.2105745398023193 0.08908832476539739 0.01516521984073418 3.296236680460807e-11 3.296236680460807e-11 3.296236680460807e-11 0.002790313167275311 0.785249233325105 0.2119604533098456 3.296236680460807e-11 3.296236680460807e-11 3.296236680460807e-11 0 0 0.004182585146443559 0.01991318585707377 0.03467465098566126 0.384027625457702 0.1506699787289951 0.2186981958748042 0.1352811258288747 0.0523486235739666 0.0002040285464787198 0 0 2.107859784776853e-14 2.107859784776853e-14 0.004779337304156849 0.1860509380750536 0.08174831494931793 0.08735738318978639 0.07549114191448567 0.0854718686368288 0.1044206583403216 0.374680357590007 0 2.417832565476858e-11 2.417832565476858e-11 2.417832565476858e-11 0.002994586165821161 0.2783932496058709 0.4940772100835059 0.1938220065022336 0.03071294754585509 2.417832565476858e-11 0 0 3.893877126943177e-11 3.893877126943177e-11 3.893877126943177e-11 0.2340453413276425 0.3702004978780138 0.2116367448212773 0.08882939888831481 0.05030233822824823 0.006009322911573061 0.01085796656114607 0.02811838926696793 3.254622207974932e-11 3.254622207974932e-11 3.254622207974932e-11 0.03464092560602364 0.3844560826200082 0.5745190660653968 0.006383925545840231 3.254622207974932e-11 3.254622207974932e-11 0 0 1.483829264201604e-11 1.483829264201604e-11 1.483829264201604e-11 0.2524008181661014 0.02994233414926084 0.1987796563043798 0.04948401188809082 0.1746270208968372 0.1987681000194959 0.08394485339731585 0.01205320513400336 4.163082912127967e-11 4.163082912127967e-11 4.163082912127967e-11 0.2266119509448973 0.380519153612692 0.2033255259908844 0.07510501153088291 0.06534910282196975 0.01060761506640148 0.0109173264123552 0.02756431349502447 1.17112676513348e-11 1.17112676513348e-11 1.17112676513348e-11 0.2160919068090534 0.06728745521647087 0.2736158023708886 0.2497356344114332 0.128825600852316 0.06441280043201364 3.079987269061318e-05 0 1.204277522795303e-11 1.204277522795303e-11 1.204277522795303e-11 0.2539639573830365 0.08349557015697062 0.5202023882204728 0.09061663873292206 0.051721445458427 1.204277522795303e-11 0 0 2.012162115499035e-09 2.012162115499035e-09 2.012162115499035e-09 2.012162115499035e-09 0.7266487102526776 0.2733512756621875 2.012162115499035e-09 2.012162115499035e-09 2.012162115499035e-09 0 0 2.099555281226319e-11 2.099555281226319e-11 0.000824787638028275 0.8856706896510165 0.006557061576405693 0.003945234122468741 0.1030022269280987 2.099555281226319e-11 2.099555281226319e-11 0 0 2.164821476794574e-11 2.164821476794574e-11 2.164821476794574e-11 0.003824625584476978 0.2583716028244235 0.4962242290674969 0.2328834047305354 0.008696137706474198 2.164821476794574e-11 0 0 2.196682952325639e-14 2.196682952325639e-14 2.196682952325639e-14 0.2808724480086173 0.3303925073409057 0.137826652224867 0.06597027693742366 0.05204915190029927 0.09210245492719897 0.04078650866062222 0 9.760987980128712e-12 9.760987980128712e-12 9.760987980128712e-12 0.2029130854443165 0.07795409172573854 0.281232718771082 0.2413043274388631 0.1295516960177256 0.06628487876597035 0.0007592018070210631 0</probabilities>
		</cpt>
		<cpt id="p1_gesture" dynamic="plate">
			<state id="wave_slow_shoulder" />
			<state id="wave_fast_shoulder" />
			<state id="wave_small_head" />
			<state id="wave_wide_head" />
			<state id="arm_raise_high" />
			<state id="arm_raise_low" />
			<state id="come_here" />
			<state id="i_am_coming" />
			<state id="None" />
			<parents>p1_wti</parents>
			<probabilities>0.02597495258544433 1.86985354328273e-13 0.02573625752098409 0.08936535652484401 0.01974034128220571 1.86985354328273e-13 0.01076981752817013 0.01084246385213629 0.8175708107058415 1.885757690886791e-14 0.02388718974627495 0.06546638169408957 0.002886253753054578 0.1466205371414575 0.07218518164531131 0.03354538743199711 1.885757673914972e-14 0.6554090685877773 1.557153213110554e-14 1.557153199096175e-14 1.557153199096175e-14 1.557153199096175e-14 0.01751209176264021 0.01855580179992612 1.557153199096175e-14 1.557153199096175e-14 0.9639321064373403 7.302176885518924e-13 7.302176819799332e-13 0.01607883551557284 7.302176819799332e-13 7.302176819799332e-13 7.302176819799332e-13 7.302176819799332e-13 7.302176819799332e-13 0.9839211644793157 1.76710676776602e-14 1.767106751862059e-14 1.767106751862059e-14 1.767106751862059e-14 1.767106751862059e-14 1.767106751862059e-14 1.767106751862059e-14 1.767106751862059e-14 0.9999999999998587</probabilities>
		</cpt>
		<cpt id="p2_gesture" dynamic="plate">
			<state id="wave_slow_shoulder" />
			<state id="wave_fast_shoulder" />
			<state id="wave_small_head" />
			<state id="wave_wide_head" />
			<state id="arm_raise_high" />
			<state id="arm_raise_low" />
			<state id="come_here" />
			<state id="i_am_coming" />
			<state id="None" />
			<parents>p2_wti</parents>
			<probabilities>0.02259489844580271 1.815143265418276e-13 0.03696626614138845 0.09090235164352493 0.01979961374727496 1.815143265418276e-13 0.01355847283144917 0.01140353455905878 0.8047748626311378 1.894612479965044e-14 0.0250568921112643 0.06875738379288897 0.002521380738833451 0.1400080687487072 0.07395004065345109 0.03275441231307255 1.894612479965044e-14 0.6569518216417445 1.544610180611311e-14 1.544610180611311e-14 1.544610180611311e-14 1.544610180611311e-14 0.01914048285202527 0.01972510723086178 1.544610180611311e-14 1.544610180611311e-14 0.9611344099170203 1.795155707378854e-14 1.795155707378854e-14 1.795155707378854e-14 1.795155707378854e-14 1.795155707378854e-14 1.795155707378854e-14 1.795155707378854e-14 1.795155707378854e-14 0.9999999999998564 7.191470331146765e-13 7.191470331146765e-13 0.01835555589536691 7.191470331146765e-13 7.191470331146765e-13 7.191470331146765e-13 7.191470331146765e-13 7.191470331146765e-13 0.9816444440995992</probabilities>
		</cpt>
		<cpt id="p1_head" dynamic="plate">
			<state id="central" />
			<state id="mid_peripheral" />
			<state id="outside" />
			<parents>p1_wti</parents>
			<probabilities>0.9999999999988782 5.609560685943796e-13 5.609560685943796e-13 0.9995427145779815 0.0004057893158915977 5.149610612700737e-05 0.9991004177834081 0.0007883978976522105 0.0001111843189397974 0.3120914278684121 0.4244330621049289 0.263475510026659 0.01558103253557545 0.1985435104421447 0.7858754570222799</probabilities>
		</cpt>
	</nodes>
	<dynamic numslices="60">
		<cpt id="p1_imas" order="1">
			<parents>p1_imas</parents>
			<probabilities>0.9999999999942158 1.446023341735924e-12 1.446023341735924e-12 1.446023341735924e-12 1.446023341735924e-12 0.001741162032254849 0.9982588379656956 6.832898366510659e-13 6.832898366510659e-13 6.832898366510659e-13 0.006401392718007242 0.01038226340135211 0.9810380208362376 0.002178323043972146 4.309287704693883e-13 0.0005719035937885372 0.0009373300374807877 0.002808851480390546 0.9951259286427123 0.0005559862456277092 3.036922877969739e-14 3.036922877969739e-14 3.036922877969739e-14 0.006828656978866887 0.993171343021042</probabilities>
		</cpt>
		<cpt id="p2_imas" order="1">
			<parents>p2_imas</parents>
			<probabilities>0.9999999999945657 1.358649770709606e-12 1.358649770709606e-12 1.358649770709606e-12 1.358649770709606e-12 0.001697976099469536 0.9983020238985892 6.470645244839828e-13 6.470645244839828e-13 6.470645244839828e-13 0.006353544168843036 0.00987883456618866 0.9817498108719995 0.002017810392586255 3.82541819738882e-13 0.0005757428067938072 0.0009239980976345392 0.002914513862134104 0.9949955012304084 0.0005902440030292052 3.088213550493681e-14 3.088213550493681e-14 3.088213550493681e-14 0.006870755142584728 0.9931292448573226</probabilities>
		</cpt>
		<cpt id="p1_wti" order="1">
			<parents>p2_imas p1_wti</parents>
			<probabilities>0.2 0.2 0.2 0.2 0.2 0.2 0.2 0.2 0.2 0.2 0.2 0.2 0.2 0.2 0.2 0.2 0.2 0.2 0.2 0.2 0.2 0.2 0.2 0.2 0.2 0.2 0.2 0.2 0.2 0.2 0.2 0.2 0.2 0.2 0.2 0.2 0.2 0.2 0.2 0.2 0.2 0.2 0.2 0.2 0.2 0.2 0.2 0.2 0.2 0.2 0.2 0.2 0.2 0.2 0.2 0.2 0.2 0.2 0.2 0.2 0.2 0.2 0.2 0.2 0.2 0.2 0.2 0.2 0.2 0.2 0.2 0.2 0.2 0.2 0.2 0.9999999999942257 1.443592401444199e-12 1.443592401444199e-12 1.443592401444199e-12 1.443592401444199e-12 0.9999998885334497 2.786663751816383e-08 2.786663751816383e-08 2.786663751816383e-08 2.786663751816383e-08 0.9999998170291434 4.574271415766738e-08 4.574271415766738e-08 4.574271415766738e-08 4.574271415766738e-08 0.9999962519443041 9.370139240269113e-07 9.370139240269113e-07 9.370139240269113e-07 9.370139240269113e-07 0.2 0.2 0.2 0.2 0.2 0.9999998447476182 3.881309553843469e-08 3.881309553843469e-08 3.881309553843469e-08 3.881309553843469e-08 0.9995867768595038 0.0001033057851239669 0.0001033057851239669 0.0001033057851239669 0.0001033057851239669 0.2 0.2 0.2 0.2 0.2 0.2 0.2 0.2 0.2 0.2 0.2 0.2 0.2 0.2 0.2 0.2 0.2 0.2 0.2 0.2 0.2 0.2 0.2 0.2 0.2 0.2 0.2 0.2 0.2 0.2 0.2 0.2 0.2 0.2 0.2 0.2 0.2 0.2 0.2 0.2 0.2 0.2 0.2 0.2 0.2 0.2 0.2 0.2 0.2 0.2 0.2 0.2 0.2 0.2 0.2 0.2 0.2 0.2 0.2 0.2 0.2 0.2 0.2 0.2 0.2 0.2 0.2 0.2 0.2 0.2 1.837883690750987e-10 0.9999999992648468 1.837883690750987e-10 1.837883690750987e-10 1.837883690750987e-10 6.265173466990365e-07 0.999997493930613 6.265173466990365e-07 6.265173466990365e-07 6.265173466990365e-07 0.2 0.2 0.2 0.2 0.2 0.2 0.2 0.2 0.2 0.2 0.9999999999310237 1.724403574661882e-11 1.724403574661882e-11 1.724403574661882e-11 1.724403574661882e-11 0.003262006535656396 0.9967379934603414 1.33410712795479e-12 1.33410712795479e-12 1.33410712795479e-12 0.2077436576591112 0.7922562995830541 1.425261157728237e-08 1.425261157728237e-08 1.425261157728237e-08 3.472222222222223e-06 0.9999861111111111 3.472222222222223e-06 3.472222222222223e-06 3.472222222222223e-06 0.2 0.2 0.2 0.2 0.2 0.9999999975477863 6.130534203347686e-10 6.130534203347686e-10 6.130534203347686e-10 6.130534203347686e-10 0.2 0.2 0.2 0.2 0.2 0.9999989082015897 2.729496025853786e-07 2.729496025853786e-07 2.729496025853786e-07 2.729496025853786e-07 0.2 0.2 0.2 0.2 0.2 0.2 0.2 0.2 0.2 0.2 0.2 0.2 0.2 0.2 0.2 0.2 0.2 0.2 0.2 0.2 0.2 0.2 0.2 0.2 0.2 0.2 0.2 0.2 0.2 0.2 0.2 0.2 0.2 0.2 0.2 0.2 0.2 0.2 0.2 0.2 2.052989835614476e-10 0.9999999991788042 2.052989835614476e-10 2.052989835614476e-10 2.052989835614476e-10 0.2 0.2 0.2 0.2 0.2 0.2 0.2 0.2 0.2 0.2 0.2 0.2 0.2 0.2 0.2 0.2 0.2 0.2 0.2 0.2 5.199390867130756e-11 0.9999999997920245 5.199390867130756e-11 5.199390867130756e-11 5.199390867130756e-11 2.723274465216977e-06 0.7074004983592271 0.2925913318173772 2.723274465216977e-06 2.723274465216977e-06 0.0001314924391847468 0.0001314924391847468 0.9994740302432609 0.0001314924391847468 0.0001314924391847468 0.2 0.2 0.2 0.2 0.2 0.9999999995554423 1.111394367871562e-10 1.111394367871562e-10 1.111394367871562e-10 1.111394367871562e-10 8.523573818581528e-13 0.9999999999965907 8.523573818581528e-13 8.523573818581528e-13 8.523573818581528e-13 0.003208036499562982 0.1250810110961617 0.8717109519842844 2.099955088155532e-10 2.099955088155532e-10 0.1167883245873788 0.4464720093362141 0.4367396496388316 8.218787746066912e-09 8.218787746066912e-09 0.2 0.2 0.2 0.2 0.2 0.9999999215320785 1.961698041901675e-08 1.961698041901675e-08 1.961698041901675e-08 1.961698041901675e-08 5.722411129345732e-10 0.9999999977110355 5.722411129345732e-10 5.722411129345732e-10 5.722411129345732e-10 0.2824858346253204 0.7175138665533802 9.960709979485916e-08 9.960709979485916e-08 9.960709979485916e-08 9.94666597703116e-08 0.9999996021333611 9.94666597703116e-08 9.94666597703116e-08 9.94666597703116e-08 0.2 0.2 0.2 0.2 0.2 0.2 0.2 0.2 0.2 0.2 1.396624118327174e-12 0.9999999999944134 1.396624118327174e-12 1.396624118327174e-12 1.396624118327174e-12 2.211408434975194e-07 0.7505257070702046 0.2494736295072651 2.211408434975194e-07 2.211408434975194e-07 4.882125951038135e-08 0.1453287330687872 4.882125951038135e-08 0.8546711204674342 4.882125951038135e-08 0.2 0.2 0.2 0.2 0.2 0.9999999999574022 1.064949361643743e-11 1.064949361643743e-11 1.064949361643743e-11 1.064949361643743e-11 1.803302136442485e-12 0.9999999999927871 1.803302136442485e-12 1.803302136442485e-12 1.803302136442485e-12 0.007629326522237263 0.03288319433362308 0.9594874788614919 1.413238636301286e-10 1.413238636301286e-10 4.325259515570935e-05 4.325259515570935e-05 0.9998269896193773 4.325259515570935e-05 4.325259515570935e-05 0.2 0.2 0.2 0.2 0.2 0.9999999993020591 1.744852434060771e-10 1.744852434060771e-10 1.744852434060771e-10 1.744852434060771e-10 1.033687364944132e-12 0.9999999999958654 1.033687364944132e-12 1.033687364944132e-12 1.033687364944132e-12 2.684587552483313e-11 0.09299981464037053 0.9070001852790919 2.684587552483313e-11 2.684587552483313e-11 9.764258747537241e-11 0.02346598324901182 0.04620279743240066 0.9303312191233023 9.764258747537241e-11 9.008603216071346e-08 9.008603216071346e-08 0.9999996396558712 9.008603216071346e-08 9.008603216071346e-08 0.9999999994223958 1.444011359124748e-10 1.444011359124748e-10 1.444011359124748e-10 1.444011359124748e-10 9.155851877470478e-12 0.9747760426179183 0.02522395735461401 9.155851877470478e-12 9.155851877470478e-12 3.547450755637322e-14 0.001586496042218215 0.9984135039576753 3.547450755637322e-14 3.547450755637322e-14 1.066069272092524e-11 0.01680684540430954 0.03477454588813657 0.9484186086862325 1.066069272092524e-11 8.78272178656019e-09 8.78272178656019e-09 0.9999999648691128 8.78272178656019e-09 8.78272178656019e-09 0.2 0.2 0.2 0.2 0.2 5.478405542750951e-11 0.9999999997808636 5.478405542750951e-11 5.478405542750951e-11 5.478405542750951e-11 3.406348048934319e-11 0.01157600754931886 0.9884239923484905 3.406348048934319e-11 3.406348048934319e-11 1.40636695330004e-11 0.004586963645073354 0.005115261101661306 0.990297775225138 1.40636695330004e-11 1.020495165684789e-08 1.020495165684789e-08 0.8398101797352213 0.1601897896499237 1.020495165684789e-08 0.2 0.2 0.2 0.2 0.2 0.2 0.2 0.2 0.2 0.2 3.847337642351493e-08 3.847337642351493e-08 0.9999998461064942 3.847337642351493e-08 3.847337642351493e-08 0.2 0.2 0.2 0.2 0.2 0.2 0.2 0.2 0.2 0.2 0.2 0.2 0.2 0.2 0.2 0.2 0.2 0.2 0.2 0.2 1.366704531443494e-09 1.366704531443494e-09 0.999999994533182 1.366704531443494e-09 1.366704531443494e-09 3.847337642351494e-06 3.847337642351494e-06 3.847337642351494e-06 0.9999846106494307 3.847337642351494e-06 9.166641802150779e-09 9.166641802150779e-09 0.179657388512667 9.166641802150779e-09 0.8203425839874077 0.2 0.2 0.2 0.2 0.2 0.2 0.2 0.2 0.2 0.2 0.2 0.2 0.2 0.2 0.2 1.525257489965655e-09 1.525257489965655e-09 1.525257489965655e-09 0.9999999938989701 1.525257489965655e-09 2.494013588009531e-09 2.494013588009531e-09 2.494013588009531e-09 2.494013588009531e-09 0.9999999900239457 0.2 0.2 0.2 0.2 0.2 0.2 0.2 0.2 0.2 0.2 0.2 0.2 0.2 0.2 0.2 7.664083067477023e-11 7.664083067477023e-11 7.664083067477023e-11 0.9999999996934367 7.664083067477023e-11 4.048404771405525e-12 4.048404771405525e-12 0.0002609497712129424 4.048404771405525e-12 0.9997390502166419 0.2 0.2 0.2 0.2 0.2 0.2 0.2 0.2 0.2 0.2 0.2 0.2 0.2 0.2 0.2 7.38014340828986e-10 7.38014340828986e-10 7.38014340828986e-10 0.8493408638939044 0.1506591338920525 4.051845810689564e-14 4.051845810689564e-14 4.051845810689564e-14 4.051845810689564e-14 0.999999999999838</probabilities>
		</cpt>
		<cpt id="p2_wti" order="1">
			<parents>p1_imas p2_wti</parents>
			<probabilities>0.2 0.2 0.2 0.2 0.2 0.2 0.2 0.2 0.2 0.2 0.2 0.2 0.2 0.2 0.2 0.2 0.2 0.2 0.2 0.2 0.2 0.2 0.2 0.2 0.2 0.2 0.2 0.2 0.2 0.2 0.2 0.2 0.2 0.2 0.2 0.2 0.2 0.2 0.2 0.2 0.2 0.2 0.2 0.2 0.2 0.2 0.2 0.2 0.2 0.2 0.2 0.2 0.2 0.2 0.2 0.2 0.2 0.2 0.2 0.2 0.2 0.2 0.2 0.2 0.2 0.2 0.2 0.2 0.2 0.2 0.2 0.2 0.2 0.2 0.2 0.9999999999945441 1.363941515940625e-12 1.363941515940625e-12 1.363941515940625e-12 1.363941515940625e-12 0.9999998916295917 2.709260210761481e-08 2.709260210761481e-08 2.709260210761481e-08 2.709260210761481e-08 0.9999998163270979 4.591822560955873e-08 4.591822560955873e-08 4.591822560955873e-08 4.591822560955873e-08 0.2 0.2 0.2 0.2 0.2 0.9999961526623578 9.618344105878734e-07 9.618344105878734e-07 9.618344105878734e-07 9.618344105878734e-07 0.9999999371594042 1.571014900762132e-08 1.571014900762132e-08 1.571014900762132e-08 1.571014900762132e-08 0.2 0.2 0.2 0.2 0.2 0.2 0.2 0.2 0.2 0.2 0.2 0.2 0.2 0.2 0.2 0.2 0.2 0.2 0.2 0.2 0.2 0.2 0.2 0.2 0.2 0.2 0.2 0.2 0.2 0.2 0.2 0.2 0.2 0.2 0.2 0.2 0.2 0.2 0.2 0.2 0.2 0.2 0.2 0.2 0.2 0.2 0.2 0.2 0.2 0.2 0.2 0.2 0.2 0.2 0.2 0.2 0.2 0.2 0.2 0.2 0.2 0.2 0.2 0.2 0.2 0.2 0.2 0.2 0.2 0.2 0.2 0.2 0.2 0.2 0.2 2.052989835614476e-10 0.9999999991788042 2.052989835614476e-10 2.052989835614476e-10 2.052989835614476e-10 5.745475438092501e-07 0.9999977018098249 5.745475438092501e-07 5.745475438092501e-07 5.745475438092501e-07 0.2 0.2 0.2 0.2 0.2 0.2 0.2 0.2 0.2 0.2 0.9999999999391894 1.520261528304241e-11 1.520261528304241e-11 1.520261528304241e-11 1.520261528304241e-11 0.002986251690270722 0.9970137483059444 1.26158617656744e-12 1.26158617656744e-12 1.26158617656744e-12 0.2003158725761773 0.7996840858725762 1.385041551246538e-08 1.385041551246538e-08 1.385041551246538e-08 0.2 0.2 0.2 0.2 0.2 6.682481873767922e-06 0.999973270072505 6.682481873767922e-06 6.682481873767922e-06 6.682481873767922e-06 0.9999999970302904 7.424275112988282e-10 7.424275112988282e-10 7.424275112988282e-10 7.424275112988282e-10 1.905197378448408e-06 0.9999923792104866 1.905197378448408e-06 1.905197378448408e-06 1.905197378448408e-06 0.9999988769344802 2.807663799106039e-07 2.807663799106039e-07 2.807663799106039e-07 2.807663799106039e-07 0.2 0.2 0.2 0.2 0.2 0.0002222222222222222 0.9991111111111109 0.0002222222222222222 0.0002222222222222222 0.0002222222222222222 0.2 0.2 0.2 0.2 0.2 0.2 0.2 0.2 0.2 0.2 0.2 0.2 0.2 0.2 0.2 0.2 0.2 0.2 0.2 0.2 0.2 0.2 0.2 0.2 0.2 0.2 0.2 0.2 0.2 0.2 1.837883690750987e-10 0.9999999992648468 1.837883690750987e-10 1.837883690750987e-10 1.837883690750987e-10 0.2 0.2 0.2 0.2 0.2 0.2 0.2 0.2 0.2 0.2 0.2 0.2 0.2 0.2 0.2 0.9994999999999997 0.0001249999999999999 0.0001249999999999999 0.0001249999999999999 0.0001249999999999999 5.199390867130756e-11 0.9999999997920245 5.199390867130756e-11 5.199390867130756e-11 5.199390867130756e-11 3.004627125773692e-06 0.9999879814914967 3.004627125773692e-06 3.004627125773692e-06 3.004627125773692e-06 0.2 0.2 0.2 0.2 0.2 7.999999999999999e-05 0.9996800000000001 7.999999999999999e-05 7.999999999999999e-05 7.999999999999999e-05 0.9999999996999909 7.500225978996164e-11 7.500225978996164e-11 7.500225978996164e-11 7.500225978996164e-11 7.724236435343001e-13 0.9999999999969105 7.724236435343001e-13 7.724236435343001e-13 7.724236435343001e-13 0.004412560297426242 0.1030546304198963 0.8925328089585221 1.620776560988059e-10 1.620776560988059e-10 0.2 0.2 0.2 0.2 0.2 0.1031626540329558 0.4998117363668637 0.3970255954298377 7.085171448218612e-09 7.085171448218612e-09 0.9999998926592332 2.683519167035651e-08 2.683519167035651e-08 2.683519167035651e-08 2.683519167035651e-08 4.586985939725294e-10 0.9999999981652057 4.586985939725294e-10 4.586985939725294e-10 4.586985939725294e-10 0.2600582886422048 0.7399415075988504 6.791964833922876e-08 6.791964833922876e-08 6.791964833922876e-08 0.2 0.2 0.2 0.2 0.2 1.566293366747591e-07 0.9999993734826531 1.566293366747591e-07 1.566293366747591e-07 1.566293366747591e-07 0.2 0.2 0.2 0.2 0.2 1.472662258275975e-12 0.9999999999941092 1.472662258275975e-12 1.472662258275975e-12 1.472662258275975e-12 4.882812500000001e-07 0.7167436523437501 0.2832548828125001 4.882812500000001e-07 4.882812500000001e-07 0.2 0.2 0.2 0.2 0.2 8.218277449046679e-08 0.134060322156476 8.218277449046679e-08 8.218277449046679e-08 0.8659394312952005 0.9999999999461078 1.347300506306018e-11 1.347300506306018e-11 1.347300506306018e-11 1.347300506306018e-11 1.878732988269729e-12 0.999999999992485 1.878732988269729e-12 1.878732988269729e-12 1.878732988269729e-12 0.006779417512180945 0.03025584524880504 0.9629647370094779 1.147680664339544e-10 1.147680664339544e-10 0.2 0.2 0.2 0.2 0.2 0.2 0.2 0.2 0.2 0.2 0.9999999990733882 2.316528914834573e-10 2.316528914834573e-10 2.316528914834573e-10 2.316528914834573e-10 1.210308477835868e-12 0.999999999995159 1.210308477835868e-12 1.210308477835868e-12 1.210308477835868e-12 2.647527785382159e-11 0.0931725613966575 0.9068274385239168 2.647527785382159e-11 2.647527785382159e-11 1.205586204235948e-07 1.205586204235948e-07 0.9999995177655182 1.205586204235948e-07 1.205586204235948e-07 1.020771841357096e-10 0.02512256295214272 0.04563631031532573 1.020771841357096e-10 0.9292411265283771 0.9999999995493869 1.126533209938519e-10 1.126533209938519e-10 1.126533209938519e-10 1.126533209938519e-10 9.414967566641142e-12 0.974352992800499 0.02564700717125619 9.414967566641142e-12 9.414967566641142e-12 1.137806969121484e-05 0.001398238337724577 0.9985903835925132 3.551724553584416e-14 3.551724553584416e-14 8.562417605460836e-09 8.562417605460836e-09 0.9999999657503295 8.562417605460836e-09 8.562417605460836e-09 1.093340531158497e-11 0.01723487790187952 0.03508343870357147 1.093340531158497e-11 0.9476816833726822 0.2 0.2 0.2 0.2 0.2 4.209578775942322e-11 0.9999999998316168 4.209578775942322e-11 4.209578775942322e-11 4.209578775942322e-11 3.036682813329175e-11 0.01397343325396418 0.9860265666549352 3.036682813329175e-11 3.036682813329175e-11 1.002749740337955e-08 1.002749740337955e-08 0.8351623421747115 1.002749740337955e-08 0.1648376277427963 1.262406821891341e-11 0.004401471406754629 0.005283354664423388 1.262406821891341e-11 0.9903151739035739 0.2 0.2 0.2 0.2 0.2 0.2 0.2 0.2 0.2 0.2 1.431512163558854e-07 1.431512163558854e-07 0.9999994273951347 1.431512163558854e-07 1.431512163558854e-07 0.2 0.2 0.2 0.2 0.2 0.2 0.2 0.2 0.2 0.2 0.2 0.2 0.2 0.2 0.2 0.2 0.2 0.2 0.2 0.2 1.478413379475502e-09 1.478413379475502e-09 0.9999999940863465 1.478413379475502e-09 1.478413379475502e-09 4.664581163525662e-09 4.664581163525662e-09 0.1147090290245167 0.8852909569817398 4.664581163525662e-09 0.2 0.2 0.2 0.2 0.2 0.2 0.2 0.2 0.2 0.2 0.2 0.2 0.2 0.2 0.2 0.2 0.2 0.2 0.2 0.2 3.307634337584041e-09 3.307634337584041e-09 3.307634337584041e-09 0.9999999867694627 3.307634337584041e-09 1.662551519146475e-09 1.662551519146475e-09 1.662551519146475e-09 1.662551519146475e-09 0.9999999933497939 0.2 0.2 0.2 0.2 0.2 0.2 0.2 0.2 0.2 0.2 3.748055696107645e-06 3.748055696107645e-06 0.9999850077772157 3.748055696107645e-06 3.748055696107645e-06 4.812730251043736e-12 4.812730251043736e-12 0.0008486507482201709 0.9991513492373416 4.812730251043736e-12 8.136769050215828e-11 8.136769050215828e-11 8.136769050215828e-11 8.136769050215828e-11 0.9999999996745292 0.2 0.2 0.2 0.2 0.2 0.2 0.2 0.2 0.2 0.2 0.2 0.2 0.2 0.2 0.2 4.058024424677357e-14 4.058024424677357e-14 4.058024424677357e-14 0.9999999999998379 4.058024424677357e-14 6.049879001814976e-10 6.049879001814976e-10 6.049879001814976e-10 0.1432814478367151 0.8567185503483212</probabilities>
		</cpt>
	</dynamic>
	<extensions>
		<genie version="1.0" app="SMILE_ACADEMIC 1.5.0@a121f1f76773" name="emidas dbn v9" faultnameformat="user">
			<plate leftwidth="120" rightwidth="120">120 50 1164 561</plate>
			<node id="p1_imas">
				<name>p1_imas</name>
				<interior color="e5f6f7" />
				<outline color="000080" />
				<font color="000000" name="MS Sans Serif" size="8" />
				<position>491 462 547 497</position>
			</node>
			<node id="p2_imas">
				<name>p2_imas</name>
				<interior color="e5f6f7" />
				<outline color="000080" />
				<font color="000000" name="MS Sans Serif" size="8" />
				<position>651 472 707 507</position>
			</node>
			<node id="p1_wti">
				<name>p1_wti</name>
				<interior color="e5f6f7" />
				<outline color="000080" />
				<font color="000000" name="MS Sans Serif" size="8" />
				<position>487 311 571 363</position>
			</node>
			<node id="p2_wti">
				<name>p2_wti</name>
				<interior color="e5f6f7" />
				<outline color="000080" />
				<font color="000000" name="MS Sans Serif" size="8" />
				<position>650 301 734 353</position>
			</node>
			<node id="p1_approach">
				<name>p1_approach</name>
				<interior color="e5f6f7" />
				<outline color="000080" />
				<font color="000000" name="MS Sans Serif" size="8" />
				<position>268 135 344 182</position>
			</node>
			<node id="p2_head">
				<name>p2_head</name>
				<interior color="e5f6f7" />
				<outline color="000080" />
				<font color="000000" name="MS Sans Serif" size="8" />
				<position>676 84 733 119</position>
			</node>
			<node id="p1_body">
				<name>p1_body</name>
				<interior color="e5f6f7" />
				<outline color="000080" />
				<font color="000000" name="MS Sans Serif" size="8" />
				<position>404 76 461 111</position>
			</node>
			<node id="p2_approach">
				<name>p2_approach</name>
				<interior color="e5f6f7" />
				<outline color="000080" />
				<font color="000000" name="MS Sans Serif" size="8" />
				<position>924 160 1000 207</position>
			</node>
			<node id="p2_body">
				<name>p2_body</name>
				<interior color="e5f6f7" />
				<outline color="000080" />
				<font color="000000" name="MS Sans Serif" size="8" />
				<position>827 91 884 126</position>
			</node>
			<node id="dist">
				<name>dist</name>
				<interior color="e5f6f7" />
				<outline color="000080" />
				<font color="000000" name="MS Sans Serif" size="8" />
				<position>599 137 637 160</position>
			</node>
			<node id="p1_gesture">
				<name>p1_gesture</name>
				<interior color="e5f6f7" />
				<outline color="000080" />
				<font color="000000" name="MS Sans Serif" size="8" />
				<position>248 271 316 313</position>
			</node>
			<node id="p2_gesture">
				<name>p2_gesture</name>
				<interior color="e5f6f7" />
				<outline color="000080" />
				<font color="000000" name="MS Sans Serif" size="8" />
				<position>964 312 1032 354</position>
			</node>
			<node id="p1_head">
				<name>p1_head</name>
				<interior color="e5f6f7" />
				<outline color="000080" />
				<font color="000000" name="MS Sans Serif" size="8" />
				<position>528 80 585 115</position>
			</node>
		</genie>
	</extensions>
</smile>
