<?xml version="1.0" encoding="ISO-8859-1"?>
<!-- This file was created by ACADEMIC version of SMILE -->
<smile version="1.0" id="Network2" numsamples="10000" discsamples="10000">
	<nodes>
		<cpt id="p1_imas" target="true" dynamic="plate">
			<state id="very_high" />
			<state id="high" />
			<state id="medium" />
			<state id="low" />
			<state id="very_low" />
			<probabilities>0.02904504546030722 0.0436280666981643 0.07852130123647426 0.5120651309648648 0.3367404556401895</probabilities>
		</cpt>
		<cpt id="p2_imas" target="true" dynamic="plate">
			<state id="very_high" />
			<state id="high" />
			<state id="medium" />
			<state id="low" />
			<state id="very_low" />
			<probabilities>0.03001878334620127 0.04536235725233063 0.08222035285034397 0.5074672443794005 0.3349312621717236</probabilities>
		</cpt>
		<cpt id="p1_wti" target="true" dynamic="plate">
			<state id="very_high" />
			<state id="high" />
			<state id="medium" />
			<state id="low" />
			<state id="very_low" />
			<parents>p1_imas</parents>
			<probabilities>0.9999999999999986 3.094700537158873e-16 3.094700537158873e-16 3.094700537158873e-16 3.094700537158873e-16 0.2435287902799788 0.7564712097200208 6.080764279902833e-17 6.080764279902833e-17 6.080764279902833e-17 0.122688582330496 0.8375403580862929 0.03977105958321104 5.796609303430406e-18 5.796609303430406e-18 0.04057475273705175 0.2501997232005221 0.5410304591945811 0.1681950648678451 3.205760601263379e-21 1.714117322350957e-20 1.714117322350957e-20 0.004500034220792553 0.1011566627883102 0.8943433029908973</probabilities>
		</cpt>
		<cpt id="p2_wti" target="true" dynamic="plate">
			<state id="very_high" />
			<state id="high" />
			<state id="medium" />
			<state id="very_low" />
			<state id="low" />
			<parents>p2_imas</parents>
			<probabilities>0.9999999999999986 2.712349831930433e-16 2.712349831930433e-16 2.712349831930433e-16 2.712349831930433e-16 0.2484440492823575 0.7515559507176426 5.202934443350678e-17 5.202934443350678e-17 5.202934443350678e-17 0.1320252277505256 0.8239663629992993 0.04400840925017519 4.821835289552975e-18 4.821835289552975e-18 0.03796764121487368 0.2445529378370707 0.5475787680953733 3.323530468401205e-21 0.1699006528526824 1.751454339544775e-20 1.751454339544775e-20 0.004128677103044899 0.8930156545673491 0.102855668329606</probabilities>
		</cpt>
		<cpt id="p1_approach" dynamic="plate">
			<state id="y" />
			<state id="m" />
			<state id="n" />
			<parents>p1_wti</parents>
			<probabilities>0.5789404483658452 0.2100154528903402 0.2110440987438146 0.407598144480958 0.2135736814795957 0.3788281740394463 0.07284691339413582 0.1256888017888998 0.8014642848169644 0.1578338736987165 0.1243730604265593 0.7177930658747242 0.0001921989643679137 0.00525183670135324 0.9945559643342788</probabilities>
		</cpt>
		<cpt id="p2_head" dynamic="plate">
			<state id="central" />
			<state id="mid_peripheral" />
			<state id="outside" />
			<parents>p2_wti</parents>
			<probabilities>1 1.797407217985956e-24 1.797407217985956e-24 0.9994536118401973 0.0005288413500320472 1.754680977064857e-05 0.9987586418681791 0.001139328696328891 0.0001020294354921395 0.01410926772254787 0.2230604196296398 0.7628303126478123 0.3135372500710195 0.4235710473985616 0.2628917025304189</probabilities>
		</cpt>
		<cpt id="p1_body" dynamic="plate">
			<state id="strongly_facing" />
			<state id="slightly_facing" />
			<state id="turned_away" />
			<parents>p1_wti</parents>
			<probabilities>0.4587543949474154 0.4860374860204709 0.05520811903211387 0.2775461401977951 0.4995671168133579 0.2228867429888471 0.01122182859727142 0.2072978065877742 0.7814803648149543 0.02857883014010331 0.8128768981780696 0.1585442716818272 0.001970039384771115 0.3785710967994068 0.619458863815822</probabilities>
		</cpt>
		<cpt id="p2_approach" dynamic="plate">
			<state id="y" />
			<state id="m" />
			<state id="n" />
			<parents>p2_wti</parents>
			<probabilities>0.5929061673310658 0.2157986809542967 0.1912951517146375 0.4088962325537189 0.2235200362634069 0.3675837311828743 0.07455650955300605 0.1262279167539835 0.7992155736930103 2.794891533585524e-26 0.004023455177783769 0.9959765448222163 0.1563199409542369 0.1312493860461906 0.7124306729995726</probabilities>
		</cpt>
		<cpt id="p2_body" dynamic="plate">
			<state id="strongly_facing" />
			<state id="slightly_facing" />
			<state id="turned_away" />
			<parents>p2_wti</parents>
			<probabilities>0.4425050896634117 0.4991542625169147 0.05834064781967352 0.276063958121614 0.5096290555673347 0.2143069863110513 0.01315629559127808 0.2084386345460665 0.7784050698626553 0.002070650732126781 0.4038452328486568 0.5940841164192163 0.03830806277329241 0.8008718807827812 0.1608200564439264</probabilities>
		</cpt>
		<cpt id="dist" dynamic="plate">
			<state id="range_0_3" />
			<state id="range_3_6" />
			<state id="range_6_9" />
			<state id="range_9_12" />
			<state id="range_12_15" />
			<state id="range_15_18" />
			<state id="range_18_21" />
			<state id="range_21_24" />
			<state id="range_24_27" />
			<state id="range_27_30" />
			<state id="range_30_inf" />
			<parents>p1_wti p2_wti</parents>
			<probabilities>0.1111111111111111 0.1111111111111111 0.1111111111111111 0.1111111111111111 0.1111111111111111 0.1111111111111111 0.1111111111111111 0.1111111111111111 0.1111111111111111 0 0 0.03665957497581544 0.1665715193045126 0.2526153286989531 0.2823582105442857 0.1957508595386301 0.05304817271173654 0.01211522682090941 0.0008811074051570482 1.261550840148193e-24 0 0 2.803104100912965e-20 2.803104100912965e-20 2.803104100912965e-20 0.006051233779331674 0.8186198704587732 0.1753288957618951 2.803104100912965e-20 2.803104100912965e-20 2.803104100912965e-20 0 0 2.893457774312279e-17 2.893457774312279e-17 2.893457774312279e-17 2.893457774312279e-17 0.7704230720365899 0.2295769279634099 2.893457774312279e-17 2.893457774312279e-17 2.893457774312279e-17 0 0 1.89271478166523e-20 1.89271478166523e-20 1.89271478166523e-20 0.02098655072934866 0.4080289301531835 0.5641989354353745 0.006785583682093373 1.89271478166523e-20 1.89271478166523e-20 0 0 0.03754760519365637 0.168995038727652 0.2535433127958047 0.2748929166372108 0.197977787566185 0.05355708907269341 0.01254366264073101 0.0009425873660664919 1.199575051308968e-24 0 0 0.01664116217452712 0.08694139557591855 0.1743859617075583 0.2786078615832602 0.20695504594545 0.196371857986338 0.03943246346824006 0.0006642515587077983 5.281124779989739e-26 0 0 0.005384086380495029 0.02596822448583738 0.04006912320505963 0.3969588140903186 0.1611522885306029 0.2001340143771564 0.1101445356813279 0.05901334853730359 0.001175564711898478 0 0 1.561021631153577e-20 1.561021631153577e-20 1.561021631153577e-20 0.8993436719521404 0.01510135331358541 0.008596154963117849 0.07695881977115641 1.561021631153577e-20 1.561021631153577e-20 0 0 2.649192696806818e-21 2.649192696806818e-21 0.002348584636031513 0.2467505032681363 0.02454208812784253 0.2051221512538211 0.05457663344682754 0.1410766210204538 0.215299351343291 0.0942416184109153 0.01604244849268086 3.044484399156294e-20 3.044484399156294e-20 3.044484399156294e-20 0.003660740842427986 0.7593978081314207 0.2369414510261514 3.044484399156294e-20 3.044484399156294e-20 3.044484399156294e-20 0 0 0.005022417130117353 0.02378298258078742 0.03732513413528677 0.3950621064752431 0.1650476517137467 0.2121236249601881 0.1151052257637749 0.04628586128328883 0.0002449959575667002 0 0 1.443647234631615e-26 1.443647234631615e-26 0.004891895591530321 0.1929080722281059 0.07763212560908543 0.08729944308758582 0.07128971212983576 0.07863836235569868 0.09606078726618204 0.391279601731976 0 6.592196479684305e-21 6.592196479684305e-21 6.592196479684305e-21 0.003168261202066393 0.2842851122937899 0.5001326611833378 0.1861002294258112 0.02631373589499477 6.592196479684305e-21 0 0 1.367367552495427e-20 1.367367552495427e-20 1.367367552495427e-20 0.2340513204719985 0.370275332459262 0.2117437722419929 0.08859336954485858 0.0503277767372167 0.006012361865517887 0.01086345757632515 0.02813260910282825 1.235492993645695e-20 1.235492993645695e-20 1.235492993645695e-20 0.03140921458702362 0.3544128120377641 0.6073665564909333 0.006811416884278957 1.235492993645695e-20 1.235492993645695e-20 0 0 2.479367029863454e-21 2.479367029863454e-21 2.479367029863454e-21 0.2616294702877118 0.03082451294336211 0.2026815615145812 0.04822899606443571 0.1508347796328437 0.2042704539343421 0.08878241951648783 0.01274780610623579 1.567809725771018e-20 1.567809725771018e-20 1.567809725771018e-20 0.2268243046806861 0.3810059114255258 0.2035468553154376 0.07403818199437931 0.06543269696676035 0.01062118422327745 0.0109312917918403 0.02759957360209323 1.677199443995481e-21 1.677199443995481e-21 1.677199443995481e-21 0.2315306427835109 0.05017901282463395 0.2494762627886097 0.2601505259540886 0.1390868683285856 0.06954343416429278 3.325315627875013e-05 0 1.30558209818536e-21 1.30558209818536e-21 1.30558209818536e-21 0.2539798223786271 0.08343831665746979 0.5202348850042167 0.09062229949920353 0.05172467646048289 1.30558209818536e-21 0 0 8.067108756376864e-17 8.067108756376864e-17 8.067108756376864e-17 8.067108756376864e-17 0.709735675586931 0.2902643244130683 8.067108756376864e-17 8.067108756376864e-17 8.067108756376864e-17 0 0 1.020846051611975e-20 1.020846051611975e-20 0.0006964152027438759 0.894997997806292 0.008304751292720718 0.004770444138795549 0.09123039155944773 1.020846051611975e-20 1.020846051611975e-20 0 0 5.362803620358272e-21 5.362803620358272e-21 5.362803620358272e-21 0.004061304953606261 0.2593306257966976 0.5083745886817064 0.2199774701331041 0.008256010434885721 5.362803620358272e-21 0 0 1.51906939109077e-26 1.51906939109077e-26 1.51906939109077e-26 0.2778866565199651 0.3291398633418078 0.1365250243076943 0.06358369903821186 0.05066459273438605 0.09763818597408028 0.04456197808385438 0 1.228269462970162e-21 1.228269462970162e-21 1.228269462970162e-21 0.2203457610434355 0.05834461260817851 0.2535580985193389 0.2526865181903942 0.1417189614864034 0.07251548336819656 0.0008305647840531563 0</probabilities>
		</cpt>
		<cpt id="p1_gesture" dynamic="plate">
			<state id="wave_slow_shoulder" />
			<state id="wave_fast_shoulder" />
			<state id="wave_small_head" />
			<state id="wave_wide_head" />
			<state id="arm_raise_high" />
			<state id="arm_raise_low" />
			<state id="come_here" />
			<state id="i_am_coming" />
			<state id="None" />
			<parents>p1_wti</parents>
			<probabilities>0.02116071470004532 6.361092880832189e-25 0.02671540230880722 0.09023621730569034 0.02195578833716691 6.361092880832189e-25 0.01194466658726243 0.009885828044443688 0.8181013827165841 6.19054239094549e-27 0.02335382929147079 0.06431206067943712 0.003364440030860539 0.1439640245407357 0.0760509198889176 0.03281993031115119 6.190542335230609e-27 0.656134795257427 7.084360687716059e-27 7.084360623956812e-27 7.084360623956812e-27 7.084360623956812e-27 0.01669304791336901 0.02081455239818095 7.084360623956812e-27 7.084360623956812e-27 0.96249239968845 5.652403846376656e-24 5.652403795505022e-24 0.01239190466779547 5.652403795505022e-24 5.652403795505022e-24 5.652403795505022e-24 5.652403795505022e-24 5.652403795505022e-24 0.9876080953322045 9.027151527187562e-27 9.027151445943199e-27 9.027151445943199e-27 9.027151445943199e-27 9.027151445943199e-27 9.027151445943199e-27 9.027151445943199e-27 9.027151445943199e-27 1</probabilities>
		</cpt>
		<cpt id="p2_gesture" dynamic="plate">
			<state id="wave_slow_shoulder" />
			<state id="wave_fast_shoulder" />
			<state id="wave_small_head" />
			<state id="wave_wide_head" />
			<state id="arm_raise_high" />
			<state id="arm_raise_low" />
			<state id="come_here" />
			<state id="i_am_coming" />
			<state id="None" />
			<parents>p2_wti</parents>
			<probabilities>0.01859098611466676 5.991357393286521e-25 0.03781741823013812 0.09259073010764486 0.02057961208840776 5.991357393286521e-25 0.01424496214753319 0.01048257323629448 0.8056937180753148 6.271036261325764e-27 0.02383685366204357 0.06765464953903069 0.002943477339026298 0.1374431861107253 0.07769386178475426 0.03312593979007192 6.271036261325764e-27 0.657302031774348 6.952450207763878e-27 6.952450207763878e-27 6.952450207763878e-27 6.952450207763878e-27 0.01836429810000185 0.02188881492310532 6.952450207763878e-27 6.952450207763878e-27 0.9597468869768928 9.316305111951747e-27 9.316305111951747e-27 9.316305111951747e-27 9.316305111951747e-27 9.316305111951747e-27 9.316305111951747e-27 9.316305111951747e-27 9.316305111951747e-27 1 5.520376601638408e-24 5.520376601638408e-24 0.01402602367671383 5.520376601638408e-24 5.520376601638408e-24 5.520376601638408e-24 5.520376601638408e-24 5.520376601638408e-24 0.9859739763232862</probabilities>
		</cpt>
		<cpt id="p1_head" dynamic="plate">
			<state id="central" />
			<state id="mid_peripheral" />
			<state id="outside" />
			<parents>p1_wti</parents>
			<probabilities>1 1.908327883332935e-24 1.908327883332935e-24 0.999460717915631 0.0004785521199130153 6.072996445596641e-05 0.9987924926509384 0.001058264867716892 0.0001492424813446898 0.3043921824173829 0.4249301620027882 0.270677655579829 0.01464182388275009 0.2055962999563815 0.7797618761608685</probabilities>
		</cpt>
	</nodes>
	<dynamic numslices="40">
		<cpt id="p1_imas" order="1">
			<parents>p1_imas</parents>
			<probabilities>1 2.230670004548557e-23 2.230670004548557e-23 2.230670004548557e-23 2.230670004548557e-23 0.001404061427687461 0.9985959385723125 5.126632217973594e-24 5.126632217973594e-24 5.126632217973594e-24 0.005964830075877153 0.008788205779797217 0.9827519277106374 0.002495036433688293 1.710461977174753e-24 0.0004889120112233228 0.000910584375215466 0.003204709966340289 0.9948422062126014 0.000553587434619415 1.465514943559818e-26 1.465514943559818e-26 1.465514943559818e-26 0.008442124672481358 0.9915578753275187</probabilities>
		</cpt>
		<cpt id="p2_imas" order="1">
			<parents>p2_imas</parents>
			<probabilities>1 1.991742934455654e-23 1.991742934455654e-23 1.991742934455654e-23 1.991742934455654e-23 0.00136424454958067 0.9986357554504193 4.569374444377714e-24 4.569374444377714e-24 4.569374444377714e-24 0.005927789049310362 0.008518331114506218 0.9831762141733108 0.002377665662872554 1.43801636802049e-24 0.000493402892790107 0.000907734809171543 0.003325293971513746 0.9947143208751977 0.0005592474513267822 1.514669426739286e-26 1.514669426739286e-26 1.514669426739286e-26 0.008550335450764095 0.9914496645492359</probabilities>
		</cpt>
		<cpt id="p1_wti" order="1">
			<parents>p2_imas p1_wti</parents>
			<probabilities>0.2 0.2 0.2 0.2 0.2 0.2 0.2 0.2 0.2 0.2 0.2 0.2 0.2 0.2 0.2 0.2 0.2 0.2 0.2 0.2 0.2 0.2 0.2 0.2 0.2 0.2 0.2 0.2 0.2 0.2 0.2 0.2 0.2 0.2 0.2 0.2 0.2 0.2 0.2 0.2 0.2 0.2 0.2 0.2 0.2 0.2 0.2 0.2 0.2 0.2 0.2 0.2 0.2 0.2 0.2 0.2 0.2 0.2 0.2 0.2 0.2 0.2 0.2 0.2 0.2 0.2 0.2 0.2 0.2 0.2 0.2 0.2 0.2 0.2 0.2 1 2.222771466931581e-23 2.222771466931581e-23 2.222771466931581e-23 2.222771466931581e-23 0.9999999999999661 8.506692557065955e-15 8.506692557065955e-15 8.506692557065955e-15 8.506692557065955e-15 0.9999999999997948 5.13244966325413e-14 5.13244966325413e-14 5.13244966325413e-14 5.13244966325413e-14 0.9999999999166483 2.083783742972316e-11 2.083783742972316e-11 2.083783742972316e-11 2.083783742972316e-11 0.2 0.2 0.2 0.2 0.2 0.9999999999998778 3.051757812500001e-14 3.051757812500001e-14 3.051757812500001e-14 3.051757812500001e-14 0.9999996875000001 7.812499999999999e-08 7.812499999999999e-08 7.812499999999999e-08 7.812499999999999e-08 0.2 0.2 0.2 0.2 0.2 0.2 0.2 0.2 0.2 0.2 0.2 0.2 0.2 0.2 0.2 0.2 0.2 0.2 0.2 0.2 0.2 0.2 0.2 0.2 0.2 0.2 0.2 0.2 0.2 0.2 0.2 0.2 0.2 0.2 0.2 0.2 0.2 0.2 0.2 0.2 0.2 0.2 0.2 0.2 0.2 0.2 0.2 0.2 0.2 0.2 0.2 0.2 0.2 0.2 0.2 0.2 0.2 0.2 0.2 0.2 0.2 0.2 0.2 0.2 0.2 0.2 0.2 0.2 0.2 0.2 4.555419088404353e-19 1 4.555419088404353e-19 4.555419088404353e-19 4.555419088404353e-19 8.557028256262391e-12 0.9999999999657718 8.557028256262391e-12 8.557028256262391e-12 8.557028256262391e-12 0.2 0.2 0.2 0.2 0.2 0.2 0.2 0.2 0.2 0.2 1 3.042767417153147e-21 3.042767417153147e-21 3.042767417153147e-21 3.042767417153147e-21 0.003029612115949815 0.9969703878840501 1.903205782753629e-23 1.903205782753629e-23 1.903205782753629e-23 0.2273228057289749 0.7726771942710141 3.632466206779653e-15 3.632466206779653e-15 3.632466206779653e-15 6.028163580246915e-11 0.9999999997588735 6.028163580246915e-11 6.028163580246915e-11 6.028163580246915e-11 0.2 0.2 0.2 0.2 0.2 1 9.004340576593809e-18 9.004340576593809e-18 9.004340576593809e-18 9.004340576593809e-18 0.2 0.2 0.2 0.2 0.2 0.999999999994757 1.310719999999999e-12 1.310719999999999e-12 1.310719999999999e-12 1.310719999999999e-12 0.2 0.2 0.2 0.2 0.2 0.2 0.2 0.2 0.2 0.2 0.2 0.2 0.2 0.2 0.2 0.2 0.2 0.2 0.2 0.2 0.2 0.2 0.2 0.2 0.2 0.2 0.2 0.2 0.2 0.2 0.2 0.2 0.2 0.2 0.2 0.2 0.2 0.2 0.2 0.2 5.522022496460166e-19 1 5.522022496460166e-19 5.522022496460166e-19 5.522022496460166e-19 0.2 0.2 0.2 0.2 0.2 0.2 0.2 0.2 0.2 0.2 0.2 0.2 0.2 0.2 0.2 0.2 0.2 0.2 0.2 0.2 2.290236051579062e-20 1 2.290236051579062e-20 2.290236051579062e-20 2.290236051579062e-20 3.763352846317842e-11 0.7100371746252171 0.2899628252618823 3.763352846317842e-11 3.763352846317842e-11 8.645130781377174e-08 8.645130781377174e-08 0.9999996541947689 8.645130781377174e-08 8.645130781377174e-08 0.2 0.2 0.2 0.2 0.2 1 8.861248628641154e-20 8.861248628641154e-20 8.861248628641154e-20 8.861248628641154e-20 6.559542310480444e-24 1 6.559542310480444e-24 6.559542310480444e-24 6.559542310480444e-24 0.004342867169678892 0.1470872082821548 0.8485699245481663 7.404900013784508e-19 7.404900013784508e-19 0.1331635016211211 0.4784622510421482 0.3883742473367294 5.747740859624363e-16 5.747740859624363e-16 0.2 0.2 0.2 0.2 0.2 0.999999999999992 1.931377925789242e-15 1.931377925789242e-15 1.931377925789242e-15 1.931377925789242e-15 2.327627537623921e-18 1 2.327627537623921e-18 2.327627537623921e-18 2.327627537623921e-18 0.3177124702144092 0.6822875297853527 7.93501615347108e-14 7.93501615347108e-14 7.93501615347108e-14 4.94680820293146e-14 0.9999999999998018 4.94680820293146e-14 4.94680820293146e-14 4.94680820293146e-14 0.2 0.2 0.2 0.2 0.2 0.2 0.2 0.2 0.2 0.2 2.092996404647848e-23 1 2.092996404647848e-23 2.092996404647848e-23 2.092996404647848e-23 8.188581871800403e-13 0.722222222220084 0.2777777777774593 8.188581871800403e-13 8.188581871800403e-13 2.522680032527869e-14 0.1395348837209379 2.522680032527869e-14 0.8604651162789865 2.522680032527869e-14 0.2 0.2 0.2 0.2 0.2 1 1.175845789509301e-21 1.175845789509301e-21 1.175845789509301e-21 1.175845789509301e-21 3.408131014234396e-23 1 3.408131014234396e-23 3.408131014234396e-23 3.408131014234396e-23 0.009522545539002622 0.03102292710441621 0.9594545273565812 2.423578012333194e-19 2.423578012333194e-19 5.99481280837317e-09 5.99481280837317e-09 0.9999999760207489 5.99481280837317e-09 5.99481280837317e-09 0.2 0.2 0.2 0.2 0.2 1 5.575465782912923e-19 5.575465782912923e-19 5.575465782912923e-19 5.575465782912923e-19 1.060456143226964e-23 1 1.060456143226964e-23 1.060456143226964e-23 1.060456143226964e-23 7.639713909151397e-21 0.09352849893050372 0.9064715010694963 7.639713909151397e-21 7.639713909151397e-21 5.414368542262314e-20 0.02283355003535665 0.04507402084901571 0.9320924291156276 5.414368542262314e-20 1.024613537208475e-13 1.024613537208475e-13 0.9999999999995901 1.024613537208475e-13 1.024613537208475e-13 1 1.438901928046474e-19 1.438901928046474e-19 1.438901928046474e-19 1.438901928046474e-19 7.659283144063556e-22 0.9724035935115404 0.02759640648845954 7.659283144063556e-22 7.659283144063556e-22 2.244166688358339e-26 0.002082416946405834 0.9979175830535941 2.244166688358339e-26 2.244166688358339e-26 7.034535462137691e-22 0.01770490793293852 0.03537901132836867 0.9469160807386928 7.034535462137691e-22 6.867666792285634e-16 6.867666792285634e-16 0.9999999999999973 6.867666792285634e-16 6.867666792285634e-16 0.2 0.2 0.2 0.2 0.2 3.425220335132042e-20 1 3.425220335132042e-20 3.425220335132042e-20 3.425220335132042e-20 7.154540442411084e-21 0.0121988117504676 0.9878011882495324 7.154540442411084e-21 7.154540442411084e-21 1.268044551585212e-21 0.004881095792620354 0.005443269531075714 0.9896756346763039 1.268044551585212e-21 5.211759387132376e-16 5.211759387132376e-16 0.8397740112994333 0.1602259887005651 5.211759387132376e-16 0.2 0.2 0.2 0.2 0.2 0.2 0.2 0.2 0.2 0.2 3.727102923640103e-14 3.727102923640103e-14 0.999999999999851 3.727102923640103e-14 3.727102923640103e-14 0.2 0.2 0.2 0.2 0.2 0.2 0.2 0.2 0.2 0.2 0.2 0.2 0.2 0.2 0.2 0.2 0.2 0.2 0.2 0.2 4.61640700917917e-17 4.61640700917917e-17 0.9999999999999999 4.61640700917917e-17 4.61640700917917e-17 5.120000000000001e-11 5.120000000000001e-11 5.120000000000001e-11 0.9999999997951999 5.120000000000001e-11 1.654138645503695e-15 1.654138645503695e-15 0.1764705882352943 1.654138645503695e-15 0.8235294117647007 0.2 0.2 0.2 0.2 0.2 0.2 0.2 0.2 0.2 0.2 0.2 0.2 0.2 0.2 0.2 1.178361440922111e-17 1.178361440922111e-17 1.178361440922111e-17 1 1.178361440922111e-17 8.968037020325251e-17 8.968037020325251e-17 8.968037020325251e-17 8.968037020325251e-17 0.9999999999999996 0.2 0.2 0.2 0.2 0.2 0.2 0.2 0.2 0.2 0.2 0.2 0.2 0.2 0.2 0.2 2.943356372150172e-20 2.943356372150172e-20 2.943356372150172e-20 1 2.943356372150172e-20 1.389452264876943e-22 1.389452264876943e-22 0.0002002258958825341 1.389452264876943e-22 0.9997997741041176 0.2 0.2 0.2 0.2 0.2 0.2 0.2 0.2 0.2 0.2 0.2 0.2 0.2 0.2 0.2 3.109655162123326e-18 3.109655162123326e-18 3.109655162123326e-18 0.8779829188646069 0.1220170811353931 2.943549492269936e-26 2.943549492269936e-26 2.943549492269936e-26 2.943549492269936e-26 1</probabilities>
		</cpt>
		<cpt id="p2_wti" order="1">
			<parents>p1_imas p2_wti</parents>
			<probabilities>0.2 0.2 0.2 0.2 0.2 0.2 0.2 0.2 0.2 0.2 0.2 0.2 0.2 0.2 0.2 0.2 0.2 0.2 0.2 0.2 0.2 0.2 0.2 0.2 0.2 0.2 0.2 0.2 0.2 0.2 0.2 0.2 0.2 0.2 0.2 0.2 0.2 0.2 0.2 0.2 0.2 0.2 0.2 0.2 0.2 0.2 0.2 0.2 0.2 0.2 0.2 0.2 0.2 0.2 0.2 0.2 0.2 0.2 0.2 0.2 0.2 0.2 0.2 0.2 0.2 0.2 0.2 0.2 0.2 0.2 0.2 0.2 0.2 0.2 0.2 1 2.001588656810373e-23 2.001588656810373e-23 2.001588656810373e-23 2.001588656810373e-23 0.9999999999999694 7.721001101617755e-15 7.721001101617755e-15 7.721001101617755e-15 7.721001101617755e-15 0.9999999999997948 5.13244966325413e-14 5.13244966325413e-14 5.13244966325413e-14 5.13244966325413e-14 0.2 0.2 0.2 0.2 0.2 0.9999999999166483 2.083783742972316e-11 2.083783742972316e-11 2.083783742972316e-11 2.083783742972316e-11 0.9999999999999748 6.233359392598721e-15 6.233359392598721e-15 6.233359392598721e-15 6.233359392598721e-15 0.2 0.2 0.2 0.2 0.2 0.2 0.2 0.2 0.2 0.2 0.2 0.2 0.2 0.2 0.2 0.2 0.2 0.2 0.2 0.2 0.2 0.2 0.2 0.2 0.2 0.2 0.2 0.2 0.2 0.2 0.2 0.2 0.2 0.2 0.2 0.2 0.2 0.2 0.2 0.2 0.2 0.2 0.2 0.2 0.2 0.2 0.2 0.2 0.2 0.2 0.2 0.2 0.2 0.2 0.2 0.2 0.2 0.2 0.2 0.2 0.2 0.2 0.2 0.2 0.2 0.2 0.2 0.2 0.2 0.2 0.2 0.2 0.2 0.2 0.2 5.522022496460166e-19 1 5.522022496460166e-19 5.522022496460166e-19 5.522022496460166e-19 8.557028256262391e-12 0.9999999999657718 8.557028256262391e-12 8.557028256262391e-12 8.557028256262391e-12 0.2 0.2 0.2 0.2 0.2 0.2 0.2 0.2 0.2 0.2 1 2.435826993170206e-21 2.435826993170206e-21 2.435826993170206e-21 2.435826993170206e-21 0.00285526359660157 0.9971447364033984 1.688130250072516e-23 1.688130250072516e-23 1.688130250072516e-23 0.2282887504580427 0.7717112495419464 3.600637559923857e-15 3.600637559923857e-15 3.600637559923857e-15 0.2 0.2 0.2 0.2 0.2 2.23277819966184e-10 0.9999999991068886 2.23277819966184e-10 2.23277819966184e-10 2.23277819966184e-10 1 1.273763457373149e-17 1.273763457373149e-17 1.273763457373149e-17 1.273763457373149e-17 1.231280867673822e-11 0.9999999999507491 1.231280867673822e-11 1.231280867673822e-11 1.231280867673822e-11 0.999999999994757 1.310719999999999e-12 1.310719999999999e-12 1.310719999999999e-12 1.310719999999999e-12 0.2 0.2 0.2 0.2 0.2 2.469135802469136e-07 0.9999990123456792 2.469135802469136e-07 2.469135802469136e-07 2.469135802469136e-07 0.2 0.2 0.2 0.2 0.2 0.2 0.2 0.2 0.2 0.2 0.2 0.2 0.2 0.2 0.2 0.2 0.2 0.2 0.2 0.2 0.2 0.2 0.2 0.2 0.2 0.2 0.2 0.2 0.2 0.2 4.555419088404353e-19 1 4.555419088404353e-19 4.555419088404353e-19 4.555419088404353e-19 0.2 0.2 0.2 0.2 0.2 0.2 0.2 0.2 0.2 0.2 0.2 0.2 0.2 0.2 0.2 0.9999996875000001 7.812499999999999e-08 7.812499999999999e-08 7.812499999999999e-08 7.812499999999999e-08 2.290236051579062e-20 1 2.290236051579062e-20 2.290236051579062e-20 2.290236051579062e-20 4.513892082467539e-11 0.9999999998194441 4.513892082467539e-11 4.513892082467539e-11 4.513892082467539e-11 0.2 0.2 0.2 0.2 0.2 3.200000000000001e-08 0.9999998720000002 3.200000000000001e-08 3.200000000000001e-08 3.200000000000001e-08 1 4.631312124505374e-20 4.631312124505374e-20 4.631312124505374e-20 4.631312124505374e-20 5.775558647894339e-24 1 5.775558647894339e-24 5.775558647894339e-24 5.775558647894339e-24 0.005653846153846154 0.1191153846153846 0.8752307692307693 4.375924200123925e-19 4.375924200123925e-19 0.2 0.2 0.2 0.2 0.2 0.1144767077501568 0.5299770210988086 0.3555462711510338 3.805514917718118e-16 3.805514917718118e-16 0.9999999999999843 3.923595072520278e-15 3.923595072520278e-15 3.923595072520278e-15 3.923595072520278e-15 1.712608916760529e-18 1 1.712608916760529e-18 1.712608916760529e-18 1.712608916760529e-18 0.2971887550200609 0.7028112449798192 4.003734082091196e-14 4.003734082091196e-14 4.003734082091196e-14 0.2 0.2 0.2 0.2 0.2 1.226637455358752e-13 0.9999999999995091 1.226637455358752e-13 1.226637455358752e-13 1.226637455358752e-13 0.2 0.2 0.2 0.2 0.2 2.316809659283813e-23 1 2.316809659283813e-23 2.316809659283813e-23 2.316809659283813e-23 2.334752963035047e-12 0.6499999999947468 0.3499999999982489 2.334752963035047e-12 2.334752963035047e-12 0.2 0.2 0.2 0.2 0.2 3.908756807693987e-14 0.1297405189620896 3.908756807693987e-14 3.908756807693987e-14 0.8702594810377933 1 1.735293747870562e-21 1.735293747870562e-21 1.735293747870562e-21 1.735293747870562e-21 3.772957718678771e-23 1 3.772957718678771e-23 3.772957718678771e-23 3.772957718678771e-23 0.00858590455386669 0.02721398015836898 0.9642001152877643 1.694243294582085e-19 1.694243294582085e-19 0.2 0.2 0.2 0.2 0.2 0.2 0.2 0.2 0.2 0.2 1 1.009020929127752e-18 1.009020929127752e-18 1.009020929127752e-18 1.009020929127752e-18 1.338153092392552e-23 1 1.338153092392552e-23 1.338153092392552e-23 1.338153092392552e-23 7.092302313796239e-21 0.09423501804558741 0.9057649819544127 7.092302313796239e-21 7.092302313796239e-21 1.486507766101179e-13 1.486507766101179e-13 0.9999999999994055 1.486507766101179e-13 1.486507766101179e-13 5.815845600854565e-20 0.02449955877571873 0.04419209511866611 5.815845600854565e-20 0.9313083461056151 1 9.296631493158155e-20 9.296631493158155e-20 9.296631493158155e-20 9.296631493158155e-20 8.137960102267703e-22 0.9719741865405811 0.02802581345941888 8.137960102267703e-22 8.137960102267703e-22 1.564045943559954e-05 0.001806183426674051 0.9981781761138904 2.25201851964252e-26 2.25201851964252e-26 6.495140563452737e-16 6.495140563452737e-16 0.9999999999999974 6.495140563452737e-16 6.495140563452737e-16 7.238373898166748e-22 0.01804121712286798 0.03568686155731538 7.238373898166748e-22 0.9462719213198166 0.2 0.2 0.2 0.2 0.2 2.134890993499883e-20 1 2.134890993499883e-20 2.134890993499883e-20 2.134890993499883e-20 5.734256469770554e-21 0.01470435144701229 0.9852956485529878 5.734256469770554e-21 5.734256469770554e-21 5.027535208739179e-16 5.027535208739179e-16 0.8351623740201553 5.027535208739179e-16 0.1648376259798433 1.07831729654127e-21 0.004747255760546363 0.005689851669680117 1.07831729654127e-21 0.9895628925697736 0.2 0.2 0.2 0.2 0.2 0.2 0.2 0.2 0.2 0.2 3.673307963525223e-13 3.673307963525223e-13 0.9999999999985308 3.673307963525223e-13 3.673307963525223e-13 0.2 0.2 0.2 0.2 0.2 0.2 0.2 0.2 0.2 0.2 0.2 0.2 0.2 0.2 0.2 0.2 0.2 0.2 0.2 0.2 5.621935469386196e-17 5.621935469386196e-17 0.9999999999999999 5.621935469386196e-17 5.621935469386196e-17 4.609432426544791e-16 4.609432426544791e-16 0.1111111111111113 0.8888888888888874 4.609432426544791e-16 0.2 0.2 0.2 0.2 0.2 0.2 0.2 0.2 0.2 0.2 0.2 0.2 0.2 0.2 0.2 0.2 0.2 0.2 0.2 0.2 1.170000652549319e-16 1.170000652549319e-16 1.170000652549319e-16 0.9999999999999996 1.170000652549319e-16 1.390132686626619e-17 1.390132686626619e-17 1.390132686626619e-17 1.390132686626619e-17 1 0.2 0.2 0.2 0.2 0.2 0.2 0.2 0.2 0.2 0.2 3.291784424836738e-10 3.291784424836738e-10 0.9999999986832863 3.291784424836738e-10 3.291784424836738e-10 1.850402965111546e-22 1.850402965111546e-22 0.0006452787107662271 0.9993547212892337 1.850402965111546e-22 3.315429956532661e-20 3.315429956532661e-20 3.315429956532661e-20 3.315429956532661e-20 1 0.2 0.2 0.2 0.2 0.2 0.2 0.2 0.2 0.2 0.2 0.2 0.2 0.2 0.2 0.2 2.955928563077711e-26 2.955928563077711e-26 2.955928563077711e-26 1 2.955928563077711e-26 2.121755280375743e-18 2.121755280375743e-18 2.121755280375743e-18 0.1110096455681753 0.8889903544318246</probabilities>
		</cpt>
	</dynamic>
	<extensions>
		<genie version="1.0" app="SMILE_ACADEMIC 1.5.0@a121f1f76773" name="emidas dbn v9" faultnameformat="user">
			<plate leftwidth="120" rightwidth="120">120 50 1164 561</plate>
			<node id="p1_imas">
				<name>p1_imas</name>
				<interior color="e5f6f7" />
				<outline color="000080" />
				<font color="000000" name="MS Sans Serif" size="8" />
				<position>491 462 547 497</position>
			</node>
			<node id="p2_imas">
				<name>p2_imas</name>
				<interior color="e5f6f7" />
				<outline color="000080" />
				<font color="000000" name="MS Sans Serif" size="8" />
				<position>651 472 707 507</position>
			</node>
			<node id="p1_wti">
				<name>p1_wti</name>
				<interior color="e5f6f7" />
				<outline color="000080" />
				<font color="000000" name="MS Sans Serif" size="8" />
				<position>487 311 571 363</position>
			</node>
			<node id="p2_wti">
				<name>p2_wti</name>
				<interior color="e5f6f7" />
				<outline color="000080" />
				<font color="000000" name="MS Sans Serif" size="8" />
				<position>650 301 734 353</position>
			</node>
			<node id="p1_approach">
				<name>p1_approach</name>
				<interior color="e5f6f7" />
				<outline color="000080" />
				<font color="000000" name="MS Sans Serif" size="8" />
				<position>268 135 344 182</position>
			</node>
			<node id="p2_head">
				<name>p2_head</name>
				<interior color="e5f6f7" />
				<outline color="000080" />
				<font color="000000" name="MS Sans Serif" size="8" />
				<position>676 84 733 119</position>
			</node>
			<node id="p1_body">
				<name>p1_body</name>
				<interior color="e5f6f7" />
				<outline color="000080" />
				<font color="000000" name="MS Sans Serif" size="8" />
				<position>404 76 461 111</position>
			</node>
			<node id="p2_approach">
				<name>p2_approach</name>
				<interior color="e5f6f7" />
				<outline color="000080" />
				<font color="000000" name="MS Sans Serif" size="8" />
				<position>924 160 1000 207</position>
			</node>
			<node id="p2_body">
				<name>p2_body</name>
				<interior color="e5f6f7" />
				<outline color="000080" />
				<font color="000000" name="MS Sans Serif" size="8" />
				<position>827 91 884 126</position>
			</node>
			<node id="dist">
				<name>dist</name>
				<interior color="e5f6f7" />
				<outline color="000080" />
				<font color="000000" name="MS Sans Serif" size="8" />
				<position>599 137 637 160</position>
			</node>
			<node id="p1_gesture">
				<name>p1_gesture</name>
				<interior color="e5f6f7" />
				<outline color="000080" />
				<font color="000000" name="MS Sans Serif" size="8" />
				<position>248 271 316 313</position>
			</node>
			<node id="p2_gesture">
				<name>p2_gesture</name>
				<interior color="e5f6f7" />
				<outline color="000080" />
				<font color="000000" name="MS Sans Serif" size="8" />
				<position>964 312 1032 354</position>
			</node>
			<node id="p1_head">
				<name>p1_head</name>
				<interior color="e5f6f7" />
				<outline color="000080" />
				<font color="000000" name="MS Sans Serif" size="8" />
				<position>528 80 585 115</position>
			</node>
		</genie>
	</extensions>
</smile>
