<?xml version="1.0" encoding="ISO-8859-1"?>
<!-- This file was created by ACADEMIC version of SMILE -->
<smile version="1.0" id="Network2" numsamples="10000" discsamples="10000">
	<nodes>
		<cpt id="p1_imas" target="true" dynamic="plate">
			<state id="very_high" />
			<state id="high" />
			<state id="medium" />
			<state id="low" />
			<state id="very_low" />
			<probabilities>0.02904603045650182 0.04362896767093611 0.07852200116386936 0.5120633329300123 0.3367396677786804</probabilities>
		</cpt>
		<cpt id="p2_imas" target="true" dynamic="plate">
			<state id="very_high" />
			<state id="high" />
			<state id="medium" />
			<state id="low" />
			<state id="very_low" />
			<probabilities>0.03001976273198163 0.04536324823258949 0.08222103146480449 0.5074654728363265 0.3349304847342978</probabilities>
		</cpt>
		<cpt id="p1_wti" dynamic="plate">
			<state id="very_high" />
			<state id="high" />
			<state id="medium" />
			<state id="low" />
			<state id="very_low" />
			<parents>p1_imas</parents>
			<probabilities>0.9998413328044429 3.966679888932964e-05 3.966679888932964e-05 3.966679888932964e-05 3.966679888932964e-05 0.2435230423874291 0.7563977287732735 2.64096130991681e-05 2.64096130991681e-05 2.64096130991681e-05 0.1226942548976447 0.837493579866461 0.03978281605400249 1.467459094577738e-05 1.467459094577738e-05 0.04057654657155074 0.2501991583590251 0.5410266219591782 0.1681954227333078 2.250376938137138e-06 3.422020703225255e-06 3.422020703225255e-06 0.004503379245444435 0.1011583540080417 0.8943314227051073</probabilities>
		</cpt>
		<cpt id="p2_wti" dynamic="plate">
			<state id="very_high" />
			<state id="high" />
			<state id="medium" />
			<state id="very_low" />
			<state id="low" />
			<parents>p2_imas</parents>
			<probabilities>0.9998464786029554 3.838034926117828e-05 3.838034926117828e-05 3.838034926117828e-05 3.838034926117828e-05 0.2484378968757938 0.751485902971806 2.54000508001016e-05 2.54000508001016e-05 2.54000508001016e-05 0.1320299908906173 0.823922640319529 0.04401933992011772 1.401443486791395e-05 1.401443486791395e-05 0.03796948090285662 0.2445524319905536 0.5475748217448567 2.270766156501204e-06 0.1699009945955766 3.44050506614371e-06 3.44050506614371e-06 0.004132046584438596 0.8930037329479968 0.1028573394574324</probabilities>
		</cpt>
		<cpt id="p1_approach" dynamic="plate">
			<state id="y" />
			<state id="m" />
			<state id="n" />
			<parents>p1_wti</parents>
			<probabilities>0.5789400684525374 0.210015643642566 0.2110442879048966 0.4075981084001808 0.2135737396635626 0.3788281519362566 0.07284704428847971 0.1256889061302114 0.8014640495813089 0.1578343423984503 0.1243736184888148 0.7177920391127348 0.0001923768236646628 0.005252011859381618 0.9945556113169537</probabilities>
		</cpt>
		<cpt id="p2_head" dynamic="plate">
			<state id="central" />
			<state id="mid_peripheral" />
			<state id="outside" />
			<parents>p2_wti</parents>
			<probabilities>0.9999989841006673 5.079496662516717e-07 5.079496662516717e-07 0.9994532871657498 0.0005290035626505288 1.770927159978736e-05 0.9987583090596759 0.001139494841180927 0.0001021960991432199 0.01410943950040376 0.2230604789686644 0.7628300815309318 0.3135373026282021 0.4235708078238968 0.2628918895479011</probabilities>
		</cpt>
		<cpt id="p1_body" dynamic="plate">
			<state id="strongly_facing" />
			<state id="slightly_facing" />
			<state id="turned_away" />
			<parents>p1_wti</parents>
			<probabilities>0.4587542009419184 0.4860372498125753 0.05520854924550619 0.277546167301416 0.499567036050423 0.222886796648161 0.01122199045820099 0.2072978699205866 0.7814801396212123 0.0285796440363673 0.8128756174793047 0.1585447384843282 0.001970216294904239 0.3785710726476105 0.6194587110574852</probabilities>
		</cpt>
		<cpt id="p2_approach" dynamic="plate">
			<state id="y" />
			<state id="m" />
			<state id="n" />
			<parents>p2_wti</parents>
			<probabilities>0.5929057717812626 0.215798860059359 0.1912953681593783 0.4088961957235196 0.2235200897876317 0.3675837144888487 0.07455663897869254 0.1262280203365236 0.7992153406847838 1.793702025197209e-07 0.004023632382922378 0.9959761882468751 0.1563204109121095 0.13124992256459 0.7124296665233005</probabilities>
		</cpt>
		<cpt id="p2_body" dynamic="plate">
			<state id="strongly_facing" />
			<state id="slightly_facing" />
			<state id="turned_away" />
			<parents>p2_wti</parents>
			<probabilities>0.4425049233021401 0.4991540098308578 0.05834106686700202 0.2760639860353458 0.5096289696388349 0.2143070443258194 0.01315645572591573 0.2084386970114059 0.7784048472626783 0.002070828988090177 0.4038451949054558 0.594083976106454 0.03830884604424527 0.8008706395014399 0.1608205144543149</probabilities>
		</cpt>
		<cpt id="dist" dynamic="plate">
			<state id="range_0_3" />
			<state id="range_3_6" />
			<state id="range_6_9" />
			<state id="range_9_12" />
			<state id="range_12_15" />
			<state id="range_15_18" />
			<state id="range_18_21" />
			<state id="range_21_24" />
			<state id="range_24_27" />
			<state id="range_27_30" />
			<state id="range_30_inf" />
			<parents>p1_wti p2_wti</parents>
			<probabilities>0.1111111111111111 0.1111111111111111 0.1111111111111111 0.1111111111111111 0.1111111111111111 0.1111111111111111 0.1111111111111111 0.1111111111111111 0.1111111111111111 0 0 0.03665971164181417 0.166571417499332 0.2526150689485674 0.2823578961967639 0.1957507041707713 0.05304827929421793 0.01211540854142319 0.0008813097474367366 2.039596730934359e-07 0 0 2.490163852781513e-06 2.490163852781513e-06 2.490163852781513e-06 0.006053588326111858 0.8186040141441308 0.1753274565466408 2.490163852781513e-06 2.490163852781513e-06 2.490163852781513e-06 0 0 1.411472448057814e-05 1.411472448057814e-05 1.411472448057814e-05 1.411472448057814e-05 0.770339317976513 0.2295618789521228 1.411472448057814e-05 1.411472448057814e-05 1.411472448057814e-05 0 0 2.257300674707172e-06 2.257300674707172e-06 2.257300674707172e-06 0.02098838167342728 0.4080228980580443 0.5641897306363105 0.006787703128844465 2.257300674707172e-06 2.257300674707172e-06 0 0 0.03754773853962867 0.1689949338034983 0.2535430546139769 0.2748926197557092 0.1979776301060247 0.05355719339883899 0.01254384131046798 0.0009427870646633899 2.014071917674407e-07 0 0 0.01664124061422553 0.08694141564436593 0.1743859091695793 0.2786077225084038 0.2069549663649123 0.1963717871931668 0.03943252298400742 0.000664343264254919 9.225708432924857e-08 0 0 0.005384707821639145 0.02596872493776075 0.04006954077487546 0.3969571339378313 0.1611519943991201 0.2001334911193139 0.1101445413626543 0.05901365475695996 0.001176210889845009 0 0 2.151148282953441e-06 2.151148282953441e-06 2.151148282953441e-06 0.899328411506062 0.01510321209461611 0.008598139686964903 0.07695948097094231 2.151148282953441e-06 2.151148282953441e-06 0 0 1.38069103586345e-06 1.38069103586345e-06 0.002349936143039592 0.2467488177833006 0.02454316385350868 0.2051209830520176 0.05457733595664632 0.1410762486624556 0.215298056677367 0.09424044734389564 0.01604224914569742 2.542122977741172e-06 2.542122977741172e-06 2.542122977741172e-06 0.003663199210925029 0.7593829759108428 0.2369385721403659 2.542122977741172e-06 2.542122977741172e-06 2.542122977741172e-06 0 0 0.005023066908666747 0.02378351745347317 0.03732558606417086 0.395060367314745 0.1650473213599098 0.2121230062725386 0.1151052013003761 0.04628625832896086 0.0002456749971587449 0 0 6.670883999531169e-08 6.670883999531169e-08 0.004891959363376193 0.1929080231188824 0.07763214570918402 0.0872994573836246 0.07128973603778975 0.07863838185167329 0.09606079630208886 0.3912793668157009 0 1.734106050989654e-06 1.734106050989654e-06 1.734106050989654e-06 0.003169945861209088 0.28428240957504 0.5001265897417223 0.1860990590740567 0.02631505932376801 1.734106050989654e-06 0 0 2.081083162164243e-06 2.081083162164243e-06 2.081083162164243e-06 0.2340490178328017 0.3702704783785865 0.2117418874175631 0.08859379129649401 0.05032891519378007 0.006014330338654663 0.01086325410649735 0.02813208218613624 2.028981978582066e-06 2.028981978582066e-06 2.028981978582066e-06 0.03141067001042897 0.3544083691448653 0.6073574944507344 0.006813321484078579 2.028981978582066e-06 2.028981978582066e-06 0 0 1.358011111246912e-06 1.358011111246912e-06 1.358011111246912e-06 0.2616276306372738 0.03082549421419366 0.2026804423313791 0.04822976461593409 0.1508342941261945 0.204269315331538 0.08878133440887813 0.01274765030127476 2.153483043474516e-06 2.153483043474516e-06 2.153483043474516e-06 0.2268220620030838 0.3810006805006418 0.2035450637861678 0.07403890051769733 0.06543358227597318 0.01062313185345979 0.01093107992867664 0.0275990386851694 1.231584729334624e-06 1.231584729334624e-06 1.231584729334624e-06 0.231529308021804 0.05017968821200992 0.2494747291129388 0.260148873962082 0.1390865582379471 0.06954389491133822 3.325278769203485e-05 0 1.156828992910952e-06 1.156828992910952e-06 1.156828992910952e-06 0.2539783349066208 0.08343860477168824 0.5202306254280268 0.09062251281766526 0.05172529476002741 1.156828992910952e-06 0 0 1.823885605894798e-05 1.823885605894798e-05 1.823885605894798e-05 1.823885605894798e-05 0.709637411541548 0.2902349164660392 1.823885605894798e-05 1.823885605894798e-05 1.823885605894798e-05 0 0 1.934452994726681e-06 1.934452994726681e-06 0.000698337531096332 0.8949843502752728 0.008306541159356369 0.004772295537990722 0.09123073768430502 1.934452994726681e-06 1.934452994726681e-06 0 0 1.646895683980481e-06 1.646895683980481e-06 1.646895683980481e-06 0.004062891652379846 0.2593284288779864 0.5083687004181467 0.2199758565092728 0.008257534959478131 1.646895683980481e-06 0 0 6.756355940505694e-08 6.756355940505694e-08 6.756355940505694e-08 0.27788655510842 0.3291397307646209 0.1365250088542045 0.06358372793830205 0.0506646294902235 0.09763819416658934 0.04456195098696173 0 1.139309009085989e-06 1.139309009085989e-06 1.139309009085989e-06 0.2203446409752485 0.0583451536643026 0.2535566378991141 0.2526850665071634 0.1417186476402062 0.07251587911931413 0.0008305562676236862 0</probabilities>
		</cpt>
		<cpt id="p1_gesture" dynamic="plate">
			<state id="wave_slow_shoulder" />
			<state id="wave_fast_shoulder" />
			<state id="wave_small_head" />
			<state id="wave_wide_head" />
			<state id="arm_raise_high" />
			<state id="arm_raise_low" />
			<state id="come_here" />
			<state id="i_am_coming" />
			<state id="None" />
			<parents>p1_wti</parents>
			<probabilities>0.02116085383832961 1.718703846356124e-07 0.02671553285491321 0.09023624959567321 0.02195592624560313 1.718703846356124e-07 0.01194481998123691 0.009885984623098554 0.8181002891203762 5.398216434686413e-08 0.02335387192742239 0.06431208341626289 0.003364492378446606 0.1439640085794928 0.07605093692254213 0.03281996834809719 5.398216386102465e-08 0.6561345304634079 5.583329824210535e-08 5.583329773960567e-08 5.583329773960567e-08 5.583329773960567e-08 0.01669309535841544 0.02081459777217267 5.583329773960567e-08 5.583329773960567e-08 0.9624919718696249 2.967402193681748e-07 2.967402166975128e-07 0.01239216831342355 2.967402166975128e-07 2.967402166975128e-07 2.967402166975128e-07 2.967402166975128e-07 2.967402166975128e-07 0.9876057545050568 5.932063628500956e-08 5.932063575112383e-08 5.932063575112383e-08 5.932063575112383e-08 5.932063575112383e-08 5.932063575112383e-08 5.932063575112383e-08 5.932063575112383e-08 0.9999995254349134</probabilities>
		</cpt>
		<cpt id="p2_gesture" dynamic="plate">
			<state id="wave_slow_shoulder" />
			<state id="wave_fast_shoulder" />
			<state id="wave_small_head" />
			<state id="wave_wide_head" />
			<state id="arm_raise_high" />
			<state id="arm_raise_low" />
			<state id="come_here" />
			<state id="i_am_coming" />
			<state id="None" />
			<parents>p2_wti</parents>
			<probabilities>0.01859112710136661 1.693165554172239e-07 0.03781752991865863 0.0925907583299089 0.0205797500447419 1.693165554172239e-07 0.0142451097569173 0.01048272657899117 0.8056926596363047 5.415679388314177e-08 0.02383689620048932 0.06765467072019438 0.002943530061136521 0.1374431732761784 0.07769387807269403 0.03312597780091356 5.415679388314177e-08 0.657301765554806 5.557156016488304e-08 5.557156016488304e-08 5.557156016488304e-08 5.557156016488304e-08 0.01836434448676775 0.02188885954710512 5.557156016488304e-08 5.557156016488304e-08 0.9597464625367661 5.979006750657361e-08 5.979006750657361e-08 5.979006750657361e-08 5.979006750657361e-08 5.979006750657361e-08 5.979006750657361e-08 5.979006750657361e-08 5.979006750657361e-08 0.9999995216794599 2.949920381648899e-07 2.949920381648899e-07 0.01402628143066419 2.949920381648899e-07 2.949920381648899e-07 2.949920381648899e-07 2.949920381648899e-07 2.949920381648899e-07 0.9859716536250687</probabilities>
		</cpt>
		<cpt id="p1_head" dynamic="plate">
			<state id="central" />
			<state id="mid_peripheral" />
			<state id="outside" />
			<parents>p1_wti</parents>
			<probabilities>0.9999989687776818 5.156111590629488e-07 5.156111590629488e-07 0.9994603942846492 0.0004787138339067049 6.089188144415462e-05 0.9987921582579208 0.001058431835834023 0.0001494099062452838 0.3043922597094141 0.4249299173786207 0.2706778229119652 0.01464199402759833 0.2055963681533604 0.7797616378190412</probabilities>
		</cpt>
	</nodes>
	<dynamic numslices="40">
		<cpt id="p1_imas" order="1">
			<parents>p1_imas</parents>
			<probabilities>0.9999974001917357 6.499520660351298e-07 6.499520660351298e-07 6.499520660351298e-07 6.499520660351298e-07 0.001404508287093914 0.9985941416568787 4.500186757750446e-07 4.500186757750446e-07 4.500186757750446e-07 0.005965161894924774 0.00878853277059727 0.9827505891285686 0.002495374186421143 3.420194882704417e-07 0.000488968854661259 0.0009106410985131778 0.003204766036010239 0.9948419797511848 0.0005536442596304384 1.04056702578369e-07 1.04056702578369e-07 1.04056702578369e-07 0.008442224336885656 0.9915574634930066</probabilities>
		</cpt>
		<cpt id="p2_imas" order="1">
			<parents>p2_imas</parents>
			<probabilities>0.9999974727930374 6.318017406137953e-07 6.318017406137953e-07 6.318017406137953e-07 6.318017406137953e-07 0.001364678823866357 0.998634009405396 4.372569124852152e-07 4.372569124852152e-07 4.372569124852152e-07 0.005928106844128879 0.008518644667291105 0.9831749317159121 0.002377989271046892 3.275016211330247e-07 0.0004934602570697339 0.0009077920543180071 0.003325350521537634 0.9947140923704004 0.0005593047966740743 1.049184731004773e-07 1.049184731004773e-07 1.049184731004773e-07 0.008550435883796496 0.9914492493607842</probabilities>
		</cpt>
		<cpt id="p1_wti" order="1">
			<parents>p2_imas p1_wti</parents>
			<probabilities>0.2 0.2 0.2 0.2 0.2 0.2 0.2 0.2 0.2 0.2 0.2 0.2 0.2 0.2 0.2 0.2 0.2 0.2 0.2 0.2 0.2 0.2 0.2 0.2 0.2 0.2 0.2 0.2 0.2 0.2 0.2 0.2 0.2 0.2 0.2 0.2 0.2 0.2 0.2 0.2 0.2 0.2 0.2 0.2 0.2 0.2 0.2 0.2 0.2 0.2 0.2 0.2 0.2 0.2 0.2 0.2 0.2 0.2 0.2 0.2 0.2 0.2 0.2 0.2 0.2 0.2 0.2 0.2 0.2 0.2 0.2 0.2 0.2 0.2 0.2 0.9999974024962009 6.493759497123264e-07 6.493759497123264e-07 6.493759497123264e-07 6.493759497123264e-07 0.9996366939146234 9.082652134423256e-05 9.082652134423256e-05 9.082652134423256e-05 9.082652134423256e-05 0.9994306049822063 0.0001423487544483986 0.0001423487544483986 0.0001423487544483986 0.0001423487544483986 0.9974440894568691 0.0006389776357827477 0.0006389776357827477 0.0006389776357827477 0.0006389776357827477 0.2 0.2 0.2 0.2 0.2 0.9994999999999998 0.000125 0.000125 0.000125 0.000125 0.9799999999999998 0.004999999999999998 0.004999999999999998 0.004999999999999998 0.004999999999999998 0.2 0.2 0.2 0.2 0.2 0.2 0.2 0.2 0.2 0.2 0.2 0.2 0.2 0.2 0.2 0.2 0.2 0.2 0.2 0.2 0.2 0.2 0.2 0.2 0.2 0.2 0.2 0.2 0.2 0.2 0.2 0.2 0.2 0.2 0.2 0.2 0.2 0.2 0.2 0.2 0.2 0.2 0.2 0.2 0.2 0.2 0.2 0.2 0.2 0.2 0.2 0.2 0.2 0.2 0.2 0.2 0.2 0.2 0.2 0.2 0.2 0.2 0.2 0.2 0.2 0.2 0.2 0.2 0.2 0.2 7.769705916631054e-06 0.9999689211763334 7.769705916631054e-06 7.769705916631054e-06 7.769705916631054e-06 0.0005115089514066497 0.9979539641943735 0.0005115089514066497 0.0005115089514066497 0.0005115089514066497 0.2 0.2 0.2 0.2 0.2 0.2 0.2 0.2 0.2 0.2 0.99999111515865 2.221210337512911e-06 2.221210337512911e-06 2.221210337512911e-06 2.221210337512911e-06 0.003030227313898068 0.996967898705079 6.24660340939614e-07 6.24660340939614e-07 6.24660340939614e-07 0.2273127753303966 0.7724669603524231 7.342143906020561e-05 7.342143906020561e-05 7.342143906020561e-05 0.0008333333333333336 0.9966666666666668 0.0008333333333333336 0.0008333333333333336 0.0008333333333333336 0.2 0.2 0.2 0.2 0.2 0.999934469200524 1.63826998689384e-05 1.63826998689384e-05 1.63826998689384e-05 1.63826998689384e-05 0.2 0.2 0.2 0.2 0.2 0.9987199999999997 0.0003199999999999999 0.0003199999999999999 0.0003199999999999999 0.0003199999999999999 0.2 0.2 0.2 0.2 0.2 0.2 0.2 0.2 0.2 0.2 0.2 0.2 0.2 0.2 0.2 0.2 0.2 0.2 0.2 0.2 0.2 0.2 0.2 0.2 0.2 0.2 0.2 0.2 0.2 0.2 0.2 0.2 0.2 0.2 0.2 0.2 0.2 0.2 0.2 0.2 8.152616990053806e-06 0.9999673895320397 8.152616990053806e-06 8.152616990053806e-06 8.152616990053806e-06 0.2 0.2 0.2 0.2 0.2 0.2 0.2 0.2 0.2 0.2 0.2 0.2 0.2 0.2 0.2 0.2 0.2 0.2 0.2 0.2 3.679108184176157e-06 0.9999852835672635 3.679108184176157e-06 3.679108184176157e-06 3.679108184176157e-06 0.0007407407407407409 0.7081481481481483 0.2896296296296297 0.0007407407407407409 0.0007407407407407409 0.005128205128205127 0.005128205128205127 0.9794871794871793 0.005128205128205127 0.005128205128205127 0.2 0.2 0.2 0.2 0.2 0.999979360165119 5.159958720330239e-06 5.159958720330239e-06 5.159958720330239e-06 5.159958720330239e-06 4.786200426929078e-07 0.9999980855198292 4.786200426929078e-07 4.786200426929078e-07 4.786200426929078e-07 0.004351449752160372 0.1470895293240339 0.8485414747554503 8.773084177742687e-06 8.773084177742687e-06 0.1331789766149572 0.4783977772632554 0.3883306320907619 4.630701551285021e-05 4.630701551285021e-05 0.2 0.2 0.2 0.2 0.2 0.9997492163009407 6.26959247648903e-05 6.26959247648903e-05 6.26959247648903e-05 6.26959247648903e-05 1.168156065650371e-05 0.9999532737573739 1.168156065650371e-05 1.168156065650371e-05 1.168156065650371e-05 0.3176190476190476 0.6819047619047618 0.0001587301587301587 0.0001587301587301587 0.0001587301587301587 0.0001410437235543018 0.9994358251057827 0.0001410437235543018 0.0001410437235543018 0.0001410437235543018 0.2 0.2 0.2 0.2 0.2 0.2 0.2 0.2 0.2 0.2 6.396827173721833e-07 0.9999974412691304 6.396827173721833e-07 6.396827173721833e-07 6.396827173721833e-07 0.0002844950213371266 0.7214793741109531 0.2776671408250355 0.0002844950213371266 0.0002844950213371266 0.0001191895113230036 0.1395709177592372 0.0001191895113230036 0.8600715137067938 0.0001191895113230036 0.2 0.2 0.2 0.2 0.2 0.9999929948074011 1.751298149753505e-06 1.751298149753505e-06 1.751298149753505e-06 1.751298149753505e-06 7.226060063011243e-07 0.9999971095759747 7.226060063011243e-07 7.226060063011243e-07 7.226060063011243e-07 0.009528865295288652 0.03102853351028533 0.9594293297942932 6.635700066357001e-06 6.635700066357001e-06 0.002631578947368421 0.002631578947368421 0.9894736842105262 0.002631578947368421 0.002631578947368421 0.2 0.2 0.2 0.2 0.2 0.9999673109140684 8.17227148285866e-06 8.17227148285866e-06 8.17227148285866e-06 8.17227148285866e-06 5.39691620208213e-07 0.9999978412335191 5.39691620208213e-07 5.39691620208213e-07 5.39691620208213e-07 2.796029637914163e-06 0.09352998741786664 0.9064616244932198 2.796029637914163e-06 2.796029637914163e-06 4.562043795620439e-06 0.02283759124087592 0.04507755474452556 0.9320757299270074 4.562043795620439e-06 0.0001692047377326565 0.0001692047377326565 0.9993231810490693 0.0001692047377326565 0.0001692047377326565 0.9999767008387701 5.824790307548931e-06 5.824790307548931e-06 5.824790307548931e-06 5.824790307548931e-06 1.573328928012335e-06 0.9723975172869517 0.02759776272626437 1.573328928012335e-06 1.573328928012335e-06 1.157540712153772e-07 0.002082531495235852 0.9979171212425506 1.157540712153772e-07 1.157540712153772e-07 1.540215014015957e-06 0.01770631180112744 0.03538027908696054 0.946910328681884 1.540215014015957e-06 4.841442749939483e-05 4.841442749939483e-05 0.9998063422900026 4.841442749939483e-05 4.841442749939483e-05 0.2 0.2 0.2 0.2 0.2 4.068596537624348e-06 0.9999837256138497 4.068596537624348e-06 4.068596537624348e-06 4.068596537624348e-06 2.750539793434462e-06 0.01220139452367527 0.9877903538569446 2.750539793434462e-06 2.750539793434462e-06 1.784662609533668e-06 0.004882836899684115 0.00544500562168722 0.9896685881534095 1.784662609533668e-06 4.518752824220515e-05 4.518752824220515e-05 0.8396294622684138 0.1602349751468595 4.518752824220515e-05 0.2 0.2 0.2 0.2 0.2 0.2 0.2 0.2 0.2 0.2 0.0001314060446780552 0.0001314060446780552 0.9994743758212876 0.0001314060446780552 0.0001314060446780552 0.2 0.2 0.2 0.2 0.2 0.2 0.2 0.2 0.2 0.2 0.2 0.2 0.2 0.2 0.2 0.2 0.2 0.2 0.2 0.2 2.465179341797116e-05 2.465179341797116e-05 0.9999013928263282 2.465179341797116e-05 2.465179341797116e-05 0.0008000000000000001 0.0008000000000000001 0.0008000000000000001 0.9968 0.0008000000000000001 6.031363088057902e-05 6.031363088057902e-05 0.1764776839565742 6.031363088057902e-05 0.823341375150784 0.2 0.2 0.2 0.2 0.2 0.2 0.2 0.2 0.2 0.2 0.2 0.2 0.2 0.2 0.2 1.752234098475556e-05 1.752234098475556e-05 1.752234098475556e-05 0.9999299106360608 1.752234098475556e-05 2.910360884749709e-05 2.910360884749709e-05 2.910360884749709e-05 2.910360884749709e-05 0.99988358556461 0.2 0.2 0.2 0.2 0.2 0.2 0.2 0.2 0.2 0.2 0.2 0.2 0.2 0.2 0.2 3.91726731432153e-06 3.91726731432153e-06 3.91726731432153e-06 0.9999843309307428 3.91726731432153e-06 1.026794194505624e-06 1.026794194505624e-06 0.0002012516621231024 1.026794194505624e-06 0.9997956679552934 0.2 0.2 0.2 0.2 0.2 0.2 0.2 0.2 0.2 0.2 0.2 0.2 0.2 0.2 0.2 1.255886970172684e-05 1.255886970172684e-05 1.255886970172684e-05 0.8779403453689167 0.122021978021978 1.238769010458927e-07 1.238769010458927e-07 1.238769010458927e-07 1.238769010458927e-07 0.9999995044923958</probabilities>
		</cpt>
		<cpt id="p2_wti" order="1">
			<parents>p1_imas p2_wti</parents>
			<probabilities>0.2 0.2 0.2 0.2 0.2 0.2 0.2 0.2 0.2 0.2 0.2 0.2 0.2 0.2 0.2 0.2 0.2 0.2 0.2 0.2 0.2 0.2 0.2 0.2 0.2 0.2 0.2 0.2 0.2 0.2 0.2 0.2 0.2 0.2 0.2 0.2 0.2 0.2 0.2 0.2 0.2 0.2 0.2 0.2 0.2 0.2 0.2 0.2 0.2 0.2 0.2 0.2 0.2 0.2 0.2 0.2 0.2 0.2 0.2 0.2 0.2 0.2 0.2 0.2 0.2 0.2 0.2 0.2 0.2 0.2 0.2 0.2 0.2 0.2 0.2 0.9999974696756438 6.325810889883446e-07 6.325810889883446e-07 6.325810889883446e-07 6.325810889883446e-07 0.9996453900709223 8.865248226950359e-05 8.865248226950359e-05 8.865248226950359e-05 8.865248226950359e-05 0.9994306049822063 0.0001423487544483986 0.0001423487544483986 0.0001423487544483986 0.0001423487544483986 0.2 0.2 0.2 0.2 0.2 0.9974440894568691 0.0006389776357827477 0.0006389776357827477 0.0006389776357827477 0.0006389776357827477 0.9996638655462188 8.403361344537819e-05 8.403361344537819e-05 8.403361344537819e-05 8.403361344537819e-05 0.2 0.2 0.2 0.2 0.2 0.2 0.2 0.2 0.2 0.2 0.2 0.2 0.2 0.2 0.2 0.2 0.2 0.2 0.2 0.2 0.2 0.2 0.2 0.2 0.2 0.2 0.2 0.2 0.2 0.2 0.2 0.2 0.2 0.2 0.2 0.2 0.2 0.2 0.2 0.2 0.2 0.2 0.2 0.2 0.2 0.2 0.2 0.2 0.2 0.2 0.2 0.2 0.2 0.2 0.2 0.2 0.2 0.2 0.2 0.2 0.2 0.2 0.2 0.2 0.2 0.2 0.2 0.2 0.2 0.2 0.2 0.2 0.2 0.2 0.2 8.152616990053806e-06 0.9999673895320397 8.152616990053806e-06 8.152616990053806e-06 8.152616990053806e-06 0.0005115089514066497 0.9979539641943735 0.0005115089514066497 0.0005115089514066497 0.0005115089514066497 0.2 0.2 0.2 0.2 0.2 0.2 0.2 0.2 0.2 0.2 0.9999915958441451 2.101038963767584e-06 2.101038963767584e-06 2.101038963767584e-06 2.101038963767584e-06 0.002855861153377505 0.9971423202129013 6.062112403688188e-07 6.062112403688188e-07 6.062112403688188e-07 0.2282783882783884 0.7715018315018317 7.326007326007329e-05 7.326007326007329e-05 7.326007326007329e-05 0.2 0.2 0.2 0.2 0.2 0.00115606936416185 0.9953757225433528 0.00115606936416185 0.00115606936416185 0.00115606936416185 0.9999285331427548 1.786671431123816e-05 1.786671431123816e-05 1.786671431123816e-05 1.786671431123816e-05 0.0005602240896358544 0.9977591036414567 0.0005602240896358544 0.0005602240896358544 0.0005602240896358544 0.9987199999999997 0.0003199999999999999 0.0003199999999999999 0.0003199999999999999 0.0003199999999999999 0.2 0.2 0.2 0.2 0.2 0.006666666666666668 0.9733333333333334 0.006666666666666668 0.006666666666666668 0.006666666666666668 0.2 0.2 0.2 0.2 0.2 0.2 0.2 0.2 0.2 0.2 0.2 0.2 0.2 0.2 0.2 0.2 0.2 0.2 0.2 0.2 0.2 0.2 0.2 0.2 0.2 0.2 0.2 0.2 0.2 0.2 7.769705916631054e-06 0.9999689211763334 7.769705916631054e-06 7.769705916631054e-06 7.769705916631054e-06 0.2 0.2 0.2 0.2 0.2 0.2 0.2 0.2 0.2 0.2 0.2 0.2 0.2 0.2 0.2 0.9799999999999998 0.004999999999999998 0.004999999999999998 0.004999999999999998 0.004999999999999998 3.679108184176157e-06 0.9999852835672635 3.679108184176157e-06 3.679108184176157e-06 3.679108184176157e-06 0.0007751937984496126 0.9968992248062017 0.0007751937984496126 0.0007751937984496126 0.0007751937984496126 0.2 0.2 0.2 0.2 0.2 0.003999999999999999 0.9839999999999998 0.003999999999999999 0.003999999999999999 0.003999999999999999 0.9999824507524242 4.387311894002547e-06 4.387311894002547e-06 4.387311894002547e-06 4.387311894002547e-06 4.636294302689746e-07 0.9999981454822788 4.636294302689746e-07 4.636294302689746e-07 4.636294302689746e-07 0.005661320718433906 0.119118495442483 0.8752047998153918 7.692011845698242e-06 7.692011845698242e-06 0.2 0.2 0.2 0.2 0.2 0.1144945697577277 0.5299081035923142 0.3555137844611529 4.177109440267336e-05 4.177109440267336e-05 0.9997005988023955 7.485029940119763e-05 7.485029940119763e-05 7.485029940119763e-05 7.485029940119763e-05 1.081899816077031e-05 0.9999567240073568 1.081899816077031e-05 1.081899816077031e-05 1.081899816077031e-05 0.2971237458193979 0.7024749163879598 0.0001337792642140468 0.0001337792642140468 0.0001337792642140468 0.2 0.2 0.2 0.2 0.2 0.0001769911504424779 0.99929203539823 0.0001769911504424779 0.0001769911504424779 0.0001769911504424779 0.2 0.2 0.2 0.2 0.2 6.561378414377292e-07 0.9999973754486341 6.561378414377292e-07 6.561378414377292e-07 6.561378414377292e-07 0.0003696857670979668 0.6491682070240296 0.3497227356746765 0.0003696857670979668 0.0003696857670979668 0.2 0.2 0.2 0.2 0.2 0.0001329787234042553 0.1297872340425532 0.0001329787234042553 0.0001329787234042553 0.8698138297872341 0.9999922789611343 1.930259716444848e-06 1.930259716444848e-06 1.930259716444848e-06 1.930259716444848e-06 7.412129208236356e-07 0.9999970351483165 7.412129208236356e-07 7.412129208236356e-07 7.412129208236356e-07 0.008591711667981313 0.02721922213457922 0.964176931011468 6.06759298586251e-06 6.06759298586251e-06 0.2 0.2 0.2 0.2 0.2 0.2 0.2 0.2 0.2 0.2 0.9999620853080567 9.478672985781989e-06 9.478672985781989e-06 9.478672985781989e-06 9.478672985781989e-06 5.720038438658307e-07 0.9999977119846244 5.720038438658307e-07 5.720038438658307e-07 5.720038438658307e-07 2.744538368646395e-06 0.09423646942584259 0.9057552969590517 2.744538368646395e-06 2.744538368646395e-06 0.0001857010213556174 0.0001857010213556174 0.9992571959145774 0.0001857010213556174 0.0001857010213556174 4.644358265796624e-06 0.02450363421034299 0.04419571325732067 4.644358265796624e-06 0.9312913638158047 0.9999791111807408 5.222204814872842e-06 5.222204814872842e-06 5.222204814872842e-06 5.222204814872842e-06 1.597354780483519e-06 0.9719680209572948 0.02802718697836383 1.597354780483519e-06 1.597354780483519e-06 1.575630556342406e-05 0.001806298235583415 0.9981777137484773 1.158551879663534e-07 1.158551879663534e-07 4.774409166865602e-05 4.774409166865602e-05 0.9998090236333256 4.774409166865602e-05 4.774409166865602e-05 1.551253412757508e-06 0.01804262844378257 0.03568813601389923 1.551253412757508e-06 0.9462661330354927 0.2 0.2 0.2 0.2 0.2 3.615067601764154e-06 0.9999855397295931 3.615067601764154e-06 3.615067601764154e-06 3.615067601764154e-06 2.602506213483585e-06 0.01470676261239574 0.9852854298689639 2.602506213483585e-06 2.602506213483585e-06 4.478280340349306e-05 4.478280340349306e-05 0.8350201522615315 4.478280340349306e-05 0.164845499328258 1.713796058269066e-06 0.004748928877463582 0.005691516709511568 1.713796058269066e-06 0.9895561268209083 0.2 0.2 0.2 0.2 0.2 0.2 0.2 0.2 0.2 0.2 0.0002328288707799767 0.0002328288707799767 0.99906868451688 0.0002328288707799767 0.0002328288707799767 0.2 0.2 0.2 0.2 0.2 0.2 0.2 0.2 0.2 0.2 0.2 0.2 0.2 0.2 0.2 0.2 0.2 0.2 0.2 0.2 2.589667227761233e-05 2.589667227761233e-05 0.9998964133108896 2.589667227761233e-05 2.589667227761233e-05 4.382120946538124e-05 4.382120946538124e-05 0.1111305872042068 0.888737949167397 4.382120946538124e-05 0.2 0.2 0.2 0.2 0.2 0.2 0.2 0.2 0.2 0.2 0.2 0.2 0.2 0.2 0.2 0.2 0.2 0.2 0.2 0.2 3.110419906687403e-05 3.110419906687403e-05 3.110419906687403e-05 0.9998755832037325 3.110419906687403e-05 1.826150474799124e-05 1.826150474799124e-05 1.826150474799124e-05 1.826150474799124e-05 0.9999269539810081 0.2 0.2 0.2 0.2 0.2 0.2 0.2 0.2 0.2 0.2 0.001273885350318472 0.001273885350318472 0.9949044585987262 0.001273885350318472 0.001273885350318472 1.103034447765804e-06 1.103034447765804e-06 0.0006463781863907609 0.9993503127102659 1.103034447765804e-06 4.035593938537905e-06 4.035593938537905e-06 4.035593938537905e-06 4.035593938537905e-06 0.9999838576242458 0.2 0.2 0.2 0.2 0.2 0.2 0.2 0.2 0.2 0.2 0.2 0.2 0.2 0.2 0.2 1.240069369480529e-07 1.240069369480529e-07 1.240069369480529e-07 0.9999995039722521 1.240069369480529e-07 1.141422212076247e-05 1.141422212076247e-05 1.141422212076247e-05 0.1110147243465358 0.888951032987102</probabilities>
		</cpt>
	</dynamic>
	<extensions>
		<genie version="1.0" app="SMILE_ACADEMIC 1.5.0@a121f1f76773" name="emidas dbn v9" faultnameformat="user">
			<plate leftwidth="120" rightwidth="120">120 50 1164 561</plate>
			<node id="p1_imas">
				<name>p1_imas</name>
				<interior color="e5f6f7" />
				<outline color="000080" />
				<font color="000000" name="MS Sans Serif" size="8" />
				<position>491 462 547 497</position>
			</node>
			<node id="p2_imas">
				<name>p2_imas</name>
				<interior color="e5f6f7" />
				<outline color="000080" />
				<font color="000000" name="MS Sans Serif" size="8" />
				<position>651 472 707 507</position>
			</node>
			<node id="p1_wti">
				<name>p1_wti</name>
				<interior color="e5f6f7" />
				<outline color="000080" />
				<font color="000000" name="MS Sans Serif" size="8" />
				<position>487 311 571 363</position>
			</node>
			<node id="p2_wti">
				<name>p2_wti</name>
				<interior color="e5f6f7" />
				<outline color="000080" />
				<font color="000000" name="MS Sans Serif" size="8" />
				<position>650 301 734 353</position>
			</node>
			<node id="p1_approach">
				<name>p1_approach</name>
				<interior color="e5f6f7" />
				<outline color="000080" />
				<font color="000000" name="MS Sans Serif" size="8" />
				<position>268 135 344 182</position>
			</node>
			<node id="p2_head">
				<name>p2_head</name>
				<interior color="e5f6f7" />
				<outline color="000080" />
				<font color="000000" name="MS Sans Serif" size="8" />
				<position>676 84 733 119</position>
			</node>
			<node id="p1_body">
				<name>p1_body</name>
				<interior color="e5f6f7" />
				<outline color="000080" />
				<font color="000000" name="MS Sans Serif" size="8" />
				<position>404 76 461 111</position>
			</node>
			<node id="p2_approach">
				<name>p2_approach</name>
				<interior color="e5f6f7" />
				<outline color="000080" />
				<font color="000000" name="MS Sans Serif" size="8" />
				<position>924 160 1000 207</position>
			</node>
			<node id="p2_body">
				<name>p2_body</name>
				<interior color="e5f6f7" />
				<outline color="000080" />
				<font color="000000" name="MS Sans Serif" size="8" />
				<position>827 91 884 126</position>
			</node>
			<node id="dist">
				<name>dist</name>
				<interior color="e5f6f7" />
				<outline color="000080" />
				<font color="000000" name="MS Sans Serif" size="8" />
				<position>599 137 637 160</position>
			</node>
			<node id="p1_gesture">
				<name>p1_gesture</name>
				<interior color="e5f6f7" />
				<outline color="000080" />
				<font color="000000" name="MS Sans Serif" size="8" />
				<position>248 271 316 313</position>
			</node>
			<node id="p2_gesture">
				<name>p2_gesture</name>
				<interior color="e5f6f7" />
				<outline color="000080" />
				<font color="000000" name="MS Sans Serif" size="8" />
				<position>964 312 1032 354</position>
			</node>
			<node id="p1_head">
				<name>p1_head</name>
				<interior color="e5f6f7" />
				<outline color="000080" />
				<font color="000000" name="MS Sans Serif" size="8" />
				<position>528 80 585 115</position>
			</node>
		</genie>
	</extensions>
</smile>
